1.134711666963994503e-03
9.460986475460231304e-04
-2.850022166967391968e-03
-3.073067171499133110e-03
1.356418128125369549e-03
3.497780300676822662e-03
-3.972580452682450414e-05
5.101311835460364819e-04
4.368002526462078094e-03
-2.860169915948063135e-04
-1.398422406055033207e-03
-3.338134614750742912e-03
4.816622473299503326e-03
1.690593664534389973e-03
2.024626155616715550e-04
1.505421096226200461e-04
-8.904844871722161770e-04
4.276413819752633572e-04
-1.246250118128955364e-03
2.124267397448420525e-03
5.382949020713567734e-03
6.762897828593850136e-04
7.935104891657829285e-03
-7.969161961227655411e-04
4.300227854400873184e-03
-4.327987553551793098e-04
2.206870587542653084e-03
-4.910254501737654209e-04
-3.618371207267045975e-03
-1.468415372073650360e-03
-1.160610117949545383e-03
1.433596364222466946e-03
-2.584433532319962978e-04
3.233189461752772331e-03
2.284917281940579414e-03
-1.130206394009292126e-03
-9.892164962366223335e-04
7.152253529056906700e-04
-2.193770138546824455e-03
4.970385227352380753e-03
1.606619101949036121e-03
-3.861550707370042801e-03
5.169336218386888504e-03
1.509256428107619286e-03
3.379210829734802246e-03
1.943382783792912960e-03
-1.657609129324555397e-03
-8.916642400436103344e-04
4.645170178264379501e-03
-1.743466942571103573e-03
-4.504681273829191923e-04
2.683459548279643059e-03
-2.348171081393957138e-03
1.108584110625088215e-03
1.607942860573530197e-03
3.859792603179812431e-03
1.968781929463148117e-03
-6.929369556019082665e-05
2.306620124727487564e-03
8.060432039201259613e-03
-1.704970840364694595e-03
1.255398034118115902e-03
1.445600762963294983e-03
7.406896329484879971e-04
-1.818775315769016743e-03
7.371757179498672485e-03
1.551945228129625320e-03
1.297382405027747154e-03
7.215432357043027878e-03
-2.141113654943183064e-04
-1.073639839887619019e-03
-4.675950040109455585e-04
2.375213894993066788e-03
1.403419882990419865e-03
-3.229346126317977905e-03
-7.359532173722982407e-05
2.567339921370148659e-03
-1.721817068755626678e-03
2.818801440298557281e-03
-3.183030639775097370e-04
4.417206946527585387e-05
2.076232107356190681e-03
-4.793166182935237885e-03
-1.315349829383194447e-03
7.001958438195288181e-04
5.378116038627922535e-04
5.862674210220575333e-03
8.916103397496044636e-04
-6.514397100545465946e-04
8.928301976993680000e-04
-5.314838490448892117e-04
-2.710355911403894424e-03
9.007169865071773529e-05
1.493382384069263935e-03
-4.157488001510500908e-04
2.642248058691620827e-03
3.568637883290648460e-03
-1.395647181198000908e-03
9.586270898580551147e-04
5.509842303581535816e-04
8.494470268487930298e-03
2.408829517662525177e-03
-5.509444046765565872e-03
-2.961767138913273811e-03
-1.173792523331940174e-03
3.623037133365869522e-03
2.409257227554917336e-03
3.188463626429438591e-03
-2.615821082144975662e-03
-4.579090047627687454e-03
8.170409710146486759e-04
2.835853025317192078e-03
-8.841739618219435215e-04
6.189243402332067490e-03
-3.243462706450372934e-04
-3.367764176800847054e-03
1.189042115584015846e-03
-1.278512529097497463e-03
-3.905621822923421860e-03
1.586429425515234470e-03
1.390098710544407368e-03
2.285264199599623680e-03
2.112552989274263382e-03
1.011040876619517803e-03
-1.908042351715266705e-03
6.732582696713507175e-04
-2.598386723548173904e-03
2.857740968465805054e-03
9.282218525186181068e-04
6.436068098992109299e-03
-2.070945483865216374e-04
5.880866665393114090e-03
-2.321058127563446760e-05
-1.172335003502666950e-03
6.633501034229993820e-03
-1.115708844736218452e-03
-3.199656726792454720e-03
3.139864187687635422e-03
2.475311281159520149e-03
-3.259227378293871880e-03
-8.553217048756778240e-04
5.788106936961412430e-03
-1.733851735480129719e-03
-2.032597782090306282e-03
5.186432506889104843e-03
6.699403282254934311e-03
7.259075064212083817e-04
-1.179592916741967201e-03
6.709867622703313828e-03
2.157653216272592545e-03
2.869045361876487732e-03
2.479794668033719063e-03
-1.954633975401520729e-03
1.738744555041193962e-03
4.279544577002525330e-03
3.589550731703639030e-03
3.933232277631759644e-03
2.917320467531681061e-03
-1.486373133957386017e-03
-8.600073633715510368e-04
2.407501684501767159e-03
7.346361875534057617e-03
-2.830787794664502144e-03
3.203198546543717384e-03
4.550887737423181534e-03
3.423397662118077278e-03
-1.976763596758246422e-03
4.502399824559688568e-03
-3.997427411377429962e-03
8.943873457610607147e-03
1.623889082111418247e-03
-1.865237951278686523e-03
-2.239776775240898132e-03
-2.255999483168125153e-03
3.750262083485722542e-03
1.336034387350082397e-03
-4.732226661872118711e-04
9.935505222529172897e-04
8.809888386167585850e-04
8.676980542077217251e-06
1.290849782526493073e-02
3.652984276413917542e-03
-4.052938020322471857e-04
-4.896802129223942757e-04
-8.155172108672559261e-04
1.534368930151686072e-04
8.693815325386822224e-04
-1.370931393466889858e-03
2.840567613020539284e-03
-4.758990835398435593e-04
4.046915099024772644e-03
-2.061342820525169373e-03
2.816334832459688187e-03
1.402329886332154274e-03
2.370185684412717819e-03
-4.712824709713459015e-03
3.407419193536043167e-03
5.538093857467174530e-03
2.299358835443854332e-03
-1.567264407640323043e-04
2.421610523015260696e-03
-8.855665219016373158e-04
1.069220888894051313e-04
6.643019150942564011e-04
1.461142324842512608e-03
1.813322422094643116e-03
-1.958871027454733849e-03
-1.766570028848946095e-03
7.267388864420354366e-04
1.727865892462432384e-03
4.183086566627025604e-04
8.646355941891670227e-03
-2.030937757808715105e-04
1.418069237843155861e-03
-1.551532535813748837e-03
4.546657204627990723e-03
-1.122981309890747070e-03
1.823333295760676265e-04
2.199164824560284615e-03
-9.768942836672067642e-04
2.594649267848581076e-04
2.217329893028363585e-04
5.615743342787027359e-03
1.612468739040195942e-03
3.141029505059123039e-03
-3.849854459986090660e-03
9.328275918960571289e-04
9.546883520670235157e-04
4.155146889388561249e-04
-4.031556192785501480e-03
2.512207720428705215e-03
-1.509333145804703236e-03
1.903487020172178745e-03
-1.448376104235649109e-03
-1.975816441699862480e-03
-2.259826753288507462e-03
3.458878491073846817e-03
-3.801629645749926567e-04
3.615114372223615646e-03
-4.703365731984376907e-03
-4.279744171071797609e-04
6.237453781068325043e-04
4.747249186038970947e-03
2.144041238352656364e-03
-1.745715737342834473e-03
-1.786559121683239937e-03
1.360007910989224911e-03
-2.297588362125679851e-04
2.921835519373416901e-03
3.321058349683880806e-03
3.101901384070515633e-03
-1.235555973835289478e-03
3.726265858858823776e-03
5.286443629302084446e-04
4.692153306677937508e-04
-3.272977424785494804e-03
-2.660789061337709427e-03
-2.608685754239559174e-03
-1.022283104248344898e-03
-2.123176353052258492e-03
-1.034327433444559574e-03
-1.624906784854829311e-03
1.763263717293739319e-03
2.276337181683629751e-04
-5.672385450452566147e-04
-2.649458358064293861e-03
1.906227698782458901e-04
4.283221205696463585e-04
2.396484342170879245e-04
-6.040300359018146992e-04
-8.840840309858322144e-04
5.934651126153767109e-04
4.384535364806652069e-03
-1.130545628257095814e-03
1.387389376759529114e-03
2.096348674967885017e-03
-6.076365825720131397e-04
-5.375212640501558781e-04
-2.298253821209073067e-04
6.961702456464990973e-05
2.766596386209130287e-03
1.636925735510885715e-04
1.575523638166487217e-03
3.213926451280713081e-03
4.734374582767486572e-03
2.088753273710608482e-03
-4.449803091119974852e-04
-1.558054471388459206e-03
2.713021822273731232e-03
2.643225714564323425e-03
3.287093946710228920e-03
-5.734925507567822933e-04
7.460576016455888748e-04
2.463383716531097889e-04
1.352704362943768501e-03
-1.317148329690098763e-03
3.147918730974197388e-03
3.817463584709912539e-04
-3.152129007503390312e-03
2.095444826409220695e-03
6.316348444670438766e-04
-1.381624024361371994e-03
-3.695839259307831526e-04
5.542301107197999954e-03
2.180078066885471344e-03
3.537719603627920151e-03
1.814306247979402542e-03
9.411507926415652037e-05
-1.159471808932721615e-03
-7.031096029095351696e-04
7.910971762612462044e-04
-5.249361507594585419e-03
-1.870194100774824619e-03
5.033674184232950211e-03
-1.365314587019383907e-03
3.881511511281132698e-03
-2.125642728060483932e-03
1.226003660121932626e-04
5.674106068909168243e-04
-3.545683110132813454e-03
-1.778622041456401348e-03
4.392213595565408468e-04
-5.418302607722580433e-04
-1.674295985139906406e-03
-4.050584975630044937e-03
-3.183670807629823685e-03
4.581874702125787735e-03
2.073354087769985199e-03
1.056164968758821487e-03
8.469419553875923157e-04
-1.036591711454093456e-03
1.396004343405365944e-03
-9.418794070370495319e-05
2.277509542182087898e-03
-2.762328600510954857e-03
-4.024901892989873886e-03
1.619906863197684288e-03
-1.191240426123840734e-05
2.611638279631733894e-03
5.858596879988908768e-03
3.179528983309864998e-03
1.729588257148861885e-03
-1.422574976459145546e-03
-8.772341534495353699e-04
-2.645599655807018280e-03
4.567060153931379318e-03
2.772486535832285881e-03
3.633318236097693443e-03
3.951865248382091522e-03
2.599170198664069176e-03
3.969860554207116365e-04
1.715361140668392181e-03
6.022089626640081406e-03
-2.030786126852035522e-04
3.640123410150408745e-03
-3.451319062151014805e-04
2.165172714740037918e-03
3.414109116420149803e-03
5.717579624615609646e-04
3.833237569779157639e-04
2.465072087943553925e-03
1.558502553962171078e-03
-1.081842579878866673e-03
3.339784918352961540e-03
-1.700974884442985058e-03
-9.313787450082600117e-04
4.180968739092350006e-03
-2.271309029310941696e-03
2.092023845762014389e-03
6.486561615020036697e-04
1.656664768233895302e-03
-1.177710946649312973e-03
2.121720695868134499e-03
9.397612302564084530e-04
1.407225849106907845e-03
1.428550225682556629e-03
2.567292191088199615e-03
-1.285764737986028194e-04
2.822748851031064987e-03
4.588671028614044189e-03
-3.492209361866116524e-03
2.204508055001497269e-03
-1.522283419035375118e-03
1.254174043424427509e-03
4.964829888194799423e-03
1.605142606422305107e-03
5.134612438268959522e-04
1.162487664259970188e-03
5.318192299455404282e-03
4.915406927466392517e-03
1.003585173748433590e-03
1.405036076903343201e-03
-4.739705473184585571e-03
3.733078716322779655e-03
4.430432338267564774e-03
4.055619239807128906e-03
-1.166480244137346745e-03
1.486053806729614735e-03
-1.766431261785328388e-03
2.815822837874293327e-03
-1.112943515181541443e-03
4.332111217081546783e-03
-2.011859090998768806e-03
6.336953490972518921e-03
-3.094094339758157730e-03
5.001126322895288467e-03
-3.233064431697130203e-03
7.532085757702589035e-03
1.183566171675920486e-02
2.305634319782257080e-03
-4.217851907014846802e-03
5.765208508819341660e-03
1.682042144238948822e-03
8.217807859182357788e-03
-8.359939092770218849e-04
3.394701052457094193e-03
3.935465123504400253e-03
-1.512629532953724265e-04
-1.808889792300760746e-03
4.953099880367517471e-03
1.933919847942888737e-03
-2.020593965426087379e-03
-1.374028506688773632e-03
2.540778601542115211e-03
-1.379717607051134109e-03
3.198720980435609818e-03
-5.576187395490705967e-04
3.058434464037418365e-03
2.420004690065979958e-03
-3.128031501546502113e-03
-3.416143124923110008e-03
1.492573064751923084e-03
4.257731139659881592e-03
-3.338405163958668709e-03
5.133627913892269135e-03
1.675332314334809780e-03
-1.438680686987936497e-03
-1.246189000084996223e-03
3.699979046359658241e-03
-4.624252687790431082e-05
9.169289260171353817e-04
1.465669774916023016e-04
-1.103193266317248344e-03
-3.104213625192642212e-03
5.480789579451084137e-03
2.920473227277398109e-03
-1.416925340890884399e-03
3.776021301746368408e-03
3.769380738958716393e-03
1.171633539343019947e-05
2.760307863354682922e-03
4.809453617781400681e-03
-2.198129222961142659e-04
-2.720131538808345795e-03
2.308703958988189697e-03
-4.632954951375722885e-03
5.342799238860607147e-03
2.008859533816576004e-03
-3.997403837274760008e-04
-2.303513465449213982e-03
-3.499736485537141562e-04
4.966650740243494511e-04
6.716131465509533882e-04
-6.688312278129160404e-04
2.643477637320756912e-04
-8.110764902085065842e-04
1.071873470209538937e-03
1.087557291612029076e-03
-1.425878261215984821e-03
-2.564225578680634499e-03
-4.247094038873910904e-04
2.847522864612983540e-06
6.831726059317588806e-04
3.829441266134381294e-04
-4.507131816353648901e-04
-2.043832500930875540e-05
-1.233877614140510559e-03
6.154626142233610153e-03
6.245439406484365463e-03
2.184075536206364632e-03
3.170918440446257591e-03
-1.689005992375314236e-03
-2.863906556740403175e-03
1.745960209518671036e-03
5.535622593015432358e-03
2.317776205018162727e-03
1.204205560497939587e-03
2.962545258924365044e-03
6.065723020583391190e-03
1.622673153178766370e-04
2.104664919897913933e-03
-5.351175554096698761e-03
4.154768539592623711e-04
8.880752138793468475e-04
-2.289925003424286842e-03
-3.050122875720262527e-03
-3.770691109821200371e-04
1.957285916432738304e-03
5.560651770792901516e-04
-9.115771972574293613e-04
2.409528009593486786e-03
-2.763904863968491554e-03
-3.782941726967692375e-03
1.327267498709261417e-03
-1.756506972014904022e-04
6.089767906814813614e-03
9.463998139835894108e-04
-5.293174181133508682e-04
-3.369863261468708515e-04
1.580316456966102123e-03
3.537109820172190666e-03
-6.704223342239856720e-04
