1.491883740527555346e-04
-1.618820097064599395e-04
-3.294922877103090286e-03
-2.598242135718464851e-04
1.217306475155055523e-03
4.478574264794588089e-03
5.031097214668989182e-03
4.105654370505362749e-04
4.773770924657583237e-03
-9.581702179275453091e-04
1.158762141130864620e-03
-2.842830959707498550e-03
6.095646414905786514e-03
2.748208353295922279e-03
1.367130316793918610e-04
2.033554948866367340e-03
-1.488558948040008545e-03
1.970642944797873497e-03
1.069090911187231541e-03
3.793985815718770027e-03
6.192729342728853226e-03
8.283809293061494827e-04
1.176191773265600204e-02
2.474044449627399445e-03
4.000263754278421402e-03
-1.581725897267460823e-03
2.105161081999540329e-03
-2.388895954936742783e-03
-5.399996880441904068e-03
-1.854825241025537252e-04
-1.657975721172988415e-03
2.390622626990079880e-03
-3.262957558035850525e-03
6.146941334009170532e-03
2.784304320812225342e-03
-1.902128104120492935e-03
-5.276295123621821404e-04
3.076644788961857557e-04
-1.954208360984921455e-03
5.214940290898084641e-03
1.777285069692879915e-04
-3.666354808956384659e-03
6.229975726455450058e-03
2.848929958418011665e-03
5.452984943985939026e-03
-3.858412965200841427e-04
-2.938030520454049110e-03
-1.079164067050442100e-04
8.068354800343513489e-03
-3.300929674878716469e-03
-1.540099037811160088e-03
5.505010951310396194e-03
-2.494908403605222702e-03
3.816507523879408836e-03
3.087169490754604340e-03
3.645964665338397026e-03
2.791989827528595924e-03
-1.036204514093697071e-03
2.310412470251321793e-03
9.319061413407325745e-03
-4.141301033087074757e-04
4.446706268936395645e-03
3.501932835206389427e-03
3.914705011993646622e-03
-4.525225609540939331e-03
7.921139709651470184e-03
5.978919565677642822e-03
-9.898516582325100899e-04
7.066990248858928680e-03
-8.841989911161363125e-04
-1.774301053956151009e-03
-1.375224092043936253e-04
2.622278872877359390e-03
3.571813926100730896e-03
-3.124890616163611412e-03
4.508674610406160355e-04
5.677194800227880478e-03
-1.014257897622883320e-03
2.205474535003304482e-03
1.582210185006260872e-03
3.499666927382349968e-04
2.022182336077094078e-03
-6.391711998730897903e-03
-1.266972743906080723e-03
2.364081330597400665e-03
2.822690410539507866e-03
7.141101174056529999e-03
1.396289095282554626e-03
-1.133537385612726212e-03
1.512124668806791306e-03
9.768877644091844559e-04
-3.079705638810992241e-03
1.692383782938122749e-03
1.832094276323914528e-03
3.049638355150818825e-03
6.748915649950504303e-03
5.522404797375202179e-03
-3.137998050078749657e-03
5.034950561821460724e-03
4.241479909978806973e-04
1.508514024317264557e-02
4.348854534327983856e-03
-6.177392788231372833e-03
-1.176377991214394569e-03
-2.904073335230350494e-03
3.965255338698625565e-03
1.536433817818760872e-03
5.504946690052747726e-03
-2.428255742415785789e-03
-4.931338131427764893e-03
2.622682601213455200e-03
9.994795545935630798e-04
1.761956373229622841e-03
7.576616015285253525e-03
-1.421874272637069225e-03
-3.056902671232819557e-03
1.573983812704682350e-03
2.881883665395434946e-05
-4.851824603974819183e-03
1.646927674300968647e-03
1.440099091269075871e-03
5.048398394137620926e-03
2.852200763300061226e-03
2.298035193234682083e-03
-3.416707273572683334e-03
2.343595697311684489e-04
-4.821861162781715393e-03
4.949571099132299423e-03
6.037782877683639526e-04
6.940716411918401718e-03
-2.085744403302669525e-03
9.853621944785118103e-03
-1.919728005304932594e-03
-9.356242662761360407e-05
7.965104654431343079e-03
-2.375131734879687428e-04
-3.870868356898427010e-03
3.611645894125103951e-03
3.642350202426314354e-03
-2.502500545233488083e-03
-2.912546042352914810e-03
7.426314521580934525e-03
-3.814476076513528824e-04
-2.806999022141098976e-03
5.555772688239812851e-03
8.918745443224906921e-03
2.101215533912181854e-03
-1.321082236245274544e-03
8.145432919263839722e-03
1.812979578971862793e-03
6.048232316970825195e-03
3.495121141895651817e-03
-2.677205950021743774e-03
6.504219491034746170e-04
3.620167495682835579e-03
3.819277044385671616e-03
5.759436637163162231e-03
5.265289917588233948e-03
-2.334311138838529587e-03
-2.050910377874970436e-03
4.618023987859487534e-03
1.071373559534549713e-02
-2.870575059205293655e-03
6.886692717671394348e-03
6.501111201941967010e-03
2.879711566492915154e-03
-2.855481114238500595e-03
6.569170858711004257e-03
-6.691307760775089264e-03
1.043800357729196548e-02
3.978654276579618454e-03
5.548890330828726292e-04
-2.007350325584411621e-03
-2.431594301015138626e-03
6.394457537680864334e-03
1.855853479355573654e-04
-1.313794346060603857e-04
-1.218160323332995176e-04
2.067190129309892654e-03
1.425474765710532665e-04
1.601047813892364502e-02
2.212405670434236526e-03
6.516395951621234417e-04
1.121425535529851913e-03
1.670273835770785809e-03
6.979778991080820560e-04
7.401191978715360165e-04
-5.382680334150791168e-03
4.789954051375389099e-03
5.172993769519962370e-05
4.554712679237127304e-03
-4.528638441115617752e-03
5.058404523879289627e-03
-7.785025518387556076e-04
4.953128751367330551e-03
-6.183085497468709946e-03
6.485409568995237350e-03
6.984165403991937637e-03
1.101041911169886589e-03
-3.843246668111532927e-04
3.044307697564363480e-03
-8.052824996411800385e-04
1.610370120033621788e-03
1.614197040908038616e-03
3.092373721301555634e-03
2.658535027876496315e-03
-3.406817559152841568e-03
-1.607825543032959104e-04
-2.213504863902926445e-03
2.331101102754473686e-03
2.188874408602714539e-03
7.516133133322000504e-03
1.911969273351132870e-03
6.048016439308412373e-05
-2.593505196273326874e-03
6.468557287007570267e-03
-5.349101265892386436e-04
1.094448962248861790e-03
1.789071480743587017e-03
-1.361887436360120773e-03
1.952004386112093925e-04
2.189073129557073116e-04
6.933454424142837524e-03
3.372744249645620584e-04
6.025562994182109833e-03
-4.885429516434669495e-03
4.927744885208085179e-05
2.707780804485082626e-03
2.148260362446308136e-03
-4.158286377787590027e-03
4.121774807572364807e-03
-1.817030250094830990e-03
2.445344580337405205e-03
-1.553888898342847824e-03
-1.148870680481195450e-03
-1.908060861751437187e-03
4.025075584650039673e-03
-1.959865621756762266e-04
5.000209435820579529e-03
-7.697362452745437622e-03
-1.370274228975176811e-03
6.431271904148161411e-04
8.228136226534843445e-03
-3.555488656274974346e-04
-1.406370080076158047e-03
-3.425227012485265732e-03
2.685934305191040039e-03
5.911093903705477715e-04
3.062969772145152092e-03
7.743209134787321091e-04
4.508539568632841110e-03
-2.132442081347107887e-03
6.294417195022106171e-03
1.669253455474972725e-03
2.370069036260247231e-03
-3.203406697139143944e-03
-2.019291743636131287e-03
-2.979188458994030952e-03
-1.065983553417026997e-03
-3.256360534578561783e-03
-1.615347573533654213e-03
-2.188535407185554504e-03
3.931161947548389435e-03
-3.603324992582201958e-03
-1.710845390334725380e-03
-3.810020862147212029e-03
2.037517726421356201e-03
-1.468339632992865518e-05
4.003821813967078924e-04
-5.513430223800241947e-04
-4.222667310386896133e-03
9.639236377552151680e-04
6.383215077221393585e-03
3.281321260146796703e-04
9.994189167628064752e-05
-2.047767047770321369e-04
-3.788985777646303177e-04
-3.711541648954153061e-04
2.749039325863122940e-03
-6.315007922239601612e-04
8.505312143824994564e-05
-2.312738943146541715e-04
-5.493319476954638958e-04
4.870334640145301819e-03
5.172010511159896851e-03
1.795080956071615219e-03
-2.193511863879393786e-05
-1.112882862798869610e-03
3.123377216979861259e-03
2.304348163306713104e-03
1.848708256147801876e-03
7.826173678040504456e-04
1.521098194643855095e-03
3.366062184795737267e-03
1.943118404597043991e-03
-2.668185159564018250e-03
3.567230654880404472e-03
-2.274575177580118179e-03
-4.101587925106287003e-03
3.134297439828515053e-03
8.461797260679304600e-04
-2.986585721373558044e-03
8.328714175149798393e-04
3.880753647536039352e-03
7.147469441406428814e-04
3.402061993256211281e-03
1.283591846004128456e-03
-6.899000145494937897e-04
3.902947762981057167e-03
6.870990036986768246e-04
2.340825041756033897e-03
-6.033801008015871048e-03
-3.344227792695164680e-03
5.953578278422355652e-03
6.531040417030453682e-04
4.848966374993324280e-03
-1.995345577597618103e-03
-6.640540668740868568e-04
2.805107214953750372e-04
-3.731934353709220886e-03
-2.580668777227401733e-03
7.283833692781627178e-04
-4.913075827062129974e-04
-2.084883162751793861e-03
-4.925115499645471573e-03
-5.080941598862409592e-03
4.548978526145219803e-03
4.832256585359573364e-03
-3.082864277530461550e-04
9.876511758193373680e-04
1.226510037668049335e-03
2.199277747422456741e-03
5.839820460096234456e-06
5.058090202510356903e-03
-3.178304294124245644e-03
-6.232091691344976425e-03
2.933664713054895401e-03
-2.611861331388354301e-03
2.072338247671723366e-03
8.341114036738872528e-03
3.048864193260669708e-03
1.618973328731954098e-03
-2.808166434988379478e-03
-1.198565820232033730e-03
-5.145794712007045746e-03
5.492732860147953033e-03
3.433444304391741753e-03
2.353933639824390411e-03
6.210801191627979279e-03
6.190190557390451431e-03
1.363761693937703967e-04
4.280019551515579224e-03
8.552631363272666931e-03
-3.501892497297376394e-04
7.326732855290174484e-03
5.235936259850859642e-04
1.776680699549615383e-03
4.405593965202569962e-03
1.165486290119588375e-03
-7.522132946178317070e-04
4.827032797038555145e-03
3.152615390717983246e-03
1.782131381332874298e-03
2.056095981970429420e-03
-3.407401891308836639e-05
-1.453901757486164570e-03
7.206349633634090424e-03
-1.634617801755666733e-03
3.309862222522497177e-03
-9.523476473987102509e-04
4.830528050661087036e-03
-4.672754148487001657e-04
2.914337208494544029e-03
-4.126360581722110510e-04
5.239411257207393646e-03
4.865670576691627502e-03
4.187207203358411789e-03
2.279399195685982704e-04
4.342748317867517471e-03
9.622169658541679382e-03
-6.072553806006908417e-03
2.199080539867281914e-03
-2.305702771991491318e-03
2.995880320668220520e-03
5.344256758689880371e-03
2.558281703386455774e-04
2.632633550092577934e-04
1.597375376150012016e-03
8.541123010218143463e-03
8.196838200092315674e-03
1.776588731445372105e-03
1.499307341873645782e-03
-6.109443493187427521e-03
2.317620208486914635e-03
2.914447337388992310e-03
6.703386548906564713e-03
-4.308567731641232967e-04
3.888816805556416512e-03
1.938815694302320480e-03
2.965793479233980179e-03
1.452472060918807983e-04
7.935112342238426208e-03
-1.866549020633101463e-03
6.366446614265441895e-03
-1.551731606014072895e-03
5.402596667408943176e-03
-4.945604596287012100e-03
8.788498118519783020e-03
1.637359336018562317e-02
1.205930137075483799e-03
-5.364838056266307831e-03
8.466600440442562103e-03
2.242565387859940529e-03
1.198859419673681259e-02
-3.330697945784777403e-04
8.065594360232353210e-03
2.887609647586941719e-03
3.481139428913593292e-04
-2.814438485074788332e-04
4.772560205310583115e-03
4.195183981209993362e-03
-2.202658914029598236e-03
5.451796823763288558e-05
3.916323184967041016e-03
-2.368243644014000893e-03
3.494255011901259422e-03
-2.348994836211204529e-03
5.430576857179403305e-03
1.242356840521097183e-03
-2.482825890183448792e-03
-3.595342161133885384e-03
-1.985265640541911125e-03
3.845415543764829636e-03
-3.304816316813230515e-03
6.726086605340242386e-03
3.011433640494942665e-03
-2.802263479679822922e-04
9.115327848121523857e-04
6.283733528107404709e-03
2.185253193601965904e-03
-5.667862933478318155e-05
-1.504386600572615862e-04
-1.194786629639565945e-03
-5.249156150966882706e-03
8.820500224828720093e-03
4.958272911608219147e-03
1.142659923061728477e-03
3.668004646897315979e-03
2.431347733363509178e-03
6.551804835908114910e-04
3.965154290199279785e-03
8.462854661047458649e-03
1.606697565875947475e-03
-1.738453633151948452e-03
9.565179934725165367e-04
-5.478559993207454681e-03
5.670437589287757874e-03
2.227124990895390511e-03
-5.608412902802228928e-04
-9.875694522634148598e-04
6.614971207454800606e-04
-4.258565895725041628e-04
3.211943898350000381e-03
4.555698484182357788e-03
2.687744563445448875e-03
-1.096308929845690727e-03
7.989025325514376163e-04
2.602323424071073532e-03
-2.140891039744019508e-03
-2.531808102503418922e-03
-1.273847417905926704e-03
-2.413124020677059889e-04
3.551128611434251070e-04
-4.840983310714364052e-04
-2.541246125474572182e-03
1.223269500769674778e-03
-1.562614459544420242e-03
5.085852462798357010e-03
6.818098481744527817e-03
2.327208872884511948e-03
4.590901546180248260e-03
-5.090550403110682964e-04
-3.211488947272300720e-03
4.350048955529928207e-03
6.412118673324584961e-03
3.563309088349342346e-03
1.798350131139159203e-03
5.752399563789367676e-03
9.917021729052066803e-03
4.683492006734013557e-04
4.985760315321385860e-04
-6.162033881992101669e-03
1.303980941884219646e-03
1.416057115420699120e-03
-3.439926658757030964e-04
-1.667288015596568584e-03
8.510038023814558983e-04
3.495536046102643013e-03
-1.992147736018523574e-04
-1.192571595311164856e-03
3.002493642270565033e-03
-3.325561061501502991e-03
-6.485676858574151993e-03
9.710427839308977127e-04
-5.088135949335992336e-04
7.030873093754053116e-03
4.529816098511219025e-03
-2.023604698479175568e-03
-1.855261158198118210e-03
1.774087548255920410e-03
3.129297401756048203e-03
-1.340440707281231880e-03
