6.977475131861865520e-04
1.159266568720340729e-02
-1.847024657763540745e-03
-1.695669256150722504e-02
2.525480650365352631e-02
1.354825589805841446e-02
1.684183068573474884e-02
-7.708168588578701019e-03
-5.941714160144329071e-03
-2.793426997959613800e-02
-8.601510897278785706e-03
-2.718819491565227509e-02
-2.028002636507153511e-03
-8.647932671010494232e-03
8.284701034426689148e-03
5.412321537733078003e-03
8.779897354543209076e-03
3.102601133286952972e-02
-1.153171062469482422e-02
2.605142816901206970e-02
-2.798780985176563263e-02
5.783038679510354996e-03
1.546680834144353867e-02
-1.654776558279991150e-02
-1.055187359452247620e-02
-1.566191203892230988e-02
-8.715979754924774170e-03
-2.281434088945388794e-02
-1.427403744310140610e-02
-3.852022578939795494e-03
-1.460209954530000687e-02
-2.427992038428783417e-02
-2.813771180808544159e-02
-1.005033310502767563e-02
7.987131364643573761e-03
1.516405399888753891e-02
-4.443598663783632219e-05
-2.712626382708549500e-02
8.851296151988208294e-04
2.299572527408599854e-02
-2.656549401581287384e-02
5.612424574792385101e-03
6.510807666927576065e-03
-1.248256396502256393e-02
2.751968055963516235e-02
2.147539146244525909e-02
-2.259281231090426445e-03
-1.845977082848548889e-02
3.064158558845520020e-02
2.348305471241474152e-02
4.346375062596052885e-04
4.595485981553792953e-03
-1.620029099285602570e-02
-1.091489475220441818e-02
-2.101743593811988831e-02
-2.985228784382343292e-02
-8.253596606664359570e-04
-2.428558841347694397e-02
3.690887242555618286e-04
2.500933967530727386e-02
2.590918913483619690e-02
-2.332582697272300720e-02
1.991864293813705444e-02
-1.482744794338941574e-02
-2.108360640704631805e-02
2.229630015790462494e-02
1.483931019902229309e-02
-3.066526725888252258e-02
7.806207519024610519e-03
3.920673392713069916e-03
-2.997367270290851593e-02
2.151008322834968567e-02
1.970872096717357635e-02
-7.489139679819345474e-03
-7.560779340565204620e-03
-1.891455240547657013e-02
1.407818775624036789e-02
-1.139922067523002625e-02
1.392262335866689682e-02
8.111806586384773254e-03
-2.488671801984310150e-03
-4.532896273303776979e-04
-1.076031912816688418e-04
-1.744445413351058960e-02
-1.036318391561508179e-02
9.195696911774575710e-04
-5.396538879722356796e-03
6.018023937940597534e-03
2.384387329220771790e-02
3.112440742552280426e-02
1.862412318587303162e-02
2.770215645432472229e-02
-9.703373536467552185e-03
8.364017121493816376e-03
3.073198348283767700e-02
1.763816364109516144e-02
1.905504800379276276e-02
-1.393326185643672943e-02
1.127300690859556198e-02
3.951741848140954971e-03
2.768595516681671143e-02
-1.547319628298282623e-02
-7.235502824187278748e-03
-2.690050005912780762e-02
-1.347133237868547440e-02
-1.303850207477807999e-02
6.695338524878025055e-03
-2.457050234079360962e-02
-1.415139622986316681e-02
-1.287929154932498932e-02
-4.724651575088500977e-03
-1.746454089879989624e-02
-2.766612544655799866e-02
4.652102012187242508e-03
2.468141168355941772e-02
6.542107556015253067e-03
4.057663958519697189e-03
1.657125726342201233e-02
3.120505623519420624e-02
-2.423118427395820618e-02
-7.169187534600496292e-03
7.771096657961606979e-03
1.623712293803691864e-02
-3.098212415352463722e-03
8.751983405090868473e-04
-6.300787907093763351e-03
-1.572669716551899910e-03
1.261013466864824295e-02
2.992045134305953979e-02
1.018916629254817963e-02
-2.033097669482231140e-02
-2.744464948773384094e-02
7.632377557456493378e-03
-1.734560169279575348e-02
8.375494740903377533e-03
1.272451016120612621e-03
2.347661368548870087e-02
1.183908712118864059e-02
-3.403124166652560234e-03
2.442841790616512299e-02
1.870466023683547974e-02
-1.688844151794910431e-02
-2.285476028919219971e-02
-3.090439178049564362e-02
-2.295905258506536484e-03
1.225254847668111324e-03
2.654686570167541504e-02
1.617861725389957428e-02
2.810811251401901245e-02
-1.305384840816259384e-02
6.874597165733575821e-03
-2.408812753856182098e-02
2.532652392983436584e-02
4.272226244211196899e-03
8.142478764057159424e-03
1.075415685772895813e-02
4.009289667010307312e-03
-1.659644022583961487e-02
-3.101983852684497833e-02
-3.072353824973106384e-02
1.100914645940065384e-02
2.460601553320884705e-02
-1.642930507659912109e-02
1.093206182122230530e-02
8.287580683827400208e-03
3.114302270114421844e-02
-2.306045964360237122e-02
2.157247252762317657e-02
-2.349025756120681763e-02
2.767888270318508148e-02
1.860325341112911701e-03
1.193025242537260056e-02
1.007703505456447601e-02
3.065564669668674469e-02
-2.439395524561405182e-02
-1.215339731425046921e-02
-1.696784608066082001e-02
-3.495793556794524193e-03
1.470916997641324997e-02
2.428353764116764069e-02
1.176179759204387665e-02
-2.481516078114509583e-02
9.076981805264949799e-03
2.843606099486351013e-02
-1.074247341603040695e-02
-9.827635250985622406e-03
-3.858101088553667068e-03
2.051858976483345032e-02
1.711665280163288116e-02
-2.820210158824920654e-02
1.907348260283470154e-02
-2.342395856976509094e-02
-2.333982847630977631e-02
-9.787849150598049164e-03
1.012287382036447525e-02
1.552975084632635117e-02
-1.253987569361925125e-02
-2.438953705132007599e-02
-1.767459325492382050e-02
-1.799984835088253021e-02
-4.708627704530954361e-03
-5.652515217661857605e-03
-2.052451670169830322e-02
-2.712226286530494690e-02
9.506836649961769581e-04
2.194555662572383881e-02
-2.783676981925964355e-02
2.296667732298374176e-02
9.632688947021961212e-03
2.741931192576885223e-02
3.032519295811653137e-02
-2.875366434454917908e-02
-2.274291403591632843e-02
-2.603102847933769226e-02
-1.103783398866653442e-02
-1.598168537020683289e-02
1.734899124130606651e-03
-1.645584218204021454e-02
1.905368827283382416e-02
1.529659330844879150e-02
-7.824778556823730469e-03
1.714837551116943359e-02
5.359062924981117249e-03
1.706082187592983246e-02
7.170480210334062576e-03
2.135938778519630432e-02
-1.102690864354372025e-02
-1.586161367595195770e-02
-1.638772524893283844e-02
-3.116734884679317474e-02
1.547462679445743561e-02
-7.225822657346725464e-03
-1.803659601137042046e-03
-3.069612756371498108e-02
-1.140710897743701935e-02
4.075116477906703949e-03
9.257258847355842590e-03
-1.621631160378456116e-02
-2.212014794349670410e-02
-2.674326486885547638e-02
1.328506041318178177e-02
-9.706066921353340149e-04
2.092760428786277771e-02
-2.816401980817317963e-02
2.262640930712223053e-02
9.542294428683817387e-04
1.289548352360725403e-03
5.560898687690496445e-03
-2.627846412360668182e-02
-1.072766073048114777e-02
-1.878712698817253113e-02
4.450019623618572950e-04
-1.154859643429517746e-02
2.430803515017032623e-02
-3.337849862873554230e-03
-2.714554965496063232e-02
-2.444323711097240448e-02
-2.040178887546062469e-02
5.068263504654169083e-03
1.282927021384239197e-02
-1.624557934701442719e-02
6.033746991306543350e-03
-4.192645195871591568e-03
2.873567119240760803e-02
-1.633037254214286804e-02
-1.995836012065410614e-02
-2.043014392256736755e-02
2.815449237823486328e-02
1.970976404845714569e-02
-1.381647679954767227e-02
4.236248321831226349e-03
2.680756710469722748e-02
9.117542766034603119e-03
2.516811341047286987e-02
1.320042461156845093e-02
1.106944028288125992e-02
2.579998970031738281e-02
3.431304590776562691e-03
-1.176098361611366272e-02
2.476646937429904938e-02
1.001794938929378986e-03
2.534945867955684662e-02
7.958889938890933990e-03
2.224230952560901642e-02
-2.328964322805404663e-02
2.117713168263435364e-02
-3.088737279176712036e-02
2.950678020715713501e-02
2.989388629794120789e-02
1.687474432401359081e-04
-1.832241658121347427e-03
1.793251745402812958e-02
-1.116145681589841843e-02
1.582999527454376221e-02
-7.384185446426272392e-04
-1.910202205181121826e-02
2.886007726192474365e-02
-8.148536086082458496e-03
2.499863691627979279e-02
3.089164756238460541e-02
2.547064609825611115e-02
-8.225064724683761597e-03
1.815836131572723389e-02
2.886869572103023529e-02
3.084065765142440796e-02
1.653745025396347046e-02
1.511300168931484222e-02
-8.690537884831428528e-03
2.291365154087543488e-02
-3.025333210825920105e-02
-5.198524333536624908e-03
-1.398133207112550735e-02
-1.618602685630321503e-02
-3.928855876438319683e-04
1.051045619533397257e-04
1.770680025219917297e-02
4.396858159452676773e-03
-7.670288439840078354e-03
1.189836300909519196e-02
-8.129190537147223949e-04
-9.344364661956205964e-05
9.297214448451995850e-03
3.685770556330680847e-03
-1.877482421696186066e-02
-2.619941160082817078e-02
1.934802718460559845e-02
-1.883570477366447449e-02
2.179678529500961304e-02
1.410055905580520630e-02
1.102719642221927643e-02
-1.011525373905897141e-02
1.557760499417781830e-02
2.614493854343891144e-02
3.114798665046691895e-02
4.700359888374805450e-03
-1.173585280776023865e-02
3.952458035200834274e-03
-2.076641656458377838e-02
-1.347692310810089111e-02
-8.589887991547584534e-03
4.367423709481954575e-03
3.076833672821521759e-02
1.418713852763175964e-02
-9.469448588788509369e-03
1.952232047915458679e-02
-6.376374512910842896e-03
2.170456014573574066e-02
-4.649466834962368011e-03
-6.825169082731008530e-03
8.421657606959342957e-03
9.002169594168663025e-03
2.239568904042243958e-02
-1.821288606151938438e-05
-1.163692120462656021e-02
1.768004521727561951e-02
-2.892530895769596100e-02
2.445791848003864288e-02
2.399670332670211792e-02
1.297319121658802032e-02
-7.764056324958801270e-03
1.462436094880104065e-02
-1.469642855226993561e-02
-2.997198328375816345e-02
-2.499723248183727264e-02
-1.219075638800859451e-02
-2.569607831537723541e-02
-9.473901591263711452e-04
-1.417559664696455002e-02
2.319603413343429565e-02
1.320804003626108170e-02
-9.972271509468555450e-04
1.120922737754881382e-03
2.223367802798748016e-02
-2.531040273606777191e-02
-1.876716502010822296e-02
-8.767506107687950134e-03
1.196294929832220078e-02
5.262485356070101261e-04
-2.817880734801292419e-02
3.892637323588132858e-04
1.767157390713691711e-02
-1.954125612974166870e-02
1.778206042945384979e-02
-2.309583686292171478e-02
3.921876195818185806e-03
8.811722509562969208e-03
-2.480088733136653900e-02
1.481361873447895050e-02
-1.231042086146771908e-03
-1.176185812801122665e-02
-2.851710468530654907e-02
-1.490168273448944092e-02
-4.076513461768627167e-03
-1.195414271205663681e-02
1.536875870078802109e-02
-3.985892515629529953e-03
1.412679348140954971e-02
1.132075674831867218e-02
2.664480172097682953e-02
6.115700118243694305e-03
8.725460618734359741e-03
-3.024980984628200531e-02
-1.490706764161586761e-02
2.865058742463588715e-02
-1.754194870591163635e-02
-1.952910795807838440e-02
-2.392620034515857697e-02
1.944492571055889130e-02
-2.621691860258579254e-02
1.634692586958408356e-02
1.661335863173007965e-02
2.474054135382175446e-02
-4.567497409880161285e-03
-5.124490708112716675e-03
2.899174951016902924e-02
3.004276007413864136e-02
-1.165781449526548386e-02
-5.103865172713994980e-03
6.469998974353075027e-03
1.205695886164903641e-02
1.269868109375238419e-02
-1.775448254193179309e-05
-6.011284422129392624e-03
-1.752201095223426819e-02
2.275508269667625427e-02
3.003910556435585022e-02
1.021559117361903191e-03
-8.263576775789260864e-03
-3.108106739819049835e-02
-1.029227953404188156e-02
6.138355936855077744e-03
1.149848196655511856e-02
1.385273225605487823e-02
2.993847616016864777e-02
6.105409935116767883e-03
1.749818795360624790e-03
4.589115735143423080e-03
-1.439121644943952560e-02
-6.315054837614297867e-03
-4.596685990691184998e-03
6.145466584712266922e-03
2.705092169344425201e-02
-1.860454212874174118e-03
1.796810701489448547e-02
1.443283632397651672e-02
-2.293915674090385437e-02
-5.368473939597606659e-03
8.840326219797134399e-03
-1.038035284727811813e-02
-3.929059952497482300e-03
1.605250313878059387e-02
-1.329476758837699890e-02
-3.894905559718608856e-03
4.005374386906623840e-03
-1.564385928213596344e-02
1.347827818244695663e-02
-1.961223781108856201e-02
4.527476616203784943e-03
-5.707703996449708939e-03
-7.686225697398185730e-03
1.845423877239227295e-02
1.795236580073833466e-02
-2.108992543071508408e-03
-1.218933239579200745e-02
2.901646308600902557e-02
-1.906273886561393738e-02
4.943520179949700832e-04
1.651678606867790222e-02
2.149403095245361328e-02
2.436046302318572998e-02
-2.328557148575782776e-02
1.519161649048328400e-02
1.188668888062238693e-02
-8.850451558828353882e-03
2.152623608708381653e-02
-2.280344069004058838e-02
-6.838529370725154877e-03
-1.172236516140401363e-03
1.767776161432266235e-02
1.442794688045978546e-02
1.628274656832218170e-02
4.410613328218460083e-03
-1.610600762069225311e-02
-2.368104271590709686e-02
-2.330160699784755707e-02
-1.662290841341018677e-02
2.256801538169384003e-02
1.309067662805318832e-02
-9.353250265121459961e-03
-7.866125553846359253e-03
2.793794311583042145e-02
-2.554517053067684174e-02
-2.811670117080211639e-02
1.404319982975721359e-02
2.865964733064174652e-02
1.658855751156806946e-02
-2.005963027477264404e-02
-8.723725564777851105e-03
-2.047816105186939240e-02
4.944615066051483154e-03
-2.243066392838954926e-02
-3.612633096054196358e-03
2.873510122299194336e-03
3.675658954307436943e-03
2.897535078227519989e-02
1.904490403831005096e-02
4.953323863446712494e-03
-2.286691032350063324e-02
-3.125224495306611061e-03
-2.957557328045368195e-02
-2.350263670086860657e-02
1.471089012920856476e-02
