6.971398252062499523e-04
1.159257348626852036e-02
-1.847361912950873375e-03
-1.695578731596469879e-02
2.525491267442703247e-02
1.354810688644647598e-02
1.684084720909595490e-02
-7.707870099693536758e-03
-5.942133720964193344e-03
-2.793426252901554108e-02
-8.600508794188499451e-03
-2.718819864094257355e-02
-2.028170740231871605e-03
-8.648032322525978088e-03
8.284601382911205292e-03
5.411691963672637939e-03
8.779868483543395996e-03
3.102606721222400665e-02
-1.153177861124277115e-02
2.605131641030311584e-02
-2.798869647085666656e-02
5.782921332865953445e-03
1.546687539666891098e-02
-1.654846966266632080e-02
-1.055272296071052551e-02
-1.566196419298648834e-02
-8.715732954442501068e-03
-2.281517349183559418e-02
-1.427382975816726685e-02
-3.851645393297076225e-03
-1.460173632949590683e-02
-2.428022772073745728e-02
-2.813757397234439850e-02
-1.005100179463624954e-02
7.987011224031448364e-03
1.516431663185358047e-02
-4.419837932800874114e-05
-2.712585590779781342e-02
8.853789186105132103e-04
2.299541793763637543e-02
-2.656563743948936462e-02
5.611934233456850052e-03
6.511275190860033035e-03
-1.248256769031286240e-02
2.751939930021762848e-02
2.147586084902286530e-02
-2.258401364088058472e-03
-1.845912449061870575e-02
3.064131177961826324e-02
2.348315529525279999e-02
4.351323877926915884e-04
4.595468286424875259e-03
-1.619983278214931488e-02
-1.091530546545982361e-02
-2.101788669824600220e-02
-2.985238656401634216e-02
-8.260723552666604519e-04
-2.428547106683254242e-02
3.689622099045664072e-04
2.500832453370094299e-02
2.590945176780223846e-02
-2.332624793052673340e-02
1.991834491491317749e-02
-1.482761744409799576e-02
-2.108420990407466888e-02
2.229659259319305420e-02
1.483963709324598312e-02
-3.066565282642841339e-02
7.806565612554550171e-03
3.920986317098140717e-03
-2.997272647917270660e-02
2.150896377861499786e-02
1.970875449478626251e-02
-7.489105220884084702e-03
-7.560877129435539246e-03
-1.891395077109336853e-02
1.407859288156032562e-02
-1.139909308403730392e-02
1.392243430018424988e-02
8.111482486128807068e-03
-2.488748868927359581e-03
-4.528453864622861147e-04
-1.072728555300273001e-04
-1.744517311453819275e-02
-1.036340743303298950e-02
9.192824945785105228e-04
-5.396228749305009842e-03
6.018407177180051804e-03
2.384396083652973175e-02
3.112443909049034119e-02
1.862386986613273621e-02
2.770169265568256378e-02
-9.703625924885272980e-03
8.364110253751277924e-03
3.073204495012760162e-02
1.763847470283508301e-02
1.905496045947074890e-02
-1.393378339707851410e-02
1.127312332391738892e-02
3.951888531446456909e-03
2.768580056726932526e-02
-1.547255367040634155e-02
-7.235206663608551025e-03
-2.690064534544944763e-02
-1.347115263342857361e-02
-1.303832698613405228e-02
6.695599760860204697e-03
-2.456998080015182495e-02
-1.415197737514972687e-02
-1.287925336509943008e-02
-4.725091625005006790e-03
-1.746421679854393005e-02
-2.766530588269233704e-02
4.651528783142566681e-03
2.468119189143180847e-02
6.542381364852190018e-03
4.057927522808313370e-03
1.657079719007015228e-02
3.120526112616062164e-02
-2.423120290040969849e-02
-7.168508600443601608e-03
7.771076168864965439e-03
1.623727567493915558e-02
-3.097434528172016144e-03
8.754541631788015366e-04
-6.300636101514101028e-03
-1.572872512042522430e-03
1.261035818606615067e-02
2.991979941725730896e-02
1.018859166651964188e-02
-2.033089473843574524e-02
-2.744532749056816101e-02
7.631521206349134445e-03
-1.734597422182559967e-02
8.375332690775394440e-03
1.272390829399228096e-03
2.347658202052116394e-02
1.183968782424926758e-02
-3.403315087780356407e-03
2.442835085093975067e-02
1.870378293097019196e-02
-1.688883639872074127e-02
-2.285497821867465973e-02
-3.090450353920459747e-02
-2.296451712027192116e-03
1.225819345563650131e-03
2.654719352722167969e-02
1.617901027202606201e-02
2.810777537524700165e-02
-1.305416971445083618e-02
6.874288432300090790e-03
-2.408722601830959320e-02
2.532668970525264740e-02
4.272975027561187744e-03
8.142978884279727936e-03
1.075379177927970886e-02
4.009545315057039261e-03
-1.659532822668552399e-02
-3.101985901594161987e-02
-3.072424978017807007e-02
1.100839488208293915e-02
2.460498362779617310e-02
-1.643004268407821655e-02
1.093211490660905838e-02
8.287865668535232544e-03
3.114302456378936768e-02
-2.306114695966243744e-02
2.157206088304519653e-02
-2.349037118256092072e-02
2.767927572131156921e-02
1.860553515143692493e-03
1.193021610379219055e-02
1.007691025733947754e-02
3.065574914216995239e-02
-2.439338527619838715e-02
-1.215385738760232925e-02
-1.696814969182014465e-02
-3.496590303257107735e-03
1.470833923667669296e-02
2.428350597620010376e-02
1.176179107278585434e-02
-2.481574751436710358e-02
9.077203460037708282e-03
2.843661233782768250e-02
-1.074197050184011459e-02
-9.827921167016029358e-03
-3.857300151139497757e-03
2.051870897412300110e-02
1.711625605821609497e-02
-2.820106036961078644e-02
1.907416246831417084e-02
-2.342391386628150940e-02
-2.334013767540454865e-02
-9.787404909729957581e-03
1.012282632291316986e-02
1.552966050803661346e-02
-1.253985892981290817e-02
-2.438951283693313599e-02
-1.767484657466411591e-02
-1.800012029707431793e-02
-4.708228167146444321e-03
-5.652565509080886841e-03
-2.052368223667144775e-02
-2.712226659059524536e-02
9.504078188911080360e-04
2.194538153707981110e-02
-2.783703617751598358e-02
2.296693623065948486e-02
9.632417000830173492e-03
2.741931751370429993e-02
3.032581135630607605e-02
-2.875213325023651123e-02
-2.274243347346782684e-02
-2.603146806359291077e-02
-1.103737484663724899e-02
-1.598158106207847595e-02
1.735484343953430653e-03
-1.645639538764953613e-02
1.905290037393569946e-02
1.529604382812976837e-02
-7.824909873306751251e-03
1.714845374226570129e-02
5.359662696719169617e-03
1.706077158451080322e-02
7.170817349106073380e-03
2.135943062603473663e-02
-1.102764997631311417e-02
-1.586177386343479156e-02
-1.638783700764179230e-02
-3.116767108440399170e-02
1.547486148774623871e-02
-7.225675508379936218e-03
-1.803006744012236595e-03
-3.069669753313064575e-02
-1.140750572085380554e-02
4.074883181601762772e-03
9.258245117962360382e-03
-1.621623337268829346e-02
-2.212030813097953796e-02
-2.674307487905025482e-02
1.328464783728122711e-02
-9.702307870611548424e-04
2.092639915645122528e-02
-2.816414646804332733e-02
2.262718230485916138e-02
9.542436455376446247e-04
1.289623556658625603e-03
5.560864694416522980e-03
-2.627890743315219879e-02
-1.072765141725540161e-02
-1.878763921558856964e-02
4.457583709154278040e-04
-1.154841575771570206e-02
2.430824376642704010e-02
-3.337770700454711914e-03
-2.714554965496063232e-02
-2.444277517497539520e-02
-2.040221914649009705e-02
5.068570375442504883e-03
1.282975729554891586e-02
-1.624557375907897949e-02
6.033611949533224106e-03
-4.192334599792957306e-03
2.873467281460762024e-02
-1.633057743310928345e-02
-1.995851472020149231e-02
-2.042951434850692749e-02
2.815454825758934021e-02
1.970971375703811646e-02
-1.381690148264169693e-02
4.236205946654081345e-03
2.680810727179050446e-02
9.117333218455314636e-03
2.516825124621391296e-02
1.320000831037759781e-02
1.106962095946073532e-02
2.580007724463939667e-02
3.431618213653564453e-03
-1.176143158227205276e-02
2.476712130010128021e-02
1.001954078674316406e-03
2.535011805593967438e-02
7.957988418638706207e-03
2.224281243979930878e-02
-2.328951656818389893e-02
2.117783948779106140e-02
-3.088757395744323730e-02
2.950729988515377045e-02
2.989439852535724640e-02
1.687500043772161007e-04
-1.832072040997445583e-03
1.793280430138111115e-02
-1.116030011326074600e-02
1.582969725131988525e-02
-7.385773933492600918e-04
-1.910152658820152283e-02
2.886014431715011597e-02
-8.148703724145889282e-03
2.499837055802345276e-02
3.089230507612228394e-02
2.547073364257812500e-02
-8.224778808653354645e-03
1.815842278301715851e-02
2.886850945651531219e-02
3.084089607000350952e-02
1.653736457228660583e-02
1.511295046657323837e-02
-8.691169321537017822e-03
2.291315048933029175e-02
-3.025320358574390411e-02
-5.199073813855648041e-03
-1.398183032870292664e-02
-1.618605479598045349e-02
-3.923077601939439774e-04
1.044863092829473317e-04
1.770632900297641754e-02
4.397249314934015274e-03
-7.669867016375064850e-03
1.189832203090190887e-02
-8.127001929096877575e-04
-9.428271005162969232e-05
9.297210723161697388e-03
3.686432028189301491e-03
-1.877463050186634064e-02
-2.619917690753936768e-02
1.934825815260410309e-02
-1.883623935282230377e-02
2.179624326527118683e-02
1.410030666738748550e-02
1.102622691541910172e-02
-1.011554338037967682e-02
1.557720545679330826e-02
2.614491060376167297e-02
3.114707395434379578e-02
4.700634162873029709e-03
-1.173544954508543015e-02
3.952349536120891571e-03
-2.076717652380466461e-02
-1.347708981484174728e-02
-8.590468205511569977e-03
4.367759451270103455e-03
3.076845034956932068e-02
1.418669242411851883e-02
-9.469193406403064728e-03
1.952219568192958832e-02
-6.376346573233604431e-03
2.170473523437976837e-02
-4.648913629353046417e-03
-6.825451739132404327e-03
8.421124890446662903e-03
9.002443403005599976e-03
2.239494398236274719e-02
-1.877227077784482390e-05
-1.163712609559297562e-02
1.768029853701591492e-02
-2.892477810382843018e-02
2.445756830275058746e-02
2.399722672998905182e-02
1.297288760542869568e-02
-7.763608358800411224e-03
1.462358515709638596e-02
-1.469633448868989944e-02
-2.997113950550556183e-02
-2.499771676957607269e-02
-1.219042856246232986e-02
-2.569627575576305389e-02
-9.476494160480797291e-04
-1.417496241629123688e-02
2.319577150046825409e-02
1.320834457874298096e-02
-9.975652210414409637e-04
1.120945089496672153e-03
2.223351225256919861e-02
-2.531034313142299652e-02
-1.876703090965747833e-02
-8.767338469624519348e-03
1.196359936147928238e-02
5.262205959297716618e-04
-2.817867510020732880e-02
3.879280120600014925e-04
1.767102628946304321e-02
-1.954104006290435791e-02
1.778235659003257751e-02
-2.309561893343925476e-02
3.921593539416790009e-03
8.811659179627895355e-03
-2.480108477175235748e-02
1.481377705931663513e-02
-1.231248141266405582e-03
-1.176116708666086197e-02
-2.851727232336997986e-02
-1.490239147096872330e-02
-4.076553508639335632e-03
-1.195431966334581375e-02
1.536839827895164490e-02
-3.986041061580181122e-03
1.412726100534200668e-02
1.132124289870262146e-02
2.664522826671600342e-02
6.116443779319524765e-03
8.725496940314769745e-03
-3.025092557072639465e-02
-1.490663271397352219e-02
2.865074016153812408e-02
-1.754235662519931793e-02
-1.952893659472465515e-02
-2.392642013728618622e-02
1.944511942565441132e-02
-2.621752955019474030e-02
1.634685508906841278e-02
1.661350950598716736e-02
2.474114298820495605e-02
-4.568240139633417130e-03
-5.124492570757865906e-03
2.899162843823432922e-02
3.004337102174758911e-02
-1.165774744004011154e-02
-5.104106850922107697e-03
6.469708867371082306e-03
1.205732580274343491e-02
1.269763335585594177e-02
-1.785797576303593814e-05
-6.012077908962965012e-03
-1.752186194062232971e-02
2.275456115603446960e-02
3.003898821771144867e-02
1.022031065076589584e-03
-8.263075724244117737e-03
-3.108002245426177979e-02
-1.029239222407341003e-02
6.138385739177465439e-03
1.149881631135940552e-02
1.385217159986495972e-02
2.993794716894626617e-02
6.105758249759674072e-03
1.749591086991131306e-03
4.589113872498273849e-03
-1.439132541418075562e-02
-6.315214093774557114e-03
-4.596915561705827713e-03
6.145725492388010025e-03
2.705019712448120117e-02
-1.860745949670672417e-03
1.796782948076725006e-02
1.443223655223846436e-02
-2.293881215155124664e-02
-5.369161721318960190e-03
8.840323425829410553e-03
-1.038027182221412659e-02
-3.929237835109233856e-03
1.605276390910148621e-02
-1.329501252621412277e-02
-3.895298345014452934e-03
4.006121307611465454e-03
-1.564323902130126953e-02
1.347735244780778885e-02
-1.961172185838222504e-02
4.527647048234939575e-03
-5.707120057195425034e-03
-7.686248980462551117e-03
1.845476031303405762e-02
1.795209571719169617e-02
-2.109178807586431503e-03
-1.218943390995264053e-02
2.901595458388328552e-02
-1.906222663819789886e-02
4.940877552144229412e-04
1.651737093925476074e-02
2.149440161883831024e-02
2.436018362641334534e-02
-2.328560873866081238e-02
1.519128121435642242e-02
1.188668888062238693e-02
-8.849783800542354584e-03
2.152623608708381653e-02
-2.280361391603946686e-02
-6.838303990662097931e-03
-1.172146992757916451e-03
1.767843589186668396e-02
1.442863512784242630e-02
1.628314144909381866e-02
4.410801455378532410e-03
-1.610591262578964233e-02
-2.368022873997688293e-02
-2.330084517598152161e-02
-1.662272028625011444e-02
2.256798557937145233e-02
1.309114601463079453e-02
-9.353275410830974579e-03
-7.866643369197845459e-03
2.793784812092781067e-02
-2.554520592093467712e-02
-2.811655402183532715e-02
1.404249388724565506e-02
2.866067551076412201e-02
1.658808253705501556e-02
-2.005940303206443787e-02
-8.723532781004905701e-03
-2.047821320593357086e-02
4.944649524986743927e-03
-2.243067324161529541e-02
-3.612529486417770386e-03
2.873518038541078568e-03
3.675683401525020599e-03
2.897572703659534454e-02
1.904518343508243561e-02
4.954061470925807953e-03
-2.286693640053272247e-02
-3.125004004687070847e-03
-2.957621775567531586e-02
-2.350244112312793732e-02
1.471088547259569168e-02
