9.746066294610500336e-03
-3.642638400197029114e-02
-6.221962627023458481e-03
-1.805577799677848816e-02
-1.339403726160526276e-02
2.217599190771579742e-02
3.098408691585063934e-02
5.217073112726211548e-02
-3.446679934859275818e-02
-1.922227069735527039e-02
4.038178920745849609e-02
2.943716198205947876e-02
-2.920874021947383881e-02
-1.102105528116226196e-02
-1.125118602067232132e-02
-2.726207673549652100e-02
3.990701958537101746e-02
2.239532954990863800e-02
2.591304108500480652e-02
4.054854810237884521e-02
2.354799397289752960e-02
3.340606763958930969e-02
1.664521731436252594e-02
-3.737577423453330994e-02
4.763345420360565186e-02
4.024313390254974365e-02
1.095065288245677948e-02
-5.710183642804622650e-03
-1.670348830521106720e-02
3.792842850089073181e-02
3.941171243786811829e-02
-3.798439353704452515e-02
4.375697299838066101e-02
-2.245394699275493622e-02
3.787845745682716370e-02
-3.990367054939270020e-02
-3.522842749953269958e-02
-2.001751028001308441e-02
1.928983815014362335e-02
2.876513637602329254e-02
-2.538327313959598541e-02
-1.268950104713439941e-02
2.373843267560005188e-02
2.258993685245513916e-02
-2.005152590572834015e-02
-2.818921394646167755e-02
-1.286608166992664337e-02
-7.787606213241815567e-03
2.365954406559467316e-02
-1.707059144973754883e-02
3.625556826591491699e-02
-9.305989369750022888e-03
1.330860145390033722e-02
-2.517357841134071350e-02
4.800441488623619080e-02
2.379065006971359253e-02
4.695856943726539612e-02
1.357351988554000854e-02
-2.593898773193359375e-02
6.519142072647809982e-03
-3.642390295863151550e-02
1.326578110456466675e-02
-2.081815898418426514e-02
-3.011439554393291473e-02
-2.904579043388366699e-02
4.381699487566947937e-02
-1.474378257989883423e-02
4.205264151096343994e-02
-2.369880676269531250e-02
4.459927976131439209e-02
-2.711548842489719391e-02
-2.242490276694297791e-02
-2.532890625298023224e-02
3.809437155723571777e-02
4.208788648247718811e-02
2.456325292587280273e-02
-3.716382756829261780e-02
-1.574720069766044617e-02
1.171272946521639824e-03
2.549047954380512238e-02
3.176192939281463623e-02
-9.081641212105751038e-03
-1.055132225155830383e-02
-3.133054822683334351e-02
-2.017734199762344360e-02
-2.056671306490898132e-02
2.958492375910282135e-02
2.158380299806594849e-02
4.868181049823760986e-02
-3.889750689268112183e-02
2.703211084008216858e-02
-3.487464785575866699e-02
1.617384888231754303e-02
-2.115506306290626526e-02
-2.168500423431396484e-02
-1.213829498738050461e-02
-3.538682067301124334e-04
-3.832653909921646118e-02
-1.158815436065196991e-02
4.197148606181144714e-02
-2.735455986112356186e-03
-2.518038637936115265e-02
-3.637474030256271362e-02
1.190701406449079514e-02
6.614517886191606522e-03
-8.445566520094871521e-03
3.489135578274726868e-02
1.995441736653447151e-03
3.586348518729209900e-02
1.187980361282825470e-02
2.100678905844688416e-02
-1.426967512816190720e-02
-1.601107977330684662e-02
-1.254937797784805298e-02
7.918163202702999115e-03
2.582928724586963654e-02
2.574213407933712006e-02
-6.575547158718109131e-03
4.120934382081031799e-02
-2.814535796642303467e-02
4.683625418692827225e-03
2.136986004188656807e-03
1.814003475010395050e-02
-9.422586299479007721e-03
2.995401062071323395e-02
2.213902771472930908e-03
-2.410105615854263306e-02
-2.151612564921379089e-02
2.466211281716823578e-02
2.372135967016220093e-02
-3.167809545993804932e-02
-3.456098586320877075e-02
1.771688694134354591e-04
-2.335342951118946075e-02
4.192146658897399902e-02
-1.154830772429704666e-02
-5.116093903779983521e-03
2.509220130741596222e-02
1.904627308249473572e-02
4.119433835148811340e-02
-3.962491464335471392e-04
4.594553727656602859e-03
-1.956507004797458649e-02
-8.798405528068542480e-03
4.892428591847419739e-02
-2.166027948260307312e-02
-5.433574784547090530e-03
9.773409925401210785e-03
9.076716378331184387e-03
5.881028249859809875e-03
-2.320543490350246429e-02
4.064244776964187622e-02
-2.418642118573188782e-02
-2.252395497635006905e-03
2.737450599670410156e-02
1.997219398617744446e-02
1.143106259405612946e-02
-1.299593131989240646e-02
3.110492229461669922e-02
-1.821020804345607758e-02
2.056376636028289795e-02
-4.321235790848731995e-02
-8.200763724744319916e-03
4.117427766323089600e-02
4.023499786853790283e-02
1.831682398915290833e-02
-3.266722336411476135e-02
-1.129051670432090759e-02
1.854315586388111115e-02
-3.340552374720573425e-02
3.802943509072065353e-03
-3.677432984113693237e-02
-4.204804450273513794e-02
1.644825562834739685e-02
4.059256613254547119e-02
-4.084038734436035156e-02
1.512912102043628693e-02
-9.492621757090091705e-03
-7.400462869554758072e-03
-2.809761650860309601e-02
4.295508936047554016e-02
-1.148856058716773987e-02
-1.638908870518207550e-02
8.828417398035526276e-03
-2.429356984794139862e-02
1.320507581112906337e-04
-1.968180015683174133e-02
-6.214070599526166916e-03
1.039255689829587936e-02
1.944286562502384186e-02
-2.350671775639057159e-02
2.432852052152156830e-02
5.989735014736652374e-03
-4.145598039031028748e-02
4.420556500554084778e-02
3.909240663051605225e-02
-3.103359229862689972e-02
3.629245609045028687e-02
-2.723410725593566895e-02
1.793976873159408569e-02
-1.550989784300327301e-02
3.291064128279685974e-02
3.539758175611495972e-02
1.959994994103908539e-02
3.134723380208015442e-02
-2.666711434721946716e-02
-3.343153372406959534e-02
3.501211106777191162e-02
-2.973254024982452393e-02
3.612958267331123352e-02
4.269004613161087036e-02
2.239141147583723068e-03
3.565176203846931458e-02
3.883686661720275879e-02
-2.311448194086551666e-02
1.908939098939299583e-03
2.456117607653141022e-02
-1.570576056838035583e-02
-1.251103356480598450e-02
-2.011926844716072083e-02
2.434560284018516541e-02
1.583503372967243195e-02
2.437291853129863739e-02
1.615945622324943542e-02
-2.141052484512329102e-02
4.006680101156234741e-02
4.637653753161430359e-02
-1.534962281584739685e-02
1.506172935478389263e-03
-5.064256954938173294e-03
5.876277573406696320e-03
-1.046848203986883163e-02
-2.269221469759941101e-02
1.637964136898517609e-02
4.705078434199094772e-03
4.712914675474166870e-02
7.238583639264106750e-03
3.252000361680984497e-02
4.090523347258567810e-02
-3.764553368091583252e-02
-1.769540016539394855e-03
1.650231145322322845e-02
5.098545178771018982e-02
-4.383341595530509949e-02
1.930266059935092926e-02
1.561987400054931641e-02
-1.119861658662557602e-02
-3.787445649504661560e-02
2.971641719341278076e-02
2.324382588267326355e-02
-2.186551690101623535e-02
2.292952314019203186e-02
-8.421721868216991425e-03
3.095086105167865753e-02
2.211587876081466675e-02
-3.010385669767856598e-03
