-3.835586830973625183e-03
-2.655299939215183258e-02
-2.708502672612667084e-02
1.101835630834102631e-02
3.480689972639083862e-02
-1.567890122532844543e-02
3.007731959223747253e-02
2.614823170006275177e-02
-1.212264783680438995e-02
1.021871715784072876e-02
-1.511841826140880585e-02
3.351659327745437622e-02
-2.526693046092987061e-02
3.641278669238090515e-02
-2.496768161654472351e-02
-2.746567688882350922e-02
-4.040970653295516968e-02
2.527860365808010101e-02
-3.260006755590438843e-02
-4.113372787833213806e-02
2.799736103042960167e-03
-1.198808848857879639e-02
6.299604196101427078e-03
3.724143654108047485e-02
-1.541725173592567444e-02
4.028299823403358459e-02
1.016618963330984116e-02
-1.984054967761039734e-02
-1.282608788460493088e-02
-3.462496027350425720e-02
-1.093530096113681793e-02
-3.064676374197006226e-02
-1.267555821686983109e-02
-4.894547536969184875e-02
-2.415239065885543823e-02
1.306134974583983421e-03
2.902266196906566620e-02
3.176310658454895020e-02
1.801380142569541931e-02
-8.582884445786476135e-03
3.806530684232711792e-02
-4.593057557940483093e-03
-1.005970221012830734e-02
9.793922305107116699e-03
-1.781231723725795746e-02
-5.132224410772323608e-03
2.498856745660305023e-02
1.916247978806495667e-02
4.748421534895896912e-02
4.447139799594879150e-03
-1.573216356337070465e-02
-1.375529635697603226e-02
-7.474648300558328629e-03
-1.976450346410274506e-02
-2.319877408444881439e-02
4.198032990097999573e-02
2.364680171012878418e-02
-1.976322848349809647e-03
9.993867948651313782e-03
2.708945609629154205e-02
-5.862557794898748398e-03
3.230050578713417053e-02
-2.998788841068744659e-03
-9.359986521303653717e-03
1.443793810904026031e-02
4.383876547217369080e-02
2.104160003364086151e-02
3.691970184445381165e-02
-1.469486113637685776e-02
-3.335099667310714722e-02
-3.603230789303779602e-02
3.880748897790908813e-02
3.168011829257011414e-02
2.554565668106079102e-02
-1.687528192996978760e-02
-2.118553966283798218e-02
1.303115300834178925e-02
-2.355766296386718750e-02
9.823600761592388153e-03
-3.435447579249739647e-03
-1.624728925526142120e-02
5.426070187240839005e-03
-3.852396085858345032e-02
2.406482025980949402e-02
6.305417045950889587e-03
2.527236752212047577e-02
-3.901969268918037415e-02
2.617555484175682068e-02
-3.546090796589851379e-02
-2.240805514156818390e-02
-1.823260635137557983e-02
-4.437216371297836304e-02
1.173559110611677170e-02
2.902538888156414032e-02
2.182297781109809875e-02
3.630963340401649475e-02
-1.043600495904684067e-02
6.374833174049854279e-04
3.131685033440589905e-02
4.625423625111579895e-02
-2.808660455048084259e-02
-2.730443514883518219e-02
5.957738612778484821e-04
-3.795753791928291321e-02
-3.594858944416046143e-02
-4.387041926383972168e-02
5.535111762583255768e-03
7.451409008353948593e-03
4.190354049205780029e-02
2.139639109373092651e-02
3.884672885760664940e-03
1.134049613028764725e-03
-3.631412982940673828e-02
-2.133421599864959717e-02
4.576178640127182007e-02
-1.067650038748979568e-02
-8.146669715642929077e-03
1.299991086125373840e-02
1.669110730290412903e-02
-2.171785943210124969e-02
-1.268386957235634327e-03
4.640609025955200195e-02
-8.758479729294776917e-03
-2.433061366900801659e-03
-3.648667782545089722e-02
-2.856295742094516754e-02
-2.143065258860588074e-02
-4.314647614955902100e-02
-2.985202148556709290e-02
-3.404143452644348145e-02
5.472147371619939804e-03
5.555490776896476746e-02
-2.560755237936973572e-02
8.261416107416152954e-03
-3.294834122061729431e-02
-9.003376588225364685e-03
1.367962174117565155e-02
1.896371715702116489e-03
-4.587082937359809875e-02
-3.443099185824394226e-02
-7.741796318441629410e-03
-3.318635746836662292e-02
2.649436518549919128e-02
4.788057878613471985e-02
-9.546482004225254059e-03
2.373994514346122742e-02
-3.414031490683555603e-02
1.897038519382476807e-02
2.330221980810165405e-02
2.929218858480453491e-02
-3.780823573470115662e-02
2.394000813364982605e-02
2.094225399196147919e-02
-4.658656567335128784e-02
-1.246801856905221939e-02
-2.714913524687290192e-02
8.759886957705020905e-03
1.937589049339294434e-02
-4.161670431494712830e-02
1.320479065179824829e-02
-9.945021010935306549e-03
-2.907078154385089874e-02
2.503713965415954590e-02
2.047715149819850922e-02
3.470996394753456116e-02
1.188896689563989639e-02
2.049951627850532532e-02
-3.797072917222976685e-02
-1.096027810126543045e-02
3.723389701917767525e-03
-4.214858263731002808e-02
6.426450796425342560e-03
7.365931291133165359e-03
1.850945991463959217e-03
3.426675871014595032e-02
-7.518107537180185318e-03
-2.993316762149333954e-02
-3.994522616267204285e-02
-2.424335852265357971e-02
-3.422418236732482910e-02
4.678388684988021851e-02
2.055600658059120178e-02
-1.193314883857965469e-02
7.725890260189771652e-03
-2.773225121200084686e-02
-2.013035677373409271e-02
1.970285922288894653e-02
2.452275482937693596e-03
3.503324836492538452e-02
1.054284907877445221e-02
1.786589063704013824e-02
-2.530616708099842072e-02
-3.066148795187473297e-02
-2.030816487967967987e-02
3.375083580613136292e-02
-2.040839008986949921e-02
3.866197168827056885e-02
2.285377355292439461e-03
3.385804966092109680e-02
-1.890534302219748497e-03
-3.684258088469505310e-02
1.388822309672832489e-02
-1.440780889242887497e-02
8.697340264916419983e-03
-2.230305410921573639e-02
9.062220342457294464e-03
-4.031905904412269592e-02
-3.858575969934463501e-02
-3.347620740532875061e-02
-4.510766640305519104e-02
5.321898497641086578e-03
-3.404412791132926941e-02
9.856291115283966064e-03
1.433707587420940399e-02
-2.338857017457485199e-02
3.110021725296974182e-02
-1.178775634616613388e-02
-3.059095516800880432e-02
4.249478131532669067e-02
-1.745931245386600494e-02
-3.056486696004867554e-02
5.549612920731306076e-03
1.647194661200046539e-02
-1.962569775059819221e-03
-1.345562376081943512e-02
-3.477706760168075562e-02
1.896605454385280609e-02
2.035490324487909675e-04
-2.376397326588630676e-02
-2.078693360090255737e-02
1.190902665257453918e-02
-8.457051008008420467e-04
3.421211615204811096e-02
-3.529365733265876770e-02
-2.635360136628150940e-02
-5.737212020903825760e-03
7.635710295289754868e-03
7.310548797249794006e-03
-2.469911798834800720e-02
-2.951835095882415771e-02
4.057640582323074341e-02
3.448045626282691956e-02
-2.466876991093158722e-02
3.631952404975891113e-02
5.024851765483617783e-03
2.653497830033302307e-02
6.885142996907234192e-03
5.901382304728031158e-03
-1.879565976560115814e-02
-3.862514719367027283e-02
1.672044396400451660e-02
2.071354910731315613e-02
8.215056732296943665e-03
-2.603646181523799896e-02
-2.641499973833560944e-02
-8.304547518491744995e-03
2.965626306831836700e-02
7.137534674257040024e-03
-8.568079210817813873e-03
-2.039240486919879913e-02
-1.432063430547714233e-02
4.784950986504554749e-02
6.251171696931123734e-03
6.297342479228973389e-03
6.184024736285209656e-03
-3.003534115850925446e-02
-1.588635146617889404e-02
-2.056132815778255463e-02
2.395690791308879852e-02
-4.406371340155601501e-02
-4.544015228748321533e-02
-8.312822319567203522e-03
2.411407604813575745e-02
-2.187289483845233917e-02
2.346181496977806091e-02
-2.962893247604370117e-02
8.041206165216863155e-04
-1.988416537642478943e-02
2.977265603840351105e-02
-2.303233556449413300e-02
1.378647238016128540e-02
3.549588099122047424e-02
3.950034826993942261e-02
4.429264459758996964e-03
3.147675842046737671e-02
1.967310905456542969e-02
1.569980196654796600e-02
1.092390250414609909e-02
5.685983225703239441e-03
3.089197725057601929e-02
8.936745114624500275e-03
-4.147053696215152740e-04
-3.050654754042625427e-02
1.079624611884355545e-02
2.247764356434345245e-02
-1.140928268432617188e-02
3.103158995509147644e-02
-4.705804586410522461e-02
-2.567914128303527832e-02
-3.147355094552040100e-02
6.489817053079605103e-03
-2.080229669809341431e-02
-2.401432953774929047e-02
3.387531638145446777e-02
-9.076568298041820526e-03
2.339295111596584320e-03
5.811639595776796341e-03
1.629660837352275848e-02
8.698087185621261597e-03
2.564864791929721832e-02
2.994672022759914398e-02
-3.739534690976142883e-02
-4.424194991588592529e-02
4.283805843442678452e-03
1.648383215069770813e-02
4.362953361123800278e-03
-9.870113804936408997e-03
3.143535926938056946e-02
1.804289780557155609e-02
-1.952087320387363434e-02
3.100519813597202301e-02
3.093114681541919708e-02
9.807594120502471924e-03
5.089567508548498154e-03
-4.357982799410820007e-02
3.229696536436676979e-03
-1.209929492324590683e-02
-4.561419039964675903e-02
6.689779460430145264e-03
-1.976609230041503906e-02
4.025848209857940674e-02
-8.116420358419418335e-03
-1.184496935456991196e-02
2.462919801473617554e-02
-2.709746919572353363e-02
-1.580446213483810425e-02
1.530112698674201965e-02
2.936962619423866272e-02
8.450915920548141003e-04
1.547384448349475861e-02
-4.150278866291046143e-02
-3.949643671512603760e-02
3.932679817080497742e-02
2.318225242197513580e-02
2.756610279902815819e-03
-1.517354045063257217e-02
2.520629577338695526e-02
2.251524664461612701e-02
-2.845166623592376709e-02
2.807665430009365082e-02
-3.375408053398132324e-02
-1.560131553560495377e-02
-1.157263107597827911e-02
-1.664674608036875725e-03
3.753231838345527649e-02
-1.727985776960849762e-02
-1.659979694522917271e-03
1.293296739459037781e-02
2.708004601299762726e-02
-3.297211974859237671e-02
3.331251069903373718e-02
2.337206713855266571e-02
-2.083346433937549591e-02
-1.242870092391967773e-02
-3.976819291710853577e-02
-5.224369838833808899e-02
-1.662102527916431427e-02
1.003820821642875671e-02
-1.498619909398257732e-03
-3.136305883526802063e-02
-2.642985992133617401e-02
1.578014227561652660e-03
3.565447032451629639e-02
4.970601201057434082e-02
4.641620442271232605e-02
1.791119948029518127e-02
-3.639716282486915588e-02
2.481674961745738983e-02
-4.005349706858396530e-03
-1.404400356113910675e-02
-2.745273150503635406e-02
3.180794010404497385e-04
3.621197864413261414e-02
1.371297519654035568e-02
-2.474976936355233192e-03
-2.634345740079879761e-02
-3.739507496356964111e-02
-1.402860879898071289e-02
2.778084017336368561e-02
-1.811761595308780670e-02
2.576551958918571472e-02
-2.959778718650341034e-02
3.158394992351531982e-02
-1.494022924453020096e-02
2.402400970458984375e-02
1.941838487982749939e-02
2.842796593904495239e-02
-2.453297004103660583e-02
3.303412348031997681e-02
4.209779202938079834e-02
-1.141267013736069202e-03
-1.665199734270572662e-02
3.904835879802703857e-02
2.191916853189468384e-02
2.633357979357242584e-02
-2.650787308812141418e-02
-1.614424213767051697e-02
-7.793913129717111588e-03
3.365205228328704834e-02
3.020058758556842804e-02
4.590475186705589294e-02
4.655620828270912170e-02
-2.765213605016469955e-03
4.700326547026634216e-02
-4.825644940137863159e-02
-4.293173179030418396e-02
3.870224207639694214e-02
1.575455814599990845e-02
1.372769195586442947e-02
-5.861272569745779037e-03
-1.482087536714971066e-03
2.073474973440170288e-02
1.002510637044906616e-02
-3.751619160175323486e-02
2.229215577244758606e-02
6.177424918860197067e-03
-4.202527180314064026e-02
-2.593803219497203827e-03
2.490326948463916779e-02
1.810083165764808655e-02
-1.876952871680259705e-02
-2.434347569942474365e-02
1.072671450674533844e-02
1.198500394821166992e-03
-4.158233851194381714e-02
-1.147179305553436279e-02
2.543116547167301178e-02
-2.167378924787044525e-02
1.994739286601543427e-02
-1.008231937885284424e-02
-3.393683815374970436e-03
1.670452766120433807e-04
-2.702705934643745422e-02
2.513515390455722809e-02
4.207201302051544189e-02
-1.771596632897853851e-02
5.706460215151309967e-03
-8.017604239284992218e-03
1.887344382703304291e-02
3.215739130973815918e-02
-4.105909913778305054e-02
-6.279027555137872696e-03
-1.381055079400539398e-02
-4.664485901594161987e-02
1.835297420620918274e-02
-2.727120928466320038e-02
-4.198046401143074036e-02
-3.780138865113258362e-02
2.440905431285500526e-03
3.330690786242485046e-02
2.292956039309501648e-02
-1.393276453018188477e-02
2.806407399475574493e-03
-1.959070563316345215e-02
5.248476751148700714e-03
-3.659349679946899414e-02
-3.068877197802066803e-02
-3.232244029641151428e-02
1.022323127835988998e-02
-1.550318486988544464e-02
1.381578575819730759e-02
-4.871889948844909668e-02
5.016680061817169189e-02
-2.730850502848625183e-02
3.204882517457008362e-02
1.110965199768543243e-02
-2.978161536157131195e-02
2.439327910542488098e-02
4.389618057757616043e-03
3.222277760505676270e-02
2.314227074384689331e-02
2.321401610970497131e-02
-3.199043124914169312e-02
3.394982963800430298e-02
-4.233578220009803772e-02
-1.044434495270252228e-02
-2.482357248663902283e-02
-2.989058755338191986e-02
3.519045934081077576e-02
-4.490651935338973999e-02
-4.183531180024147034e-02
-4.306427761912345886e-02
-1.281978096812963486e-02
3.297858312726020813e-02
1.879297313280403614e-03
-4.121674969792366028e-02
-2.008027397096157074e-03
-1.342790387570858002e-02
-4.160128533840179443e-02
-1.227023545652627945e-02
4.179345071315765381e-02
-2.628122456371784210e-02
-2.087573893368244171e-02
-2.413944527506828308e-02
4.425152670592069626e-03
4.028426483273506165e-02
2.156421914696693420e-02
1.025632955133914948e-02
-1.608704216778278351e-02
-3.952200058847665787e-04
-2.685092389583587646e-02
-1.276557240635156631e-02
-1.774177514016628265e-02
-3.794889152050018311e-02
-2.467638440430164337e-02
1.570202969014644623e-02
1.244110520929098129e-02
7.194987032562494278e-03
-1.923353970050811768e-02
1.086488086730241776e-02
-4.075267352163791656e-03
2.878001658245921135e-03
3.638279810547828674e-02
-4.845608957111835480e-03
-1.236687693744897842e-02
-1.171524357050657272e-02
2.419229969382286072e-02
8.397243916988372803e-03
9.266342967748641968e-03
-2.691347524523735046e-02
4.196629300713539124e-02
-1.209762319922447205e-02
-1.060145627707242966e-02
-1.214265357702970505e-02
-3.347065066918730736e-03
1.456515677273273468e-02
-2.428880147635936737e-02
-1.663007773458957672e-02
5.995862185955047607e-03
-2.588358707726001740e-02
1.753310486674308777e-02
-3.203709423542022705e-02
1.842658594250679016e-02
-3.048494458198547363e-02
-2.073439070954918861e-03
-5.273832939565181732e-03
-3.077954798936843872e-02
-8.165172301232814789e-03
4.868578165769577026e-03
-3.810983151197433472e-02
1.271742302924394608e-02
-4.014862328767776489e-02
3.629995509982109070e-02
-3.338551148772239685e-02
3.178182989358901978e-02
1.794260367751121521e-02
3.080880641937255859e-02
2.940997667610645294e-02
1.916979439556598663e-02
-1.490858662873506546e-02
1.700358465313911438e-02
2.413515560328960419e-02
-3.554238751530647278e-02
-2.795938402414321899e-02
1.914011873304843903e-02
-3.705444931983947754e-02
1.129456702619791031e-02
-1.656209491193294525e-02
3.563283383846282959e-02
2.991559542715549469e-02
2.107271179556846619e-02
-1.686359383165836334e-02
2.323631569743156433e-02
5.299190524965524673e-03
-1.824704371392726898e-02
-2.339322492480278015e-02
2.586144208908081055e-02
3.532879054546356201e-02
2.906259521842002869e-02
8.279555477201938629e-03
-8.679064922034740448e-03
2.405984699726104736e-02
4.041110724210739136e-02
-2.439455874264240265e-02
-6.061583990231156349e-04
-3.142393380403518677e-02
1.308261137455701828e-02
3.472680971026420593e-02
3.449612483382225037e-02
1.593841612339019775e-02
-1.232098974287509918e-02
2.355963224545121193e-03
4.487825557589530945e-02
-3.199356794357299805e-02
-3.487950935959815979e-02
1.935403048992156982e-02
1.107681915163993835e-02
3.469094261527061462e-02
1.089532766491174698e-02
-4.318917170166969299e-02
-4.474873840808868408e-02
-2.277015894651412964e-02
9.300090372562408447e-03
-2.829407528042793274e-02
3.741174563765525818e-02
2.991740964353084564e-02
2.085723727941513062e-02
-1.566863805055618286e-02
7.021607831120491028e-03
1.037861686199903488e-02
-3.923643752932548523e-02
-1.996800862252712250e-02
4.842175543308258057e-02
3.417685627937316895e-02
6.083382293581962585e-03
-4.010222852230072021e-03
2.444624528288841248e-02
4.953994881361722946e-03
-3.403408825397491455e-02
2.448694221675395966e-02
3.442337736487388611e-02
-1.111865974962711334e-02
-1.974983513355255127e-02
-4.533474892377853394e-02
-4.284736886620521545e-02
-1.386752584949135780e-03
-3.458667173981666565e-02
-1.129974052309989929e-02
-1.726909726858139038e-02
1.359600457362830639e-03
3.570001572370529175e-02
1.995479688048362732e-02
-4.667271859943866730e-03
2.435676567256450653e-02
1.514714024960994720e-02
9.891382418572902679e-03
-6.100551108829677105e-04
3.407916054129600525e-02
-3.565936908125877380e-02
-1.036007888615131378e-02
2.960286848247051239e-02
1.112511195242404938e-02
-1.979258842766284943e-02
-3.224314749240875244e-02
6.616711616516113281e-03
-2.453390508890151978e-02
1.365632098168134689e-02
-2.425863203825429082e-04
-2.344216778874397278e-02
3.256620606407523155e-03
-4.233704134821891785e-02
3.547718003392219543e-02
4.414233192801475525e-02
-4.081813618540763855e-02
-2.304385043680667877e-02
3.487287834286689758e-02
-2.053143829107284546e-02
3.635444154497236013e-04
-2.476873993873596191e-02
-2.601570822298526764e-02
3.551498055458068848e-02
-2.555067185312509537e-03
-4.110455140471458435e-02
3.632528707385063171e-02
-4.578283056616783142e-02
3.530109673738479614e-02
2.857559919357299805e-02
6.051863078027963638e-03
2.748060412704944611e-02
-8.219395531341433525e-04
-3.679070994257926941e-02
-2.212419174611568451e-02
-4.257460311055183411e-02
-3.147461265325546265e-02
-2.907126210629940033e-02
1.521290279924869537e-02
-1.639036089181900024e-02
-7.749917451292276382e-03
1.644081622362136841e-02
-3.123671934008598328e-02
-5.799085483886301517e-04
3.572444990277290344e-02
3.295108675956726074e-02
-6.042160093784332275e-03
-3.966898471117019653e-02
2.351145073771476746e-02
-8.238523150794208050e-04
-9.059695526957511902e-03
-3.299115970730781555e-02
-2.001586556434631348e-02
-8.192833513021469116e-03
-4.324045404791831970e-02
4.389911890029907227e-02
-3.447531536221504211e-02
-2.423391863703727722e-02
-4.254805296659469604e-02
3.889189288020133972e-02
-3.201434388756752014e-02
4.725306481122970581e-02
1.253471989184617996e-02
-4.848739132285118103e-03
3.596305847167968750e-02
-2.687608264386653900e-02
1.897611282765865326e-02
-3.066386282444000244e-02
3.632364794611930847e-02
4.235137253999710083e-02
-1.989403367042541504e-02
3.680982068181037903e-02
2.210603468120098114e-02
6.249990314245223999e-03
-3.862401843070983887e-02
9.773348458111286163e-03
8.297263644635677338e-03
-2.905996143817901611e-02
3.419581055641174316e-02
4.319413751363754272e-02
4.327322170138359070e-02
4.132219031453132629e-02
-1.463364530354738235e-02
1.492140162736177444e-02
-2.642968297004699707e-02
4.160250350832939148e-02
1.821562275290489197e-02
1.424779929220676422e-02
1.010277587920427322e-02
-1.987528987228870392e-02
3.439990803599357605e-02
-3.479746729135513306e-02
-2.144062146544456482e-02
3.688474744558334351e-02
3.042140416800975800e-02
-2.947404608130455017e-02
-6.920448504388332367e-03
-2.259011007845401764e-02
3.761449083685874939e-02
-8.489641360938549042e-03
4.309322312474250793e-02
-3.325730934739112854e-02
1.175304409116506577e-02
2.847214415669441223e-02
4.625027999281883240e-02
2.010363526642322540e-02
3.617756068706512451e-02
-1.255036797374486923e-02
-8.914298377931118011e-03
3.564770892262458801e-02
-3.202892467379570007e-02
-1.884703338146209717e-02
1.606510393321514130e-02
-1.826937659643590450e-03
1.277706958353519440e-02
-5.196287296712398529e-03
-3.340141102671623230e-02
-1.165839564055204391e-02
2.332187816500663757e-02
2.319100545719265938e-03
6.242680363357067108e-03
8.822012692689895630e-03
5.167531315237283707e-03
-2.614279836416244507e-02
-4.702267795801162720e-02
7.499057799577713013e-03
-3.521890565752983093e-02
-3.547795861959457397e-02
1.925957505591213703e-03
-3.911994025111198425e-02
-2.594202384352684021e-02
3.316428884863853455e-02
-3.345994651317596436e-02
7.636013440787792206e-03
7.567048538476228714e-03
2.499248459935188293e-02
-3.930658102035522461e-03
-4.491702094674110413e-02
-4.121559485793113708e-02
2.199665829539299011e-02
3.117774240672588348e-02
-3.048443607985973358e-02
-4.414995200932025909e-03
-1.873799366876482964e-03
2.548411721363663673e-03
-2.422781847417354584e-02
-3.859183937311172485e-02
-3.403439745306968689e-02
-4.446320235729217529e-03
3.004545159637928009e-02
-2.485909126698970795e-02
3.270502388477325439e-02
2.421168051660060883e-02
-3.147819638252258301e-02
2.166694961488246918e-02
-2.925337292253971100e-02
-2.882259711623191833e-02
-1.826849579811096191e-02
1.612211763858795166e-02
9.898698888719081879e-03
2.630148455500602722e-02
-2.776271663606166840e-02
2.870956994593143463e-02
-3.140302002429962158e-02
-4.151764884591102600e-02
2.755305171012878418e-02
3.695304039865732193e-03
4.704871773719787598e-02
2.703817002475261688e-02
9.208301082253456116e-03
4.271052777767181396e-02
-1.828475855290889740e-02
-4.299379140138626099e-02
1.899277791380882263e-02
-2.822709083557128906e-02
-3.117520175874233246e-02
2.722396515309810638e-02
3.943675756454467773e-02
1.516328845173120499e-02
-3.697190806269645691e-02
-3.078630752861499786e-02
-3.441754961386322975e-03
8.186462335288524628e-03
-2.817087434232234955e-02
2.218055911362171173e-02
-4.601684957742691040e-02
-2.097372338175773621e-02
-2.497686259448528290e-02
2.021225728094577789e-02
3.702111169695854187e-02
-1.337768509984016418e-02
5.553067196160554886e-03
-1.658102497458457947e-02
-1.513416226953268051e-02
-2.300320938229560852e-02
-2.144984528422355652e-02
2.477251458913087845e-03
5.166331306099891663e-03
-1.213323976844549179e-02
-5.461232271045446396e-03
-4.252002015709877014e-02
-3.250538138672709465e-03
-4.300670698285102844e-03
-1.073140534572303295e-03
-3.527570515871047974e-02
-1.621780917048454285e-02
4.036391526460647583e-02
-3.953311964869499207e-02
1.875749416649341583e-02
-3.505707904696464539e-02
2.962010353803634644e-02
2.153608715161681175e-03
-1.770050264894962311e-02
1.909772306680679321e-02
-4.282254353165626526e-02
2.642806619405746460e-02
1.014012959785759449e-03
-3.905909135937690735e-02
-1.835577003657817841e-02
-2.707964926958084106e-02
3.374880552291870117e-02
3.977098688483238220e-02
-4.626031219959259033e-02
-4.081224277615547180e-02
-2.748871408402919769e-02
1.314994506537914276e-02
-1.505073998123407364e-02
1.759868860244750977e-02
2.231872268021106720e-02
-2.383964881300926208e-02
-2.012992650270462036e-02
-1.198715157806873322e-02
2.498316764831542969e-02
-2.485149167478084564e-02
-2.297879755496978760e-02
-3.108952753245830536e-02
2.562817744910717010e-02
3.039198927581310272e-02
8.934961631894111633e-03
2.022082917392253876e-02
-8.828486315906047821e-03
-7.072177715599536896e-03
1.383846066892147064e-02
2.548806369304656982e-02
1.252087415196001530e-03
2.619189769029617310e-02
-7.983224466443061829e-03
-1.987254619598388672e-02
2.231688238680362701e-02
3.162890672683715820e-02
-4.712698236107826233e-02
-1.751560904085636139e-02
2.085552550852298737e-02
-3.133714199066162109e-02
-2.686519920825958252e-02
1.614828407764434814e-02
2.057890640571713448e-03
3.906847909092903137e-02
3.861593455076217651e-02
1.470554992556571960e-02
1.081489492207765579e-02
2.709712460637092590e-02
-2.349932678043842316e-02
2.628131210803985596e-02
-6.154376082122325897e-03
-3.343836963176727295e-02
-3.819901496171951294e-02
-2.201675996184349060e-02
-4.153802618384361267e-02
-4.329910501837730408e-02
-1.081032399088144302e-02
1.358707621693611145e-02
4.106576740741729736e-02
1.890290179289877415e-03
1.601825118996202946e-03
1.804817281663417816e-02
4.607329890131950378e-02
2.817594073712825775e-02
2.356248721480369568e-02
1.314117200672626495e-02
-2.407925203442573547e-02
-5.731189623475074768e-03
-4.270085692405700684e-02
3.023073263466358185e-02
-3.123517706990242004e-02
2.420130372047424316e-02
3.939010575413703918e-02
-2.890387736260890961e-02
3.497363999485969543e-02
-3.322368115186691284e-02
1.812887750566005707e-02
-2.473517507314682007e-02
-2.209737338125705719e-02
3.789332881569862366e-02
-3.720195218920707703e-02
-4.284091666340827942e-02
1.267547998577356339e-02
3.659491986036300659e-02
-3.954327479004859924e-02
-9.450931102037429810e-03
-4.863737523555755615e-02
6.004623137414455414e-03
8.444455452263355255e-03
8.355611003935337067e-03
-1.079025678336620331e-02
-1.580561697483062744e-02
5.465830690809525549e-05
3.929815441370010376e-02
1.180522702634334564e-02
-3.098113648593425751e-02
-4.164004325866699219e-02
1.915602770168334246e-04
-6.988530512899160385e-03
-1.043030526489019394e-02
8.828186430037021637e-03
7.254974450916051865e-03
1.043637562543153763e-02
1.969189755618572235e-02
2.162171155214309692e-02
1.102507766336202621e-02
2.921130508184432983e-02
1.033256016671657562e-02
4.383668676018714905e-02
5.135446321219205856e-03
-7.181499153375625610e-03
-1.842691190540790558e-02
2.340682595968246460e-02
-2.512544766068458557e-02
7.144760340452194214e-03
4.017188772559165955e-02
-6.627464201301336288e-03
7.638265378773212433e-04
-3.572434186935424805e-02
-1.622697710990905762e-02
1.908354274928569794e-02
-1.927025243639945984e-02
-4.227798059582710266e-02
-2.358882315456867218e-02
-2.321836538612842560e-02
-2.567940624430775642e-03
-1.774998009204864502e-02
-3.825937584042549133e-02
3.061188198626041412e-02
2.610908262431621552e-02
-3.823821991682052612e-02
-4.167261719703674316e-02
-1.099253911525011063e-02
1.401809323579072952e-02
-4.549606144428253174e-02
2.918604575097560883e-02
2.697548829019069672e-03
2.125267684459686279e-02
-3.346708416938781738e-02
-4.300880059599876404e-02
-8.789197308942675591e-04
-4.759843274950981140e-02
2.092967554926872253e-02
3.619402274489402771e-02
-8.015121333301067352e-03
-2.113933488726615906e-02
-3.812887007370591164e-03
-1.544400583952665329e-02
2.416296862065792084e-02
4.375616554170846939e-03
3.023988800123333931e-03
2.384384721517562866e-02
-2.522760443389415741e-02
-8.433507755398750305e-03
3.593391180038452148e-02
-3.587832674384117126e-02
-2.609181217849254608e-02
-4.743898287415504456e-03
3.952772542834281921e-02
-3.864621743559837341e-02
-3.559765592217445374e-02
-1.441006921231746674e-02
1.184041798114776611e-02
-2.579787187278270721e-02
-3.665671870112419128e-02
-3.225589171051979065e-02
1.894449628889560699e-02
2.883731573820114136e-02
-1.254914142191410065e-02
1.576302200555801392e-02
-4.825715348124504089e-02
6.309065502136945724e-03
-3.055939637124538422e-02
-2.151084318757057190e-02
2.054280601441860199e-02
8.332046680152416229e-03
-1.876395754516124725e-02
1.010498218238353729e-02
5.297640804201364517e-03
4.817679524421691895e-02
-2.794902771711349487e-02
2.576353587210178375e-02
1.347033586353063583e-02
3.809002041816711426e-02
-2.446735836565494537e-02
-9.742904221639037132e-04
5.025395005941390991e-02
1.887985039502382278e-03
4.581056069582700729e-03
-5.792271811515092850e-03
2.656205929815769196e-02
1.529339049011468887e-02
-3.958225995302200317e-02
-4.422404989600181580e-02
-4.196199774742126465e-02
-7.388051133602857590e-03
-6.763451267033815384e-03
2.836232632398605347e-02
4.154047463089227676e-03
3.282247809693217278e-03
6.026030518114566803e-03
1.706275716423988342e-02
2.369818836450576782e-02
3.781651705503463745e-02
-2.880067040678113699e-04
4.400749132037162781e-02
2.924579381942749023e-02
7.311606779694557190e-03
-1.815814338624477386e-02
1.490649860352277756e-02
-3.301884233951568604e-02
2.517401240766048431e-02
4.129913821816444397e-02
2.739408612251281738e-02
3.204362094402313232e-02
-1.191738247871398926e-02
-4.561622813344001770e-02
-2.099628181895241141e-04
-3.275913745164871216e-02
3.957362845540046692e-02
1.670151576399803162e-02
3.441151930019259453e-04
1.587398722767829895e-02
4.379687085747718811e-02
2.479859627783298492e-02
2.190240100026130676e-02
-2.681673690676689148e-02
4.453316703438758850e-02
4.186118894722312689e-04
-2.829915285110473633e-02
1.080142147839069366e-02
1.473150681704282761e-02
1.160170044749975204e-02
2.636252529919147491e-02
-1.210683491080999374e-02
-2.372609265148639679e-02
1.908554881811141968e-02
-6.036048034729901701e-06
1.698359474539756775e-02
3.944870829582214355e-02
-2.278319001197814941e-02
-3.693163767457008362e-02
-1.589249819517135620e-02
-5.493411445058882236e-04
-3.095442987978458405e-02
6.896114908158779144e-03
2.690906636416912079e-02
-2.707295306026935577e-02
-2.170873619616031647e-02
-1.825088635087013245e-02
-2.801663428544998169e-02
-1.046970579773187637e-02
2.843805961310863495e-02
-1.815435849130153656e-02
4.139413312077522278e-02
4.388354718685150146e-02
-6.148442160338163376e-03
-3.098152019083499908e-02
-3.884485363960266113e-02
6.295395549386739731e-03
-2.482131123542785645e-02
-1.525121834129095078e-02
5.572648253291845322e-03
-2.054517157375812531e-02
-1.410518493503332138e-02
3.088579513132572174e-02
5.312119144946336746e-03
3.822200233116745949e-03
-4.591944161802530289e-03
4.374904092401266098e-03
-3.011271357536315918e-02
4.257816448807716370e-02
1.385468617081642151e-02
7.636166177690029144e-03
3.015941195189952850e-02
-1.584730483591556549e-02
-2.407972887158393860e-02
4.518580064177513123e-02
-4.358858242630958557e-02
4.165974259376525879e-02
-1.964307622984051704e-03
2.195105515420436859e-02
-2.932948991656303406e-02
1.816633529961109161e-02
-1.124844327569007874e-02
5.684535484760999680e-03
-2.354688756167888641e-02
-1.195756345987319946e-02
2.546089701354503632e-02
4.075485840439796448e-02
3.266722336411476135e-02
-4.293488338589668274e-02
-2.714632824063301086e-02
-3.473896905779838562e-02
-1.607513613998889923e-02
-2.431209385395050049e-02
1.593440212309360504e-02
4.459545761346817017e-02
-3.305552154779434204e-02
-5.675507243722677231e-03
-3.486610576510429382e-02
-1.344699133187532425e-02
2.533965930342674255e-02
-1.047769282013177872e-02
-5.947576370090246201e-03
-3.578677028417587280e-02
1.220231689512729645e-02
7.732935249805450439e-03
-4.239696264266967773e-02
-1.220110803842544556e-02
3.248349204659461975e-02
1.512842718511819839e-03
-1.168466731905937195e-02
-2.128754742443561554e-02
2.296963892877101898e-02
2.868502587080001831e-02
3.650006279349327087e-02
6.430894136428833008e-03
2.462283894419670105e-02
2.008758299052715302e-02
2.286289073526859283e-02
7.099522277712821960e-03
-3.451713919639587402e-02
-1.403719093650579453e-02
-9.443205781280994415e-03
3.858537971973419189e-02
-3.060293011367321014e-02
2.877913042902946472e-02
4.670251533389091492e-02
2.089465782046318054e-02
3.422584384679794312e-02
-1.143546123057603836e-02
-9.751526638865470886e-03
-2.327020093798637390e-02
-2.034988440573215485e-02
3.092588856816291809e-02
-4.015973582863807678e-02
-4.948051646351814270e-03
-2.456714399158954620e-02
2.743912918958812952e-04
3.404295071959495544e-02
-4.526606574654579163e-02
1.158568449318408966e-02
1.971600577235221863e-03
-1.483490783721208572e-02
1.869226107373833656e-03
-6.020293105393648148e-03
2.190223196521401405e-03
2.096534334123134613e-02
-4.330504685640335083e-02
-4.312787204980850220e-02
3.100355342030525208e-02
3.042080998420715332e-02
-3.808989003300666809e-02
-1.349016558378934860e-02
2.671449631452560425e-02
8.685918524861335754e-03
-2.454485185444355011e-02
5.012135580182075500e-02
-1.335965283215045929e-02
-3.130381181836128235e-02
-1.419971324503421783e-02
-1.892956160008907318e-02
4.337769374251365662e-02
-3.176738321781158447e-02
-3.087226115167140961e-02
-3.467521443963050842e-02
1.663351804018020630e-02
-2.816396951675415039e-02
-1.994137279689311981e-02
-1.864817738533020020e-02
-3.683422133326530457e-02
-5.820078309625387192e-03
-2.007630839943885803e-02
-1.165444776415824890e-02
-1.737830229103565216e-02
-2.179122902452945709e-02
2.292415499687194824e-02
2.233847975730895996e-02
7.448389660567045212e-03
-1.318320073187351227e-02
-9.737796150147914886e-03
2.058737538754940033e-02
8.339726482518017292e-04
2.925600484013557434e-02
-8.836365304887294769e-03
4.637667909264564514e-03
-7.597868330776691437e-03
2.106083929538726807e-02
-3.575658798217773438e-02
-2.776600606739521027e-02
-4.314854741096496582e-02
-9.528524242341518402e-03
2.089588530361652374e-02
4.122893512248992920e-02
-4.269549623131752014e-02
-1.702246954664587975e-03
1.771239005029201508e-02
1.993003673851490021e-02
2.768795192241668701e-02
-2.984648384153842926e-02
-4.771488253027200699e-03
-2.560210414230823517e-02
1.015472039580345154e-02
2.475973032414913177e-02
-2.473754622042179108e-02
-6.267268909141421318e-04
-2.457308955490589142e-02
1.344891823828220367e-02
-1.116245053708553314e-02
-2.732835244387388229e-03
-3.926112130284309387e-02
-2.743350109085440636e-03
1.695351093076169491e-03
5.132952332496643066e-02
-5.941304843872785568e-03
-3.590315952897071838e-02
-1.768067665398120880e-02
2.134891599416732788e-02
-4.429924488067626953e-02
1.532221771776676178e-02
4.867562092840671539e-04
-3.374721109867095947e-02
-9.555218741297721863e-03
4.010870680212974548e-02
-1.157426834106445312e-02
3.382039489224553108e-03
2.550803311169147491e-02
2.794486843049526215e-02
-4.315525665879249573e-02
4.306567087769508362e-02
4.095169901847839355e-02
-1.860309951007366180e-02
-3.868648409843444824e-02
-2.452919259667396545e-02
-2.611138671636581421e-02
-2.479079365730285645e-02
1.431549340486526489e-02
7.218253333121538162e-03
3.899388387799263000e-02
5.209840368479490280e-03
-4.378209635615348816e-02
-3.197886049747467041e-02
1.839590258896350861e-02
1.474863477051258087e-02
6.012053228914737701e-03
-6.764300633221864700e-03
1.282290555536746979e-02
-2.882340177893638611e-02
3.892265725880861282e-03
-3.796974942088127136e-02
-4.437460750341415405e-02
-3.550594672560691833e-02
-2.574050612747669220e-02
-1.609204337000846863e-02
1.087176520377397537e-02
-3.735848888754844666e-02
5.321151390671730042e-02
-3.299815952777862549e-02
-2.542446926236152649e-02
1.895635388791561127e-02
3.868192806839942932e-02
-2.649180591106414795e-02
-3.414434567093849182e-02
1.144375931471586227e-02
-1.057460345327854156e-02
-1.810428872704505920e-02
-6.013561505824327469e-04
8.637086488306522369e-03
-6.173172965645790100e-03
-1.493675261735916138e-02
-2.087440900504589081e-02
3.498306125402450562e-02
-1.502689532935619354e-02
-3.852069377899169922e-02
-2.053548768162727356e-02
-1.280029583722352982e-02
1.673302985727787018e-02
1.960987225174903870e-03
-1.347472774796187878e-03
1.911341212689876556e-02
-3.403630340471863747e-03
-2.413961291313171387e-02
-3.326553851366043091e-02
8.808773010969161987e-03
2.668741904199123383e-02
3.795062750577926636e-02
-3.056038729846477509e-02
3.006477281451225281e-02
3.755566477775573730e-02
-1.099494472146034241e-02
2.460608817636966705e-02
-1.717806607484817505e-02
-2.822447940707206726e-02
3.122195787727832794e-02
-3.379463159944862127e-04
-9.703441523015499115e-03
1.968473941087722778e-02
-1.885540597140789032e-02
-1.113011129200458527e-02
-2.585224620997905731e-02
-7.848337292671203613e-03
-3.665600344538688660e-02
3.720015659928321838e-02
5.060621351003646851e-02
3.606333211064338684e-02
-4.197934176772832870e-03
2.718584239482879639e-02
4.047555476427078247e-02
4.454305022954940796e-02
-3.863282129168510437e-02
2.446947991847991943e-02
7.728836499154567719e-03
-4.624258726835250854e-02
-4.570927936583757401e-03
3.395624086260795593e-02
7.910382002592086792e-03
1.958878338336944580e-02
4.229057207703590393e-02
4.576443508267402649e-02
3.705720975995063782e-02
2.952464111149311066e-02
1.549386605620384216e-02
1.451645419001579285e-02
-1.156055647879838943e-02
1.758909202180802822e-03
3.604422882199287415e-02
1.767445169389247894e-02
4.431263729929924011e-02
-1.457628794014453888e-02
7.591040339320898056e-04
3.663771227002143860e-02
6.966008339077234268e-03
1.563501730561256409e-02
4.192781634628772736e-04
-3.159113600850105286e-02
3.506448864936828613e-02
-3.028566716238856316e-03
-4.583343118429183960e-02
4.254237934947013855e-02
6.389624439179897308e-03
1.329833362251520157e-02
-9.533579461276531219e-03
-5.874244961887598038e-03
2.398614212870597839e-02
2.708664350211620331e-02
2.256521768867969513e-02
-2.931556105613708496e-02
-2.539408206939697266e-02
-9.336065500974655151e-03
3.404567390680313110e-02
-9.318269789218902588e-03
-2.779040718451142311e-03
3.903626929968595505e-03
-4.165636375546455383e-02
-1.395715400576591492e-03
1.346426550298929214e-02
-9.322458878159523010e-03
3.583764657378196716e-02
1.507588010281324387e-02
1.673306711018085480e-02
4.257509857416152954e-02
-2.399349957704544067e-02
-3.850328922271728516e-02
2.671226859092712402e-02
-1.890441216528415680e-02
3.247030079364776611e-02
-1.559353526681661606e-02
-1.552907750010490417e-02
-2.332099527120590210e-02
-1.144045777618885040e-02
-1.348484493792057037e-02
-2.897361293435096741e-03
4.132530838251113892e-02
3.327099978923797607e-02
-5.406024865806102753e-03
4.355755448341369629e-02
4.404600709676742554e-03
-3.571606427431106567e-02
-6.825333926826715469e-03
1.055433065630495548e-03
1.003743801265954971e-02
-9.242038242518901825e-03
-2.038397081196308136e-02
-2.564260736107826233e-02
2.479919232428073883e-02
-9.752430021762847900e-03
-1.270972564816474915e-02
2.810939913615584373e-03
-2.346046455204486847e-02
3.015470458194613457e-03
-1.244220789521932602e-02
-2.090660110116004944e-02
4.516723100095987320e-03
-1.343228016048669815e-02
-1.737805269658565521e-02
-2.605572575703263283e-03
-2.799592912197113037e-02
-1.954466849565505981e-02
3.309256955981254578e-02
-3.632476925849914551e-02
4.601215198636054993e-02
1.157679036259651184e-02
-3.054132498800754547e-02
-4.411823675036430359e-02
3.924265503883361816e-02
-3.651785850524902344e-02
-9.882807731628417969e-03
-1.656714268028736115e-02
-3.065574727952480316e-02
5.930151324719190598e-03
-1.411562412977218628e-02
-2.910361066460609436e-02
-2.575415000319480896e-02
1.222203020006418228e-02
-5.382618866860866547e-03
4.498802125453948975e-02
1.810486242175102234e-02
-9.429114870727062225e-03
-4.284130409359931946e-02
4.865843220613896847e-04
2.823225222527980804e-02
-4.078692290931940079e-03
-2.972732670605182648e-02
1.596306264400482178e-02
2.950395457446575165e-02
2.411804348230361938e-02
-1.256305538117885590e-02
-1.237316429615020752e-02
-3.441825881600379944e-02
-2.589570649433881044e-04
2.315654885023832321e-03
-2.020752290263772011e-03
3.216012194752693176e-02
3.434266149997711182e-02
-1.966295950114727020e-02
9.543574415147304535e-03
2.057919651269912720e-02
4.440584778785705566e-02
-2.688998542726039886e-02
-3.775952383875846863e-02
1.501413993537425995e-02
-4.157004132866859436e-02
3.263346478343009949e-02
2.987106703221797943e-02
2.777471765875816345e-02
-4.728182975668460131e-04
-1.728305779397487640e-02
-1.062871236354112625e-02
-5.447803996503353119e-03
6.197865586727857590e-04
1.594456844031810760e-02
3.607583418488502502e-02
-1.839189976453781128e-02
1.661023683845996857e-02
3.308953717350959778e-02
1.386230066418647766e-02
-1.342083793133497238e-02
3.266617190092802048e-03
3.864354267716407776e-02
3.495563566684722900e-02
-8.708768524229526520e-03
-1.840652152895927429e-02
2.280575409531593323e-02
1.772664301097393036e-02
-4.350586328655481339e-03
1.850870996713638306e-02
-3.291977941989898682e-02
1.811267063021659851e-02
4.767609015107154846e-02
4.160037636756896973e-02
-1.692292466759681702e-02
-2.445298945531249046e-03
-4.145670682191848755e-02
-1.308647077530622482e-02
4.453454911708831787e-02
2.279131877003237605e-04
-8.841691538691520691e-03
3.151045739650726318e-02
-5.236516240984201431e-03
6.150615809019654989e-05
4.715402051806449890e-02
-6.050075404345989227e-03
1.995543949306011200e-02
1.195553224533796310e-02
-1.239101868122816086e-02
-3.343819826841354370e-02
-1.017481926828622818e-02
2.391511201858520508e-02
-4.260423034429550171e-02
2.020099386572837830e-02
4.174804687500000000e-02
-1.334301196038722992e-02
1.220399979501962662e-02
7.260467391461133957e-03
4.143334552645683289e-02
-1.294766180217266083e-02
4.397792741656303406e-02
-1.551406271755695343e-02
-9.024479426443576813e-03
1.663229987025260925e-02
-3.872836753726005554e-02
3.647643327713012695e-02
2.761420607566833496e-02
2.655057981610298157e-02
-1.221465133130550385e-02
-1.574593409895896912e-02
1.133967842906713486e-02
-3.011980652809143066e-02
-1.687724841758608818e-03
-3.702227398753166199e-02
1.513656042516231537e-02
-1.483913511037826538e-02
8.134019561111927032e-03
-2.843050658702850342e-02
-2.642875909805297852e-02
4.364299401640892029e-02
3.434342518448829651e-02
-2.079847641289234161e-02
-1.435528323054313660e-02
3.344159945845603943e-02
-2.215084247291088104e-02
-2.700415253639221191e-02
3.970492631196975708e-02
1.735892705619335175e-02
2.572152763605117798e-02
-3.018603287637233734e-02
-3.496590256690979004e-02
4.021927341818809509e-02
-4.046798497438430786e-02
2.951392903923988342e-02
-1.814737729728221893e-02
-3.507978096604347229e-02
-2.965406142175197601e-02
-2.624634467065334320e-02
-2.756548300385475159e-02
9.106046520173549652e-03
3.450664877891540527e-02
3.338964888826012611e-03
-2.040693350136280060e-02
-7.892770692706108093e-03
-4.454011563211679459e-03
-1.476898230612277985e-02
-3.350399807095527649e-02
-4.723129794001579285e-02
-2.634295448660850525e-02
4.082674533128738403e-02
-1.444936543703079224e-02
-2.934363510576076806e-05
9.825754910707473755e-03
2.894155308604240417e-02
4.481167998164892197e-03
-1.915696077048778534e-02
3.479451313614845276e-02
7.335159927606582642e-03
-3.921609837561845779e-03
2.276782318949699402e-02
3.400764614343643188e-02
-3.745710104703903198e-02
2.556715905666351318e-02
3.314526751637458801e-02
1.739198574796319008e-03
-3.676645457744598389e-02
9.891065768897533417e-03
-3.287860378623008728e-02
3.449334576725959778e-02
1.840785145759582520e-02
1.477487385272979736e-03
9.394334629178047180e-03
-2.675204165279865265e-02
-2.440129220485687256e-02
2.578326687216758728e-02
-4.392778128385543823e-02
-4.319295752793550491e-03
-3.539820760488510132e-02
-1.471990253776311874e-02
-4.695401992648839951e-03
2.646263688802719116e-02
-3.493512421846389771e-02
-2.063760906457901001e-02
1.800673827528953552e-02
-2.649451047182083130e-02
4.200696572661399841e-02
-3.684230521321296692e-02
2.057867497205734253e-02
5.799557548016309738e-03
1.588215678930282593e-02
1.897021010518074036e-02
2.590409480035305023e-02
3.181437030434608459e-02
-2.852888777852058411e-02
-1.288287434726953506e-02
3.288438543677330017e-02
2.450322359800338745e-02
-2.442824840545654297e-02
-4.398250579833984375e-02
-2.548759803175926208e-02
-6.553600076586008072e-03
4.129572212696075439e-02
4.586644843220710754e-02
-4.666995257139205933e-03
3.684094548225402832e-02
4.442936927080154419e-02
-4.123977199196815491e-02
-3.048957325518131256e-02
3.083415143191814423e-02
4.720677435398101807e-02
3.285168856382369995e-02
-3.842485323548316956e-02
2.697719447314739227e-02
-3.615304082632064819e-02
1.742382533848285675e-02
2.899792790412902832e-02
-3.661907464265823364e-02
8.470629109069705009e-04
2.597026154398918152e-02
5.044367862865328789e-04
-3.928085416555404663e-02
9.337817318737506866e-03
3.297269716858863831e-02
2.914902940392494202e-02
-3.870703279972076416e-02
4.286546260118484497e-02
3.627533465623855591e-02
1.204583514481782913e-02
2.627152390778064728e-02
2.467552758753299713e-02
3.940552845597267151e-02
5.393648520112037659e-02
3.291406482458114624e-02
-7.497356738895177841e-03
3.821903094649314880e-02
-3.984380513429641724e-03
-7.443655282258987427e-03
-6.994038121774792671e-04
-7.666353601962327957e-03
-3.736341372132301331e-02
-3.731339471414685249e-03
-2.687045000493526459e-02
-3.020294383168220520e-02
3.799820318818092346e-02
-2.850950323045253754e-02
4.098235443234443665e-02
3.960830718278884888e-02
-3.407880663871765137e-02
2.442799322307109833e-02
2.456168085336685181e-02
-1.878383755683898926e-02
-6.719684693962335587e-03
5.041155964136123657e-02
-5.731060169637203217e-03
3.206359967589378357e-02
2.027776092290878296e-02
-2.087865024805068970e-02
3.930362686514854431e-02
2.693241834640502930e-02
1.372400484979152679e-02
3.851307183504104614e-02
1.186927128583192825e-02
3.887083753943443298e-02
-2.800895459949970245e-02
-8.432521484792232513e-03
-3.751670010387897491e-03
2.895728126168251038e-02
1.037921383976936340e-02
2.906482852995395660e-02
4.045741260051727295e-02
-5.252300761640071869e-03
1.007038354873657227e-02
6.418424658477306366e-03
1.901656202971935272e-02
-3.148969262838363647e-02
-1.167175173759460449e-02
-2.005755342543125153e-02
-4.430444445461034775e-03
1.118836272507905960e-02
2.833434008061885834e-02
2.257880987599492073e-03
4.005637485533952713e-03
1.755856792442500591e-03
-4.276305437088012695e-02
-4.089815542101860046e-02
-2.483710087835788727e-02
-1.919887587428092957e-02
2.528219856321811676e-02
2.910315059125423431e-02
-2.691018395125865936e-02
7.279035635292530060e-03
-5.526509135961532593e-03
2.952754124999046326e-02
-3.411532193422317505e-02
2.013729140162467957e-02
-1.639772765338420868e-02
3.495946153998374939e-02
-1.787779852747917175e-02
3.171006217598915100e-02
-4.077960737049579620e-03
4.743823374155908823e-04
-3.187362104654312134e-02
-1.525297574698925018e-02
3.620311617851257324e-02
-6.413400638848543167e-03
-2.910010516643524170e-02
-1.186371874064207077e-02
5.268780980259180069e-03
-4.009817913174629211e-02
-9.931751992553472519e-04
-2.223076112568378448e-02
-7.005049847066402435e-03
-1.110188383609056473e-02
-1.833843253552913666e-02
7.783991750329732895e-03
-9.754457511007785797e-03
-2.104895748198032379e-02
-2.158524096012115479e-02
6.944824010133743286e-03
3.964100778102874756e-02
-2.671906538307666779e-02
6.157610099762678146e-03
2.059722878038883209e-02
-2.335425466299057007e-02
-3.372666612267494202e-02
2.010503783822059631e-02
3.415652737021446228e-02
-3.930072858929634094e-02
3.216064348816871643e-02
-4.283302463591098785e-03
-1.202706247568130493e-02
1.628424040973186493e-02
-4.341752454638481140e-02
-1.807532645761966705e-02
1.039039902389049530e-02
-3.251720592379570007e-02
3.281725943088531494e-02
3.532265126705169678e-02
4.387883469462394714e-03
4.050588607788085938e-02
1.810630597174167633e-02
2.561355195939540863e-02
2.668572776019573212e-02
-7.617352064698934555e-03
-2.831903845071792603e-02
1.659685559570789337e-02
-3.286044520791620016e-04
-1.533529907464981079e-02
3.248195722699165344e-02
-4.670033231377601624e-03
2.256290055811405182e-02
-3.685553092509508133e-03
-4.223561286926269531e-02
-2.719487529247999191e-03
-3.363979980349540710e-02
4.432632587850093842e-03
-5.749077070504426956e-03
3.564536198973655701e-02
1.281409710645675659e-02
-1.506004389375448227e-02
-4.657829646021127701e-03
2.123152092099189758e-02
2.253236947581171989e-03
-2.518892474472522736e-02
1.079653296619653702e-02
4.872198402881622314e-02
2.437759749591350555e-02
4.507689736783504486e-03
-1.092586666345596313e-02
-2.248019911348819733e-02
-3.263510018587112427e-02
-1.641027070581912994e-02
3.952491562813520432e-03
-3.240351006388664246e-02
2.151022851467132568e-02
1.555887237191200256e-02
-1.343384291976690292e-02
-3.840901330113410950e-02
-2.497504651546478271e-02
-2.846222184598445892e-02
-2.487115748226642609e-02
-1.603655284270644188e-03
-4.222456365823745728e-02
-3.960000351071357727e-02
-4.706035554409027100e-02
-3.697483800351619720e-03
3.430642560124397278e-02
2.854197099804878235e-02
-5.582558456808328629e-03
-6.541919428855180740e-03
4.751184582710266113e-02
1.135373115539550781e-02
-8.978743106126785278e-03
2.839405322447419167e-03
3.265575971454381943e-03
-1.434004493057727814e-02
-1.837446913123130798e-02
2.105852030217647552e-02
2.502616122364997864e-02
-3.534186864271759987e-03
-2.527717314660549164e-02
-2.947973832488059998e-02
1.361789647489786148e-02
-4.130238294601440430e-02
2.965163812041282654e-02
2.645471692085266113e-02
-3.438170626759529114e-02
7.138083223253488541e-03
7.925396785140037537e-03
-1.293508522212505341e-02
2.415425330400466919e-02
1.535936538130044937e-02
-2.291951701045036316e-02
7.235231343656778336e-03
1.327382028102874756e-02
-3.362330421805381775e-02
2.812653407454490662e-02
-2.965452335774898529e-02
3.084361925721168518e-02
4.058356955647468567e-02
6.655540782958269119e-03
2.081266231834888458e-02
3.185520693659782410e-02
3.139811754226684570e-02
2.207094803452491760e-02
1.675836555659770966e-02
3.320528194308280945e-02
2.108711749315261841e-02
-7.298017852008342743e-03
-1.266696769744157791e-02
-1.151957735419273376e-02
1.469349581748247147e-02
1.132976543158292770e-02
-2.127199992537498474e-02
-1.146530546247959137e-02
2.162057161331176758e-02
4.313499201089143753e-03
-1.843654178082942963e-02
-2.002028562128543854e-02
3.312540799379348755e-02
1.894998736679553986e-02
-1.674199290573596954e-02
-1.505382731556892395e-02
1.873941533267498016e-02
-6.374243646860122681e-03
-7.585774641484022141e-03
-8.520280942320823669e-03
-3.243927285075187683e-02
3.341679275035858154e-02
-1.036000717431306839e-02
3.903034608811140060e-03
-3.189505951013416052e-04
2.620320767164230347e-02
-7.643537595868110657e-03
-2.307955920696258545e-02
-1.760211028158664703e-02
-1.747426018118858337e-02
-4.510495066642761230e-02
5.104033648967742920e-02
1.611742191016674042e-02
-2.373716048896312714e-02
3.617263957858085632e-02
-1.574006304144859314e-02
-3.925937041640281677e-02
-4.249633476138114929e-02
4.615248367190361023e-02
-1.390753686428070068e-02
2.637280337512493134e-02
3.140198066830635071e-02
3.769448399543762207e-02
4.820019821636378765e-04
-1.040030550211668015e-02
2.336946129798889160e-02
-1.066161412745714188e-02
3.835033252835273743e-02
-1.990763656795024872e-02
2.213877253234386444e-02
-4.652940109372138977e-02
-7.817378267645835876e-03
6.663195788860321045e-03
-2.929317764937877655e-02
-2.838310040533542633e-02
-1.703426823951303959e-03
3.120252676308155060e-02
-3.986909613013267517e-02
2.238825522363185883e-02
-4.247654229402542114e-02
2.745499089360237122e-02
-2.844930812716484070e-02
-1.002559531480073929e-02
-2.956641092896461487e-02
4.653521627187728882e-02
6.114135030657052994e-03
2.758747525513172150e-02
-3.880277648568153381e-02
2.414806373417377472e-02
-2.263536490499973297e-02
-3.770272014662623405e-04
-4.285953193902969360e-02
-4.582983627915382385e-02
-3.681959584355354309e-02
-1.794025674462318420e-02
1.084659341722726822e-02
-2.377248741686344147e-02
5.155660677701234818e-03
-1.995762251317501068e-02
2.858804911375045776e-02
7.566660642623901367e-03
-3.962653502821922302e-02
6.778894923627376556e-03
-1.023023482412099838e-02
-4.419298842549324036e-02
1.126638520509004593e-02
2.074394933879375458e-02
4.623824730515480042e-02
7.579891476780176163e-03
-3.557823970913887024e-02
-4.084024950861930847e-02
-1.595391519367694855e-02
-8.724579587578773499e-03
2.185096405446529388e-02
-3.978323191404342651e-02
1.291266735643148422e-02
2.290700748562812805e-02
-2.620859304443001747e-03
2.698586881160736084e-02
3.549885749816894531e-02
9.557657875120639801e-03
2.485907450318336487e-02
-6.125014740973711014e-03
3.898392617702484131e-02
-2.303379774093627930e-02
4.011690616607666016e-02
-1.681072637438774109e-02
-2.784000150859355927e-02
1.920970529317855835e-02
-1.904750615358352661e-02
2.153803221881389618e-02
-3.375422582030296326e-02
-3.811705857515335083e-02
2.898660860955715179e-02
-4.225679859519004822e-02
1.357011310756206512e-02
-1.215387787669897079e-02
-2.281239069998264313e-02
3.504009172320365906e-02
-1.106843445450067520e-02
-3.060047514736652374e-02
-4.010385833680629730e-03
1.499134767800569534e-02
-1.511675212532281876e-02
3.587102144956588745e-02
-1.814365014433860779e-02
2.006165310740470886e-02
-2.128684334456920624e-02
-3.421328216791152954e-02
-2.479236200451850891e-02
-1.651860773563385010e-02
3.520202636718750000e-02
-3.101304732263088226e-02
-4.376633092761039734e-02
-4.306479543447494507e-02
-2.579784393310546875e-02
3.994647040963172913e-02
1.160131301730871201e-02
5.963196977972984314e-02
2.699926123023033142e-02
-2.310176938772201538e-02
-3.989796712994575500e-02
-4.790809005498886108e-02
4.891355987638235092e-03
-3.112124465405941010e-02
-4.220607131719589233e-02
1.391479838639497757e-02
3.708841651678085327e-02
8.951795287430286407e-03
3.548315539956092834e-02
9.952444583177566528e-03
-8.969239890575408936e-03
-4.134972020983695984e-02
-2.044283412396907806e-02
-4.452176799532026052e-04
-1.545737963169813156e-02
-3.641900792717933655e-02
4.881369415670633316e-03
3.373822197318077087e-02
-2.010631002485752106e-02
3.101877868175506592e-02
-2.892060764133930206e-02
2.368298731744289398e-02
2.694458514451980591e-02
2.204841002821922302e-02
2.404840663075447083e-02
3.251719847321510315e-02
-3.837293758988380432e-02
4.869606718420982361e-02
-2.699645794928073883e-02
9.573756251484155655e-04
-3.505746275186538696e-02
4.837371781468391418e-02
2.400125004351139069e-02
4.144569858908653259e-02
-4.471012204885482788e-02
-4.225661233067512512e-02
-1.637508906424045563e-02
-4.334280733019113541e-03
3.457889426499605179e-03
-2.311404608190059662e-02
1.340427342802286148e-02
7.890772074460983276e-03
3.827120736241340637e-02
-3.708701953291893005e-02
-2.387134172022342682e-02
4.147808626294136047e-02
1.422708388417959213e-02
2.305011032149195671e-03
2.252967655658721924e-02
-3.066077083349227905e-02
2.153205685317516327e-02
-2.261173911392688751e-02
2.410697191953659058e-02
2.106110099703073502e-03
-1.790753565728664398e-02
-7.077999413013458252e-03
-2.326188981533050537e-02
-1.820819638669490814e-02
1.799085922539234161e-02
-3.395507857203483582e-02
1.843811385333538055e-02
2.033730037510395050e-02
-1.734887436032295227e-02
2.097825054079294205e-03
1.207786984741687775e-02
4.935531411319971085e-03
2.904167771339416504e-02
1.068418938666582108e-02
3.284550830721855164e-02
1.434879750013351440e-02
1.629778929054737091e-02
2.170915156602859497e-02
1.954179629683494568e-02
3.711756318807601929e-03
1.057454757392406464e-02
4.101709276437759399e-02
3.482813015580177307e-02
1.957631297409534454e-02
-2.570091560482978821e-02
8.287413977086544037e-03
-2.309603989124298096e-02
-1.787737756967544556e-02
-3.719506785273551941e-02
-1.741111092269420624e-02
-3.761640191078186035e-02
4.973298870027065277e-03
-1.007762923836708069e-02
-1.550543215125799179e-02
-7.551087532192468643e-03
-2.752181887626647949e-02
-2.787695638835430145e-02
-4.038220271468162537e-02
1.910179294645786285e-02
-1.171812601387500763e-02
-3.215301036834716797e-02
8.362156338989734650e-03
-6.276054307818412781e-03
-4.266566783189773560e-02
3.191470727324485779e-02
2.978354133665561676e-02
-1.585257425904273987e-02
3.244806453585624695e-02
-2.553606033325195312e-02
-1.052310969680547714e-02
1.682957448065280914e-02
3.567363321781158447e-02
-1.229715719819068909e-02
2.728686854243278503e-02
6.692063994705677032e-03
5.600317381322383881e-03
3.462000982835888863e-03
-1.724522188305854797e-02
3.701819106936454773e-02
-2.662295592017471790e-04
-1.941032707691192627e-02
4.066105186939239502e-02
3.572477260604500771e-03
-3.909435123205184937e-02
-9.197374805808067322e-03
-7.559942896477878094e-04
2.743841893970966339e-02
3.472574427723884583e-02
-5.034940782934427261e-03
1.630391739308834076e-02
-5.613321438431739807e-03
2.771143242716789246e-02
8.203201927244663239e-03
-4.265311360359191895e-02
3.010993450880050659e-02
4.583862796425819397e-02
-2.320645190775394440e-02
4.991620313376188278e-03
-1.995712751522660255e-03
-2.074995450675487518e-02
-2.817169018089771271e-02
-3.892168402671813965e-02
-1.891144365072250366e-02
-1.188711263239383698e-03
-1.173203065991401672e-02
-1.686698384582996368e-02
3.785859560593962669e-03
3.295048326253890991e-02
5.495646223425865173e-02
2.645893581211566925e-02
-1.247313898056745529e-02
3.603593260049819946e-02
4.135622084140777588e-02
2.844746597111225128e-02
-1.629122532904148102e-02
-2.645562589168548584e-02
-1.890201866626739502e-02
1.725365035235881805e-02
-1.535004377365112305e-02
-5.315940082073211670e-02
1.157434750348329544e-02
-2.222675457596778870e-02
7.716779597103595734e-03
-3.419178351759910583e-02
6.683547515422105789e-03
-1.960500888526439667e-02
4.382351413369178772e-02
-1.653778553009033203e-02
-3.500217944383621216e-02
9.407996200025081635e-03
3.176258131861686707e-02
-1.301407162100076675e-02
-4.237316083163022995e-03
6.208095699548721313e-03
-1.736319996416568756e-02
1.322529278695583344e-02
1.910341717302799225e-02
1.966964080929756165e-02
3.432197496294975281e-02
2.275845780968666077e-02
7.940257899463176727e-03
-2.904790220782160759e-03
-2.719956263899803162e-02
-2.786670625209808350e-02
-7.654970977455377579e-03
3.395172208547592163e-02
2.761409245431423187e-02
-2.392502874135971069e-02
2.946677058935165405e-02
3.267719969153404236e-02
-1.624502614140510559e-02
-3.618231788277626038e-02
1.891799038276076317e-03
-1.202380470931529999e-02
2.822473458945751190e-02
-2.276604808866977692e-02
7.043539546430110931e-03
4.518898576498031616e-02
1.531569939106702805e-02
-4.439666867256164551e-02
-2.358101494610309601e-02
2.824348770081996918e-02
3.695854172110557556e-02
-6.882445886731147766e-03
2.273932844400405884e-02
-3.541624173521995544e-02
9.909240528941154480e-03
3.744534403085708618e-02
-4.296957328915596008e-02
2.042501978576183319e-02
-3.213621675968170166e-02
-2.507334388792514801e-02
1.349765527993440628e-02
-1.833494752645492554e-02
1.777147874236106873e-03
1.945084705948829651e-02
2.732674404978752136e-02
-1.014017686247825623e-02
-6.874389015138149261e-03
1.675652340054512024e-02
2.456294745206832886e-02
-1.519909780472517014e-02
4.063995555043220520e-02
2.518517151474952698e-02
-3.259959816932678223e-02
2.797632105648517609e-02
7.784523069858551025e-03
7.662111427634954453e-03
1.830066554248332977e-02
3.343468904495239258e-02
-3.511935006827116013e-03
1.699119806289672852e-02
-7.244766224175691605e-03
2.357862889766693115e-02
3.802037984132766724e-02
4.408815130591392517e-02
-8.769090287387371063e-03
-3.316887887194752693e-03
-3.065974451601505280e-02
1.029811147600412369e-02
2.517375862225890160e-03
2.302758948644623160e-04
-3.022084012627601624e-02
8.828062564134597778e-04
1.141689624637365341e-02
3.679006546735763550e-02
3.743116930127143860e-02
-5.483877845108509064e-03
2.514250576496124268e-02
-2.308220602571964264e-02
3.085335902869701385e-02
-1.543645374476909637e-02
3.580233827233314514e-02
-9.156649932265281677e-03
-3.730135783553123474e-02
4.186528921127319336e-02
1.695441268384456635e-02
-2.299883775413036346e-02
-2.988737076520919800e-02
-7.146689575165510178e-03
1.075964793562889099e-02
3.087375313043594360e-02
-1.756375655531883240e-02
8.671828545629978180e-03
-1.752171851694583893e-02
-3.763560578227043152e-02
-2.349851187318563461e-03
-3.726489469408988953e-02
-5.180358886718750000e-02
-4.099487140774726868e-02
1.240972522646188736e-02
2.813648991286754608e-02
3.571228682994842529e-02
-2.777307853102684021e-02
-3.945305943489074707e-02
3.897713124752044678e-02
-2.134916372597217560e-02
-2.846026606857776642e-02
-2.528046257793903351e-03
3.522127866744995117e-02
-2.030625939369201660e-02
7.760070264339447021e-03
3.181953728199005127e-02
2.695116400718688965e-02
3.391121700406074524e-02
4.671612381935119629e-02
3.869671374559402466e-02
-3.655671328306198120e-02
1.994487270712852478e-02
2.333038114011287689e-02
-3.916653990745544434e-02
1.968141458928585052e-02
-1.956230215728282928e-02
-1.950800232589244843e-02
2.113549225032329559e-02
-3.297236189246177673e-02
4.219403117895126343e-02
2.117263938998803496e-04
1.101683737942948937e-04
1.663696207106113434e-02
3.211659565567970276e-02
-3.175864694640040398e-03
-1.624616794288158417e-02
2.815281413495540619e-02
-2.257482521235942841e-02
-2.681608684360980988e-02
-1.320139784365892410e-02
-1.689312234520912170e-02
2.552024647593498230e-02
3.200509026646614075e-02
-4.619736224412918091e-03
3.044478781521320343e-02
-6.393129471689462662e-03
-8.591951802372932434e-03
-4.648145288228988647e-02
8.947895839810371399e-03
-2.323696948587894440e-02
-4.121939837932586670e-02
-6.898602005094289780e-03
3.391410224139690399e-03
1.645772904157638550e-02
2.102262340486049652e-02
-1.822653412818908691e-02
-1.663629896938800812e-02
1.720673777163028717e-02
4.674510285258293152e-02
2.973042055964469910e-02
-4.025681316852569580e-02
-2.582466043531894684e-02
4.216827824711799622e-02
6.486649625003337860e-03
3.183261305093765259e-02
4.078842699527740479e-02
-4.447614483069628477e-04
-8.529060520231723785e-03
-4.121426865458488464e-02
7.456218823790550232e-03
-2.436250634491443634e-02
1.903355307877063751e-02
2.588180266320705414e-02
1.849471591413021088e-02
2.175015211105346680e-02
-8.743567392230033875e-03
1.146036386489868164e-02
5.275519192218780518e-02
6.164301303215324879e-04
-3.557215258479118347e-02
-7.618313189595937729e-03
3.884116187691688538e-02
-2.387971244752407074e-02
-4.458825290203094482e-02
1.119986735284328461e-02
3.426079079508781433e-02
4.392039030790328979e-03
3.197444975376129150e-02
4.043259099125862122e-02
-1.858867146074771881e-02
3.095371089875698090e-02
-2.704934030771255493e-02
-9.659346193075180054e-03
-4.171111807227134705e-02
-4.294293746352195740e-02
-4.604358226060867310e-02
1.922705024480819702e-02
-2.990853227674961090e-02
4.037212207913398743e-02
2.968495711684226990e-02
3.856033459305763245e-02
-1.126090064644813538e-02
1.133051514625549316e-02
1.844678632915019989e-02
1.077951397746801376e-03
1.110466104000806808e-02
-7.306080777198076248e-03
-1.842452795244753361e-03
-1.617693342268466949e-02
-2.774405665695667267e-02
-9.158583357930183411e-03
-3.465539216995239258e-02
4.015394952148199081e-03
4.536263272166252136e-02
-1.153776887804269791e-02
-3.435464203357696533e-02
1.253857160918414593e-03
-1.007215119898319244e-02
1.345959492027759552e-02
1.290273014456033707e-02
6.760307122021913528e-03
3.621993213891983032e-02
3.167008748278021812e-03
2.908907830715179443e-02
9.145048446953296661e-03
-4.813240841031074524e-03
1.783113926649093628e-02
-5.832216702401638031e-03
-2.149320952594280243e-02
3.965255618095397949e-02
-1.689946837723255157e-02
-2.784953452646732330e-02
-1.496071927249431610e-02
2.658961340785026550e-02
4.491055384278297424e-02
-6.637614686042070389e-03
4.190484061837196350e-02
1.575808227062225342e-02
6.744929123669862747e-03
1.886445097625255585e-02
2.284896932542324066e-02
-1.187494862824678421e-02
-3.757600486278533936e-02
-1.017797924578189850e-02
-1.075211726129055023e-02
1.134666707366704941e-02
3.753694519400596619e-02
4.541850648820400238e-03
4.268465563654899597e-02
2.701072208583354950e-02
2.691318839788436890e-02
-2.274193335324525833e-03
-4.078715667128562927e-02
-3.240114450454711914e-02
-7.167348172515630722e-03
3.597885742783546448e-02
2.613198303151875734e-04
-1.223600469529628754e-02
3.968355432152748108e-02
4.488195851445198059e-02
-3.337434306740760803e-02
1.936867833137512207e-02
-1.919133588671684265e-02
-1.522959396243095398e-02
2.347079804167151451e-03
1.315456721931695938e-02
-4.566925391554832458e-02
-1.629003137350082397e-02
4.301701858639717102e-02
-2.477512881159782410e-02
-3.018441796302795410e-02
2.618513628840446472e-02
2.978646382689476013e-02
5.638203583657741547e-03
-3.939364850521087646e-02
1.622783136554062366e-03
-6.920054554939270020e-03
-6.841297727078199387e-05
7.005012594163417816e-03
-3.861746191978454590e-02
-2.333461493253707886e-02
-1.179563254117965698e-02
-3.325260058045387268e-02
2.600395353510975838e-03
-1.578194461762905121e-02
2.322982624173164368e-02
5.508728208951652050e-04
8.698797784745693207e-03
1.223599421791732311e-03
6.564568262547254562e-03
-4.257242660969495773e-03
6.232884712517261505e-03
6.889503449201583862e-03
-1.765831746160984039e-02
-4.212370887398719788e-02
3.762844577431678772e-02
-8.736931486055254936e-04
-1.769579574465751648e-02
2.532185614109039307e-02
-2.055439166724681854e-02
3.376871719956398010e-02
4.229284822940826416e-02
2.289217337965965271e-02
1.199771277606487274e-02
-5.349282640963792801e-03
3.105425089597702026e-02
3.413622826337814331e-02
1.733805239200592041e-02
4.073320701718330383e-02
2.948802523314952850e-02
-1.379703264683485031e-02
-3.225973621010780334e-02
2.773738838732242584e-02
2.338975667953491211e-02
-1.344678271561861038e-02
-4.690430313348770142e-02
-6.130140740424394608e-03
-4.125076346099376678e-03
1.599964872002601624e-02
-2.401326037943363190e-02
2.858358807861804962e-02
4.184228554368019104e-02
6.970207206904888153e-03
1.591097214259207249e-03
8.850238285958766937e-03
1.887596212327480316e-02
1.153631880879402161e-02
-4.569676518440246582e-02
-7.179589476436376572e-03
1.394516089931130409e-03
-2.101444173604249954e-03
1.814011111855506897e-02
2.404212951660156250e-02
3.884539753198623657e-02
4.509115591645240784e-02
2.864407561719417572e-02
1.166109926998615265e-02
5.153380800038576126e-03
1.804099790751934052e-02
-2.057397924363613129e-02
2.524488233029842377e-02
3.576643764972686768e-02
2.237818948924541473e-02
2.489981800317764282e-02
2.494881302118301392e-02
4.024490714073181152e-02
-2.302896603941917419e-02
1.665166579186916351e-02
-2.983135543763637543e-02
2.734772861003875732e-03
5.541356280446052551e-02
-2.665900252759456635e-02
3.471860289573669434e-02
3.461144492030143738e-02
4.883942008018493652e-02
6.311828736215829849e-03
3.223321586847305298e-02
1.522892899811267853e-02
-6.494739092886447906e-03
-2.060768194496631622e-03
3.382378444075584412e-02
1.380941085517406464e-02
-2.132294327020645142e-02
-1.588960923254489899e-02
-6.164470687508583069e-04
5.321781150996685028e-03
-2.644965425133705139e-02
-2.054751105606555939e-02
-3.939325734972953796e-02
-2.083115093410015106e-02
-1.584698259830474854e-02
1.863042451441287994e-02
1.137458160519599915e-02
-3.007571445778012276e-03
2.301893383264541626e-02
-5.169942509382963181e-03
3.417905792593955994e-02
-2.696220204234123230e-02
-2.515114657580852509e-02
-5.056180525571107864e-03
3.700527921319007874e-02
2.642013132572174072e-02
-6.257228087633848190e-03
-3.800890222191810608e-02
-3.076216019690036774e-02
-3.193842247128486633e-02
-2.641696482896804810e-02
-2.704219706356525421e-02
2.888086438179016113e-02
3.672565147280693054e-02
2.188394963741302490e-02
3.232378512620925903e-02
3.307125717401504517e-02
-3.562555462121963501e-02
3.295118734240531921e-02
3.302426263689994812e-02
1.059814635664224625e-02
-2.402402088046073914e-02
3.081176429986953735e-02
1.438432745635509491e-02
-1.344114262610673904e-02
4.402098245918750763e-03
-8.628327399492263794e-03
3.000650741159915924e-02
-2.611116692423820496e-02
-1.842492073774337769e-02
-2.935188449919223785e-02
-7.881994359195232391e-03
-5.210456904023885727e-03
-1.570691703818738461e-03
6.605390459299087524e-03
3.850743919610977173e-02
-3.787738457322120667e-02
-2.573901228606700897e-02
2.119439467787742615e-02
-1.148567814379930496e-02
2.850891277194023132e-02
3.121068701148033142e-02
-1.994378492236137390e-02
-3.060736507177352905e-02
-2.518635243177413940e-02
-4.012160003185272217e-02
7.192064076662063599e-03
-4.606887232512235641e-03
-2.485300181433558464e-03
3.353074193000793457e-02
4.674118477851152420e-03
1.296358369290828705e-02
3.821368142962455750e-02
1.917387545108795166e-02
1.270485110580921173e-03
-2.580656297504901886e-02
2.454018592834472656e-02
3.226064518094062805e-02
-1.556581165641546249e-02
2.954730764031410217e-02
-2.783555164933204651e-02
4.502454772591590881e-02
1.313527673482894897e-02
1.260165707208216190e-03
-4.709074273705482483e-02
-4.983949474990367889e-03
2.337704226374626160e-02
7.205206900835037231e-03
-4.095180705189704895e-02
-4.114385694265365601e-02
4.142327606678009033e-02
-3.658309578895568848e-02
2.847667783498764038e-04
-5.407932912930846214e-04
2.328945696353912354e-02
1.608333922922611237e-02
5.039669573307037354e-02
-1.959007605910301208e-02
3.245632350444793701e-02
2.507594041526317596e-02
-2.042995952069759369e-02
4.487625556066632271e-04
-1.744770444929599762e-02
1.303338911384344101e-02
9.881344623863697052e-03
1.407865807414054871e-02
-1.948768645524978638e-02
-1.919005438685417175e-02
-6.215344183146953583e-03
-1.132028084248304367e-02
-2.875605411827564240e-02
1.224381662905216217e-02
6.236311513930559158e-03
-2.614969946444034576e-02
3.905963152647018433e-02
-4.116141051054000854e-02
-1.869129948318004608e-02
5.042064189910888672e-02
-8.166445419192314148e-03
3.239227458834648132e-02
-2.684362232685089111e-03
-8.261529146693646908e-04
-3.667369112372398376e-02
5.910640116780996323e-03
1.148180291056632996e-02
-3.013564506545662880e-03
2.271152101457118988e-02
4.335786215960979462e-03
5.537271965295076370e-03
-2.437126263976097107e-02
-3.343299776315689087e-02
-7.795322220772504807e-03
-3.097655065357685089e-02
3.656603395938873291e-02
1.371266506612300873e-02
-8.658876642584800720e-03
-1.672445051372051239e-02
-4.124274104833602905e-02
7.735267747193574905e-03
3.582518920302391052e-02
3.035543859004974365e-02
1.212084759026765823e-02
-4.479489102959632874e-02
-6.970877759158611298e-03
2.939756028354167938e-03
1.779310987330973148e-03
2.805968746542930603e-02
-1.815091446042060852e-02
-3.136737272143363953e-02
1.043119188398122787e-02
-1.181044988334178925e-02
-1.905355229973793030e-02
-8.702854625880718231e-03
-3.389879316091537476e-02
-3.653537854552268982e-02
3.528035059571266174e-02
2.568612620234489441e-02
-1.848520338535308838e-02
3.452210128307342529e-02
-1.495983637869358063e-02
-2.619661949574947357e-02
-2.764934301376342773e-02
-3.174414113163948059e-02
-2.322119195014238358e-03
-4.778135567903518677e-02
3.242575377225875854e-02
-1.523992139846086502e-02
1.573810912668704987e-02
2.870825678110122681e-02
1.904425024986267090e-02
-2.237849310040473938e-02
-1.389783900231122971e-02
-3.113709203898906708e-02
-1.581223122775554657e-02
2.114279009401798248e-02
2.481330744922161102e-02
4.560455563478171825e-04
-1.250079181045293808e-02
-2.342312969267368317e-02
3.791773319244384766e-02
3.660644218325614929e-02
4.644688218832015991e-02
-1.498601050116121769e-03
-2.381465770304203033e-02
-1.055460236966609955e-02
2.337780967354774475e-02
-1.228811126202344894e-02
-4.192219302058219910e-02
-3.654811903834342957e-02
-3.655809536576271057e-02
9.349208325147628784e-03
-1.404891256242990494e-02
-3.107251971960067749e-02
-8.915700949728488922e-03
-1.716302521526813507e-02
1.460823137313127518e-02
-2.012158371508121490e-02
1.453356258571147919e-02
-2.842902205884456635e-02
3.268760442733764648e-02
-7.296597119420766830e-03
2.257180772721767426e-02
-2.641844004392623901e-02
-3.580643609166145325e-02
2.505417540669441223e-02
4.622051492333412170e-02
4.576878994703292847e-02
3.921365737915039062e-02
-1.645390503108501434e-02
-7.245547603815793991e-03
-3.329639509320259094e-02
1.426049042493104935e-02
2.402535825967788696e-02
-9.063077159225940704e-03
-3.095142543315887451e-02
1.369402930140495300e-02
1.146428193897008896e-02
9.800158441066741943e-03
-3.568605333566665649e-02
3.887461125850677490e-02
-4.701283946633338928e-02
3.932265564799308777e-02
7.054985617287456989e-04
-4.451380670070648193e-02
9.667978622019290924e-03
-1.564938458614051342e-03
-3.990510851144790649e-02
1.502752210944890976e-02
-1.051957346498966217e-02
-3.409818932414054871e-02
3.596698865294456482e-02
4.031352698802947998e-02
1.653655618429183960e-02
-1.902354136109352112e-02
3.722265735268592834e-02
-3.244177252054214478e-02
-8.334217593073844910e-03
3.554034978151321411e-02
2.851462922990322113e-02
-4.042299464344978333e-02
2.527138218283653259e-02
-9.336203336715698242e-03
-3.837532550096511841e-02
-1.084462180733680725e-02
1.047266088426113129e-02
-3.338352218270301819e-02
1.903719082474708557e-02
-4.429728537797927856e-02
-8.714279159903526306e-03
-8.716013282537460327e-03
-3.439878299832344055e-02
2.636070363223552704e-02
-2.816555649042129517e-02
-2.048961631953716278e-02
-7.733750157058238983e-03
-1.464291941374540329e-02
1.800280436873435974e-02
-3.134257858619093895e-03
-4.635945893824100494e-03
-2.879878040403127670e-03
-3.307737782597541809e-02
2.476022578775882721e-02
4.089677706360816956e-02
-3.177269175648689270e-02
-1.940570026636123657e-02
-2.554764784872531891e-02
-3.333964198827743530e-02
3.017939999699592590e-02
-1.101448852568864822e-02
-8.926260052248835564e-04
1.948536559939384460e-02
1.063986960798501968e-02
1.994762383401393890e-02
4.594365134835243225e-02
-5.843077320605516434e-03
-1.845618896186351776e-02
-2.827991545200347900e-02
-3.314083814620971680e-02
-3.594217821955680847e-02
3.698924556374549866e-02
9.533431380987167358e-03
4.263814166188240051e-02
8.821861818432807922e-03
-2.425543218851089478e-02
1.579493656754493713e-02
4.378139600157737732e-02
-2.353330329060554504e-02
3.969001024961471558e-02
-2.336144633591175079e-02
-3.566789999604225159e-02
9.654995985329151154e-03
4.585181921720504761e-02
7.063005585223436356e-03
-3.527127578854560852e-02
8.814401924610137939e-03
-1.003791950643062592e-02
2.704405225813388824e-02
1.435588486492633820e-02
-4.053355660289525986e-03
3.564460948109626770e-02
2.993708103895187378e-02
-3.956288099288940430e-02
1.856483891606330872e-02
-7.843106985092163086e-03
-4.490919411182403564e-02
-2.755469758994877338e-04
-1.766717247664928436e-02
2.219288609921932220e-02
2.782554551959037781e-02
3.422969579696655273e-02
-3.191272169351577759e-02
-3.118783421814441681e-02
-3.071449883282184601e-02
-1.104846131056547165e-03
3.757876530289649963e-02
-1.092620939016342163e-02
1.543361600488424301e-02
-3.853268548846244812e-02
1.640115678310394287e-02
-7.197564118541777134e-04
-3.489513322710990906e-02
-3.982836753129959106e-02
-3.956445492804050446e-03
3.093214705586433411e-02
-4.626713693141937256e-02
-2.226637862622737885e-02
-2.889380604028701782e-02
2.670952863991260529e-02
-3.180038183927536011e-02
-2.773088216781616211e-02
-1.372497808188199997e-02
7.267341716215014458e-04
1.715553365647792816e-02
-3.201052173972129822e-02
-1.087941415607929230e-02
7.493406068533658981e-03
-3.842416405677795410e-02
-1.047803275287151337e-02
-6.048353854566812515e-03
-1.458658091723918915e-02
4.505961760878562927e-02
-1.921383850276470184e-02
-1.691274344921112061e-02
2.933125942945480347e-02
1.819958910346031189e-02
-2.513085119426250458e-02
-2.931112051010131836e-02
2.696736343204975128e-02
3.986859694123268127e-02
4.082815349102020264e-02
3.526436164975166321e-02
4.399448633193969727e-02
4.556633532047271729e-02
2.140817046165466309e-02
1.329732360318303108e-03
2.473682351410388947e-02
1.349629554897546768e-02
2.368354005739092827e-03
3.936441987752914429e-02
-2.563494816422462463e-02
-2.887799404561519623e-02
-2.104585431516170502e-02
5.293193738907575607e-03
-1.543033751659095287e-03
-7.518258411437273026e-03
-3.558907285332679749e-02
-4.257170855998992920e-02
-4.001873359084129333e-02
1.563596422784030437e-03
-9.354503825306892395e-03
1.228114031255245209e-02
1.632551848888397217e-02
2.344826981425285339e-02
5.551147833466529846e-02
1.553465332835912704e-02
-2.372536063194274902e-02
3.810578212141990662e-02
-2.238078595837578177e-04
5.283247679471969604e-02
1.520477794110774994e-02
3.963588923215866089e-02
-2.339438349008560181e-02
-3.201194480061531067e-02
4.577612131834030151e-02
-1.834874600172042847e-02
-3.535681590437889099e-02
-3.296023234724998474e-02
-2.939544245600700378e-02
4.714821279048919678e-02
2.597820013761520386e-02
2.983875758945941925e-02
1.324060559272766113e-02
-3.023908287286758423e-02
3.472821786999702454e-02
-3.428849950432777405e-02
-3.207430709153413773e-04
1.697609014809131622e-02
-9.701450355350971222e-03
-5.006103776395320892e-03
-2.161384560167789459e-02
3.297669813036918640e-02
-3.273990377783775330e-02
-2.161927893757820129e-02
6.213469430804252625e-03
-2.355932816863059998e-02
1.512550655752420425e-02
4.276269674301147461e-02
1.485465560108423233e-02
-2.269604615867137909e-02
-2.517761476337909698e-02
2.335094474256038666e-02
3.280831128358840942e-02
-1.038988959044218063e-02
3.389298915863037109e-02
-7.318919058889150620e-03
1.292828121222555637e-03
4.745223745703697205e-02
-4.233558475971221924e-02
5.912827793508768082e-03
7.860244251787662506e-03
-1.796873472630977631e-02
-3.200154379010200500e-02
-1.365197915583848953e-02
1.164345350116491318e-02
4.413727298378944397e-02
3.893278911709785461e-02
2.237314172089099884e-02
3.679268434643745422e-02
1.378478202968835831e-02
-1.873031258583068848e-02
8.580907247960567474e-03
-1.753092370927333832e-02
-2.802035957574844360e-02
-2.594871819019317627e-02
3.929838165640830994e-02
4.868470877408981323e-02
1.825916022062301636e-02
1.923409663140773773e-02
2.184229902923107147e-02
-3.613717481493949890e-02
1.084929518401622772e-02
-1.373514439910650253e-02
-1.440960261970758438e-02
3.247825801372528076e-02
-2.298690751194953918e-02
-2.190689742565155029e-02
3.658022731542587280e-02
1.994004473090171814e-03
3.559913858771324158e-02
-3.416980849578976631e-03
3.052841871976852417e-02
7.284632418304681778e-03
-3.748751012608408928e-03
2.660530433058738708e-02
2.533999271690845490e-02
1.357589196413755417e-02
8.712435141205787659e-03
3.186246752738952637e-02
-1.356327813118696213e-02
-3.874827176332473755e-02
2.880550455302000046e-03
-2.298771869391202927e-03
-6.856065709143877029e-03
-2.162067405879497528e-02
3.292571380734443665e-02
-3.348468616604804993e-02
2.576110325753688812e-02
2.983164042234420776e-03
-3.146076202392578125e-02
-7.489250972867012024e-03
-2.618553582578897476e-03
9.858556091785430908e-03
-4.382257163524627686e-02
2.777273021638393402e-02
-9.421107359230518341e-03
-3.851577639579772949e-02
4.250054247677326202e-03
2.960636513307690620e-03
2.820095792412757874e-02
4.020711407065391541e-02
-4.292171820998191833e-02
1.160923950374126434e-02
-2.919294172897934914e-03
1.278220862150192261e-02
-2.584557048976421356e-02
2.605252200737595558e-03
4.567965865135192871e-02
3.721374645829200745e-02
-4.493304004427045584e-04
-1.258383877575397491e-02
-3.955134749412536621e-02
-1.560681127011775970e-02
-2.395136281847953796e-02
-3.078285790979862213e-02
-3.228979557752609253e-02
-3.678642585873603821e-02
-1.568559184670448303e-02
1.813557930290699005e-02
7.192853838205337524e-03
-2.553739212453365326e-02
1.211796142160892487e-02
-4.462983459234237671e-03
-1.468730438500642776e-02
3.774477168917655945e-02
4.129549860954284668e-02
-1.561806723475456238e-02
7.464225636795163155e-04
-1.497057825326919556e-02
-3.176861256361007690e-02
1.822136528789997101e-02
-4.542340710759162903e-02
3.165863826870918274e-02
2.639784652274101973e-04
3.093905560672283173e-02
2.406755089759826660e-02
3.454157710075378418e-02
3.264403203502297401e-03
4.636060819029808044e-02
1.837870292365550995e-02
5.341701398720033467e-05
8.755917660892009735e-03
4.379477724432945251e-02
-1.493778172880411148e-02
-4.277938976883888245e-02
-3.141083940863609314e-02
3.691041609272360802e-03
3.259519487619400024e-02
-1.838979125022888184e-02
-2.485148375853896141e-03
-2.546479180455207825e-02
1.650602370500564575e-02
4.178737103939056396e-02
1.122983731329441071e-02
2.440601028501987457e-02
1.232617441564798355e-02
1.076751761138439178e-02
-2.604603534564375877e-03
3.903467953205108643e-02
4.470194131135940552e-02
3.502536192536354065e-02
1.983714103698730469e-02
-2.750014699995517731e-02
2.226859889924526215e-02
4.969606921076774597e-02
-1.772268302738666534e-02
-4.821988940238952637e-02
3.467042231932282448e-03
-4.880270455032587051e-03
-8.355719037353992462e-03
-1.839374378323554993e-02
1.688108220696449280e-02
-2.345726266503334045e-02
1.942348480224609375e-02
4.291394352912902832e-02
-2.351013198494911194e-02
2.520894445478916168e-02
-4.865889623761177063e-02
-1.492968294769525528e-02
-4.649825766682624817e-02
3.617535112425684929e-03
3.591410815715789795e-02
4.343695193529129028e-02
2.684299647808074951e-02
2.886827848851680756e-02
-4.551555030047893524e-03
2.743097767233848572e-02
-7.064829580485820770e-03
-9.489034302532672882e-03
2.719808369874954224e-03
-2.644483931362628937e-03
3.160773217678070068e-02
-4.211935680359601974e-03
-4.308589920401573181e-02
5.688073579221963882e-03
2.375734224915504456e-02
-3.392141312360763550e-02
-2.600387111306190491e-02
-2.310621784999966621e-03
4.751694947481155396e-02
-5.441105458885431290e-03
-3.771667182445526123e-02
3.000427968800067902e-02
-1.470560859888792038e-02
2.923411875963211060e-02
2.411768306046724319e-03
-1.864419132471084595e-02
-3.042310848832130432e-02
1.262445934116840363e-02
-1.185293216258287430e-02
2.790110930800437927e-02
-1.314607821404933929e-02
3.119673766195774078e-02
3.603671491146087646e-02
-2.289634384214878082e-02
1.959590986371040344e-02
-5.742379464209079742e-03
2.827484160661697388e-02
-2.375894784927368164e-02
-3.839454054832458496e-02
3.946167230606079102e-02
7.896816357970237732e-03
4.250863194465637207e-02
-3.812137991189956665e-02
-4.234656691551208496e-02
3.452912438660860062e-03
3.286904096603393555e-02
-1.198462024331092834e-02
-3.024912439286708832e-02
-1.973461546003818512e-02
4.589876532554626465e-02
2.539429441094398499e-02
3.603425249457359314e-02
-7.675642147660255432e-03
4.206851869821548462e-02
3.527864068746566772e-02
-4.462582990527153015e-02
-2.268021926283836365e-02
1.178965903818607330e-02
-1.952782273292541504e-02
-3.983324393630027771e-03
-3.838256932795047760e-03
4.635312035679817200e-02
3.111226484179496765e-02
2.183329872786998749e-02
1.116508711129426956e-02
1.144708041101694107e-02
-3.042942471802234650e-02
8.268889971077442169e-03
4.494337830692529678e-03
-2.607952244579792023e-02
1.776199042797088623e-02
-1.189803704619407654e-02
-5.731368437409400940e-03
3.613380715250968933e-02
-2.777553535997867584e-02
3.385153412818908691e-02
-1.204099226742982864e-02
-2.697531878948211670e-02
-3.961143642663955688e-02
2.263152413070201874e-02
-4.255685210227966309e-02
-1.558145508170127869e-02
5.608974024653434753e-04
-1.450465898960828781e-02
4.011806100606918335e-02
-3.196989372372627258e-02
-1.749882847070693970e-02
-3.953182697296142578e-02
1.410952024161815643e-02
6.171479617478325963e-05
-3.989980742335319519e-02
-2.723880112171173096e-02
-1.661458611488342285e-02
-1.586430519819259644e-02
6.552089937031269073e-03
1.347928028553724289e-02
-3.704636171460151672e-02
-6.673775147646665573e-03
1.315661054104566574e-02
3.434207662940025330e-02
1.134882098995149136e-03
-4.591300711035728455e-02
3.447951748967170715e-02
-3.410181030631065369e-02
-2.115653082728385925e-02
5.798167083412408829e-03
-1.674738526344299316e-02
-2.884092926979064941e-02
-4.559655487537384033e-02
-9.126700460910797119e-03
-5.034897010773420334e-03
2.833898179233074188e-02
-2.558286674320697784e-02
8.184679783880710602e-03
1.534648519009351730e-02
3.966975957155227661e-02
2.367573417723178864e-02
-3.158510848879814148e-02
1.888116355985403061e-03
1.148727815598249435e-02
-4.571975767612457275e-02
-2.074086293578147888e-02
-3.115455061197280884e-02
7.870546542108058929e-03
1.216574572026729584e-02
3.879533708095550537e-02
-2.897882089018821716e-02
9.342195466160774231e-03
-5.286964587867259979e-03
2.201668918132781982e-02
-2.081326209008693695e-02
2.725797705352306366e-02
-2.378235571086406708e-03
3.802976012229919434e-02
3.421647101640701294e-02
-9.602832607924938202e-03
-4.392313305288553238e-03
1.320926100015640259e-02
-1.990387775003910065e-02
-3.314519301056861877e-02
2.959237061440944672e-02
-2.879498060792684555e-03
7.370572537183761597e-03
-2.974928915500640869e-02
1.168865896761417389e-02
-7.958946749567985535e-03
-2.140999073162674904e-03
2.642440423369407654e-02
3.508098889142274857e-03
4.170636646449565887e-03
-4.112851619720458984e-02
-3.406155109405517578e-02
-1.862839609384536743e-02
-3.179764375090599060e-02
-1.355047430843114853e-02
-7.594505790621042252e-03
4.522325098514556885e-02
-1.702001281955745071e-05
4.917668923735618591e-02
-3.350570425391197205e-02
3.185233473777770996e-02
6.853167433291673660e-03
2.703579142689704895e-02
-4.312446713447570801e-02
1.112545002251863480e-02
3.505757078528404236e-02
5.230390932410955429e-03
-9.105702862143516541e-03
3.300955146551132202e-02
1.742485910654067993e-02
2.071604132652282715e-02
6.468883249908685684e-03
4.496429860591888428e-02
2.778496406972408295e-02
2.045613899827003479e-02
4.583167843520641327e-03
4.604548215866088867e-02
-2.658786624670028687e-02
3.141875192523002625e-02
4.198697581887245178e-02
-2.918112464249134064e-02
-1.317796995863318443e-03
3.511890396475791931e-02
1.456571975722908974e-03
1.684896461665630341e-02
4.190320521593093872e-02
5.107889883220195770e-03
2.352913282811641693e-02
2.433605305850505829e-02
-2.445792779326438904e-02
3.490169346332550049e-02
3.672502189874649048e-02
4.275853559374809265e-02
8.744852617383003235e-03
-3.717979788780212402e-02
-3.421321511268615723e-02
-2.001973241567611694e-02
8.117391727864742279e-03
1.158731337636709213e-02
-1.837211102247238159e-02
3.390999138355255127e-02
-4.774261265993118286e-02
8.718493394553661346e-03
-4.346262663602828979e-03
-1.768041588366031647e-02
-2.249250374734401703e-02
-3.204471245408058167e-02
7.953591644763946533e-03
2.397941984236240387e-02
-3.509727120399475098e-02
-3.142808750271797180e-02
1.615668460726737976e-02
-3.542065247893333435e-02
-4.600988700985908508e-03
1.781759597361087799e-02
1.234513800591230392e-02
4.178230836987495422e-02
-2.896658517420291901e-02
2.826153300702571869e-02
1.946556009352207184e-02
-1.454532053321599960e-02
-2.298803068697452545e-02
-4.466260597109794617e-02
2.282285690307617188e-02
4.891123995184898376e-02
2.324486710131168365e-02
-2.548184711486101151e-03
-3.179230913519859314e-02
3.775968402624130249e-02
2.785952389240264893e-02
1.442604884505271912e-02
-3.599908947944641113e-02
3.012168407440185547e-02
-2.171821705996990204e-02
-2.974086813628673553e-02
3.254298493266105652e-02
-2.667802385985851288e-02
3.439211845397949219e-02
2.445265837013721466e-02
-1.506320293992757797e-02
-4.033734276890754700e-02
9.749799966812133789e-03
-1.033403724431991577e-02
1.525515131652355194e-02
-1.025387458503246307e-02
1.541977096349000931e-02
-4.204634577035903931e-03
-4.620988667011260986e-02
1.406340859830379486e-02
5.961494753137230873e-04
-1.817960105836391449e-02
-1.716351509094238281e-02
2.133752405643463135e-02
9.886398911476135254e-03
-8.068853057920932770e-03
-1.068065222352743149e-02
1.607482135295867920e-02
3.896255418658256531e-02
1.411483157426118851e-02
3.311040252447128296e-02
-1.732933521270751953e-02
3.627024590969085693e-02
1.371954008936882019e-02
-4.274908080697059631e-02
1.676638983190059662e-02
2.186460606753826141e-02
6.439101416617631912e-03
-2.504958771169185638e-02
2.376164868474006653e-02
-2.080460451543331146e-02
-1.267041452229022980e-02
-1.996301673352718353e-02
4.071694612503051758e-02
-5.312626715749502182e-03
2.425907365977764130e-02
-3.256405238062143326e-03
2.877660654485225677e-02
2.312864549458026886e-02
-1.377495750784873962e-02
1.603071019053459167e-02
-1.412823214195668697e-03
-4.275061655789613724e-03
1.752692833542823792e-02
2.233550697565078735e-02
3.516222536563873291e-02
-2.358760312199592590e-02
-8.381881634704768658e-04
6.858094129711389542e-03
5.412822123616933823e-03
-9.444944560527801514e-03
-1.909525506198406219e-02
-2.404037304222583771e-02
-2.202395722270011902e-02
-4.473297670483589172e-02
2.009456045925617218e-03
3.104352764785289764e-02
2.584412507712841034e-02
1.595843955874443054e-02
3.594303876161575317e-02
-1.620798930525779724e-02
-3.741220384836196899e-02
4.340463876724243164e-02
-1.447014790028333664e-02
-3.703066334128379822e-02
-2.721347473561763763e-02
-2.387096174061298370e-02
4.724910855293273926e-02
3.077938454225659370e-03
-2.121424302458763123e-02
7.455866318196058273e-03
4.200984165072441101e-02
3.945272415876388550e-02
-3.663929551839828491e-02
3.623042255640029907e-02
-4.094868432730436325e-03
-2.689266949892044067e-02
-4.355596005916595459e-02
2.678341465070843697e-03
2.765307016670703888e-02
1.359107159078121185e-02
-4.343027621507644653e-02
3.551207482814788818e-02
-4.740264266729354858e-02
3.715985268354415894e-02
5.426508840173482895e-03
-1.363685540854930878e-02
7.302357815206050873e-03
-4.492752254009246826e-02
3.760501742362976074e-02
-3.061205521225929260e-02
-2.958731912076473236e-02
1.760775037109851837e-02
1.227351743727922440e-02
2.566474024206399918e-03
-2.262232638895511627e-02
1.220234762877225876e-02
4.300790280103683472e-02
-3.672109171748161316e-02
-1.574460789561271667e-02
-3.178653120994567871e-02
8.487739600241184235e-03
-4.886404145509004593e-03
8.358620689250528812e-04
-3.906767815351486206e-02
2.768723852932453156e-02
2.142729063052684069e-04
4.155913367867469788e-02
2.344175986945629120e-02
-1.039543561637401581e-02
-9.860461577773094177e-03
1.463112980127334595e-02
-1.290049403905868530e-02
-6.682251114398241043e-03
-3.877539347740821540e-05
-2.913716994225978851e-02
-3.790235891938209534e-02
-2.677044831216335297e-02
-1.190011110156774521e-02
-3.672143071889877319e-02
1.220476720482110977e-02
-2.886637113988399506e-03
-2.677514031529426575e-02
5.962926428765058517e-03
3.364735515788197517e-03
4.235144704580307007e-02
2.173627912998199463e-02
-2.130915597081184387e-02
5.090288072824478149e-02
-3.144212439656257629e-02
5.753143690526485443e-03
1.401806250214576721e-02
3.097425028681755066e-02
-2.943470142781734467e-03
8.830353617668151855e-03
-7.128730416297912598e-03
-2.026016265153884888e-02
-2.341861091554164886e-02
1.984469033777713776e-02
3.258341923356056213e-02
1.423184201121330261e-02
1.629644446074962616e-02
-2.483109571039676666e-02
1.597597263753414154e-02
2.893322333693504333e-02
-9.430559352040290833e-03
1.568942517042160034e-02
1.269447617232799530e-02
-2.186938934028148651e-02
-2.835073694586753845e-02
4.922393709421157837e-03
2.196194417774677277e-02
-6.615596823394298553e-03
-1.447341172024607658e-03
-4.915916919708251953e-02
3.955144807696342468e-02
3.919807728379964828e-03
-7.166959345340728760e-03
1.411050930619239807e-02
2.594136819243431091e-02
1.239646598696708679e-02
-1.471270900219678879e-02
-2.675463631749153137e-02
-2.025119028985500336e-02
-2.554843947291374207e-02
-4.599088802933692932e-02
1.443062094040215015e-03
2.456769533455371857e-02
8.257025852799415588e-03
3.038242273032665253e-02
-8.664196357131004333e-03
-1.960414834320545197e-02
3.787474706768989563e-02
3.410604968667030334e-02
-2.055005356669425964e-02
-4.358326643705368042e-02
2.214169315993785858e-02
-4.559930413961410522e-03
1.801851764321327209e-02
2.723118476569652557e-02
3.257168456912040710e-02
-1.875134184956550598e-03
8.764085359871387482e-03
1.998952403664588928e-02
-1.099207252264022827e-02
-2.966306544840335846e-02
-8.812536485493183136e-03
2.465903200209140778e-02
6.248197052627801895e-03
2.568770898506045341e-03
-4.266991093754768372e-02
5.488984659314155579e-02
1.781163853593170643e-03
3.726420551538467407e-02
2.056047692894935608e-02
3.622977435588836670e-02
4.330718889832496643e-03
3.505428880453109741e-02
-3.883985057473182678e-02
1.098180189728736877e-02
1.294159609824419022e-02
-1.487347471993416548e-04
-3.154703229665756226e-02
-3.832898288965225220e-02
-4.296772181987762451e-03
1.027777398121543229e-04
2.462241798639297485e-03
6.016622297465801239e-03
-1.787576638162136078e-02
3.850462287664413452e-02
-1.507591735571622849e-02
1.648030010983347893e-03
1.705969125032424927e-02
2.983506070449948311e-03
1.129955891519784927e-02
1.204404328018426895e-02
-1.210794039070606232e-02
-2.366573177278041840e-02
-4.042335320264101028e-03
-2.219131961464881897e-02
-6.142602767795324326e-03
1.917022839188575745e-02
4.487242177128791809e-02
-1.516324281692504883e-02
2.520665526390075684e-02
-3.226443426683545113e-03
-2.671262435615062714e-02
-5.016839876770973206e-02
8.690334856510162354e-03
4.068217054009437561e-02
-1.758547127246856689e-02
4.866031813435256481e-04
2.077538706362247467e-02
3.247261047363281250e-02
-3.409803286194801331e-02
-1.554940082132816315e-02
8.780977688729763031e-03
-1.731714233756065369e-02
-7.655541412532329559e-04
-2.066730707883834839e-02
4.766521975398063660e-02
-2.958608791232109070e-02
1.304929889738559723e-02
2.716911025345325470e-02
2.583741396665573120e-02
1.101235952228307724e-02
4.054946824908256531e-03
-2.914835140109062195e-02
-2.521327137947082520e-02
-3.193541988730430603e-02
4.606541246175765991e-03
-1.416784245520830154e-02
3.041611798107624054e-02
3.185942769050598145e-02
-2.842408604919910431e-02
-3.172022104263305664e-02
-1.838325522840023041e-02
-2.895240485668182373e-02
-1.762517169117927551e-02
-2.886915020644664764e-02
8.360361680388450623e-03
4.152307286858558655e-02
-3.233413025736808777e-02
4.166460409760475159e-02
7.596552371978759766e-03
-4.353569820523262024e-02
1.009969389997422695e-03
1.095345895737409592e-02
-5.096941255033016205e-03
-1.207153033465147018e-02
1.978196762502193451e-02
4.146340489387512207e-02
-4.155239090323448181e-02
-3.065866185352206230e-03
-1.919948263093829155e-03
-1.317720208317041397e-02
3.106022626161575317e-02
-1.237826235592365265e-02
7.773065008223056793e-03
-4.437256604433059692e-02
-4.538676515221595764e-02
5.929274950176477432e-03
2.769592404365539551e-02
-1.298241666518151760e-03
4.050262738019227982e-03
3.301476687192916870e-02
2.896702149882912636e-03
2.363810688257217407e-02
9.922538883984088898e-03
-4.361059889197349548e-02
-4.994444549083709717e-02
3.390236571431159973e-02
-3.518567234277725220e-02
-1.371143665164709091e-02
-4.051052499562501907e-03
-8.525935001671314240e-03
-1.467299833893775940e-02
3.771580755710601807e-03
3.225232288241386414e-02
-4.009356256574392319e-03
4.274759069085121155e-02
3.661535307765007019e-02
3.097642213106155396e-02
1.663272455334663391e-02
-3.436824306845664978e-02
1.712168939411640167e-02
-2.358128689229488373e-02
6.506280042231082916e-04
-1.123835425823926926e-02
-9.295966010540723801e-04
8.948736824095249176e-03
3.573424369096755981e-02
-2.217269688844680786e-02
-1.333470828831195831e-02
4.096447676420211792e-02
-2.975834347307682037e-02
8.820978109724819660e-04
6.028821226209402084e-03
2.790820784866809845e-02
2.757839113473892212e-02
3.987071290612220764e-02
7.462016306817531586e-03
1.037404220551252365e-02
-1.946635916829109192e-02
-2.507291734218597412e-02
1.365922950208187103e-02
8.609663695096969604e-03
-6.413758266717195511e-03
2.740694023668766022e-02
9.218953549861907959e-03
2.067017927765846252e-02
5.611998960375785828e-03
3.661571443080902100e-02
2.400355599820613861e-02
-5.666130688041448593e-03
-1.409156806766986847e-02
3.730233013629913330e-02
-1.239548623561859131e-02
3.428152576088905334e-02
2.364866249263286591e-02
-2.460874989628791809e-02
-3.237858042120933533e-02
-3.297640755772590637e-02
-4.649209603667259216e-02
4.157055914402008057e-02
-2.249946258962154388e-02
1.736188121140003204e-02
1.740572415292263031e-02
-9.101012721657752991e-03
3.703099116683006287e-02
-4.017492011189460754e-02
1.994866691529750824e-02
4.957406595349311829e-02
-2.182200178503990173e-02
-2.895994484424591064e-02
-1.826399704441428185e-03
1.463027729187160730e-04
3.669002279639244080e-02
2.228659391403198242e-02
2.516052871942520142e-02
-3.298037871718406677e-02
-1.144254673272371292e-02
1.427484210580587387e-03
-3.855998395010828972e-03
-3.267030790448188782e-02
1.915938337333500385e-03
4.317956417798995972e-02
-9.936062619090080261e-03
2.395726554095745087e-02
1.121206022799015045e-02
1.690362393856048584e-02
-1.172518264502286911e-02
-9.806283749639987946e-03
3.699092939496040344e-02
2.296859864145517349e-03
3.706348687410354614e-02
-2.251331880688667297e-02
-1.083704084157943726e-02
-1.808953844010829926e-02
-8.635722100734710693e-03
-2.658752026036381721e-03
-1.198108587414026260e-02
-1.191643718630075455e-02
-1.453550998121500015e-02
-2.115637436509132385e-02
7.296388037502765656e-03
-3.131989762187004089e-02
-7.873831316828727722e-03
-1.988958567380905151e-02
3.653471171855926514e-02
-9.200444445013999939e-03
-2.634730562567710876e-02
4.872978106141090393e-02
-1.895553991198539734e-02
3.908822778612375259e-03
-4.573731496930122375e-02
-8.023764006793498993e-03
-3.419130668044090271e-02
-3.045056201517581940e-02
-1.624681986868381500e-02
-1.248410157859325409e-02
3.690231963992118835e-02
3.996729478240013123e-02
1.319018285721540451e-02
-9.910487569868564606e-03
-2.318770252168178558e-02
-3.307225555181503296e-02
-4.146347939968109131e-02
-1.809729728847742081e-03
-3.886851295828819275e-02
-2.536656148731708527e-02
-4.422173649072647095e-02
-2.705707401037216187e-02
1.140113081783056259e-02
1.822805218398571014e-02
2.196553349494934082e-02
3.872039541602134705e-02
-2.658208832144737244e-02
1.656850427389144897e-02
2.229538746178150177e-02
-3.158761188387870789e-02
4.442566633224487305e-02
-2.126841992139816284e-02
2.460636198520660400e-02
-4.038746282458305359e-02
1.774924248456954956e-02
-1.693167351186275482e-02
-1.123488321900367737e-02
-3.109471872448921204e-02
-1.470442861318588257e-02
-2.239323686808347702e-03
-3.979792073369026184e-02
4.239928349852561951e-02
1.833883859217166901e-02
4.067267104983329773e-02
-2.293227240443229675e-02
-9.929288644343614578e-04
1.277584815397858620e-03
2.595506235957145691e-02
1.989674754440784454e-02
1.130215171724557877e-02
2.236585319042205811e-02
1.295423135161399841e-02
-3.160609863698482513e-03
-2.657816745340824127e-02
2.424925565719604492e-02
2.030179649591445923e-02
3.851483017206192017e-02
-3.629470989108085632e-02
-3.237605839967727661e-02
3.648230060935020447e-02
1.382731925696134567e-02
-2.264521643519401550e-02
-4.088886454701423645e-02
-1.251600962132215500e-02
-1.926391758024692535e-02
-3.992817923426628113e-02
-8.120440877974033356e-03
2.317775599658489227e-02
2.457471797242760658e-03
-2.883655764162540436e-02
-4.293664917349815369e-02
-3.597896546125411987e-02
-6.469956599175930023e-03
-1.494008861482143402e-02
2.446630783379077911e-02
3.448548540472984314e-02
-1.476858090609312057e-02
2.612754516303539276e-02
3.860406577587127686e-02
-6.397916469722986221e-03
3.069115569815039635e-03
-8.738661184906959534e-03
1.237363088876008987e-03
1.553715020418167114e-02
-8.849890902638435364e-03
3.347334265708923340e-02
-3.718795999884605408e-02
-5.596329923719167709e-03
2.071466483175754547e-02
3.613835573196411133e-02
-4.093429446220397949e-02
2.102161012589931488e-02
3.155393991619348526e-03
1.729568466544151306e-02
4.463282972574234009e-02
-4.095766320824623108e-02
-7.958251982927322388e-03
-1.508370693773031235e-02
5.593604873865842819e-03
-2.473170682787895203e-02
2.185116522014141083e-02
-9.315125644207000732e-03
2.561086788773536682e-02
-1.651600003242492676e-02
-9.795516729354858398e-03
-2.705717273056507111e-02
-2.433619461953639984e-02
-1.939607039093971252e-02
-3.171703219413757324e-02
-2.563787624239921570e-02
3.276473283767700195e-02
3.239894285798072815e-02
-1.273084711283445358e-02
3.342385590076446533e-02
-3.866674005985260010e-02
-2.534301578998565674e-02
-2.911717444658279419e-02
-3.855558112263679504e-02
-1.101260725408792496e-02
-2.215873263776302338e-02
2.493714168667793274e-02
-2.750015631318092346e-02
-1.114688720554113388e-02
6.486971862614154816e-03
-3.265653550624847412e-02
-1.360460091382265091e-02
-3.512935247272253036e-03
-6.554896011948585510e-03
-1.726864092051982880e-02
2.782741375267505646e-02
2.790681784972548485e-03
-1.738486252725124359e-02
6.108929868787527084e-03
-3.844189643859863281e-02
3.083235770463943481e-02
1.818171702325344086e-02
-3.179865702986717224e-02
2.863181009888648987e-02
-1.269793324172496796e-02
3.863576054573059082e-02
3.294485062360763550e-02
-5.093482322990894318e-03
5.621471442282199860e-03
4.848554357886314392e-02
1.991926133632659912e-02
-6.221465300768613815e-03
3.884589299559593201e-02
9.035394527018070221e-03
-3.784612566232681274e-02
1.162175741046667099e-02
-1.071760430932044983e-02
-1.806593127548694611e-02
1.670056581497192383e-02
5.398695915937423706e-02
5.988045595586299896e-03
8.523396216332912445e-03
1.321185845881700516e-02
-3.441934287548065186e-02
-1.471429597586393356e-02
3.961176797747612000e-02
3.540214849635958672e-03
1.234993897378444672e-02
6.944805849343538284e-03
1.421445608139038086e-02
-2.751572430133819580e-02
-3.475848212838172913e-02
-3.985795751214027405e-02
1.499841455370187759e-02
1.722927950322628021e-02
-2.941726334393024445e-02
-3.873290494084358215e-02
2.499727346003055573e-02
3.062328882515430450e-02
-2.496153861284255981e-02
4.232149571180343628e-02
1.232776790857315063e-02
-1.775795035064220428e-02
9.946330450475215912e-03
4.642476886510848999e-02
3.398617357015609741e-02
8.434052579104900360e-03
1.037037651985883713e-02
-3.070356138050556183e-02
-3.966740518808364868e-02
-1.628493890166282654e-02
3.241154551506042480e-02
-2.952158451080322266e-02
3.347552195191383362e-02
3.725559636950492859e-02
4.168373066931962967e-03
-2.637134864926338196e-02
3.489843010902404785e-02
4.262960283085703850e-04
4.578665364533662796e-03
3.109354153275489807e-02
1.232282631099224091e-02
-2.740754000842571259e-02
3.359780879691243172e-03
-2.720494754612445831e-02
