-8.408304303884506226e-02
-2.709465287625789642e-02
-3.913548216223716736e-02
-2.541297674179077148e-02
-3.850230947136878967e-02
-6.218931823968887329e-02
9.155726432800292969e-02
9.875141084194183350e-02
-6.095102429389953613e-02
-7.814827561378479004e-02
1.089127361774444580e-01
1.548510510474443436e-02
1.070385351777076721e-01
6.354864686727523804e-02
-1.005912497639656067e-01
-6.313140690326690674e-02
-3.020748309791088104e-02
-5.391373112797737122e-02
-8.177872747182846069e-02
1.502451137639582157e-03
-4.827732685953378677e-03
-3.919140994548797607e-02
-2.698540501296520233e-02
-1.806772052077576518e-04
5.587014928460121155e-02
-5.104998854221776128e-05
7.189361006021499634e-02
6.276573054492473602e-03
-3.922241553664207458e-02
-6.372638791799545288e-02
5.300375074148178101e-02
-5.602962896227836609e-02
1.051192730665206909e-01
6.683184951543807983e-02
-9.306623786687850952e-02
-9.251032024621963501e-02
-9.122289717197418213e-03
-8.959909528493881226e-02
-1.052168533205986023e-01
5.314626469044014812e-05
3.333366475999355316e-03
-5.700037255883216858e-02
-6.463269237428903580e-03
8.389966934919357300e-02
-4.962313175201416016e-02
-8.489742130041122437e-02
-4.328618943691253662e-02
-7.242156565189361572e-02
1.113625615835189819e-01
9.388597309589385986e-02
-8.771854639053344727e-02
-8.878483623266220093e-02
-3.221167623996734619e-02
-7.515122741460800171e-02
-1.302232313901185989e-02
1.898622512817382812e-02
-1.426202207803726196e-01
-4.525158181786537170e-02
2.346113510429859161e-02
7.818676531314849854e-02
8.307291567325592041e-02
7.203430682420730591e-02
9.890050441026687622e-02
-2.273409813642501831e-02
1.515216231346130371e-01
-4.240309074521064758e-02
6.945836544036865234e-02
4.623850435018539429e-02
-5.517289042472839355e-02
9.497737884521484375e-02
1.053977608680725098e-01
3.723326697945594788e-02
-5.737559404224157333e-03
-3.560020774602890015e-02
9.653566032648086548e-02
-4.048441536724567413e-03
-8.723617345094680786e-02
7.267140597105026245e-02
-6.692640017718076706e-04
-8.298673480749130249e-02
-9.894360601902008057e-02
-1.078706011176109314e-01
3.330889344215393066e-02
4.429931566119194031e-02
-3.058965504169464111e-02
-6.659206002950668335e-02
-1.847797073423862457e-02
2.496671862900257111e-03
9.050782024860382080e-02
-3.327185660600662231e-02
-9.729852527379989624e-02
-2.119558490812778473e-02
-6.900107115507125854e-02
8.722935616970062256e-02
2.114567160606384277e-02
-1.009088158607482910e-01
-6.388880312442779541e-02
8.177503198385238647e-02
-5.459399893879890442e-02
1.686279848217964172e-02
9.267918765544891357e-02
-9.026787430047988892e-02
-2.122244425117969513e-02
-2.784357778728008270e-02
-6.492401659488677979e-02
-6.411045789718627930e-02
-3.906645625829696655e-02
-1.372390240430831909e-01
-7.269235700368881226e-02
1.229254752397537231e-01
-8.192749321460723877e-02
-9.508398175239562988e-02
6.832509487867355347e-02
-1.529764197766780853e-02
1.091511622071266174e-01
-6.683805258944630623e-04
-8.456213027238845825e-02
1.586428731679916382e-01
-3.102750144898891449e-02
-6.222739070653915405e-02
-2.270296961069107056e-02
3.693141043186187744e-04
-7.321999222040176392e-02
-3.996112570166587830e-02
1.331888139247894287e-01
7.568357978016138077e-03
-5.218608304858207703e-02
-7.352069765329360962e-02
4.501845687627792358e-02
3.713155165314674377e-02
-4.538811370730400085e-02
2.554299496114253998e-02
-3.018016926944255829e-02
-1.223596185445785522e-02
-9.068226069211959839e-02
-1.052165925502777100e-01
6.926639378070831299e-02
6.401167064905166626e-02
-8.560980856418609619e-02
-9.681883454322814941e-02
-1.147437170147895813e-01
-2.143240720033645630e-02
-7.547389715909957886e-02
-3.099804744124412537e-02
5.589740350842475891e-02
1.295338720083236694e-01
-6.318885833024978638e-02
-4.348994791507720947e-02
-6.219496205449104309e-02
9.240895509719848633e-03
8.410893380641937256e-02
4.303342476487159729e-02
-7.195356488227844238e-02
-4.284933581948280334e-02
3.902565315365791321e-02
9.418263100087642670e-03
5.214232206344604492e-02
4.125000163912773132e-02
5.207096412777900696e-02
1.119809299707412720e-01
1.310166418552398682e-01
1.729829981923103333e-02
-1.175927743315696716e-01
1.130663231015205383e-01
-4.846824705600738525e-02
8.798231929540634155e-02
1.533320546150207520e-02
-4.657034203410148621e-02
8.219271153211593628e-02
7.893867790699005127e-02
6.850841920822858810e-03
-6.570261716842651367e-02
-8.552021533250808716e-02
1.343564391136169434e-01
8.220928162336349487e-02
2.094080438837409019e-03
-5.799180269241333008e-02
7.742092013359069824e-02
-8.543747663497924805e-02
-5.900871753692626953e-02
-9.976184368133544922e-02
6.862469762563705444e-02
-9.504942223429679871e-03
7.118028402328491211e-02
-3.341754898428916931e-03
-1.816450431942939758e-02
3.744727000594139099e-02
-1.520917844027280807e-02
-1.119465529918670654e-01
2.682118490338325500e-02
4.621333628892898560e-02
-6.427738815546035767e-02
7.231791317462921143e-02
-1.100217178463935852e-01
-9.878802299499511719e-02
4.648511111736297607e-02
5.215126089751720428e-03
-8.636911958456039429e-02
-4.393530637025833130e-02
8.483213372528553009e-03
-3.226324915885925293e-02
-3.948138281702995300e-02
-4.859927296638488770e-02
1.980669423937797546e-02
-1.102501526474952698e-01
2.224269323050975800e-02
9.205729700624942780e-03
-6.253161281347274780e-02
-1.180835515260696411e-01
2.260547876358032227e-02
-3.547618538141250610e-02
5.232730880379676819e-03
-6.283735483884811401e-02
-6.749689579010009766e-02
-3.967580199241638184e-02
6.929213553667068481e-02
-7.229088991880416870e-02
6.015757843852043152e-02
-2.523021772503852844e-02
1.085077412426471710e-02
-6.932624429464340210e-02
1.643263734877109528e-02
1.619845181703567505e-01
9.533578902482986450e-02
5.405028816312551498e-03
-5.262133851647377014e-02
-9.780746698379516602e-02
-3.669820353388786316e-02
7.262317836284637451e-02
6.390037387609481812e-02
7.023335248231887817e-02
2.813494391739368439e-02
1.218973621726036072e-01
-2.420249627903103828e-03
-5.096559599041938782e-02
-5.473779141902923584e-02
4.627050086855888367e-02
-9.051164239645004272e-02
-4.960698261857032776e-02
-7.484076917171478271e-02
-6.290471553802490234e-02
-8.593676984310150146e-02
-1.616645045578479767e-02
2.786512672901153564e-02
7.488393783569335938e-02
-7.774896919727325439e-02
-8.801327645778656006e-02
-2.010256797075271606e-02
-3.096594661474227905e-02
1.067420169711112976e-01
5.063115432858467102e-02
-9.847358614206314087e-02
-1.036746129393577576e-01
-7.623510807752609253e-02
4.320657998323440552e-02
-2.343877963721752167e-02
5.650744587182998657e-02
1.145028993487358093e-01
1.424729637801647186e-02
1.148068159818649292e-01
-3.897314891219139099e-02
8.617135882377624512e-02
-5.770416557788848877e-02
8.496901392936706543e-02
1.075499579310417175e-01
-8.660168200731277466e-02
-4.393627494573593140e-02
-7.037322223186492920e-02
-9.944641590118408203e-02
4.904091358184814453e-02
6.815989315509796143e-02
-6.396736204624176025e-02
-5.913759395480155945e-02
-2.016312815248966217e-02
3.232994815334677696e-03
-5.410694982856512070e-03
-4.556863382458686829e-02
-5.447869375348091125e-02
-9.171517193317413330e-02
-3.868066892027854919e-02
-3.797161206603050232e-02
-4.111460968852043152e-02
3.303845971822738647e-02
-8.424696326255798340e-02
9.448892623186111450e-02
7.994191348552703857e-02
-5.401516705751419067e-02
-2.457845024764537811e-02
-6.127097830176353455e-02
-5.716986581683158875e-02
5.139444489032030106e-03
5.529923737049102783e-02
-7.243084907531738281e-02
5.461076274514198303e-02
8.985835313796997070e-02
9.624722599983215332e-02
7.277118414640426636e-02
-6.796779483556747437e-02
8.105012774467468262e-02
-4.510695859789848328e-02
1.083960533142089844e-01
2.591472002677619457e-04
-4.664213955402374268e-02
9.104195982217788696e-02
-3.795800358057022095e-02
1.188496723771095276e-01
-2.802371792495250702e-02
4.788723308593034744e-03
1.208200231194496155e-01
-6.362035870552062988e-03
9.168512374162673950e-02
1.130555868148803711e-01
-2.918152138590812683e-02
-3.984237834811210632e-02
-6.558903306722640991e-02
3.075914829969406128e-02
1.589804701507091522e-02
-9.615419805049896240e-02
9.836870431900024414e-02
2.966642193496227264e-02
-5.947534739971160889e-02
2.963649295270442963e-02
-9.856948256492614746e-02
-3.645497187972068787e-02
2.883166447281837463e-02
-5.389783158898353577e-02
2.682855539023876190e-02
-1.236715354025363922e-03
-8.848088234663009644e-02
-2.887224033474922180e-02
-2.355672605335712433e-02
1.080518066883087158e-01
-8.288207650184631348e-02
-7.580148428678512573e-02
-2.233665063977241516e-02
1.114778593182563782e-01
1.603320054709911346e-02
4.734719544649124146e-02
-8.864240348339080811e-02
-7.974059134721755981e-02
9.711734205484390259e-02
4.737379029393196106e-02
-2.164181880652904510e-02
-5.854050815105438232e-02
-6.115228403359651566e-03
-4.899960383772850037e-02
1.048528254032135010e-01
-7.300850749015808105e-02
-9.440331906080245972e-02
-5.275951698422431946e-02
-8.572772890329360962e-02
1.783358305692672729e-02
-1.134211346507072449e-01
-3.943262621760368347e-03
9.307081997394561768e-02
-6.264372169971466064e-02
9.093586355447769165e-02
-9.456522762775421143e-02
-5.401766300201416016e-02
1.134123951196670532e-01
9.805984795093536377e-02
1.110772043466567993e-01
-3.352010250091552734e-02
-4.217335581779479980e-02
-3.327186033129692078e-02
-9.606365859508514404e-02
9.794387221336364746e-02
4.062420874834060669e-02
4.433252662420272827e-02
-2.824888937175273895e-02
-8.381041139364242554e-02
9.498219937086105347e-02
3.338927775621414185e-02
-6.360904872417449951e-02
-2.883873693645000458e-02
5.566262826323509216e-02
-1.271504070609807968e-02
8.877070993185043335e-02
1.431001233868300915e-03
-7.783061265945434570e-02
-1.639846153557300568e-02
1.003801226615905762e-01
1.201701909303665161e-01
-8.946076780557632446e-02
-4.844071716070175171e-02
5.052552558481693268e-03
4.107181355357170105e-02
1.442591194063425064e-02
6.797339767217636108e-02
-7.075626403093338013e-02
-7.678790390491485596e-02
6.338353455066680908e-02
-5.413600802421569824e-02
-8.618351072072982788e-02
-6.132158637046813965e-02
8.024974167346954346e-02
3.239871561527252197e-02
8.491196483373641968e-02
-6.923814862966537476e-02
1.282632648944854736e-01
-4.265841469168663025e-02
-5.087714642286300659e-03
-6.660059094429016113e-02
7.642928510904312134e-02
-2.803299203515052795e-02
-4.494401067495346069e-02
-8.058471977710723877e-02
3.009496442973613739e-02
-6.514576077461242676e-02
8.393090218305587769e-02
4.765700921416282654e-02
9.261515736579895020e-02
1.272813417017459869e-02
1.249458417296409607e-01
5.278481543064117432e-02
-6.518489867448806763e-02
-2.475349605083465576e-02
8.946547657251358032e-02
2.831951156258583069e-02
-1.165069863200187683e-01
-2.716316282749176025e-02
-8.497005701065063477e-02
4.366399720311164856e-02
1.345036434940993786e-03
-6.900333613157272339e-02
-3.962013125419616699e-02
-3.343714401125907898e-02
1.139247193932533264e-01
2.451109886169433594e-02
-6.757145375013351440e-02
-1.199389435350894928e-02
5.077677778899669647e-03
-9.920557960867881775e-03
4.708132147789001465e-02
1.857328973710536957e-02
1.540179103612899780e-01
-7.112074643373489380e-02
4.666101187467575073e-02
-2.744232490658760071e-02
-6.699480116367340088e-02
-7.203420996665954590e-02
9.339765459299087524e-02
4.860483855009078979e-02
3.962482511997222900e-02
3.834979981184005737e-02
6.539521366357803345e-02
-3.460009815171360970e-03
1.346731632947921753e-01
-6.057890132069587708e-02
-7.965789735317230225e-02
2.394172921776771545e-02
5.001115612685680389e-03
4.860787186771631241e-03
6.890764832496643066e-02
2.497715642675757408e-03
1.144949719309806824e-01
-1.356045436114072800e-02
-6.976427137851715088e-02
-4.374181106686592102e-02
5.126007646322250366e-02
7.672980427742004395e-02
-5.444351583719253540e-02
-8.203391730785369873e-02
-2.732995152473449707e-02
4.141297191381454468e-02
6.287884712219238281e-02
1.226386521011590958e-02
4.173805937170982361e-02
-4.793303087353706360e-02
1.523575186729431152e-01
2.820952050387859344e-02
-8.073171973228454590e-02
-5.768580734729766846e-02
1.632134057581424713e-02
-5.546654015779495239e-02
2.424148842692375183e-02
-4.490197822451591492e-02
-5.376596376299858093e-02
-6.221998110413551331e-02
-1.052202135324478149e-01
-9.972200542688369751e-02
9.964867495000362396e-03
6.190769840031862259e-03
6.476182490587234497e-02
2.511924132704734802e-02
-3.917294368147850037e-02
-1.053404808044433594e-01
-1.303193625062704086e-02
-8.216244750656187534e-04
4.937180504202842712e-02
-7.987080025486648083e-04
1.038929000496864319e-01
-7.845086604356765747e-02
5.327999964356422424e-02
-3.233077749609947205e-02
1.151380762457847595e-01
5.259059369564056396e-03
6.812274456024169922e-02
7.695603370666503906e-02
-4.743251204490661621e-02
8.864059112966060638e-03
-3.670083731412887573e-02
-1.929145492613315582e-02
1.188284978270530701e-01
1.138212010264396667e-01
-6.108667701482772827e-02
9.055552631616592407e-02
1.239171028137207031e-01
7.427862286567687988e-02
-4.698262736201286316e-02
-4.172848537564277649e-02
-1.830225996673107147e-02
4.281149804592132568e-02
-6.688899826258420944e-03
1.045520901679992676e-01
-2.216523513197898865e-02
1.772673241794109344e-02
-1.416179351508617401e-02
-1.028314232826232910e-02
-6.427342887036502361e-04
-8.718895167112350464e-02
9.107998758554458618e-02
-8.189333975315093994e-02
1.333267092704772949e-01
4.801835864782333374e-02
1.350392308086156845e-02
-8.910618722438812256e-02
1.959261484444141388e-02
1.122628524899482727e-01
1.147743314504623413e-01
-9.070199914276599884e-03
-6.069686263799667358e-02
2.344134263694286346e-02
-2.988973865285515785e-03
-2.768376097083091736e-02
2.734728902578353882e-02
-2.842169813811779022e-02
5.071258172392845154e-02
-6.611989438533782959e-02
-7.804218679666519165e-02
6.280885543674230576e-03
-3.394341911189258099e-04
-6.516738235950469971e-02
2.072392031550407410e-02
9.230148047208786011e-02
-2.992368116974830627e-02
2.014746703207492828e-02
-7.555594295263290405e-02
-8.533308655023574829e-02
1.938944868743419647e-02
5.358774680644273758e-03
-8.828719705343246460e-02
8.781759440898895264e-02
-6.730784475803375244e-02
-9.175162017345428467e-02
8.928523212671279907e-02
-1.530141476541757584e-02
5.458702147006988525e-02
1.142200678586959839e-01
8.345295675098896027e-03
-6.849174201488494873e-02
-1.208553314208984375e-01
4.200328513979911804e-02
-3.199253603816032410e-02
-4.381584003567695618e-02
1.297900974750518799e-01
-3.984855115413665771e-02
5.265669152140617371e-02
2.206394262611865997e-02
-2.424718439579010010e-02
-6.340981274843215942e-02
-3.272990928962826729e-03
-2.941211499273777008e-02
-9.559518843889236450e-02
-1.628229208290576935e-02
-5.431196466088294983e-02
-4.702431708574295044e-02
-4.158631339669227600e-02
-2.526966109871864319e-02
5.799359455704689026e-02
4.997560009360313416e-02
-2.404585853219032288e-02
-2.333485521376132965e-02
7.356739044189453125e-02
-3.629880771040916443e-02
7.736070454120635986e-02
-5.243387445807456970e-02
-3.763956949114799500e-02
2.213190309703350067e-02
-5.708677694201469421e-02
1.266171336174011230e-01
6.177183613181114197e-02
5.659914761781692505e-02
1.684666960500180721e-03
1.136766094714403152e-02
-7.512368261814117432e-02
-8.068356662988662720e-02
6.433399766683578491e-02
5.222861841320991516e-02
7.130867987871170044e-02
7.710224390029907227e-02
4.752983897924423218e-02
-3.293107450008392334e-02
8.055807650089263916e-02
-9.802824258804321289e-02
3.964763879776000977e-02
9.934287518262863159e-03
-4.678119346499443054e-02
-8.148831129074096680e-02
-3.741363435983657837e-02
-8.751796185970306396e-02
-4.077932611107826233e-02
-3.245433047413825989e-02
-8.030017465353012085e-02
-3.825797885656356812e-02
-4.533409699797630310e-02
5.114886537194252014e-02
-3.083163313567638397e-02
8.834962546825408936e-02
-2.846638858318328857e-02
-5.393313243985176086e-02
-1.090615149587392807e-02
-5.776594858616590500e-03
-2.873976342380046844e-02
1.297248005867004395e-01
-2.713318215683102608e-03
-8.798077702522277832e-02
6.835179775953292847e-02
-8.220743387937545776e-02
-3.027237718924880028e-03
-2.547009103000164032e-02
-5.606819689273834229e-02
1.030043661594390869e-01
5.741486325860023499e-02
1.344460695981979370e-01
-1.360576506704092026e-02
-4.640353098511695862e-02
1.040911488234996796e-02
2.301068976521492004e-02
1.375025021843612194e-03
-2.173198573291301727e-02
-9.199178963899612427e-02
-5.277490243315696716e-03
-7.297266274690628052e-03
-3.158030286431312561e-02
9.085731208324432373e-02
6.008375436067581177e-02
7.049909979104995728e-02
-2.029975177720189095e-03
7.314524054527282715e-02
-3.278402611613273621e-02
9.143843315541744232e-03
-1.761458464898169041e-03
4.056607838720083237e-03
5.086949677206575871e-04
-1.041704416275024414e-02
1.038022264838218689e-01
-7.977730780839920044e-02
-4.740649834275245667e-02
3.053425066173076630e-02
1.908641681075096130e-02
1.107947714626789093e-02
-8.311213552951812744e-02
1.006546802818775177e-02
6.533021479845046997e-02
1.356712891720235348e-03
-6.478802114725112915e-02
-4.363868013024330139e-02
1.043303981423377991e-01
1.592053100466728210e-02
1.230509802699089050e-01
8.081037551164627075e-02
3.978218138217926025e-02
-4.014237970113754272e-02
-5.072686448693275452e-02
-6.321115791797637939e-02
1.222538575530052185e-01
-1.993615739047527313e-02
1.000333949923515320e-01
1.719891279935836792e-02
-3.363002091646194458e-02
-4.745484516024589539e-02
3.011598810553550720e-02
-1.008911132812500000e-01
6.943406909704208374e-02
3.688922524452209473e-02
-2.060341089963912964e-02
7.494830526411533356e-03
6.334874778985977173e-02
-1.329188607633113861e-02
1.142068505287170410e-01
4.274944961071014404e-02
7.318997383117675781e-02
-6.797891110181808472e-02
-5.364750698208808899e-02
4.662295430898666382e-02
-7.580795884132385254e-02
-1.185394451022148132e-02
1.229655072093009949e-01
5.304124578833580017e-02
-3.602967772167176008e-04
8.554758131504058838e-02
-7.358641177415847778e-02
-3.341835364699363708e-02
-5.272902175784111023e-02
-5.918195098638534546e-02
-5.848162248730659485e-02
4.741995781660079956e-02
9.169970452785491943e-02
-1.730198413133621216e-02
-8.290817588567733765e-02
-1.668448187410831451e-02
1.318137645721435547e-01
-7.288219640031456947e-04
-9.496816247701644897e-02
-6.734975427389144897e-02
-2.235475694760680199e-03
1.975840888917446136e-03
6.053454428911209106e-02
4.162996634840965271e-02
-7.780813612043857574e-03
-6.069601979106664658e-03
-2.012652903795242310e-02
4.973586276173591614e-02
-1.081059575080871582e-01
-4.129080846905708313e-02
-1.945900544524192810e-02
4.824931919574737549e-02
7.981589995324611664e-03
5.431390181183815002e-02
-9.844048321247100830e-02
-9.481241554021835327e-02
-5.367022752761840820e-02
-5.415418744087219238e-02
1.060101087205111980e-03
-7.513495534658432007e-02
-1.904601603746414185e-02
6.400040537118911743e-02
5.249809101223945618e-02
1.143258530646562576e-02
-3.679932281374931335e-02
1.234667375683784485e-01
-7.325296103954315186e-02
6.591215264052152634e-03
6.837879866361618042e-02
-2.902573160827159882e-02
8.980230242013931274e-02
-1.369215827435255051e-02
-1.677409932017326355e-02
-1.039678752422332764e-01
-2.132573164999485016e-02
-3.464047610759735107e-02
-2.776967175304889679e-02
-8.138435077853500843e-05
1.724483445286750793e-02
2.588310092687606812e-02
7.830440253019332886e-02
1.984361326321959496e-03
-3.304059803485870361e-02
6.192158907651901245e-02
-5.948822200298309326e-02
2.630138024687767029e-02
-8.613999933004379272e-03
4.080320522189140320e-02
-1.146005280315876007e-02
2.914309129118919373e-02
1.382885733619332314e-03
3.140610828995704651e-02
1.162236258387565613e-01
-2.699403464794158936e-02
1.608813740313053131e-02
1.159359049052000046e-02
-5.764025077223777771e-02
-4.613654688000679016e-02
3.524435311555862427e-02
-4.805861972272396088e-03
-8.377681486308574677e-03
7.606791704893112183e-02
-4.619258921593427658e-03
8.983091264963150024e-02
8.836772292852401733e-02
-5.714136362075805664e-02
-9.215606003999710083e-02
1.346381455659866333e-01
-6.193117052316665649e-02
6.475911289453506470e-02
2.195474132895469666e-02
1.487969513982534409e-02
-2.646463178098201752e-02
6.814982742071151733e-02
-6.293580401688814163e-03
8.140037208795547485e-02
-5.851580202579498291e-02
1.335100736469030380e-02
2.328852564096450806e-02
-7.324256002902984619e-02
3.191155567765235901e-02
-1.452941447496414185e-02
6.781826913356781006e-02
1.608321815729141235e-02
9.050013870000839233e-02
-2.046841196715831757e-02
-7.444505393505096436e-02
-9.504113346338272095e-02
7.427167147397994995e-02
8.332529664039611816e-02
2.490083314478397369e-02
1.895359344780445099e-02
1.186103839427232742e-02
-6.889527291059494019e-02
1.953323744237422943e-02
-3.293968271464109421e-03
-4.053044319152832031e-02
3.486260026693344116e-02
1.271147727966308594e-01
-7.543742656707763672e-02
-4.218593612313270569e-02
1.231559645384550095e-02
4.551721736788749695e-02
1.796626113355159760e-02
2.090080454945564270e-02
2.467952854931354523e-02
-4.997669905424118042e-02
3.941520676016807556e-02
8.987557142972946167e-02
-4.886135831475257874e-02
-3.145567825413309038e-05
-6.186610553413629532e-03
-7.582189142704010010e-02
3.417404368519783020e-02
7.867898046970367432e-02
-4.554753378033638000e-02
5.268170684576034546e-02
-4.330937564373016357e-02
8.079999685287475586e-02
6.340374238789081573e-03
-4.230503737926483154e-02
-4.143774043768644333e-03
6.219982728362083435e-02
-5.404698476195335388e-02
1.218670010566711426e-01
3.876560926437377930e-02
9.946770966053009033e-02
4.873283207416534424e-02
-2.004750259220600128e-02
-8.679743856191635132e-03
7.584910839796066284e-02
-2.977907285094261169e-02
-1.575638353824615479e-02
4.998016729950904846e-02
-7.638416439294815063e-02
8.216390013694763184e-02
-9.203785657882690430e-02
-3.112431988120079041e-02
3.274562582373619080e-02
7.706987112760543823e-02
8.288237452507019043e-02
6.067519634962081909e-02
-1.513649523258209229e-02
3.342368081212043762e-02
-7.941678166389465332e-02
-1.942279376089572906e-02
-1.678265817463397980e-02
3.319045156240463257e-02
-6.738092750310897827e-02
-4.675824940204620361e-02
-2.703066356480121613e-02
-2.330544963479042053e-02
-7.113589439541101456e-03
1.790323760360479355e-03
-1.441203709691762924e-02
-1.375834108330309391e-03
1.205719336867332458e-01
-6.623548269271850586e-02
-1.606699451804161072e-02
6.366511434316635132e-02
-5.308851599693298340e-02
-7.825499773025512695e-02
-1.314094569534063339e-02
-1.668148860335350037e-02
1.229089498519897461e-02
3.365189582109451294e-02
6.397508084774017334e-02
-3.713740408420562744e-02
-8.392840623855590820e-03
-3.980540484189987183e-02
-3.558610752224922180e-02
5.863286554813385010e-03
1.300587654113769531e-01
-2.528389543294906616e-02
-8.009387180209159851e-03
2.487708255648612976e-02
-1.870193332433700562e-02
-6.279034167528152466e-02
-4.978605359792709351e-02
-2.091873995959758759e-02
-7.943537086248397827e-02
-7.467471063137054443e-02
2.080963551998138428e-02
2.784825302660465240e-02
5.006596446037292480e-02
2.421420812606811523e-02
2.413955889642238617e-02
-9.364662319421768188e-02
5.569804459810256958e-02
1.049991101026535034e-01
1.958923786878585815e-02
3.019334375858306885e-02
6.710532307624816895e-02
-1.798235438764095306e-02
-7.152878493070602417e-02
-2.519516274333000183e-02
6.826014071702957153e-02
7.603130489587783813e-02
-4.528505355119705200e-02
-1.208639238029718399e-02
2.066512964665889740e-02
5.421311780810356140e-02
-6.608817726373672485e-02
-4.817903786897659302e-02
5.372760444879531860e-02
-6.128872931003570557e-02
-3.547243401408195496e-02
5.333726108074188232e-02
-4.767617210745811462e-02
-1.199729833751916885e-02
-3.792017698287963867e-02
6.071891263127326965e-02
-3.461412340402603149e-02
-7.169639319181442261e-02
-7.125747203826904297e-02
-7.080684602260589600e-02
1.116419434547424316e-01
-2.638304047286510468e-02
-3.507791087031364441e-02
-7.290823012590408325e-02
-2.052851580083370209e-02
-6.677059084177017212e-02
-3.770125284790992737e-02
-4.077375866472721100e-03
3.385739028453826904e-02
5.057706148363649845e-04
4.446803778409957886e-02
-6.011391058564186096e-02
-2.299350127577781677e-02
1.030449420213699341e-01
-2.773434296250343323e-02
-6.496562063694000244e-02
5.139345675706863403e-02
-3.508621826767921448e-02
6.552831828594207764e-02
1.148053035140037537e-01
-6.520881503820419312e-02
3.581439144909381866e-03
2.396572194993495941e-02
-3.176166117191314697e-02
-9.603922069072723389e-02
1.628298498690128326e-02
-6.658156961202621460e-02
-7.005473226308822632e-02
7.609152793884277344e-02
-2.656602114439010620e-02
-8.820181339979171753e-02
-2.460892684757709503e-02
7.951395213603973389e-02
-4.901827499270439148e-02
7.806813344359397888e-03
3.036951646208763123e-02
9.856803715229034424e-02
1.147317439317703247e-01
-1.461908221244812012e-02
5.136731266975402832e-02
-9.298168867826461792e-02
-4.462484270334243774e-02
-2.802589908242225647e-02
-8.714102208614349365e-03
-4.570886120200157166e-02
-3.704648837447166443e-02
-3.390748798847198486e-02
3.508985042572021484e-02
-6.644252687692642212e-02
1.830701716244220734e-02
-6.067886948585510254e-02
1.091895177960395813e-01
6.126196682453155518e-02
-4.806064069271087646e-02
-1.048386096954345703e-01
-8.504848927259445190e-02
4.615566879510879517e-02
1.104889204725623131e-03
-1.954578235745429993e-02
-3.889279812574386597e-02
7.329726964235305786e-02
-4.091010242700576782e-02
4.897785931825637817e-02
2.999583259224891663e-02
-1.082393899559974670e-01
3.829177841544151306e-02
1.547096762806177139e-02
8.703660219907760620e-02
-7.413333654403686523e-02
-2.262380905449390411e-02
-5.391947180032730103e-02
-8.427045308053493500e-03
1.199635714292526245e-01
-1.344800367951393127e-02
8.925162255764007568e-02
-6.125739961862564087e-02
7.617469131946563721e-02
-4.560040310025215149e-02
2.063065953552722931e-02
-3.464582562446594238e-02
8.094058185815811157e-02
5.929347127676010132e-02
1.111772432923316956e-01
-6.113775819540023804e-02
-1.599624752998352051e-02
-1.364711765199899673e-02
-6.715258210897445679e-02
-4.681846871972084045e-02
-1.548097096383571625e-02
5.398131534457206726e-02
4.612357541918754578e-02
5.737536773085594177e-02
-4.800843447446823120e-02
-6.457785516977310181e-02
1.636630389839410782e-03
8.607188612222671509e-02
1.359673291444778442e-01
-4.126301407814025879e-02
1.343102660030126572e-02
-3.810498863458633423e-02
1.203005313873291016e-01
1.609409414231777191e-02
5.266190320253372192e-02
-9.307444095611572266e-02
-3.496575355529785156e-02
-5.167335271835327148e-02
1.340150237083435059e-01
-7.814526557922363281e-02
5.610954388976097107e-02
-6.654808670282363892e-02
-1.438895892351865768e-02
8.159289509057998657e-02
2.403625287115573883e-03
1.617815694771707058e-03
9.389319270849227905e-02
-4.464508965611457825e-02
-3.821789473295211792e-02
2.694554859772324562e-03
-1.207375302910804749e-01
-9.893763810396194458e-03
6.911663338541984558e-03
-1.666291989386081696e-02
-9.846804291009902954e-02
8.084704726934432983e-02
-5.786141380667686462e-02
-5.193377658724784851e-02
1.204289421439170837e-01
-3.119124472141265869e-02
5.225198343396186829e-02
-1.127890869975090027e-01
6.835237890481948853e-02
-2.886804193258285522e-02
-2.234777621924877167e-02
1.158652752637863159e-01
1.083886623382568359e-01
-4.614863917231559753e-02
-2.162310481071472168e-02
-3.446514159440994263e-02
-6.004193425178527832e-02
-3.302101278677582741e-03
4.118530079722404480e-02
-3.779109939932823181e-02
-2.946520224213600159e-02
9.479540586471557617e-02
-5.535264685750007629e-02
1.747034117579460144e-02
1.531375758349895477e-02
-5.029073217883706093e-04
-3.972123563289642334e-02
4.564574453979730606e-03
1.065827161073684692e-01
-7.061155140399932861e-02
1.325694620609283447e-01
-3.091482818126678467e-02
6.647598743438720703e-02
1.648461818695068359e-02
-4.733283072710037231e-02
-3.191763535141944885e-02
-1.196394935250282288e-01
2.767500467598438263e-02
-2.156610973179340363e-02
-8.965149521827697754e-02
-6.576535105705261230e-02
-5.144893378019332886e-02
-4.983620345592498779e-02
-1.069470271468162537e-01
6.101964786648750305e-02
-6.397398561239242554e-02
-3.794465214014053345e-02
-6.160338968038558960e-02
-1.046140491962432861e-01
8.991857618093490601e-02
4.851847887039184570e-02
-8.702395111322402954e-02
8.310835808515548706e-02
-3.774641454219818115e-02
9.940016269683837891e-02
1.312840729951858521e-01
-2.646310022100806236e-03
-7.988749444484710693e-02
-3.927908092737197876e-02
-3.300734236836433411e-02
1.423745043575763702e-02
-1.142787188291549683e-02
7.452198863029479980e-02
2.037846110761165619e-02
-1.311605912633240223e-03
-3.085636533796787262e-02
8.684414625167846680e-02
7.142310589551925659e-02
1.226176097989082336e-01
-7.642664760351181030e-02
-4.311725869774818420e-02
-8.453188929706811905e-04
6.475499272346496582e-02
9.415650740265846252e-03
1.677181688137352467e-03
9.353871643543243408e-02
-3.810899704694747925e-02
1.681449823081493378e-02
1.013603955507278442e-01
4.436358809471130371e-02
-7.429551915265619755e-04
-6.471088528633117676e-02
-1.169927325099706650e-02
-6.066379323601722717e-02
-1.024241745471954346e-01
6.354948133230209351e-02
-6.887794937938451767e-03
6.904316693544387817e-02
-6.485201418399810791e-02
-5.951810255646705627e-02
-5.098556634038686752e-03
5.869374424219131470e-02
-3.649519756436347961e-02
-9.506149590015411377e-02
-3.866653144359588623e-02
-7.871637120842933655e-03
-4.081089794635772705e-02
5.648007243871688843e-02
1.259159594774246216e-01
6.221447139978408813e-02
-2.637997269630432129e-02
-2.417432889342308044e-02
-3.954613581299781799e-02
8.644738793373107910e-02
-1.910063321702182293e-03
1.401148587465286255e-01
3.867909312248229980e-02
-5.590312555432319641e-02
-5.245585367083549500e-02
-5.653603374958038330e-02
-6.003166083246469498e-03
4.970043525099754333e-02
8.934787660837173462e-02
-2.348952367901802063e-02
-3.623215015977621078e-03
-7.383649796247482300e-02
1.002340316772460938e-01
-6.788702681660652161e-03
5.581426993012428284e-02
-1.217997446656227112e-01
7.889591157436370850e-02
-7.914604246616363525e-02
-8.857327699661254883e-02
-3.946955874562263489e-02
-3.310297429561614990e-02
-1.046416833996772766e-01
1.083708181977272034e-01
1.366714760661125183e-02
-8.073906600475311279e-02
-9.910719841718673706e-02
4.729417338967323303e-02
-1.498964428901672363e-02
1.149781122803688049e-01
1.831095293164253235e-02
-8.732340298593044281e-03
8.309840410947799683e-02
4.166134074330329895e-02
7.939158380031585693e-02
1.152174472808837891e-01
1.777829788625240326e-02
-7.810748647898435593e-03
3.243787214159965515e-02
-6.422018632292747498e-04
-6.832468509674072266e-02
-8.454839885234832764e-02
5.505495518445968628e-02
6.026398041285574436e-04
-1.091629862785339355e-01
-3.187929466366767883e-02
6.987172365188598633e-02
3.573731705546379089e-02
2.277052216231822968e-02
-6.046586856245994568e-02
-2.652931958436965942e-02
1.397316902875900269e-01
-9.267021901905536652e-03
-3.625822067260742188e-02
2.584503218531608582e-02
2.763686142861843109e-02
-4.205949977040290833e-02
-5.550038814544677734e-02
9.455221891403198242e-02
-7.364662736654281616e-02
1.022181138396263123e-01
-4.584025591611862183e-02
-4.055331274867057800e-02
3.021435625851154327e-02
8.122064918279647827e-02
-7.851805537939071655e-02
3.853009548038244247e-03
-5.398241803050041199e-02
-4.919038712978363037e-02
3.452355787158012390e-02
-7.710718363523483276e-02
4.762181267142295837e-02
9.545160084962844849e-02
4.463379457592964172e-02
1.806444255635142326e-03
1.091379448771476746e-01
-4.414351657032966614e-02
5.999026075005531311e-02
-8.811301738023757935e-02
6.103998050093650818e-02
1.950575783848762512e-02
9.639628231525421143e-02
-5.054634064435958862e-02
-1.044921949505805969e-01
4.628279805183410645e-02
5.984034761786460876e-02
7.097600400447845459e-02
-5.882514268159866333e-02
8.419374004006385803e-03
-7.354874163866043091e-02
1.921115256845951080e-02
-3.548434376716613770e-02
1.250563114881515503e-01
-7.849843800067901611e-02
-3.368011489510536194e-02
1.569109410047531128e-02
-5.817652866244316101e-02
9.855560213327407837e-02
2.035480737686157227e-02
2.827251143753528595e-02
7.350243628025054932e-02
-4.358066618442535400e-02
-4.747251793742179871e-02
-8.060660213232040405e-02
-5.893597751855850220e-02
-7.477580755949020386e-02
9.064470231533050537e-02
2.966439537703990936e-02
1.882009953260421753e-02
4.520689137279987335e-03
1.867456547915935516e-02
-1.436471566557884216e-02
5.415826663374900818e-02
-9.559825994074344635e-03
-4.088781401515007019e-02
-1.197691634297370911e-02
-7.765130698680877686e-02
-7.792778778821229935e-03
-4.408176615834236145e-02
3.003901988267898560e-02
6.604718416929244995e-02
7.240901142358779907e-02
-7.950077205896377563e-02
-4.546178504824638367e-02
2.293530479073524475e-02
7.632112503051757812e-02
5.002205446362495422e-02
-7.049759477376937866e-02
1.051361337304115295e-01
-4.784418269991874695e-02
-5.682099238038063049e-02
-4.473747313022613525e-02
2.702408842742443085e-02
8.472350239753723145e-02
-5.089902132749557495e-02
1.328330636024475098e-01
2.583157271146774292e-02
-3.309558378532528877e-04
7.811005413532257080e-02
-2.082989178597927094e-02
1.795288361608982086e-02
-4.384598508477210999e-02
5.194720625877380371e-02
-8.281407505273818970e-02
7.676803320646286011e-02
-5.328243970870971680e-02
-1.141850650310516357e-02
-7.847292721271514893e-02
7.525518536567687988e-02
-3.356093168258666992e-02
6.466044485569000244e-02
-4.908887296915054321e-02
2.873483672738075256e-02
8.861316740512847900e-02
-4.149932041764259338e-02
-4.553631320595741272e-02
3.430385142564773560e-03
-5.310092493891716003e-02
9.265614300966262817e-02
7.156764715909957886e-02
-6.982707418501377106e-03
-8.662563562393188477e-02
-1.711049303412437439e-02
-6.105912849307060242e-02
2.059806138277053833e-03
-7.429767400026321411e-02
4.849434271454811096e-02
-2.977920137345790863e-02
-3.179243206977844238e-02
-7.098234258592128754e-03
-3.459441661834716797e-02
-3.050661459565162659e-02
-2.508998848497867584e-03
6.475200876593589783e-03
-3.007038868963718414e-02
-4.363482818007469177e-02
-3.509191796183586121e-02
-3.754430264234542847e-02
-7.373348623514175415e-02
5.683767050504684448e-02
4.817882552742958069e-02
3.106753900647163391e-02
-3.101576119661331177e-02
-5.932081863284111023e-02
1.008493155241012573e-01
1.971028250409290195e-04
9.252944029867649078e-03
8.126231282949447632e-02
4.882187023758888245e-02
1.125262156128883362e-01
-5.408285558223724365e-02
-1.233421079814434052e-02
9.012252092361450195e-02
7.732627540826797485e-02
-3.264013677835464478e-03
1.336660087108612061e-01
3.609738545492291451e-03
4.537923634052276611e-02
2.584812045097351074e-02
6.517919152975082397e-02
4.034893587231636047e-02
2.713068947196006775e-02
-7.197785377502441406e-02
-5.819756165146827698e-02
3.488175198435783386e-02
-5.254804715514183044e-02
2.810019999742507935e-02
9.056553244590759277e-03
3.155795275233685970e-04
-1.624806597828865051e-02
1.973773166537284851e-02
7.315565645694732666e-02
1.243689730763435364e-01
-7.413716986775398254e-03
8.707936853170394897e-02
-2.243719436228275299e-02
-2.209177799522876740e-02
-8.304671943187713623e-02
-3.728688880801200867e-02
6.075987592339515686e-02
-5.286706611514091492e-02
-3.878526017069816589e-02
6.279640644788742065e-02
-8.118063211441040039e-02
5.121238529682159424e-02
-4.974403232336044312e-02
-8.861509710550308228e-02
-1.412247307598590851e-02
-4.477265477180480957e-02
-6.194899976253509521e-02
-6.446116417646408081e-02
6.315208971500396729e-02
-5.895676091313362122e-02
-2.917328476905822754e-02
-1.529356930404901505e-02
-8.926866203546524048e-02
-7.551022619009017944e-02
1.100859418511390686e-02
2.570105157792568207e-02
-5.710750818252563477e-02
-4.244680330157279968e-02
4.790708422660827637e-02
-4.192762076854705811e-02
4.998104274272918701e-02
-2.919843792915344238e-02
-3.251029178500175476e-02
4.997488483786582947e-02
-7.072166353464126587e-02
8.492795377969741821e-02
3.679159656167030334e-02
9.989236481487751007e-03
-3.870972618460655212e-02
1.078349947929382324e-01
9.947774559259414673e-02
-5.912018474191427231e-03
1.147293671965599060e-01
-8.453960716724395752e-02
9.068151563405990601e-02
-5.821803212165832520e-02
-2.661487087607383728e-02
-3.205496072769165039e-02
-9.225913137197494507e-02
6.325840204954147339e-02
-2.275501319672912359e-04
-5.700344964861869812e-02
8.696301840245723724e-03
1.203549373894929886e-02
-9.382294490933418274e-03
3.465770930051803589e-02
7.036957889795303345e-02
4.420206695795059204e-02
-2.630878239870071411e-02
-9.980143047869205475e-03
-4.529261216521263123e-02
-2.810093760490417480e-02
5.199688300490379333e-02
-5.871163681149482727e-02
-5.564998090267181396e-02
-3.728920966386795044e-02
-7.137810438871383667e-02
4.389952495694160461e-02
-4.029656574130058289e-02
2.720086462795734406e-02
6.655414123088121414e-03
6.606731563806533813e-03
8.252336829900741577e-02
7.572939246892929077e-02
-1.444754470139741898e-02
-6.608779728412628174e-02
-1.520754117518663406e-02
-1.299575250595808029e-02
-3.135790303349494934e-02
-6.833443045616149902e-02
5.610007792711257935e-02
-3.460225462913513184e-02
-6.300666183233261108e-02
-4.504616558551788330e-02
-8.034481853246688843e-02
6.819142401218414307e-02
7.587276399135589600e-02
4.713876545429229736e-02
-1.885117962956428528e-02
-8.664569258689880371e-02
-5.542052164673805237e-02
1.294835284352302551e-02
5.876016244292259216e-02
-3.290313109755516052e-02
4.156045243144035339e-02
5.591707676649093628e-02
-4.064154252409934998e-02
1.200482919812202454e-01
3.566310927271842957e-02
-6.645697355270385742e-02
-4.321281611919403076e-02
-1.572749461047351360e-03
6.128924340009689331e-02
1.252849027514457703e-02
4.369375854730606079e-02
-5.649719387292861938e-02
8.646534383296966553e-02
-3.825240209698677063e-02
6.579135358333587646e-02
-3.910388052463531494e-02
-6.775297224521636963e-02
8.734390884637832642e-02
-4.832807462662458420e-03
1.019370704889297485e-01
5.278708040714263916e-02
-6.715349853038787842e-02
-6.706373393535614014e-02
6.882163882255554199e-02
-2.399346977472305298e-02
-4.495248198509216309e-02
-5.177741870284080505e-02
-6.018823012709617615e-02
-7.120887935161590576e-02
-5.381704494357109070e-02
2.779483422636985779e-02
8.952044695615768433e-02
-1.008078008890151978e-01
-3.805948421359062195e-02
1.940436288714408875e-02
7.185817509889602661e-02
8.681463450193405151e-02
-1.037361100316047668e-01
-3.395736217498779297e-02
-6.832601875066757202e-02
6.211274862289428711e-02
-1.325429324060678482e-02
-5.634855851531028748e-02
3.907383978366851807e-02
-8.392930030822753906e-02
-3.802943043410778046e-03
3.495110571384429932e-02
8.489416539669036865e-02
-8.527734875679016113e-02
4.024365171790122986e-02
-8.866897225379943848e-02
3.108576312661170959e-02
1.126414258033037186e-02
8.289095014333724976e-02
1.046099513769149780e-01
-6.766287982463836670e-02
6.080128625035285950e-02
-9.301684796810150146e-02
9.962672740221023560e-02
4.209749400615692139e-02
-2.014552801847457886e-02
4.354039952158927917e-02
5.256291106343269348e-02
-6.493188440799713135e-02
-7.332029938697814941e-02
4.042844101786613464e-02
-6.919342279434204102e-02
-1.723451167345046997e-02
1.216669529676437378e-01
6.135068088769912720e-02
7.081066817045211792e-02
9.408880025148391724e-02
-3.884682059288024902e-02
5.424172803759574890e-02
1.102952808141708374e-01
-3.286355733871459961e-02
-7.679650187492370605e-02
8.713924139738082886e-02
6.000748649239540100e-02
4.104815796017646790e-02
-7.700457423925399780e-02
-5.339783430099487305e-02
6.227718293666839600e-02
-1.655375398695468903e-02
-5.421965196728706360e-02
-2.606614492833614349e-02
-5.763220041990280151e-02
4.977174103260040283e-02
7.871556282043457031e-02
4.559353366494178772e-02
-5.156107246875762939e-02
1.258704662322998047e-01
7.008245587348937988e-02
5.023493990302085876e-02
-8.782277256250381470e-02
-8.800282329320907593e-02
3.030038811266422272e-02
5.877565219998359680e-02
-5.453477799892425537e-02
2.480827644467353821e-02
2.392397075891494751e-02
4.354375228285789490e-02
2.789574675261974335e-02
-1.842300221323966980e-02
-2.887587621808052063e-02
-3.029217943549156189e-02
-7.170252501964569092e-02
2.356878481805324554e-02
2.437663206364959478e-04
-3.390390798449516296e-02
-1.002366170287132263e-01
1.112762540578842163e-01
-2.520460076630115509e-02
-4.556057974696159363e-02
6.819963455200195312e-02
9.886352717876434326e-02
1.139891669154167175e-01
-1.372511684894561768e-01
-1.339072827249765396e-02
6.318537890911102295e-02
1.137759163975715637e-01
8.542592078447341919e-02
-8.818247588351368904e-04
-6.702402979135513306e-02
-5.482272431254386902e-02
-1.601067255251109600e-03
7.580810040235519409e-02
-6.612362712621688843e-02
-6.346824765205383301e-02
9.449689835309982300e-02
7.614175230264663696e-02
-4.140598326921463013e-02
3.984564682468771935e-04
-3.947059065103530884e-02
-7.428368926048278809e-02
1.180229783058166504e-01
-3.757234290242195129e-02
8.438102155923843384e-02
-7.881020009517669678e-02
8.922216296195983887e-02
-2.776961075142025948e-03
8.700867742300033569e-02
-4.555992037057876587e-02
8.392563462257385254e-02
-4.736279137432575226e-03
-3.933386877179145813e-02
-4.051735252141952515e-02
-2.738840691745281219e-02
-3.266673162579536438e-02
-1.315821558237075806e-01
-3.481279313564300537e-02
-6.723824143409729004e-02
-9.161622077226638794e-02
-4.762006551027297974e-02
-2.744216099381446838e-02
2.834867313504219055e-02
-8.887396007776260376e-02
-4.090226721018552780e-03
-7.887930423021316528e-02
2.072191610932350159e-02
-7.452096045017242432e-02
-3.602835536003112793e-02
8.985509723424911499e-02
-1.288761105388402939e-02
-5.861420556902885437e-02
8.655779063701629639e-02
9.377096593379974365e-02
-6.950546056032180786e-02
4.543335735797882080e-02
5.142988637089729309e-02
-3.059538453817367554e-02
6.359977275133132935e-02
-5.359886586666107178e-02
-4.571356624364852905e-02
-3.866945335175842047e-04
-7.943022996187210083e-02
-1.071455422788858414e-02
-2.957663312554359436e-02
1.230565011501312256e-01
-1.228843722492456436e-02
6.878758966922760010e-02
3.818058222532272339e-02
-2.654368057847023010e-02
-5.835644155740737915e-02
5.076543614268302917e-02
-9.334532916545867920e-02
-1.024981960654258728e-02
8.286999538540840149e-03
-1.021692976355552673e-01
8.214188367128372192e-02
1.012263000011444092e-01
-7.776335626840591431e-02
-8.807822316884994507e-02
-1.472133863717317581e-02
5.982573330402374268e-02
6.752298027276992798e-02
8.621617220342159271e-03
1.018940359354019165e-01
4.577604681253433228e-02
-6.018965318799018860e-02
-7.827578485012054443e-02
2.183667011559009552e-02
1.127596423029899597e-01
-4.410860687494277954e-02
-6.905718147754669189e-02
-1.531138923019170761e-02
-3.198217228055000305e-02
9.196535497903823853e-02
-5.996583774685859680e-02
-5.324301868677139282e-02
-7.467719167470932007e-02
1.051195710897445679e-01
-8.420665562152862549e-02
1.041091680526733398e-01
-7.248038798570632935e-02
6.581405550241470337e-02
-6.573851406574249268e-02
-2.916714735329151154e-02
6.058532744646072388e-02
-5.186283960938453674e-02
-9.597628563642501831e-02
-1.865120045840740204e-02
-7.759020477533340454e-02
1.177187263965606689e-01
1.465001050382852554e-02
-2.725778333842754364e-02
1.255051232874393463e-02
-4.605678841471672058e-02
-5.689640063792467117e-03
-3.025015816092491150e-02
6.206512823700904846e-02
-2.247269079089164734e-02
-3.732459992170333862e-02
1.228767931461334229e-01
-3.784233704209327698e-02
-3.369507566094398499e-02
-2.515782043337821960e-02
-2.263302914798259735e-02
5.816558003425598145e-02
-3.020763583481311798e-02
-1.109644072130322456e-03
-3.300521057099103928e-03
7.814029604196548462e-02
-1.202760264277458191e-02
-8.061046153306961060e-02
9.015431627631187439e-03
-1.066119000315666199e-01
-5.594542250037193298e-02
7.011193782091140747e-02
-7.315199822187423706e-02
-1.067735627293586731e-02
1.716158934868872166e-03
-3.285910235717892647e-03
-4.391689226031303406e-02
-4.740327224135398865e-02
-5.881909281015396118e-02
-1.526180561631917953e-02
1.401389241218566895e-01
-2.001631818711757660e-02
1.130826175212860107e-01
-9.061885625123977661e-02
-8.787602931261062622e-02
-1.019648164510726929e-01
5.516112595796585083e-02
-1.496943179517984390e-02
3.458041697740554810e-02
-3.053054586052894592e-02
1.954229734838008881e-02
7.053313404321670532e-02
-8.310706168413162231e-02
1.215152963995933533e-01
-1.300154160708189011e-02
-8.371113240718841553e-02
-4.714869707822799683e-02
5.219644401222467422e-03
-1.089046988636255264e-02
-6.940530985593795776e-02
-1.597375236451625824e-02
5.259070545434951782e-02
-1.878987252712249756e-02
-2.533584088087081909e-02
6.850138306617736816e-02
-6.856390833854675293e-02
4.559028521180152893e-02
-7.150568813085556030e-02
-1.497144531458616257e-02
5.245431326329708099e-03
1.910250075161457062e-02
-3.018725477159023285e-02
4.791379347443580627e-02
3.920048102736473083e-02
6.610754411667585373e-03
2.761653251945972443e-02
-1.015062630176544189e-01
7.678002119064331055e-02
-4.218684136867523193e-02
-5.102952942252159119e-02
-7.333666831254959106e-02
-3.183180466294288635e-02
8.113490045070648193e-02
6.145495548844337463e-02
-9.395710378885269165e-02
1.654027216136455536e-02
5.519068217836320400e-04
1.003889925777912140e-02
1.118883565068244934e-01
2.018331363797187805e-02
9.211969375610351562e-02
5.147266387939453125e-02
-1.877683773636817932e-02
-1.138319447636604309e-02
-2.975067868828773499e-02
-4.150640685111284256e-03
-4.488779231905937195e-02
-7.705590873956680298e-02
9.599269181489944458e-02
5.247133225202560425e-02
-6.724625080823898315e-02
4.721004515886306763e-02
4.030966386198997498e-02
-9.595469571650028229e-03
-6.328785419464111328e-02
4.839070141315460205e-02
2.496744692325592041e-02
-8.883014321327209473e-03
-6.639234721660614014e-02
-4.906452447175979614e-02
9.483508765697479248e-02
-3.551463596522808075e-03
-3.680226579308509827e-02
-6.163475289940834045e-02
-6.895478814840316772e-02
1.093422248959541321e-01
-5.081190168857574463e-02
9.160324931144714355e-02
-1.157391518354415894e-01
2.391220815479755402e-02
7.754074037075042725e-02
-5.292993038892745972e-02
4.414975270628929138e-02
-6.734970211982727051e-02
-2.413439378142356873e-02
1.325167119503021240e-01
-7.185793668031692505e-02
2.562232315540313721e-02
-4.988230764865875244e-02
-9.929726272821426392e-02
-8.867651969194412231e-02
-7.341577857732772827e-02
-1.051114797592163086e-01
1.074047088623046875e-01
-5.007210373878479004e-02
2.750941086560487747e-03
-5.988141149282455444e-02
-9.844023734331130981e-02
-7.370942085981369019e-02
5.807092785835266113e-02
-1.256929896771907806e-02
5.538790300488471985e-02
1.016774773597717285e-01
7.953842170536518097e-03
8.114892989397048950e-02
-3.429092466831207275e-02
7.755198329687118530e-02
9.376163780689239502e-02
-4.092284478247165680e-03
1.004875898361206055e-01
-1.074988860636949539e-02
6.223725527524948120e-02
3.489750251173973083e-02
-5.582079291343688965e-02
-8.084072917699813843e-02
-5.706856027245521545e-02
-2.881545340642333031e-03
2.265561558306217194e-02
-6.429533660411834717e-02
-1.084618866443634033e-01
-5.134899169206619263e-02
7.975462079048156738e-02
1.450101435184478760e-01
-6.444817036390304565e-02
-9.310226887464523315e-03
-9.232665412127971649e-03
-6.291558500379323959e-03
8.373054116964340210e-02
-7.116870582103729248e-02
8.820825070142745972e-02
-1.245714351534843445e-02
1.158649660646915436e-02
-1.263744011521339417e-02
1.021051928400993347e-01
9.422855451703071594e-03
9.078779257833957672e-03
-3.801919519901275635e-02
-1.365923285484313965e-01
2.708193473517894745e-02
1.575383916497230530e-02
-1.323383897542953491e-01
-1.672171428799629211e-02
-1.385526615194976330e-03
-1.053025200963020325e-02
2.853286638855934143e-02
3.149724751710891724e-02
2.482158690690994263e-02
1.000522002577781677e-01
1.015135943889617920e-01
-6.584370974451303482e-03
-2.529378980398178101e-02
9.794583916664123535e-02
-4.659187793731689453e-02
1.100768893957138062e-01
-2.433661557734012604e-02
7.729836553335189819e-02
1.091193314641714096e-02
-7.768680900335311890e-02
-9.749002754688262939e-02
-9.271994233131408691e-02
-7.439538836479187012e-02
-6.383534520864486694e-02
-1.034205406904220581e-02
5.698502063751220703e-02
-4.514868557453155518e-02
-8.665172010660171509e-02
1.256617307662963867e-01
8.124945685267448425e-03
-1.249751914292573929e-02
3.451906517148017883e-02
-4.614676162600517273e-02
-4.399774968624114990e-02
9.094421751797199249e-03
9.058205038309097290e-02
7.518807798624038696e-02
5.434332042932510376e-02
1.260129641741514206e-02
-1.519581535831093788e-03
8.483108878135681152e-02
-3.370057418942451477e-02
-4.283899441361427307e-02
1.008393540978431702e-01
8.968823403120040894e-02
-2.263267338275909424e-02
5.977659299969673157e-02
-6.300333887338638306e-02
-4.056278243660926819e-02
1.122224852442741394e-01
-1.048357710242271423e-01
-9.678404778242111206e-02
1.249238029122352600e-01
-6.130336597561836243e-02
4.643155843950808048e-04
-7.082454115152359009e-02
-8.688021451234817505e-02
6.518825143575668335e-02
-3.614231199026107788e-02
-7.611843198537826538e-02
1.112227514386177063e-01
1.115983426570892334e-01
4.031413421034812927e-02
-6.599283218383789062e-02
-5.640373751521110535e-02
8.709565550088882446e-02
1.002225875854492188e-01
1.863166689872741699e-03
-4.805155843496322632e-02
-2.445740811526775360e-02
-5.622865632176399231e-02
7.030324637889862061e-02
-8.673379570245742798e-02
5.509969219565391541e-02
-8.064713329076766968e-02
5.447486415505409241e-02
-6.362595409154891968e-02
-7.108877599239349365e-02
-7.043508440256118774e-02
5.566771700978279114e-02
-3.856449201703071594e-02
8.485889434814453125e-02
-9.175190329551696777e-02
-1.206665067002177238e-03
-9.181170910596847534e-02
-1.226105988025665283e-01
9.329632669687271118e-02
1.226452738046646118e-01
6.825762987136840820e-02
4.118793830275535583e-02
1.713275909423828125e-02
-9.487168490886688232e-02
-3.450787812471389771e-02
-3.985375165939331055e-02
-7.452720403671264648e-02
1.458173617720603943e-02
-6.325537711381912231e-02
8.257061988115310669e-02
-6.954714190214872360e-03
-2.989692799746990204e-02
2.311507269041612744e-04
7.011232525110244751e-02
-1.986709050834178925e-02
-3.790176287293434143e-02
4.680366069078445435e-02
-3.128296136856079102e-02
-1.433206442743539810e-02
8.024284988641738892e-02
7.803148031234741211e-02
-8.788149058818817139e-02
-9.127157181501388550e-02
-8.048387616872787476e-02
1.036657020449638367e-01
1.227880641818046570e-02
-5.952155217528343201e-02
-1.040698066353797913e-01
-3.601552546024322510e-02
6.224085576832294464e-03
1.675081206485629082e-03
-5.247903242707252502e-02
-3.836548700928688049e-02
1.278045624494552612e-01
3.355298936367034912e-02
2.407780289649963379e-02
-6.485164165496826172e-02
-9.081581979990005493e-02
9.640279412269592285e-02
4.960191901773214340e-03
5.293368548154830933e-02
-6.708255503326654434e-03
1.117495968937873840e-01
-5.164020881056785583e-02
6.700000725686550140e-03
2.541032247245311737e-02
8.320719934999942780e-03
8.872367441654205322e-02
-1.115972325205802917e-01
-2.681898139417171478e-02
-7.058342453092336655e-03
-7.592970877885818481e-02
1.017739698290824890e-01
1.394393444061279297e-01
1.243350096046924591e-02
-3.668243531137704849e-03
-1.135518923401832581e-01
6.135961413383483887e-02
1.139299273490905762e-01
-4.066726192831993103e-02
-4.606104642152786255e-02
1.178916729986667633e-02
-7.676555961370468140e-02
-7.503083348274230957e-02
8.706056326627731323e-02
1.639490760862827301e-02
1.148874908685684204e-01
-8.363953977823257446e-02
1.199305243790149689e-02
1.078800931572914124e-01
5.944402888417243958e-02
6.970864254981279373e-03
-4.341857880353927612e-02
-4.738488420844078064e-02
1.300910115242004395e-02
-1.742199994623661041e-02
-1.096999347209930420e-01
6.816805689595639706e-04
-7.500420510768890381e-02
7.179847359657287598e-02
-7.087520509958267212e-02
-5.883335322141647339e-02
-8.298589289188385010e-02
-3.495344892144203186e-02
7.577120512723922729e-02
1.160201579332351685e-01
9.504329413175582886e-02
1.253181397914886475e-01
6.314645055681467056e-03
-1.063919737935066223e-01
-7.798869162797927856e-03
-4.571472480893135071e-02
-6.778807938098907471e-02
6.074669305235147476e-03
-8.609119802713394165e-02
4.592162743210792542e-02
-7.067657262086868286e-02
7.318871468305587769e-02
-3.641046816483139992e-03
1.067487671971321106e-01
3.006215766072273254e-02
-4.282616078853607178e-02
-2.766629308462142944e-02
-4.326872527599334717e-02
-5.870450288057327271e-02
-1.439350750297307968e-02
1.260018497705459595e-01
3.140918910503387451e-03
2.837194502353668213e-02
-6.865554489195346832e-03
3.504386916756629944e-02
4.500258713960647583e-02
1.025933176279067993e-01
-4.445391893386840820e-02
-5.727845430374145508e-02
-4.398992750793695450e-03
1.201827451586723328e-02
-6.318908184766769409e-02
2.225786633789539337e-02
7.172437757253646851e-02
4.119704663753509521e-02
-7.852396368980407715e-02
6.990329921245574951e-02
-4.984093457460403442e-02
7.158385217189788818e-02
2.324092201888561249e-02
-8.655705302953720093e-02
3.388681635260581970e-02
5.705926939845085144e-02
-4.367275536060333252e-02
-3.987929224967956543e-02
2.167691290378570557e-02
2.168120443820953369e-02
-6.403581704944372177e-03
-5.120641551911830902e-03
-1.127588190138339996e-02
3.708597645163536072e-02
-6.893479079008102417e-02
-4.485024884343147278e-02
-6.029728800058364868e-02
-1.929206587374210358e-02
-5.064908042550086975e-02
7.355981320142745972e-02
-3.292828798294067383e-02
4.250887408852577209e-02
-2.689431048929691315e-02
1.012524887919425964e-01
-4.339041560888290405e-02
2.255318686366081238e-02
-5.201425030827522278e-02
1.861574314534664154e-02
1.835918799042701721e-02
-2.119372040033340454e-02
1.240742132067680359e-01
-4.144408553838729858e-02
-2.875404059886932373e-02
-8.116943389177322388e-02
6.587824970483779907e-02
5.467204377055168152e-02
-6.066793575882911682e-03
-3.407048434019088745e-02
-2.995821088552474976e-02
6.040837150067090988e-03
-5.760554224252700806e-02
-2.839584648609161377e-02
3.421577811241149902e-02
1.931455917656421661e-02
9.202151745557785034e-02
-3.802294656634330750e-02
-4.284144937992095947e-02
2.249799296259880066e-02
7.780654821544885635e-03
-3.743393719196319580e-02
4.749869927763938904e-02
3.373812884092330933e-02
-6.739398092031478882e-02
3.458898887038230896e-02
6.400093436241149902e-02
5.366540700197219849e-02
-4.742461815476417542e-02
-6.337188184261322021e-02
-6.356287002563476562e-02
-5.352127552032470703e-02
-2.786152251064777374e-02
-1.761104352772235870e-02
2.804216183722019196e-02
2.103279717266559601e-02
2.692992798984050751e-02
2.990137785673141479e-02
-3.116245009005069733e-02
-2.369386516511440277e-02
-1.189651992172002792e-02
1.801469363272190094e-03
-8.761773258447647095e-02
-9.692732244729995728e-02
-9.021840989589691162e-03
7.933016121387481689e-02
1.790223456919193268e-02
2.362551726400852203e-02
-2.119175903499126434e-02
-2.109947614371776581e-02
7.191676646471023560e-02
9.913534671068191528e-02
-6.466155499219894409e-02
1.314837578684091568e-02
2.050530351698398590e-02
1.291109994053840637e-02
-2.047295682132244110e-02
1.135992538183927536e-02
6.458075344562530518e-02
-1.002302765846252441e-02
-5.720808729529380798e-02
-5.665188655257225037e-02
2.288460731506347656e-02
1.035449802875518799e-01
1.915685599669814110e-03
-2.717913361266255379e-03
3.095344640314579010e-02
-8.651173859834671021e-02
9.285747259855270386e-02
9.133837372064590454e-02
-9.506850503385066986e-03
-2.971308492124080658e-02
-4.059710353612899780e-02
8.547072112560272217e-02
-2.396224625408649445e-02
-2.466297708451747894e-02
-5.787170026451349258e-03
7.061205059289932251e-02
-2.105832844972610474e-02
1.136697642505168915e-02
1.406929362565279007e-02
-8.262456208467483521e-02
-4.653602838516235352e-02
-6.452161073684692383e-02
9.578485041856765747e-02
-4.040533676743507385e-02
6.135849654674530029e-02
-4.110268130898475647e-02
5.713465809822082520e-02
7.516110688447952271e-02
1.041090488433837891e-01
6.179188936948776245e-02
-9.422542899847030640e-02
5.497393384575843811e-02
8.674138039350509644e-02
1.431928761303424835e-02
1.337658148258924484e-02
-5.923049151897430420e-02
9.038615971803665161e-03
4.712331295013427734e-02
6.015029177069664001e-02
-4.785838723182678223e-02
5.483372136950492859e-02
1.484461501240730286e-02
-6.346848607063293457e-02
-1.939190551638603210e-02
-9.818313270807266235e-02
-8.129392564296722412e-02
7.346951216459274292e-02
1.244603991508483887e-01
3.330032154917716980e-02
1.122041139751672745e-02
2.615697681903839111e-02
6.007562205195426941e-02
5.951729789376258850e-02
-8.391802757978439331e-02
-1.467559766024351120e-02
-1.325637474656105042e-02
-5.060587078332901001e-02
8.024170249700546265e-02
4.360044375061988831e-02
-3.464459255337715149e-02
9.601087123155593872e-02
4.127337411046028137e-02
-1.196336187422275543e-02
-5.171490088105201721e-02
-3.245830535888671875e-02
2.487239055335521698e-02
7.894501835107803345e-02
-7.023457437753677368e-02
-2.454687375575304031e-03
-4.563459753990173340e-02
-3.138982504606246948e-02
-1.274330541491508484e-02
3.919913992285728455e-02
-6.353701930493116379e-03
1.796742714941501617e-02
-5.196110531687736511e-02
2.458813227713108063e-02
-3.543820977210998535e-02
9.488646686077117920e-02
-9.614439308643341064e-02
1.248827110975980759e-02
-8.764562010765075684e-02
8.570295572280883789e-02
-4.369341954588890076e-02
-1.488574221730232239e-02
-2.821145765483379364e-02
9.349144995212554932e-02
3.027925640344619751e-02
5.572089925408363342e-02
2.167973481118679047e-02
-6.391921639442443848e-02
6.893488764762878418e-02
6.750292330980300903e-02
-3.596718609333038330e-02
-4.816222935914993286e-02
-3.670571744441986084e-02
2.780118584632873535e-02
-6.606628000736236572e-02
1.118951197713613510e-02
6.691870838403701782e-02
7.471600174903869629e-02
-1.367936842143535614e-02
-1.645630598068237305e-02
4.023853689432144165e-03
6.943795084953308105e-02
-2.051359228789806366e-02
6.241925805807113647e-02
-8.954349905252456665e-02
1.390222012996673584e-01
4.592111334204673767e-02
7.351373136043548584e-02
-5.064706131815910339e-02
2.328958362340927124e-02
-4.476474970579147339e-02
1.160609647631645203e-01
6.675447523593902588e-02
-4.738364368677139282e-02
-4.366864264011383057e-02
-3.776945546269416809e-02
5.260829627513885498e-02
-4.964920133352279663e-02
3.601807355880737305e-02
-1.130749732255935669e-01
5.437232553958892822e-02
4.809385631233453751e-03
1.284037530422210693e-01
7.595212757587432861e-02
-5.811296030879020691e-02
1.029298678040504456e-01
-1.725557958707213402e-03
-4.639229271560907364e-03
4.677094984799623489e-03
6.273207068443298340e-02
6.193440407514572144e-02
7.078694552183151245e-02
-3.132976591587066650e-02
-5.887060426175594330e-03
7.905932515859603882e-02
-6.110292673110961914e-02
3.970884159207344055e-02
3.550435230135917664e-02
5.566951632499694824e-02
-4.208201915025711060e-02
-1.114345900714397430e-02
-6.082869321107864380e-02
-3.495595231652259827e-02
-6.735503673553466797e-02
-4.148772731423377991e-02
9.576386958360671997e-02
-2.049086801707744598e-02
-4.546314105391502380e-02
-6.908345222473144531e-02
9.431409090757369995e-02
-9.204921126365661621e-02
-9.376584738492965698e-02
-3.988048527389764786e-03
-3.628402482718229294e-03
1.916605234146118164e-02
8.398190140724182129e-02
-2.101951465010643005e-02
-5.146401375532150269e-02
-8.446288295090198517e-03
7.315970957279205322e-02
-3.410111740231513977e-02
-4.722059518098831177e-02
1.533286925405263901e-02
1.404895037412643433e-01
5.084540694952011108e-02
-2.809673175215721130e-02
-4.268014803528785706e-03
1.296662818640470505e-02
-7.478355616331100464e-02
6.312506645917892456e-02
5.928573757410049438e-02
-6.409231573343276978e-02
7.915724068880081177e-02
-9.392263740301132202e-02
5.157905817031860352e-02
8.502188324928283691e-02
-2.605758979916572571e-02
-5.437433347105979919e-02
4.942650906741619110e-03
3.425254300236701965e-02
9.691973216831684113e-03
-6.877426803112030029e-02
1.428476721048355103e-01
3.692957386374473572e-02
-7.568965107202529907e-02
-4.406628385186195374e-02
8.362084627151489258e-02
-3.735585138201713562e-02
5.947809666395187378e-02
-2.220091409981250763e-03
-3.244620189070701599e-02
-1.312485337257385254e-02
6.610795110464096069e-02
-1.464690081775188446e-02
1.444345992058515549e-02
1.008151695132255554e-01
-7.023994345217943192e-03
2.373356185853481293e-02
-7.742992043495178223e-02
-3.715118393301963806e-02
-3.729045391082763672e-02
5.312294885516166687e-02
-6.060779467225074768e-02
5.554275214672088623e-02
-7.798175513744354248e-02
1.531523372977972031e-02
-4.432837665081024170e-02
-4.926632344722747803e-02
-4.407783970236778259e-02
3.152614086866378784e-02
-8.510160446166992188e-02
-5.384415388107299805e-02
-3.605018183588981628e-02
-4.144852608442306519e-02
-5.558393523097038269e-02
-8.109637536108493805e-03
-1.880180649459362030e-02
4.369923844933509827e-02
-4.295488074421882629e-02
-3.603588044643402100e-02
6.093244999647140503e-02
9.986937791109085083e-02
-6.525132060050964355e-02
1.842446178197860718e-01
1.795426011085510254e-02
8.347842842340469360e-02
3.112415084615349770e-03
-4.134143516421318054e-02
-5.516058951616287231e-02
-8.363150805234909058e-02
-5.199300870299339294e-02
-5.408625118434429169e-03
-8.135871589183807373e-02
7.482416927814483643e-02
-6.949267350137233734e-03
-6.133854016661643982e-02
7.427674252539873123e-03
-3.708091750741004944e-02
3.914341703057289124e-02
9.969761967658996582e-02
-5.986326187849044800e-02
2.474535815417766571e-02
3.889092803001403809e-02
6.972039490938186646e-02
8.940874040126800537e-02
-6.681834161281585693e-02
-7.578208297491073608e-02
-7.800728827714920044e-02
1.405065208673477173e-01
-3.319721296429634094e-02
7.253045588731765747e-02
4.600865393877029419e-02
1.060106046497821808e-02
5.025963764637708664e-03
-8.993162773549556732e-04
-3.367055207490921021e-02
2.624347619712352753e-02
8.623848855495452881e-02
1.460014842450618744e-02
3.953341767191886902e-02
5.322615429759025574e-02
1.231415104120969772e-02
7.540653925389051437e-03
-8.413074538111686707e-03
-8.262346684932708740e-02
1.175694414996542037e-04
-9.070623666048049927e-03
2.670633234083652496e-02
1.744474720908328891e-04
5.988862365484237671e-02
-8.376016467809677124e-02
-5.772176664322614670e-03
1.774192089214920998e-03
-3.739210963249206543e-02
1.175702922046184540e-02
-8.415311574935913086e-02
4.164428636431694031e-02
8.251898735761642456e-02
1.010477077215909958e-03
9.902121871709823608e-02
7.235523778945207596e-03
9.411828964948654175e-02
4.475259780883789062e-02
1.154891103506088257e-01
4.939000308513641357e-02
-4.245554655790328979e-02
2.110650576651096344e-02
-6.192433834075927734e-02
-2.390220016241073608e-02
1.325084716081619263e-01
-2.441054210066795349e-03
1.056948751211166382e-01
-9.013428539037704468e-02
-6.005147844552993774e-02
1.195080429315567017e-01
5.398610979318618774e-02
-1.811206340789794922e-02
-6.848897784948348999e-02
-7.854609936475753784e-02
-8.450350165367126465e-02
-8.254455402493476868e-03
-4.421837255358695984e-02
-7.081004232168197632e-02
7.281071692705154419e-02
4.726431891322135925e-02
-9.343982674181461334e-03
7.688594609498977661e-02
3.883935883641242981e-02
8.309704065322875977e-02
8.340311050415039062e-02
6.690999865531921387e-02
-2.666915021836757660e-02
2.386383712291717529e-02
-2.784230560064315796e-02
5.498926714062690735e-02
4.782502725720405579e-02
-6.238790974020957947e-02
-5.673961713910102844e-02
-3.881146013736724854e-02
-6.237620487809181213e-02
3.153350902721285820e-03
1.176181249320507050e-02
3.310439363121986389e-02
-4.104490950703620911e-02
-4.594863206148147583e-02
7.825772464275360107e-02
-5.501255020499229431e-02
2.609279565513134003e-02
-1.032677665352821350e-01
4.584566503763198853e-02
-7.670974731445312500e-02
6.240220740437507629e-02
-6.482724100351333618e-02
-2.211021492257714272e-03
9.165303409099578857e-02
-6.353562325239181519e-02
-2.479802072048187256e-02
4.864663351327180862e-03
5.998375639319419861e-02
-2.390975318849086761e-02
6.439948827028274536e-02
1.565522328019142151e-02
-4.677565023303031921e-02
1.245792210102081299e-01
-4.695070907473564148e-03
4.764546453952789307e-02
9.132580459117889404e-02
5.088598653674125671e-02
-2.999546192586421967e-02
1.118511632084846497e-01
-2.652689442038536072e-02
4.989606514573097229e-02
-5.676777288317680359e-02
7.564998418092727661e-02
4.936486482620239258e-02
-1.570732332766056061e-02
-6.739132106304168701e-02
5.287872999906539917e-02
-5.861293990164995193e-03
1.936699077486991882e-02
-1.631453633308410645e-02
-3.992468863725662231e-02
1.149801313877105713e-01
1.598211005330085754e-02
9.980952739715576172e-02
6.031292304396629333e-02
8.573473989963531494e-02
-3.028919920325279236e-02
-9.034958481788635254e-02
8.684941381216049194e-02
-3.897577896714210510e-02
3.125029057264328003e-02
-1.968795433640480042e-02
-5.621293187141418457e-02
-8.481658995151519775e-02
-4.887160379439592361e-03
-1.006972715258598328e-01
-6.322802603244781494e-02
-3.424658998847007751e-02
-3.668038547039031982e-02
-7.928726077079772949e-02
5.356601998209953308e-02
1.108121201395988464e-01
-6.748616695404052734e-03
2.395762875676155090e-02
-2.313513681292533875e-02
-4.396295547485351562e-02
-2.986241690814495087e-02
-5.938520282506942749e-02
4.462452977895736694e-02
3.594279289245605469e-02
-9.648071229457855225e-02
-7.772146165370941162e-02
-3.820948302745819092e-02
-1.448815781623125076e-02
-5.146071314811706543e-02
-4.524446278810501099e-02
