7.407736033201217651e-03
-5.316690658219158649e-04
3.527109744027256966e-03
1.714758691377937794e-03
4.728870932012796402e-03
4.187797661870718002e-03
4.115771036595106125e-03
-2.822170208673924208e-04
-6.152212154120206833e-03
5.688412347808480263e-04
1.725845155306160450e-03
-6.382801104336977005e-03
2.363299252465367317e-03
8.181281387805938721e-03
-8.924206718802452087e-03
6.490006111562252045e-03
-1.152596785686910152e-03
-3.172713564708828926e-03
2.540510846301913261e-03
-1.162419677712023258e-03
-4.699358250945806503e-04
-1.277487841434776783e-03
1.333060092292726040e-03
7.006241939961910248e-03
4.308769945055246353e-03
-2.352038631215691566e-03
9.354284033179283142e-03
1.863462617620825768e-03
1.624039257876574993e-03
7.932539097964763641e-03
5.789343733340501785e-03
-4.768286307808011770e-04
-4.902133718132972717e-03
4.702413920313119888e-03
-5.908777937293052673e-03
-3.901588963344693184e-03
4.728269763290882111e-03
8.271526894532144070e-04
9.060932323336601257e-03
7.056166417896747589e-03
5.518204066902399063e-03
-2.713650465011596680e-03
-1.568939071148633957e-03
3.546483349055051804e-04
1.859552692621946335e-03
-1.106022391468286514e-03
-1.453025499358773232e-03
7.269001565873622894e-03
-5.809115828014910221e-04
7.015763316303491592e-03
8.724359795451164246e-03
9.064732119441032410e-03
2.670910209417343140e-03
-7.708456832915544510e-04
2.704585902392864227e-03
7.425007876008749008e-03
2.615289296954870224e-03
4.577389918267726898e-03
1.055695582181215286e-02
5.949551239609718323e-03
-1.857607625424861908e-03
6.275417283177375793e-03
-2.286605071276426315e-03
6.086360663175582886e-04
-2.849992597475647926e-03
5.580424796789884567e-03
-6.472090259194374084e-03
7.100649178028106689e-03
-1.514870789833366871e-03
8.144413586705923080e-04
7.853239367250353098e-05
-1.210966729559004307e-03
1.104686642065644264e-03
3.414974780753254890e-03
5.876440089195966721e-03
-7.027550600469112396e-04
-1.666875556111335754e-03
7.706883479841053486e-04
-5.710022058337926865e-03
3.636980429291725159e-03
-9.305814281105995178e-03
5.238679703325033188e-03
2.591063966974616051e-03
-1.740138279274106026e-03
-1.775148790329694748e-03
7.254763506352901459e-03
5.826388020068407059e-03
1.574726658873260021e-03
3.239615121856331825e-03
-9.170220582745969296e-04
8.628987707197666168e-04
-3.292552428320050240e-03
-2.829360018949955702e-04
-4.893460427410900593e-04
6.687328685075044632e-03
1.041794102638959885e-02
1.080707879737019539e-03
-6.270643789321184158e-03
-1.412248238921165466e-03
-7.337377872318029404e-03
4.729580832645297050e-04
7.357904687523841858e-03
5.111541599035263062e-03
4.399450961500406265e-03
2.235843567177653313e-03
1.371967257000505924e-03
7.594921160489320755e-03
3.828670596703886986e-03
-6.004968308843672276e-04
-4.773041873704642057e-04
1.046198699623346329e-02
1.058276649564504623e-02
2.974107395857572556e-03
2.334677556063979864e-04
6.913249380886554718e-03
2.034095814451575279e-03
-5.718877539038658142e-03
-2.130610868334770203e-03
5.943727213889360428e-03
2.660736907273530960e-03
2.675415948033332825e-03
-4.344389308243989944e-03
3.993498685304075480e-04
4.971583373844623566e-03
8.483246347168460488e-05
-2.031292999163269997e-03
8.798924274742603302e-03
-3.096080385148525238e-03
