-1.027510613203048706e-01
2.286507748067378998e-02
2.486719377338886261e-02
1.088782846927642822e-01
-8.900198154151439667e-03
9.852363169193267822e-02
-9.274689108133316040e-02
1.104125082492828369e-01
6.007650867104530334e-02
-6.906067486852407455e-03
9.589875489473342896e-02
-4.034554213285446167e-02
1.536670029163360596e-01
-2.081974409520626068e-02
-2.549221366643905640e-02
-1.034883037209510803e-01
9.835764765739440918e-02
2.254542522132396698e-02
8.892164379358291626e-02
6.096990779042243958e-02
-9.881521016359329224e-02
1.046148389577865601e-01
-5.450611934065818787e-02
4.064040258526802063e-02
-6.003633514046669006e-02
1.632106304168701172e-02
-4.692758992314338684e-02
1.419021487236022949e-01
-5.862146988511085510e-02
3.191508725285530090e-02
8.294606581330299377e-03
1.370000541210174561e-01
1.429737508296966553e-01
-1.457066237926483154e-01
-4.607900232076644897e-02
-3.061436489224433899e-02
1.224807575345039368e-01
-6.326942890882492065e-02
-4.901576787233352661e-02
8.834883570671081543e-02
-9.781900793313980103e-02
4.885252937674522400e-02
1.237297779880464077e-03
-2.520510926842689514e-02
6.555887311697006226e-02
1.206625998020172119e-01
9.685926884412765503e-02
-7.323178648948669434e-02
-6.017087772488594055e-02
1.250387132167816162e-01
9.676288813352584839e-02
1.114389523863792419e-01
8.596077561378479004e-02
4.379717260599136353e-02
6.225340440869331360e-02
-7.191066443920135498e-02
-3.229574114084243774e-02
-4.985382407903671265e-02
-2.827554568648338318e-02
1.061246693134307861e-01
-1.248571202158927917e-01
-2.328608557581901550e-02
2.697239443659782410e-02
1.115838810801506042e-01
5.693438928574323654e-03
-7.863791286945343018e-02
1.413603685796260834e-02
1.211271621286869049e-02
7.620628923177719116e-02
1.276996135711669922e-01
6.572193652391433716e-02
7.064535468816757202e-02
-1.542821973562240601e-01
1.578487753868103027e-01
-4.050591215491294861e-02
1.549939364194869995e-01
2.108249627053737640e-02
-3.042346611618995667e-02
-1.091336533427238464e-01
-5.884711816906929016e-02
-4.291031882166862488e-02
-4.264981951564550400e-03
1.537735387682914734e-02
1.271486468613147736e-02
-5.467613786458969116e-02
-2.197107486426830292e-02
5.335393548011779785e-02
-2.658030204474925995e-02
9.046189486980438232e-02
1.022713109850883484e-01
4.122941754758358002e-03
-2.962284348905086517e-02
1.151707023382186890e-01
4.513837769627571106e-02
1.159240156412124634e-01
1.090186834335327148e-01
-1.070284619927406311e-01
-2.525866776704788208e-02
-1.453572604805231094e-02
1.262922119349241257e-02
5.787915736436843872e-02
1.473845448344945908e-02
-3.964206948876380920e-02
-7.308159768581390381e-02
1.323824822902679443e-01
-5.020059645175933838e-02
7.912950217723846436e-02
-1.418474689126014709e-02
-1.415660791099071503e-02
4.987686872482299805e-02
1.481024324893951416e-01
3.181216865777969360e-02
5.005726218223571777e-02
5.551665276288986206e-02
-1.197847351431846619e-01
-3.532591834664344788e-02
7.007557898759841919e-02
-7.452794816344976425e-03
9.019841998815536499e-02
5.386046692728996277e-02
-1.141889542341232300e-01
8.552901446819305420e-02
1.848736107349395752e-01
1.265330761671066284e-01
-2.459688484668731689e-02
-7.118316367268562317e-03
-6.445144861936569214e-02
6.060492992401123047e-02
2.611277066171169281e-02
-1.213100273162126541e-02
-9.734606742858886719e-02
-8.728042244911193848e-02
-1.349157989025115967e-01
9.746152907609939575e-02
-3.653786610811948776e-03
-1.159576252102851868e-01
-9.995467215776443481e-02
-6.090959534049034119e-02
8.357419818639755249e-02
1.178683862090110779e-01
-5.869207531213760376e-02
-1.080976705998182297e-02
9.585206210613250732e-02
-1.013367772102355957e-01
-6.947080045938491821e-02
4.378676787018775940e-02
-6.742050498723983765e-02
8.092167228460311890e-02
-4.809090495109558105e-02
-6.988623738288879395e-02
4.519703239202499390e-02
-1.253469735383987427e-01
6.753260642290115356e-02
-1.270955950021743774e-01
1.104585244320333004e-03
1.098407208919525146e-01
-1.132599785923957825e-01
1.037648692727088928e-01
5.663874372839927673e-02
9.577574580907821655e-02
2.980404347181320190e-02
7.965431362390518188e-02
-1.315066814422607422e-01
-3.345308452844619751e-02
-2.330271340906620026e-02
-1.347799301147460938e-01
-1.128299161791801453e-01
-1.390663087368011475e-01
-1.045962870121002197e-01
9.270241856575012207e-02
2.752733044326305389e-02
1.385386474430561066e-02
-6.037779897451400757e-02
-9.597773104906082153e-02
9.079150855541229248e-03
-5.402239039540290833e-02
-9.613651782274246216e-02
-1.679375767707824707e-01
3.896268829703330994e-02
-3.863472864031791687e-02
6.246928498148918152e-02
-1.389343440532684326e-01
-1.591792888939380646e-02
-3.259331360459327698e-02
2.907869033515453339e-02
1.119223311543464661e-01
-1.754786260426044464e-02
-1.347534060478210449e-01
-7.146508246660232544e-02
6.897245347499847412e-02
7.355328649282455444e-02
-1.461353152990341187e-02
-1.921421475708484650e-02
-3.967490419745445251e-02
-3.717184811830520630e-02
4.852181300520896912e-02
6.355310231447219849e-02
-2.556796418502926826e-03
1.171254664659500122e-01
-4.623793810606002808e-02
-1.163601577281951904e-01
7.730801403522491455e-02
-3.633977100253105164e-02
-1.111976578831672668e-01
5.688000936061143875e-03
-5.939233675599098206e-02
8.558566123247146606e-02
-1.167238727211952209e-01
-9.210598468780517578e-02
1.496588736772537231e-01
-1.514740139245986938e-01
-1.003426592797040939e-02
-1.488899886608123779e-01
4.472796991467475891e-02
-4.754564538598060608e-02
-8.461103588342666626e-02
-1.759411394596099854e-01
7.792048156261444092e-02
-2.637675963342189789e-02
-1.210496062412858009e-03
-1.568529605865478516e-01
6.005480512976646423e-02
-1.312173716723918915e-02
-1.077339351177215576e-01
-1.413595229387283325e-01
-1.976290717720985413e-02
-1.588765829801559448e-01
3.479943424463272095e-02
-1.384378820657730103e-01
7.856787741184234619e-02
-1.078358292579650879e-01
-8.739959448575973511e-02
-2.356864325702190399e-02
-1.099105402827262878e-01
1.133903488516807556e-01
7.251123432070016861e-03
6.326630711555480957e-02
1.597295515239238739e-02
5.887947231531143188e-02
-5.894936621189117432e-02
-5.893345177173614502e-02
-2.910013310611248016e-02
-1.407803744077682495e-01
-1.401547044515609741e-01
8.683334290981292725e-02
-1.231469586491584778e-01
4.877860471606254578e-02
3.502229601144790649e-02
-7.987841963768005371e-02
6.822790205478668213e-02
2.851770445704460144e-02
-7.654289901256561279e-02
-2.497546188533306122e-02
7.234866172075271606e-02
-8.945611864328384399e-02
-2.473645843565464020e-02
5.359907168895006180e-03
-1.061753854155540466e-01
3.043674863874912262e-02
-8.635628968477249146e-02
-8.915989100933074951e-02
1.151889860630035400e-01
2.148744650185108185e-02
-1.012274995446205139e-01
3.392547741532325745e-02
-1.017863377928733826e-01
-6.627067178487777710e-02
9.879072755575180054e-02
-1.481934189796447754e-01
-5.950529873371124268e-02
-1.435089111328125000e-01
-1.363167073577642441e-02
-8.342493325471878052e-02
-7.167512178421020508e-02
7.643251866102218628e-02
1.163031980395317078e-01
4.444223642349243164e-02
-1.109659671783447266e-01
5.366410687565803528e-02
-8.627495914697647095e-02
5.623169615864753723e-02
-8.699825406074523926e-02
-8.283464610576629639e-02
-7.285713218152523041e-03
-1.065022572875022888e-01
-1.049726903438568115e-01
-6.371861696243286133e-02
1.054823547601699829e-01
-4.968545213341712952e-02
5.625309050083160400e-02
-9.814212471246719360e-02
2.360793948173522949e-02
8.549413084983825684e-02
-3.222903236746788025e-02
-7.417085114866495132e-03
-8.800246566534042358e-02
4.775502160191535950e-02
3.277728334069252014e-02
-9.743128716945648193e-02
-1.251636147499084473e-01
-4.232577607035636902e-02
-9.997258335351943970e-02
-1.537811290472745895e-02
1.595632173120975494e-02
-5.223787575960159302e-02
-1.766564995050430298e-01
-1.859016902744770050e-02
-6.372696161270141602e-02
-1.091531664133071899e-01
3.561018267646431923e-03
-9.564582258462905884e-02
-1.111607998609542847e-01
6.581395864486694336e-02
-3.019148297607898712e-02
3.388746827840805054e-02
-1.033357232809066772e-01
-2.103519439697265625e-02
8.208271116018295288e-03
-1.430951505899429321e-01
-1.882504224777221680e-01
-1.438635885715484619e-01
-3.063199855387210846e-02
-1.388041228055953979e-01
-4.549564793705940247e-02
-7.299144566059112549e-02
8.438573777675628662e-02
-1.322053819894790649e-01
-8.216670714318752289e-03
-5.291022732853889465e-02
1.252724826335906982e-01
-1.143927350640296936e-01
8.705584704875946045e-02
3.177931904792785645e-02
-8.197519183158874512e-02
7.634409517049789429e-02
-2.233127318322658539e-02
-9.305243939161300659e-02
3.649942949414253235e-02
-1.587355285882949829e-01
-3.760783746838569641e-02
-1.372762918472290039e-01
-3.064481168985366821e-02
3.037875704467296600e-02
8.225208520889282227e-02
6.526358891278505325e-03
-1.309915035963058472e-01
-1.386453658342361450e-01
-4.489180818200111389e-02
-3.961146250367164612e-02
-3.457015752792358398e-02
-1.029375046491622925e-01
-7.567515969276428223e-02
-1.127921640872955322e-01
6.221559643745422363e-02
-7.035849243402481079e-02
2.580433711409568787e-02
-2.519262582063674927e-02
-9.153845906257629395e-02
1.202399879693984985e-01
-1.076294854283332825e-01
-1.481407787650823593e-02
1.276652663946151733e-01
-1.746342703700065613e-02
-6.512545794248580933e-02
2.307201921939849854e-02
9.551764279603958130e-02
-5.332367494702339172e-02
-3.687791898846626282e-02
6.084651127457618713e-02
-4.821778088808059692e-02
7.885352522134780884e-02
4.700251668691635132e-02
-6.888863444328308105e-02
-7.909007370471954346e-03
-7.595644891262054443e-02
1.479795128107070923e-01
3.916523978114128113e-02
2.763905562460422516e-02
-8.045261353254318237e-02
-1.409786986187100410e-03
1.208696290850639343e-01
4.359805583953857422e-02
-1.885391920804977417e-01
-6.819657236337661743e-02
8.474349975585937500e-02
1.988705946132540703e-03
-2.346635330468416214e-03
-1.181281059980392456e-01
8.950953185558319092e-02
-1.472317576408386230e-01
3.251882642507553101e-02
9.269572049379348755e-02
6.004462018609046936e-02
-4.739119485020637512e-02
-8.148306608200073242e-02
-1.273726522922515869e-01
-7.285767048597335815e-02
-1.181600242853164673e-01
-1.258968561887741089e-01
6.359507143497467041e-02
-2.980507723987102509e-02
-1.012455299496650696e-01
-1.842681132256984711e-02
5.537133663892745972e-02
-1.063779890537261963e-01
1.199613437056541443e-01
-8.721542358398437500e-02
-2.863544039428234100e-02
1.131922006607055664e-01
9.969356656074523926e-02
1.013858690857887268e-01
-1.069355681538581848e-01
9.918162226676940918e-02
1.020030304789543152e-01
-1.766079068183898926e-01
-7.349352817982435226e-04
-3.234803676605224609e-02
2.753385156393051147e-02
-1.033517643809318542e-01
-4.899209365248680115e-02
2.814479544758796692e-02
-1.056711524724960327e-01
6.905310600996017456e-02
1.551544852554798126e-02
5.701696872711181641e-02
-9.606484323740005493e-02
1.921410672366619110e-02
-7.524846494197845459e-02
6.707542575895786285e-03
-2.876986749470233917e-02
-6.271402537822723389e-02
-4.217015579342842102e-02
-3.280479088425636292e-02
2.925259992480278015e-02
5.308519117534160614e-03
-9.250600636005401611e-02
2.287714183330535889e-02
-7.063940912485122681e-02
-5.830214917659759521e-02
-7.535655796527862549e-02
1.500083878636360168e-02
-7.525803148746490479e-02
8.977887779474258423e-02
-5.455737933516502380e-02
-7.184481620788574219e-02
2.253820188343524933e-02
-4.706808179616928101e-02
3.892805054783821106e-02
-1.284613013267517090e-01
-2.668883837759494781e-02
-1.367951184511184692e-01
8.320632576942443848e-02
5.215918645262718201e-02
-6.560811400413513184e-02
1.023507863283157349e-02
-1.564212441444396973e-01
-4.901317879557609558e-03
-1.006939783692359924e-01
-4.391370713710784912e-02
7.859972864389419556e-02
1.868948899209499359e-02
-6.601833552122116089e-02
-1.034554541110992432e-01
7.044416666030883789e-02
-4.432602971792221069e-02
1.244469173252582550e-02
-4.010803252458572388e-02
6.482285261154174805e-02
-2.294227294623851776e-02
-1.290322095155715942e-01
4.298954457044601440e-02
-3.660070151090621948e-02
-5.696275830268859863e-02
6.500630825757980347e-02
-1.143315732479095459e-01
4.807587340474128723e-02
3.386318311095237732e-02
7.700242847204208374e-02
1.732814162969589233e-01
6.471463292837142944e-02
-1.279890686273574829e-01
-7.670891284942626953e-02
6.731898337602615356e-02
-8.442331850528717041e-02
-9.931336343288421631e-02
6.021113693714141846e-02
-1.171738132834434509e-01
-1.235190480947494507e-01
2.622453495860099792e-02
8.813570439815521240e-02
5.469952523708343506e-02
-8.430525660514831543e-02
-7.127056270837783813e-02
-2.902420423924922943e-02
-6.590555608272552490e-02
5.210851132869720459e-02
3.920422121882438660e-02
-9.528984874486923218e-02
3.797401441261172295e-03
-2.445675618946552277e-02
6.274937093257904053e-02
9.463119506835937500e-02
-4.675434529781341553e-02
-9.141223132610321045e-02
6.793052889406681061e-03
-3.116874210536479950e-02
1.180115267634391785e-01
-1.598154455423355103e-01
5.179028585553169250e-02
-1.743629202246665955e-02
1.650409214198589325e-02
2.793501317501068115e-02
9.438250213861465454e-02
9.856816381216049194e-02
7.907246053218841553e-02
1.553920656442642212e-02
-5.665618460625410080e-03
-9.594268351793289185e-02
5.184237658977508545e-02
4.276315495371818542e-02
-1.003924384713172913e-01
-5.281228944659233093e-02
7.826981693506240845e-02
-2.274106070399284363e-02
7.037154585123062134e-02
-8.436582237482070923e-02
2.454649843275547028e-02
3.633417189121246338e-02
-1.170714199542999268e-01
-1.281823813915252686e-01
-7.970661669969558716e-02
1.011774986982345581e-01
1.326886266469955444e-01
-4.860188066959381104e-02
-2.894495555665344000e-04
-1.160591468214988708e-02
-1.431753039360046387e-01
3.777587786316871643e-02
9.681367874145507812e-02
1.320885121822357178e-01
-1.827945709228515625e-01
-8.779783546924591064e-02
-2.110879868268966675e-02
-1.684255748987197876e-01
2.312119863927364349e-02
1.120882481336593628e-02
-6.813394278287887573e-02
-7.601425796747207642e-02
8.742868155241012573e-02
8.397486805915832520e-02
5.558954551815986633e-02
1.394056744175031781e-04
-1.872798800468444824e-01
7.071555405855178833e-02
7.194618880748748779e-02
5.413343384861946106e-02
-1.521835476160049438e-01
7.672594487667083740e-02
1.046986728906631470e-01
7.492472976446151733e-02
1.502661872655153275e-02
-1.904035918414592743e-02
5.751699954271316528e-02
9.282216429710388184e-03
1.189639642834663391e-01
-1.408574450761079788e-02
-7.258338481187820435e-02
-3.323082253336906433e-02
6.603953242301940918e-02
4.091412201523780823e-02
-2.690722420811653137e-02
-9.609997272491455078e-02
-1.030289456248283386e-01
-1.197698935866355896e-01
4.836473986506462097e-02
6.574433296918869019e-02
-3.298552334308624268e-02
4.988148063421249390e-02
-5.677242577075958252e-02
-1.637414991855621338e-01
9.834469109773635864e-02
-4.649902135133743286e-02
6.837533414363861084e-02
-1.483032107353210449e-02
-1.347059607505798340e-01
-1.564959287643432617e-01
5.576849356293678284e-02
-1.153225153684616089e-01
-2.022632583975791931e-02
2.402850426733493805e-02
5.893803015351295471e-02
-1.919858343899250031e-02
1.073334589600563049e-01
-6.026105582714080811e-02
4.111227020621299744e-02
-5.685920640826225281e-02
-7.357504218816757202e-02
-1.339272968471050262e-02
-8.662124723196029663e-02
1.211842149496078491e-01
-5.739992111921310425e-02
4.076628014445304871e-03
7.665949314832687378e-02
-9.520728141069412231e-03
1.386521733365952969e-03
2.089384756982326508e-02
2.762624621391296387e-02
-1.052324324846267700e-01
-1.633580476045608521e-01
-1.156748011708259583e-01
-9.785223752260208130e-02
6.313011050224304199e-03
1.105936989188194275e-01
-3.809013590216636658e-02
-4.000705480575561523e-02
-4.178678989410400391e-02
4.165573790669441223e-02
2.365807257592678070e-02
-1.737600937485694885e-02
-7.912485301494598389e-02
-1.386846508830785751e-02
5.531952530145645142e-02
5.261132121086120605e-02
1.531816460192203522e-02
1.698186621069908142e-02
-1.566816717386245728e-01
-9.168397635221481323e-03
-2.518963068723678589e-03
7.587537169456481934e-02
-8.422887325286865234e-02
4.691134020686149597e-02
-1.396850198507308960e-01
9.856072813272476196e-02
8.437351137399673462e-02
-1.242883875966072083e-02
2.955440618097782135e-02
3.740491811186075211e-03
-1.689767278730869293e-02
1.631307452917098999e-01
-5.793010815978050232e-02
-3.366903215646743774e-02
-8.275481313467025757e-02
-1.611370891332626343e-01
-1.078310608863830566e-01
3.540581464767456055e-02
-3.792208433151245117e-02
8.102409541606903076e-03
-7.234946638345718384e-02
-3.791327029466629028e-02
5.412087589502334595e-02
-1.093849465250968933e-01
7.583614438772201538e-02
9.173279255628585815e-02
5.137873068451881409e-02
4.536918550729751587e-02
1.019120886921882629e-01
2.449018694460391998e-02
1.212193593382835388e-01
-1.107557564973831177e-01
7.268390804529190063e-02
-1.251616328954696655e-01
-7.042694091796875000e-02
-8.451373130083084106e-02
6.239544600248336792e-02
5.273759365081787109e-02
1.167107298970222473e-01
4.917924851179122925e-02
-6.304895132780075073e-02
-1.265252232551574707e-01
-6.121847778558731079e-02
5.046382173895835876e-02
-1.454478222876787186e-02
2.668561041355133057e-02
1.124082356691360474e-01
6.488920748233795166e-02
8.577564358711242676e-02
-1.390759944915771484e-01
-3.743577282875776291e-03
3.956768661737442017e-02
-3.024445101618766785e-02
7.820825278759002686e-02
-6.901921331882476807e-02
5.741517618298530579e-02
1.376129686832427979e-01
8.546445518732070923e-02
-1.356787681579589844e-01
8.613421767950057983e-02
9.441672265529632568e-02
7.915519922971725464e-02
8.270563185214996338e-02
-1.719296537339687347e-02
8.650815486907958984e-02
1.547365337610244751e-01
-9.671390056610107422e-02
-5.584074184298515320e-02
1.020821556448936462e-01
-1.415393035858869553e-02
-3.895958140492439270e-02
9.590829908847808838e-02
-1.096941828727722168e-01
1.066486984491348267e-01
-3.557784855365753174e-02
1.708864234387874603e-02
8.528484404087066650e-02
-1.184051185846328735e-01
-7.190122734755277634e-03
1.022746041417121887e-01
1.385902166366577148e-01
8.482035994529724121e-02
-7.466223090887069702e-02
-1.307590901851654053e-01
4.857759177684783936e-02
-9.693218767642974854e-02
7.541754096746444702e-02
7.592980563640594482e-02
-1.275740414857864380e-01
-9.860287606716156006e-02
-2.826827019453048706e-02
6.805436313152313232e-02
-1.235811114311218262e-01
-1.491913348436355591e-01
-8.591567724943161011e-02
5.433606356382369995e-02
3.566989675164222717e-02
6.964285671710968018e-02
2.425268851220607758e-02
-1.058863550424575806e-01
-5.614940449595451355e-02
-4.165956750512123108e-02
-8.036385476589202881e-02
-1.237098574638366699e-01
6.596247106790542603e-02
-3.347100317478179932e-02
-1.063306853175163269e-01
-1.295689493417739868e-01
1.282511930912733078e-02
7.833637297153472900e-02
5.620447173714637756e-02
9.634535759687423706e-02
2.311012148857116699e-02
6.027374044060707092e-02
-5.873285979032516479e-02
-2.258640900254249573e-02
7.340351492166519165e-02
6.408705562353134155e-02
-2.108884276822209358e-03
8.156459778547286987e-03
5.480321869254112244e-02
-7.225637137889862061e-02
-1.378190238028764725e-03
-2.806318551301956177e-02
8.529934287071228027e-02
7.571115344762802124e-02
-6.798706203699111938e-02
1.022775694727897644e-01
-1.088502481579780579e-01
-5.142461508512496948e-02
2.175557985901832581e-02
-7.978038489818572998e-02
-3.582171723246574402e-02
1.053522601723670959e-01
-1.172167286276817322e-01
2.182666771113872528e-02
1.412341892719268799e-01
8.294975012540817261e-02
-9.764487855136394501e-03
8.779519051313400269e-02
1.284538954496383667e-01
2.047252096235752106e-02
-4.047050699591636658e-02
8.098032325506210327e-02
1.023709326982498169e-01
-3.098254278302192688e-02
-6.668408215045928955e-02
-6.751452386379241943e-02
-2.191440761089324951e-02
1.038096398115158081e-01
-1.238213703036308289e-01
1.096100658178329468e-01
-8.464561402797698975e-02
-3.060049749910831451e-02
7.783266156911849976e-02
2.715151384472846985e-02
8.499983698129653931e-02
4.393946006894111633e-02
-2.601373568177223206e-02
-1.080918498337268829e-02
4.403663799166679382e-02
2.269969321787357330e-02
2.565138973295688629e-02
1.287621408700942993e-01
5.260314792394638062e-02
8.015671744942665100e-03
-9.724249690771102905e-02
1.141735166311264038e-01
7.435441762208938599e-02
-5.543319508433341980e-02
-1.431227326393127441e-01
1.174027216620743275e-03
-1.188739538192749023e-01
-5.781829729676246643e-02
-1.273079663515090942e-01
-9.138520061969757080e-02
1.042678430676460266e-01
-1.017435193061828613e-01
5.242152139544487000e-02
-2.630406059324741364e-02
7.370882481336593628e-02
-1.275294423103332520e-01
-3.170153498649597168e-02
-1.332738697528839111e-01
1.317445747554302216e-02
-5.769107118248939514e-02
-4.399520531296730042e-02
4.227889701724052429e-02
-6.434427201747894287e-02
7.907687686383724213e-03
-1.181430518627166748e-01
7.605001330375671387e-02
9.931142441928386688e-03
1.072182320058345795e-02
7.628982514142990112e-02
-1.308809667825698853e-01
-6.427096575498580933e-02
-5.257933586835861206e-02
1.009946912527084351e-01
-1.335984170436859131e-01
-1.397528797388076782e-01
4.542599990963935852e-02
-5.817378987558186054e-04
-1.133238151669502258e-01
-7.360612601041793823e-02
6.379870325326919556e-02
8.929687738418579102e-02
9.842350333929061890e-02
1.155571714043617249e-01
-5.134672299027442932e-02
2.685672603547573090e-02
-3.514420706778764725e-03
9.218979626893997192e-02
-1.330189704895019531e-01
1.233374401926994324e-01
4.346010461449623108e-02
-1.213073283433914185e-01
-6.247002258896827698e-02
-3.804732486605644226e-02
5.804506689310073853e-02
-1.276445575058460236e-02
4.678165912628173828e-02
-1.135370507836341858e-01
-5.993808060884475708e-02
-8.558787405490875244e-02
-1.320663243532180786e-01
7.923670113086700439e-02
3.361011296510696411e-02
1.371746808290481567e-01
1.142633408308029175e-01
1.704371571540832520e-01
3.858421370387077332e-02
7.007927168160676956e-03
-7.356882095336914062e-02
-7.801996171474456787e-02
5.133446305990219116e-02
-7.862009108066558838e-02
5.405491217970848083e-02
-4.684782400727272034e-02
-5.567318946123123169e-02
7.380556315183639526e-02
-1.245824247598648071e-02
5.356221646070480347e-02
-9.809515625238418579e-02
7.698805071413516998e-03
5.676322057843208313e-02
5.767358094453811646e-02
6.522488594055175781e-02
7.804998010396957397e-02
-7.452656328678131104e-02
-5.347576737403869629e-02
1.084059923887252808e-01
-1.183343678712844849e-02
5.340087786316871643e-02
-3.497428447008132935e-02
6.200498342514038086e-02
9.441481530666351318e-02
-1.709921658039093018e-02
1.073488891124725342e-01
1.159032732248306274e-01
1.288113892078399658e-01
1.256431788206100464e-01
-1.102599352598190308e-01
1.243681907653808594e-01
1.169650182127952576e-01
-8.306517265737056732e-03
7.714815437793731689e-02
1.251377165317535400e-01
-8.651592582464218140e-02
-1.081451848149299622e-01
-2.833271957933902740e-02
-1.148879006505012512e-01
-1.004114747047424316e-01
-2.186897210776805878e-03
7.410909980535507202e-02
4.923997819423675537e-02
-1.290348023176193237e-01
8.544657379388809204e-02
1.345620900392532349e-01
8.564709126949310303e-02
1.026229634881019592e-01
5.414938926696777344e-02
-1.424294859170913696e-01
4.861832782626152039e-02
4.334928095340728760e-02
4.807842522859573364e-02
-1.224636808037757874e-01
-1.499928683042526245e-01
-8.668886870145797729e-02
-8.878774195909500122e-02
-8.477987349033355713e-02
-1.254814490675926208e-02
-1.077048480510711670e-01
-7.545224856585264206e-03
2.387856133282184601e-02
4.595213755965232849e-02
-7.856331765651702881e-03
-7.537999190390110016e-03
8.094873279333114624e-02
4.325437173247337341e-02
-6.708453595638275146e-02
1.244182046502828598e-02
-1.070264913141727448e-02
3.060526447370648384e-03
-1.128750070929527283e-01
-1.728770323097705841e-02
-1.923306728713214397e-03
-6.155265867710113525e-02
-6.951729953289031982e-02
2.774525061249732971e-02
-6.523187458515167236e-02
-1.243269741535186768e-01
5.927381664514541626e-02
-6.165705248713493347e-02
3.978181257843971252e-02
1.215098798274993896e-01
-3.319288790225982666e-02
8.257605880498886108e-02
5.619413778185844421e-02
6.012617424130439758e-02
-4.740516841411590576e-02
9.515025466680526733e-02
-8.231758326292037964e-02
-1.342508941888809204e-01
9.842266142368316650e-02
-8.186044543981552124e-02
-1.053440570831298828e-01
5.602509528398513794e-02
6.660104542970657349e-02
-1.124619245529174805e-01
-3.718747198581695557e-02
-1.152651757001876831e-01
-7.188714295625686646e-02
-8.280082046985626221e-02
-6.430437415838241577e-02
-9.435836970806121826e-02
8.966310322284698486e-02
-9.711702587082982063e-04
-1.372315436601638794e-01
-1.075028702616691589e-01
-1.011577323079109192e-01
-5.424604192376136780e-02
5.094834417104721069e-02
-8.603946864604949951e-02
-9.814140200614929199e-02
-3.179852664470672607e-02
-1.586465835571289062e-01
-9.101284295320510864e-02
-1.130740642547607422e-01
-1.093419417738914490e-01
-8.574174344539642334e-02
-8.745610713958740234e-02
-3.953867405652999878e-02
-3.045139089226722717e-02
9.857225418090820312e-02
3.179609403014183044e-02
9.208621084690093994e-02
1.096762940287590027e-01
-1.172654256224632263e-01
-6.408079713582992554e-02
-1.060731057077646255e-02
3.845661133527755737e-02
-1.205302774906158447e-01
8.844825625419616699e-02
-1.175052821636199951e-01
-7.431634515523910522e-02
1.691272668540477753e-02
6.701551377773284912e-02
-8.615915477275848389e-02
-8.817289024591445923e-02
-1.048516258597373962e-01
2.120211161673069000e-02
1.157278195023536682e-01
-5.348177254199981689e-02
1.576382853090763092e-02
3.925346583127975464e-02
3.340012952685356140e-02
3.331651166081428528e-02
-4.419437423348426819e-02
2.235806919634342194e-02
5.984048172831535339e-02
2.819964662194252014e-02
-2.425553277134895325e-02
-8.354298025369644165e-02
-7.672622799873352051e-02
-1.270686239004135132e-01
1.049035340547561646e-01
4.616389051079750061e-02
8.211828023195266724e-02
-1.114672496914863586e-01
-1.929896324872970581e-02
-1.936925761401653290e-02
3.558516502380371094e-03
-3.309050574898719788e-02
-1.073506996035575867e-01
3.254950419068336487e-02
5.337586998939514160e-02
-1.165460497140884399e-01
-1.011450681835412979e-02
-1.428398210555315018e-02
1.717963255941867828e-02
-1.365311164408922195e-02
-7.266298681497573853e-02
-4.665519669651985168e-02
5.383081361651420593e-02
-1.135542914271354675e-01
-4.622799903154373169e-02
2.119206078350543976e-02
9.365250356495380402e-03
-1.161978319287300110e-01
9.821010380983352661e-02
4.112291336059570312e-02
-1.323305815458297729e-01
5.821089446544647217e-02
-8.304503746330738068e-03
4.048099741339683533e-02
6.481201853603124619e-03
1.150374412536621094e-01
-2.883334085345268250e-02
-1.278968453407287598e-01
-7.679951190948486328e-02
-1.328610330820083618e-01
-4.501726105809211731e-02
7.342619448900222778e-02
7.394466549158096313e-02
4.141546413302421570e-02
1.460551004856824875e-02
1.889445260167121887e-02
6.764138489961624146e-02
-1.669340394437313080e-02
5.643882229924201965e-02
-2.569092623889446259e-02
3.861387446522712708e-02
-9.577170759439468384e-02
7.059134542942047119e-02
-7.257342338562011719e-02
4.264808446168899536e-02
4.035397991538047791e-02
-4.598981142044067383e-02
8.977700024843215942e-02
-1.537336409091949463e-01
-1.026887446641921997e-01
6.027457863092422485e-02
-1.468401104211807251e-01
-9.451174736022949219e-02
-1.063502859324216843e-02
2.121518552303314209e-02
-1.494215279817581177e-01
-1.460029780864715576e-01
-1.646934598684310913e-01
-1.564004458487033844e-02
1.672697439789772034e-02
-1.686056852340698242e-01
9.148961864411830902e-03
1.056299060583114624e-01
-5.355274677276611328e-02
-3.397412225604057312e-02
-8.119923621416091919e-02
-5.951966345310211182e-02
4.921640455722808838e-02
-8.622051775455474854e-02
1.022600084543228149e-01
-1.317819356918334961e-01
-2.276699617505073547e-02
-6.005254015326499939e-02
-1.244480088353157043e-01
7.462536543607711792e-02
-6.660380959510803223e-02
-5.151265859603881836e-02
3.341777622699737549e-02
6.067178398370742798e-02
1.125108599662780762e-01
-1.474097371101379395e-02
3.197271749377250671e-02
6.177710369229316711e-02
-1.404779702425003052e-01
-3.920711949467658997e-02
7.210507988929748535e-02
2.705960720777511597e-02
-5.596698448061943054e-02
-2.600202150642871857e-02
-3.767915070056915283e-02
5.921198427677154541e-02
9.681615978479385376e-02
-3.423789516091346741e-02
-1.155965551733970642e-01
-9.211698174476623535e-02
4.421357437968254089e-02
6.576399505138397217e-02
1.002012863755226135e-01
7.029882818460464478e-02
-7.717794179916381836e-02
-3.927535377442836761e-03
8.915364742279052734e-02
4.526288062334060669e-02
1.178844049572944641e-01
7.823645323514938354e-02
-1.438612639904022217e-01
7.388087362051010132e-02
-2.077278867363929749e-02
-1.245088279247283936e-01
-1.155616417527198792e-01
-1.101252734661102295e-01
3.939507529139518738e-02
-1.498466432094573975e-01
-1.060512736439704895e-01
4.993654042482376099e-02
-1.227327734231948853e-01
-1.322376076132059097e-02
-5.628604441881179810e-02
6.824538111686706543e-02
-3.947646543383598328e-02
-3.377434983849525452e-02
-1.244884878396987915e-01
-1.080885380506515503e-01
4.032386932522058487e-04
7.708731293678283691e-02
3.835633397102355957e-02
-8.331796526908874512e-02
-1.720258221030235291e-02
-2.353492565453052521e-02
1.590101793408393860e-02
6.133412197232246399e-02
-4.278795793652534485e-02
-3.701067063957452774e-03
-7.563199102878570557e-02
-3.471168130636215210e-02
5.918831378221511841e-02
-1.276153475046157837e-01
-6.299994885921478271e-02
-8.947584778070449829e-02
1.418338119983673096e-01
-5.967921018600463867e-02
7.241892069578170776e-02
3.586733341217041016e-02
-5.309845507144927979e-02
5.728255584836006165e-02
-1.454195678234100342e-01
8.187729865312576294e-02
-8.946527540683746338e-02
5.760216712951660156e-02
1.704521849751472473e-02
1.051361784338951111e-01
-4.047285765409469604e-02
6.879565864801406860e-02
6.547827273607254028e-02
1.734917983412742615e-02
-1.201896592974662781e-01
8.559007197618484497e-02
-6.387516111135482788e-02
-7.025978062301874161e-03
1.202425435185432434e-01
-7.185085117816925049e-02
9.480187669396400452e-03
6.564185768365859985e-02
-1.452207416296005249e-01
5.473669990897178650e-02
-1.567915827035903931e-01
-8.869057148694992065e-02
-2.634436823427677155e-02
-1.378925442695617676e-01
-8.160435408353805542e-02
-1.062343716621398926e-01
1.191212013363838196e-01
2.454851940274238586e-02
-9.948731213808059692e-02
3.342078626155853271e-02
5.283069796860218048e-03
1.439421474933624268e-01
-5.327519401907920837e-02
-1.725518889725208282e-02
-7.664796430617570877e-04
-8.126094937324523926e-02
4.009427875280380249e-02
3.667041659355163574e-02
-9.926492720842361450e-02
4.656561464071273804e-02
-1.057786270976066589e-01
-4.672740399837493896e-02
9.381558001041412354e-02
1.618838682770729065e-02
6.139872968196868896e-02
-1.468091011047363281e-01
-1.139753162860870361e-01
-1.345939468592405319e-02
-6.043201684951782227e-02
-1.215188652276992798e-01
-4.437918961048126221e-02
-7.611934095621109009e-02
-9.322643280029296875e-02
2.489398978650569916e-02
3.350757993757724762e-03
5.547053366899490356e-02
6.685679405927658081e-02
-4.620800912380218506e-02
7.803896069526672363e-02
-3.962140530347824097e-02
5.354421213269233704e-02
9.282279759645462036e-03
-9.648025780916213989e-02
5.150019377470016479e-02
-1.225137338042259216e-01
-8.987414091825485229e-02
7.870787382125854492e-02
3.860069066286087036e-02
8.772053569555282593e-02
4.625799134373664856e-02
-6.427623331546783447e-02
7.492311298847198486e-02
1.179251633584499359e-02
9.420389682054519653e-02
9.639159590005874634e-02
-3.534223139286041260e-02
9.941065311431884766e-02
-8.821754902601242065e-02
-1.561253145337104797e-02
-1.345630884170532227e-01
1.012881919741630554e-01
-3.982882201671600342e-02
1.031645610928535461e-01
-2.903770888224244118e-03
-2.956994809210300446e-02
9.238632023334503174e-02
-1.558518409729003906e-01
-3.688609600067138672e-02
-4.605655558407306671e-03
5.081218853592872620e-02
-5.726576969027519226e-02
1.091108843684196472e-01
-9.763833880424499512e-02
-6.369601190090179443e-02
1.005839258432388306e-01
1.335665434598922729e-01
1.046926155686378479e-01
-6.564890593290328979e-02
8.324667811393737793e-02
1.080305427312850952e-01
-4.978568106889724731e-02
6.139909848570823669e-02
-5.151125416159629822e-02
-3.413736447691917419e-02
8.355109393596649170e-02
7.333739195019006729e-03
1.732132514007389545e-03
1.681851409375667572e-02
9.434770792722702026e-02
5.386992916464805603e-02
9.674777090549468994e-02
-1.301423907279968262e-01
2.450103312730789185e-02
-3.384452313184738159e-02
1.304675936698913574e-01
-6.304357945919036865e-02
2.018993347883224487e-02
8.385682478547096252e-03
-5.772845447063446045e-02
-9.365186840295791626e-02
-9.668456390500068665e-03
-4.711288586258888245e-02
-5.707808211445808411e-02
-4.287707060575485229e-02
-3.285097191110253334e-03
9.474104270339012146e-03
7.024092227220535278e-02
3.017766401171684265e-02
-6.054396554827690125e-02
-1.778623014688491821e-01
-1.046517267823219299e-01
-6.297188252210617065e-02
6.805041432380676270e-02
2.586481161415576935e-02
-1.494641005992889404e-01
9.739249944686889648e-02
-1.162683442234992981e-01
-5.421235412359237671e-02
-4.593671113252639771e-02
8.533398061990737915e-02
-8.486853539943695068e-02
-1.195109412074089050e-01
1.928742229938507080e-02
2.917080931365489960e-02
1.522852629423141479e-01
-3.503084927797317505e-02
2.300524152815341949e-02
-1.955850273370742798e-01
-9.925090521574020386e-02
-1.092689260840415955e-01
9.407028555870056152e-02
-3.137442097067832947e-02
-1.518717259168624878e-01
4.645388945937156677e-02
1.338457465171813965e-01
-7.802902162075042725e-02
4.840675368905067444e-02
-3.653968870639801025e-02
-1.532358210533857346e-02
9.743528068065643311e-02
2.424173615872859955e-02
7.074136286973953247e-02
-8.825544267892837524e-02
3.629887104034423828e-02
-1.223151236772537231e-01
1.349089145660400391e-01
6.843552738428115845e-02
9.981877356767654419e-02
9.216235578060150146e-02
-8.267010748386383057e-02
1.019717454910278320e-01
-7.458040863275527954e-02
4.894697666168212891e-02
-1.100349873304367065e-01
5.881639569997787476e-02
-5.475352704524993896e-02
-1.472946256399154663e-01
1.349172461777925491e-02
-1.480180583894252777e-02
-1.218022033572196960e-02
-1.042492166161537170e-01
-1.543999165296554565e-01
4.471375420689582825e-02
-4.089101683348417282e-03
-1.674037575721740723e-01
-1.222940906882286072e-01
-1.056474819779396057e-01
8.082133531570434570e-02
-6.396853923797607422e-02
-1.626090556383132935e-01
-5.945168435573577881e-02
-4.905455186963081360e-02
8.549508452415466309e-02
3.865264728665351868e-02
4.802184924483299255e-02
3.252252191305160522e-02
9.299629926681518555e-02
-1.627549380064010620e-01
1.076966077089309692e-01
4.557186737656593323e-02
8.045048266649246216e-02
-1.319520473480224609e-01
6.380318850278854370e-02
-8.612648397684097290e-02
-1.038745120167732239e-01
-1.136282086372375488e-01
-1.249834615737199783e-02
7.985202968120574951e-02
2.473246678709983826e-02
5.108779668807983398e-02
-1.110093295574188232e-01
-1.194202676415443420e-01
-7.481025904417037964e-02
-1.174535900354385376e-01
4.055079072713851929e-02
-1.318814605474472046e-01
-9.551332332193851471e-03
4.017303138971328735e-02
-3.496920317411422729e-02
-8.484032750129699707e-02
5.689816549420356750e-02
6.581377238035202026e-02
-1.605100184679031372e-01
1.743031293153762817e-02
-7.654491811990737915e-02
-1.182554215192794800e-01
2.066086046397686005e-03
-9.666042774915695190e-02
-6.338171660900115967e-02
-1.252029538154602051e-01
2.206592820584774017e-03
-9.477049857378005981e-02
3.506043180823326111e-02
3.802699223160743713e-02
5.408463254570960999e-02
-2.101129852235317230e-02
-1.058749333024024963e-01
5.964088812470436096e-02
8.811626583337783813e-02
-1.176947057247161865e-01
9.514950215816497803e-02
8.165386319160461426e-02
2.898300066590309143e-02
-4.120645672082901001e-02
5.562000349164009094e-02
-1.064352095127105713e-01
-1.057450696825981140e-01
-1.161769330501556396e-01
-1.730509251356124878e-01
-2.903249301016330719e-02
1.017471849918365479e-01
4.830908775329589844e-02
-4.280697181820869446e-02
-1.019711941480636597e-01
1.748126745223999023e-02
-4.532629624009132385e-02
2.524636872112751007e-02
1.793570071458816528e-02
9.353552013635635376e-02
4.174221679568290710e-02
1.997560821473598480e-02
4.227741435170173645e-02
4.261754918843507767e-03
1.239545345306396484e-01
7.759719341993331909e-02
-2.762903086841106415e-02
-4.271120578050613403e-02
-1.444337069988250732e-01
-6.806784775108098984e-03
-1.720280796289443970e-01
-5.442927032709121704e-02
-9.770101308822631836e-02
-1.147347390651702881e-01
-3.023503907024860382e-02
-1.291413605213165283e-01
3.850401192903518677e-02
4.429514706134796143e-02
-1.340286284685134888e-01
-1.708473414182662964e-01
-4.297710210084915161e-02
6.690342724323272705e-02
6.868175417184829712e-02
1.154013574123382568e-01
1.570028811693191528e-02
-9.922160953283309937e-02
-6.403072178363800049e-02
-6.393181532621383667e-02
-1.435810979455709457e-02
3.771938383579254150e-02
4.827849101275205612e-03
8.993962407112121582e-02
-2.902067080140113831e-02
3.462631627917289734e-02
-6.492211669683456421e-02
-1.655384153127670288e-01
-8.262920379638671875e-02
1.464411709457635880e-02
-1.014455482363700867e-01
-1.171575188636779785e-01
-1.867437921464443207e-02
-9.941484034061431885e-02
1.348480954766273499e-02
-3.234788076952099800e-03
-1.740134693682193756e-02
7.464790344238281250e-02
-1.104632392525672913e-01
1.275180373340845108e-02
-1.543467044830322266e-01
3.732663765549659729e-02
6.907586008310317993e-02
5.461188405752182007e-02
-6.238834932446479797e-02
-1.134266238659620285e-02
-1.293746475130319595e-02
-9.095212817192077637e-02
-1.168473251163959503e-02
-5.476307868957519531e-02
-3.212220221757888794e-02
6.123746559023857117e-02
-1.201578080654144287e-01
3.736177459359169006e-02
5.198695883154869080e-02
1.218713596463203430e-01
8.677140623331069946e-02
2.847313508391380310e-02
-5.130495131015777588e-02
9.728383272886276245e-02
1.783966831862926483e-02
6.399092823266983032e-02
4.958076402544975281e-02
-9.923744201660156250e-02
1.037015020847320557e-01
4.103628173470497131e-02
-8.145637810230255127e-02
-6.127009168267250061e-02
6.269265711307525635e-02
2.304829657077789307e-02
-7.482591271400451660e-02
-4.829636216163635254e-02
-1.117542907595634460e-01
1.082717701792716980e-01
6.426403671503067017e-02
1.787072420120239258e-02
1.078601777553558350e-01
1.490828394889831543e-01
-9.619139134883880615e-02
-4.722822457551956177e-02
-8.184120059013366699e-02
-9.654210507869720459e-02
-7.154010981321334839e-02
2.388595603406429291e-02
6.377699971199035645e-02
1.126380264759063721e-01
-2.782392874360084534e-02
2.308345399796962738e-02
-8.870662003755569458e-02
-1.309351474046707153e-01
8.146785944700241089e-02
-7.674232870340347290e-02
-8.536906540393829346e-02
-3.240709658712148666e-03
-1.435284316539764404e-02
-9.222759306430816650e-02
-1.363120526075363159e-01
4.677857086062431335e-02
-3.533738106489181519e-02
2.088992111384868622e-02
6.409514695405960083e-02
-1.538128498941659927e-02
-6.227215286344289780e-03
-1.006831135600805283e-02
-3.294149413704872131e-02
-9.286945313215255737e-02
-3.177231177687644958e-02
1.033499613404273987e-01
1.108241006731987000e-01
9.481895714998245239e-03
8.429598063230514526e-03
-1.123339980840682983e-01
1.102118492126464844e-01
7.049482315778732300e-02
-2.925697527825832367e-02
-6.109221652150154114e-02
-9.516920149326324463e-02
-2.530770748853683472e-02
-7.133173197507858276e-02
6.839331239461898804e-03
5.534678325057029724e-02
3.021023795008659363e-02
1.114756837487220764e-01
-8.874575607478618622e-03
-4.488199576735496521e-02
7.095497101545333862e-02
3.980584442615509033e-03
5.163804814219474792e-02
-6.817077845335006714e-02
-3.722231835126876831e-02
1.472747046500444412e-02
2.802310883998870850e-02
3.709422424435615540e-02
-8.723421394824981689e-02
-2.231805771589279175e-02
4.364469274878501892e-02
1.278284005820751190e-03
1.215013340115547180e-01
-1.120764538645744324e-01
1.088637709617614746e-01
-3.435525298118591309e-02
-6.366799771785736084e-02
-4.917925968766212463e-02
2.462342195212841034e-02
-3.753214702010154724e-02
-1.531371474266052246e-02
-4.522229731082916260e-02
1.073114871978759766e-01
1.077826023101806641e-01
4.399884119629859924e-02
1.179391816258430481e-01
-2.682638540863990784e-02
3.219596669077873230e-02
-5.128278955817222595e-02
1.365655064582824707e-01
1.139061748981475830e-01
2.941194176673889160e-02
7.950050383806228638e-02
2.698186412453651428e-02
-9.608611464500427246e-02
3.361568972468376160e-02
8.718356490135192871e-03
-1.253266781568527222e-01
3.581529110670089722e-02
-1.392694748938083649e-02
-8.224095404148101807e-02
2.264458313584327698e-02
-9.165430068969726562e-02
9.464632719755172729e-02
-1.157256774604320526e-02
-8.492443710565567017e-02
7.894874364137649536e-02
-1.583167314529418945e-01
-6.831606384366750717e-03
1.472115367650985718e-01
-6.053713150322437286e-03
-6.666886806488037109e-02
2.292675338685512543e-02
5.844246968626976013e-02
7.943373918533325195e-02
-1.115801855921745300e-01
2.145160920917987823e-02
2.885740436613559723e-02
-1.542415916919708252e-01
6.737052649259567261e-02
-1.406899839639663696e-01
1.416615769267082214e-02
4.001531004905700684e-02
-1.066135391592979431e-01
-1.246761903166770935e-01
3.566407412290573120e-02
-3.353318572044372559e-02
-1.046034544706344604e-01
1.709604449570178986e-02
1.172791048884391785e-02
-7.159203290939331055e-02
-1.357775926589965820e-01
-7.883038371801376343e-02
1.261960864067077637e-01
1.069633215665817261e-01
1.389381289482116699e-01
-1.456684619188308716e-02
2.253683656454086304e-02
-1.401282995939254761e-01
-1.327484697103500366e-01
-3.896287828683853149e-02
4.647002741694450378e-02
-2.274192310869693756e-02
-6.185196340084075928e-02
1.317607909440994263e-01
-3.523881779983639717e-03
-2.186154015362262726e-03
-1.075040325522422791e-01
4.775548726320266724e-02
-4.577204585075378418e-03
-1.114985197782516479e-01
1.368577871471643448e-02
9.295628219842910767e-02
7.842388004064559937e-02
-1.336360573768615723e-01
3.577232733368873596e-02
5.260621383786201477e-02
-8.135133236646652222e-02
3.024530969560146332e-02
-1.210450381040573120e-01
2.529268525540828705e-02
-4.967579245567321777e-02
-1.135029494762420654e-01
7.951979339122772217e-02
4.499886929988861084e-02
4.031937941908836365e-02
-1.385879367589950562e-01
2.411272563040256500e-02
-5.380278080701828003e-02
-8.073127269744873047e-02
-1.420832276344299316e-01
1.182474717497825623e-01
-6.904507428407669067e-02
-8.512534946203231812e-02
8.702897280454635620e-02
2.650158666074275970e-02
8.632525056600570679e-02
-1.514479815959930420e-01
1.107407212257385254e-01
-8.475133031606674194e-02
-4.391809552907943726e-02
-6.982956826686859131e-02
1.163279265165328979e-01
-6.820697337388992310e-02
6.754392758011817932e-03
1.172602996230125427e-01
-3.643817454576492310e-02
3.176092728972434998e-02
-1.021294388920068741e-02
-1.246271505951881409e-01
7.673574239015579224e-02
-9.856719523668289185e-02
-4.693887010216712952e-02
-1.052303686738014221e-01
4.695969447493553162e-02
-5.015534535050392151e-02
-8.468136191368103027e-02
-1.079795584082603455e-01
-9.870949387550354004e-02
-3.930229693651199341e-02
3.996760770678520203e-02
-1.211401224136352539e-01
-8.275543339550495148e-03
-9.538389742374420166e-02
-1.740535255521535873e-03
-9.559299796819686890e-02
-5.160556361079216003e-02
-3.504860028624534607e-02
-4.988060891628265381e-02
-4.148950800299644470e-02
-1.431173365563154221e-02
7.114214450120925903e-02
-1.297578215599060059e-01
-2.616124600172042847e-02
1.146902516484260559e-01
-7.080749422311782837e-02
-1.362802088260650635e-01
-1.551191210746765137e-01
3.103175014257431030e-02
2.004674077033996582e-02
-1.214123517274856567e-01
1.895266026258468628e-02
-8.860897272825241089e-02
-5.795500427484512329e-02
-7.091266661882400513e-02
3.873936086893081665e-02
8.894280530512332916e-03
6.977348029613494873e-02
5.131494626402854919e-02
9.187195450067520142e-02
2.583068981766700745e-02
-1.168679893016815186e-01
7.296869903802871704e-02
1.635597459971904755e-02
-3.799384459853172302e-02
-1.610590517520904541e-01
-1.429766416549682617e-01
-8.145213872194290161e-02
-1.889454666525125504e-03
1.963241957128047943e-03
-4.492156580090522766e-02
-5.766765400767326355e-02
-8.059678226709365845e-02
8.798985928297042847e-02
-1.263514012098312378e-01
-2.260217256844043732e-02
-5.424167215824127197e-02
3.341805934906005859e-02
-5.094321817159652710e-02
-1.090298220515251160e-01
-1.297188848257064819e-01
-3.970546822529286146e-04
-1.256593465805053711e-01
4.378785565495491028e-02
-1.020207628607749939e-01
-1.234975233674049377e-01
-3.648930788040161133e-02
-4.576710984110832214e-02
-4.206524416804313660e-02
1.229737978428602219e-02
-4.446754232048988342e-02
5.149019509553909302e-02
-1.083474680781364441e-01
-8.600996434688568115e-02
-4.401493817567825317e-02
-7.057958096265792847e-02
-3.589877113699913025e-02
2.918563596904277802e-02
-1.091282144188880920e-01
6.365454196929931641e-02
1.042479369789361954e-02
-5.644678696990013123e-02
9.770760685205459595e-02
-5.143656209111213684e-02
1.016672179102897644e-01
-5.626744031906127930e-02
1.197056397795677185e-01
2.770059276372194290e-03
5.498093739151954651e-02
8.292137086391448975e-02
3.592703118920326233e-02
8.119161240756511688e-03
-1.468815505504608154e-01
-7.279276847839355469e-02
3.817222639918327332e-02
4.767815396189689636e-02
9.074905514717102051e-02
1.062285453081130981e-01
-1.335422396659851074e-01
-2.951224893331527710e-02
3.446960449218750000e-02
5.323650315403938293e-03
-2.173674851655960083e-02
-6.122604012489318848e-03
-5.364147946238517761e-02
9.737160801887512207e-02
-3.461391106247901917e-02
-3.098736889660358429e-02
8.440896868705749512e-02
1.147728264331817627e-01
5.660004168748855591e-02
-1.741361059248447418e-02
-1.134546995162963867e-01
9.641490876674652100e-02
1.327427029609680176e-01
5.506796762347221375e-02
1.054096370935440063e-01
-1.044267322868108749e-02
-3.299416275694966316e-03
1.234867200255393982e-01
7.020341604948043823e-02
9.312384575605392456e-02
1.907478831708431244e-02
1.457716524600982666e-02
9.284276165999472141e-04
9.097601473331451416e-02
6.977278739213943481e-02
5.785631947219371796e-04
-1.300453692674636841e-01
-1.058494374155998230e-01
9.142794460058212280e-02
-1.000878587365150452e-01
4.427542537450790405e-02
3.440494835376739502e-02
9.368406236171722412e-02
-6.785549968481063843e-02
2.445672079920768738e-02
-6.517849862575531006e-02
1.069925501942634583e-01
1.730136573314666748e-02
-4.459957405924797058e-02
7.507277280092239380e-02
-6.826344877481460571e-02
-8.485423773527145386e-02
-1.039596460759639740e-02
-3.465625271201133728e-02
1.103080138564109802e-01
4.820077493786811829e-02
6.955252494663000107e-03
8.729121834039688110e-02
4.064023122191429138e-02
8.286163210868835449e-02
-7.819972187280654907e-02
9.734058380126953125e-02
-7.590278983116149902e-02
-5.355639010667800903e-02
1.418807506561279297e-01
-1.325865238904953003e-01
3.324890881776809692e-02
-2.163094282150268555e-02
-5.041988100856542587e-03
-5.807431414723396301e-02
5.469271540641784668e-02
-7.316306978464126587e-02
4.869193956255912781e-02
6.066447123885154724e-02
-1.324009597301483154e-01
-9.330938011407852173e-02
7.835538685321807861e-02
-7.404083013534545898e-02
2.219474845333024859e-04
2.790863439440727234e-02
-4.375590011477470398e-02
-3.330902755260467529e-02
1.275842189788818359e-01
-7.773580402135848999e-02
4.468718171119689941e-02
-2.952825464308261871e-02
-3.721157088875770569e-02
-8.433843404054641724e-02
-1.096456497907638550e-01
-4.797222465276718140e-02
-3.045921027660369873e-02
2.622128650546073914e-02
-1.413037627935409546e-01
-1.362935546785593033e-02
1.490440405905246735e-02
-9.011128544807434082e-02
-1.145829111337661743e-01
-1.274941265583038330e-01
-6.804533768445253372e-03
3.921512886881828308e-02
1.319924145936965942e-01
-7.599747925996780396e-02
-4.430034011602401733e-02
-1.061413735151290894e-01
-4.257195815443992615e-02
7.402667403221130371e-02
2.145593427121639252e-02
-2.367391996085643768e-02
-7.842846959829330444e-02
1.084506437182426453e-01
-1.365948170423507690e-01
-5.742290243506431580e-02
-1.534676253795623779e-01
1.410152646712958813e-03
-1.130504719913005829e-02
-2.711189212277531624e-03
1.072764918208122253e-01
1.220983192324638367e-01
3.329384699463844299e-02
-4.685217514634132385e-02
-6.136543583124876022e-03
-8.729004114866256714e-02
6.583598256111145020e-02
-1.287264972925186157e-01
4.930839408189058304e-03
1.199967563152313232e-01
1.181171834468841553e-01
-1.442265510559082031e-01
-2.889574505388736725e-02
-6.325920671224594116e-02
1.112236604094505310e-01
-9.909199923276901245e-02
2.144470252096652985e-02
3.625309467315673828e-02
-5.456006899476051331e-02
2.159002982079982758e-02
-7.708102464675903320e-02
-1.686810702085494995e-01
1.137405857443809509e-01
1.459003984928131104e-01
6.376123428344726562e-02
-7.449427247047424316e-02
9.933192282915115356e-02
9.818147867918014526e-02
-8.365839719772338867e-02
-1.730177551507949829e-02
-5.839797854423522949e-02
1.334901154041290283e-02
-7.109974324703216553e-02
-2.511933073401451111e-02
-1.024793833494186401e-01
5.393792316317558289e-02
1.489288453012704849e-02
-1.272665336728096008e-02
-6.387878954410552979e-02
-1.266012936830520630e-01
1.132789701223373413e-01
-4.485346749424934387e-02
-2.245990186929702759e-02
1.722162123769521713e-04
-9.415119141340255737e-02
1.097968146204948425e-01
-7.664564996957778931e-02
-7.393971085548400879e-02
-7.410498708486557007e-02
-7.256257534027099609e-02
-2.284219674766063690e-02
4.012803733348846436e-02
4.945790022611618042e-02
-1.388836503028869629e-01
8.623131364583969116e-02
-4.757198039442300797e-03
1.161659657955169678e-01
1.305932104587554932e-01
-1.015884801745414734e-01
-3.324480727314949036e-02
3.394740074872970581e-02
-4.162066057324409485e-02
-6.910602748394012451e-02
9.325160086154937744e-02
1.631650142371654510e-02
2.843750081956386566e-02
1.478700488805770874e-01
3.292808309197425842e-02
-1.053088754415512085e-01
-9.866531938314437866e-02
1.445171684026718140e-01
1.121820211410522461e-01
-5.362988635897636414e-02
4.722476378083229065e-02
-9.776599705219268799e-02
2.875904552638530731e-02
1.318663172423839569e-02
-9.436036646366119385e-02
3.061183728277683258e-02
-8.816906064748764038e-02
-1.182062998414039612e-01
5.578638985753059387e-02
-1.159942895174026489e-01
7.254952192306518555e-02
4.497948288917541504e-02
9.287089109420776367e-02
-8.675087243318557739e-02
-2.635447774082422256e-03
-4.587420448660850525e-02
7.779130246490240097e-04
-6.316619366407394409e-02
2.225086838006973267e-02
1.217829342931509018e-02
-8.952234685420989990e-02
1.108378842473030090e-01
7.291475683450698853e-02
7.341862469911575317e-02
-4.925489425659179688e-02
-3.694859147071838379e-02
-1.718458533287048340e-01
-1.042806506156921387e-01
2.824388630688190460e-02
2.139680273830890656e-02
-6.807905435562133789e-02
-1.402551233768463135e-01
2.599754370748996735e-02
2.519396319985389709e-02
-1.187254935503005981e-01
1.480938494205474854e-02
-1.230047270655632019e-01
-9.189940989017486572e-03
-1.172549799084663391e-01
-6.150276213884353638e-02
-1.354226171970367432e-01
-2.772429771721363068e-02
-5.192665010690689087e-02
-3.516083210706710815e-02
2.394282817840576172e-02
-8.929281681776046753e-02
-1.104803532361984253e-01
4.026198014616966248e-02
6.524185836315155029e-02
1.936428132466971874e-03
8.390680700540542603e-02
-1.121999248862266541e-01
8.099367469549179077e-02
-1.013009399175643921e-01
-5.391786247491836548e-02
1.049195826053619385e-01
6.957048922777175903e-02
-1.467910408973693848e-01
-2.085513435304164886e-02
-4.826831072568893433e-02
-7.348246872425079346e-02
1.372644212096929550e-02
-1.450280547142028809e-01
1.239413172006607056e-01
3.208684548735618591e-02
-3.755965083837509155e-02
7.997044175863265991e-02
4.535806924104690552e-02
-7.431707344949245453e-03
-5.045831948518753052e-02
2.041008882224559784e-02
-1.040169671177864075e-01
-6.740035861730575562e-02
-9.316939860582351685e-02
-1.289535760879516602e-01
-5.308944359421730042e-02
-1.235712468624114990e-01
3.375553339719772339e-02
1.289514452219009399e-01
-1.009063497185707092e-01
-1.014705672860145569e-01
-6.653466075658798218e-02
-1.498970761895179749e-02
-7.514987140893936157e-02
1.246101260185241699e-01
1.235465612262487411e-02
2.176612848415970802e-03
1.151500791311264038e-01
-4.188231751322746277e-02
-1.126319617033004761e-01
5.625938251614570618e-02
-5.223637446761131287e-02
-1.609959453344345093e-01
4.579971358180046082e-02
1.956512406468391418e-02
3.918974846601486206e-02
-4.008936509490013123e-02
-1.127941999584436417e-02
5.484136193990707397e-02
-5.216877162456512451e-02
7.380355615168809891e-03
1.067790016531944275e-01
-4.597441107034683228e-02
-5.024277046322822571e-02
2.097890712320804596e-02
-1.137781813740730286e-01
-1.318935751914978027e-01
-1.108218729496002197e-01
6.626712530851364136e-02
4.177311435341835022e-03
1.068888232111930847e-01
-9.128374606370925903e-02
-5.935098603367805481e-02
9.825722873210906982e-02
8.478011935949325562e-03
-1.894466765224933624e-02
1.186209917068481445e-01
1.138991937041282654e-01
-1.550306472927331924e-02
-1.191526800394058228e-01
6.777674704790115356e-02
-1.051173582673072815e-01
-1.369568258523941040e-01
-2.415710687637329102e-02
5.692804232239723206e-02
6.482410430908203125e-02
9.029300510883331299e-02
-4.187830910086631775e-02
-9.701797366142272949e-02
-4.777351766824722290e-02
3.012713417410850525e-02
-6.586610525846481323e-02
2.346169017255306244e-02
4.028962284792214632e-04
-2.723771706223487854e-02
1.882221177220344543e-02
-6.437158584594726562e-02
-7.091201841831207275e-02
2.587130665779113770e-02
-1.249771937727928162e-01
-6.128986552357673645e-02
1.923760771751403809e-02
1.064248662441968918e-02
-7.178086042404174805e-02
-1.380125880241394043e-01
-2.027983032166957855e-02
5.959809944033622742e-02
-6.567246466875076294e-02
-2.858451753854751587e-02
-3.506867960095405579e-02
-4.856152087450027466e-02
-7.935089990496635437e-03
2.620169892907142639e-02
6.080071255564689636e-02
-4.672942683100700378e-02
-1.067909374833106995e-01
1.235220208764076233e-01
4.826018586754798889e-03
-1.058629080653190613e-01
1.790218986570835114e-02
7.366697490215301514e-02
9.585608541965484619e-02
8.185174316167831421e-02
-8.793437480926513672e-02
8.161061257123947144e-02
-1.312570273876190186e-01
-4.818553477525711060e-02
7.454870641231536865e-02
1.008541062474250793e-01
7.627632468938827515e-02
-9.792103432118892670e-03
-7.386852800846099854e-02
-1.859993115067481995e-02
-2.667260356247425079e-02
4.912838805466890335e-03
1.268267929553985596e-01
-1.914151757955551147e-02
9.746080636978149414e-02
-5.152972415089607239e-02
2.008199132978916168e-02
-5.069071994512341917e-05
-1.437385678291320801e-01
1.184633746743202209e-01
-1.225906834006309509e-01
6.237417459487915039e-02
-1.071794703602790833e-01
1.036937162280082703e-01
-9.837412089109420776e-02
-9.449138492345809937e-02
1.383045688271522522e-02
2.442168630659580231e-02
6.545279175043106079e-02
2.991818636655807495e-02
-3.077878989279270172e-02
-6.172451376914978027e-02
6.726848892867565155e-03
-1.853929646313190460e-02
-3.529447689652442932e-02
5.949056685494724661e-06
-7.298400253057479858e-02
5.768993869423866272e-03
-8.814501017332077026e-02
-1.412436813116073608e-01
-7.423131912946701050e-02
9.713201969861984253e-02
9.093494713306427002e-02
2.282419428229331970e-02
7.456649094820022583e-02
-1.269497275352478027e-01
9.807030111551284790e-02
-6.479535251855850220e-02
8.129389584064483643e-02
1.253726631402969360e-01
-1.160543188452720642e-01
1.438446789979934692e-01
-1.286920011043548584e-01
1.167772933840751648e-01
-2.909006737172603607e-02
-1.395241916179656982e-01
-4.949421156197786331e-03
1.042499840259552002e-01
-1.813706941902637482e-02
9.090624749660491943e-02
3.177195042371749878e-02
-2.986177336424589157e-03
2.267776988446712494e-02
-7.494004815816879272e-02
1.505226790904998779e-01
2.379481680691242218e-02
1.443654745817184448e-01
-1.446675695478916168e-02
1.126936301589012146e-01
4.507503286004066467e-02
-1.239588949829339981e-02
-7.338291406631469727e-02
-7.460272312164306641e-02
4.222902655601501465e-02
-3.586200252175331116e-02
-4.140955582261085510e-02
-1.318255066871643066e-01
4.434238374233245850e-02
1.463723182678222656e-01
1.523192785680294037e-02
-5.292321369051933289e-02
-1.156858634203672409e-02
1.491120904684066772e-01
6.686088442802429199e-02
1.962574757635593414e-02
-1.951777003705501556e-02
3.098477609455585480e-02
-7.979368418455123901e-02
-7.510177046060562134e-02
7.977218925952911377e-02
-5.008528009057044983e-02
-1.180893406271934509e-01
-4.265687987208366394e-02
1.106012016534805298e-01
7.590664923191070557e-02
-7.872200757265090942e-02
-8.896625041961669922e-02
7.318145781755447388e-02
-1.118371561169624329e-01
2.162740938365459442e-02
-1.585368365049362183e-01
-1.243075877428054810e-01
-8.014990389347076416e-02
1.485754456371068954e-02
-1.409380044788122177e-02
-3.080518543720245361e-02
9.883604943752288818e-02
-2.577170915901660919e-02
4.357128217816352844e-02
-1.008186489343643188e-03
5.109164118766784668e-02
-1.574250459671020508e-01
-9.413282573223114014e-02
-1.053011268377304077e-01
-6.311795115470886230e-02
-8.760152757167816162e-02
3.324173390865325928e-02
6.601636856794357300e-02
-7.554794102907180786e-02
7.029931992292404175e-02
-5.452204495668411255e-02
-5.474952235817909241e-02
-3.586017712950706482e-02
9.362260997295379639e-02
-2.119887620210647583e-02
-2.319157868623733521e-02
-6.779146194458007812e-02
3.385834768414497375e-02
2.547415159642696381e-02
7.247456163167953491e-02
5.303328111767768860e-02
-1.130037568509578705e-02
-2.660398371517658234e-02
-4.897399339824914932e-03
-1.407594233751296997e-01
7.271143049001693726e-02
-4.274464398622512817e-02
-2.132489532232284546e-02
-2.723834663629531860e-02
7.008020579814910889e-02
-4.799356311559677124e-02
8.207254111766815186e-02
4.334247671067714691e-03
-1.974531821906566620e-02
-9.511243551969528198e-02
-6.266707181930541992e-02
-7.999747246503829956e-02
-9.803622961044311523e-02
3.008362464606761932e-02
-7.310720533132553101e-02
1.890147919766604900e-03
9.371194988489151001e-02
-8.267182856798171997e-02
-1.502803806215524673e-02
3.972939215600490570e-03
-1.594295799732208252e-01
2.490107435733079910e-03
-6.291580945253372192e-02
1.314821988344192505e-01
-4.201573133468627930e-02
-9.273645281791687012e-02
-9.840795397758483887e-02
6.374000012874603271e-02
-3.598722396418452263e-03
-1.321731358766555786e-01
-2.879704721271991730e-02
7.800121605396270752e-02
-1.199097931385040283e-01
1.828490989282727242e-03
-1.217647790908813477e-01
7.009501010179519653e-02
1.196131184697151184e-01
-1.758013516664505005e-01
-1.783453822135925293e-01
1.011795736849308014e-02
-6.801117956638336182e-02
1.196980476379394531e-02
-7.843301445245742798e-02
1.351768523454666138e-01
-1.305994391441345215e-01
1.748671010136604309e-02
-1.070517674088478088e-01
-1.064254343509674072e-01
5.555545166134834290e-02
4.639000166207551956e-03
-1.740856282413005829e-02
-1.033541709184646606e-01
-1.430706307291984558e-02
-4.157612100243568420e-03
-3.064044378697872162e-02
-3.344593197107315063e-02
1.864428631961345673e-02
-1.742050200700759888e-01
1.038553938269615173e-01
5.003361403942108154e-02
-3.015150129795074463e-02
-1.258155424147844315e-02
-5.236175283789634705e-02
-6.462733447551727295e-02
7.829858362674713135e-02
-1.945725642144680023e-02
-1.096900086849927902e-02
-1.055056378245353699e-01
1.423805672675371170e-02
-1.148831620812416077e-01
-2.788455039262771606e-02
-1.793854385614395142e-01
-5.725142732262611389e-02
-1.682928502559661865e-01
-2.029134705662727356e-02
1.637765392661094666e-02
2.623297087848186493e-02
-2.070744521915912628e-02
4.941894114017486572e-02
-1.307938992977142334e-02
-1.051238477230072021e-01
6.947712600231170654e-02
-5.585657805204391479e-02
1.076669320464134216e-01
-1.102842018008232117e-01
-7.938143610954284668e-02
-1.575920172035694122e-02
6.111327186226844788e-02
-1.796756833791732788e-01
-9.347195923328399658e-02
-3.285237401723861694e-02
-3.999641537666320801e-02
-5.610952153801918030e-02
-6.177604943513870239e-02
6.358718872070312500e-02
6.100820004940032959e-02
6.849735975265502930e-02
-6.249025091528892517e-02
7.415494322776794434e-02
-9.339120239019393921e-02
-1.531869471073150635e-01
-7.804287970066070557e-02
-7.952567189931869507e-02
3.601092472672462463e-02
9.259523823857307434e-03
-6.840029358863830566e-02
-7.079762965440750122e-02
-4.575856775045394897e-02
-2.004726603627204895e-02
8.427775651216506958e-02
-7.522674649953842163e-02
-7.202492654323577881e-02
5.025541782379150391e-02
4.823523107916116714e-03
-1.558033972978591919e-01
5.096797645092010498e-02
-2.479401789605617523e-02
1.005096063017845154e-01
-1.164714619517326355e-01
-9.849203377962112427e-02
1.136083304882049561e-01
8.648981153964996338e-02
8.235162496566772461e-02
-5.956477299332618713e-02
1.471505910158157349e-01
-1.884007304906845093e-01
4.597854986786842346e-02
1.116594895720481873e-01
4.012520611286163330e-02
-3.048518858850002289e-02
1.807267253752797842e-04
1.185660157352685928e-02
3.437472134828567505e-02
6.788078229874372482e-03
1.015125587582588196e-01
-1.247490346431732178e-01
2.398390509188175201e-02
-9.110271930694580078e-04
-8.934428542852401733e-02
-1.422570645809173584e-01
-1.902036517858505249e-01
4.672969505190849304e-02
2.801744081079959869e-02
2.661165967583656311e-02
-1.491753906011581421e-01
-7.195807993412017822e-02
-2.263015694916248322e-02
1.343801431357860565e-02
-1.096712574362754822e-01
-2.119928039610385895e-02
-1.765040606260299683e-01
-1.108366157859563828e-02
-9.662447869777679443e-02
-7.029896974563598633e-02
-6.904893368482589722e-02
3.834978863596916199e-02
5.372462421655654907e-02
-4.806226119399070740e-03
9.183511137962341309e-02
-9.501241892576217651e-02
6.376293301582336426e-02
-5.453587695956230164e-02
-7.682734727859497070e-02
4.598785564303398132e-02
-1.479258537292480469e-01
5.239673331379890442e-02
1.494085490703582764e-01
-8.067595772445201874e-03
4.806496948003768921e-02
-9.503167867660522461e-02
-1.364408135414123535e-01
-8.446091413497924805e-02
-4.244312644004821777e-02
-1.085103154182434082e-01
1.015429422259330750e-01
-7.788034528493881226e-02
-1.197870895266532898e-01
8.978168666362762451e-02
-4.483984783291816711e-02
-1.584070175886154175e-01
-5.194240808486938477e-02
-1.619328260421752930e-01
3.335623536258935928e-03
-9.122987091541290283e-02
-6.464736163616180420e-02
-1.042652055621147156e-01
-7.194967567920684814e-02
9.260189533233642578e-02
2.658226899802684784e-02
-7.778393477201461792e-02
-1.060899272561073303e-01
4.437060654163360596e-02
-1.446500122547149658e-01
-8.157017827033996582e-02
-7.630889769643545151e-03
-8.386380970478057861e-02
6.681491434574127197e-02
-1.840137690305709839e-01
-1.262863874435424805e-01
-1.298061311244964600e-01
5.195255205035209656e-02
-1.590813398361206055e-01
8.235591650009155273e-02
5.367928743362426758e-02
6.698536872863769531e-02
-1.192950736731290817e-02
-9.114873409271240234e-02
4.235539957880973816e-02
3.916637971997261047e-02
2.994538284838199615e-03
7.936991006135940552e-02
3.071669861674308777e-02
1.012613549828529358e-01
-8.760146796703338623e-02
9.796293824911117554e-02
-8.255488425493240356e-02
-6.829368323087692261e-02
-2.077150046825408936e-01
-6.450586766004562378e-02
-8.423433452844619751e-02
-1.392463296651840210e-01
-1.452130377292633057e-01
-5.406020209193229675e-02
5.703036114573478699e-02
1.388308405876159668e-02
-7.169107906520366669e-03
9.782914072275161743e-02
-3.230856731534004211e-02
2.717055380344390869e-02
2.330074086785316467e-02
3.135224804282188416e-02
5.005002394318580627e-02
-1.055399999022483826e-01
-3.089096583425998688e-02
-2.669342979788780212e-02
3.734556213021278381e-02
1.475421153008937836e-02
-1.060732901096343994e-01
4.544828087091445923e-02
-8.956843055784702301e-03
6.706711649894714355e-02
-1.458337157964706421e-01
-1.269019693136215210e-01
-1.305291354656219482e-01
-8.348111063241958618e-02
-1.375577747821807861e-01
8.604020625352859497e-02
3.112184628844261169e-02
-7.338015828281641006e-03
-3.397347405552864075e-02
3.610739856958389282e-02
1.928178407251834869e-02
-8.193392306566238403e-02
-8.780632168054580688e-02
-2.023877948522567749e-02
3.993319347500801086e-02
-1.320516020059585571e-01
-1.216002851724624634e-01
8.666978031396865845e-02
1.329386234283447266e-01
-3.881760314106941223e-02
-4.521391540765762329e-02
-8.746709674596786499e-03
9.807394444942474365e-02
4.024555534124374390e-02
-1.192952543497085571e-01
-4.965690150856971741e-02
-1.139488816261291504e-01
1.080354079604148865e-01
5.342038720846176147e-02
-7.166225463151931763e-02
1.121594905853271484e-01
1.533645484596490860e-02
-1.246332526206970215e-01
-1.159113948233425617e-03
-9.907983243465423584e-02
-5.686604976654052734e-02
4.289266467094421387e-02
-3.260435536503791809e-02
-4.934863746166229248e-02
1.009317636489868164e-01
-1.118806675076484680e-01
-1.628132462501525879e-01
-3.889748826622962952e-02
-6.236262619495391846e-02
-8.386437594890594482e-02
-7.047412917017936707e-03
3.190999105572700500e-02
-7.389639317989349365e-02
8.644524961709976196e-02
-2.873829938471317291e-02
-5.630080029368400574e-02
9.669930487871170044e-02
1.920828479342162609e-03
4.608358070254325867e-02
-9.719433635473251343e-02
-1.864944212138652802e-02
-3.964856266975402832e-02
7.110114395618438721e-02
-1.391296386718750000e-01
4.781191051006317139e-02
1.108349636197090149e-01
1.991412043571472168e-02
5.206047371029853821e-02
-7.961840368807315826e-03
-6.880533695220947266e-02
7.466854155063629150e-02
4.216107353568077087e-02
9.683141857385635376e-02
-6.689327210187911987e-02
-2.017311519011855125e-03
9.856210649013519287e-02
1.337141096591949463e-01
8.343042433261871338e-02
-8.680000901222229004e-02
-4.251824691891670227e-02
-1.330422461032867432e-01
-8.813349530100822449e-03
-1.285442709922790527e-01
-9.749059379100799561e-02
2.591044455766677856e-02
-4.785476624965667725e-02
1.533494293689727783e-01
-8.857334405183792114e-02
4.229119047522544861e-02
-1.419728100299835205e-01
-2.439531497657299042e-02
-1.637625135481357574e-02
3.708331286907196045e-02
-9.728763997554779053e-02
1.092329695820808411e-01
-1.211111694574356079e-01
-7.740163803100585938e-02
-6.050018221139907837e-02
-5.541873350739479065e-02
-9.333491325378417969e-02
-2.045103907585144043e-02
-4.124829918146133423e-02
6.490032374858856201e-02
-4.428963363170623779e-02
7.352261245250701904e-02
-7.146792858839035034e-02
3.642581403255462646e-02
5.632837302982807159e-03
1.015679165720939636e-01
-7.444328628480434418e-03
-6.887005269527435303e-02
-1.322672665119171143e-01
-7.377250120043754578e-03
-8.663456887006759644e-02
-1.395319700241088867e-01
2.491406165063381195e-02
-4.285710863769054413e-03
-9.458118677139282227e-02
3.286252915859222412e-02
-4.271135106682777405e-02
-1.467114035040140152e-02
-5.595330521464347839e-02
-1.447250992059707642e-01
-1.004190966486930847e-01
-1.031241267919540405e-01
-9.286603890359401703e-03
8.218272775411605835e-02
-7.092938572168350220e-02
3.008019179105758667e-02
-4.332339856773614883e-03
4.926352575421333313e-02
-2.880003862082958221e-02
-5.788044631481170654e-02
-1.127269566059112549e-01
1.098111346364021301e-01
1.215864270925521851e-01
-1.181428954005241394e-01
6.250870972871780396e-02
6.316661089658737183e-02
-1.083771735429763794e-01
-3.089588694274425507e-02
7.076948136091232300e-02
-9.911782294511795044e-02
-4.768735915422439575e-02
-8.070714026689529419e-02
1.391891092061996460e-01
-5.201122909784317017e-02
-9.134649485349655151e-02
-1.431960910558700562e-01
4.181251861155033112e-03
9.241170482710003853e-05
-1.884730607271194458e-01
8.752233535051345825e-02
-1.797203323803842068e-03
4.339117556810379028e-02
-1.194443255662918091e-01
4.664298892021179199e-02
-1.360296458005905151e-01
-7.250748574733734131e-02
-9.231254458427429199e-03
-8.357583545148372650e-03
-1.746529042720794678e-01
-4.617755487561225891e-02
-1.140159368515014648e-01
-8.313836529850959778e-03
5.295421555638313293e-02
-1.390969008207321167e-01
-1.363493502140045166e-01
-1.139993965625762939e-01
1.294504851102828979e-01
-6.052361056208610535e-02
1.241220384836196899e-01
-1.476673483848571777e-01
-5.053288862109184265e-02
-3.785238415002822876e-02
4.294304922223091125e-02
-7.365798950195312500e-02
1.514326129108667374e-02
7.973466068506240845e-02
-1.001127529889345169e-02
7.507566362619400024e-02
1.117474809288978577e-01
-2.980115823447704315e-03
-7.683447003364562988e-02
2.054715901613235474e-02
-1.140146180987358093e-01
-4.190193116664886475e-02
1.643724553287029266e-02
-3.863659501075744629e-02
1.108167394995689392e-01
-1.120651140809059143e-01
-3.262286260724067688e-02
-6.657269597053527832e-02
2.890411764383316040e-02
1.358099430799484253e-01
-7.743947952985763550e-02
-7.958114892244338989e-02
-1.040722895413637161e-02
7.021058350801467896e-02
-1.467862427234649658e-01
-1.509277224540710449e-01
-1.031615883111953735e-01
1.243035793304443359e-01
-1.105171442031860352e-01
-2.883512154221534729e-02
-2.839319035410881042e-02
-5.789715424180030823e-02
-1.134077012538909912e-01
-2.446850202977657318e-02
-2.708927728235721588e-02
-1.312954574823379517e-01
7.170685380697250366e-02
-7.720918208360671997e-02
4.252192005515098572e-02
-1.043301895260810852e-01
1.066795885562896729e-01
9.713409096002578735e-02
-6.072834506630897522e-02
-6.722193211317062378e-02
-4.682265222072601318e-02
4.047811403870582581e-02
3.399423882365226746e-02
2.197410725057125092e-02
4.683477804064750671e-02
-1.055315062403678894e-01
4.886486381292343140e-02
6.690245866775512695e-02
8.178101480007171631e-02
-5.591885372996330261e-02
-1.807396113872528076e-02
-1.142723336815834045e-01
3.167786449193954468e-02
1.202754229307174683e-01
-3.501994907855987549e-02
-9.178754873573780060e-03
-7.889611646533012390e-03
-1.101423129439353943e-01
6.884270906448364258e-02
-7.556904107332229614e-02
8.959472179412841797e-02
-1.120383962988853455e-01
-7.971744984388351440e-03
-8.544348925352096558e-02
-7.430377602577209473e-02
-5.584633722901344299e-02
-2.669808827340602875e-02
2.878527157008647919e-03
1.794422045350074768e-02
8.621945232152938843e-02
-1.323512345552444458e-01
5.542190372943878174e-02
-4.817620664834976196e-02
-1.588748842477798462e-01
-5.845317151397466660e-03
-4.464228451251983643e-02
-9.393543004989624023e-03
-1.129664406180381775e-01
-1.290410310029983521e-01
1.264810562133789062e-01
1.316246092319488525e-01
-8.477429859340190887e-03
2.923987805843353271e-02
-6.970860064029693604e-02
2.095766738057136536e-02
2.543129958212375641e-02
-4.902077466249465942e-02
1.221279948949813843e-01
-9.110464155673980713e-02
-3.291645646095275879e-02
-3.377949446439743042e-02
-7.004949729889631271e-03
8.122034370899200439e-02
7.692459970712661743e-02
-1.081112176179885864e-01
7.458677887916564941e-02
-6.357015576213598251e-03
2.457964979112148285e-02
-1.010286808013916016e-01
1.130471974611282349e-01
-7.124088704586029053e-02
-4.148464649915695190e-02
9.642264991998672485e-02
-1.213641315698623657e-01
3.548242239048704505e-05
-3.421401977539062500e-02
3.961182199418544769e-03
7.343798130750656128e-02
-1.301717311143875122e-01
7.060582935810089111e-02
-8.009847253561019897e-02
-2.133978763595223427e-03
5.343765486031770706e-03
1.238669157028198242e-01
-2.057184651494026184e-02
5.373000353574752808e-02
-2.674138359725475311e-02
1.244519352912902832e-01
7.853725552558898926e-02
-3.033038601279258728e-02
-5.674466863274574280e-02
8.200829476118087769e-02
2.113265171647071838e-02
1.268225461244583130e-01
5.807130038738250732e-02
-1.649551242589950562e-01
-1.166919618844985962e-01
1.336311846971511841e-01
-5.387054756283760071e-02
7.477688789367675781e-02
-1.992807164788246155e-02
7.660296559333801270e-02
-1.230313032865524292e-01
4.936176538467407227e-02
-1.120468080043792725e-01
-3.971548750996589661e-03
1.660786755383014679e-02
-3.652723878622055054e-02
-1.706515997648239136e-01
-4.658881202340126038e-02
6.812827289104461670e-02
1.410746723413467407e-01
-1.167839542031288147e-01
-2.594643644988536835e-02
6.925780326128005981e-02
-1.266851276159286499e-01
-4.213633760809898376e-02
6.851300597190856934e-02
6.640573590993881226e-02
-6.236595287919044495e-02
4.921656101942062378e-02
-2.523791044950485229e-02
-1.051978319883346558e-01
-3.774528205394744873e-02
-7.373123615980148315e-02
-9.871552139520645142e-02
1.208458617329597473e-01
1.263842638581991196e-02
-9.607731550931930542e-02
-3.775879368185997009e-02
-1.439438611268997192e-01
-1.395907625555992126e-02
-4.812638834118843079e-02
-7.281261682510375977e-02
-4.892331361770629883e-02
-2.703422307968139648e-02
1.424617599695920944e-02
1.529393494129180908e-01
-8.177928626537322998e-03
1.129418537020683289e-01
3.509122878313064575e-02
-1.255931518971920013e-02
-1.601548120379447937e-02
1.124040409922599792e-01
-1.098049059510231018e-01
9.888510406017303467e-02
-1.306383162736892700e-01
-4.881803691387176514e-02
-1.254768520593643188e-01
-8.158556011039763689e-05
-7.697542756795883179e-02
-8.651979267597198486e-02
9.067068248987197876e-02
2.444110251963138580e-02
-7.778853923082351685e-02
-1.089624166488647461e-01
-5.338760092854499817e-02
-8.906905539333820343e-03
-5.271171778440475464e-02
-1.357077807188034058e-01
-3.148331865668296814e-02
7.470378279685974121e-02
-1.544726043939590454e-01
-2.656317688524723053e-02
-4.537995904684066772e-02
-1.433160006999969482e-01
-9.357076138257980347e-02
-1.128313168883323669e-01
-1.629141718149185181e-01
-1.012479737401008606e-01
-7.216197252273559570e-02
-8.999658375978469849e-02
-6.623016297817230225e-02
-1.005230695009231567e-01
8.558697998523712158e-03
1.033205837011337280e-01
-8.574476093053817749e-02
-1.382532157003879547e-02
8.453740924596786499e-02
5.616086721420288086e-02
-3.939276933670043945e-02
-6.667601317167282104e-02
4.889637231826782227e-02
8.870462328195571899e-02
3.915214911103248596e-02
-2.502803690731525421e-02
3.592122346162796021e-02
-5.002387240529060364e-02
1.429805308580398560e-01
4.565522819757461548e-02
-1.294845044612884521e-01
2.939460799098014832e-03
-1.057837158441543579e-01
-3.258400410413742065e-02
-9.597510844469070435e-02
8.455622941255569458e-02
2.562478929758071899e-02
9.840200841426849365e-02
3.685500100255012512e-02
8.523079007863998413e-02
-6.546766310930252075e-02
-7.583768665790557861e-02
-2.202975191175937653e-02
-4.767860472202301025e-02
4.541060328483581543e-02
-3.366163745522499084e-02
-1.849744319915771484e-01
8.452024310827255249e-02
-5.225763842463493347e-02
6.820061057806015015e-02
6.110130343586206436e-04
-6.185891106724739075e-02
1.773385703563690186e-02
-1.492589265108108521e-01
1.805551350116729736e-02
-1.146735548973083496e-01
-6.377794779837131500e-03
-4.269542638212442398e-03
-1.067719981074333191e-01
2.519760467112064362e-02
-5.085425823926925659e-02
1.034162286669015884e-02
-1.425672173500061035e-01
7.920010387897491455e-02
-7.196693122386932373e-02
-5.978563800454139709e-02
8.595703542232513428e-02
-2.001646608114242554e-01
1.849813945591449738e-02
7.450921460986137390e-03
-1.354620307683944702e-01
-1.649231463670730591e-01
-9.236788749694824219e-02
-2.184707298874855042e-02
9.476424008607864380e-02
-9.234801679849624634e-02
-1.059203129261732101e-02
9.279816597700119019e-02
5.417793989181518555e-02
3.716311976313591003e-02
7.504245638847351074e-02
5.051896721124649048e-02
1.201077029109001160e-01
5.624639615416526794e-02
-9.380698949098587036e-02
-1.352306306362152100e-01
-3.883548825979232788e-02
3.572387620806694031e-02
-8.270543813705444336e-02
-8.184279501438140869e-02
-1.083849146962165833e-01
1.284894812852144241e-02
1.729206554591655731e-02
-1.340164989233016968e-01
-5.932583287358283997e-02
5.727436020970344543e-02
-1.229911595582962036e-01
-7.366098463535308838e-02
1.169669721275568008e-02
4.823304247111082077e-03
4.398307204246520996e-02
-2.324006706476211548e-02
5.014012381434440613e-02
1.087104976177215576e-01
-9.703789651393890381e-02
8.177638053894042969e-02
1.165536567568778992e-01
-1.034194137901067734e-02
-9.852386079728603363e-03
7.551110535860061646e-02
5.432177335023880005e-02
2.275761589407920837e-02
-1.314343959093093872e-01
-1.326052546501159668e-01
5.609501898288726807e-02
1.806341856718063354e-02
-6.846820563077926636e-02
-2.659997344017028809e-02
-1.360695809125900269e-03
-7.176372408866882324e-02
6.361200660467147827e-02
9.078651666641235352e-02
3.205968812108039856e-02
-3.636945784091949463e-02
1.791402138769626617e-02
9.469273686408996582e-02
-1.322914659976959229e-01
-7.296277582645416260e-02
-1.290867626667022705e-01
-1.411087810993194580e-01
-1.106979697942733765e-01
-3.149219974875450134e-02
-2.389812096953392029e-02
8.825670182704925537e-02
-3.762547671794891357e-02
-1.201819330453872681e-01
-1.504718675278127193e-03
3.345986455678939819e-02
-7.810036838054656982e-02
-3.238799050450325012e-02
1.125932335853576660e-01
7.012607529759407043e-03
-5.919292569160461426e-02
8.957044780254364014e-02
1.233265399932861328e-01
-6.274636089801788330e-02
-8.711415529251098633e-02
-7.408586889505386353e-02
-3.413192182779312134e-02
-1.106308251619338989e-01
3.107981942594051361e-02
-9.721319377422332764e-02
9.725985676050186157e-02
-1.836901344358921051e-02
7.633379101753234863e-02
1.078342720866203308e-01
-1.723588444292545319e-02
-7.459060847759246826e-02
-5.273129791021347046e-02
3.355566412210464478e-02
-1.392369568347930908e-01
-1.643670490011572838e-03
-1.285758167505264282e-01
-4.124335572123527527e-02
1.451728194952011108e-01
-1.126832589507102966e-01
2.863883785903453827e-02
-8.234047889709472656e-02
6.069307029247283936e-02
-9.007252007722854614e-02
-1.267510056495666504e-01
7.809470593929290771e-02
3.215779736638069153e-02
-4.762274026870727539e-02
-8.989217877388000488e-02
-7.900707423686981201e-02
-8.988238126039505005e-02
9.786579012870788574e-02
-6.169195100665092468e-02
9.965028613805770874e-02
9.823574870824813843e-02
-2.055415138602256775e-02
4.059639945626258850e-02
1.278325635939836502e-02
-5.947991833090782166e-02
-8.528609573841094971e-02
-1.324942409992218018e-01
-1.049650833010673523e-01
8.710033260285854340e-03
8.925472199916839600e-02
1.005461886525154114e-01
1.045067608356475830e-01
6.462251394987106323e-02
-7.494634389877319336e-02
-4.429144412279129028e-02
-1.130387261509895325e-01
-9.593625366687774658e-02
-1.973811071366071701e-03
-9.413769468665122986e-03
2.494428120553493500e-02
-4.822534322738647461e-02
1.340394082944840193e-04
5.633489787578582764e-02
-2.741297706961631775e-02
1.716198921203613281e-01
-8.284845203161239624e-02
-8.869374543428421021e-02
-8.555830270051956177e-02
1.197655051946640015e-01
-7.229750603437423706e-02
1.168554201722145081e-01
7.993422448635101318e-02
1.725419424474239349e-02
-1.097414363175630569e-02
5.800881609320640564e-02
6.401968002319335938e-02
1.105977073311805725e-01
-3.536701202392578125e-02
-6.493500620126724243e-02
1.380745321512222290e-01
5.485754460096359253e-02
6.531784683465957642e-02
1.742918230593204498e-02
3.711562603712081909e-02
5.692612379789352417e-02
7.878006249666213989e-02
6.210321560502052307e-02
7.020398229360580444e-02
1.838025287725031376e-03
-1.242037862539291382e-01
1.518850326538085938e-01
5.270713008940219879e-03
-1.383811980485916138e-02
1.312654614448547363e-01
-5.383460223674774170e-02
-7.512389123439788818e-02
6.316975504159927368e-02
8.861397951841354370e-02
1.090898923575878143e-02
8.011629432439804077e-02
-8.037348091602325439e-02
-9.789942204952239990e-02
1.220041960477828979e-01
-1.219534426927566528e-01
4.537520557641983032e-02
-4.679472744464874268e-02
6.862790882587432861e-02
3.164333291351795197e-03
-2.154440991580486298e-02
3.112357109785079956e-02
-1.372983753681182861e-01
1.557949632406234741e-01
-8.897666633129119873e-02
-6.720242649316787720e-02
-2.269211411476135254e-02
-5.602896586060523987e-02
5.094764009118080139e-02
-7.820485532283782959e-02
6.085387989878654480e-02
1.740670949220657349e-01
7.805986329913139343e-03
1.195451989769935608e-01
-6.391444802284240723e-02
-6.553374230861663818e-02
1.545005384832620621e-02
-5.922405794262886047e-02
-5.600893404334783554e-03
1.419051177799701691e-02
9.177239239215850830e-02
-1.214563474059104919e-01
-2.125414088368415833e-02
-5.600916594266891479e-02
-5.274151638150215149e-02
3.342911228537559509e-02
1.614666543900966644e-02
1.040708571672439575e-01
-4.289562255144119263e-02
9.735775738954544067e-02
-2.458292990922927856e-03
-1.487157493829727173e-01
-5.966794490814208984e-02
-6.046863645315170288e-02
-1.617460139095783234e-02
-6.323427706956863403e-02
-1.304580867290496826e-01
-7.949846982955932617e-02
-4.551374167203903198e-02
6.972674280405044556e-02
3.111554682254791260e-02
-9.373334050178527832e-02
1.107079908251762390e-01
9.903605282306671143e-02
-8.903042227029800415e-02
1.057818531990051270e-01
1.246250644326210022e-01
5.805825639981776476e-05
1.024137958884239197e-01
6.005741655826568604e-02
-1.046371012926101685e-01
-9.526085108518600464e-02
1.170426607131958008e-01
7.352388650178909302e-02
-5.796135962009429932e-02
-4.956080392003059387e-02
8.199337124824523926e-02
3.867799043655395508e-02
-1.043243408203125000e-01
8.590828627347946167e-02
-3.860031068325042725e-02
-2.429017797112464905e-02
-2.557961829006671906e-02
-3.841873630881309509e-02
1.137011721730232239e-01
-6.958519667387008667e-02
-1.272012442350387573e-01
1.125380694866180420e-01
-9.613506495952606201e-02
8.007407933473587036e-02
-9.591078013181686401e-02
-7.318346202373504639e-02
-4.370952025055885315e-02
-9.316468238830566406e-02
-1.403567492961883545e-01
-5.498544126749038696e-02
-1.272035092115402222e-01
8.347796648740768433e-02
3.441997244954109192e-02
7.870651036500930786e-02
2.441331185400485992e-02
9.880427271127700806e-02
1.131429243832826614e-02
2.091411314904689789e-02
-7.127339392900466919e-02
7.864765822887420654e-03
-6.684911996126174927e-02
7.330816984176635742e-02
-7.659026235342025757e-02
1.081105880439281464e-02
-1.208477020263671875e-01
-5.066822096705436707e-02
-5.117029696702957153e-02
1.114997938275337219e-01
-8.896026760339736938e-02
9.001775830984115601e-02
5.721561610698699951e-02
-1.407373547554016113e-01
1.464178264141082764e-01
-3.108512423932552338e-02
-6.290506571531295776e-02
1.040477007627487183e-01
-9.278254583477973938e-03
1.123307738453149796e-04
5.072249472141265869e-02
8.572100102901458740e-02
-5.731715634465217590e-02
1.398260742425918579e-01
5.185759812593460083e-02
3.607812896370887756e-02
-5.734140425920486450e-02
-9.604841470718383789e-02
-2.563467621803283691e-02
-9.003195911645889282e-02
-1.312747597694396973e-01
7.789821177721023560e-02
-8.672136813402175903e-02
-1.075757071375846863e-01
2.800656668841838837e-02
8.899556100368499756e-02
9.052757918834686279e-02
8.423699066042900085e-03
3.536785766482353210e-02
-4.077006876468658447e-02
1.282291021198034286e-02
-7.255855947732925415e-02
-8.753560483455657959e-02
5.341536551713943481e-02
3.893405571579933167e-02
-1.633257791399955750e-02
-3.829518333077430725e-02
-5.528018996119499207e-02
2.407699078321456909e-02
1.207980439066886902e-01
-4.342788085341453552e-02
-5.449990555644035339e-02
1.050662100315093994e-01
-1.268225461244583130e-01
-1.013242378830909729e-01
-1.665183901786804199e-02
-1.350884735584259033e-01
-8.867419324815273285e-03
-1.169641017913818359e-01
-3.159966692328453064e-02
-3.598303347826004028e-02
-9.761732816696166992e-02
-2.936611138284206390e-02
-1.005969941616058350e-01
4.296756908297538757e-02
3.169456869363784790e-02
-6.541662849485874176e-03
-1.010344177484512329e-01
-1.066326871514320374e-01
7.057929784059524536e-02
-3.214150294661521912e-02
-7.077645510435104370e-02
6.533831357955932617e-03
-1.221060231328010559e-01
7.304488122463226318e-02
6.988666206598281860e-02
-7.781174033880233765e-02
-1.995269907638430595e-03
-2.464123815298080444e-02
-8.058576285839080811e-02
-3.869814053177833557e-02
-3.575904294848442078e-02
7.878231257200241089e-02
6.077690050005912781e-03
-3.430606331676244736e-03
-1.326369587332010269e-02
5.642994120717048645e-02
9.767077863216400146e-02
-7.637360692024230957e-02
1.173672452569007874e-01
-3.723859554156661034e-03
5.847184360027313232e-02
-5.279982089996337891e-02
1.067487224936485291e-01
9.057734906673431396e-02
5.183584243059158325e-02
7.239209860563278198e-02
9.895054996013641357e-02
-5.540829151868820190e-02
-1.155408248305320740e-01
-9.695855528116226196e-02
-1.261561810970306396e-01
-4.319031909108161926e-02
4.286920651793479919e-03
-6.859704107046127319e-02
3.135196119546890259e-02
-4.648639634251594543e-02
-1.376650780439376831e-01
1.002793461084365845e-01
5.534825474023818970e-02
-1.249196380376815796e-01
-8.860432356595993042e-02
1.493010763078927994e-02
3.230865672230720520e-02
-1.323273479938507080e-01
-8.196935802698135376e-02
-5.500409752130508423e-02
-1.273458302021026611e-01
6.906770169734954834e-02
6.593193858861923218e-02
-1.619552522897720337e-01
-1.497479975223541260e-01
7.104653120040893555e-02
-1.029093265533447266e-01
-3.041892312467098236e-02
-8.358798921108245850e-02
-5.805202573537826538e-02
1.062525659799575806e-01
3.265072405338287354e-02
-6.988432258367538452e-02
-4.928736761212348938e-02
8.529431372880935669e-02
7.616367191076278687e-02
1.003408730030059814e-01
1.155053228139877319e-01
1.063157897442579269e-02
-1.054566204547882080e-01
5.949963629245758057e-02
6.860117614269256592e-02
-9.528822451829910278e-02
-7.583552598953247070e-02
5.634828284382820129e-02
1.899978816509246826e-01
6.754434853792190552e-02
-3.497154638171195984e-02
1.004728451371192932e-01
3.674821183085441589e-02
-4.351756721735000610e-02
-8.476052433252334595e-02
1.590459644794464111e-01
-4.201571643352508545e-02
7.044502533972263336e-03
9.288784116506576538e-02
5.548518151044845581e-02
1.090145632624626160e-01
-9.206085652112960815e-02
-5.784449726343154907e-02
1.295939087867736816e-03
-1.235001161694526672e-01
7.599680125713348389e-02
-4.178996384143829346e-02
-1.355828642845153809e-01
-7.681737095117568970e-02
-1.198746487498283386e-01
4.450674727559089661e-02
-9.823187440633773804e-02
-2.109912922605872154e-03
1.288145501166582108e-02
-8.299312740564346313e-02
1.818902939558029175e-01
3.229063004255294800e-02
5.403169617056846619e-02
6.009871140122413635e-03
6.587008386850357056e-02
-9.889276325702667236e-02
1.193687096238136292e-01
2.590672858059406281e-02
1.169494614005088806e-01
1.678569614887237549e-02
1.368105858564376831e-01
1.236871480941772461e-01
-1.134192664176225662e-02
5.826458334922790527e-02
-1.088809520006179810e-01
8.406081469729542732e-04
3.007933497428894043e-02
8.090803772211074829e-02
7.494702935218811035e-02
7.446533441543579102e-02
-2.424740791320800781e-02
6.638573110103607178e-02
5.342945456504821777e-03
9.074553102254867554e-02
-1.185668930411338806e-01
-1.082313582301139832e-01
1.360887587070465088e-01
9.883123449981212616e-03
2.606463804841041565e-02
-1.148375347256660461e-01
-1.450634654611349106e-02
-4.193453118205070496e-03
2.911216579377651215e-02
-9.302089363336563110e-02
2.841978706419467926e-02
-6.988345086574554443e-02
-5.093783140182495117e-02
-1.293399035930633545e-01
-1.485935300588607788e-01
-4.664347320795059204e-02
9.258142858743667603e-02
-1.179267466068267822e-01
3.850548714399337769e-02
8.786416053771972656e-02
-2.533223107457160950e-02
-5.856744945049285889e-02
7.929120212793350220e-02
-7.415399700403213501e-02
-1.163278296589851379e-01
7.889288663864135742e-02
-4.587809368968009949e-02
-3.881480544805526733e-02
7.594005018472671509e-02
-1.212899535894393921e-01
-1.301361024379730225e-01
1.991208270192146301e-02
-7.982203364372253418e-02
2.190329693257808685e-02
4.041521623730659485e-02
6.027226522564888000e-02
7.723784446716308594e-02
5.605122540146112442e-03
-1.035956665873527527e-01
6.520595401525497437e-02
3.016488160938024521e-03
-1.489410698413848877e-01
7.668539136648178101e-02
2.961498219519853592e-03
3.174923732876777649e-02
7.225207984447479248e-02
-3.665611520409584045e-02
-1.276988089084625244e-01
-1.581434346735477448e-02
-8.255247026681900024e-02
-1.377192139625549316e-01
2.591089159250259399e-02
1.102488636970520020e-01
-1.257141702808439732e-03
-6.877630949020385742e-02
4.639999568462371826e-02
-1.044115796685218811e-01
6.272561103105545044e-02
-1.162524372339248657e-01
-6.335028260946273804e-02
-1.420291513204574585e-01
-3.071694076061248779e-02
-7.108443230390548706e-02
6.583028286695480347e-02
1.044637635350227356e-01
-1.303735226392745972e-01
-7.402543723583221436e-02
-2.138531208038330078e-02
-6.248513609170913696e-02
-3.992538526654243469e-02
8.003950864076614380e-02
-9.213567525148391724e-02
7.776857912540435791e-02
8.582098037004470825e-02
1.855772919952869415e-02
-2.672257274389266968e-02
6.952841579914093018e-02
-1.433150321245193481e-01
-8.924429118633270264e-02
2.538795769214630127e-02
4.719777032732963562e-02
7.511761039495468140e-02
-3.972604498267173767e-02
-5.525871738791465759e-02
-5.130960792303085327e-02
-9.497920982539653778e-03
-8.222547918558120728e-02
4.793090000748634338e-02
4.580676183104515076e-02
-1.949281804263591766e-02
1.186731234192848206e-01
4.597678780555725098e-02
-3.339056670665740967e-02
1.061162874102592468e-01
6.786742806434631348e-02
-9.042781591415405273e-02
-8.557716012001037598e-02
8.192973327822983265e-04
-1.147348955273628235e-01
6.509734690189361572e-02
-6.894347816705703735e-02
8.854475617408752441e-02
7.569969445466995239e-02
-7.240202277898788452e-02
-1.104751750826835632e-01
-9.329537302255630493e-02
7.334702461957931519e-02
-1.215523779392242432e-01
8.739352226257324219e-02
4.190549626946449280e-02
7.435456663370132446e-02
-6.389337778091430664e-02
-1.384226679801940918e-01
2.026638947427272797e-02
-1.401384621858596802e-01
3.794122859835624695e-02
9.746738523244857788e-02
7.640851289033889771e-02
-1.485401242971420288e-01
-8.096154779195785522e-02
2.066295221447944641e-02
-8.245579898357391357e-02
-6.687816977500915527e-02
-1.489916443824768066e-01
-8.012983947992324829e-02
-1.267967522144317627e-01
-1.140762642025947571e-01
-1.156854927539825439e-01
8.185911923646926880e-02
4.951640963554382324e-02
-9.136824309825897217e-02
-5.345431342720985413e-02
3.417164832353591919e-02
-3.887071087956428528e-02
-6.581904739141464233e-02
-1.564043760299682617e-01
-1.673772633075714111e-01
2.129440009593963623e-02
-1.182832121849060059e-01
-1.235926710069179535e-02
-1.378501653671264648e-01
-7.472267001867294312e-02
-5.191625677980482578e-04
-6.032443419098854065e-02
-5.255502089858055115e-02
7.829041779041290283e-02
-6.985314190387725830e-02
-1.204330548644065857e-01
-1.369541883468627930e-01
-1.130750961601734161e-02
-1.168373376131057739e-01
7.747669517993927002e-02
-4.647263884544372559e-02
-1.114021912217140198e-01
3.168156370520591736e-02
-4.200891405344009399e-02
-9.984990209341049194e-02
-3.331337496638298035e-02
8.377837389707565308e-02
7.297349721193313599e-02
1.006460003554821014e-02
-1.145678088068962097e-01
1.336342655122280121e-03
8.402289450168609619e-02
-1.237215250730514526e-01
1.935421861708164215e-02
-1.175452172756195068e-01
2.523332089185714722e-02
-1.862492598593235016e-02
-3.237162157893180847e-02
7.595148403197526932e-03
9.603615105152130127e-02
6.392201781272888184e-02
6.309203803539276123e-02
6.720788031816482544e-02
1.068340316414833069e-01
-1.100843325257301331e-01
-6.839184788987040520e-04
5.356070399284362793e-02
3.725047409534454346e-02
8.054422587156295776e-02
-1.093300133943557739e-01
-3.543527796864509583e-02
-8.056451380252838135e-02
1.162763014435768127e-01
5.856412276625633240e-02
-3.829206526279449463e-02
1.007375195622444153e-01
-1.771700568497180939e-02
4.949166253209114075e-02
-3.609748557209968567e-02
1.023949086666107178e-01
1.174926310777664185e-01
-1.328920274972915649e-01
8.447440713644027710e-02
9.647908061742782593e-02
-7.881697267293930054e-02
-1.824227161705493927e-02
-1.315716058015823364e-01
7.668353617191314697e-02
3.781358897686004639e-02
-2.085901051759719849e-02
-8.319506421685218811e-03
-8.091768622398376465e-02
6.167857348918914795e-02
-1.391905099153518677e-01
-9.309022128582000732e-02
-1.634803600609302521e-02
-6.525781750679016113e-02
9.449044615030288696e-02
-5.375045910477638245e-02
5.915024504065513611e-02
-7.161477953195571899e-02
-3.117979317903518677e-02
-4.014759138226509094e-02
-4.432892426848411560e-02
4.621593281626701355e-02
3.464936837553977966e-02
-9.418547898530960083e-02
3.600142523646354675e-02
-3.172550350427627563e-02
1.294357031583786011e-01
-1.872536540031433105e-01
2.687884261831641197e-03
1.628912836313247681e-01
1.736923679709434509e-02
-4.311396554112434387e-02
-2.270130440592765808e-02
3.789200633764266968e-02
-5.818900465965270996e-02
1.120156273245811462e-01
-1.150023266673088074e-01
5.484145507216453552e-02
-1.232577636837959290e-01
-9.397183358669281006e-02
-7.641986757516860962e-02
6.692888587713241577e-02
1.127047315239906311e-01
4.138108715415000916e-02
-4.625383298844099045e-03
-1.487900167703628540e-01
-1.905919238924980164e-02
-1.356015801429748535e-01
-2.806908451020717621e-02
-6.165588274598121643e-02
1.493967883288860321e-02
-8.759295195341110229e-02
-1.059286892414093018e-01
-1.335771381855010986e-01
-4.395377635955810547e-02
1.163089200854301453e-01
-7.377818226814270020e-02
-8.184204250574111938e-02
5.608871206641197205e-02
-5.760914087295532227e-02
-1.377063840627670288e-01
-1.330793350934982300e-01
-1.102700382471084595e-01
9.865149855613708496e-02
7.979024946689605713e-02
-1.353909522294998169e-01
6.189282983541488647e-02
2.790961787104606628e-02
-8.248350024223327637e-02
-1.359021514654159546e-01
-1.048221215605735779e-01
-4.254702106118202209e-02
2.804012410342693329e-02
1.018297299742698669e-01
1.091407909989356995e-01
-7.995966076850891113e-02
6.637577712535858154e-02
2.760201692581176758e-02
4.169909283518791199e-02
-1.151760146021842957e-01
-1.036550030112266541e-01
-3.923680260777473450e-02
8.228647708892822266e-02
-3.722646459937095642e-02
1.141170933842658997e-01
7.426713407039642334e-02
-1.458706110715866089e-01
-1.020712032914161682e-01
3.022498451173305511e-03
3.079509921371936798e-02
-1.262079626321792603e-01
9.258342906832695007e-03
-1.534347981214523315e-01
-5.385240912437438965e-02
-1.160785704851150513e-01
1.237643323838710785e-02
-3.123483853414654732e-03
-7.652888447046279907e-02
-1.099204830825328827e-02
1.230046227574348450e-01
-2.186457999050617218e-02
2.242462523281574249e-02
7.317445427179336548e-02
-5.422110483050346375e-02
1.033375132828950882e-02
-9.313502162694931030e-02
-1.135261580348014832e-01
-2.619649842381477356e-02
1.519249472767114639e-02
1.039822548627853394e-01
-4.078522324562072754e-02
3.369383886456489563e-02
1.092616468667984009e-01
-1.251153349876403809e-01
1.732614450156688690e-02
-4.325537011027336121e-03
-3.932548221200704575e-03
-1.165721789002418518e-01
2.630919218063354492e-02
3.807464614510536194e-02
1.767210103571414948e-02
-1.528599411249160767e-01
-7.950406521558761597e-02
6.647040694952011108e-02
-6.467790156602859497e-02
1.077247485518455505e-01
5.334541574120521545e-02
-1.074749678373336792e-01
-7.281230390071868896e-02
2.386533655226230621e-02
2.334202639758586884e-02
1.133362855762243271e-02
-2.865287289023399353e-02
-8.661592006683349609e-02
-1.924713491462171078e-03
5.490643531084060669e-02
7.341906428337097168e-02
7.800151407718658447e-02
9.189219214022159576e-03
1.436258256435394287e-01
-5.379995703697204590e-02
7.511563599109649658e-03
-1.041110977530479431e-01
-3.818754851818084717e-02
1.535449773073196411e-01
-6.737988442182540894e-02
6.367801874876022339e-02
-7.145568728446960449e-02
4.278519749641418457e-02
-3.053450025618076324e-02
-1.154369711875915527e-01
-3.990315645933151245e-02
1.561558526009321213e-02
5.316776689141988754e-03
-4.846533015370368958e-02
7.791961729526519775e-02
1.949575543403625488e-02
2.439410611987113953e-02
6.942765414714813232e-02
1.341291368007659912e-01
5.182890966534614563e-02
3.563227830454707146e-03
2.950615249574184418e-02
-5.351440608501434326e-02
1.030771508812904358e-01
3.763568401336669922e-02
2.229866012930870056e-02
-1.125618442893028259e-01
-9.651401638984680176e-02
-1.654648408293724060e-02
7.344077527523040771e-02
-2.434494346380233765e-02
-8.728342503309249878e-02
1.618860661983489990e-01
4.583311825990676880e-02
1.310477703809738159e-01
6.835246086120605469e-02
2.509995549917221069e-02
1.480949223041534424e-01
2.776906266808509827e-02
-1.694303937256336212e-02
-3.865125589072704315e-03
8.193249255418777466e-02
1.318725794553756714e-01
8.556987345218658447e-02
5.910034105181694031e-02
3.194861486554145813e-02
-7.399764843285083771e-03
6.681618094444274902e-02
-1.250205934047698975e-01
-6.363558024168014526e-02
-4.036466032266616821e-02
1.149480417370796204e-01
-8.980975300073623657e-02
-5.694869905710220337e-03
-6.022571027278900146e-02
-7.514966279268264771e-02
-3.081187978386878967e-02
2.399494405835866928e-03
-1.491927504539489746e-01
-4.421555250883102417e-02
2.850436791777610779e-02
-5.476359277963638306e-02
-5.410098284482955933e-02
-6.788285821676254272e-02
3.899721056222915649e-02
-1.565523892641067505e-01
3.944089636206626892e-02
1.448700018227100372e-02
-3.903497010469436646e-02
5.751617136411368847e-04
-2.536381129175424576e-03
-5.395748838782310486e-02
-8.728682994842529297e-02
4.926201328635215759e-02
1.087140515446662903e-01
-1.361631751060485840e-01
-1.682832464575767517e-02
-4.448585957288742065e-02
7.212968170642852783e-02
-2.563423477113246918e-04
-1.409736275672912598e-01
-1.275799870491027832e-01
5.495673790574073792e-02
-1.009785756468772888e-01
3.597307577729225159e-02
8.124814182519912720e-02
-9.341581165790557861e-02
2.146067842841148376e-02
-1.122897639870643616e-01
2.886081300675868988e-02
5.559367313981056213e-02
1.676551997661590576e-02
-1.019586846232414246e-01
-7.623171061277389526e-02
6.919703632593154907e-02
-5.986828356981277466e-02
-1.180278211832046509e-01
-2.634445950388908386e-02
-6.929787248373031616e-02
-8.674528449773788452e-02
-8.186330646276473999e-02
-6.207277998328208923e-02
8.195452392101287842e-03
-8.620421402156352997e-03
1.062009260058403015e-01
6.606231629848480225e-02
-1.213022097945213318e-01
-1.044246554374694824e-02
-2.006661379709839821e-03
-1.580617874860763550e-01
9.293709881603717804e-03
7.896303385496139526e-02
1.044305488467216492e-01
-1.660311818122863770e-01
6.600288301706314087e-02
5.718997213989496231e-03
1.149447187781333923e-01
2.341034822165966034e-02
1.630871929228305817e-02
-7.587148994207382202e-02
9.383286535739898682e-02
-4.070864617824554443e-02
-5.787165462970733643e-02
-9.722497314214706421e-03
-1.498584914952516556e-02
3.532816888764500618e-03
-6.986910849809646606e-02
1.272301077842712402e-01
6.376737356185913086e-02
-2.935812808573246002e-02
-7.098866999149322510e-02
-1.006095707416534424e-01
-4.395693913102149963e-02
1.026191655546426773e-02
-5.712174996733665466e-02
4.864700883626937866e-02
3.595915436744689941e-02
1.116520911455154419e-01
-1.091145575046539307e-01
-1.197258830070495605e-01
-9.573364257812500000e-02
-3.274494409561157227e-02
2.571016177535057068e-02
3.849701210856437683e-02
1.427771244198083878e-02
6.180571392178535461e-03
9.203742444515228271e-02
1.199491918087005615e-01
-1.180224195122718811e-01
1.082263067364692688e-01
6.059793382883071899e-02
7.156398147344589233e-02
6.369500607252120972e-02
-8.169446885585784912e-02
9.024188667535781860e-02
-6.205441430211067200e-02
7.725210487842559814e-02
6.775505840778350830e-02
1.516281161457300186e-03
9.304838627576828003e-02
-2.828065678477287292e-02
-1.027776971459388733e-01
6.634830683469772339e-02
-1.524329651147127151e-02
1.161914989352226257e-01
-2.921315608546137810e-03
-1.358068436384201050e-01
2.734843268990516663e-02
-5.843416228890419006e-02
8.216883987188339233e-02
4.633679054677486420e-03
-1.671327501535415649e-01
1.063323244452476501e-01
-4.795914050191640854e-03
-3.834867104887962341e-02
-5.726912617683410645e-02
6.928108632564544678e-02
-1.280404478311538696e-01
6.621297448873519897e-02
-7.664386183023452759e-03
2.408397011458873749e-02
-1.167946010828018188e-01
6.306172907352447510e-02
