3.623195365071296692e-02
1.297407783567905426e-02
3.484164178371429443e-02
3.283704398199915886e-03
-3.196475654840469360e-02
-3.606010600924491882e-02
-3.589565306901931763e-02
-3.687081485986709595e-02
-8.073349483311176300e-03
-1.035577431321144104e-02
1.277071051299571991e-02
3.871837258338928223e-02
-3.152362257242202759e-02
4.101909697055816650e-03
2.752955071628093719e-02
8.698927238583564758e-03
1.952371187508106232e-02
-3.544189035892486572e-02
3.999833762645721436e-02
3.526094928383827209e-02
3.048542328178882599e-02
6.799912545830011368e-03
-2.186041884124279022e-02
-2.072712592780590057e-02
-3.561763465404510498e-02
2.694025449454784393e-02
-7.004584185779094696e-03
-1.654606871306896210e-02
9.899565018713474274e-03
-7.785798981785774231e-03
-3.808822482824325562e-02
3.831578046083450317e-02
2.637387253344058990e-02
4.144001752138137817e-02
3.061981126666069031e-02
4.519701760727912188e-04
-1.532131619751453400e-02
1.799972727894783020e-02
3.310424834489822388e-02
2.265003696084022522e-02
3.735678270459175110e-02
3.652358427643775940e-02
-3.032321482896804810e-02
7.978441193699836731e-03
3.900876268744468689e-02
-3.634694218635559082e-02
-3.108190931379795074e-02
4.105297103524208069e-02
2.584273368120193481e-02
-3.002032078802585602e-02
1.100721489638090134e-02
3.278578072786331177e-02
3.337256237864494324e-02
-1.929267123341560364e-02
2.926915884017944336e-02
-9.568741545081138611e-03
1.572109572589397430e-02
2.499106526374816895e-02
-2.180779352784156799e-02
-2.172643318772315979e-02
3.410372883081436157e-02
-2.722461894154548645e-02
-3.657963126897811890e-02
3.141802921891212463e-02
1.851277612149715424e-02
1.238040626049041748e-02
-9.882795857265591621e-04
5.610278341919183731e-03
-1.480274461209774017e-02
1.485853921622037888e-02
2.974103204905986786e-02
1.952743530273437500e-02
2.513428404927253723e-02
1.731658540666103363e-02
-5.599630065262317657e-03
2.987693436443805695e-02
-5.300065502524375916e-03
-4.638897255063056946e-03
-2.254495583474636078e-02
6.176616065204143524e-03
-3.353974223136901855e-02
1.105366647243499756e-02
2.521786279976367950e-02
3.294693678617477417e-02
-2.990689873695373535e-02
-3.531787544488906860e-02
-1.048535387963056564e-02
3.461033850908279419e-02
-3.819738700985908508e-02
-9.094416745938360691e-04
-1.023012679070234299e-02
-9.741863235831260681e-03
2.028219215571880341e-02
3.117244131863117218e-02
-2.706681936979293823e-02
-8.711334317922592163e-03
2.014886960387229919e-02
7.326719816774129868e-03
6.673823576420545578e-03
4.122879356145858765e-02
2.037215977907180786e-02
2.000443451106548309e-02
-2.066035568714141846e-02
2.003492973744869232e-02
6.717826705425977707e-03
-3.064187988638877869e-02
3.510382398962974548e-02
5.185940768569707870e-03
2.755224332213401794e-02
-4.187314584851264954e-02
3.587506245821714401e-03
2.866107597947120667e-02
-3.254881873726844788e-02
-1.011196617037057877e-02
-3.936195001006126404e-02
1.319989003241062164e-02
4.016993567347526550e-02
-2.701890468597412109e-02
-1.191287301480770111e-03
1.919184252619743347e-02
-4.186276346445083618e-02
-3.845992311835289001e-02
-8.365034125745296478e-03
4.075362905859947205e-02
-2.855741418898105621e-02
-6.705570966005325317e-03
-3.389870747923851013e-03
-1.319039333611726761e-02
-6.380740087479352951e-03
1.344363205134868622e-02
1.141962688416242599e-02
1.457729749381542206e-02
9.021725272759795189e-04
3.045870177447795868e-02
1.168501377105712891e-02
-1.220651529729366302e-02
2.417431026697158813e-02
-4.156180098652839661e-02
1.031521521508693695e-02
6.085361819714307785e-03
2.296208031475543976e-02
1.467843819409608841e-02
-1.458487659692764282e-02
-4.287784919142723083e-02
2.961589256301522255e-03
3.533614054322242737e-02
3.538503870368003845e-02
-2.078022249042987823e-02
2.102751843631267548e-02
-3.790733590722084045e-02
3.969923034310340881e-02
3.918910026550292969e-02
-2.866008318960666656e-02
2.218947559595108032e-02
7.830762770026922226e-04
-3.684071823954582214e-02
6.312469486147165298e-04
-1.742178224958479404e-03
4.103653877973556519e-02
-3.285825997591018677e-02
-3.877555578947067261e-02
1.995483972132205963e-02
-2.141532488167285919e-02
-2.153675816953182220e-02
-3.315970674157142639e-02
-3.890460357069969177e-02
3.835360752418637276e-03
-7.753743790090084076e-03
2.829317934811115265e-03
3.849641978740692139e-02
3.895219787955284119e-02
-2.673488669097423553e-02
-1.503748167306184769e-02
2.421458996832370758e-02
-4.131351411342620850e-02
1.797319948673248291e-02
3.284729784354567528e-03
3.386919572949409485e-02
4.044215753674507141e-02
1.430909801274538040e-02
8.123901672661304474e-03
-3.720156103372573853e-02
2.803054265677928925e-02
3.766046091914176941e-02
7.182008586823940277e-03
1.056960318237543106e-02
3.245488926768302917e-02
-9.821288287639617920e-03
-1.041101384907960892e-02
3.605767339468002319e-02
-3.953663632273674011e-02
-1.438468042761087418e-02
-6.301885005086660385e-03
-1.259763073176145554e-02
-2.767529338598251343e-02
-2.408039197325706482e-02
2.283641882240772247e-02
2.996820770204067230e-02
9.496144950389862061e-03
-5.545952823013067245e-03
-1.321189105510711670e-02
-3.754476085305213928e-02
4.838765133172273636e-03
-5.174635443836450577e-04
1.999887637794017792e-03
-4.211735352873802185e-02
-2.690275572240352631e-02
2.565536461770534515e-02
-3.087308444082736969e-02
4.088908061385154724e-02
-1.564307138323783875e-02
3.269932419061660767e-02
-3.395216912031173706e-02
-1.784495078027248383e-02
-2.893246477469801903e-03
7.032505702227354050e-03
-1.276698894798755646e-02
1.806831359863281250e-02
-7.728239055722951889e-03
-2.279324084520339966e-02
-1.625991612672805786e-02
-3.216621652245521545e-02
3.425098583102226257e-02
3.063652291893959045e-02
-2.099473215639591217e-02
-5.529080983251333237e-03
-2.387484535574913025e-02
-2.271123602986335754e-02
3.976051509380340576e-02
9.340421296656131744e-03
2.500869706273078918e-02
2.711581997573375702e-02
-1.868396252393722534e-02
-6.035957485437393188e-03
-1.079206936992704868e-03
-3.149973601102828979e-02
-4.509962629526853561e-03
3.431678190827369690e-02
-2.470614574849605560e-02
-4.525678697973489761e-03
1.361873652786016464e-02
-2.330933697521686554e-02
2.222508937120437622e-02
2.991848066449165344e-02
-1.752411387860774994e-02
1.673852279782295227e-02
2.024127356708049774e-02
3.504868224263191223e-02
2.159817516803741455e-02
-2.809630706906318665e-02
1.629574410617351532e-02
4.214013740420341492e-02
4.102898761630058289e-02
-3.298283740878105164e-02
3.129724413156509399e-02
-1.028695516288280487e-02
