1.785944961011409760e-02
-4.139760136604309082e-02
-8.161807805299758911e-02
-1.092614904046058655e-01
4.438549280166625977e-02
1.183586120605468750e-01
-9.939609467983245850e-02
1.163727343082427979e-01
2.995228767395019531e-02
6.834001094102859497e-02
-1.190619021654129028e-01
1.203028634190559387e-01
2.971904352307319641e-02
5.374062433838844299e-02
7.871717214584350586e-02
-1.114602237939834595e-01
1.064572185277938843e-01
1.315487176179885864e-02
2.388925105333328247e-02
-9.666557610034942627e-02
4.750179871916770935e-02
3.264414146542549133e-02
-8.179211616516113281e-02
-6.292667239904403687e-02
-7.452312856912612915e-02
3.240451216697692871e-02
-1.046221479773521423e-01
-4.125044867396354675e-02
-7.695530541241168976e-03
-6.930505484342575073e-02
5.316999927163124084e-02
3.096030093729496002e-02
-1.681553758680820465e-02
-8.844751864671707153e-02
1.755123212933540344e-02
1.130869910120964050e-01
-4.549846984446048737e-03
8.006574958562850952e-02
-4.499004781246185303e-02
-4.024212807416915894e-02
-1.951808296144008636e-02
-9.844129905104637146e-03
8.551795966923236847e-03
-1.015046536922454834e-01
-3.782391548156738281e-02
-7.246580719947814941e-02
3.434119373559951782e-02
7.799899578094482422e-02
2.591108530759811401e-02
-3.674405068159103394e-02
-7.235196232795715332e-02
-9.230340272188186646e-02
-9.903343021869659424e-02
1.213719099760055542e-01
1.232252344489097595e-01
-3.728583082556724548e-02
1.152523979544639587e-01
8.261893689632415771e-02
4.036647733300924301e-03
-1.003179000690579414e-03
-4.434818029403686523e-02
-8.725270628929138184e-03
-1.626487635076045990e-02
-1.099124103784561157e-01
2.066815830767154694e-02
2.943809702992439270e-02
-8.910319954156875610e-02
8.447120338678359985e-02
-8.939134329557418823e-02
7.778993248939514160e-02
-1.239580810070037842e-01
-1.113837584853172302e-03
8.373735100030899048e-02
8.166230469942092896e-02
-9.527510963380336761e-03
-2.601723186671733856e-02
-1.031719744205474854e-01
9.558717906475067139e-02
4.146958235651254654e-03
1.191167254000902176e-02
-3.373797237873077393e-02
-9.845394641160964966e-02
-8.554865489713847637e-04
5.939149856567382812e-02
-1.122530102729797363e-01
2.901738509535789490e-02
4.661120101809501648e-02
8.439230918884277344e-02
-1.152328401803970337e-01
1.137769669294357300e-01
-9.717238694429397583e-02
-1.149450838565826416e-01
1.209856569766998291e-01
-2.816132083535194397e-02
-1.540705561637878418e-02
8.709384500980377197e-02
-4.995261784642934799e-03
1.190758310258388519e-02
4.358676448464393616e-02
-2.490654401481151581e-02
-7.359237968921661377e-02
-7.074256986379623413e-02
-4.346719384193420410e-02
-8.451794087886810303e-02
5.356783047318458557e-02
-5.440584942698478699e-02
1.060481518507003784e-01
6.748840212821960449e-02
-3.913943842053413391e-02
-4.054941702634096146e-03
2.539626695215702057e-02
-8.860238641500473022e-02
1.241639107465744019e-01
-8.124749362468719482e-02
9.550508111715316772e-02
-1.158844232559204102e-01
-6.009966135025024414e-02
-1.130104735493659973e-01
1.615606807172298431e-02
-4.857999458909034729e-02
1.836225762963294983e-02
-1.011902391910552979e-01
-1.220273301005363464e-01
-8.184038102626800537e-02
5.256425589323043823e-02
3.231568634510040283e-02
6.437798589468002319e-02
-5.328461900353431702e-02
