-9.889062494039535522e-02
1.368288695812225342e-02
5.774706229567527771e-02
-6.827105581760406494e-02
-1.664972119033336639e-02
3.967795893549919128e-02
-8.456297218799591064e-02
-8.511142432689666748e-02
-5.760212987661361694e-02
-4.282339662313461304e-02
-9.067939966917037964e-02
-9.050197899341583252e-02
-9.109108150005340576e-02
-7.003158330917358398e-02
6.457997113466262817e-02
1.261690352112054825e-02
5.694724246859550476e-02
8.618097007274627686e-02
-1.630326174199581146e-02
-4.319035448133945465e-03
-1.608889363706111908e-02
5.421663448214530945e-02
-7.421935442835092545e-03
1.100338473916053772e-01
-3.572137281298637390e-02
8.862278610467910767e-02
-9.985432028770446777e-02
7.420955598354339600e-02
-3.609054163098335266e-02
-8.905610442161560059e-02
7.394108921289443970e-02
-7.980035990476608276e-02
3.863044083118438721e-02
-9.801438450813293457e-02
-1.168333664536476135e-01
2.699603140354156494e-02
5.844636354595422745e-03
4.915154352784156799e-02
-4.498611390590667725e-02
3.618631511926651001e-02
5.467188730835914612e-02
-6.633730232715606689e-02
-9.875740110874176025e-02
-9.772923588752746582e-02
-8.204977959394454956e-02
-9.222291409969329834e-02
-7.762483507394790649e-02
4.836270119994878769e-03
-6.468746066093444824e-02
-4.078558832406997681e-02
-7.777670025825500488e-02
1.135722100734710693e-01
-1.159439831972122192e-01
-6.101712584495544434e-02
-1.411319058388471603e-02
-6.889156252145767212e-02
-3.265714272856712341e-02
-1.081326603889465332e-01
1.394957420416176319e-03
5.047811195254325867e-02
5.457980930805206299e-02
5.747554358094930649e-03
9.808071702718734741e-02
1.454138383269309998e-02
1.697352505289018154e-03
2.902103774249553680e-02
5.540876463055610657e-02
-5.874441191554069519e-02
1.268196618184447289e-03
9.606563299894332886e-02
4.847598075866699219e-02
-1.019897460937500000e-01
-1.581062003970146179e-02
4.738101270049810410e-03
4.869606718420982361e-02
-4.079001955687999725e-03
6.385556608438491821e-02
1.121333912014961243e-01
-9.612298756837844849e-02
-2.248034579679369926e-03
-1.080307886004447937e-01
5.881716310977935791e-02
3.079449757933616638e-02
-1.100375503301620483e-02
-7.472230494022369385e-02
1.058738976716995239e-01
1.279932074248790741e-02
1.154457107186317444e-01
-4.164143279194831848e-02
-3.233486041426658630e-02
4.774005617946386337e-03
1.219018548727035522e-01
-5.521592497825622559e-02
-1.059622690081596375e-01
-1.082276254892349243e-01
6.323543190956115723e-02
-2.707233093678951263e-02
-7.884180545806884766e-02
-7.773629575967788696e-02
-9.521802514791488647e-02
1.109191477298736572e-01
7.858081161975860596e-02
9.712073206901550293e-02
3.331664949655532837e-02
1.099276915192604065e-02
9.940826147794723511e-02
2.490824274718761444e-02
1.063436046242713928e-01
-8.105160295963287354e-02
-9.593113511800765991e-02
-1.178035661578178406e-01
-5.337394028902053833e-02
6.573968380689620972e-02
9.847923368215560913e-02
-6.924878805875778198e-02
-1.231695245951414108e-02
-1.176609173417091370e-01
-1.139346957206726074e-01
-1.835439819842576981e-03
-7.397285103797912598e-02
2.192686498165130615e-02
6.231731176376342773e-02
3.243396431207656860e-02
1.178736519068479538e-02
-5.905631405767053366e-05
-3.600800782442092896e-02
-8.324357122182846069e-02
-1.326381787657737732e-02
