-6.983160227537155151e-02
5.931263789534568787e-02
-2.662191912531852722e-02
5.266305804252624512e-02
2.273716963827610016e-02
5.145293474197387695e-02
8.843895979225635529e-03
3.035762347280979156e-02
1.594606414437294006e-02
2.346646040678024292e-02
-5.172873288393020630e-02
3.813927248120307922e-02
-4.951559752225875854e-02
-1.048898510634899139e-02
-2.262836135923862457e-02
2.581903152167797089e-02
8.469273336231708527e-03
-4.798314720392227173e-02
4.566793143749237061e-02
1.397625822573900223e-02
-5.937218666076660156e-02
-1.014504930935800076e-03
-5.260886624455451965e-02
-1.420874893665313721e-02
-2.471003495156764984e-02
8.233349025249481201e-02
6.605669856071472168e-03
6.062243878841400146e-02
-2.521498501300811768e-02
-4.754272848367691040e-02
5.531469732522964478e-02
-6.921884417533874512e-02
-6.956980098038911819e-03
1.741890795528888702e-02
4.708870127797126770e-02
1.045365072786808014e-02
4.237774759531021118e-02
-6.346727721393108368e-03
1.204100996255874634e-02
-8.330061286687850952e-02
4.847355559468269348e-02
-2.857272047549486160e-03
5.711876600980758667e-02
5.656844377517700195e-02
3.871891647577285767e-02
2.602427452802658081e-02
4.408657923340797424e-02
2.219775225967168808e-03
-6.385078281164169312e-02
4.392618685960769653e-02
5.221399478614330292e-03
7.758366409689188004e-03
2.695695124566555023e-02
-3.824336081743240356e-02
2.689655125141143799e-02
-6.718199700117111206e-02
6.177276372909545898e-03
4.502595588564872742e-02
-4.936326295137405396e-03
1.904031634330749512e-02
3.991253674030303955e-02
-3.088302724063396454e-02
-2.615367621183395386e-02
2.675168029963970184e-02
-2.021626755595207214e-02
5.798713490366935730e-02
-4.211719334125518799e-02
2.249783091247081757e-02
8.861858397722244263e-03
1.400395110249519348e-02
2.272210456430912018e-02
-4.869954660534858704e-02
-2.373921684920787811e-02
-6.281030178070068359e-02
-3.257161006331443787e-02
6.035833433270454407e-02
-1.662381924688816071e-02
5.716713517904281616e-02
3.862578654661774635e-03
-3.216939046978950500e-02
6.450794637203216553e-02
1.078871078789234161e-02
-6.830330472439527512e-03
6.346120685338973999e-02
-4.903122782707214355e-03
6.057881563901901245e-02
4.094000160694122314e-02
5.465331487357616425e-04
1.834504865109920502e-02
4.932184703648090363e-03
3.769529238343238831e-02
-6.953545659780502319e-02
-5.787096545100212097e-02
-4.283987730741500854e-02
-3.082940820604562759e-03
-4.982311278581619263e-02
-1.302857184782624245e-03
3.548127040266990662e-02
-1.127191539853811264e-02
1.759459264576435089e-02
3.239679709076881409e-02
5.766542628407478333e-03
-5.653917044401168823e-02
6.543775647878646851e-02
-1.641691476106643677e-02
-4.624027293175458908e-03
-4.786597564816474915e-02
-3.560536354780197144e-02
7.615506649017333984e-02
4.568497091531753540e-02
-1.271276082843542099e-02
4.010625183582305908e-02
-6.866313051432371140e-03
-3.395231813192367554e-02
-3.624075651168823242e-02
3.500952944159507751e-02
6.353610754013061523e-02
1.258321572095155716e-02
3.913440927863121033e-02
6.344609707593917847e-02
7.742693275213241577e-02
5.455335229635238647e-02
-3.942360356450080872e-02
-3.352057829033583403e-04
3.115359926596283913e-03
-3.760350123047828674e-02
-5.951136350631713867e-02
-1.025415840558707714e-03
3.885411098599433899e-02
2.879201201722025871e-03
1.182620972394943237e-02
-2.863456867635250092e-02
5.160903558135032654e-02
2.684523351490497589e-02
-4.667665064334869385e-02
1.275285053998231888e-02
4.982236772775650024e-02
7.940453477203845978e-03
-2.859394624829292297e-02
-5.984648130834102631e-03
1.764368079602718353e-02
-5.172708630561828613e-02
2.886599674820899963e-02
5.872379615902900696e-02
-3.052905946969985962e-02
-3.229928016662597656e-02
2.764118602499365807e-03
-5.250543728470802307e-02
-5.697819218039512634e-02
-5.277876555919647217e-02
3.086560592055320740e-02
3.173426026478409767e-03
7.329890131950378418e-02
-5.696531012654304504e-02
-3.239794448018074036e-02
-5.388019140809774399e-03
-1.325333677232265472e-02
-5.623362958431243896e-02
3.885269165039062500e-02
-5.158128589391708374e-02
4.492807015776634216e-02
3.342051804065704346e-02
3.442483022809028625e-02
3.715884685516357422e-02
-3.230299055576324463e-02
1.621788553893566132e-02
-2.743049338459968567e-02
5.897013470530509949e-02
-7.575546856969594955e-03
3.386552631855010986e-02
-1.768889278173446655e-02
2.047668397426605225e-02
4.512995015829801559e-03
1.757946237921714783e-02
3.289477527141571045e-02
-5.035629495978355408e-02
1.221694331616163254e-02
4.200695082545280457e-03
-1.614756882190704346e-02
1.225585234351456165e-03
6.552979350090026855e-02
6.578940153121948242e-02
-2.032743766903877258e-02
-3.010383434593677521e-02
1.454504765570163727e-02
-2.114071883261203766e-02
3.872768953442573547e-02
-4.798891488462686539e-03
4.063389822840690613e-02
3.948790580034255981e-02
-4.457401484251022339e-02
-3.753708302974700928e-02
2.932580420747399330e-03
5.488841980695724487e-02
-6.375432480126619339e-03
-6.574905663728713989e-02
4.602977540343999863e-03
-4.552883282303810120e-02
1.333000510931015015e-02
-7.742393761873245239e-02
-4.653134569525718689e-02
-2.769562229514122009e-02
-3.699794178828597069e-04
2.336468780413269997e-03
-5.619075149297714233e-02
-6.133561953902244568e-02
-1.704578055068850517e-03
1.537249330431222916e-02
6.318800151348114014e-02
5.214986577630043030e-02
5.967713519930839539e-02
4.109365865588188171e-02
-1.326296292245388031e-02
4.303281754255294800e-02
5.070974305272102356e-02
-1.677540689706802368e-02
-3.418512269854545593e-02
1.251250598579645157e-02
-6.918517500162124634e-02
4.176753014326095581e-02
-3.335392847657203674e-02
-6.330741941928863525e-02
3.379963338375091553e-02
6.585990637540817261e-02
-5.526512977667152882e-04
8.018795400857925415e-03
-4.645369481295347214e-03
-4.937610030174255371e-02
6.637910753488540649e-02
-3.723780065774917603e-02
7.561039924621582031e-02
-4.979759454727172852e-02
5.630467552691698074e-03
-3.847351670265197754e-02
1.765710418112576008e-03
-2.121121622622013092e-02
-4.991329461336135864e-02
-6.086996290832757950e-03
2.730018645524978638e-02
2.164468355476856232e-02
7.192542403936386108e-02
-6.447385251522064209e-02
-4.457265511155128479e-02
2.553945966064929962e-02
-2.962357923388481140e-02
9.835141710937023163e-03
-8.546293526887893677e-02
-2.803698368370532990e-02
6.155322492122650146e-02
8.710656315088272095e-02
-3.965513408184051514e-02
-2.869238145649433136e-02
6.068541854619979858e-02
1.960261911153793335e-02
7.515005767345428467e-02
6.109110265970230103e-02
-4.011389985680580139e-02
4.082393273711204529e-02
-1.143570020794868469e-01
2.454491704702377319e-02
1.997601427137851715e-02
-2.539445646107196808e-02
1.263177022337913513e-02
-3.699369356036186218e-02
-7.987245917320251465e-02
-6.283095479011535645e-02
-8.694031834602355957e-02
4.754849243909120560e-03
-5.428157001733779907e-02
1.222213450819253922e-02
-8.663412928581237793e-02
-2.746558375656604767e-02
-2.765383385121822357e-02
-6.520330160856246948e-02
2.468039281666278839e-02
-7.764935493469238281e-02
-5.614247545599937439e-02
1.060106977820396423e-02
-3.795576095581054688e-02
-1.121342107653617859e-01
-2.047181688249111176e-02
-5.709910392761230469e-02
-2.583291195333003998e-02
-1.551480889320373535e-01
-5.754389986395835876e-02
-6.960097700357437134e-02
2.137461490929126740e-02
2.311448566615581512e-02
-9.673408418893814087e-02
-1.317573059350252151e-02
-1.025884971022605896e-01
-3.217197582125663757e-02
-4.168519005179405212e-02
8.852012455463409424e-02
-4.158080741763114929e-02
2.288267388939857483e-02
6.020533666014671326e-02
-3.632758930325508118e-02
1.725182682275772095e-02
-4.863255098462104797e-02
3.186553716659545898e-02
-9.860154241323471069e-02
1.549988798797130585e-02
-5.599379166960716248e-02
-3.290005773305892944e-02
-6.202940642833709717e-02
-2.700412273406982422e-02
-8.221447467803955078e-02
-5.721319466829299927e-02
-7.228957861661911011e-02
-1.247618570923805237e-01
-2.608184516429901123e-02
-9.806617349386215210e-02
5.949545279145240784e-02
-5.490300431847572327e-02
6.813158094882965088e-02
-9.506639838218688965e-02
4.856793954968452454e-02
-1.341803744435310364e-02
1.655201986432075500e-02
-1.088792681694030762e-01
-9.814985096454620361e-02
4.530708305537700653e-03
5.025161802768707275e-02
-2.209239872172474861e-03
3.884083405137062073e-02
8.616925030946731567e-02
-5.089461058378219604e-02
-5.030625313520431519e-02
1.644199341535568237e-02
-1.004899945110082626e-02
-7.309595495462417603e-02
-2.188799204304814339e-03
-1.471801660954952240e-02
-2.991172857582569122e-02
1.682077720761299133e-02
1.665042713284492493e-02
2.272255532443523407e-02
-1.683400571346282959e-02
-2.259918302297592163e-02
-3.590980172157287598e-02
-9.749092906713485718e-02
4.796713590621948242e-02
9.124014526605606079e-03
-2.076762355864048004e-02
-1.043048687279224396e-02
-1.145679205656051636e-01
-5.756308883428573608e-02
2.919204719364643097e-02
-3.550325706601142883e-02
-9.978550672531127930e-02
-1.390158198773860931e-02
-2.102189930155873299e-03
-1.008602529764175415e-01
-1.782951317727565765e-02
1.810972206294536591e-02
-3.162584081292152405e-02
-6.487678736448287964e-02
-3.011626377701759338e-02
6.095040217041969299e-02
-6.208731606602668762e-02
-1.266539841890335083e-01
-5.383039265871047974e-02
-6.287790834903717041e-02
-2.473751083016395569e-02
-8.432660996913909912e-02
-8.368638227693736553e-04
-1.187566965818405151e-01
2.543485164642333984e-02
-1.034534648060798645e-01
2.422437071800231934e-02
-6.062313169240951538e-02
1.360502652823925018e-02
-1.085136011242866516e-01
-4.062529280781745911e-02
-7.209198176860809326e-02
-8.056217432022094727e-02
-6.770719774067401886e-03
-8.710078895092010498e-02
-6.034528464078903198e-02
-9.938109666109085083e-02
-5.485790222883224487e-02
-7.287675887346267700e-02
3.355129808187484741e-02
-6.129042059183120728e-02
2.411903999745845795e-02
-3.275520727038383484e-02
3.994347527623176575e-02
-3.693374246358871460e-02
-2.144189365208148956e-02
-4.784343391656875610e-02
1.796039380133152008e-02
-1.684784190729260445e-03
6.915415171533823013e-03
-6.405839323997497559e-02
-1.097278371453285217e-01
-1.271312404423952103e-02
-3.493700921535491943e-02
-2.291239984333515167e-02
-6.912390142679214478e-02
-9.265919774770736694e-02
4.260069131851196289e-02
1.868244819343090057e-02
5.801900755614042282e-03
-9.060677140951156616e-02
-8.109490573406219482e-02
3.398596122860908508e-02
-1.879672781797125936e-04
2.313879132270812988e-02
9.382496774196624756e-02
-8.324944227933883667e-02
-2.036754228174686432e-02
2.419697493314743042e-02
-1.187090873718261719e-01
1.578711532056331635e-02
-3.978823125362396240e-02
-1.276800185441970825e-01
-4.657413065433502197e-02
-1.440188474953174591e-02
4.294666647911071777e-02
-4.391987621784210205e-02
-7.129086554050445557e-02
-9.533440321683883667e-02
-8.277212083339691162e-02
4.666092246770858765e-02
-3.133304044604301453e-02
-7.016657292842864990e-02
-1.025196239352226257e-01
-1.771011011442169547e-04
-1.966627314686775208e-02
-1.595944724977016449e-02
-1.285625528544187546e-02
-7.997753471136093140e-02
-6.403193622827529907e-02
-3.922725562006235123e-03
1.228430960327386856e-02
-9.249441325664520264e-02
-2.903009951114654541e-02
-4.905639588832855225e-02
8.974843658506870270e-03
4.822006821632385254e-02
6.862673908472061157e-02
-5.669902265071868896e-02
-1.050021350383758545e-01
1.153098791837692261e-02
-4.369641840457916260e-02
1.539469603449106216e-02
1.072676759213209152e-02
-3.073088824748992920e-02
4.720035567879676819e-02
-6.426221132278442383e-02
-7.382493466138839722e-02
-4.446328803896903992e-02
-2.984387567266821861e-03
-3.955563157796859741e-02
1.765473932027816772e-02
-3.324096277356147766e-02
-8.412954956293106079e-02
-6.259194016456604004e-02
1.220072712749242783e-02
-6.553301122039556503e-03
2.516823448240756989e-02
-5.525392293930053711e-02
-5.218999087810516357e-02
-7.814444601535797119e-02
-1.135573312640190125e-01
-2.733206003904342651e-02
-2.868614345788955688e-02
-6.824196130037307739e-02
5.259457975625991821e-02
-1.024871021509170532e-01
4.351228475570678711e-02
-6.817664951086044312e-02
-5.374741926789283752e-02
-4.910269379615783691e-02
1.806286163628101349e-02
-8.486641198396682739e-02
-1.502888742834329605e-03
1.880584098398685455e-02
-1.015340387821197510e-01
-9.135641902685165405e-02
-9.953518956899642944e-02
-3.822129964828491211e-02
-1.239168718457221985e-01
-7.160283625125885010e-02
-8.717110753059387207e-02
-2.980502555146813393e-03
-1.171924844384193420e-01
-7.979777641594409943e-03
-3.999888896942138672e-02
-5.713711678981781006e-02
1.477895025163888931e-02
-1.097626835107803345e-01
4.958556592464447021e-02
5.519847851246595383e-03
-4.996962472796440125e-02
-8.500335738062858582e-03
3.373150527477264404e-02
-8.310130238533020020e-02
-6.047343090176582336e-02
1.766810752451419830e-02
-9.190905839204788208e-02
-1.682317443192005157e-02
-4.947319999337196350e-02
2.690929546952247620e-02
-6.452467292547225952e-02
-4.593465104699134827e-02
-4.178083315491676331e-02
-1.642723195254802704e-02
-1.122995465993881226e-02
-3.136250597890466452e-04
2.499179728329181671e-02
1.942752301692962646e-02
-2.699181204661726952e-03
1.230704318732023239e-02
3.796476870775222778e-02
3.750234469771385193e-02
-2.015088498592376709e-02
1.888950727880001068e-02
3.953634947538375854e-02
-2.192714624106884003e-02
-1.112287305295467377e-02
4.930002987384796143e-02
5.383634194731712341e-02
-2.737718075513839722e-02
-5.899989232420921326e-02
-4.688720032572746277e-02
-1.975829899311065674e-02
-2.060690522193908691e-02
7.685432583093643188e-02
8.165661990642547607e-02
-3.564230725169181824e-02
4.844827204942703247e-02
-6.416637450456619263e-02
-3.404574841260910034e-02
3.707060962915420532e-02
-3.367798402905464172e-02
4.013165831565856934e-02
2.472406718879938126e-03
-1.700341515243053436e-02
3.948459401726722717e-02
4.211920313537120819e-03
-2.019591629505157471e-02
3.818358853459358215e-02
5.666883289813995361e-02
-5.176267586648464203e-03
1.580650731921195984e-02
-3.893987461924552917e-02
-6.517764646559953690e-03
-3.793875500559806824e-02
-5.291421711444854736e-02
5.540280416607856750e-02
2.770293690264225006e-02
5.587390437722206116e-02
-1.472793333232402802e-02
4.604182764887809753e-02
8.919075131416320801e-03
3.926297649741172791e-02
-1.836622878909111023e-02
-3.125594928860664368e-02
5.105240736156702042e-03
-5.352584272623062134e-02
-3.103143721818923950e-02
1.235914998687803745e-03
-5.632653832435607910e-02
-2.708004042506217957e-02
-1.066114660352468491e-02
3.945991024374961853e-02
2.928753010928630829e-02
-3.806333243846893311e-02
-6.141201127320528030e-03
3.023612312972545624e-02
-5.089812353253364563e-02
-5.104119330644607544e-02
9.296382218599319458e-02
-5.323159694671630859e-02
-5.687315762042999268e-02
1.707733795046806335e-02
-3.288065642118453979e-02
-1.248588413000106812e-02
-4.366265982389450073e-02
-2.915229881182312965e-03
-4.148061200976371765e-02
8.869109675288200378e-03
2.132244035601615906e-02
3.507053479552268982e-02
1.813160069286823273e-02
3.838224709033966064e-02
-4.644247889518737793e-02
-5.280409753322601318e-02
-4.460346698760986328e-02
-2.565038762986660004e-02
-1.193418074399232864e-02
-3.879821673035621643e-02
3.146876115351915359e-03
1.128751027863472700e-04
7.018608041107654572e-03
6.938760727643966675e-02
-3.146553412079811096e-02
1.133046951144933701e-02
7.400068640708923340e-02
2.677208557724952698e-02
-2.988283336162567139e-02
2.398497983813285828e-02
2.794569544494152069e-02
6.344431079924106598e-03
7.196162641048431396e-02
5.494576320052146912e-02
5.042961239814758301e-02
-5.286496132612228394e-02
-2.221572026610374451e-02
9.257826022803783417e-03
-3.965108469128608704e-02
1.304455380886793137e-02
-6.302347779273986816e-02
-2.962545491755008698e-03
1.156824827194213867e-02
3.885132446885108948e-02
6.251829117536544800e-02
3.787828981876373291e-02
-2.982902526855468750e-02
-3.706269338726997375e-02
-1.900754123926162720e-02
3.060663864016532898e-02
7.663706317543983459e-03
-7.229860872030258179e-02
-3.147805109620094299e-02
-6.878723390400409698e-03
-2.328959526494145393e-03
-7.644726894795894623e-03
-5.840125307440757751e-02
6.316033005714416504e-02
-3.413708880543708801e-02
-1.927687600255012512e-02
1.021595578640699387e-02
4.368242248892784119e-02
7.830009562894701958e-04
-2.244159765541553497e-02
2.751149609684944153e-02
-6.031011044979095459e-02
1.006447058171033859e-02
-4.832799360156059265e-02
3.071076422929763794e-02
-4.771304875612258911e-02
-4.878149926662445068e-02
4.562321677803993225e-02
-2.195616997778415680e-02
4.523988813161849976e-02
-6.458630412817001343e-02
-2.245037816464900970e-03
-6.603983044624328613e-02
-7.054161280393600464e-02
1.950937323272228241e-02
-2.277133613824844360e-02
2.203411981463432312e-02
-7.520373910665512085e-03
-3.875546902418136597e-02
-2.986091189086437225e-02
-3.798262774944305420e-02
-5.322694405913352966e-02
-3.771789744496345520e-02
5.199633166193962097e-02
7.008667290210723877e-02
-1.888881437480449677e-02
7.256691902875900269e-02
-6.834978610277175903e-02
3.532010316848754883e-02
1.670648343861103058e-02
-1.002999395132064819e-02
4.551956430077552795e-03
4.676999896764755249e-02
3.769153729081153870e-02
6.365698575973510742e-02
4.264229442924261093e-03
2.515983581542968750e-02
6.966572254896163940e-03
4.024859517812728882e-02
-3.541362285614013672e-02
-1.421766169369220734e-02
2.880826964974403381e-02
2.093625999987125397e-02
-4.199389740824699402e-02
1.171659678220748901e-02
2.720834687352180481e-02
-1.654259674251079559e-02
-8.552691899240016937e-03
-3.217976167798042297e-02
1.379413623362779617e-02
-5.372814461588859558e-02
-3.516305470839142799e-03
1.464823842979967594e-03
6.759436428546905518e-02
-4.782108590006828308e-02
-5.853775888681411743e-02
4.074337333440780640e-02
8.460423350334167480e-02
5.022042617201805115e-02
-3.016426786780357361e-02
4.703135415911674500e-02
-3.313462808728218079e-02
3.880375623703002930e-02
-5.449041351675987244e-02
-2.217339724302291870e-02
4.872607067227363586e-02
9.406750090420246124e-03
-8.716939948499202728e-03
-6.208804436028003693e-03
-4.124836251139640808e-02
9.896281175315380096e-03
-2.702407725155353546e-02
-2.143292687833309174e-02
-3.039970062673091888e-02
7.553463429212570190e-02
4.575252532958984375e-02
-4.006809741258621216e-02
-5.820085853338241577e-02
2.826339006423950195e-02
6.908314302563667297e-03
-5.770743009634315968e-04
3.972052072640508413e-04
7.138685882091522217e-02
4.152242839336395264e-02
-1.658551208674907684e-02
7.969707250595092773e-03
2.773308940231800079e-02
-4.213227704167366028e-02
-1.929552853107452393e-02
5.968330428004264832e-02
5.820902436971664429e-02
-2.402562834322452545e-02
-6.441796571016311646e-02
9.067896753549575806e-02
3.257237002253532410e-02
-2.407937496900558472e-02
1.609212346374988556e-02
-1.366483513265848160e-02
3.321720659732818604e-02
5.085677653551101685e-02
-4.904291406273841858e-02
2.434208057820796967e-02
6.514908373355865479e-02
-4.906828701496124268e-02
1.422378467395901680e-03
-1.962686330080032349e-02
5.664578173309564590e-03
2.024191617965698242e-02
6.659872084856033325e-02
1.437971554696559906e-02
4.564728215336799622e-02
-7.041120529174804688e-02
-6.508680433034896851e-02
3.612769022583961487e-02
-5.779640376567840576e-02
6.537551432847976685e-02
1.051889033988118172e-03
4.463310539722442627e-02
-4.214097186923027039e-02
-2.447425015270709991e-02
3.971344605088233948e-02
4.145818576216697693e-02
-3.239005804061889648e-02
-1.267398707568645477e-02
-3.159923478960990906e-02
4.317152872681617737e-02
6.109423004090785980e-03
4.050325229763984680e-02
4.357612133026123047e-02
-1.157969422638416290e-02
4.972267150878906250e-02
7.040878385305404663e-02
1.502909697592258453e-02
5.751942470669746399e-02
-3.695116937160491943e-02
2.644913271069526672e-02
7.527707517147064209e-02
4.103859513998031616e-02
1.034469678997993469e-01
9.877693839371204376e-03
-4.520840942859649658e-02
5.854145437479019165e-02
8.379782736301422119e-02
4.645822197198867798e-02
-3.539074677973985672e-03
-7.296940777450799942e-03
-5.220037698745727539e-02
-6.361141800880432129e-02
1.564560830593109131e-02
-1.352465152740478516e-02
5.073304101824760437e-02
4.408875107765197754e-02
1.068693399429321289e-01
-2.581214718520641327e-02
-3.616746515035629272e-02
-4.907550290226936340e-02
-2.893279306590557098e-02
1.213436573743820190e-02
-2.207935974001884460e-02
-2.664935961365699768e-02
-5.354353785514831543e-02
-2.740595117211341858e-02
-5.692462995648384094e-02
1.635943166911602020e-02
-3.783426433801651001e-02
5.252126604318618774e-03
-4.672665148973464966e-02
-8.796107023954391479e-02
4.817662760615348816e-02
3.964768722653388977e-02
3.347678482532501221e-02
3.704378753900527954e-02
5.639965087175369263e-02
-1.964813657104969025e-02
-8.777534961700439453e-02
6.710739340633153915e-03
-1.910904236137866974e-02
-5.657735466957092285e-02
4.487560316920280457e-02
4.278903827071189880e-02
-8.196510374546051025e-02
1.062587723135948181e-01
-3.512549772858619690e-02
-5.610713269561529160e-03
2.415205165743827820e-02
-4.960822314023971558e-02
-8.743664249777793884e-03
6.249772384762763977e-02
1.798336952924728394e-02
-1.864528656005859375e-02
9.242732822895050049e-02
-4.079732671380043030e-02
-6.505351513624191284e-02
5.083382874727249146e-02
4.354229196906089783e-03
6.655102968215942383e-02
-8.966164314188063145e-04
-3.545433655381202698e-02
1.249970868229866028e-02
3.267920762300491333e-02
1.406145840883255005e-02
3.362663323059678078e-03
9.472680836915969849e-02
-6.614253669977188110e-02
6.964671611785888672e-02
6.825145334005355835e-02
-1.920528477057814598e-03
5.070161819458007812e-02
7.112510502338409424e-02
-9.736980497837066650e-02
7.219222187995910645e-02
-4.273205623030662537e-02
1.661497168242931366e-02
9.664405137300491333e-02
-1.191138476133346558e-02
5.223796144127845764e-02
-2.114922180771827698e-02
3.414607048034667969e-02
1.074305027723312378e-01
-7.130647078156471252e-03
2.772498875856399536e-02
7.022491842508316040e-02
-3.776810690760612488e-02
6.798236072063446045e-02
1.621114648878574371e-02
5.151469632983207703e-02
-3.485566750168800354e-02
1.139705721288919449e-02
-7.999867200851440430e-02
1.940170675516128540e-02
6.758400797843933105e-02
4.082794114947319031e-02
5.041282251477241516e-02
9.047771990299224854e-02
-5.423599481582641602e-02
5.265909712761640549e-03
1.965992152690887451e-02
2.680595032870769501e-03
-2.171818725764751434e-02
9.102312475442886353e-02
9.306979179382324219e-02
5.943396314978599548e-02
3.635053290054202080e-03
8.802056545391678810e-04
6.104967743158340454e-02
-2.278515696525573730e-02
6.293939799070358276e-02
3.261115029454231262e-02
9.701968729496002197e-02
-1.223776303231716156e-02
-2.654900960624217987e-02
3.954633325338363647e-02
-2.474037930369377136e-02
2.777845598757266998e-02
-2.196627901867032051e-03
6.368228048086166382e-02
1.223380584269762039e-02
6.098185107111930847e-02
5.623716488480567932e-02
-4.000981524586677551e-02
-3.163031861186027527e-02
-1.697498746216297150e-02
9.614085406064987183e-02
5.990251526236534119e-02
-3.224817290902137756e-02
3.314264863729476929e-02
9.516265988349914551e-02
2.768733166158199310e-02
-2.921981550753116608e-02
7.045598328113555908e-02
1.018148884177207947e-01
7.778604328632354736e-02
-1.264283247292041779e-02
-3.283239156007766724e-02
4.558623954653739929e-02
9.148517251014709473e-02
-5.225731525570154190e-03
-3.387510403990745544e-02
2.849959395825862885e-02
8.560702949762344360e-02
5.366864800453186035e-02
1.725082471966743469e-02
9.029166400432586670e-02
-1.399215031415224075e-02
-5.065229535102844238e-02
4.112113639712333679e-02
6.024214625358581543e-02
3.649808466434478760e-02
-6.281384732574224472e-03
8.037521690130233765e-02
2.542720362544059753e-02
-2.831617137417197227e-03
4.767817258834838867e-02
2.928796783089637756e-02
2.526413276791572571e-02
-4.758481308817863464e-02
1.521731633692979813e-02
3.876827284693717957e-02
-4.319522157311439514e-02
2.866764552891254425e-02
-8.452400565147399902e-03
6.834296882152557373e-02
3.439702792093157768e-03
1.537817437201738358e-02
7.383363693952560425e-02
-3.121439926326274872e-02
-2.160988189280033112e-02
4.500968754291534424e-02
-3.429631516337394714e-02
5.115857720375061035e-02
-1.148129254579544067e-02
-2.603875100612640381e-02
3.310302272439002991e-02
3.460900858044624329e-02
8.061220496892929077e-02
-3.827986121177673340e-02
-4.856209270656108856e-03
-5.303859245032072067e-03
1.401007547974586487e-02
3.563667461276054382e-02
7.886262983083724976e-02
7.518141716718673706e-02
4.670732468366622925e-02
-3.292544931173324585e-02
-1.835681684315204620e-02
6.542810704559087753e-03
-8.813374675810337067e-03
-1.425563264638185501e-02
5.967404320836067200e-02
8.665224909782409668e-02
2.214344451203942299e-03
3.045881912112236023e-02
6.769231986254453659e-03
-3.517363592982292175e-02
-3.707223385572433472e-02
-9.965503704734146595e-05
-3.524309024214744568e-02
-4.695817083120346069e-02
2.383830584585666656e-02
4.678620770573616028e-02
4.042037576436996460e-02
1.738878898322582245e-02
-5.766612943261861801e-03
-3.045969270169734955e-02
3.901926428079605103e-02
-1.409516483545303345e-02
5.555002391338348389e-02
1.219579571625217795e-04
2.501898631453514099e-02
-5.068118870258331299e-02
-2.347868122160434723e-02
2.606165222823619843e-02
2.799582667648792267e-02
8.875621110200881958e-02
4.747271910309791565e-02
-1.394716091454029083e-02
-5.111936852335929871e-02
3.176928684115409851e-02
-2.651095390319824219e-03
4.535173252224922180e-02
8.687188476324081421e-02
6.024477258324623108e-02
3.426427766680717468e-02
-3.462571417912840843e-03
-2.118031494319438934e-02
1.018480118364095688e-02
-2.519500069320201874e-02
2.787282923236489296e-03
3.990271687507629395e-02
-2.479452639818191528e-02
-3.264327719807624817e-02
1.187725551426410675e-02
-3.763863444328308105e-02
5.298186093568801880e-03
-1.231306605041027069e-02
2.837703749537467957e-02
-2.657276391983032227e-02
5.266802012920379639e-02
1.745492592453956604e-02
-4.807668551802635193e-02
-4.504636675119400024e-02
-3.755094483494758606e-02
2.902758680284023285e-02
-2.293848432600498199e-02
-3.680935874581336975e-02
1.347162127494812012e-01
-4.758294671773910522e-03
1.185766421258449554e-02
2.172989398241043091e-02
6.826620548963546753e-02
4.237029701471328735e-02
5.331921204924583435e-02
-3.928241506218910217e-02
-1.312115788459777832e-01
-1.246503274887800217e-02
-3.779053315520286560e-02
-9.461887180805206299e-02
8.098052814602851868e-03
-3.459837287664413452e-02
-3.400356322526931763e-02
5.121920257806777954e-02
8.691483736038208008e-02
6.115227565169334412e-02
-2.805814146995544434e-02
-4.790690168738365173e-02
-1.732103712856769562e-02
6.872947793453931808e-03
-2.675341442227363586e-02
2.594561129808425903e-02
-1.117217075079679489e-02
-7.135808118619024754e-04
2.618053555488586426e-02
-9.097497165203094482e-02
-5.640745162963867188e-03
6.200375035405158997e-02
-2.422809042036533356e-02
-6.638530641794204712e-02
4.197903349995613098e-02
1.319715287536382675e-02
-5.961440131068229675e-02
5.918739736080169678e-02
-6.099591497331857681e-03
-2.307251468300819397e-02
-4.257210344076156616e-02
-2.115932106971740723e-02
-9.988356381654739380e-02
3.446271643042564392e-02
-6.417436897754669189e-02
3.186442656442523003e-03
-8.745890855789184570e-02
-5.426572635769844055e-02
9.733624756336212158e-03
-5.685780942440032959e-02
-2.498476766049861908e-02
-3.542499244213104248e-02
4.612482711672782898e-02
-2.452841028571128845e-03
-5.439877882599830627e-02
2.128015644848346710e-02
-5.640988051891326904e-02
1.804304192773997784e-03
2.315202727913856506e-02
-7.353740930557250977e-02
5.084627494215965271e-02
-4.346626624464988708e-02
-5.353878811001777649e-02
-3.848917409777641296e-02
6.513357628136873245e-03
-7.126174122095108032e-02
-1.512724906206130981e-02
-2.471824362874031067e-02
-3.125360980629920959e-02
7.846515625715255737e-03
4.091467708349227905e-02
-5.563625693321228027e-02
-8.010647445917129517e-02
-7.981345802545547485e-02
-6.250727176666259766e-02
3.153588622808456421e-02
9.046539664268493652e-03
4.742356389760971069e-02
8.109354227781295776e-02
1.544986269436776638e-03
-3.002329729497432709e-02
1.425443799234926701e-03
-1.604143157601356506e-02
-3.874362260103225708e-02
3.294362872838973999e-02
-2.190104126930236816e-02
-5.510336905717849731e-02
4.551690816879272461e-02
-6.935489922761917114e-02
9.212795644998550415e-03
-1.006366759538650513e-01
-5.540059879422187805e-02
1.060902420431375504e-02
-6.731910258531570435e-02
-6.899745203554630280e-03
-1.444108039140701294e-02
-1.927848346531391144e-02
-1.365540027618408203e-01
-8.659508079290390015e-02
8.652540296316146851e-02
5.894274264574050903e-02
7.393864542245864868e-02
-2.098554279655218124e-03
5.365417338907718658e-03
2.929936349391937256e-02
-2.910741791129112244e-02
-3.806020319461822510e-02
4.105881229043006897e-02
5.450179055333137512e-02
1.192949805408716202e-02
3.093523904681205750e-02
4.559101909399032593e-02
-2.039168402552604675e-02
-2.542519196867942810e-02
-2.619655057787895203e-02
9.179467707872390747e-02
1.624005101621150970e-02
1.325838454067707062e-02
5.069094244390726089e-03
-2.764967828989028931e-02
-9.107247740030288696e-02
-8.226530998945236206e-02
5.162361264228820801e-02
-7.128994911909103394e-02
-5.845671053975820541e-03
4.139588773250579834e-02
2.128097601234912872e-02
1.793482527136802673e-02
5.775233730673789978e-02
-5.656425282359123230e-02
6.967867724597454071e-03
4.984343540854752064e-04
-8.537814021110534668e-02
3.520055487751960754e-02
-2.408825047314167023e-02
5.946846678853034973e-03
3.313444927334785461e-02
-6.897659599781036377e-02
9.758762898854911327e-04
1.109174042940139771e-01
-4.283838439732789993e-03
1.045233160257339478e-01
4.212248325347900391e-02
-5.708181113004684448e-02
-5.911805853247642517e-02
-1.994604803621768951e-02
4.612530395388603210e-02
3.423586487770080566e-02
-3.679455490782856941e-03
-1.371494028717279434e-02
-1.550947967916727066e-02
3.315246105194091797e-02
-7.093828916549682617e-02
3.281513601541519165e-02
1.145682036876678467e-01
-7.901114970445632935e-02
-1.269725859165191650e-01
-7.255420088768005371e-02
7.175330072641372681e-02
-1.664439216256141663e-02
-5.611964687705039978e-02
-3.939239773899316788e-03
-2.003262192010879517e-02
3.191674873232841492e-02
4.020796157419681549e-03
-4.616025835275650024e-02
-6.834159139543771744e-03
-2.504887618124485016e-02
-2.052615396678447723e-02
4.595680162310600281e-02
8.097451180219650269e-02
1.084102764725685120e-01
-8.282829821109771729e-02
-2.808031253516674042e-02
3.793514892458915710e-02
6.842651218175888062e-02
3.744801878929138184e-02
3.091892041265964508e-02
-5.423882231116294861e-02
-7.558926474303007126e-03
8.553067222237586975e-03
7.143450528383255005e-02
-3.306011855602264404e-02
-4.769964143633842468e-02
4.332341626286506653e-02
6.348379538394510746e-04
-2.024107053875923157e-02
-1.071386113762855530e-01
4.198206588625907898e-02
9.814055636525154114e-03
-7.017822936177253723e-03
9.680347517132759094e-03
-5.091346427798271179e-02
-8.779221214354038239e-03
-2.037194184958934784e-02
9.010991454124450684e-02
2.576464973390102386e-02
-4.595619067549705505e-02
-5.972494371235370636e-03
5.690847709774971008e-02
3.400323539972305298e-02
5.925231426954269409e-02
1.031379476189613342e-01
-8.449265360832214355e-02
-2.222100738435983658e-03
1.470431778579950333e-02
-3.975887596607208252e-02
-6.254614889621734619e-02
6.025006622076034546e-02
-4.163343086838722229e-02
3.296050429344177246e-02
-9.266017936170101166e-03
-5.880293995141983032e-02
7.226144522428512573e-02
2.870403695851564407e-03
4.973266646265983582e-02
2.885034121572971344e-02
-4.745995998382568359e-02
-7.079121470451354980e-02
9.421663125976920128e-04
-7.792513817548751831e-02
3.713411465287208557e-02
-1.258433461189270020e-01
2.174134179949760437e-02
7.804001867771148682e-02
-1.438836008310317993e-01
5.295668914914131165e-02
1.057985797524452209e-02
5.663392320275306702e-02
-3.762247785925865173e-02
9.005728363990783691e-02
-2.618477307260036469e-02
-2.016969397664070129e-02
-5.213851109147071838e-02
-4.151987843215465546e-03
-1.648866757750511169e-02
-5.449929274618625641e-03
-6.154078245162963867e-02
1.976962015032768250e-02
-5.791748315095901489e-02
3.109981492161750793e-02
-3.297632560133934021e-02
6.115518137812614441e-02
2.061210945248603821e-02
-3.506609797477722168e-02
9.972453862428665161e-02
1.986648142337799072e-02
4.579754546284675598e-02
6.390839070081710815e-02
-7.973728328943252563e-02
1.357404440641403198e-01
-1.912394724786281586e-02
7.176289707422256470e-02
8.260670304298400879e-02
3.571720793843269348e-02
-2.484018541872501373e-02
-3.733032569289207458e-02
-1.349575631320476532e-02
-6.213073059916496277e-02
6.453421711921691895e-02
-2.659578341990709305e-03
2.522341348230838776e-02
8.916587382555007935e-02
2.452613599598407745e-02
6.582180410623550415e-02
5.195958912372589111e-02
8.927616477012634277e-02
9.422053396701812744e-02
4.655610304325819016e-03
1.207760255783796310e-02
9.126333892345428467e-02
8.591782301664352417e-02
-3.652014071121811867e-03
1.385806966572999954e-02
9.380723536014556885e-02
5.024345591664314270e-03
7.314860075712203979e-02
-7.693300023674964905e-03
6.090446934103965759e-02
-3.094386495649814606e-02
-5.781206116080284119e-02
4.472054168581962585e-02
1.421734411269426346e-02
-2.093478292226791382e-02
7.452475256286561489e-04
7.490470260381698608e-02
6.301355361938476562e-02
5.833003087900578976e-04
-2.549819462001323700e-02
1.896550692617893219e-02
2.056438289582729340e-02
1.004475401714444160e-03
9.694242477416992188e-02
6.506522744894027710e-02
5.934013985097408295e-03
1.029547303915023804e-01
2.864732593297958374e-02
4.132219403982162476e-02
3.094842843711376190e-02
-2.410571277141571045e-02
8.272767066955566406e-02
7.296799123287200928e-02
4.723558202385902405e-02
1.163919791579246521e-01
5.478373914957046509e-02
6.773021072149276733e-02
3.159183263778686523e-02
-4.161022230982780457e-02
9.920338541269302368e-02
1.135542690753936768e-01
-1.038881670683622360e-02
5.812420323491096497e-02
-2.775928704068064690e-03
-3.726650262251496315e-03
5.746965110301971436e-02
-1.373354345560073853e-02
4.222558438777923584e-02
-2.514183148741722107e-02
6.365001201629638672e-03
4.167390614748001099e-02
3.351070731878280640e-02
3.849850594997406006e-02
1.597787439823150635e-02
4.335705656558275223e-03
-9.169710800051689148e-03
-2.455477789044380188e-02
-2.727818302810192108e-02
-7.136014290153980255e-03
-7.584603130817413330e-02
2.921077050268650055e-02
2.453835681080818176e-02
1.794740185141563416e-02
1.686280407011508942e-02
8.271573483943939209e-02
1.113955825567245483e-01
3.120263665914535522e-02
7.001725584268569946e-02
1.448845397680997849e-02
3.841330111026763916e-02
-2.230590675026178360e-03
-6.806203722953796387e-02
6.458875536918640137e-02
1.136439144611358643e-01
4.263341426849365234e-02
6.245801597833633423e-02
-2.435838058590888977e-02
-1.402645278722047806e-02
8.236227929592132568e-02
1.732560060918331146e-02
7.787563651800155640e-02
4.988424852490425110e-02
6.661012023687362671e-02
4.010092094540596008e-02
-2.895822282880544662e-03
-9.141888469457626343e-03
3.464124724268913269e-02
1.049995198845863342e-01
-8.305104076862335205e-02
8.107861876487731934e-02
7.074690610170364380e-02
-2.993573993444442749e-02
5.699737742543220520e-02
5.629209429025650024e-02
7.942466437816619873e-02
7.426518946886062622e-02
1.013394296169281006e-01
6.930076330900192261e-02
6.376095116138458252e-02
5.826494097709655762e-02
5.608307570219039917e-02
5.820502713322639465e-02
5.059283599257469177e-02
-1.686825649812817574e-03
4.066564887762069702e-02
1.060381438583135605e-02
-1.491368003189563751e-02
6.205854937434196472e-02
2.558546885848045349e-02
-4.353532101958990097e-03
9.226589463651180267e-03
1.971773058176040649e-02
-5.811868235468864441e-02
-1.265335548669099808e-02
6.283327937126159668e-02
9.153044782578945160e-03
-2.306570112705230713e-02
3.584311157464981079e-02
7.133788615465164185e-02
7.989352196455001831e-02
9.676595218479633331e-03
2.017797902226448059e-03
-1.687676832079887390e-02
4.807878285646438599e-02
8.598260581493377686e-02
6.773401051759719849e-03
1.236231401562690735e-01
8.638498187065124512e-02
6.487701833248138428e-02
6.685139238834381104e-02
-1.970015466213226318e-02
7.880630344152450562e-02
8.640401065349578857e-02
1.062918305397033691e-01
7.283556461334228516e-02
5.608648061752319336e-02
9.717387706041336060e-02
5.392176285386085510e-02
3.664708510041236877e-02
1.089951694011688232e-01
7.838772237300872803e-02
8.404378592967987061e-02
2.216257154941558838e-02
-6.590607762336730957e-02
1.177578582428395748e-03
9.547033347189426422e-03
-4.831906780600547791e-02
1.737998239696025848e-02
1.120696123689413071e-02
4.819947853684425354e-02
-2.233956195414066315e-02
8.917257189750671387e-02
8.407290279865264893e-02
6.529958546161651611e-02
5.294831842184066772e-02
1.485139480791985989e-03
2.451310865581035614e-03
4.667890816926956177e-02
1.052303314208984375e-01
6.532473862171173096e-02
1.725442707538604736e-03
-8.264771103858947754e-02
2.612239867448806763e-02
5.854358151555061340e-02
7.023183256387710571e-02
3.051053965464234352e-03
2.467804774641990662e-02
2.569241076707839966e-02
7.051642239093780518e-02
1.060460601001977921e-02
9.563534706830978394e-02
3.951971977949142456e-02
1.493055839091539383e-02
9.974984079599380493e-02
-1.984383165836334229e-02
3.197023645043373108e-02
7.961353659629821777e-02
2.344480715692043304e-02
-2.884340845048427582e-02
7.291635125875473022e-02
1.298172958195209503e-02
3.804456815123558044e-02
9.548173844814300537e-02
1.108020544052124023e-01
-6.892026215791702271e-02
1.200205683708190918e-01
-5.791096761822700500e-02
7.054699212312698364e-02
1.024471521377563477e-01
-1.162269245833158493e-02
-2.579368092119693756e-02
5.174025520682334900e-02
9.547799080610275269e-02
-4.122632369399070740e-02
1.692053675651550293e-02
8.985914289951324463e-02
1.522359997034072876e-02
-5.147948488593101501e-02
3.057586587965488434e-02
1.443529967218637466e-02
2.995825558900833130e-02
7.492684572935104370e-02
6.061663478612899780e-02
4.612062871456146240e-02
-6.265279650688171387e-02
6.274753715842962265e-03
-3.038966970052570105e-04
-2.701808698475360870e-02
8.532034605741500854e-02
-7.633523084223270416e-03
3.829551115632057190e-02
5.288035608828067780e-04
-7.256477326154708862e-02
4.454169422388076782e-02
2.419802360236644745e-02
8.793038129806518555e-02
-6.247189827263355255e-03
3.595375688746571541e-03
1.125045716762542725e-01
4.318778216838836670e-02
-1.171860145404934883e-03
5.239659920334815979e-03
2.461263723671436310e-02
-1.152600254863500595e-02
-8.531179279088973999e-03
6.956674903631210327e-02
5.824767798185348511e-02
2.920780517160892487e-02
1.349960174411535263e-02
2.225491590797901154e-02
-3.053625859320163727e-02
-1.403180789202451706e-02
-9.777002036571502686e-02
-2.235460281372070312e-02
-3.107434604316949844e-03
1.199045553803443909e-01
-1.239443849772214890e-02
9.387736767530441284e-02
2.951453439891338348e-02
1.842845045030117035e-02
7.963684201240539551e-02
-1.126415468752384186e-02
1.061738505959510803e-01
7.099738717079162598e-02
1.014699637889862061e-01
5.459153652191162109e-02
-2.293910831212997437e-03
-4.361054673790931702e-02
-4.058174043893814087e-02
-8.214750885963439941e-02
-1.990883843973278999e-03
-7.202339917421340942e-02
6.677342206239700317e-02
1.442597061395645142e-02
-6.750523298978805542e-02
-5.929108336567878723e-02
-1.482167541980743408e-01
-1.012060046195983887e-01
-8.654119819402694702e-02
-6.028972938656806946e-02
3.022881411015987396e-02
-7.609664648771286011e-02
-7.018994539976119995e-02
6.111811101436614990e-02
3.100246749818325043e-02
-2.567844092845916748e-02
1.916166581213474274e-02
-1.290008574724197388e-01
-1.958530955016613007e-02
6.368520110845565796e-02
5.605128780007362366e-02
-6.365622580051422119e-02
6.683622021228075027e-03
-1.178499870002269745e-02
-4.859261214733123779e-02
-6.301733106374740601e-02
-1.239458173513412476e-01
-5.327597260475158691e-02
-7.915206998586654663e-02
4.470315761864185333e-03
-6.296373903751373291e-02
-1.038714349269866943e-01
1.664868183434009552e-02
-8.686216548085212708e-03
-3.779072081670165062e-03
-8.524319157004356384e-03
-4.584795236587524414e-02
-1.485654991120100021e-02
-3.762027015909552574e-03
-7.806937396526336670e-02
-1.110062748193740845e-02
-7.519954442977905273e-02
-3.988128900527954102e-02
-4.072270169854164124e-02
2.255411818623542786e-02
5.745341256260871887e-02
2.398847788572311401e-02
-4.967623203992843628e-02
-2.196162566542625427e-02
-7.065699249505996704e-02
3.059884905815124512e-02
-3.751811571419239044e-03
1.079160836525261402e-03
1.353100035339593887e-02
-8.093178272247314453e-02
-9.270653128623962402e-02
1.576333679258823395e-02
-4.049791768193244934e-02
3.683510050177574158e-02
-6.654266268014907837e-02
-3.261898830533027649e-02
-1.172372605651617050e-02
-4.184030741453170776e-02
-1.783657446503639221e-02
-6.671550124883651733e-02
-5.357719026505947113e-03
-1.015778556466102600e-01
-5.159871280193328857e-02
6.760791689157485962e-02
-7.305304706096649170e-02
2.188759855926036835e-03
-8.545292168855667114e-02
-7.818254828453063965e-02
1.251601334661245346e-02
-1.261892318725585938e-01
-4.912999644875526428e-02
-1.331144869327545166e-01
-6.734964437782764435e-03
-1.045477483421564102e-02
-5.547390505671501160e-02
1.139411050826311111e-02
-1.864274591207504272e-02
2.534265257418155670e-02
-9.478785842657089233e-02
-1.477911882102489471e-02
-7.046620547771453857e-02
-7.223438005894422531e-03
-1.459866994991898537e-03
-4.384460672736167908e-02
1.004506498575210571e-01
-2.213428355753421783e-02
-3.085177764296531677e-02
2.577493712306022644e-02
5.787201225757598877e-02
-1.065655127167701721e-01
-9.664408117532730103e-02
-9.051302820444107056e-02
-2.967668697237968445e-02
-2.830433845520019531e-02
-1.172075420618057251e-01
5.207719281315803528e-02
-3.236022219061851501e-02
6.352807581424713135e-02
-8.342268876731395721e-03
-4.698283597826957703e-02
-9.008388221263885498e-02
-9.977885335683822632e-02
-4.327910766005516052e-02
-1.897185295820236206e-02
3.867873223498463631e-03
-1.201212778687477112e-01
-3.919487644452601671e-04
-9.205791354179382324e-02
4.160346835851669312e-02
2.255513332784175873e-03
-5.735920369625091553e-02
-2.394958585500717163e-02
1.549672521650791168e-02
-3.882819786667823792e-02
-1.964697986841201782e-02
1.529430877417325974e-02
-3.526175767183303833e-02
-1.173603087663650513e-01
-1.068946048617362976e-01
6.892565172165632248e-03
-7.875112933106720448e-04
-3.946360573172569275e-02
-4.858397319912910461e-02
2.357611805200576782e-02
-1.372714191675186157e-01
8.071358501911163330e-02
-8.900693058967590332e-02
-1.542169693857431412e-02
3.069197386503219604e-02
1.662505418062210083e-02
-1.054326072335243225e-01
4.461779445409774780e-02
3.572527319192886353e-02
-4.223917424678802490e-02
2.967961877584457397e-02
-4.809053242206573486e-02
-9.665293991565704346e-02
-3.798508783802390099e-03
4.903947189450263977e-02
-5.068866908550262451e-02
-5.475693568587303162e-02
-1.203936934471130371e-01
-3.925078734755516052e-02
-3.702773898839950562e-02
-3.817364200949668884e-02
-4.636951908469200134e-02
9.429258108139038086e-02
-8.311219513416290283e-02
-4.341358691453933716e-02
3.630978614091873169e-02
-8.961673080921173096e-02
-2.833886072039604187e-02
-3.280403837561607361e-02
-8.388700336217880249e-02
-7.256108522415161133e-02
-8.379673212766647339e-02
-3.304380178451538086e-02
3.003612719476222992e-02
2.322896383702754974e-02
-3.886964172124862671e-02
-1.061442717909812927e-01
2.387629821896553040e-03
-4.587633535265922546e-02
1.374018378555774689e-02
-3.370409086346626282e-02
-1.158968955278396606e-01
-7.617811113595962524e-02
-1.183183714747428894e-01
3.512775152921676636e-02
-8.416642434895038605e-03
1.876405440270900726e-02
8.911304175853729248e-03
2.638212405145168304e-03
1.940264366567134857e-03
6.770072877407073975e-02
-6.343093514442443848e-02
-1.336686462163925171e-01
-3.787236288189888000e-02
-2.385803870856761932e-02
-8.825682103633880615e-02
-5.900083854794502258e-02
8.174406737089157104e-02
-1.474518030881881714e-01
-1.128851249814033508e-02
-8.677480369806289673e-02
-5.655014514923095703e-02
-1.147359423339366913e-02
-4.860039800405502319e-02
2.324343658983707428e-02
-7.886290550231933594e-02
-1.015634834766387939e-01
-7.513832300901412964e-02
-7.030154019594192505e-02
-3.909006714820861816e-02
-7.337575405836105347e-02
-6.131771951913833618e-03
4.465807229280471802e-02
-4.585676640272140503e-02
-4.339260980486869812e-02
-6.812188774347305298e-02
-1.185294836759567261e-01
-7.231473922729492188e-02
9.302827715873718262e-02
-1.738615520298480988e-02
-8.567491173744201660e-02
-1.609002798795700073e-02
-3.160476312041282654e-02
1.296779606491327286e-02
-1.364338546991348267e-01
-3.171047568321228027e-02
-1.274682022631168365e-02
-3.400773182511329651e-02
-7.586595416069030762e-02
-4.680293053388595581e-02
-4.903785139322280884e-02
-6.492165476083755493e-02
-3.105729259550571442e-02
-7.556854933500289917e-02
2.564929984509944916e-02
6.290694698691368103e-03
-1.722381263971328735e-02
2.894009090960025787e-02
-1.089653447270393372e-01
-5.145036429166793823e-02
-6.754362583160400391e-02
-6.493406742811203003e-02
-2.554599754512310028e-02
1.859488780610263348e-03
-4.310547932982444763e-02
-1.493044942617416382e-01
1.412749662995338440e-02
1.174904871731996536e-02
-1.204909905791282654e-01
-3.304597223177552223e-03
2.093674801290035248e-02
-6.327264010906219482e-03
-8.353811688721179962e-03
1.582698523998260498e-02
3.916925191879272461e-02
-4.124253988265991211e-02
-5.372440069913864136e-02
-6.045487825758755207e-04
-5.222356691956520081e-02
2.611410990357398987e-02
-3.550075739622116089e-02
-6.164502725005149841e-02
3.735527023673057556e-02
-9.930644184350967407e-02
5.130083858966827393e-02
1.602664217352867126e-02
1.307304762303829193e-02
-6.451366003602743149e-03
-2.688822150230407715e-02
-3.776363283395767212e-02
4.763892386108636856e-03
-7.123326649889349937e-04
2.180732786655426025e-02
-4.576897993683815002e-02
-5.703496932983398438e-02
-3.679274767637252808e-02
7.252354919910430908e-02
-3.099738247692584991e-02
9.775815159082412720e-02
-4.252411052584648132e-02
-8.174607530236244202e-03
-7.751040905714035034e-02
-7.998798787593841553e-02
-4.413000866770744324e-02
8.580952882766723633e-03
-5.692226439714431763e-02
-7.125019282102584839e-02
2.488037012517452240e-02
3.670800104737281799e-02
-7.188900373876094818e-03
-7.037768606096506119e-03
-5.747527256608009338e-02
-8.523177355527877808e-02
-7.099476456642150879e-02
-3.941144049167633057e-02
4.889368638396263123e-02
-1.127906609326601028e-02
-2.946565300226211548e-02
-7.067012786865234375e-02
-3.454868681728839874e-03
4.455433040857315063e-02
-4.875589162111282349e-02
-8.569306880235671997e-02
5.536616966128349304e-02
9.900851175189018250e-03
-8.062434941530227661e-02
7.758740335702896118e-02
2.001025527715682983e-02
-7.593700289726257324e-02
2.820279635488986969e-02
9.776841849088668823e-02
-1.224004700779914856e-01
2.169350534677505493e-02
-1.278941705822944641e-02
-4.053041711449623108e-02
2.996671572327613831e-02
9.746816754341125488e-02
9.582810848951339722e-02
-7.239987701177597046e-02
1.360685448162257671e-03
1.064943522214889526e-02
-8.004513569176197052e-03
1.884592324495315552e-02
-4.102563951164484024e-03
-3.701732307672500610e-02
7.686807960271835327e-02
-4.765229765325784683e-03
2.132687345147132874e-02
9.493213146924972534e-02
-3.224224597215652466e-02
9.091990441083908081e-02
-2.949669957160949707e-02
-3.564713895320892334e-02
2.832268923521041870e-02
2.848514541983604431e-02
-1.247524563223123550e-02
-5.944620817899703979e-02
2.807958610355854034e-02
5.662409588694572449e-02
-8.859547227621078491e-02
1.408670470118522644e-02
4.746515769511461258e-03
-6.168257072567939758e-02
-7.652027159929275513e-02
7.186979521065950394e-03
1.317462921142578125e-01
-4.699980467557907104e-02
-1.248528957366943359e-01
-1.126917749643325806e-01
-1.139093041419982910e-01
2.636912837624549866e-02
-6.396553665399551392e-02
-7.853802293539047241e-02
6.401568651199340820e-02
-4.082237929105758667e-02
-1.399800330400466919e-01
-7.683070749044418335e-02
-3.006295114755630493e-02
-3.658192604780197144e-02
-8.747874945402145386e-02
1.233260892331600189e-02
-3.823466598987579346e-02
-2.877260558307170868e-03
-3.945164009928703308e-02
1.446662470698356628e-03
-1.008517947047948837e-02
-1.547935698181390762e-02
7.509060949087142944e-02
-3.884372860193252563e-02
6.572887301445007324e-02
2.041783183813095093e-02
-6.287264078855514526e-02
-6.511230021715164185e-02
-2.232627011835575104e-02
-1.038716807961463928e-01
5.162611976265907288e-02
-4.460178315639495850e-02
2.182924933731555939e-02
-8.707173168659210205e-02
4.040861502289772034e-02
9.831447899341583252e-02
-4.234069585800170898e-02
-1.935122162103652954e-02
6.593991070985794067e-02
-4.914722591638565063e-02
-5.006290599703788757e-02
3.586205421015620232e-03
9.854262461885809898e-04
-5.979029461741447449e-02
4.626241698861122131e-02
4.781087860465049744e-03
-3.924847394227981567e-02
-6.984730251133441925e-03
-6.243188679218292236e-02
-7.662034034729003906e-02
3.121268935501575470e-02
4.543606564402580261e-02
-9.611330181360244751e-02
-5.317239090800285339e-02
2.132179588079452515e-02
-5.512958765029907227e-02
6.372936069965362549e-02
-1.900347694754600525e-02
-5.303849652409553528e-02
-2.283106930553913116e-02
-2.287295460700988770e-02
4.258028417825698853e-02
-3.735382482409477234e-02
5.357253178954124451e-02
1.309411041438579559e-02
-4.367677122354507446e-02
-2.754786238074302673e-02
2.412291429936885834e-02
1.659088581800460815e-02
-3.653267864137887955e-03
2.247053012251853943e-02
-7.077774405479431152e-02
3.092242404818534851e-02
1.205184217542409897e-02
-1.585833914577960968e-02
-3.962832316756248474e-02
1.348823774605989456e-02
2.197816222906112671e-02
-7.359228283166885376e-02
4.516553506255149841e-02
1.801922218874096870e-03
2.148444019258022308e-02
1.166232973337173462e-01
5.036056786775588989e-02
-1.027647685259580612e-02
-9.549681097269058228e-02
3.087766654789447784e-02
5.565231665968894958e-02
1.044800505042076111e-01
2.334366366267204285e-02
7.162461429834365845e-02
-1.723131351172924042e-02
1.716524176299571991e-02
-6.607691198587417603e-02
6.533395498991012573e-02
-1.844620518386363983e-02
4.423939436674118042e-02
-8.424247056245803833e-02
3.176398575305938721e-02
-4.206064343452453613e-02
-8.206810057163238525e-02
-6.344700814224779606e-04
6.878882180899381638e-03
4.292848706245422363e-02
-3.021249920129776001e-02
2.915362827479839325e-02
4.607126116752624512e-02
-7.234418392181396484e-02
1.001814845949411392e-03
1.646383316256105900e-03
-9.170541539788246155e-03
4.197968170046806335e-02
1.813296694308519363e-03
-3.834656998515129089e-02
-8.561523258686065674e-02
-8.101790398359298706e-02
4.651802405714988708e-02
7.448995113372802734e-02
-3.784897178411483765e-02
-1.395469605922698975e-01
7.279472891241312027e-03
1.075567230582237244e-01
-2.935054525732994080e-02
1.118824351578950882e-03
-1.932509243488311768e-01
-3.456103801727294922e-02
-4.330754652619361877e-02
2.396668493747711182e-02
3.834582492709159851e-02
-3.752580657601356506e-02
3.513870760798454285e-03
-2.945693768560886383e-02
-6.302362773567438126e-03
1.978447474539279938e-02
-2.819694019854068756e-02
-3.351512132212519646e-03
-6.520406901836395264e-02
5.420615151524543762e-02
-6.550252437591552734e-02
-6.646533310413360596e-02
-4.787538945674896240e-02
-7.289090752601623535e-02
-1.955998316407203674e-02
-2.247909549623727798e-03
-7.229720056056976318e-02
3.471511602401733398e-02
-1.180101092904806137e-02
7.177976518869400024e-02
3.855387866497039795e-02
1.638924889266490936e-02
6.924913823604583740e-02
-6.094245612621307373e-02
5.320109799504280090e-02
-2.202630043029785156e-03
-1.044148672372102737e-02
4.214458540081977844e-02
4.947867244482040405e-02
3.200286254286766052e-02
-6.198444589972496033e-02
-1.138038281351327896e-02
-1.148616969585418701e-01
2.635596506297588348e-02
3.766060620546340942e-02
-1.992242410778999329e-02
-6.271542608737945557e-02
8.608324825763702393e-02
2.539641410112380981e-02
2.160632424056529999e-02
6.314310431480407715e-02
-1.547263003885746002e-02
3.841695934534072876e-02
4.379105195403099060e-02
-1.385124325752258301e-01
-1.478697732090950012e-02
5.503942072391510010e-02
5.030138790607452393e-02
-6.865855306386947632e-02
3.406073153018951416e-02
1.358215361833572388e-01
9.366031736135482788e-05
5.144301429390907288e-02
-1.617829315364360809e-03
-5.367392674088478088e-02
2.204119786620140076e-02
9.851698577404022217e-02
4.498381540179252625e-02
3.457760810852050781e-02
3.613805025815963745e-02
7.693045586347579956e-02
6.837026029825210571e-02
2.154327556490898132e-02
-1.081377267837524414e-03
-5.822069942951202393e-02
6.643624603748321533e-02
-6.771488115191459656e-03
-2.137650176882743835e-02
-8.919426240026950836e-03
1.873842813074588776e-02
1.097837314009666443e-01
1.350577338598668575e-03
-2.533278893679380417e-03
-3.927204385399818420e-02
3.425098955631256104e-02
6.388916075229644775e-02
2.001203410327434540e-02
6.044227629899978638e-02
6.559213250875473022e-02
6.279151141643524170e-02
4.433750733733177185e-02
-2.132711699232459068e-03
5.358414724469184875e-02
8.071613311767578125e-02
6.831999868154525757e-02
7.676645368337631226e-02
5.768713355064392090e-02
9.346516430377960205e-02
3.499538823962211609e-02
4.476259276270866394e-02
1.197205558419227600e-01
-5.070554092526435852e-03
-1.970994472503662109e-02
3.189260140061378479e-02
7.473657280206680298e-02
8.416970819234848022e-02
-2.750246040523052216e-02
8.004308491945266724e-02
-1.026215218007564545e-02
-2.969320677220821381e-02
-6.230457220226526260e-03
5.575284734368324280e-02
2.755662240087985992e-02
5.572648253291845322e-03
-7.218158990144729614e-02
6.934164464473724365e-02
-6.980873644351959229e-03
8.988748490810394287e-02
-1.307159289717674255e-02
-1.412239670753479004e-02
-2.597314864397048950e-02
-3.683616640046238899e-03
1.564079709351062775e-02
7.509417831897735596e-02
5.066658370196819305e-03
-9.985006600618362427e-02
7.758411765098571777e-02
2.597262151539325714e-02
-7.505333516746759415e-03
-1.512449514120817184e-02
7.657699286937713623e-02
3.928786143660545349e-02
1.927090808749198914e-02
5.396500229835510254e-03
-7.334573566913604736e-02
2.468179352581501007e-02
2.770121209323406219e-02
-2.441393025219440460e-02
-5.126884579658508301e-02
4.878676682710647583e-02
-7.065203972160816193e-03
2.147841267287731171e-02
6.101561244577169418e-03
7.905460894107818604e-02
-2.051659859716892242e-02
2.862418070435523987e-03
-1.826166757382452488e-03
-2.689688652753829956e-02
8.446291834115982056e-02
4.467709362506866455e-02
1.543190237134695053e-02
1.201436668634414673e-01
-6.051741167902946472e-02
8.545494824647903442e-02
-2.933780290186405182e-02
1.383354961872100830e-01
-8.658459782600402832e-02
9.363654069602489471e-03
2.283402532339096069e-02
-7.910970598459243774e-04
9.996087756007909775e-04
-3.813685849308967590e-02
8.963516354560852051e-02
4.980228096246719360e-02
1.122983023524284363e-01
1.219271961599588394e-02
-1.179991196841001511e-02
6.629818677902221680e-02
8.536997437477111816e-02
5.258398130536079407e-02
-2.133433939889073372e-03
-7.197566330432891846e-03
7.448070496320724487e-02
-4.594639688730239868e-02
4.436349123716354370e-02
-5.767585709691047668e-02
-5.481388792395591736e-02
-2.489260584115982056e-02
-2.686256915330886841e-02
-3.032432682812213898e-02
-5.259349197149276733e-02
-4.303428530693054199e-02
-3.907656669616699219e-02
6.902003288269042969e-02
5.468368530273437500e-02
7.843109220266342163e-02
8.699812740087509155e-02
1.829603873193264008e-02
2.256827615201473236e-02
9.183155372738838196e-03
5.267628654837608337e-02
1.135574206709861755e-01
-8.427778258919715881e-03
-3.241376206278800964e-02
9.990309923887252808e-02
-5.841952934861183167e-02
1.135916681960225105e-03
3.679384663701057434e-02
-2.407015860080718994e-02
1.735263504087924957e-02
-4.682435840368270874e-02
-2.762585692107677460e-02
5.313598737120628357e-02
4.814339429140090942e-02
-9.198156744241714478e-02
1.528954412788152695e-02
-7.475941628217697144e-02
-5.969857424497604370e-02
6.676585972309112549e-02
1.252045482397079468e-01
9.116330742835998535e-02
1.664793118834495544e-02
1.832406735047698021e-03
-6.097922101616859436e-03
2.210476063191890717e-02
-3.209911659359931946e-02
-3.279365226626396179e-02
6.770119071006774902e-02
-4.851389303803443909e-02
-3.525418043136596680e-02
-1.977152377367019653e-02
-6.174893118441104889e-03
-3.558633849024772644e-02
7.112529873847961426e-02
1.653929203748703003e-01
4.784114286303520203e-02
1.762594468891620636e-02
-9.267517365515232086e-03
-4.860793054103851318e-02
-7.915050536394119263e-02
-5.451106652617454529e-02
-2.910417132079601288e-02
1.596090383827686310e-02
3.227716684341430664e-02
-1.231955662369728088e-01
4.213178530335426331e-02
-4.664428066462278366e-03
9.238835424184799194e-02
4.815125465393066406e-02
4.054291639477014542e-03
-8.098950982093811035e-02
-1.885675452649593353e-02
-4.248524457216262817e-02
1.281490735709667206e-02
-4.955025762319564819e-02
3.545220568776130676e-02
7.096028327941894531e-02
4.039301536977291107e-03
-2.759400568902492523e-02
5.109844356775283813e-02
-3.771922737360000610e-02
-1.935856789350509644e-02
6.494500488042831421e-02
7.456174492835998535e-02
-2.491789311170578003e-02
4.935853183269500732e-02
-9.345535188913345337e-03
3.905491321347653866e-04
8.876797556877136230e-02
-7.162138819694519043e-02
7.222431898117065430e-02
7.458608597517013550e-02
6.773994863033294678e-02
-1.476212684065103531e-02
-1.248065941035747528e-02
8.158712834119796753e-02
9.420569986104965210e-03
3.863598778843879700e-02
-7.616724818944931030e-03
-1.265418529510498047e-01
-4.971905797719955444e-02
3.367605432868003845e-02
7.455698400735855103e-02
5.146303772926330566e-02
-7.026701699942350388e-03
7.094693928956985474e-02
-4.221584647893905640e-02
-7.924637943506240845e-02
1.076163351535797119e-01
-4.405540972948074341e-02
2.159132063388824463e-02
-1.716226525604724884e-02
7.685527950525283813e-02
-8.476114831864833832e-03
7.679985463619232178e-02
3.153978660702705383e-02
5.569509789347648621e-02
-4.020246863365173340e-02
-4.451834037899971008e-02
2.892070077359676361e-02
1.603581622475758195e-04
2.683961018919944763e-02
1.686427742242813110e-02
1.164697632193565369e-01
5.619128793478012085e-02
7.486125826835632324e-02
4.478097707033157349e-02
3.452478349208831787e-02
6.310737878084182739e-02
1.587547920644283295e-02
7.773814350366592407e-02
-4.138138517737388611e-02
5.134434998035430908e-02
4.751500487327575684e-02
-2.676776796579360962e-02
-1.055661365389823914e-01
5.404340103268623352e-02
-7.379176095128059387e-03
1.729463040828704834e-02
3.769316896796226501e-02
4.069950059056282043e-02
2.795479632914066315e-02
