1.813129521906375885e-02
-2.177341096103191376e-02
-3.520068153738975525e-02
-7.485643774271011353e-02
3.247572854161262512e-02
9.904891997575759888e-02
-3.718530060723423958e-03
-6.249876692891120911e-03
-1.238970607519149780e-01
-1.234120652079582214e-01
1.185678988695144653e-01
-2.477619238197803497e-02
-6.302703917026519775e-02
-9.698269888758659363e-03
-7.558806240558624268e-02
4.132923856377601624e-02
4.455408826470375061e-02
-5.483582615852355957e-02
9.223779290914535522e-02
6.221681833267211914e-02
5.212293937802314758e-03
1.116982698440551758e-01
1.073630452156066895e-01
2.349270507693290710e-02
1.665704324841499329e-02
8.860795944929122925e-02
5.129360593855381012e-03
4.052208736538887024e-02
-4.946339875459671021e-02
8.677129633724689484e-03
4.890910536050796509e-02
-9.382516890764236450e-02
-3.250434994697570801e-02
-1.165051013231277466e-01
-7.962375134229660034e-02
-1.028235703706741333e-01
-1.098184213042259216e-01
5.411124601960182190e-02
5.681565031409263611e-02
3.502899408340454102e-02
-7.180982083082199097e-02
1.060021594166755676e-01
-5.802473053336143494e-02
3.017025534063577652e-03
-8.519387990236282349e-02
1.214880123734474182e-01
-2.838933281600475311e-02
8.128243684768676758e-02
9.932944923639297485e-02
4.480641335248947144e-02
5.672637745738029480e-02
3.450964810326695442e-03
4.476164281368255615e-02
6.089818105101585388e-02
-4.477964714169502258e-02
-8.102732896804809570e-02
-1.181777790188789368e-01
-2.930201776325702667e-02
-4.826016351580619812e-02
1.052532792091369629e-01
-1.060434430837631226e-01
-1.020987480878829956e-01
-4.695707932114601135e-02
9.127061814069747925e-02
-5.694548413157463074e-02
8.847241848707199097e-02
7.131554931402206421e-02
1.203596871346235275e-02
-2.298243716359138489e-02
-4.724339023232460022e-02
7.547485083341598511e-02
1.450295094400644302e-02
-1.124169752001762390e-01
6.907949596643447876e-02
1.194252371788024902e-01
5.935496091842651367e-02
-1.208641082048416138e-01
-1.084037050604820251e-01
-6.954234093427658081e-02
6.153980642557144165e-02
-8.461885899305343628e-02
9.584689885377883911e-02
3.696136176586151123e-02
-6.140330433845520020e-02
-1.150521263480186462e-01
2.977355569601058960e-02
-6.879352778196334839e-02
-3.791112080216407776e-02
-3.455216065049171448e-03
-4.971165210008621216e-02
7.113877683877944946e-02
-1.062126131728291512e-03
-6.852415204048156738e-02
-3.167051449418067932e-02
1.081483513116836548e-01
-7.582081016153097153e-03
-4.448042064905166626e-02
-8.001082390546798706e-02
3.415056318044662476e-02
-8.326511830091476440e-03
-6.097301468253135681e-02
-5.923549830913543701e-02
-4.914134275168180466e-03
1.228438764810562134e-01
7.326576113700866699e-02
3.726835921406745911e-02
-3.179290099069476128e-03
-2.439984306693077087e-02
9.665134549140930176e-02
-3.629142045974731445e-02
2.283785725012421608e-04
-1.067284420132637024e-01
1.190955564379692078e-02
-1.185161173343658447e-01
3.824710473418235779e-02
9.389786422252655029e-02
1.235327571630477905e-01
-7.068363577127456665e-02
-9.467517584562301636e-02
-9.156842529773712158e-02
9.455099701881408691e-02
-8.394850790500640869e-02
1.658816821873188019e-02
8.163480460643768311e-02
-2.825752459466457367e-02
-7.295209914445877075e-02
4.174543917179107666e-02
-8.841864764690399170e-02
