-3.093921579420566559e-03
-5.165616516023874283e-03
1.145603600889444351e-02
-3.018870484083890915e-03
1.833572518080472946e-03
1.254661660641431808e-02
2.377293538302183151e-03
9.582379832863807678e-03
1.897305995225906372e-02
6.208873674040660262e-05
-3.246797015890479088e-03
-1.106762792915105820e-02
8.094076067209243774e-03
3.369252430275082588e-03
5.098918452858924866e-03
2.373360563069581985e-03
1.188501343131065369e-02
8.060106076300144196e-03
3.893200075253844261e-03
3.697762964293360710e-03
9.652258828282356262e-03
-6.912968819960951805e-04
4.067828122060745955e-04
1.151671260595321655e-02
7.699350360780954361e-03
1.480939798057079315e-02
1.096254121512174606e-02
-2.046400913968682289e-03
-2.109715947881340981e-03
3.722684457898139954e-03
2.408335916697978973e-03
-7.817205972969532013e-03
1.007170695811510086e-02
7.883206009864807129e-03
1.073892135173082352e-02
4.493230953812599182e-04
-5.371711449697613716e-04
-6.211445434018969536e-04
-5.294557195156812668e-04
1.466965116560459137e-02
4.092619754374027252e-03
-8.902985602617263794e-03
-1.174118649214506149e-02
7.849260233342647552e-03
7.831512950360774994e-03
1.619626022875308990e-02
7.819121703505516052e-03
4.930650349706411362e-03
1.251695118844509125e-02
1.528066932223737240e-03
8.484921418130397797e-03
1.532549224793910980e-02
1.296219415962696075e-02
4.617311991751194000e-03
1.340867672115564346e-02
2.589432522654533386e-03
-2.072838693857192993e-02
-2.702462254092097282e-03
1.305196899920701981e-02
1.020729728043079376e-02
1.609130017459392548e-02
1.165330782532691956e-02
1.604951359331607819e-02
1.497819274663925171e-02
