2.691749632358551025e-01
2.595240175724029541e-01
-1.208573281764984131e-01
-1.161644831299781799e-01
5.772432684898376465e-01
4.670910537242889404e-01
-3.202006816864013672e-01
1.754626929759979248e-01
-7.397715002298355103e-02
1.415681540966033936e-01
1.933593153953552246e-01
5.690813064575195312e-01
-4.431563913822174072e-01
4.155126214027404785e-01
1.404717713594436646e-01
2.482567913830280304e-03
-1.387901753187179565e-01
1.122533082962036133e-01
-2.920915484428405762e-01
5.033956170082092285e-01
4.115723073482513428e-01
3.805962800979614258e-01
2.549805939197540283e-01
-3.182551264762878418e-01
-1.755442768335342407e-01
-5.294719338417053223e-01
-3.750031292438507080e-01
6.271525472402572632e-02
3.960868120193481445e-01
1.635129749774932861e-01
2.906811535358428955e-01
1.293061673641204834e-01
2.745060324668884277e-01
-2.449608594179153442e-01
7.644208520650863647e-02
5.441762208938598633e-01
-3.619873821735382080e-01
-2.178665846586227417e-01
1.694975495338439941e-01
-5.203335881233215332e-01
-4.815603494644165039e-01
-2.626891136169433594e-01
1.423525810241699219e-01
-2.505013644695281982e-01
-4.016367793083190918e-01
4.056536778807640076e-02
-1.348508149385452271e-01
5.823889374732971191e-01
6.662976741790771484e-02
4.799343049526214600e-01
1.856947243213653564e-01
2.627690732479095459e-01
2.409854978322982788e-01
-5.350084900856018066e-01
5.827319025993347168e-01
-3.253693282604217529e-01
-3.247632980346679688e-01
-3.760845065116882324e-01
-2.850732803344726562e-01
6.027461960911750793e-02
4.121383726596832275e-01
3.314952552318572998e-01
4.638884682208299637e-03
-2.750965952873229980e-01
-3.940432369709014893e-01
1.637309640645980835e-01
-2.189050167798995972e-01
-2.313330024480819702e-01
3.461096584796905518e-01
3.183271288871765137e-01
-4.996971487998962402e-01
-1.474663019180297852e-01
5.279709100723266602e-01
2.916495203971862793e-01
-1.356639117002487183e-01
-8.399961888790130615e-02
4.540745615959167480e-01
-4.946729540824890137e-01
-2.354082018136978149e-01
-4.130832552909851074e-01
3.742069005966186523e-01
-5.151407718658447266e-01
-4.732891917228698730e-01
3.361125588417053223e-01
-2.731738090515136719e-01
1.535025089979171753e-01
4.546069204807281494e-01
-5.147951245307922363e-01
-3.470405042171478271e-01
3.179847300052642822e-01
5.073848962783813477e-01
5.530227422714233398e-01
1.154126003384590149e-01
2.305403649806976318e-01
-2.429683655500411987e-01
1.937215179204940796e-01
-3.490339592099189758e-02
-2.002137005329132080e-01
4.018020927906036377e-01
-5.525633096694946289e-01
3.522167503833770752e-01
-3.156981468200683594e-01
-2.839516103267669678e-01
4.793050289154052734e-01
4.573665559291839600e-01
1.029762327671051025e-01
4.696921408176422119e-01
3.628314658999443054e-02
4.801900684833526611e-01
3.062001466751098633e-01
4.056017100811004639e-01
8.905632421374320984e-03
-1.125578805804252625e-01
4.882079660892486572e-01
-1.497672945261001587e-01
-3.400357067584991455e-01
1.278486400842666626e-01
-4.851530194282531738e-01
-7.282882928848266602e-02
5.175915732979774475e-02
-5.281397104263305664e-01
-4.838088750839233398e-01
5.007911324501037598e-01
1.747302524745464325e-02
-5.233425498008728027e-01
-3.614790141582489014e-01
4.828178882598876953e-01
-3.227784764021635056e-03
4.735181033611297607e-01
4.272886216640472412e-01
-2.543393522500991821e-02
5.360376462340354919e-02
5.087163448333740234e-01
-2.657569944858551025e-01
3.345727920532226562e-01
-2.424325793981552124e-01
4.833829402923583984e-01
1.465681791305541992e-01
-3.349851667881011963e-01
-2.759732007980346680e-01
2.673623859882354736e-01
2.468843460083007812e-01
2.068142965435981750e-02
-1.443017721176147461e-01
-1.015276089310646057e-01
-7.373350113630294800e-02
1.186843812465667725e-01
-2.318567186594009399e-01
-3.269160091876983643e-01
2.896623015403747559e-01
-7.753765583038330078e-02
3.457105457782745361e-01
-1.125525534152984619e-01
3.059406280517578125e-01
-3.835832178592681885e-01
3.397916257381439209e-01
-1.831890344619750977e-01
9.333638101816177368e-02
-5.331622362136840820e-01
3.438434302806854248e-01
-1.598847955465316772e-01
2.642383277416229248e-01
-5.293894410133361816e-01
4.426957070827484131e-01
-1.358347684144973755e-01
-2.736852765083312988e-01
-1.846848130226135254e-01
-1.618041098117828369e-01
5.693561211228370667e-02
5.281283855438232422e-01
-4.603777825832366943e-01
2.801310122013092041e-01
-2.110026776790618896e-01
5.556147098541259766e-01
-5.203308463096618652e-01
2.988221645355224609e-01
3.606888949871063232e-01
-3.963936865329742432e-01
2.112684100866317749e-01
-2.776818573474884033e-01
-3.943518400192260742e-01
-2.418332099914550781e-01
5.289445519447326660e-01
3.629446327686309814e-01
2.539022080600261688e-02
-1.962415687739849091e-02
-1.657187342643737793e-01
-1.883732974529266357e-01
3.443293273448944092e-02
-1.695546507835388184e-01
1.604600101709365845e-01
-7.243272662162780762e-02
