3.627787828445434570e-01
-4.466715753078460693e-01
-3.445108234882354736e-01
-1.834581196308135986e-01
-4.272685199975967407e-02
-3.378369808197021484e-01
1.643329486250877380e-02
1.479556113481521606e-01
5.343360900878906250e-01
3.060632348060607910e-01
-4.444817304611206055e-01
6.051481366157531738e-01
-4.328164160251617432e-01
-4.152783006429672241e-02
-5.594795942306518555e-01
5.312179028987884521e-02
3.361011743545532227e-01
-1.362223178148269653e-01
5.109804868698120117e-01
-4.051025509834289551e-01
-3.699278533458709717e-01
5.163321495056152344e-01
-4.635923206806182861e-01
5.000739097595214844e-01
3.364818394184112549e-01
-3.472338616847991943e-01
4.170739650726318359e-01
-3.863384947180747986e-02
4.108774662017822266e-01
1.258050799369812012e-01
-6.952564418315887451e-02
-2.443397343158721924e-01
1.606707423925399780e-01
-1.275483798235654831e-02
2.949700653553009033e-01
-1.394604146480560303e-01
-2.214891910552978516e-01
-1.102080196142196655e-01
3.644364476203918457e-01
-4.488970041275024414e-01
-6.132732629776000977e-01
2.320097573101520538e-02
8.280318230390548706e-03
-2.936115264892578125e-01
3.181334212422370911e-02
-1.090206801891326904e-01
1.683046519756317139e-01
-2.501029670238494873e-01
3.316599726676940918e-01
-9.674865007400512695e-02
-5.237742662429809570e-01
-5.324441194534301758e-01
-5.748838186264038086e-01
-3.758501410484313965e-01
-2.326668053865432739e-02
-5.841466784477233887e-01
4.040479063987731934e-01
-5.163483619689941406e-01
6.228369846940040588e-02
-2.279139906167984009e-01
1.453052610158920288e-01
-5.004942417144775391e-01
1.881816536188125610e-01
4.398106932640075684e-01
2.520725131034851074e-01
3.059914410114288330e-01
-2.837202847003936768e-01
4.204761981964111328e-01
-5.862897038459777832e-01
-9.491799026727676392e-02
-3.067698329687118530e-02
-4.246641695499420166e-01
-4.594504535198211670e-01
2.660286426544189453e-01
4.817296266555786133e-01
1.668457835912704468e-01
4.295652359724044800e-02
-5.700316429138183594e-01
-4.040438532829284668e-01
-6.630852073431015015e-02
-4.894309341907501221e-01
-2.586764693260192871e-01
-5.332874655723571777e-01
5.092177987098693848e-01
2.317782789468765259e-01
4.151316881179809570e-01
4.853005111217498779e-01
2.858105599880218506e-01
-2.217458784580230713e-01
-7.436163723468780518e-02
1.779685318470001221e-01
4.272245764732360840e-01
-6.461831331253051758e-01
1.143696680665016174e-01
3.184650540351867676e-01
-7.345834374427795410e-02
9.662143886089324951e-02
-2.418027967214584351e-01
3.596421182155609131e-01
3.731759190559387207e-01
7.556588947772979736e-02
-2.281061261892318726e-01
-5.868613719940185547e-02
-2.111840248107910156e-02
3.994379043579101562e-01
-1.054306514561176300e-02
-2.995592653751373291e-01
2.153655141592025757e-01
6.822548061609268188e-02
-3.958517611026763916e-01
7.028783112764358521e-02
1.726134568452835083e-01
5.109855532646179199e-01
-4.227847456932067871e-01
3.830645978450775146e-01
2.354471832513809204e-01
2.574137747287750244e-01
-1.737713217735290527e-01
-3.166130930185317993e-02
-2.678512930870056152e-01
-2.770837545394897461e-01
3.260999619960784912e-01
2.024708837270736694e-01
-3.051503896713256836e-01
2.590626776218414307e-01
-3.802037835121154785e-01
1.350901126861572266e-01
-2.675355374813079834e-01
-1.542636305093765259e-01
3.498547673225402832e-01
-2.784422934055328369e-01
-5.309803485870361328e-01
4.848676621913909912e-01
5.243422389030456543e-01
2.420433610677719116e-01
-1.298534423112869263e-01
1.853989362716674805e-01
4.661896824836730957e-01
-2.201010435819625854e-01
4.358021318912506104e-01
-4.535052776336669922e-01
-1.930456906557083130e-01
2.661820054054260254e-01
-2.217469960451126099e-01
-2.406642436981201172e-01
2.908686697483062744e-01
-3.981249034404754639e-01
2.531373128294944763e-02
3.991752862930297852e-03
2.897212505340576172e-01
-7.986491918563842773e-02
-1.530113220214843750e-01
4.935075044631958008e-01
4.958870261907577515e-02
1.336581725627183914e-02
-5.062699317932128906e-01
1.363819688558578491e-01
8.204948157072067261e-02
-2.670321464538574219e-01
-2.905097901821136475e-01
-7.780016213655471802e-02
-5.318746566772460938e-01
4.027026891708374023e-01
-2.250555008649826050e-01
-5.671412944793701172e-01
-2.526159211993217468e-02
4.302165508270263672e-01
2.486507780849933624e-02
3.360313475131988525e-01
-1.752473115921020508e-01
-2.016105204820632935e-01
5.955333262681961060e-02
-4.054004251956939697e-01
7.207076251506805420e-02
-3.026699088513851166e-02
5.044983029365539551e-01
5.487212538719177246e-02
-2.945708632469177246e-01
1.803841441869735718e-01
3.654458224773406982e-01
-3.526127636432647705e-01
2.056571394205093384e-01
-2.989687621593475342e-01
-2.897633016109466553e-01
3.857913613319396973e-01
-5.346860885620117188e-01
1.140729188919067383e-01
-3.284883499145507812e-01
-4.152372777462005615e-01
2.289368212223052979e-01
8.162772655487060547e-02
4.059062004089355469e-01
