-6.453029811382293701e-03
-1.101175043731927872e-02
-1.029006298631429672e-02
-1.420532260090112686e-02
-5.305044818669557571e-03
-2.642281912267208099e-02
2.682603895664215088e-02
-1.562583819031715393e-02
1.004008576273918152e-03
-5.344036500900983810e-03
-1.738777756690979004e-02
-6.297053303569555283e-03
2.276647277176380157e-02
7.123711518943309784e-03
2.956478856503963470e-02
-7.421920308843255043e-04
2.604150958359241486e-02
-1.024908293038606644e-02
5.230470560491085052e-04
4.686057567596435547e-03
2.995602041482925415e-02
2.818113937973976135e-02
-3.116836957633495331e-02
2.263984270393848419e-02
-1.874353364109992981e-02
-1.426195842213928699e-03
-1.757452823221683502e-02
6.304102018475532532e-03
-2.198061719536781311e-02
2.114744856953620911e-03
1.293565239757299423e-02
-2.536263316869735718e-02
1.931665837764739990e-02
3.713026875630021095e-03
1.979472115635871887e-02
-3.929942380636930466e-03
-1.852942630648612976e-02
2.021981962025165558e-02
-2.863476611673831940e-02
2.310500852763652802e-02
-2.758717909455299377e-02
-1.039372384548187256e-02
2.295832894742488861e-02
-2.734629623591899872e-02
5.371570121496915817e-03
-2.130654267966747284e-02
-7.306987885385751724e-03
-2.910637110471725464e-02
9.621714241802692413e-03
-1.707218587398529053e-02
1.818382181227207184e-02
2.483821474015712738e-02
-4.159870557487010956e-03
8.574166335165500641e-03
1.834491826593875885e-02
-2.793069928884506226e-02
2.784689702093601227e-02
7.160274777561426163e-03
1.463107881136238575e-03
-1.504402235150337219e-02
1.479311659932136536e-02
-9.303811937570571899e-03
1.574982702732086182e-02
1.219512987881898880e-02
-1.472639385610818863e-02
2.478884346783161163e-02
2.316435426473617554e-02
-1.254822686314582825e-02
1.334713865071535110e-02
5.081227980554103851e-03
-2.847439143806695938e-03
2.998840622603893280e-02
2.781217731535434723e-02
1.328122802078723907e-02
-3.055684454739093781e-02
-2.946903742849826813e-02
2.848629094660282135e-02
1.654372550547122955e-02
-7.375908549875020981e-03
-2.185818552970886230e-02
-2.218091674149036407e-02
-1.556604634970426559e-02
-2.653160504996776581e-02
1.340654585510492325e-02
1.744026131927967072e-02
4.626821726560592651e-03
-1.638540811836719513e-02
-1.946556009352207184e-02
-1.551057025790214539e-02
-2.790399268269538879e-02
-1.462228968739509583e-02
2.117600105702877045e-02
1.673560938797891140e-03
-2.496993169188499451e-02
7.979732006788253784e-03
1.241386216133832932e-02
1.769265346229076385e-02
9.828879265114665031e-04
-2.600940689444541931e-02
8.547103032469749451e-03
2.823674306273460388e-02
-2.839425764977931976e-02
-1.205629669129848480e-02
8.337280014529824257e-04
2.280107513070106506e-02
-1.315764966420829296e-03
2.792597934603691101e-02
2.043978869915008545e-02
3.027413785457611084e-02
1.156281307339668274e-02
-1.974093355238437653e-02
-6.620385684072971344e-03
1.710257120430469513e-02
2.740748971700668335e-02
2.377774380147457123e-02
-2.933030202984809875e-02
1.034170389175415039e-02
-2.697372622787952423e-02
-1.416142936795949936e-02
9.067301638424396515e-03
2.570801042020320892e-02
-5.002285353839397430e-03
-4.316337406635284424e-03
2.045099064707756042e-02
-2.119963057339191437e-02
-2.660014107823371887e-02
2.096993289887905121e-02
2.257161214947700500e-02
1.222038641571998596e-03
-2.842689678072929382e-02
1.836756058037281036e-02
-9.572848677635192871e-03
-1.533902063965797424e-02
1.704095676541328430e-02
-9.908365085721015930e-03
4.765627905726432800e-03
2.829832211136817932e-02
-3.012020140886306763e-02
-2.423534914851188660e-02
9.748115553520619869e-04
2.395442314445972443e-02
-1.596776954829692841e-02
9.414161555469036102e-03
-3.468076698482036591e-03
-1.394616533070802689e-02
6.083217449486255646e-03
1.721056737005710602e-02
-1.451593916863203049e-02
-9.912714362144470215e-03
-2.552676387131214142e-02
-1.046606432646512985e-02
3.069174475967884064e-02
-1.690577343106269836e-02
1.101166568696498871e-02
1.907942816615104675e-02
-1.368624344468116760e-02
-1.571358554065227509e-02
1.785098761320114136e-02
8.019612170755863190e-03
1.141784992069005966e-02
2.153068222105503082e-02
-1.581815257668495178e-02
-3.068890422582626343e-02
-6.417599041014909744e-03
-4.975803196430206299e-03
9.097756817936897278e-03
-2.898775599896907806e-02
2.385320328176021576e-02
-2.123688464052975178e-04
3.517310135066509247e-03
-1.149414572864770889e-02
-1.600565761327743530e-02
-2.868858352303504944e-02
3.051501326262950897e-02
-8.311006240546703339e-03
-1.525464351288974285e-03
1.882309908978641033e-03
1.398093812167644501e-02
-9.396275505423545837e-03
-7.689391262829303741e-03
-1.603390835225582123e-02
5.555109819397330284e-04
-8.886570110917091370e-03
2.317577786743640900e-02
9.353483095765113831e-03
7.314976770430803299e-03
1.974127441644668579e-02
-1.416075392626225948e-03
1.222844608128070831e-02
2.578816562891006470e-02
-1.264259405434131622e-02
2.712260372936725616e-02
-2.227669768035411835e-02
2.920006774365901947e-02
1.867774501442909241e-02
1.499882899224758148e-02
-1.915561966598033905e-02
4.845105111598968506e-03
1.877158135175704956e-02
-5.215757992118597031e-03
-1.968581788241863251e-02
-3.121671825647354126e-02
2.362845838069915771e-02
2.909099310636520386e-02
-1.742977648973464966e-02
-5.857231444679200649e-04
2.313615009188652039e-02
2.430548332631587982e-02
1.986118732020258904e-03
3.082156367599964142e-02
-5.430917255580425262e-03
-5.142758134752511978e-03
5.345098674297332764e-03
7.169800228439271450e-04
-1.825596205890178680e-02
8.114850148558616638e-03
-5.447943694889545441e-04
-2.678873576223850250e-02
3.705667564645409584e-03
2.711909636855125427e-02
-2.976214454974979162e-04
2.156657725572586060e-02
-3.052872791886329651e-02
-2.246815897524356842e-02
1.122756581753492355e-02
-2.494654804468154907e-02
-2.901468612253665924e-02
1.572555117309093475e-02
1.592259109020233154e-02
-3.476632409729063511e-04
-2.064262889325618744e-02
1.707001402974128723e-02
-8.756303228437900543e-03
4.391474183648824692e-03
4.094068426638841629e-04
-1.795338653028011322e-02
-5.463177338242530823e-03
-3.060180461034178734e-03
2.487620338797569275e-02
-4.591997247189283371e-03
-3.472867887467145920e-03
8.203886449337005615e-03
2.287700399756431580e-02
-1.951764896512031555e-02
-2.138070575892925262e-02
-8.481795899569988251e-03
-2.630494907498359680e-02
-3.314855042845010757e-03
2.238839492201805115e-02
3.113535791635513306e-02
-1.653162203729152679e-02
1.080979872494935989e-02
-7.062477525323629379e-03
4.832734353840351105e-03
-3.331105224788188934e-03
1.402981299906969070e-02
-1.414387021213769913e-02
1.273578032851219177e-02
3.478457918390631676e-03
8.256454020738601685e-03
8.632897399365901947e-03
2.221595495939254761e-02
2.839453332126140594e-02
-6.362556945532560349e-03
1.146564818918704987e-02
1.615143939852714539e-02
2.863710001111030579e-02
1.348122395575046539e-02
1.060248818248510361e-02
1.315821241587400436e-02
-3.339412389323115349e-03
-2.333364263176918030e-02
-2.302702330052852631e-02
-1.221413817256689072e-02
-3.597808245103806257e-04
2.407594770193099976e-02
6.966626271605491638e-03
1.160447858273983002e-02
-2.919128723442554474e-02
1.935814507305622101e-02
2.208517491817474365e-02
3.040014021098613739e-02
-2.258936688303947449e-02
1.994834840297698975e-02
-6.109002977609634399e-03
-2.160603739321231842e-02
1.166511606425046921e-02
-2.366631291806697845e-02
6.347560323774814606e-03
-2.027288777753710747e-03
8.961938438005745411e-04
-4.188543243799358606e-04
7.855016738176345825e-03
-1.994811184704303741e-02
-1.646036095917224884e-02
2.863090485334396362e-02
2.286831475794315338e-02
1.185682602226734161e-02
-1.616046391427516937e-02
-4.038010258227586746e-03
-2.266491996124386787e-03
-3.803144441917538643e-03
-5.968845915049314499e-03
4.797596484422683716e-03
2.463602088391780853e-02
-4.261539783328771591e-03
-2.751527354121208191e-03
1.493435353040695190e-02
3.007790818810462952e-02
2.899087034165859222e-02
2.702935039997100830e-02
2.996794693171977997e-02
-2.884984575212001801e-02
6.870614364743232727e-03
2.876532077789306641e-02
-2.497474104166030884e-02
1.507812645286321640e-02
-2.323529496788978577e-02
-1.129155885428190231e-02
1.246800087392330170e-02
2.836958691477775574e-02
-6.310483440756797791e-03
-1.630451716482639313e-02
1.540064811706542969e-02
-2.199630253016948700e-02
1.684879697859287262e-02
-1.206273399293422699e-02
-1.141529623419046402e-02
2.336827293038368225e-02
2.830346673727035522e-02
1.335640344768762589e-02
-2.233038656413555145e-02
-2.508868696168065071e-03
-2.522741444408893585e-02
3.069982863962650299e-03
2.975645102560520172e-02
9.244704619050025940e-03
-9.291023015975952148e-03
-1.048791967332363129e-02
-1.240983977913856506e-02
-2.425294928252696991e-02
6.397826131433248520e-03
3.157373284921050072e-03
-2.537250332534313202e-02
3.476579731795936823e-04
1.300760637968778610e-02
-2.679941430687904358e-02
-3.009721112903207541e-04
-2.706370316445827484e-02
-2.923981659114360809e-02
-8.265902288258075714e-04
-1.618779823184013367e-02
-1.657550223171710968e-02
3.105448186397552490e-02
1.384577131830155849e-03
-3.242004197090864182e-03
1.424128655344247818e-02
1.464727055281400681e-02
-3.092874214053153992e-02
-2.546482160687446594e-02
2.010482922196388245e-02
-1.731491275131702423e-02
2.631194703280925751e-02
2.774080075323581696e-02
3.120247507467865944e-03
1.348209008574485779e-02
1.847629062831401825e-02
2.111227624118328094e-02
2.885731495916843414e-02
2.320357412099838257e-02
1.231421995908021927e-02
-1.870396919548511505e-02
-2.146215364336967468e-02
1.639974676072597504e-02
2.453861013054847717e-02
-2.905600517988204956e-02
-1.205036509782075882e-02
2.851989865303039551e-02
-2.827880717813968658e-02
-2.280278503894805908e-02
-1.701807789504528046e-02
-2.488863095641136169e-02
-3.125624498352408409e-03
-2.999622188508510590e-02
2.469515986740589142e-02
-9.672029875218868256e-03
2.698819525539875031e-02
1.073966454714536667e-02
-1.661255583167076111e-02
-1.320434361696243286e-02
-7.130996789783239365e-03
-1.732606999576091766e-02
9.354534558951854706e-03
1.319235377013683319e-02
5.120388232171535492e-03
5.578470416367053986e-03
2.998064085841178894e-02
-8.282049559056758881e-03
3.106519579887390137e-03
-1.911604218184947968e-02
-8.382824249565601349e-03
1.880267076194286346e-02
3.578787436708807945e-04
-2.805022988468408585e-03
1.823562942445278168e-02
1.580059714615345001e-02
2.144734002649784088e-02
-1.199168339371681213e-02
-1.176008023321628571e-02
-1.542701106518507004e-02
-1.188056450337171555e-02
-1.914045028388500214e-02
1.721086353063583374e-02
-2.848303643986582756e-03
-2.031014300882816315e-02
-1.117440499365329742e-02
-1.346774771809577942e-02
8.037051185965538025e-03
-1.074943318963050842e-02
1.827398687601089478e-02
1.885047927498817444e-02
-7.435876410454511642e-03
-1.222122088074684143e-02
-2.166103012859821320e-02
5.470340140163898468e-03
1.856283284723758698e-02
-3.441772889345884323e-03
2.120961248874664307e-02
-1.215452793985605240e-02
7.492513861507177353e-03
-5.651172250509262085e-03
-2.442609285935759544e-03
3.554219380021095276e-03
7.794374134391546249e-03
-1.794304698705673218e-02
2.735053002834320068e-02
-2.420019544661045074e-02
-2.728294022381305695e-02
-1.904881745576858521e-02
-3.070889785885810852e-02
-1.192230824381113052e-02
-1.344866491854190826e-02
6.286548450589179993e-04
4.205623641610145569e-03
8.197428658604621887e-03
-1.139958761632442474e-02
-1.787980459630489349e-02
1.052743103355169296e-02
5.296631716191768646e-03
-1.710048690438270569e-02
-2.144131250679492950e-02
-2.237350121140480042e-02
2.174793183803558350e-02
6.461310666054487228e-03
-1.019479706883430481e-02
-1.040328759700059891e-03
1.901530101895332336e-02
2.599107101559638977e-02
2.905268222093582153e-02
2.931876108050346375e-02
-2.554460242390632629e-02
6.313897669315338135e-03
-1.333818212151527405e-02
1.196856983006000519e-02
-1.934860832989215851e-02
2.415580861270427704e-02
-3.003897145390510559e-03
-2.405808866024017334e-02
-8.287208620458841324e-04
-2.976309135556221008e-02
1.684543304145336151e-02
-9.968752972781658173e-03
2.398576121777296066e-03
2.567014470696449280e-02
3.498899284750223160e-03
2.287690341472625732e-02
3.068175353109836578e-02
1.668841019272804260e-02
-1.201180648058652878e-02
-2.679339051246643066e-02
9.013493545353412628e-03
1.897751167416572571e-02
1.862956210970878601e-02
-1.859897188842296600e-02
-1.134057808667421341e-02
-2.095575630664825439e-02
9.862263686954975128e-03
-2.765038236975669861e-02
3.006915748119354248e-02
2.460380829870700836e-02
1.374916173517704010e-02
8.387667126953601837e-03
-2.585142850875854492e-02
2.266663312911987305e-02
2.119885571300983429e-02
2.340526692569255829e-02
2.877291478216648102e-02
-9.253353811800479889e-03
4.382934886962175369e-03
1.533109974116086960e-02
2.763877250254154205e-02
-2.910166233777999878e-02
-3.061911789700388908e-03
-6.527460063807666302e-04
-2.292280830442905426e-02
2.767443098127841949e-02
-1.515735872089862823e-02
-1.160258054733276367e-02
-1.996656507253646851e-02
-3.072581067681312561e-02
-2.822571434080600739e-02
-5.896868649870157242e-03
