-5.280817276798188686e-07
3.731678361873491667e-07
2.206503921797775547e-07
-2.808130545872700168e-07
-4.500114698657853296e-07
-6.001785095577361062e-07
8.246856282312364783e-07
1.506248281657462940e-07
1.215463214521150803e-07
-3.332146718548756326e-07
-2.918957306974334642e-07
-3.393192002931755269e-07
5.977363457532192115e-07
-4.647125706469523720e-07
-4.669161910442198860e-07
2.139325516736789723e-07
-2.304715565060178051e-07
-2.077208804962538125e-08
-5.897775281482608989e-07
1.616102593970936141e-07
-6.692844749522919301e-07
-5.218094543124607299e-07
-1.081403638636402320e-06
1.582605335670450586e-07
-3.309534406525926897e-07
-2.037240562913211761e-07
-3.325130819575861096e-07
4.172622425357985776e-08
-1.152132654169690795e-06
1.376328953028860269e-07
-8.033813969632319640e-08
-1.063628019437601324e-06
2.480960574757773429e-07
-1.419255490908710726e-09
4.995819153919001110e-07
-6.881300578243099153e-07
3.044391405637725256e-07
-4.999411657991004176e-07
-4.762185312756628264e-07
2.110203212168926257e-08
7.987932804098818451e-08
7.827084118616767228e-07
-9.092645569808155415e-08
-3.830516561720287427e-07
9.759860404301434755e-07
-4.622729932179936441e-07
-9.909678055919357575e-08
-4.921191134599212091e-07
-6.416980369294833508e-08
-3.423617442877002759e-07
-5.064902666163106915e-07
-4.464573066798038781e-07
2.268827188345312607e-07
5.750012519456504378e-07
6.574879876097838860e-07
1.140313543146476150e-06
-3.564533912481238076e-08
1.145601729035661265e-07
-1.065489385609907913e-07
2.834362931025680155e-07
-4.808244966625352390e-07
-7.403892254842503462e-08
-1.368849552818574011e-06
2.403213450463681511e-08
4.097949357628749567e-08
-4.847001946473028511e-07
9.968741210286680143e-08
-3.233256222756608622e-07
-3.454283898918220075e-07
8.247657774518302176e-07
-3.538588373430684442e-07
3.282301292983902385e-07
-2.492683393029437866e-07
2.543514767694432521e-07
2.118082704782864312e-07
-1.705374899074740824e-07
-5.317721729625191074e-07
-4.150287509219197091e-07
-4.373578477157025191e-08
9.716320619190810248e-07
-9.173756154723378131e-08
7.177033580774150323e-07
2.246655270710107288e-07
-5.907681952521670610e-07
6.818451652179646771e-07
1.543394034797529457e-07
7.006567557255038992e-07
-6.125537765910848975e-07
-5.860758278686262202e-07
-6.653608011220057961e-07
4.772329020852339454e-07
-6.912626986377290450e-07
-2.311247300212926348e-07
5.495302346503194713e-08
-2.036059676413515263e-08
1.292338680514149019e-07
2.006013772870574030e-07
-2.981007014568604063e-07
9.836563208409643266e-08
-6.895303386045270599e-07
-5.329623853356224572e-09
1.048276999426889233e-06
3.659591243376780767e-07
8.591034088567539584e-07
2.034524015925853746e-08
-6.011731557009625249e-08
-5.421015316642296966e-07
2.662636404693330405e-07
-1.469256005748320604e-07
-6.278226010181242600e-07
2.002413701518435118e-08
3.442609681769681629e-07
3.004635971137759043e-07
8.634452797195990570e-08
5.038207717689147103e-08
-1.088065801013726741e-06
2.603105428988783387e-07
-2.177800340064095508e-08
-5.505971785169094801e-07
-5.927287247686763294e-07
3.164373367781081470e-07
-2.675974997146113310e-07
1.301132215303368866e-07
-6.565471153407997917e-07
2.129652898474887479e-07
8.212583111344429199e-07
4.645028184313559905e-08
1.385578457302472088e-06
-2.703562813621829264e-07
5.591210605615515306e-09
-1.440171217836905271e-07
4.561117066259612329e-07
1.407747021175964619e-07
5.505474973688251339e-07
1.036047819980012719e-06
-1.681265793251895957e-08
1.821270956270382158e-07
3.627684463936020620e-07
2.570216395270108478e-07
-6.919966040186409373e-07
-7.664916665817145258e-07
5.349211278371512890e-07
-3.981467955327389063e-07
1.230933861506855465e-07
1.518357208851739415e-07
9.697118912299629301e-07
-8.867218070918170270e-09
-4.122953214391600341e-07
-1.109557274503458757e-06
3.065728151341318153e-07
-9.088913657251396216e-07
-3.478764654119004263e-07
-3.862749053951120004e-07
-1.607910462553263642e-07
-4.017493537844529783e-08
8.373862101507256739e-07
-8.123109296320762951e-08
-4.890868012807914056e-07
5.579597086580179166e-07
9.186722138565528439e-08
-1.617890603711202857e-07
4.328118166085914709e-07
-5.509128868652624078e-07
3.888728201673075091e-07
-2.581624869435472647e-07
-4.584097439419565490e-07
-2.218898842443195463e-09
2.109633783220488112e-07
-3.281165561475063441e-07
1.737853523309240700e-07
-2.109225505364520359e-07
-1.439770471733936574e-06
1.047931164066540077e-06
1.112463721142376016e-07
3.748467065634031314e-07
5.896100105928780977e-07
-1.488133563043447793e-07
4.505378115027269814e-07
5.965425202703045215e-07
1.154192318608693313e-06
1.023303255465179973e-07
5.458019458615126496e-08
7.781738418088934850e-07
-6.878703118218254531e-08
-5.994562002342718188e-07
-8.647554636809218209e-07
-3.387778519936546218e-07
8.344651405423064716e-07
2.410639581285067834e-07
4.368411907762492774e-07
-1.285487655877659563e-06
9.832143632593215443e-07
-1.671816107773338445e-07
2.632874611663282849e-07
4.356605813882197253e-07
8.945349350142350886e-07
3.530082892666541738e-08
2.973907839987077750e-07
4.482873805500275921e-07
-7.042303451498810318e-08
1.903110131706853281e-07
8.527775463562647928e-08
5.497101440710139286e-08
-3.820070162419142434e-07
1.851928459473128896e-07
3.776455343995621661e-07
-1.261038846678275149e-07
5.123832025333285856e-08
-5.202686566008196678e-07
2.159198544404716813e-07
9.977077297662617639e-08
1.208510838068832527e-07
-8.703297567080880981e-07
-3.305953555354790296e-08
-3.974211892909806920e-07
1.648072185389537481e-07
3.382603779300552560e-07
1.605641131163793034e-07
-4.890311515737266745e-07
1.565185243634914514e-07
7.056116828607628122e-07
-6.658040518914276618e-08
8.554717823017199407e-08
-4.393917834022431634e-07
-7.366057985791485407e-08
-3.570806939023896120e-08
-5.404647822615515906e-07
3.218734434540237999e-07
-4.997820113317175128e-08
-4.602088949923199834e-07
3.452555290550662903e-07
-6.200913276188657619e-07
-5.497540769283659756e-07
6.974055395403411239e-07
-9.692812454886734486e-07
8.125205681608349551e-07
-2.186812793070203043e-07
-6.045008262844930869e-07
-5.422168101176794153e-07
2.756342496468278114e-07
5.832361580360156950e-07
4.204502346283334191e-08
1.932759374767556437e-07
1.871190704605396604e-07
-6.860379926365567371e-07
3.915754973604634870e-07
-1.740268800176636432e-07
-1.213836497981901630e-08
1.433246552551281638e-07
6.450425189541419968e-07
5.966898584119917359e-07
4.278474250440922333e-07
-1.588105362770875217e-07
-2.021250509187666466e-07
2.629778350637934636e-07
8.260013260041887406e-07
-2.730745052303973353e-07
2.766206286253236613e-08
2.970806178836937761e-07
-8.567796783154335571e-08
-1.196716397089403472e-07
2.792953068819770124e-07
1.071142747832709574e-07
8.381398401979822665e-07
-3.934448216114105890e-07
4.346903494933940237e-07
1.811808942875359207e-07
1.214660301229741890e-07
-6.520680813082435634e-07
5.746512101723055821e-07
-2.967238970086327754e-07
-5.635210982291027904e-07
4.988103796677023638e-07
4.203082539788738359e-07
-2.083545211917225970e-07
5.536290359486883972e-07
8.085473268693021964e-07
-5.706444881070638075e-07
-2.570206731888902141e-07
1.746495925658564374e-08
-1.421734481255043647e-07
1.282238741850960650e-07
-8.602855672279474675e-08
-3.589368589018704370e-07
-5.593062155639927369e-07
-1.428630014288501116e-07
1.295151008662287495e-07
6.342627898447972257e-07
5.844011070621490944e-07
-7.445537448802497238e-07
1.412191039662502590e-07
-3.318891401704604505e-07
-1.144754291360072784e-09
8.244734317486290820e-08
-3.290916481546446448e-07
-6.899819737782308948e-08
2.903392193331910676e-08
2.182938487749197520e-07
-7.932413126354731503e-08
8.793752499514084775e-07
-3.657655440747475950e-07
-1.045974158842000179e-06
-5.402189913183974568e-07
1.666155782231726334e-07
4.925637426822504494e-07
-1.222609924411699467e-08
-4.392494759031251306e-07
-1.429956455467618071e-07
-2.002342540663448744e-07
-7.257202838673038059e-08
-5.368577760123116605e-08
3.098405727541830856e-07
2.159380017019429943e-07
3.365537963873066474e-07
3.128822640974249225e-07
2.197515271973315976e-07
6.112041432970727328e-07
4.762980765349311696e-08
5.253481845102214720e-07
-8.781126581425269251e-08
2.805223289215064142e-07
-4.297383497942064423e-07
-2.491122756964614382e-07
4.927720809178026684e-08
-5.906351248086139094e-07
-2.014476478962023975e-07
-1.337405279855374829e-07
8.262333608399785589e-07
-6.056728238945652265e-07
-7.140830859952984611e-08
-3.360608786806551507e-07
1.104039029087289236e-06
4.966927917848806828e-07
-5.565460128309496213e-07
-3.406088069368706783e-07
-4.793593006979790516e-07
2.318582943416913622e-07
-6.175878297653980553e-07
-9.878745004243683070e-07
3.580461225283215754e-07
-4.367363999335793778e-07
3.093119289587775711e-07
-3.335091776079934789e-07
-2.494728903457144042e-07
6.322482448695154744e-08
8.277391430056013633e-07
1.197796905216819141e-06
-6.353495223265781533e-07
6.333563646876427811e-07
4.774233843818365131e-07
-1.367383788419829216e-07
1.086073808664878015e-07
-8.027483033856697148e-08
3.869008935453166487e-07
-2.568216359577490948e-07
-3.182116259381473355e-08
-5.351770937522815075e-07
-2.632616826758749085e-07
5.627604764413263183e-07
8.501802994942408986e-07
-5.310591859597479925e-07
1.967637501820718171e-07
1.476807938161073253e-07
2.110400600940920413e-07
1.903478619169618469e-07
2.237127034732111497e-07
4.326635121287836228e-07
6.370631666641202173e-08
5.401249723036016803e-07
1.789516943517810432e-07
-5.634533977172395680e-07
-4.010168197510211030e-07
7.057171274027496111e-07
-2.430424927979402128e-08
4.726625775219872594e-07
-1.974904506596431020e-07
4.545109959508408792e-07
-5.485705045771283039e-08
2.300849075709265890e-07
1.948891537040253752e-07
-2.658625533058511792e-07
-9.933390110461459699e-09
1.376412206433030860e-09
-1.610900710602436448e-07
-6.583443337149219587e-07
4.640872646177740535e-07
-3.486298680854815757e-07
-1.983795172577629273e-08
4.003931053375708871e-07
7.235462931021174882e-07
3.899322393863258185e-07
-2.190707135696357000e-07
-8.893830738543329062e-08
6.707958846163819544e-07
3.941777890759112779e-07
3.667670611662288138e-08
-5.936644242865440901e-07
-6.886551204843271989e-07
4.025269504381867591e-07
5.033961087974603288e-07
-2.442837683247489622e-07
-8.487085523256610031e-08
3.729693958121060859e-07
-7.089989395581142162e-08
4.735384493415040197e-07
3.691608583267225185e-07
-6.140492132544750348e-07
-3.720608106050349306e-07
-8.514833211847872008e-07
5.545430212805513293e-07
-1.400602513967896812e-07
5.388354793467442505e-07
-7.370512378201965475e-08
1.037052015817607753e-06
-5.733938337471045088e-07
-8.805365609987347852e-07
6.899079494360194076e-07
5.471936219691997394e-07
-5.287639055495674256e-07
1.148853954191508819e-07
-5.966088565401150845e-07
5.676435534951451700e-07
-1.206447564072732348e-06
1.492985859385953518e-07
7.890794506693055155e-08
-8.731554999030777253e-07
6.618382144552015234e-07
8.773948252382979263e-07
2.181643452559001162e-07
-9.417323099114582874e-07
5.118758963362779468e-07
-1.910045170916419011e-07
8.918873390939552337e-07
-5.680382741957146209e-07
3.529910657107393490e-07
-3.844905620553618064e-07
-7.789633968968701083e-07
-1.154301003225555178e-06
2.739681690400175285e-07
-8.159347544278716668e-07
1.873441561883737450e-07
-8.947684904114794335e-08
-4.042138002091633098e-08
2.322965286793987616e-07
4.307602523567766184e-07
-2.026436192181790830e-07
-3.387766867035679752e-07
2.052200329671904910e-07
-2.598875425974256359e-08
-1.686216393181894091e-07
1.236897073653153711e-08
1.941146763329015812e-07
2.994811723056045594e-07
9.654507948653190397e-08
1.302567056882253382e-06
-1.667148410433583194e-07
-6.739284685863822233e-07
-2.896739204061304918e-07
-4.091739924660942052e-08
-3.212135482044686796e-07
-5.566467962125898339e-07
-1.280486685573123395e-07
-4.215113449390628375e-07
-2.209086886750810663e-07
-2.949132635876594577e-07
3.956714067498978693e-09
-4.795248855771205854e-07
-2.234569222991922288e-07
-9.528073974252038170e-07
6.198139317348250188e-07
1.244735869931901107e-07
-9.471029329688462894e-07
-1.963592950460224529e-07
-1.996497900336180464e-07
-7.237451882247114554e-08
9.621101071388693526e-07
-2.327076629171642708e-07
5.715988322663179133e-07
2.016853244413141510e-07
1.946838636968095670e-07
-3.368048453467054060e-07
-8.269111049230559729e-07
9.711462780614965595e-07
2.889599954869481735e-07
-2.051450422868583701e-07
1.994872178556761355e-07
-3.323665396237629466e-07
2.701007062455573760e-08
1.033976445796724875e-06
3.140758408903820964e-08
2.789589075291587505e-07
2.953711941700021271e-07
7.916268174312790507e-08
-7.486697199965419713e-07
8.400271411801440991e-08
-2.390948452557495330e-07
-3.585118406590481754e-07
-3.744374623693147441e-07
6.621793318117852323e-07
-5.961279470056979335e-09
7.041815308639343129e-08
4.889506044492009096e-07
-6.193578769853047561e-07
-3.428282013828720665e-07
3.832324750874249730e-07
6.907552005941397510e-07
3.223617852654570015e-07
3.506929147079063114e-07
1.362159878226520959e-07
-4.296603037801105529e-07
-3.480863028926250990e-07
5.535296168091008440e-07
7.480714003804678214e-08
1.834915650533730513e-07
5.367097628550254740e-07
-2.205182596526356065e-07
5.099016107124043629e-07
4.572451075546268839e-07
7.865352813496429008e-08
1.703439380662530311e-07
-7.569764193249284290e-07
1.825106465958015178e-07
4.850492700825270731e-07
7.347102126686877455e-08
3.529383718614553800e-08
6.689747067412099568e-08
9.587312206349452026e-07
4.151507937422138639e-07
-3.953931866362836445e-07
-7.530529728683177382e-07
5.475565671986259986e-07
-1.871379140538920183e-07
-2.150125055777607486e-07
-4.331664271717272641e-08
-5.105698619445320219e-07
5.314960844771121629e-07
6.990928795858053491e-07
-2.492072326276684180e-07
-2.795472084926586831e-07
-4.021855204427993158e-07
7.478794259441201575e-07
-2.589331700164620997e-07
-1.415938584159448510e-07
-1.766408388448326150e-07
-1.643044811316940468e-07
3.680847839859779924e-07
1.077285446626774501e-06
2.344030178846878698e-07
4.904055117549432907e-07
5.104304818814853206e-07
1.186079202852852177e-06
-2.421862177470757160e-07
1.534971687533470686e-07
-6.183965979289496318e-07
3.327563149468915071e-07
-5.047386366641148925e-07
-4.414934551277838182e-07
-4.967994300386635587e-07
5.245409511189791374e-07
3.766348299905075692e-08
4.399101101171254413e-07
2.112557098143952317e-07
-1.743547954902169295e-07
4.999046154807729181e-07
-2.433838801607635105e-07
-1.378499405291222502e-06
-2.248721955311339116e-07
-5.501493092197051737e-07
-5.515139278600145190e-08
-2.476829763509158511e-07
3.510404837925307220e-07
-5.313153650376989390e-08
5.805784439871786162e-07
4.549969645495366422e-08
8.730909684118159930e-08
-2.100480003264237894e-07
-7.150205760808603372e-08
-1.105863702832721174e-06
-1.863097480736541911e-07
-6.086750090616988018e-07
-3.878218706176994601e-07
-2.044981926019318053e-07
-2.094683182463086268e-08
2.554843661073391559e-07
-4.283051566744688898e-07
3.163589212817896623e-07
-5.070762085779279005e-07
1.010641540233336855e-06
7.944704805140645476e-08
2.846203983608575072e-07
-8.093559813460160512e-07
1.045567454838192134e-08
5.829425617775996216e-07
-2.759185520062601427e-07
4.382389420243271161e-07
5.103939315631578211e-07
-2.073078064768196782e-07
-7.086490541041712277e-07
-3.534776453761878656e-07
-4.605576862104499014e-07
1.229648916023506899e-07
1.166268702945671976e-06
2.966975785057002213e-07
2.569955981357452401e-08
1.038191271618416067e-06
-6.627464586017595138e-07
-5.598016628027835395e-07
-1.176206637865107041e-06
9.016434887598734349e-07
-1.353517120605829405e-07
2.092345567916709115e-07
6.593485295525169931e-07
-9.058024552643928473e-09
-2.760341999419324566e-07
-1.601408001761228661e-07
8.383516387766576372e-07
-8.546486895966154407e-08
5.226264079283282626e-07
-4.607146593116340227e-07
2.489497603619383881e-07
-3.223363194138073595e-07
-3.187352888289751718e-07
1.304666454871039605e-07
-8.619747404736699536e-07
-1.025706751534016803e-06
-6.377051704475888982e-07
-2.620000429942592746e-07
1.008036765171027582e-08
2.805491305934992852e-07
3.057424180497037014e-08
-1.817751211774520925e-07
-2.030139398812025320e-07
7.025490731393801980e-07
3.558971002348698676e-07
5.429740781437430996e-07
-5.515255097066074086e-08
1.845718422543995985e-08
-2.832880738878884586e-07
4.993066227143572178e-07
4.735539107514341595e-07
-6.111250883122920641e-08
4.409482201594983053e-08
2.424745275675377343e-07
-1.745668676278455678e-08
-3.487605537699778324e-09
-2.604510598303022562e-07
8.421139909842167981e-07
2.898788977745425655e-07
3.515378352858533617e-07
1.709955768092186190e-06
7.599988549600311671e-08
7.995531063897942659e-07
4.203175194561481476e-07
-1.139509322456433438e-07
1.469197172809799667e-07
-2.817976678670675028e-07
1.981264716732766828e-07
6.368973686221579555e-07
-5.357957277851710387e-08
6.959173219911463093e-07
6.898181936776381917e-07
-9.815347539188223891e-07
1.188210262625943869e-06
-7.197761675570291118e-08
-4.881219979324669112e-07
-4.269836892945022555e-07
-4.772775241690396797e-07
4.980166750101489015e-07
-1.588809936947654933e-07
8.902997024051728658e-07
-5.392816433413827326e-07
-8.336664336638932582e-08
-2.744218079442362068e-07
4.887789941676601302e-07
5.431159593172196764e-07
8.121842398622902692e-08
-1.035826358020131011e-06
2.374222702883344027e-07
2.903556719502375927e-07
-9.362273800661569112e-08
-3.218323456621874357e-07
3.960553840443026274e-07
6.349682735162787139e-07
-4.751431390559446299e-07
-7.577806968583900016e-07
1.377739238250796916e-07
-1.364464878861326724e-07
1.775923834657078260e-07
-9.380853782658959972e-08
-3.379696238425822230e-07
5.729710892410366796e-07
2.860336110188654857e-07
-7.748085550929317833e-08
5.001448926122975536e-07
1.015598286357999314e-06
-2.949996940060373163e-07
1.038769283923102194e-07
2.072397649044432910e-07
6.034237998164826422e-08
-5.607885213976260275e-07
4.839588996219390538e-07
-6.804850727348821238e-07
-1.985110174018700491e-07
6.920985384795130813e-08
-1.234201647548616165e-07
9.833808007897459902e-07
4.753498501486319583e-07
-3.374069024175696541e-07
-5.898706376683549024e-07
4.468614918096136535e-07
-2.647775261266360758e-07
3.411322779811598593e-07
-5.609796289718360640e-07
-1.233545731338381302e-06
-4.292438120501174126e-07
3.244079209707706468e-07
-3.126100693862099433e-07
-1.115354280045721680e-06
-3.665607266611914383e-07
3.983420171493889939e-08
3.920847291283280356e-08
-7.914115371931984555e-07
-8.973263021516686422e-08
-3.292367978247057181e-07
-1.393569846186437644e-06
1.247570594387070742e-06
-2.355861710157114430e-07
2.729977097715163836e-07
6.910794354553218000e-07
3.066672320528596174e-07
-4.782077667186968029e-07
-4.771242743117909413e-07
9.039390533871483058e-07
-3.880975896208838094e-07
-1.027141365739225876e-06
4.287606145680911141e-07
-8.535859592484484892e-07
-5.583165716416260693e-07
7.372494081892000395e-08
5.613082407762703951e-07
4.871510554949054495e-07
-1.406794609692951781e-07
3.299246316146309255e-07
1.877326809562873677e-07
-1.994313691966453916e-07
4.759750993343914161e-07
-2.142271853244892554e-07
-3.817622129531628161e-08
1.702516243540230789e-07
7.334298146588480449e-08
1.929732889038859867e-07
-3.096778300459845923e-07
-6.367737341861356981e-07
-8.416345309569805977e-08
7.502267749259772245e-07
1.440637333871563897e-07
-3.516513231716089649e-07
-5.831993803440127522e-07
9.972195584850851446e-07
-2.732384984938107664e-08
1.566563234689510864e-08
-6.385140238762687659e-08
-5.597221957032161299e-07
-6.842787314553788747e-08
4.318156854310473136e-08
7.408743272208084818e-07
-1.346577871430554296e-08
-2.692385159264176764e-08
8.843163641358842142e-07
-2.532096630147862015e-07
4.100654678040882573e-07
-1.037996071318048052e-07
-1.630083090731204720e-07
-1.467500254648257396e-08
-4.082526174897793680e-07
9.502633133706694935e-07
4.766242227560724132e-07
7.189830739662284032e-07
-3.553504370756854769e-07
3.575797222765686456e-07
2.850443081570119830e-07
-2.625057504701544531e-08
-3.016898801888601156e-07
-1.359958901048230473e-06
-6.786481208109762520e-07
1.370698470282150083e-07
3.102931600551528390e-07
3.239574937197176041e-07
1.990812990015911055e-07
5.804941451970080379e-07
2.545380937135632848e-07
1.232759359481860884e-06
-8.324777667212401866e-08
-5.445182864605158102e-07
-3.803708636951341759e-07
-5.221201604399539065e-07
1.449573545642124373e-07
-1.505282227753923507e-07
-3.598452451569755794e-07
-4.283136547655885806e-07
4.112687577162432717e-07
3.134515225156064844e-07
3.913949626621615607e-07
-1.015716634356067516e-06
8.042724175538751297e-07
4.914222131446877029e-07
-6.796883553761290386e-07
4.264908284312696196e-07
-4.304815703903841495e-08
4.158020416866747837e-08
-2.148942854773849831e-07
-2.275388197858774220e-07
-3.417583798182022292e-07
2.256768851793822250e-07
1.791337780332469265e-07
-4.005912614957196638e-07
-3.819272649252525298e-07
3.238289991713827476e-07
8.580165058447164483e-07
5.739373136748326942e-07
-3.491376503461651737e-07
-3.837556903363292804e-07
1.991288627323228866e-07
4.399130943966156337e-07
7.823473424650728703e-07
5.747608611272880808e-07
1.073289013220346533e-07
-7.553050522801640909e-07
-7.969553621478553396e-07
2.191263916984098614e-07
-7.257141021455026930e-08
4.023248720841365866e-07
-8.646185847283049952e-07
-7.476504038095299620e-08
-1.049959337251493707e-06
-8.761708869542417233e-08
8.473708135170454625e-08
-7.074629593262216076e-07
-6.432001669054443482e-07
-2.297903307635351666e-07
-6.149805358290905133e-07
-4.580913071094983025e-07
-5.895612389394955244e-07
-2.224201551825899514e-07
-7.294058832485461608e-07
4.216158799863478635e-07
-4.904553918549936498e-08
4.151060295498609776e-07
-8.002803610906994436e-07
5.258554551801353227e-07
5.551607955567305908e-07
-2.892234931550774490e-07
1.439609036424371880e-07
-8.302062610709981527e-07
1.150450657405599486e-06
6.864588044663832989e-07
-2.807994690101622837e-07
2.915782602030958515e-07
6.073610734347312246e-07
3.701679247569700237e-07
-5.526688440227189858e-08
-2.071102699119364843e-06
-3.656575700006214902e-07
-4.699165288002404850e-07
1.432985072824521922e-07
-1.484293843390105394e-08
-9.083375971385976300e-07
-1.456204046235143323e-07
3.600729883146414068e-07
-3.684602347675536294e-07
7.195541940063776565e-08
-1.007373597872174287e-07
-6.271198458307480905e-07
-1.072327719953136693e-07
-6.934245533329885802e-08
3.726347017618536483e-07
1.642444544813770335e-07
-1.252419536967863678e-07
-5.584465156971418764e-07
-9.475901947553211357e-07
-5.924594574935326818e-07
-1.308167867364318226e-07
2.900892468460369855e-07
-6.108716661401558667e-07
-5.910761160521360580e-07
-1.289807300963730086e-07
-6.510665571113349870e-07
1.551741348748691962e-07
4.738861605346755823e-07
-8.084338105618371628e-07
5.929547910454857629e-07
8.495709948874718975e-07
9.702469050409945339e-09
-2.990822736137488391e-07
-1.693108799827314215e-07
-2.565847978530655382e-07
4.739670771414239425e-07
8.466714689348009415e-07
5.794994422103627585e-07
-1.224011725753371138e-06
3.275636970556661254e-07
9.460230216973286588e-07
1.527033788306653150e-07
2.144064694675762439e-07
-5.057513021711201873e-07
-3.571778961486415938e-07
-6.159855274745495990e-07
-6.066728701625834219e-07
5.459251042339019477e-07
-2.822675959635034815e-08
-1.929788169263702002e-07
2.951319686417264165e-07
-3.421943262083004811e-08
-2.257351860990297610e-09
5.093914623444106837e-08
3.012281695191632025e-07
-6.942457275727065280e-07
-4.340678287917398848e-07
4.356095573143647925e-08
6.147068347672757227e-07
-8.023795885492290836e-07
-1.997159593258857058e-08
6.506358545266266447e-07
-7.687807510592392646e-07
-8.183017996543640038e-08
-9.353873053896677447e-08
-3.008519300351508718e-08
5.860729288542643189e-07
1.589030631521382020e-07
-4.438202836354321335e-07
-3.596728959109896095e-07
-1.306958552049763966e-06
2.558337719449355063e-08
-5.865808816452044994e-07
-2.738557611792202806e-07
-1.013719383990974165e-07
3.602447122830199078e-07
-1.980448871563567081e-07
2.190886618791410001e-07
-1.743932358522215509e-07
-1.617345257720614882e-09
1.868959458306562738e-07
3.697577142247610027e-07
4.649684512969542993e-07
3.087297955062240362e-07
2.426046705750195542e-07
8.451213062699025613e-08
-2.159115979338821489e-07
-3.205760492619447177e-07
-3.400415664600586751e-07
-6.535845500366121996e-07
7.923646450080923387e-08
6.118937108112731948e-07
-5.075345939076214563e-07
-2.548581967687368888e-08
3.047486174523328373e-08
-3.072557541727860553e-09
8.157308002409990877e-07
-3.115057154445821652e-07
7.794876069056044798e-07
1.246230119100744105e-09
-2.231775937389102182e-07
3.460806397015403491e-07
-5.422541562438709661e-07
1.793953430251349346e-08
4.729219824639585568e-07
-5.406966465670848265e-07
-1.909944984390676836e-07
-6.661658744633314200e-07
-4.062302849661136861e-08
2.833151881986850640e-07
-7.009021487647260074e-07
4.630326202459400520e-07
1.167289980230634683e-07
-1.134763124355231412e-06
-1.704861176676786272e-07
2.563377066167049634e-08
8.115973173516977113e-07
-4.583707493566180347e-07
-6.870546940263011493e-07
1.534310740680666640e-07
-1.296052687393967062e-07
2.620687133969568094e-08
-2.384973640801035799e-08
6.037087274535224424e-08
2.458576453534533357e-08
-8.663670314490445890e-07
3.048389203286205884e-07
-3.196026341356628109e-07
2.073428220228379359e-07
3.588123433928558370e-07
-3.197934290710691130e-07
4.743447448163351510e-07
-4.201940555503824726e-07
1.122108642448438331e-06
6.195677997311577201e-07
-5.782795824416098185e-07
2.231997768831206486e-07
4.330738647695397958e-07
1.859691138861307991e-07
-7.937666737234394532e-07
1.713508268608165963e-08
-4.096175416634650901e-07
-4.991067612536426168e-07
4.691783601629140321e-07
-1.317581563853309490e-07
-4.775495767717075069e-07
-5.692822355740645435e-07
-5.926821700086293276e-08
5.788513703919306863e-07
-1.854931923617186840e-07
-2.800891536480776267e-07
-2.729374841692333575e-07
-1.523563071259559365e-07
6.538427896884968504e-07
-1.297778737807675498e-07
1.052399909440282499e-07
1.606783257557253819e-07
-8.689842445619433420e-08
-3.735707991836534347e-07
7.943473292471026070e-07
-9.409291124029550701e-08
6.073100280445942190e-07
-2.801330651891476009e-07
