-4.666399676352739334e-03
-1.382844639010727406e-03
-5.307346116751432419e-03
1.983592956094071269e-04
4.986168351024389267e-03
-1.764041255228221416e-03
-1.744319743011146784e-04
9.828410111367702484e-04
-1.151592121459543705e-03
7.196141523309051991e-04
-5.785429384559392929e-04
-7.831655675545334816e-04
-5.093827378004789352e-03
-3.813898889347910881e-03
2.190264174714684486e-03
-1.067853881977498531e-03
-6.900518201291561127e-03
9.402550058439373970e-04
-3.707766532897949219e-03
-2.742322394624352455e-03
-5.927257239818572998e-03
-2.793220803141593933e-03
-2.297060796990990639e-03
-1.230987836606800556e-03
8.430659654550254345e-04
-2.939791884273290634e-03
-2.227126387879252434e-03
-3.519580932334065437e-03
1.847710576839745045e-03
2.325735986232757568e-03
-3.286148188635706902e-03
-4.239964298903942108e-03
-2.245438983663916588e-03
4.648311587516218424e-04
2.558116335421800613e-03
-7.965431548655033112e-03
-5.114395171403884888e-03
8.975653909146785736e-04
-1.068412559106945992e-03
-5.197745747864246368e-03
4.525321128312498331e-04
-3.698501270264387131e-03
-1.173778669908642769e-03
-4.844543524086475372e-03
-3.258337499573826790e-03
-3.161424305289983749e-03
8.788727573119103909e-04
-5.969575140625238419e-03
-2.684262814000248909e-03
-7.553224568255245686e-04
-4.015466256532818079e-04
-3.076902125030755997e-03
-3.420412540435791016e-03
-3.273742739111185074e-03
-3.438965941313654184e-04
3.023959870915859938e-04
-3.740312531590461731e-03
-3.317665541544556618e-03
-1.381210051476955414e-03
-7.599787320941686630e-03
-3.159089246764779091e-03
-7.833570241928100586e-03
-1.793079660274088383e-03
-3.500873845041496679e-06
-2.030443400144577026e-03
-2.822361420840024948e-03
-5.191627133172005415e-05
-9.609481785446405411e-04
-3.938175272196531296e-03
-6.115231662988662720e-04
1.101703383028507233e-03
9.118574962485581636e-05
-5.589970853179693222e-03
-3.395642386749386787e-03
-2.248793840408325195e-03
-4.822000395506620407e-03
-1.204989850521087646e-03
-3.255366347730159760e-03
-1.415166421793401241e-03
-3.904210170730948448e-03
5.738005856983363628e-04
-9.100342867895960808e-04
-1.007695798762142658e-03
-9.745127754285931587e-04
2.568927593529224396e-03
-1.451523392461240292e-03
-3.255496965721249580e-03
-4.350998438894748688e-03
-5.780877079814672470e-03
1.227323315106332302e-03
6.980047328397631645e-04
-5.445397458970546722e-03
-3.224602900445461273e-03
-4.656720440834760666e-03
-4.944889340549707413e-03
1.272678491659462452e-04
-9.382787393406033516e-04
-2.802461618557572365e-03
-5.093688145279884338e-03
4.887130126007832587e-05
-5.894250236451625824e-03
-8.638669387437403202e-04
-3.965042531490325928e-03
4.996862844564020634e-05
1.679396955296397209e-03
-3.181471722200512886e-03
-3.598261857405304909e-03
-2.924697706475853920e-03
-7.802943233400583267e-03
-1.765245106071233749e-03
-2.715226961299777031e-03
5.376856424845755100e-04
-6.899253930896520615e-03
-3.264683531597256660e-03
-4.559147637337446213e-03
-1.197803299874067307e-03
5.466059665195643902e-04
-3.195105819031596184e-03
-1.440250314772129059e-03
-5.979917012155056000e-03
-2.863623201847076416e-03
-2.675687195733189583e-03
-3.579993033781647682e-03
-2.283210400491952896e-03
-3.770078066736459732e-03
3.362521063536405563e-03
-4.652671515941619873e-03
-1.160216852440498769e-04
-3.888498991727828979e-03
-1.604482764378190041e-03
-3.303239820525050163e-03
-1.969263423234224319e-03
-5.720479413866996765e-03
-1.832342590205371380e-03
-2.201567986048758030e-04
-3.777585690841078758e-03
-1.792924711480736732e-03
-3.314901376143097878e-03
1.162037602625787258e-03
-7.535772747360169888e-04
-2.364970510825514793e-03
-4.344557877629995346e-03
-2.135807415470480919e-03
-4.633300472050905228e-03
-1.114135142415761948e-03
-2.563076326623558998e-03
-4.502275551203638315e-04
-4.803101997822523117e-03
-9.961594332708045840e-05
-2.540426328778266907e-03
-4.740055592264980078e-04
2.582164248451590538e-03
-6.275861524045467377e-03
3.862863522954285145e-04
-1.323406817391514778e-03
4.456567112356424332e-04
-3.443416673690080643e-03
1.197775360196828842e-03
7.074813358485698700e-03
-6.742908153682947159e-03
-1.044640596956014633e-02
-1.755722099915146828e-03
-2.703017788007855415e-03
-2.634676406159996986e-03
-3.904725890606641769e-03
-3.998070489615201950e-03
-6.885109469294548035e-03
2.051753690466284752e-03
-2.598620718345046043e-03
1.001267664832994342e-04
-1.941297901794314384e-03
-5.186417140066623688e-03
3.139141714200377464e-03
-3.167117247357964516e-03
-3.769798204302787781e-03
-2.702088560909032822e-03
-1.828202977776527405e-03
1.773531112121418118e-04
1.481067301938310266e-04
-1.426394679583609104e-03
-4.550617653876543045e-03
-5.370130762457847595e-03
-1.019482515403069556e-04
-4.930581431835889816e-03
2.769253042060881853e-04
-6.094753625802695751e-04
-4.565544892102479935e-03
-5.164369009435176849e-03
-2.249523677164688706e-04
-1.688318909145891666e-03
-2.166172722354531288e-03
-2.969486173242330551e-03
-4.644677392207086086e-04
-4.292662255465984344e-03
-4.704332444816827774e-03
6.871158257126808167e-03
-1.590327941812574863e-03
-2.619534730911254883e-03
-2.673976814548950642e-05
-6.056301761418581009e-03
-2.684210427105426788e-03
-3.719605738297104836e-03
-3.217309014871716499e-03
2.176737179979681969e-03
5.971981445327401161e-04
2.667757682502269745e-03
9.818368125706911087e-04
-3.547347849234938622e-03
-2.115551847964525223e-03
-2.343237865716218948e-03
-1.864112913608551025e-03
-5.254174116998910904e-03
-1.757172285579144955e-03
-2.315106336027383804e-03
-7.678823894821107388e-04
-3.820323850959539413e-03
-6.365677108988165855e-04
-1.155262580141425133e-03
-1.995488768443465233e-03
2.850959077477455139e-03
-5.152504891157150269e-03
4.197625094093382359e-04
-9.628989500924944878e-04
2.844068920239806175e-03
-2.992783673107624054e-03
-1.658098655752837658e-03
-3.450525924563407898e-03
-1.787027926184237003e-03
-3.461077285464853048e-04
-3.580858930945396423e-03
-2.537809079512953758e-03
-5.460445769131183624e-03
-1.698040519841015339e-03
2.056584344245493412e-04
-4.107713233679533005e-03
-3.693790407851338387e-03
-5.910156294703483582e-03
-1.326736295595765114e-03
1.957144268089905381e-04
1.010746229439973831e-03
-5.426336545497179031e-03
-6.166423205286264420e-03
2.781704999506473541e-03
-3.774894634261727333e-03
2.787857316434383392e-03
-1.533118425868451595e-03
-1.403090311214327812e-03
-1.712268916890025139e-03
-1.244753366336226463e-03
1.291847089305520058e-03
-4.205206932965666056e-04
-2.751361811533570290e-03
-4.918969236314296722e-03
-3.212741343304514885e-03
-6.332414341159164906e-04
-2.464371966198086739e-03
9.850084315985441208e-04
-1.906251185573637486e-03
-3.026502439752221107e-03
-3.018663497641682625e-03
-2.516315551474690437e-03
-5.058876704424619675e-04
-1.705532893538475037e-03
-4.708610940724611282e-03
-5.149638745933771133e-04
-2.270762575790286064e-03
-2.492092549800872803e-03
-1.857037190347909927e-03
-3.228381508961319923e-03
-4.500496143009513617e-04
-3.707714786287397146e-04
1.244116225279867649e-03
-1.406829920597374439e-03
1.406891038641333580e-03
-1.710850978270173073e-03
-2.482584444805979729e-03
-6.103222840465605259e-04
-3.439872758463025093e-03
1.628866652026772499e-03
-2.607222879305481911e-03
2.261555520817637444e-03
-2.746860496699810028e-03
-1.913007465191185474e-03
-3.104105824604630470e-03
-1.774582429789006710e-03
1.649827696382999420e-03
-1.541119650937616825e-03
-4.619888029992580414e-03
-2.776197157800197601e-03
-3.906948957592248917e-03
-5.823510946356691420e-05
1.264504855498671532e-03
-3.293179208412766457e-03
-3.246674546971917152e-03
-1.497156103141605854e-03
-3.456349484622478485e-03
7.872281130403280258e-04
-1.938204513862729073e-03
-4.053452052175998688e-03
-3.330899868160486221e-03
-2.703912789002060890e-03
-4.727703053504228592e-03
-4.213015548884868622e-03
-4.463252145797014236e-03
-2.036621794104576111e-03
-4.146918654441833496e-03
-7.869183900766074657e-04
2.107853302732110023e-03
-5.320237949490547180e-03
-7.197316735982894897e-04
-2.480104332789778709e-03
1.609335769899189472e-03
-3.555729752406477928e-03
5.625905469059944153e-04
2.066506305709481239e-03
-8.960627383203245699e-06
-3.060893388465046883e-03
-3.177813719958066940e-03
-4.738067276775836945e-03
-3.260497760493308306e-04
-2.790222642943263054e-03
1.760599669069051743e-03
2.576209837570786476e-03
-3.118081018328666687e-03
-3.005774458870291710e-03
-1.663797185756266117e-03
-3.616768401116132736e-03
-5.660899332724511623e-04
-2.839286578819155693e-03
-5.141917616128921509e-03
1.375749707221984863e-03
-1.836093724705278873e-03
-1.927497447468340397e-03
-5.466836038976907730e-03
-9.802341228350996971e-04
-1.093417638912796974e-03
-3.747375449165701866e-03
-2.365111839026212692e-03
-6.349724251776933670e-03
-2.200798335252329707e-04
1.593712135218083858e-03
-1.463227090425789356e-04
-1.224395935423672199e-03
3.058061120100319386e-04
-2.209088532254099846e-03
-1.468184054829180241e-03
-4.506456665694713593e-03
-6.387975066900253296e-03
-2.205154392868280411e-03
5.603948375210165977e-04
2.926627639681100845e-03
3.992243728134781122e-04
5.059142713434994221e-04
-4.116627387702465057e-04
-5.480256862938404083e-03
-2.797767519950866699e-03
4.727340710815042257e-04
-4.213619511574506760e-03
-9.396561421453952789e-03
-2.685492509044706821e-04
-3.607980674132704735e-03
4.119276709388941526e-04
-2.921132836490869522e-03
9.160620393231511116e-04
3.256616415455937386e-03
-5.555090494453907013e-03
-4.478977527469396591e-03
2.591288648545742035e-03
5.126154283061623573e-04
-1.059039845131337643e-03
-3.948810975998640060e-03
-2.012128476053476334e-03
4.863245121669024229e-04
1.869316212832927704e-03
-8.911741315387189388e-04
-1.645133714191615582e-03
-4.151307977735996246e-03
-1.387190888635814190e-03
-4.601748660206794739e-04
-4.726599436253309250e-03
1.547255204059183598e-03
-1.778049627318978310e-04
-1.022832700982689857e-03
-2.180511131882667542e-03
-2.265014452859759331e-03
-3.906297963112592697e-03
2.574645215645432472e-03
-3.672561142593622208e-03
-3.907767124474048615e-03
-1.299218856729567051e-03
-3.263563150539994240e-03
-3.558079013600945473e-03
-5.984737072139978409e-03
-3.283408936113119125e-03
-2.941754413768649101e-03
2.291611890541389585e-04
4.757159331347793341e-04
-3.378985682502388954e-03
-5.438841879367828369e-03
-2.868047216907143593e-03
-8.548454497940838337e-04
-1.208073226734995842e-03
-9.502971079200506210e-05
-1.533349161036312580e-03
-2.613414078950881958e-03
-2.720477292314171791e-03
-3.994158469140529633e-04
-4.940513987094163895e-03
-6.682349834591150284e-03
-1.740968669764697552e-03
-1.332526560872793198e-03
-7.772693410515785217e-03
6.919027655385434628e-04
-7.686148746870458126e-04
-1.346814446151256561e-03
-2.104850253090262413e-03
-5.434940103441476822e-03
-5.772061645984649658e-03
-3.790232352912425995e-03
4.393268842250108719e-03
-1.191435032524168491e-03
-1.082761795260012150e-03
-1.891660969704389572e-03
1.047287252731621265e-03
-2.494649263098835945e-03
1.216396572999656200e-03
2.484241500496864319e-03
-3.603082383051514626e-03
8.403899264521896839e-04
-8.243549615144729614e-03
5.982164293527603149e-04
2.087254688376560807e-04
-3.459958592429757118e-03
1.738198217935860157e-03
-1.275183050893247128e-03
1.496605273132445291e-05
-1.594109053257852793e-04
-6.059672217816114426e-03
-4.814468324184417725e-03
-2.945331158116459846e-03
4.816749133169651031e-04
-2.453732537105679512e-03
-2.497819717973470688e-03
-9.993380081141367555e-05
-7.980922237038612366e-03
-3.074951469898223877e-03
-1.986041665077209473e-03
-3.537636715918779373e-03
-4.925860092043876648e-03
-3.204395994544029236e-03
-2.632972551509737968e-03
-2.573886653408408165e-03
-2.841226523742079735e-03
-7.511788979172706604e-03
-3.011896740645170212e-03
-5.366526966099627316e-05
-6.693196948617696762e-03
1.316413399763405323e-03
-3.248453605920076370e-03
-3.386368742212653160e-03
-1.600169693119823933e-03
-3.058142727240920067e-03
3.215854289010167122e-03
4.103991377633064985e-04
-1.975220802705734968e-04
-1.980492612347006798e-03
9.581526392139494419e-04
1.731322146952152252e-03
-4.931855015456676483e-03
-5.953627987764775753e-04
-4.534075036644935608e-03
-7.297633565030992031e-04
-5.816671997308731079e-03
-2.145506208762526512e-03
-4.783149342983961105e-03
-2.274407073855400085e-03
5.586200859397649765e-04
1.957498025149106979e-03
-2.676275791600346565e-03
-1.805997686460614204e-03
-2.602631691843271255e-03
-4.749223589897155762e-03
-6.146177649497985840e-03
-7.907547405920922756e-04
-1.811781781725585461e-03
-5.152065772563219070e-03
-6.724861450493335724e-04
-8.103255531750619411e-04
-3.151709446683526039e-03
-4.010400734841823578e-03
-1.981388311833143234e-03
-1.319295028224587440e-03
-3.391685662791132927e-03
1.395739731378853321e-03
-1.065291347913444042e-03
-2.216059481725096703e-03
-3.573689609766006470e-03
1.246405998244881630e-03
1.157309743575751781e-03
-5.280788755044341087e-04
-2.494053915143013000e-03
-2.209718804806470871e-03
-1.239871955476701260e-03
-1.999051077291369438e-03
4.880136693827807903e-04
-3.662748204078525305e-04
-5.173189099878072739e-03
-3.306076396256685257e-03
-4.864783026278018951e-03
-3.875331487506628036e-03
-2.155046386178582907e-04
-3.205112181603908539e-03
