2.507285475730895996e-01
3.441188633441925049e-01
-2.985295355319976807e-01
-4.318673908710479736e-01
2.612949907779693604e-01
-4.853433966636657715e-01
6.206395104527473450e-02
-1.420070976018905640e-01
-1.162509769201278687e-01
-7.798951584845781326e-03
5.979557707905769348e-02
6.329129636287689209e-02
-3.629226088523864746e-01
5.773122310638427734e-01
1.850156337022781372e-01
-4.755170941352844238e-01
-4.522086083889007568e-01
4.156850576400756836e-01
5.559816360473632812e-01
2.732328176498413086e-01
5.049482583999633789e-01
-1.276469081640243530e-01
-1.205049231648445129e-01
-3.522386252880096436e-01
5.266559123992919922e-01
6.288454681634902954e-02
-9.870804101228713989e-02
5.566664934158325195e-01
6.231616809964179993e-02
-3.430429399013519287e-01
-2.701708860695362091e-02
-1.441638022661209106e-01
-1.131565943360328674e-01
-3.122466504573822021e-01
1.530899703502655029e-01
-3.366002440452575684e-01
-2.100198715925216675e-01
5.609012246131896973e-01
-4.157441556453704834e-01
-3.303059935569763184e-01
9.922109544277191162e-02
2.648762464523315430e-01
-5.761248990893363953e-03
-1.104545742273330688e-01
-1.821116805076599121e-01
9.359786659479141235e-02
-3.440963849425315857e-02
-4.839776754379272461e-01
-2.870566248893737793e-01
2.147228270769119263e-01
-3.993346989154815674e-01
1.659736037254333496e-01
1.233759745955467224e-01
2.501922249794006348e-01
-1.232906281948089600e-01
-5.681018233299255371e-01
1.318921893835067749e-01
-3.549850285053253174e-01
-1.037701126188039780e-02
-9.988079965114593506e-02
2.762942910194396973e-01
3.059865534305572510e-01
-5.243275761604309082e-01
4.960134923458099365e-01
