1.171042863279581070e-02
2.495733648538589478e-02
4.336329549551010132e-02
3.070131642743945122e-03
1.229132805019617081e-02
9.040594846010208130e-02
-6.255459785461425781e-02
3.255662159062922001e-04
-3.332948312163352966e-02
4.674201458692550659e-02
-1.808604458346962929e-03
8.240738511085510254e-02
-2.443695813417434692e-02
5.899347364902496338e-02
-1.607389003038406372e-02
6.452266871929168701e-02
-1.231995411217212677e-02
3.899802640080451965e-02
-3.126953914761543274e-02
-4.510143771767616272e-03
4.164990037679672241e-02
-1.293241698294878006e-02
2.972786780446767807e-03
1.679453253746032715e-02
-2.038084343075752258e-02
4.622585698962211609e-02
-2.883634530007839203e-02
3.366542607545852661e-02
1.640163548290729523e-02
-3.778928518295288086e-02
-5.013097543269395828e-03
-4.910960793495178223e-03
9.423953481018543243e-03
1.052379515022039413e-02
4.986971244215965271e-02
-3.206621482968330383e-02
9.028435684740543365e-03
-1.408324576914310455e-03
-4.002635926008224487e-02
-1.274397689849138260e-02
-1.228715572506189346e-02
6.061983853578567505e-02
1.716052927076816559e-02
2.281621657311916351e-02
-1.582965068519115448e-02
7.386323809623718262e-02
1.531242951750755310e-02
2.622776292264461517e-02
4.810833558440208435e-02
-1.268425863236188889e-02
2.206867374479770660e-02
-1.084794756025075912e-02
-6.573107093572616577e-03
1.666279137134552002e-02
5.296182353049516678e-03
5.319093167781829834e-02
-4.994349554181098938e-03
2.643267624080181122e-03
4.652838408946990967e-02
-1.050833053886890411e-02
-3.412257507443428040e-02
1.984003372490406036e-02
-3.901340812444686890e-02
4.816978704184293747e-03
