-1.237215474247932434e-03
1.104656700044870377e-02
8.907157927751541138e-03
7.443296164274215698e-02
5.346373468637466431e-02
-2.128979936242103577e-02
6.160451844334602356e-02
-5.818680673837661743e-02
1.748365722596645355e-02
-8.409131318330764771e-02
-2.365432307124137878e-02
2.595369331538677216e-02
7.206706702709197998e-02
7.749670185148715973e-03
7.119776308536529541e-02
-7.557335495948791504e-02
6.853210926055908203e-02
-1.435700152069330215e-02
-5.602090386673808098e-04
-1.195848919451236725e-02
8.283355087041854858e-02
-2.187760360538959503e-02
3.240124136209487915e-02
5.131887644529342651e-02
-3.361925249919295311e-03
8.625978231430053711e-02
-5.578569322824478149e-02
6.959898397326469421e-03
5.198335275053977966e-02
6.515088677406311035e-02
4.247221350669860840e-02
-2.683414705097675323e-02
1.331608928740024567e-02
-3.619196638464927673e-02
-3.820488601922988892e-02
6.537692993879318237e-02
-8.383311331272125244e-02
-2.322289906442165375e-02
-2.357517741620540619e-02
-3.658375889062881470e-02
1.820269972085952759e-02
3.921422362327575684e-02
-6.307952851057052612e-02
-7.166178524494171143e-02
-5.148662626743316650e-02
8.346939831972122192e-02
2.314288914203643799e-02
-7.915352284908294678e-02
-4.280915856361389160e-02
-2.703628689050674438e-02
-7.661192677915096283e-03
-7.810622453689575195e-02
-7.184094749391078949e-03
4.188294708728790283e-02
2.159941755235195160e-02
6.337694078683853149e-02
1.213101856410503387e-02
2.497529052197933197e-02
-2.048586681485176086e-02
-5.591402202844619751e-02
3.023573197424411774e-02
6.858896464109420776e-02
7.002282887697219849e-02
-4.577098414301872253e-02
-4.336667060852050781e-02
6.096395850181579590e-02
8.695936203002929688e-02
2.036563865840435028e-02
7.457485049962997437e-02
-1.390986703336238861e-02
1.123891770839691162e-02
3.052259981632232666e-02
3.799023851752281189e-02
3.281758353114128113e-02
-1.327714137732982635e-02
-1.061158347874879837e-02
-8.434523642063140869e-02
-1.039452012628316879e-02
-7.199519872665405273e-02
8.449984341859817505e-02
2.033869270235300064e-03
1.134875230491161346e-02
4.172327369451522827e-02
-8.127865195274353027e-02
6.412678956985473633e-02
9.812415577471256256e-03
-7.332335412502288818e-02
-7.647871971130371094e-03
4.499081522226333618e-02
-4.532809928059577942e-02
-7.140820473432540894e-02
-4.296672996133565903e-03
2.012364752590656281e-02
-5.578817427158355713e-02
-5.606121267192065716e-04
-9.235456585884094238e-03
-5.270726606249809265e-02
-5.777471885085105896e-02
-7.644852995872497559e-02
7.304701954126358032e-02
5.626992136240005493e-02
-2.919735014438629150e-02
-8.431031554937362671e-02
-7.567629218101501465e-02
-7.818943820893764496e-03
5.300989001989364624e-02
4.764448478817939758e-02
4.974426701664924622e-02
2.312706969678401947e-02
-2.893907949328422546e-02
-8.511755615472793579e-02
3.181555867195129395e-02
5.525480210781097412e-02
2.951269969344139099e-02
7.162284106016159058e-02
2.440903708338737488e-02
-6.894607841968536377e-02
-3.607800975441932678e-02
6.556416302919387817e-02
7.643031328916549683e-02
-5.915327742695808411e-02
2.984794415533542633e-02
-7.142283767461776733e-02
7.104847580194473267e-02
1.622213982045650482e-02
7.819414138793945312e-02
4.556063190102577209e-02
-4.505407810211181641e-02
1.633623242378234863e-02
-1.828954927623271942e-02
-5.145302787423133850e-02
1.981623843312263489e-02
-2.406905405223369598e-02
-5.652775987982749939e-02
3.926371037960052490e-02
5.626568943262100220e-02
6.843976676464080811e-02
-1.704351231455802917e-02
5.199582129716873169e-02
7.379006594419479370e-02
-4.102734848856925964e-02
-7.946027070283889771e-02
1.877983845770359039e-02
-3.190285712480545044e-02
-4.698799550533294678e-02
-5.483033508062362671e-02
-6.747347116470336914e-02
6.066714227199554443e-02
-4.380747675895690918e-03
-7.665307261049747467e-03
1.896792091429233551e-02
-8.012919127941131592e-02
-2.918132208287715912e-02
3.229765594005584717e-02
-3.372281417250633240e-02
-8.475293219089508057e-02
1.110882218927145004e-02
7.319711148738861084e-02
-3.613235056400299072e-02
-6.188603490591049194e-02
-8.802661299705505371e-02
3.440161049365997314e-02
-6.691262125968933105e-02
-6.272742152214050293e-02
-4.253053665161132812e-02
-6.769862025976181030e-02
8.514715731143951416e-02
1.519383862614631653e-02
7.561870734207332134e-04
-5.291965231299400330e-02
-1.174402330070734024e-02
-2.047944255173206329e-02
4.013121873140335083e-02
-4.329510964453220367e-03
6.065295264124870300e-02
-3.499295189976692200e-02
6.812201440334320068e-02
3.476602956652641296e-03
2.568830922245979309e-02
-7.520083803683519363e-03
5.409828945994377136e-02
-1.229705661535263062e-02
-1.506637502461671829e-02
3.124416433274745941e-02
2.166863344609737396e-02
3.040137141942977905e-02
-5.710027739405632019e-02
3.386801853775978088e-02
7.104071229696273804e-02
-2.713721245527267456e-02
-5.341318249702453613e-02
-6.114999204874038696e-02
2.798444963991641998e-02
3.554533421993255615e-02
-4.403425753116607666e-02
-7.841238379478454590e-02
1.851765671744942665e-03
-1.774481683969497681e-02
-2.696477621793746948e-02
-6.664090603590011597e-02
7.541197538375854492e-02
4.283267259597778320e-02
7.658497244119644165e-02
5.802685394883155823e-02
6.217558681964874268e-02
6.775447726249694824e-02
-6.838223338127136230e-02
-3.771642595529556274e-02
-1.659756898880004883e-02
1.203145273029804230e-02
5.362209677696228027e-02
-6.120725069195032120e-03
-3.421772643923759460e-02
1.854922808706760406e-02
-1.210785564035177231e-02
-2.193059958517551422e-02
-1.127932034432888031e-02
-8.646790869534015656e-03
-2.574577182531356812e-02
6.923494860529899597e-03
-1.273162662982940674e-02
-4.467500373721122742e-02
-4.894087836146354675e-02
3.707186877727508545e-02
3.817653656005859375e-02
7.155191153287887573e-02
-8.751025795936584473e-02
-6.488023698329925537e-02
1.823982922360301018e-03
-6.877974420785903931e-02
-7.791093736886978149e-02
1.719895377755165100e-02
-8.358696103096008301e-02
7.163654081523418427e-03
5.534377321600914001e-02
5.665891245007514954e-02
-3.677175194025039673e-02
-5.948019400238990784e-02
-2.805622527375817299e-03
-1.902345381677150726e-02
-4.241087473928928375e-03
-1.074908860027790070e-02
4.001120571047067642e-03
-8.484897017478942871e-02
-8.669675141572952271e-02
4.044725373387336731e-02
-7.706587761640548706e-02
-1.620789617300033569e-02
5.061373487114906311e-02
3.903387859463691711e-02
5.780607834458351135e-02
7.703617215156555176e-02
-1.132522802799940109e-02
4.429233819246292114e-02
-6.960789114236831665e-02
-3.933734446763992310e-02
-2.430984564125537872e-02
5.614954978227615356e-03
-1.153387315571308136e-02
5.582966282963752747e-02
6.201882287859916687e-02
8.689607679843902588e-02
-6.356461439281702042e-03
-8.440918475389480591e-02
-7.870633900165557861e-02
-2.387121133506298065e-02
-1.232468243688344955e-02
4.938131198287010193e-02
8.091317117214202881e-02
4.460703581571578979e-02
6.397930532693862915e-02
8.474807441234588623e-02
6.571180373430252075e-02
-5.579581111669540405e-02
5.610255151987075806e-02
-2.760051749646663666e-02
4.401417076587677002e-02
-4.161818325519561768e-02
-6.946200132369995117e-02
2.177250571548938751e-02
-5.847855284810066223e-02
7.925762981176376343e-02
8.475163578987121582e-02
1.577633246779441833e-02
1.798973791301250458e-02
8.506569266319274902e-02
-6.468697916716337204e-03
-1.154154189862310886e-03
-5.194370634853839874e-03
-2.510809106752276421e-03
-7.316547632217407227e-02
-1.582099869847297668e-02
6.834337860345840454e-02
6.196941435337066650e-02
-8.016594499349594116e-02
6.472539901733398438e-02
3.519654506817460060e-03
4.782524332404136658e-02
-8.758341521024703979e-02
-8.653414249420166016e-02
3.972914442420005798e-02
-3.175697475671768188e-02
-4.348910972476005554e-02
-4.008663445711135864e-02
-3.960308805108070374e-02
-4.587335884571075439e-02
4.147348552942276001e-02
5.542874336242675781e-02
8.413975685834884644e-02
-4.101322963833808899e-02
3.472899273037910461e-02
-7.252693641930818558e-03
5.332695320248603821e-02
8.434821665287017822e-02
-2.418110519647598267e-02
5.664929002523422241e-02
-2.576852217316627502e-02
6.539659947156906128e-02
8.764064870774745941e-03
2.193327806890010834e-02
5.862000957131385803e-02
-7.116991281509399414e-02
-3.516102209687232971e-02
-1.129350252449512482e-02
-3.036362119019031525e-02
5.587675049901008606e-02
5.383060872554779053e-02
-6.033916398882865906e-02
7.278425991535186768e-02
1.621147617697715759e-02
-6.971494853496551514e-02
3.880815953016281128e-02
8.838417381048202515e-02
4.442104697227478027e-02
1.580641604959964752e-02
-3.623092547059059143e-02
-7.037988305091857910e-02
-4.837067797780036926e-03
-1.632894389331340790e-02
-7.119269669055938721e-02
7.557012885808944702e-02
-4.401849955320358276e-02
7.444944977760314941e-02
-2.922106906771659851e-02
-3.812818229198455811e-02
8.750396966934204102e-02
-8.370935171842575073e-02
-3.034152649343013763e-02
-5.719486251473426819e-02
-7.979629933834075928e-02
-2.135186642408370972e-02
8.580093830823898315e-02
-8.489863015711307526e-03
-8.703251928091049194e-02
5.136934295296669006e-02
-3.419630229473114014e-02
3.210110962390899658e-02
3.722219169139862061e-02
-4.374992847442626953e-02
7.616107910871505737e-02
-5.321294814348220825e-02
-6.282950192689895630e-02
-5.671707913279533386e-03
-5.579698085784912109e-02
2.878504619002342224e-02
7.672687992453575134e-03
-7.636806927621364594e-03
-8.189175277948379517e-02
5.064625293016433716e-02
2.697639353573322296e-02
3.412829944863915443e-03
-1.304727699607610703e-02
7.260046899318695068e-02
6.147482898086309433e-03
2.348789572715759277e-02
-2.808959223330020905e-02
7.440497726202011108e-02
-5.978971719741821289e-02
-3.464233502745628357e-02
-7.802357524633407593e-02
-7.142051309347152710e-02
-3.561870008707046509e-02
1.098010689020156860e-02
-6.410196423530578613e-02
-8.312457799911499023e-02
4.728451743721961975e-02
4.477003216743469238e-02
-7.635775953531265259e-02
5.834136903285980225e-02
2.924560755491256714e-02
-7.991433888673782349e-02
5.249890312552452087e-02
-1.789701916277408600e-02
-6.785672903060913086e-02
-4.855927824974060059e-02
-7.453019917011260986e-02
4.291601106524467468e-02
2.274716272950172424e-02
-5.991137027740478516e-02
-9.492282406426966190e-04
-7.965267449617385864e-02
1.801778003573417664e-02
2.967130951583385468e-02
7.945260405540466309e-02
4.000985622406005859e-02
-3.579442948102951050e-02
7.964815199375152588e-02
-2.893748227506875992e-03
-7.663733512163162231e-02
4.241185262799263000e-02
1.063990313559770584e-02
-1.988171134144067764e-03
-7.831244915723800659e-02
-2.296237798873335123e-04
-2.707734890282154083e-02
-5.393050983548164368e-02
-1.077809603884816170e-03
6.133475527167320251e-02
-3.110132738947868347e-02
2.125355228781700134e-02
-1.617139205336570740e-02
8.282703161239624023e-02
7.858631014823913574e-02
-2.413056045770645142e-02
-1.351472083479166031e-02
4.144485294818878174e-02
-2.207882516086101532e-02
4.087186977267265320e-02
-3.116737864911556244e-02
6.555148214101791382e-02
2.416995912790298462e-02
6.449091713875532150e-03
5.520765110850334167e-02
6.550476700067520142e-02
1.692933775484561920e-02
4.266004264354705811e-02
-8.503431081771850586e-02
-3.104796167463064194e-03
1.180270686745643616e-02
-3.559077903628349304e-02
-6.567285209894180298e-02
3.075322322547435760e-02
-3.065499477088451385e-02
7.916420698165893555e-02
-2.540964260697364807e-02
-5.562046542763710022e-02
-2.554067410528659821e-02
-2.206847444176673889e-02
5.782163236290216446e-03
-6.639900803565979004e-02
-7.229161262512207031e-02
-1.475674938410520554e-02
-6.700768135488033295e-03
-3.313713707029819489e-03
4.713647067546844482e-02
-6.948930770158767700e-02
-9.270074777305126190e-03
-5.756131187081336975e-02
-6.938850879669189453e-02
5.848832428455352783e-03
-7.627857849001884460e-03
-5.381666868925094604e-02
-2.578976191580295563e-02
7.034862786531448364e-02
-1.831361092627048492e-03
1.292433124035596848e-02
-6.328089162707328796e-03
-1.543352473527193069e-02
-7.247675210237503052e-02
-6.945660710334777832e-02
2.123501710593700409e-02
-4.463293775916099548e-02
6.270117312669754028e-02
-7.400182634592056274e-02
-1.799740642309188843e-02
8.445882052183151245e-02
5.381055641919374466e-03
-2.504854649305343628e-02
-6.133999302983283997e-02
6.261074542999267578e-02
8.444134891033172607e-02
-2.782627567648887634e-02
6.900668144226074219e-02
-6.291315704584121704e-02
-8.699603378772735596e-02
7.927773147821426392e-02
7.361780852079391479e-02
5.265383515506982803e-03
-5.431911721825599670e-02
7.033950835466384888e-02
8.622587472200393677e-02
-1.857987977564334869e-02
2.939425408840179443e-02
5.961561948060989380e-02
-7.913706451654434204e-02
8.131241053342819214e-02
-1.523735839873552322e-02
-1.000663638114929199e-02
2.573903277516365051e-02
4.461197927594184875e-02
2.104194834828376770e-02
6.540457159280776978e-02
7.431739009916782379e-03
1.021291408687829971e-02
-2.546750009059906006e-02
-2.848121337592601776e-02
-7.695844769477844238e-02
-3.591542690992355347e-02
-8.223807811737060547e-02
-2.907878719270229340e-02
-2.223027311265468597e-02
-1.573318615555763245e-02
-2.705379575490951538e-02
-2.515268139541149139e-02
-5.735619366168975830e-02
4.089768230915069580e-02
4.513061046600341797e-02
-1.035321969538927078e-02
-8.595675230026245117e-02
-6.081147119402885437e-03
-7.996437698602676392e-02
-1.992594078183174133e-02
-5.909237638115882874e-02
7.192720472812652588e-02
2.656909869983792305e-03
8.195791393518447876e-02
8.050107955932617188e-02
7.783033698797225952e-02
-2.417992800474166870e-02
-2.133252844214439392e-02
3.595042973756790161e-02
-2.982323244214057922e-02
-7.069583982229232788e-02
-4.386409744620323181e-02
3.098530881106853485e-02
-7.465752214193344116e-02
-3.042407892644405365e-02
-3.518060967326164246e-02
6.945461779832839966e-02
6.381697207689285278e-02
-6.228734180331230164e-02
8.575417101383209229e-02
-7.795444130897521973e-02
-8.724564686417579651e-03
5.776567384600639343e-02
-5.541240051388740540e-02
2.661402337253093719e-02
-7.341258972883224487e-02
4.387022554874420166e-02
-8.410169184207916260e-02
-1.185023970901966095e-02
5.339347571134567261e-02
2.513727173209190369e-02
-1.106622535735368729e-02
-1.688259770162403584e-03
7.854522764682769775e-02
7.360226660966873169e-02
5.722799897193908691e-02
6.719525903463363647e-02
-4.771298915147781372e-02
2.476664632558822632e-02
-5.684188008308410645e-02
-7.637738436460494995e-02
9.372913278639316559e-03
3.752242028713226318e-02
4.029981791973114014e-02
-7.309257984161376953e-02
-4.734248295426368713e-02
-3.072740882635116577e-02
-1.221858616918325424e-02
5.001775454729795456e-03
-1.094852387905120850e-02
-1.601553894579410553e-02
-6.026073545217514038e-02
5.859855189919471741e-02
-2.949774498119950294e-03
2.194615639746189117e-02
-2.031598798930644989e-02
-8.188509941101074219e-02
1.082073710858821869e-02
-6.846790760755538940e-02
2.360308170318603516e-02
3.842084901407361031e-03
3.884486854076385498e-02
-8.680240064859390259e-02
-6.813403218984603882e-02
3.779028356075286865e-02
3.384112566709518433e-02
7.890929281711578369e-02
-5.750096961855888367e-02
7.748240232467651367e-02
7.397796213626861572e-02
-7.952342182397842407e-02
8.727205917239189148e-03
7.396914530545473099e-03
-2.488034218549728394e-02
-1.511057373136281967e-02
-1.817692420445382595e-03
-3.517746925354003906e-02
-4.515044391155242920e-02
-2.965594828128814697e-02
-7.687125355005264282e-02
-7.620698958635330200e-02
-1.849661208689212799e-02
-1.179279061034321785e-03
6.134320516139268875e-03
2.860111882910132408e-03
1.395771466195583344e-02
-2.361956611275672913e-02
-3.332032635807991028e-02
1.704921573400497437e-02
1.737152971327304840e-02
2.075279690325260162e-02
-4.216789454221725464e-02
-2.484790980815887451e-02
-3.775077313184738159e-02
7.732096314430236816e-02
6.451548635959625244e-02
2.409563213586807251e-02
7.038736343383789062e-02
-3.367934608832001686e-03
-3.838611394166946411e-02
-5.130943283438682556e-02
-6.479777395725250244e-02
-4.653776064515113831e-02
8.346798270940780640e-02
-2.863191626965999603e-02
3.128136740997433662e-03
-4.702921956777572632e-02
-4.227784276008605957e-02
-1.055974978953599930e-03
6.710264831781387329e-02
8.813667297363281250e-02
3.779241070151329041e-02
-6.071173027157783508e-02
8.696395903825759888e-02
-2.616328373551368713e-02
-3.217963129281997681e-02
-4.617770761251449585e-02
-7.850053906440734863e-02
1.533125899732112885e-02
6.238940358161926270e-02
1.751171797513961792e-02
8.755654096603393555e-02
-1.890980824828147888e-02
-5.199157074093818665e-02
8.005569130182266235e-02
-8.837717771530151367e-02
7.836849242448806763e-02
2.016140334308147430e-02
-3.553846850991249084e-02
3.253870084881782532e-02
-2.593055926263332367e-02
1.196382567286491394e-02
-4.072465375065803528e-02
6.054675951600074768e-02
-5.229103192687034607e-02
-4.966348782181739807e-02
4.289779812097549438e-02
-8.239446580410003662e-02
2.574122138321399689e-02
-8.649358153343200684e-02
8.499467372894287109e-02
7.448427379131317139e-02
-6.690489500761032104e-02
3.871654719114303589e-02
4.008993133902549744e-02
-6.196055933833122253e-02
-1.455284468829631805e-02
6.854159291833639145e-03
-7.130868732929229736e-02
3.249989822506904602e-02
7.391303032636642456e-02
1.224376261234283447e-02
-8.210293203592300415e-02
-4.012429621070623398e-03
1.339081791229546070e-03
-5.281491577625274658e-02
7.134677469730377197e-02
-3.061193786561489105e-02
5.255344510078430176e-02
-5.692632868885993958e-02
-6.499862670898437500e-02
2.239133603870868683e-02
-8.168694376945495605e-02
-7.737065851688385010e-02
5.387036502361297607e-02
7.770010828971862793e-02
4.014294221997261047e-02
6.290752440690994263e-02
-6.734333932399749756e-02
4.946294706314802170e-03
-6.990515440702438354e-02
-2.031202055513858795e-02
2.195096202194690704e-02
-8.630638569593429565e-02
-1.968164741992950439e-02
-2.312440052628517151e-02
-5.981282889842987061e-02
8.226475864648818970e-02
-5.628993362188339233e-02
8.634466677904129028e-02
8.025722950696945190e-02
-3.427657485008239746e-02
-5.204100161790847778e-02
3.232414647936820984e-02
4.359214380383491516e-02
-3.004880808293819427e-02
1.898020692169666290e-02
-2.937150374054908752e-02
1.375862397253513336e-02
-4.694585502147674561e-02
6.127133220434188843e-02
2.161694131791591644e-02
4.181533679366111755e-02
5.384374037384986877e-02
5.865262448787689209e-02
4.698461294174194336e-02
-4.878050182014703751e-03
-3.617303818464279175e-02
3.688004240393638611e-02
5.040773004293441772e-02
4.723157733678817749e-02
2.387030981481075287e-02
-7.778498530387878418e-02
4.051097482442855835e-02
-6.044013053178787231e-02
4.540565237402915955e-02
-2.872798964381217957e-02
1.109750941395759583e-02
4.648640751838684082e-02
-3.647278062999248505e-03
3.847675770521163940e-02
7.495667040348052979e-02
7.182591408491134644e-02
8.350204676389694214e-02
7.312671095132827759e-02
-8.799069374799728394e-02
-5.402958020567893982e-03
3.163902088999748230e-02
-9.716723114252090454e-03
-6.619282811880111694e-02
-1.868245936930179596e-02
-8.466506749391555786e-02
4.564609378576278687e-02
3.014811128377914429e-02
5.054479092359542847e-02
-7.538846135139465332e-02
-3.576757386326789856e-02
7.280892133712768555e-02
-1.520409435033798218e-02
-7.613900303840637207e-02
-2.095996029675006866e-02
-1.205528271384537220e-03
-8.346758037805557251e-02
7.515233755111694336e-02
-3.074576333165168762e-02
4.530654475092887878e-02
4.579139128327369690e-02
8.485792577266693115e-02
5.081422254443168640e-02
5.933009460568428040e-02
-7.306866347789764404e-02
4.118698835372924805e-02
8.703551441431045532e-02
-6.328041106462478638e-02
3.536714240908622742e-02
7.565439213067293167e-03
7.902509719133377075e-02
8.262992650270462036e-02
-3.895378857851028442e-02
7.433335483074188232e-02
7.801214605569839478e-02
-4.590270295739173889e-02
4.186656698584556580e-02
-5.702688172459602356e-02
7.546167075634002686e-02
-6.908475607633590698e-02
8.540892601013183594e-02
-6.451264768838882446e-02
1.100984308868646622e-02
-6.649632938206195831e-03
1.655624248087406158e-02
1.613570563495159149e-02
-2.083510393276810646e-03
-2.706018090248107910e-02
-7.608923316001892090e-02
6.227392330765724182e-02
6.662963330745697021e-02
-5.906298011541366577e-02
1.030347077175974846e-03
-4.309863224625587463e-02
4.322042316198348999e-02
-3.089684620499610901e-02
-5.519552901387214661e-02
-2.778116054832935333e-02
5.912208929657936096e-02
-3.699181228876113892e-02
7.291971892118453979e-02
-6.014733389019966125e-02
4.340191930532455444e-02
-3.245124965906143188e-02
-6.980100274085998535e-02
6.407709792256355286e-03
7.673748582601547241e-02
-4.215664695948362350e-03
-6.919912248849868774e-02
5.823721364140510559e-02
3.785002231597900391e-02
3.958983812481164932e-03
-2.750478917732834816e-03
2.613595128059387207e-02
-5.595345422625541687e-02
-7.673360407352447510e-02
-8.104321022983640432e-05
1.206299103796482086e-02
-4.219054058194160461e-02
-1.467229332774877548e-02
-6.144139170646667480e-02
4.042705986648797989e-03
2.612422034144401550e-02
1.095636282116174698e-02
8.240529894828796387e-02
8.567509800195693970e-02
-6.642922759056091309e-02
7.659788429737091064e-02
1.965789496898651123e-02
-4.864624142646789551e-02
8.120445907115936279e-02
-1.650964259169995785e-03
-3.733443794772028923e-03
2.429152652621269226e-02
2.353916130959987640e-02
1.114035211503505707e-02
-7.840513437986373901e-02
-8.423837274312973022e-02
1.758058741688728333e-02
-1.049982290714979172e-02
-6.814677268266677856e-02
-4.641741886734962463e-02
-1.568293385207653046e-02
-7.228039950132369995e-02
-7.938569039106369019e-02
-3.583107516169548035e-02
-2.405285462737083435e-02
-4.807388409972190857e-02
-2.602420561015605927e-02
-7.616475224494934082e-02
5.950417369604110718e-02
-2.645009011030197144e-02
1.977915503084659576e-02
7.106295228004455566e-02
-1.466728397645056248e-03
7.127035409212112427e-02
-4.479602444916963577e-03
8.559305220842361450e-02
-5.735423043370246887e-02
-1.762855425477027893e-02
-1.973680406808853149e-02
2.970874682068824768e-02
-6.791684031486511230e-02
-8.587324619293212891e-02
-3.788072243332862854e-02
7.446499168872833252e-02
1.801223680377006531e-02
2.231731638312339783e-02
6.622464209794998169e-02
-4.440435022115707397e-02
-8.504194766283035278e-02
-5.093002319335937500e-02
-2.141095884144306183e-02
-7.406229525804519653e-02
-3.523320332169532776e-02
6.758703291416168213e-02
-9.663743898272514343e-03
-6.894972175359725952e-02
-4.475490376353263855e-02
4.033222049474716187e-02
-4.239460080862045288e-02
7.314383238554000854e-02
4.116892069578170776e-02
-8.352524042129516602e-02
6.257606297731399536e-02
-7.675472646951675415e-02
-3.859174251556396484e-02
8.177591115236282349e-02
3.633585525676608086e-03
-6.921916455030441284e-02
1.415637601166963577e-02
3.871090710163116455e-02
-5.766241997480392456e-02
-2.814261056482791901e-02
3.713168948888778687e-02
2.958877943456172943e-02
-8.060224354267120361e-02
1.052525639533996582e-02
-8.665057271718978882e-02
1.850839471444487572e-03
4.942651465535163879e-02
-7.317373156547546387e-02
-3.858324885368347168e-02
-6.333982944488525391e-02
-4.326705262064933777e-02
8.015750907361507416e-03
4.791996255517005920e-02
8.026854693889617920e-02
-3.709623124450445175e-03
1.443543191999197006e-02
8.166198432445526123e-02
-1.357011310756206512e-02
-2.893862128257751465e-02
3.485324978828430176e-02
2.573247253894805908e-02
8.725049346685409546e-02
-8.404701948165893555e-02
1.376008428633213043e-02
-6.170579232275485992e-03
6.035783735569566488e-05
-8.744836598634719849e-02
-2.833266556262969971e-02
-7.805170863866806030e-02
7.256963104009628296e-02
6.149620562791824341e-02
4.053195938467979431e-02
-5.097188800573348999e-02
-1.388635113835334778e-02
-4.539526626467704773e-02
-8.496607840061187744e-02
-3.661563247442245483e-02
4.840862751007080078e-02
-4.502800479531288147e-02
2.789455652236938477e-02
5.939096212387084961e-02
-7.825603336095809937e-02
6.559491902589797974e-02
5.421134084463119507e-02
-3.488588146865367889e-03
-6.174128875136375427e-02
-8.188159018754959106e-02
-6.523796357214450836e-03
-2.623045630753040314e-02
3.778854757547378540e-02
-8.286493271589279175e-02
4.557776823639869690e-02
-6.308596581220626831e-02
5.033631250262260437e-02
-5.187432095408439636e-02
-2.589461207389831543e-02
5.765767395496368408e-02
-3.844925761222839355e-02
4.111022874712944031e-02
7.303688675165176392e-02
5.854488536715507507e-02
1.730767264962196350e-02
4.682556167244911194e-02
5.018952116370201111e-02
-7.270407676696777344e-02
-7.544600218534469604e-02
6.152775883674621582e-02
-8.773663640022277832e-02
7.178766280412673950e-02
-3.066662885248661041e-02
6.104741618037223816e-02
-7.230024039745330811e-02
5.960611999034881592e-02
-3.359601274132728577e-02
-4.343005642294883728e-02
6.816323101520538330e-02
7.337825000286102295e-02
4.150480777025222778e-02
7.651761919260025024e-02
7.882129400968551636e-02
1.151128206402063370e-02
8.738587051630020142e-02
-5.926357209682464600e-02
7.737278193235397339e-02
-5.187051370739936829e-02
-3.704889491200447083e-02
-2.297968789935112000e-02
-7.019501924514770508e-02
-2.119972743093967438e-02
7.440567016601562500e-02
-4.365407302975654602e-02
-6.094990298151969910e-02
5.160984396934509277e-02
-5.357398465275764465e-02
-6.948311813175678253e-03
-5.334192421287298203e-03
-5.763301998376846313e-02
-2.885934151709079742e-02
-3.024268150329589844e-02
3.963098861277103424e-03
1.361228525638580322e-02
-8.564772456884384155e-02
-2.192655019462108612e-02
-8.715078979730606079e-02
3.723871707916259766e-02
-4.448741674423217773e-02
3.821424022316932678e-02
4.197289794683456421e-02
8.008059114217758179e-02
-1.052543055266141891e-03
8.172389864921569824e-02
4.987359046936035156e-02
-7.248049229383468628e-02
1.421426516026258469e-02
-2.332208491861820221e-02
-3.329087421298027039e-02
2.923716232180595398e-02
8.183646202087402344e-02
3.730416297912597656e-02
-6.232659798115491867e-03
-6.210258696228265762e-03
3.643468022346496582e-02
5.426380783319473267e-03
6.099894270300865173e-02
3.680972009897232056e-02
6.584002077579498291e-02
-7.498051971197128296e-02
8.542979508638381958e-02
2.233603969216346741e-02
4.844289273023605347e-02
7.791867107152938843e-02
-2.091456204652786255e-02
