2.530042454600334167e-02
-1.788756065070629120e-02
-1.628526858985424042e-02
1.958237960934638977e-02
-3.030359558761119843e-02
-2.326964773237705231e-02
-7.146567106246948242e-03
9.186495095491409302e-03
-2.044175192713737488e-02
-1.736723259091377258e-02
2.808335982263088226e-02
2.942508086562156677e-02
-3.091569803655147552e-02
2.457602135837078094e-02
8.514556102454662323e-03
2.671352401375770569e-02
-2.062801457941532135e-02
2.053853310644626617e-02
2.106779254972934723e-02
-4.582945257425308228e-03
1.040763221681118011e-02
1.763105764985084534e-02
1.026924420148134232e-02
-1.709250546991825104e-02
2.952166274189949036e-02
-1.262507308274507523e-02
1.490620803087949753e-02
1.107877236790955067e-03
-1.011713873594999313e-02
1.604698970913887024e-02
7.963408716022968292e-03
1.604708284139633179e-02
6.562666501849889755e-03
2.140071056783199310e-02
-9.814929217100143433e-03
-1.713444106280803680e-02
-2.902351878583431244e-02
-1.634785160422325134e-02
1.843495480716228485e-02
2.120482735335826874e-03
-1.718504913151264191e-02
1.228956691920757294e-02
-1.326408889144659042e-02
-2.304550260305404663e-02
-2.736654877662658691e-02
2.487009949982166290e-02
-1.017011236399412155e-02
3.016867674887180328e-02
1.246104948222637177e-02
-3.911552485078573227e-03
-1.470151729881763458e-02
-7.653243839740753174e-03
2.469314076006412506e-02
2.063500881195068359e-02
6.275032181292772293e-03
7.144588045775890350e-03
-2.253354154527187347e-02
-2.738382481038570404e-02
-2.675893530249595642e-02
-2.582958154380321503e-02
-8.445960469543933868e-03
-2.394860377535223961e-03
7.119388319551944733e-03
-1.908658444881439209e-02
1.280627492815256119e-02
2.754936367273330688e-02
2.433025091886520386e-02
-1.694516651332378387e-02
1.874413341283798218e-02
4.497089888900518417e-03
6.243859417736530304e-03
-3.042005188763141632e-02
-1.665558107197284698e-02
4.739910364151000977e-03
1.132259611040353775e-03
2.243730239570140839e-02
2.581338770687580109e-02
2.666805312037467957e-02
-2.939094230532646179e-02
6.654952187091112137e-03
1.393748447299003601e-03
-1.248394325375556946e-02
-2.161668799817562103e-02
1.306739822030067444e-02
-2.162494510412216187e-02
1.490260940045118332e-02
2.453580684959888458e-02
-2.191267348825931549e-02
3.072058595716953278e-02
-2.403529919683933258e-02
1.889964006841182709e-02
8.902588859200477600e-03
2.022436819970607758e-02
1.604821719229221344e-02
2.612805180251598358e-02
-3.069089166820049286e-02
-1.508927624672651291e-02
2.271630242466926575e-02
-1.915396936237812042e-02
-2.386672794818878174e-02
-1.889499649405479431e-02
-5.017289891839027405e-03
-1.044217031449079514e-02
1.684155501425266266e-02
-1.815351098775863647e-02
-7.844031788408756256e-03
1.814006827771663666e-03
1.968423277139663696e-02
3.012434579432010651e-02
5.841168574988842010e-03
-1.154871075414121151e-03
1.907032355666160583e-02
3.563849721103906631e-03
2.915005572140216827e-02
-2.367031574249267578e-02
2.663791412487626076e-03
8.598035201430320740e-03
2.300257794559001923e-02
-3.088794462382793427e-02
-2.302132174372673035e-02
-2.301678806543350220e-02
-6.275472114793956280e-04
8.090899325907230377e-03
-1.840509008616209030e-03
7.136504165828227997e-03
6.861698813736438751e-03
-2.057285979390144348e-02
-1.648540981113910675e-02
3.361321520060300827e-03
2.953035756945610046e-02
-2.865378558635711670e-02
1.658169180154800415e-02
-6.529192905873060226e-03
2.193845622241497040e-02
-2.057228982448577881e-02
2.155438810586929321e-02
2.063370123505592346e-02
-5.525450222194194794e-03
-2.304523438215255737e-02
-2.244203118607401848e-03
3.031468018889427185e-02
-1.983193494379520416e-02
-1.087697036564350128e-02
9.918432682752609253e-03
-9.579009376466274261e-03
-1.325989235192537308e-02
-2.006550552323460579e-03
-2.796633355319499969e-02
-4.853192251175642014e-03
1.692232792265713215e-03
2.393014542758464813e-02
4.986194893717765808e-03
1.388732623308897018e-02
-2.951853349804878235e-02
7.393581792712211609e-03
5.782858468592166901e-03
-1.764952950179576874e-02
-3.073749318718910217e-02
9.283736348152160645e-03
2.165604755282402039e-02
-1.598930358886718750e-02
-4.242585040628910065e-03
2.048908546566963196e-02
-1.386656425893306732e-02
-9.055514819920063019e-03
-1.396488863974809647e-02
2.469510026276111603e-02
4.466415848582983017e-03
-2.688674628734588623e-02
-1.173919811844825745e-02
6.649668794125318527e-03
2.938563376665115356e-02
2.304738759994506836e-02
1.654330641031265259e-02
1.317678857594728470e-02
-2.903961110860109329e-03
1.062783412635326385e-02
-6.608102936297655106e-03
-5.646084435284137726e-03
-5.023018922656774521e-03
-1.878126338124275208e-02
2.053756080567836761e-02
1.058608572930097580e-02
2.212574891746044159e-02
-1.134482026100158691e-02
-2.349217794835567474e-02
-1.086352951824665070e-02
1.755278185009956360e-02
3.710072021931409836e-03
-1.389186829328536987e-02
-6.854615174233913422e-03
-2.341915667057037354e-02
3.050713334232568741e-03
-2.333721891045570374e-02
6.176999304443597794e-03
-3.115267306566238403e-02
-2.977767959237098694e-02
-1.905558630824089050e-02
-1.767308078706264496e-02
9.394861757755279541e-03
6.239574868232011795e-03
-2.939663268625736237e-02
1.101328246295452118e-02
1.697389967739582062e-02
1.733586750924587250e-02
-2.004227042198181152e-02
1.378489937633275986e-02
-1.033075619488954544e-02
-3.071452490985393524e-02
1.947545260190963745e-02
-2.833382040262222290e-02
-1.893574721179902554e-03
2.170921489596366882e-02
1.260296069085597992e-02
1.721472665667533875e-02
-5.374776199460029602e-03
9.175749728456139565e-04
-2.687777020037174225e-02
1.221256610006093979e-02
-2.785511547699570656e-03
2.631532028317451477e-03
1.778043620288372040e-02
1.258418336510658264e-02
1.763965003192424774e-02
2.647289447486400604e-02
3.815652802586555481e-03
2.296965685673058033e-04
-2.297127060592174530e-02
-2.937621669843792915e-03
7.624922320246696472e-03
-2.152824029326438904e-02
-3.061573393642902374e-02
-3.055612742900848389e-02
1.222518738359212875e-02
2.564539946615695953e-02
1.942108757793903351e-02
2.300656400620937347e-02
1.739386096596717834e-02
3.870705841109156609e-03
-6.133684422820806503e-03
1.481596846133470535e-03
-1.081046927720308304e-02
-1.236573141068220139e-02
2.140628360211849213e-02
6.610398413613438606e-04
1.914130710065364838e-02
-2.110932022333145142e-02
-1.993176341056823730e-02
1.718354970216751099e-02
9.697908535599708557e-03
-3.052860312163829803e-02
1.751041971147060394e-02
-2.405941300094127655e-02
-2.348485402762889862e-02
4.170269239693880081e-03
-1.996661163866519928e-02
-9.165182709693908691e-03
2.195666171610355377e-02
-1.525439415127038956e-02
2.028508670628070831e-02
-2.694354951381683350e-02
1.693987473845481873e-02
-2.044113539159297943e-02
1.087405160069465637e-02
4.449035506695508957e-03
5.691654048860073090e-03
2.103044092655181885e-02
-6.380381993949413300e-03
1.119429478421807289e-03
-1.035109627991914749e-02
-1.793720573186874390e-02
-2.421605959534645081e-02
2.650631405413150787e-02
-2.798672765493392944e-03
-1.789752207696437836e-02
1.785179018042981625e-03
-5.631953477859497070e-03
-2.119794860482215881e-02
-1.798446103930473328e-02
1.089456374756991863e-03
-1.595547236502170563e-02
-1.866849884390830994e-02
-1.423268299549818039e-02
-2.689393982291221619e-02
9.995821863412857056e-03
-1.038140431046485901e-02
1.642135903239250183e-02
-2.258662134408950806e-03
-2.887214347720146179e-02
-1.289176871068775654e-03
-2.534904517233371735e-02
2.066723257303237915e-02
-6.124846171587705612e-03
2.484396100044250488e-02
-1.971473544836044312e-02
-3.177407663315534592e-03
8.565175347030162811e-03
4.016533959656953812e-03
1.258429791778326035e-02
-1.351258251816034317e-02
-4.569476936012506485e-03
9.328102692961692810e-03
-1.802106387913227081e-02
-1.929493807256221771e-02
-1.240348070859909058e-02
8.997205644845962524e-03
-4.549688659608364105e-03
-1.533771026879549026e-02
-1.127915270626544952e-02
-1.551873143762350082e-02
-1.093291863799095154e-02
2.446334436535835266e-02
-1.780449785292148590e-02
-2.122510224580764771e-02
-3.540365258231759071e-03
1.654143072664737701e-02
1.764036342501640320e-02
9.151789359748363495e-03
-1.758197322487831116e-02
-9.452057071030139923e-03
6.116559728980064392e-03
-1.892767846584320068e-02
-1.808642968535423279e-02
-6.575823761522769928e-03
-2.157086320221424103e-02
-1.442757062613964081e-02
-9.476502425968647003e-03
4.470047540962696075e-03
-1.072148885577917099e-02
-2.884464710950851440e-02
2.287229150533676147e-02
1.880594901740550995e-02
7.272581569850444794e-03
-1.163072697818279266e-02
3.227463923394680023e-03
6.318096537142992020e-03
1.160505041480064392e-02
2.586599811911582947e-02
2.075833035632967949e-03
8.283518254756927490e-03
1.600907929241657257e-02
1.983590982854366302e-02
-2.060579694807529449e-02
2.903281943872570992e-03
1.170733664184808731e-02
1.534706214442849159e-03
-1.271703280508518219e-03
1.436840090900659561e-02
3.091805428266525269e-02
-9.829945629462599754e-04
2.940356731414794922e-02
-6.393087096512317657e-03
4.360860213637351990e-03
-7.753134705126285553e-03
-1.832065172493457794e-02
1.915304176509380341e-02
-8.807691745460033417e-03
-1.823202148079872131e-02
2.050278522074222565e-02
9.210983291268348694e-03
4.716882947832345963e-03
-2.507885918021202087e-02
-2.544416114687919617e-02
2.625107765197753906e-02
-2.163919992744922638e-02
1.138501986861228943e-02
2.788479253649711609e-02
-1.904779300093650818e-02
2.921182662248611450e-02
2.282340265810489655e-02
1.835196092724800110e-02
2.603198168799281120e-03
-2.713143639266490936e-02
1.360145770013332367e-02
-2.153499051928520203e-02
-2.955713868141174316e-02
3.073560260236263275e-02
-7.541113533079624176e-03
2.076640725135803223e-02
1.712221652269363403e-02
1.268289401195943356e-03
-7.669306360185146332e-03
1.460290607064962387e-02
2.148740366101264954e-02
-1.208553835749626160e-02
3.037643805146217346e-02
2.533097006380558014e-02
-2.290469966828823090e-02
2.098655328154563904e-02
-3.020412987098097801e-03
-2.553804405033588409e-02
-2.022979967296123505e-02
8.387079462409019470e-03
1.005569659173488617e-02
3.019566088914871216e-02
-2.103730104863643646e-02
-1.800356805324554443e-02
-1.460918784141540527e-02
1.053165830671787262e-02
1.491857226938009262e-02
-2.773735031951218843e-04
-1.251062471419572830e-02
1.125811040401458740e-02
-2.132035791873931885e-02
5.965833552181720734e-03
-4.662030376493930817e-03
-2.336020581424236298e-02
-1.951869390904903412e-02
1.601976901292800903e-02
2.061255276203155518e-02
4.581248387694358826e-03
-2.659285813570022583e-02
-5.254860501736402512e-03
-1.287141814827919006e-02
-6.069513969123363495e-03
1.338913757354021072e-02
-1.022263430058956146e-02
2.332597505301237106e-03
-2.089779736706987023e-04
2.548313699662685394e-02
1.525679975748062134e-02
7.692255545407533646e-03
-2.630901522934436798e-02
2.958486415445804596e-02
-1.566999219357967377e-02
-2.329168841242790222e-02
-1.835474930703639984e-02
-3.895345143973827362e-03
-1.814972609281539917e-02
6.757365539669990540e-03
-3.715420374646782875e-03
-1.684445515275001526e-02
6.783077027648687363e-03
-2.161561511456966400e-03
1.185048278421163559e-02
-3.370388876646757126e-03
-1.422415487468242645e-02
1.662909239530563354e-02
2.671563811600208282e-02
-2.809817343950271606e-02
2.678712084889411926e-02
2.847329340875148773e-02
-1.212386228144168854e-02
-1.635825075209140778e-02
-7.472892757505178452e-03
1.555272145196795464e-03
-1.253967825323343277e-02
7.841611281037330627e-03
-2.922912128269672394e-02
-3.393849590793251991e-03
-1.642627827823162079e-02
-2.168721146881580353e-02
-1.655163802206516266e-02
9.522545151412487030e-03
-2.551149204373359680e-02
-1.802178099751472473e-02
-4.579731903504580259e-04
-3.125025704503059387e-02
-1.034363079816102982e-02
-2.763902209699153900e-02
-1.351362094283103943e-03
-1.032750401645898819e-02
2.625306695699691772e-02
-2.908904477953910828e-02
-2.592230215668678284e-02
-9.288499131798744202e-03
-1.696791499853134155e-02
1.373034249991178513e-02
2.609030529856681824e-02
-2.627370692789554596e-02
-1.481445506215095520e-02
-1.524598628748208284e-04
-2.317229658365249634e-02
-2.052308991551399231e-02
2.201523818075656891e-02
5.002387799322605133e-03
-1.462306268513202667e-02
-2.950109168887138367e-02
7.660838309675455093e-03
-4.305274691432714462e-03
1.638130843639373779e-02
1.448045112192630768e-02
-2.077211812138557434e-02
2.421672269701957703e-02
-1.691338024102151394e-03
-2.361885271966457367e-03
7.938057184219360352e-03
-3.069762326776981354e-02
-2.902136743068695068e-02
-1.068256702274084091e-02
-1.177586708217859268e-02
1.294904295355081558e-02
2.592638693749904633e-02
-7.949483580887317657e-03
-2.448375709354877472e-02
-1.363157667219638824e-02
2.192153595387935638e-02
2.943303808569908142e-02
-1.233964692801237106e-02
-2.047857455909252167e-02
-1.786554977297782898e-02
-3.108218125998973846e-02
-2.883010311052203178e-03
1.195063162595033646e-02
2.212644368410110474e-02
2.835031040012836456e-02
1.406783983111381531e-02
2.092979103326797485e-02
1.071765366941690445e-02
-1.169233862310647964e-02
6.512877065688371658e-03
-1.572173833847045898e-02
