-5.073046311736106873e-03
-3.492759075015783310e-03
4.350194707512855530e-03
-3.569535037968307734e-04
1.137952087447047234e-03
7.840314880013465881e-03
3.065490163862705231e-03
4.970067180693149567e-03
1.566985249519348145e-02
-7.971483864821493626e-04
-7.255987264215946198e-03
-7.433955557644367218e-03
3.715775208547711372e-03
-2.556688385084271431e-03
1.182007719762623310e-03
-2.101939637213945389e-03
7.041628006845712662e-03
6.803967524319887161e-03
-3.584420075640082359e-03
5.353129017748869956e-05
3.000892698764801025e-03
-2.833546604961156845e-03
4.265602037776261568e-04
8.507636375725269318e-03
2.367678098380565643e-03
1.136523950845003128e-02
5.357581190764904022e-03
-1.746138877933844924e-04
-3.410342847928404808e-03
-2.568187890574336052e-03
5.651016719639301300e-03
-6.768385879695415497e-03
1.369505561888217926e-02
6.339405663311481476e-03
5.955477710813283920e-03
-5.615676636807620525e-04
2.559664892032742500e-03
-9.478395222686231136e-04
4.644242580980062485e-03
1.268314290791749954e-02
7.327298633754253387e-03
-4.833265207707881927e-03
-7.183634676039218903e-03
4.291139077395200729e-03
1.800239435397088528e-03
1.417081430554389954e-02
5.210623145103454590e-03
4.777395632117986679e-03
6.921364925801753998e-03
4.046434536576271057e-03
9.242461062967777252e-03
5.826790351420640945e-03
4.710434004664421082e-03
4.858635365962982178e-03
6.861730013042688370e-03
3.672347636893391609e-03
-1.279264595359563828e-02
-7.703287992626428604e-03
6.644940469413995743e-03
9.751059114933013916e-03
9.696945548057556152e-03
8.348799310624599457e-03
7.410441990941762924e-03
1.090406719595193863e-02
