-9.701238945126533508e-03
-2.009166590869426727e-02
2.876137383282184601e-02
-4.278459772467613220e-02
1.373799983412027359e-02
-3.649547323584556580e-02
4.450698941946029663e-02
-3.928634151816368103e-02
1.615993492305278778e-02
2.405494917184114456e-03
3.156088758260011673e-03
-1.742300577461719513e-02
-1.764653995633125305e-02
3.782311826944351196e-02
-1.904358714818954468e-02
2.245028316974639893e-02
1.631636731326580048e-02
-7.205742876976728439e-03
3.798412531614303589e-02
2.251269295811653137e-02
-1.109209470450878143e-02
1.083817146718502045e-02
4.825272411108016968e-02
-3.237881138920783997e-02
1.510982122272253036e-02
-3.569280728697776794e-02
-4.748120903968811035e-03
6.791500840336084366e-03
1.834356039762496948e-02
-3.421309217810630798e-02
3.614843636751174927e-02
3.232581913471221924e-02
9.052503854036331177e-03
-3.329177945852279663e-02
4.182587377727031708e-03
4.231467377394437790e-03
9.764683432877063751e-03
3.751684725284576416e-02
7.890655659139156342e-03
-4.627433791756629944e-02
3.064425662159919739e-02
-4.470350965857505798e-02
-2.668608445674180984e-03
-3.532261401414871216e-02
-8.734781295061111450e-03
2.055613510310649872e-02
5.215176567435264587e-02
-1.980146206915378571e-02
-9.527931921184062958e-03
1.222405675798654556e-02
1.788014359772205353e-02
3.870397433638572693e-02
2.405311726033687592e-02
-1.116894464939832687e-02
2.648079581558704376e-02
-3.411658108234405518e-02
4.538880661129951477e-02
4.091032594442367554e-02
6.670182570815086365e-03
3.673474490642547607e-02
1.249981578439474106e-02
1.886951737105846405e-02
3.941068798303604126e-02
3.954787738621234894e-03
-3.641514107584953308e-02
-3.075544722378253937e-02
-2.441056817770004272e-02
2.938002534210681915e-02
2.343347668647766113e-02
-1.263444591313600540e-02
-3.018759936094284058e-02
2.297061122953891754e-02
-1.463080942630767822e-02
-1.025767996907234192e-02
1.131868828088045120e-02
8.846850134432315826e-03
-1.588733866810798645e-03
-7.606152445077896118e-03
-4.842257127165794373e-03
2.689090184867382050e-02
4.220179095864295959e-02
1.252519618719816208e-02
-2.000360749661922455e-02
5.037816241383552551e-02
-3.619487956166267395e-02
-4.575556609779596329e-03
-3.017233684659004211e-03
-2.136762998998165131e-02
9.837327525019645691e-03
-4.528946056962013245e-02
2.467469125986099243e-02
-1.273167133331298828e-02
-3.667676821351051331e-02
-8.854886516928672791e-03
8.528866805136203766e-03
-1.418980304151773453e-02
4.003931209444999695e-02
6.621974054723978043e-03
-1.242823619395494461e-02
7.199205923825502396e-03
-2.793141826987266541e-02
-2.907057106494903564e-02
-1.778489723801612854e-02
-4.238666594028472900e-02
8.146670646965503693e-03
2.630433067679405212e-02
-3.674016147851943970e-02
-3.469362482428550720e-02
-8.578509092330932617e-03
-2.169723063707351685e-02
-6.797656416893005371e-03
-4.371882975101470947e-02
-1.088492758572101593e-02
-4.517405759543180466e-03
8.006015792489051819e-03
-3.825066611170768738e-02
7.473627105355262756e-03
3.837296366691589355e-02
9.120411239564418793e-03
-5.104367062449455261e-02
1.948690228164196014e-02
-1.613185927271842957e-02
-2.310575544834136963e-02
-3.483502939343452454e-02
-4.650915041565895081e-02
-2.922973781824111938e-02
3.366550058126449585e-02
1.971699111163616180e-02
-3.043654747307300568e-02
-2.106052450835704803e-02
2.047511376440525055e-02
-6.871849298477172852e-03
2.749781869351863861e-02
-3.649979457259178162e-02
1.778711937367916107e-02
-3.191216662526130676e-02
-1.002335269004106522e-02
-3.912068158388137817e-02
-3.792615607380867004e-02
4.804533440619707108e-03
1.394992973655462265e-02
3.708782419562339783e-02
1.316771749407052994e-02
-4.273876920342445374e-02
2.566029550507664680e-03
-4.772943630814552307e-02
-2.509407699108123779e-02
-1.764682307839393616e-02
2.747332118451595306e-02
-8.021225221455097198e-03
1.807922311127185822e-02
1.806708425283432007e-02
-4.532169923186302185e-02
-1.722311787307262421e-02
5.737845785915851593e-03
3.746356070041656494e-02
-2.305191196501255035e-02
-3.836924955248832703e-02
-1.355961617082357407e-02
2.699135243892669678e-02
-3.547527641057968140e-02
-3.962065652012825012e-02
4.593153134919703007e-04
-3.430328145623207092e-02
-4.783648625016212463e-02
-1.155805122107267380e-02
-3.182153031229972839e-02
-2.962996251881122589e-02
-3.469133516773581505e-03
-3.039179183542728424e-02
-2.732852241024374962e-03
2.495240978896617889e-02
1.128646451979875565e-02
-1.494732126593589783e-02
3.490907326340675354e-02
3.522457182407379150e-02
-9.143750183284282684e-03
9.590896777808666229e-03
-1.452706381678581238e-02
2.580201625823974609e-02
-3.684726543724536896e-03
2.766058780252933502e-02
-1.555581670254468918e-02
-2.123439125716686249e-02
2.335425466299057007e-02
2.666069939732551575e-02
4.115244746208190918e-02
4.228544980287551880e-02
5.591675173491239548e-03
-2.197731286287307739e-02
3.240206092596054077e-02
1.326837856322526932e-02
2.204215526580810547e-02
-3.257681056857109070e-02
2.606480382382869720e-02
-5.752453953027725220e-02
-1.274518389254808426e-02
-1.627515815198421478e-02
4.593138117343187332e-03
-6.528733763843774796e-03
-3.137391805648803711e-02
-6.503287702798843384e-03
4.207058623433113098e-02
3.827844047918915749e-03
1.201545726507902145e-02
9.751779027283191681e-03
5.837511271238327026e-03
2.945232903584837914e-03
-1.660685427486896515e-02
2.174486638978123665e-03
-3.516690805554389954e-02
1.237559504806995392e-02
1.694034785032272339e-02
-5.270209908485412598e-02
2.644321694970130920e-02
-2.079016342759132385e-02
-3.216385841369628906e-02
1.256121695041656494e-02
3.944473713636398315e-02
-5.370656959712505341e-03
-3.717567771673202515e-02
-2.849938347935676575e-02
-5.334323644638061523e-02
1.366705540567636490e-02
-4.760476946830749512e-02
2.427849546074867249e-02
1.155938720330595970e-03
5.868631415069103241e-03
3.766200970858335495e-03
-3.606457635760307312e-02
-1.195329055190086365e-02
3.257530182600021362e-02
3.509980812668800354e-02
-4.492055252194404602e-02
-3.454186662565916777e-04
3.361035883426666260e-02
-4.001023247838020325e-02
-1.549160853028297424e-02
5.025892518460750580e-03
-3.588447719812393188e-02
-2.170122787356376648e-02
-9.260336868464946747e-03
1.092654280364513397e-02
1.537805516272783279e-02
-2.205424942076206207e-02
-3.456011414527893066e-02
2.632240764796733856e-03
-2.106918767094612122e-02
-2.440886944532394409e-02
2.862400002777576447e-02
-1.304554287344217300e-03
3.745837137103080750e-02
2.215527556836605072e-02
6.041876971721649170e-03
5.776231177151203156e-03
4.567684978246688843e-02
-2.012902684509754181e-02
3.500724211335182190e-02
3.218016400933265686e-02
-4.812821745872497559e-02
4.484643414616584778e-02
-9.639000520110130310e-03
-1.276449579745531082e-02
-2.650218643248081207e-02
-3.602270036935806274e-02
3.565197438001632690e-02
-5.013656336814165115e-03
2.918688580393791199e-03
-3.743169084191322327e-02
-2.920125983655452728e-02
2.407892607152462006e-02
4.967829585075378418e-02
-4.585858434438705444e-02
2.772782556712627411e-02
2.970601245760917664e-02
4.659252613782882690e-02
-2.208580449223518372e-02
-8.344251662492752075e-03
-2.662569656968116760e-02
2.508921176195144653e-02
-1.089244801551103592e-02
-4.976937547326087952e-02
1.997362822294235229e-02
7.715806132182478905e-04
-3.962908685207366943e-02
2.681741118431091309e-02
-1.333815697580575943e-02
-1.521289721131324768e-02
-4.583626985549926758e-03
3.862516488879919052e-03
-3.589712828397750854e-02
-2.276480942964553833e-02
-2.062646113336086273e-02
-2.207814157009124756e-02
1.967100054025650024e-02
-3.304457524791359901e-03
-3.430721699260175228e-04
7.528657093644142151e-03
-2.747339010238647461e-02
-2.921549603343009949e-02
-3.281209990382194519e-02
2.367929182946681976e-02
2.930887043476104736e-02
1.892965286970138550e-02
-3.238548338413238525e-02
-3.471582382917404175e-02
-3.843842819333076477e-02
-3.875267133116722107e-02
-3.994360938668251038e-02
1.158732641488313675e-02
6.213616114109754562e-03
1.838464662432670593e-02
1.786494441330432892e-02
-4.225859045982360840e-02
-4.362719506025314331e-02
-1.849398203194141388e-02
4.813889972865581512e-03
5.642839241772890091e-03
-5.999304819852113724e-03
-2.689706161618232727e-02
-9.277283679693937302e-04
1.445285975933074951e-03
-4.542882740497589111e-02
-1.703128032386302948e-02
-8.721064776182174683e-03
1.507751550525426865e-02
2.730470709502696991e-02
-5.119322799146175385e-03
-2.598758973181247711e-02
4.436261579394340515e-02
3.004309022799134254e-03
3.792071342468261719e-02
-3.432105481624603271e-02
1.974130980670452118e-02
-1.259073987603187561e-02
1.058948971331119537e-02
-2.446782775223255157e-03
-8.051024633459746838e-04
-2.037794329226016998e-03
3.313751146197319031e-02
-2.482536621391773224e-02
-2.195026725530624390e-02
5.946458317339420319e-03
-2.850729227066040039e-02
-3.286886028945446014e-03
-1.667041145265102386e-02
-2.387932687997817993e-02
-4.722483083605766296e-02
2.467699721455574036e-02
-3.210224583745002747e-02
-1.481678895652294159e-02
-1.309473905712366104e-02
-3.696007281541824341e-02
-1.385719981044530869e-03
2.239859662950038910e-02
-1.219845656305551529e-02
-3.577570989727973938e-02
2.636868134140968323e-02
-2.522384934127330780e-02
3.034788556396961212e-02
-2.471004985272884369e-02
-1.829461380839347839e-02
3.615981712937355042e-02
-1.472811680287122726e-03
-2.595949918031692505e-02
-3.564886003732681274e-02
1.077804714441299438e-02
-2.093090489506721497e-02
1.730280369520187378e-02
2.873934432864189148e-02
4.060082882642745972e-02
-2.618442289531230927e-02
7.824595086276531219e-03
1.089423708617687225e-02
-3.869070485234260559e-02
-7.948708720505237579e-03
-1.500452402979135513e-02
2.561088651418685913e-02
2.827569283545017242e-02
-6.957058794796466827e-03
-2.772517316043376923e-02
-3.794176876544952393e-02
-1.351031567901372910e-02
-3.041676618158817291e-02
-4.226274322718381882e-03
-8.258255198597908020e-03
-2.651010639965534210e-02
4.280363023281097412e-02
-3.512173518538475037e-02
-5.290794186294078827e-03
-3.905583173036575317e-02
-1.038678083568811417e-02
2.141056954860687256e-02
3.457362204790115356e-02
3.597303852438926697e-02
-3.646181896328926086e-02
3.390516212675720453e-04
-1.114744786173105240e-02
-5.006149783730506897e-02
-3.004438988864421844e-02
2.286972850561141968e-02
-4.303958266973495483e-02
-4.258026555180549622e-02
-4.248037561774253845e-02
3.420924395322799683e-02
2.806934900581836700e-02
2.383730746805667877e-02
-7.018302567303180695e-03
-7.785658352077007294e-03
-3.140481188893318176e-03
4.591455217450857162e-03
-2.107674069702625275e-02
1.268622837960720062e-02
-1.712977886199951172e-02
-8.272038772702217102e-03
-1.615619659423828125e-02
-2.766979672014713287e-02
-4.046384617686271667e-02
-2.234096266329288483e-02
-2.571734972298145294e-02
2.111869677901268005e-02
-2.511668950319290161e-02
1.674741692841053009e-02
2.304763160645961761e-02
-4.776899889111518860e-02
-7.549163885414600372e-03
1.389589905738830566e-02
1.119035668671131134e-02
2.953145653009414673e-02
1.575964502990245819e-02
2.045052498579025269e-02
-2.473738044500350952e-02
4.004303365945816040e-03
-2.465913444757461548e-02
1.791199482977390289e-02
-3.906515613198280334e-02
-2.293628826737403870e-02
2.415511943399906158e-02
3.328170254826545715e-02
1.635736599564552307e-02
1.403306704014539719e-02
4.676980525255203247e-02
1.993177086114883423e-02
2.184518240392208099e-02
-1.104527525603771210e-02
-9.709673933684825897e-03
2.342206053435802460e-02
2.788238227367401123e-02
-1.128912158310413361e-02
6.186413113027811050e-03
-4.720221273601055145e-03
-5.961948074400424957e-03
1.710848137736320496e-02
1.782371662557125092e-02
-5.424277391284704208e-03
-3.853986412286758423e-02
6.974362768232822418e-04
3.902295976877212524e-02
2.907410636544227600e-02
-1.344719808548688889e-02
3.476807102560997009e-02
-2.144261263310909271e-02
-1.595067046582698822e-02
1.221252884715795517e-02
-4.291066154837608337e-02
3.495019674301147461e-02
1.296451222151517868e-02
-4.865346103906631470e-02
-2.208028919994831085e-02
2.976473653689026833e-03
-2.373937284573912621e-03
4.223231226205825806e-02
-7.000033278018236160e-03
-2.892164513468742371e-02
3.556204959750175476e-02
-2.212918922305107117e-02
-4.440165683627128601e-02
1.354227773845195770e-02
1.759988255798816681e-02
1.144652534276247025e-02
2.518628723919391632e-02
-3.320432826876640320e-02
-1.249068789184093475e-02
1.694482006132602692e-02
-2.521764859557151794e-02
-3.909361083060503006e-03
1.651898026466369629e-02
-9.909779764711856842e-03
2.347310073673725128e-02
-1.166974892839789391e-03
1.564009289722889662e-04
6.497299909824505448e-05
1.900494098663330078e-02
-5.384729057550430298e-02
-4.297076910734176636e-02
3.290647640824317932e-02
-3.763551637530326843e-02
-4.421971365809440613e-02
3.514755982905626297e-03
-3.844908252358436584e-02
-5.230252165347337723e-03
1.651798002421855927e-02
-3.230630606412887573e-02
-2.736087702214717865e-02
-4.150014743208885193e-02
3.524966910481452942e-02
-3.068773262202739716e-02
-1.276562176644802094e-02
-4.153097048401832581e-02
-3.349344059824943542e-02
-1.803116686642169952e-02
7.499992847442626953e-03
2.686142362654209137e-02
-2.761495113372802734e-02
-3.649716451764106750e-02
9.606728330254554749e-03
-9.137604385614395142e-03
-1.161115616559982300e-02
-3.575303126126527786e-03
-2.393134310841560364e-02
-4.180779680609703064e-02
1.985834538936614990e-02
-4.283485189080238342e-02
1.730217970907688141e-02
5.344165954738855362e-03
-2.051023580133914948e-02
2.701118960976600647e-02
4.822712508030235767e-04
-1.067257300019264221e-02
2.540396340191364288e-02
-2.766023948788642883e-02
-2.875177003443241119e-02
-3.790353611111640930e-02
4.041267186403274536e-02
2.099751494824886322e-02
1.715183816850185394e-02
4.879573360085487366e-02
2.291916124522686005e-02
-3.772939369082450867e-02
-1.615219190716743469e-02
-2.921823225915431976e-02
-2.772084809839725494e-02
8.134607225656509399e-03
8.090866729617118835e-03
-1.663110405206680298e-02
1.067809760570526123e-02
-1.282027363777160645e-02
-1.519240718334913254e-02
-4.745014756917953491e-02
3.194547817111015320e-02
-8.212611079216003418e-03
-9.130895137786865234e-03
-3.329522907733917236e-02
-1.733342744410037994e-02
-2.212136238813400269e-02
-1.827218011021614075e-02
3.706984966993331909e-02
-2.720048278570175171e-02
-2.750268019735813141e-02
3.138538077473640442e-02
-7.518426980823278427e-03
2.459338121116161346e-02
1.432689651846885681e-02
3.186288848519325256e-02
2.039396390318870544e-02
4.045552387833595276e-02
1.908617280423641205e-02
-2.087270142510533333e-03
5.175167229026556015e-03
2.624365128576755524e-02
1.829968579113483429e-02
2.341602742671966553e-02
5.716059356927871704e-03
-3.129269555211067200e-02
-4.297614470124244690e-02
-3.850474208593368530e-02
-2.858783677220344543e-02
2.956548891961574554e-02
2.814687415957450867e-02
-9.921004995703697205e-03
-1.845690049231052399e-02
-3.873103484511375427e-02
1.168808620423078537e-02
4.267869144678115845e-02
3.182619065046310425e-02
1.575933210551738739e-02
-1.080859638750553131e-02
4.317012429237365723e-02
-3.289906308054924011e-02
6.660541053861379623e-03
-2.509609982371330261e-02
4.046745598316192627e-02
1.722664758563041687e-02
3.508373722434043884e-02
-3.631991520524024963e-02
2.751228027045726776e-02
2.718406356871128082e-02
-4.841055255383253098e-03
-3.513229638338088989e-02
2.368764579296112061e-02
-2.831065841019153595e-02
5.187344737350940704e-03
-2.022376470267772675e-02
5.124847870320081711e-03
1.548506505787372589e-02
-5.115456879138946533e-02
-1.662308908998966217e-02
-3.643336147069931030e-02
-2.259138971567153931e-02
-3.512490913271903992e-02
-1.783782616257667542e-02
1.071369927376508713e-02
2.755956025794148445e-03
1.137149985879659653e-02
2.913266234099864960e-02
-4.152753576636314392e-02
-8.382333442568778992e-03
-2.328980714082717896e-02
-2.171562053263187408e-02
-4.059899598360061646e-02
-2.398458682000637054e-02
-6.778840441256761551e-03
3.122350899502635002e-03
4.636386875063180923e-03
7.357227616012096405e-03
2.549286931753158569e-02
-1.188106928020715714e-02
-2.550211548805236816e-02
1.351942308247089386e-02
-3.909461945295333862e-02
-1.973941363394260406e-02
-8.453956805169582367e-03
3.176381811499595642e-02
-3.578757122159004211e-02
5.450327415019273758e-03
1.997720217332243919e-03
-3.545733168721199036e-02
-1.708401553332805634e-02
-1.093571353703737259e-02
4.011045768857002258e-02
-4.297858849167823792e-02
-4.303256794810295105e-02
2.553788200020790100e-02
-5.216267332434654236e-02
-2.584829693660140038e-03
1.381390076130628586e-02
1.372041879221796989e-03
3.822176903486251831e-02
2.661319449543952942e-02
3.354968130588531494e-02
2.295495569705963135e-02
4.737373441457748413e-03
1.901924842968583107e-03
9.266750887036323547e-03
2.692504227161407471e-02
-2.083236118778586388e-03
-3.492839634418487549e-02
-7.791015319526195526e-03
-3.804706782102584839e-02
-4.067481309175491333e-02
-1.800721883773803711e-02
5.796976853162050247e-03
-1.101207081228494644e-02
-2.083073928952217102e-02
2.680131606757640839e-02
-1.274057012051343918e-02
2.782415598630905151e-02
2.331004478037357330e-03
-5.047417059540748596e-02
2.470398508012294769e-02
2.947690337896347046e-02
4.538513720035552979e-03
-2.907980699092149734e-03
-2.784463576972484589e-03
-3.739287704229354858e-02
-2.613314241170883179e-02
-2.652306109666824341e-02
1.156637072563171387e-02
7.830598391592502594e-03
2.504260838031768799e-02
5.087152123451232910e-03
-9.275414980947971344e-03
3.155305236577987671e-02
2.094328030943870544e-02
-3.003466315567493439e-02
2.557034045457839966e-02
6.394847296178340912e-03
1.019486878067255020e-02
3.350165486335754395e-02
-6.376358680427074432e-03
4.527258500456809998e-02
1.424349565058946609e-02
-3.635684773325920105e-02
2.111903019249439240e-02
1.701257750391960144e-02
-2.675494737923145294e-02
-3.243237361311912537e-02
9.364658035337924957e-03
-2.442926727235317230e-02
-3.659479692578315735e-02
-1.896438305266201496e-03
-2.994447574019432068e-02
3.975018858909606934e-03
-4.269601777195930481e-02
-2.537346258759498596e-02
-2.630763687193393707e-02
-3.862976655364036560e-02
4.222643375396728516e-02
1.163046155124902725e-02
1.971311122179031372e-02
-4.549316316843032837e-02
7.773679681122303009e-03
2.915953844785690308e-02
1.474546268582344055e-03
2.056517265737056732e-02
-1.432240474969148636e-02
-2.527588047087192535e-02
-1.946048252284526825e-02
-6.416397634893655777e-03
-3.687230497598648071e-02
-2.562430500984191895e-02
3.301591798663139343e-02
2.827855385839939117e-02
4.051816090941429138e-02
-1.739963330328464508e-02
-3.372239693999290466e-02
-1.615487970411777496e-02
-8.127161301672458649e-03
1.112874317914247513e-02
3.363556042313575745e-02
1.500468794256448746e-02
-4.382842779159545898e-02
-2.716275490820407867e-02
-3.955445438623428345e-02
-1.837924122810363770e-02
5.374115891754627228e-03
-2.794194733723998070e-03
9.382398799061775208e-03
-7.197395316325128078e-04
4.062915593385696411e-02
-1.686440035700798035e-02
2.892048098146915436e-02
-8.061952888965606689e-03
1.338574569672346115e-02
1.071297563612461090e-02
8.197953924536705017e-03
3.427663818001747131e-02
3.385103121399879456e-02
-4.134568944573402405e-02
9.309489279985427856e-03
2.457978762686252594e-02
-1.582529954612255096e-02
4.415057599544525146e-02
4.384768195450305939e-03
4.006540402770042419e-02
2.784472331404685974e-02
-7.275567390024662018e-03
-2.024584636092185974e-02
-1.162951346486806870e-02
2.308010868728160858e-02
5.513047217391431332e-04
-3.535985015332698822e-03
2.115479204803705215e-03
-3.683640435338020325e-02
2.205249853432178497e-02
5.378961097449064255e-03
4.277100786566734314e-02
1.058986596763134003e-02
-4.316294938325881958e-02
-1.654590480029582977e-02
-1.080076210200786591e-02
-8.487041108310222626e-03
1.294123101979494095e-02
-1.034931000322103500e-02
-6.491847801953554153e-03
2.815915644168853760e-02
-7.735764607787132263e-03
-3.241471946239471436e-02
-2.571313641965389252e-02
-1.539367809891700745e-02
6.175420247018337250e-03
1.807109219953417778e-03
-4.123036563396453857e-02
-6.695270538330078125e-03
1.700760610401630402e-02
1.035604998469352722e-02
-4.473262280225753784e-02
7.504136767238378525e-03
2.776391431689262390e-02
-2.079144818708300591e-03
-2.069379016757011414e-02
-3.690329939126968384e-02
4.019163176417350769e-02
3.628340736031532288e-02
-4.221546649932861328e-02
-4.556167870759963989e-02
-2.953653782606124878e-02
9.296781383454799652e-03
2.652762271463871002e-02
-3.151193633675575256e-02
-4.047614056617021561e-03
-4.081559181213378906e-02
-3.203223645687103271e-02
3.861264511942863464e-02
-5.196833610534667969e-02
1.030793599784374237e-02
-1.101941987872123718e-02
-3.380004782229661942e-03
3.169116750359535217e-02
1.531061343848705292e-02
-3.571837209165096283e-03
2.802558429539203644e-02
3.194985911250114441e-02
5.162818823009729385e-03
4.969959612935781479e-03
1.498680002987384796e-02
-2.732092514634132385e-02
7.420133333653211594e-03
2.006894163787364960e-02
-3.384362533688545227e-02
-3.155320417135953903e-03
-2.048805914819240570e-02
1.743496512062847614e-03
-2.496459987014532089e-03
-3.164240345358848572e-02
1.323748566210269928e-02
-5.077057704329490662e-02
-6.950993556529283524e-03
2.036110125482082367e-02
6.921835243701934814e-03
8.111207745969295502e-03
1.240001805126667023e-02
4.978817421942949295e-03
2.224564738571643829e-02
-1.936895214021205902e-02
-3.419684618711471558e-02
-2.360068634152412415e-02
-1.246827747672796249e-02
-2.511938288807868958e-02
3.195603191852569580e-02
-8.017125539481639862e-03
-3.691495582461357117e-02
-3.840705379843711853e-02
-1.588568091392517090e-02
2.257396653294563293e-02
-1.001627300865948200e-03
-3.754538297653198242e-02
1.619698666036128998e-02
3.385608270764350891e-02
-2.188666723668575287e-02
3.701365739107131958e-02
2.871822379529476166e-02
1.575258933007717133e-02
-4.957242403179407120e-03
1.466892310418188572e-03
4.095901176333427429e-02
1.999448984861373901e-02
1.111794263124465942e-02
-2.284700237214565277e-02
-1.172939594835042953e-02
-2.908039838075637817e-02
-2.673398330807685852e-02
-4.417477920651435852e-02
4.055386781692504883e-02
1.318735443055629730e-02
1.124389003962278366e-02
-1.371514610946178436e-02
2.866332791745662689e-02
4.592536017298698425e-02
-3.355773165822029114e-02
-1.846124790608882904e-02
-4.835999757051467896e-02
3.042328357696533203e-02
-8.996281772851943970e-03
2.371801435947418213e-02
4.277361091226339340e-03
-2.611874043941497803e-02
6.124151404947042465e-03
-4.699482396245002747e-02
3.637522459030151367e-02
3.940847702324390411e-03
-8.070062845945358276e-03
-3.732703626155853271e-02
3.193077817559242249e-02
3.459473699331283569e-02
1.985182985663414001e-02
1.036846078932285309e-02
-3.657297417521476746e-02
-2.726184204220771790e-02
-3.312915563583374023e-02
-3.390283882617950439e-02
-2.264630049467086792e-02
9.045261889696121216e-03
-4.089146852493286133e-03
6.282322108745574951e-03
3.908051177859306335e-02
-1.627341099083423615e-02
2.114393748342990875e-03
-1.493503525853157043e-02
1.985183544456958771e-02
-1.275533158332109451e-02
-2.859549783170223236e-02
-1.057811826467514038e-02
2.491089515388011932e-02
-1.797868125140666962e-02
1.317357458174228668e-02
-5.418141954578459263e-04
-4.019380733370780945e-02
-4.278491809964179993e-02
1.969119161367416382e-02
-2.651004120707511902e-02
2.766590565443038940e-02
-3.781444206833839417e-02
2.237236476503312588e-04
-1.789605244994163513e-02
3.062747651711106300e-03
-1.583219319581985474e-02
2.904110774397850037e-02
-7.062994409352540970e-04
-4.275896027684211731e-02
-2.650828100740909576e-02
-1.721611805260181427e-02
-1.878010109066963196e-02
-2.669936232268810272e-02
-1.750312186777591705e-02
5.953420419245958328e-03
-1.426230557262897491e-02
-1.077293232083320618e-02
1.947880350053310394e-02
1.258772565051913261e-03
3.200428932905197144e-02
1.326345279812812805e-02
4.291384248062968254e-04
-1.491151470690965652e-02
-2.982709184288978577e-02
7.674924097955226898e-03
2.672310359776020050e-02
2.650326862931251526e-02
-1.774519123136997223e-02
-1.197686418890953064e-02
4.769951105117797852e-03
-3.547856956720352173e-02
1.355816330760717392e-02
-3.647384047508239746e-02
-4.028545320034027100e-02
2.242720127105712891e-02
3.400995954871177673e-02
-1.122321467846632004e-02
-4.240602999925613403e-02
-3.996816277503967285e-02
-2.674766629934310913e-02
-4.302764683961868286e-02
8.505070582032203674e-03
1.572161912918090820e-02
5.615836009383201599e-03
-7.314972579479217529e-03
1.875273697078227997e-02
2.449288219213485718e-02
-1.463071629405021667e-02
8.168399799615144730e-04
-4.066260904073715210e-02
-3.369524329900741577e-02
1.566511206328868866e-02
1.438569277524948120e-02
1.606877148151397705e-02
1.072902232408523560e-02
-2.291285060346126556e-02
3.096212260425090790e-02
-2.468847902491688728e-03
-3.998701926320791245e-03
-4.367437586188316345e-02
-4.265727102756500244e-02
6.647253409028053284e-03
2.521881461143493652e-02
-9.834315627813339233e-03
-3.185241669416427612e-02
8.393240277655422688e-04
1.106417924165725708e-02
4.412194341421127319e-02
3.673807904124259949e-02
-4.918866604566574097e-02
2.402241574600338936e-03
3.742022067308425903e-02
-3.006549924612045288e-02
-1.228585187345743179e-02
4.904617555439472198e-03
1.883927360177040100e-02
-4.173719137907028198e-02
7.940753712318837643e-04
-3.582201898097991943e-02
-8.980762213468551636e-04
1.908593997359275818e-02
-1.902713673189282417e-03
-2.232848107814788818e-02
5.618145689368247986e-03
-1.280671078711748123e-02
4.374001547694206238e-02
3.973507788032293320e-03
-1.592797413468360901e-02
1.588019356131553650e-02
-3.972005099058151245e-02
4.022587090730667114e-02
-1.474020723253488541e-02
7.885492406785488129e-03
3.759400919079780579e-02
2.556502260267734528e-02
4.304432868957519531e-02
-9.724481962621212006e-03
1.121997553855180740e-02
-2.666794508695602417e-02
3.316304460167884827e-02
1.957618817687034607e-02
3.278768435120582581e-02
-2.542443014681339264e-02
-1.881697401404380798e-02
3.192850854247808456e-03
3.455905616283416748e-02
2.400847850367426872e-03
-3.289769589900970459e-02
7.035760208964347839e-03
-2.663225308060646057e-02
-2.684494666755199432e-02
-4.627127945423126221e-02
2.356409467756748199e-02
-1.116731762886047363e-02
-1.582386903464794159e-02
4.492484778165817261e-02
-4.100739955902099609e-02
-3.056193701922893524e-02
1.534675713628530502e-02
2.601060084998607635e-03
2.731030248105525970e-02
1.459404360502958298e-02
-2.086540870368480682e-02
-4.016212373971939087e-02
-3.234413638710975647e-02
4.518017172813415527e-02
1.996205747127532959e-02
3.571554645895957947e-02
-1.085450872778892517e-03
2.696455083787441254e-02
2.359242364764213562e-02
2.651641890406608582e-02
3.295428305864334106e-02
-2.266988344490528107e-02
1.295318920165300369e-02
3.335358574986457825e-02
-2.920545637607574463e-03
3.048389591276645660e-02
-1.703247986733913422e-02
2.630173973739147186e-02
-2.424673549830913544e-02
-1.113650575280189514e-02
1.308056060224771500e-02
-3.511146828532218933e-02
-6.531165912747383118e-03
5.813849857077002525e-04
4.537028819322586060e-02
-1.617329753935337067e-02
-1.534302160143852234e-02
-2.960454300045967102e-02
1.330582424998283386e-03
-4.589238762855529785e-02
3.493576869368553162e-02
1.156853884458541870e-02
3.253250569105148315e-02
-3.047564299777150154e-03
-2.517990022897720337e-02
1.096099428832530975e-02
-1.306371949613094330e-02
1.166493166238069534e-02
3.160737687721848488e-03
3.878909349441528320e-02
-2.714295685291290283e-02
-3.057809360325336456e-02
-3.666800260543823242e-02
-1.664808765053749084e-02
-4.749090597033500671e-02
-2.223153226077556610e-02
4.701713565737009048e-03
1.571767777204513550e-02
5.099368747323751450e-03
-3.552771359682083130e-02
3.311859071254730225e-02
-9.997805580496788025e-03
-1.028438191860914230e-02
-1.916104368865489960e-02
-4.611842334270477295e-02
-3.122376836836338043e-02
-2.210660092532634735e-02
2.619895711541175842e-02
-3.773850575089454651e-02
-2.484384924173355103e-02
-4.429546184837818146e-03
1.304868236184120178e-02
-4.446608945727348328e-02
-3.143225237727165222e-02
1.601203344762325287e-02
3.044165484607219696e-02
-4.545448720455169678e-02
-3.085861168801784515e-02
2.104959636926651001e-02
-1.226000115275382996e-02
-8.632221259176731110e-03
2.748269587755203247e-02
1.922433264553546906e-02
3.490687161684036255e-02
-3.866293281316757202e-02
3.817544132471084595e-02
1.424508262425661087e-02
-2.580337226390838623e-02
1.423664670437574387e-02
2.854807116091251373e-02
-2.368882857263088226e-02
2.945524267852306366e-02
-2.115910500288009644e-02
-2.425475791096687317e-02
4.099888727068901062e-02
-1.255047135055065155e-02
2.527798712253570557e-02
1.998889725655317307e-03
2.015243284404277802e-02
-4.538950696587562561e-02
3.554289042949676514e-02
3.274361044168472290e-02
-3.021093271672725677e-02
-3.888275823555886745e-04
2.438563387840986252e-03
-2.640458755195140839e-02
2.288680896162986755e-02
-3.757518483325839043e-03
-4.119737446308135986e-02
-2.045633830130100250e-02
-1.434256695210933685e-02
7.564616855233907700e-03
1.577946729958057404e-02
1.480585336685180664e-02
1.438362617045640945e-02
-4.688706621527671814e-02
1.250333990901708603e-02
-3.478618804365396500e-03
-2.013948559761047363e-02
1.216981676407158375e-03
-1.692583225667476654e-02
2.111557498574256897e-02
3.180038556456565857e-02
1.014811173081398010e-02
-3.481528908014297485e-02
-3.020820766687393188e-02
2.419298887252807617e-02
3.583793714642524719e-02
-1.158376038074493408e-02
-5.248860642313957214e-02
2.066262438893318176e-02
1.837437599897384644e-02
3.951213136315345764e-02
-9.755718056112527847e-04
-1.884655654430389404e-02
1.212439592927694321e-02
2.902313694357872009e-02
3.142470028251409531e-03
3.226281329989433289e-02
2.671923954039812088e-03
-2.236315421760082245e-02
2.753905719146132469e-03
1.577145978808403015e-02
-1.120226271450519562e-02
3.242441220209002495e-03
4.016396403312683105e-02
1.903981156647205353e-02
-1.510640978813171387e-02
3.621765598654747009e-02
1.459839474409818649e-02
-4.283266142010688782e-02
-2.175032347440719604e-02
2.889578463509678841e-03
1.716129109263420105e-02
-3.617658838629722595e-02
-9.125574491918087006e-03
-2.922942489385604858e-02
-4.268904030323028564e-02
3.846715018153190613e-02
-2.513470314443111420e-02
1.280209887772798538e-02
2.338101901113986969e-02
-2.345367893576622009e-02
-1.773993484675884247e-02
-1.607543975114822388e-02
-8.632567711174488068e-03
-1.432077120989561081e-02
-1.587830670177936554e-02
-4.401328787207603455e-02
-2.593796513974666595e-02
-1.367618795484304428e-02
-3.850945830345153809e-02
3.040509670972824097e-02
1.042962819337844849e-02
1.015239115804433823e-02
-3.245606645941734314e-02
-4.489323124289512634e-03
2.861551009118556976e-02
2.135973609983921051e-02
3.672210499644279480e-02
1.247982494533061981e-03
-6.428057327866554260e-03
2.253865823149681091e-02
-3.325022011995315552e-02
2.099352702498435974e-02
2.334735170006752014e-02
-2.830768562853336334e-02
2.920590899884700775e-02
-4.703996330499649048e-02
3.118980489671230316e-02
2.789547294378280640e-02
-3.779851645231246948e-02
-3.418939933180809021e-02
-2.039715275168418884e-02
-9.790068492293357849e-03
2.613947540521621704e-02
2.786053530871868134e-02
2.781207859516143799e-02
8.080750703811645508e-03
1.489723846316337585e-02
-5.112420395016670227e-02
1.769555173814296722e-02
-2.311465144157409668e-02
-2.095060423016548157e-02
5.169257987290620804e-03
-3.534324839711189270e-02
-2.069807425141334534e-02
2.813987433910369873e-02
-1.720277220010757446e-02
-5.027706921100616455e-02
1.012377068400382996e-02
2.457361668348312378e-02
4.261134890839457512e-04
-3.680500388145446777e-02
1.583618856966495514e-02
1.081579457968473434e-02
-6.337548140436410904e-03
-2.405239641666412354e-02
2.435764530673623085e-03
2.163088694214820862e-02
1.349190250039100647e-02
-2.074811421334743500e-02
-4.613079130649566650e-02
2.780213207006454468e-02
2.772585302591323853e-02
-1.529560703784227371e-02
3.117058426141738892e-02
1.440334692597389221e-02
3.099512308835983276e-02
1.146949455142021179e-02
4.264921881258487701e-04
-5.007182806730270386e-02
-4.570316523313522339e-02
-2.517250366508960724e-02
3.354840725660324097e-02
1.434717909432947636e-03
7.727912743575870991e-04
-1.279147528111934662e-02
-1.442755386233329773e-02
-1.297233742661774158e-03
-1.973258517682552338e-02
2.390333637595176697e-02
-2.176486654207110405e-03
2.082842960953712463e-02
5.121467635035514832e-03
-2.216872945427894592e-02
1.375614572316408157e-02
2.423639036715030670e-02
1.985978148877620697e-02
2.114209719002246857e-02
2.220990695059299469e-02
2.005261182785034180e-02
3.777174651622772217e-02
-2.954046614468097687e-02
3.271642327308654785e-02
9.248271584510803223e-03
5.897947587072849274e-03
6.672804709523916245e-03
1.161646936088800430e-02
3.836346045136451721e-02
-3.135804459452629089e-02
-6.085444241762161255e-03
-5.278165917843580246e-03
2.849441766738891602e-02
-9.246162138879299164e-03
-8.986772969365119934e-03
2.290410362184047699e-02
1.438298448920249939e-02
3.804811462759971619e-02
-9.199354099109768867e-04
4.084243252873420715e-02
2.928633615374565125e-02
5.537571851164102554e-03
-8.756885305047035217e-03
-3.298135846853256226e-02
2.912274189293384552e-02
-2.870376780629158020e-02
-1.259880606085062027e-03
4.066599905490875244e-02
1.790721714496612549e-02
-1.769004389643669128e-02
1.251856144517660141e-02
1.340098585933446884e-02
1.011415757238864899e-02
-4.829845204949378967e-02
1.614452688954770565e-03
5.501586478203535080e-03
8.112033829092979431e-03
-5.794557742774486542e-03
9.486020542681217194e-03
-2.382288873195648193e-02
-4.071183502674102783e-02
-3.489369899034500122e-02
2.006556652486324310e-02
-4.794300347566604614e-02
3.304116055369377136e-02
1.999625936150550842e-02
2.379019744694232941e-02
-1.896912418305873871e-02
2.094186842441558838e-02
7.248371839523315430e-03
-1.150844618678092957e-02
-4.030514508485794067e-03
3.670740872621536255e-02
2.983226627111434937e-02
3.636910766363143921e-02
-2.553997747600078583e-02
2.980224788188934326e-03
-5.041800066828727722e-02
9.746453724801540375e-03
-1.847383938729763031e-02
4.148967936635017395e-02
3.261473029851913452e-02
-3.040171787142753601e-02
-2.013608254492282867e-02
-3.061368316411972046e-02
4.121733363717794418e-03
-4.647331312298774719e-02
-2.600626647472381592e-02
6.027737166732549667e-03
-2.423526346683502197e-02
1.652696542441844940e-02
2.083196677267551422e-02
4.401992261409759521e-02
-1.229686848819255829e-02
-3.260915353894233704e-02
-5.726806446909904480e-02
-5.072288680821657181e-03
2.862757304683327675e-03
1.879545859992504120e-02
2.619983442127704620e-02
8.702078834176063538e-03
-3.914660960435867310e-02
3.496562317013740540e-02
-2.490085735917091370e-02
-4.597587883472442627e-02
2.354825474321842194e-02
8.648236282169818878e-03
-3.760748356580734253e-02
-4.906857758760452271e-02
3.380047902464866638e-02
3.088459197897464037e-04
-1.062092930078506470e-02
3.643426671624183655e-02
1.698623411357402802e-02
2.765516005456447601e-02
-4.592678695917129517e-02
6.636015605181455612e-03
-3.691926971077919006e-02
9.472585283219814301e-03
4.247850552201271057e-02
4.158497601747512817e-02
3.926043957471847534e-02
6.181123171700164676e-05
-3.423249721527099609e-02
6.975012365728616714e-03
2.104284986853599548e-02
-1.983648911118507385e-02
-1.849296130239963531e-02
3.133894875645637512e-02
1.691833510994911194e-02
-3.498934581875801086e-02
-8.579069748520851135e-03
-2.378673525527119637e-03
3.862361656501889229e-03
5.489225033670663834e-03
-3.564644977450370789e-02
-4.304734990000724792e-03
-2.254869043827056885e-02
-3.878772631287574768e-02
-1.856752857565879822e-02
-5.425620824098587036e-03
6.610240234294906259e-06
1.009014318697154522e-03
3.637209534645080566e-02
4.169020429253578186e-02
3.560927510261535645e-02
-1.770555274561047554e-03
1.360718347132205963e-02
2.930400520563125610e-02
-2.663227356970310211e-02
-9.910287335515022278e-03
-8.773815818130970001e-03
-2.646626532077789307e-02
-4.000334069132804871e-02
3.121886216104030609e-02
-1.052017789334058762e-02
2.405669726431369781e-02
-2.478877827525138855e-02
-3.776734322309494019e-02
4.175886511802673340e-03
-4.100245982408523560e-02
2.655214257538318634e-02
-1.509319245815277100e-02
2.059691958129405975e-02
-4.546634107828140259e-02
2.386247366666793823e-02
3.366772457957267761e-02
-3.088368661701679230e-02
-2.484013512730598450e-02
-3.235042095184326172e-02
1.371614541858434677e-02
-6.830640137195587158e-03
4.452319443225860596e-02
3.526582941412925720e-02
-3.117652982473373413e-02
-1.662542112171649933e-02
2.881681360304355621e-02
-4.680252075195312500e-02
-1.514060981571674347e-02
3.582818433642387390e-02
3.481754660606384277e-02
3.478172468021512032e-03
-8.380172774195671082e-03
1.153424941003322601e-02
4.358148667961359024e-03
-1.195880956947803497e-02
-2.698614634573459625e-02
-4.437859728932380676e-02
-3.843611851334571838e-02
-1.099511049687862396e-02
-3.497063741087913513e-02
6.720647681504487991e-03
-3.508471697568893433e-02
1.815395429730415344e-02
-1.732680015265941620e-02
-9.747215546667575836e-03
-4.818809218704700470e-03
9.755562059581279755e-03
7.377130910754203796e-03
9.484813548624515533e-03
2.621114999055862427e-02
2.515012957155704498e-02
-2.250956371426582336e-02
6.367911119014024734e-03
-3.830479830503463745e-02
-4.288245737552642822e-02
3.151113912463188171e-02
-2.426503598690032959e-02
-9.445928037166595459e-03
4.038049653172492981e-02
-2.448745630681514740e-02
-6.198526825755834579e-03
2.413881570100784302e-02
-3.555620834231376648e-02
8.288923650979995728e-03
-2.656099945306777954e-02
-7.423051167279481888e-03
-1.353205740451812744e-02
-2.288870979100465775e-03
-4.988925997167825699e-03
-2.526971884071826935e-02
2.849829569458961487e-02
2.123649977147579193e-02
-2.916765213012695312e-02
-2.584423124790191650e-02
-1.259739417582750320e-02
-2.793326787650585175e-02
-1.984047004953026772e-03
2.456914819777011871e-02
-3.356116265058517456e-02
-2.540329471230506897e-02
2.669740281999111176e-02
-4.802007228136062622e-02
-8.503686636686325073e-03
4.993916675448417664e-02
4.145735129714012146e-02
2.092814818024635315e-02
3.781951591372489929e-02
-2.692698268219828606e-03
2.368742367252707481e-03
9.107690304517745972e-03
-3.276168555021286011e-02
1.576063921675086021e-03
-4.240280017256736755e-03
-2.043492533266544342e-02
-2.266377210617065430e-02
-2.028512954711914062e-02
-3.597936034202575684e-02
-4.554926604032516479e-02
-2.993616508319973946e-03
1.017298456281423569e-02
-2.114236913621425629e-02
1.294312812387943268e-02
3.624882549047470093e-02
1.809923537075519562e-02
3.114133514463901520e-02
-2.073462121188640594e-02
-5.023537576198577881e-02
2.192674949765205383e-02
-1.370934536680579185e-03
2.365408279001712799e-02
-2.550770156085491180e-02
-6.460809148848056793e-03
-2.104944363236427307e-02
-4.267871379852294922e-02
-2.507064305245876312e-02
-3.678753972053527832e-02
6.838778033852577209e-03
1.561954990029335022e-02
-1.401939312927424908e-03
-2.010920643806457520e-02
-1.125342212617397308e-02
-2.633532136678695679e-02
1.184325385838747025e-02
1.130766933783888817e-03
6.806164048612117767e-03
-2.866708301007747650e-02
3.274659067392349243e-02
6.411019712686538696e-03
-3.845819085836410522e-02
3.303621429949998856e-03
-3.585197404026985168e-02
-3.002525307238101959e-03
-1.811345689930021763e-03
-2.818827517330646515e-02
-2.216057293117046356e-02
-4.472041130065917969e-02
-2.486259676516056061e-02
8.924338966608047485e-03
-1.875387132167816162e-02
1.032100897282361984e-02
-1.202848833054304123e-02
6.444356869906187057e-03
-1.515707746148109436e-02
2.729801461100578308e-02
4.258349537849426270e-02
-4.680339246988296509e-02
3.189022466540336609e-02
1.395857147872447968e-02
4.027488455176353455e-02
-1.162666454911231995e-02
3.867864608764648438e-02
1.708353310823440552e-02
4.160926677286624908e-03
3.150472417473793030e-02
2.069032937288284302e-02
-7.485487032681703568e-03
1.712112501263618469e-02
-3.461845964193344116e-02
-2.724747546017169952e-02
2.716771699488162994e-02
-5.424486473202705383e-02
-8.694198913872241974e-03
-1.813737303018569946e-02
-5.463432148098945618e-02
-5.006092786788940430e-02
-3.248079866170883179e-02
-2.756547741591930389e-02
2.902439981698989868e-02
-3.246451169252395630e-02
-3.738770633935928345e-02
-3.164481371641159058e-03
3.470918536186218262e-02
6.996546871960163116e-03
1.720394007861614227e-02
-1.623603329062461853e-02
-4.745351895689964294e-02
3.666255623102188110e-02
2.328185737133026123e-02
2.560129575431346893e-02
-3.367368830367922783e-03
1.071293745189905167e-02
1.462527737021446228e-02
-4.675862193107604980e-02
-6.634938996285200119e-03
8.958783000707626343e-03
5.691471043974161148e-03
1.907671242952346802e-02
2.151421213056892157e-04
-4.779563844203948975e-02
-1.100998837500810623e-02
-4.658244550228118896e-02
-3.343479707837104797e-02
2.554451301693916321e-02
-2.508027851581573486e-02
-8.839434944093227386e-03
-1.927005359902977943e-03
-3.988749161362648010e-02
-1.127874013036489487e-02
-2.164809405803680420e-02
-1.031183730810880661e-02
-3.646490350365638733e-02
1.700568571686744690e-02
-1.272188127040863037e-02
-2.113614231348037720e-02
-3.400120511651039124e-02
-3.143052756786346436e-02
-2.011207304894924164e-02
2.822920680046081543e-02
-2.105376310646533966e-02
1.483870297670364380e-02
-3.028797917068004608e-02
-2.672265097498893738e-02
3.936973214149475098e-02
3.197966888546943665e-02
-4.056531190872192383e-02
1.416356861591339111e-02
-1.839510910212993622e-02
-2.717770636081695557e-03
-2.149404212832450867e-02
-5.007832497358322144e-02
4.318539053201675415e-03
3.042288310825824738e-02
-4.217856377363204956e-02
-7.281430065631866455e-03
4.523216933012008667e-02
-9.138026274740695953e-03
-4.146262630820274353e-02
-3.896477073431015015e-02
1.596860028803348541e-02
1.618798822164535522e-02
-2.113392017781734467e-02
-1.829257793724536896e-02
-1.329923793673515320e-02
3.161782398819923401e-02
-2.705293521285057068e-02
-4.019585251808166504e-02
-2.147881896235048771e-04
1.237090025097131729e-02
1.603868324309587479e-03
-1.954246312379837036e-02
-5.002707988023757935e-02
-5.427103117108345032e-02
-3.894392028450965881e-02
1.154040684923529625e-03
2.490783343091607094e-03
4.131811857223510742e-02
3.542815800756216049e-03
-2.448590099811553955e-02
5.152486730366945267e-03
-4.256310686469078064e-02
2.311656065285205841e-02
2.930159308016300201e-02
-4.462273791432380676e-02
-2.214589156210422516e-02
-4.825695231556892395e-02
1.041333191096782684e-03
3.868206217885017395e-02
-1.451981137506663799e-03
2.787222899496555328e-02
-2.128671854734420776e-02
2.397401630878448486e-02
-3.051677718758583069e-02
2.800573594868183136e-02
-1.653179153800010681e-02
-2.639042399823665619e-02
1.962574571371078491e-02
-3.061598539352416992e-02
3.876866772770881653e-02
-1.755613274872303009e-02
-2.547847572714090347e-03
8.297553285956382751e-03
1.763181528076529503e-03
6.216919049620628357e-03
1.344281248748302460e-02
8.981126360595226288e-03
-3.027812018990516663e-02
-1.308863982558250427e-02
1.749328896403312683e-02
1.799466460943222046e-02
1.533163245767354965e-02
-1.798458583652973175e-02
3.142563253641128540e-02
1.633236929774284363e-02
2.206125296652317047e-02
3.823202848434448242e-02
-9.918968193233013153e-03
1.979890652000904083e-02
-1.034196745604276657e-02
-4.036815091967582703e-02
5.333298351615667343e-03
1.920469105243682861e-02
-9.127609431743621826e-03
-3.745478461496531963e-04
-3.819931671023368835e-02
1.893305033445358276e-02
-3.366436110809445381e-03
3.454115241765975952e-02
2.178427949547767639e-02
3.214454278349876404e-02
-6.405299995094537735e-03
-3.121684119105339050e-02
-2.796484716236591339e-02
-1.119540724903345108e-02
7.949729450047016144e-03
-1.772302202880382538e-02
-3.042317181825637817e-02
-4.235572740435600281e-02
1.112630218267440796e-02
9.112206316785886884e-05
-4.097000882029533386e-02
-2.661786042153835297e-02
3.298485651612281799e-02
-4.268573969602584839e-02
-2.716499380767345428e-02
-1.473308447748422623e-02
2.877678535878658295e-02
3.351255506277084351e-02
1.320001669228076935e-02
-2.456541918218135834e-02
1.704010926187038422e-02
-2.938381396234035492e-02
-2.443320676684379578e-02
8.002479560673236847e-03
-2.257549390196800232e-02
1.557044591754674911e-02
2.747736312448978424e-02
-2.367697283625602722e-02
-7.314553949981927872e-03
-1.151405833661556244e-02
2.629477344453334808e-02
1.495026797056198120e-02
3.383800387382507324e-02
-4.226166009902954102e-02
-1.293598394840955734e-02
-4.188024252653121948e-02
4.200195893645286560e-02
-1.726539246737957001e-02
-5.351249128580093384e-02
4.149822145700454712e-02
1.327333599328994751e-02
3.499395400285720825e-02
-1.429046038538217545e-02
3.164471685886383057e-02
-2.238735929131507874e-02
-4.775524605065584183e-03
-4.128348454833030701e-02
2.391192130744457245e-02
-2.042681910097599030e-02
-3.946702182292938232e-02
-2.255629189312458038e-02
3.661277517676353455e-02
-3.877613320946693420e-02
4.055576398968696594e-02
3.978740423917770386e-03
-3.110337257385253906e-02
-2.013175189495086670e-02
-4.031509906053543091e-02
2.125130221247673035e-02
5.860874662175774574e-04
-4.220412671566009521e-02
-1.805975846946239471e-02
7.722130510956048965e-03
2.696026302874088287e-02
-2.691222913563251495e-02
1.666815392673015594e-02
3.538622055202722549e-03
1.478879246860742569e-02
-3.877632692456245422e-02
-3.907153010368347168e-02
1.731403544545173645e-02
2.997753955423831940e-02
2.406671270728111267e-02
3.346161218360066414e-03
1.253518275916576385e-02
-5.229909718036651611e-02
1.836850121617317200e-02
-5.422799848020076752e-03
1.573267765343189240e-02
6.409977562725543976e-03
2.555991150438785553e-02
1.405639480799436569e-02
-3.755739331245422363e-02
-2.148389071226119995e-02
1.411310024559497833e-02
-3.468341007828712463e-02
3.853209316730499268e-02
-3.724085167050361633e-02
-9.002050384879112244e-03
-4.346289485692977905e-02
2.183457277715206146e-02
2.231496013700962067e-02
2.304560504853725433e-02
-2.533991076052188873e-02
1.913697458803653717e-02
2.859815955162048340e-02
-2.238281443715095520e-02
1.249076705425977707e-02
-3.434048220515251160e-02
-2.564050629734992981e-02
-5.242491886019706726e-02
3.500709310173988342e-02
-1.990953646600246429e-02
3.661823272705078125e-02
1.007277518510818481e-02
-2.968907356262207031e-02
-2.437336556613445282e-02
-1.549707376398146152e-03
-2.926574321463704109e-03
2.787668071687221527e-02
-2.148112840950489044e-02
-5.656545981764793396e-03
-2.519459836184978485e-02
-2.185495384037494659e-02
2.621675468981266022e-02
-1.506871450692415237e-02
7.511152420192956924e-03
1.702002994716167450e-02
1.243992028321372345e-05
3.345541772432625294e-04
9.831309318542480469e-03
-4.598904924932867289e-04
2.075570449233055115e-02
3.136486979201436043e-03
-4.787275393027812243e-04
2.852350100874900818e-02
-3.536597639322280884e-02
2.584967575967311859e-02
1.736688427627086639e-02
-5.313967820256948471e-03
2.691852860152721405e-02
2.186210639774799347e-02
1.177245634607970715e-03
3.568919003009796143e-02
1.230663899332284927e-02
6.886940915137529373e-03
-1.454281271435320377e-03
-2.136492356657981873e-02
-5.982328206300735474e-03
-1.889401488006114960e-02
-9.013247676193714142e-03
-3.145428001880645752e-02
1.676977425813674927e-02
1.591903530061244965e-02
-2.342717163264751434e-02
4.056325554847717285e-02
-2.899495884776115417e-02
-3.860205411911010742e-02
1.815004460513591766e-02
2.718722075223922729e-02
-1.372220367193222046e-02
8.306275121867656708e-03
9.398949332535266876e-03
5.499541293829679489e-03
-5.574453249573707581e-02
3.645643219351768494e-02
3.385154530405998230e-02
2.325519360601902008e-02
3.059986978769302368e-02
-4.628427699208259583e-02
-7.417528424412012100e-03
4.532293824013322592e-04
1.513260230422019958e-02
6.699278485029935837e-03
4.447042010724544525e-03
-1.915870793163776398e-02
-2.283757366240024567e-02
-1.824856363236904144e-02
-8.541101589798927307e-03
-3.091992065310478210e-02
1.748807169497013092e-02
-1.082914229482412338e-02
-2.584511972963809967e-02
-1.363361068069934845e-02
2.761495113372802734e-02
-4.634279012680053711e-02
1.177053712308406830e-02
2.575447782874107361e-02
1.760660856962203979e-02
-4.112289473414421082e-02
1.436125254258513451e-03
1.779087446630001068e-02
2.654241397976875305e-02
-2.505987882614135742e-02
7.176440674811601639e-03
-2.721121534705162048e-03
-1.972839049994945526e-02
-2.163209579885005951e-02
2.342856489121913910e-02
-2.251340635120868683e-02
-2.818794362246990204e-02
1.033591944724321365e-02
3.478141874074935913e-02
7.113050669431686401e-04
-8.554261177778244019e-03
2.388596907258033752e-02
-1.569046452641487122e-02
2.304219827055931091e-02
-1.013052836060523987e-02
-1.580782048404216766e-02
2.559980936348438263e-02
-2.495449036359786987e-02
3.521365672349929810e-02
-4.642634838819503784e-02
-3.012913838028907776e-02
-8.065839298069477081e-03
8.862763643264770508e-03
-2.850278094410896301e-02
2.418889477849006653e-02
-2.125227265059947968e-02
-5.316719040274620056e-02
-4.159915447235107422e-02
-7.503344211727380753e-03
-3.358128713443875313e-03
2.739826776087284088e-02
1.958590373396873474e-02
-5.827727261930704117e-03
1.704118959605693817e-02
1.472564321011304855e-02
3.672366216778755188e-02
1.188231073319911957e-02
3.937301784753799438e-02
3.568106517195701599e-02
4.571511875838041306e-03
-2.141724899411201477e-02
2.925338037312030792e-02
-1.999604888260364532e-02
1.728951372206211090e-02
1.450416445732116699e-02
-2.163898386061191559e-02
3.722514584660530090e-02
2.611798699945211411e-03
7.683086674660444260e-03
3.690981119871139526e-02
-1.436024904251098633e-02
4.390736576169729233e-03
-1.792193017899990082e-02
-2.211485058069229126e-02
-4.783759266138076782e-02
2.887235395610332489e-02
2.713553141802549362e-03
-6.701332051306962967e-03
-1.685145497322082520e-02
-4.360580816864967346e-02
-3.112929314374923706e-02
1.065914146602153778e-02
2.835523709654808044e-02
2.240584418177604675e-02
-3.927547112107276917e-02
3.797541558742523193e-02
-7.172927726060152054e-03
-2.097998745739459991e-02
1.983999973163008690e-03
-5.001229792833328247e-02
-4.914637282490730286e-02
3.318253438919782639e-03
-3.742661699652671814e-02
3.004785627126693726e-02
-4.608145356178283691e-02
1.414553448557853699e-02
1.059136539697647095e-02
-2.675209939479827881e-02
-3.541658865287899971e-03
-3.533708676695823669e-02
1.864443882368505001e-03
6.336620543152093887e-03
-9.716782718896865845e-03
-6.964540574699640274e-03
2.609237469732761383e-02
-3.371887281537055969e-02
-2.451956272125244141e-02
2.272043935954570770e-02
2.736351080238819122e-02
-3.896339982748031616e-02
-4.162805899977684021e-02
-5.218031257390975952e-02
2.905857004225254059e-02
1.956847868859767914e-02
8.601450361311435699e-03
1.883188635110855103e-02
-2.159288711845874786e-02
2.349441871047019958e-02
2.357689430937170982e-03
-4.582132399082183838e-02
7.354872766882181168e-03
4.287267848849296570e-02
-4.534571431577205658e-03
-2.884154953062534332e-02
2.490921691060066223e-02
2.728706598281860352e-02
-4.537768254522234201e-04
1.394899841398000717e-02
-1.055042352527379990e-02
9.945974685251712799e-03
-1.347243878990411758e-02
3.801029175519943237e-02
-2.031715400516986847e-02
-4.989976808428764343e-02
3.399069234728813171e-02
-3.620941424742341042e-03
8.086535148322582245e-03
1.093350164592266083e-02
-4.432203620672225952e-02
-3.805908607318997383e-03
-4.220980778336524963e-02
-3.240974247455596924e-02
-3.262208402156829834e-02
2.364570973441004753e-03
1.536777708679437637e-03
-5.102981999516487122e-02
1.824794104322791100e-03
3.689004108309745789e-02
-3.586737439036369324e-03
2.042048610746860504e-02
-1.668764837086200714e-02
-7.004266604781150818e-03
1.948477886617183685e-02
1.077292952686548233e-02
2.141217514872550964e-02
-2.235584892332553864e-02
1.329377945512533188e-02
3.914509713649749756e-02
4.024566337466239929e-02
-3.096362948417663574e-02
2.571274340152740479e-02
-3.795700520277023315e-02
1.710982993245124817e-02
-2.761489013209939003e-03
-9.905195794999599457e-03
-4.409570619463920593e-02
3.422003239393234253e-02
-2.178759127855300903e-02
-3.228787705302238464e-02
-7.630439940840005875e-04
-3.215194121003150940e-02
-1.824672333896160126e-02
2.616736851632595062e-02
-2.111977711319923401e-02
-1.848618499934673309e-03
-4.856454581022262573e-02
-2.237622067332267761e-02
4.486766643822193146e-03
-4.505814984440803528e-03
1.566807553172111511e-02
-7.440255023539066315e-03
2.344572916626930237e-02
2.793739084154367447e-03
-6.352963857352733612e-03
-2.216095663607120514e-02
-4.306728392839431763e-02
2.378222346305847168e-02
1.229996327310800552e-02
-1.016361452639102936e-02
2.739016525447368622e-02
-2.525154873728752136e-02
-4.492712765932083130e-02
1.519333291798830032e-02
-1.813714951276779175e-02
-4.026921838521957397e-02
-4.844230599701404572e-03
-2.977488748729228973e-02
-3.429142758250236511e-02
1.927520148456096649e-02
2.076729387044906616e-02
9.984287433326244354e-03
-2.863235585391521454e-02
-3.064314834773540497e-02
-4.232428222894668579e-02
-2.358630113303661346e-02
-6.044927518814802170e-03
-1.983428187668323517e-02
3.104976564645767212e-02
4.373266920447349548e-02
-2.249706070870161057e-03
-2.102646743878722191e-03
1.569620706140995026e-02
-3.326560556888580322e-02
2.250123769044876099e-02
-2.731153182685375214e-02
-3.057303838431835175e-02
-2.547214925289154053e-02
-2.907078899443149567e-02
1.176168862730264664e-02
1.726077124476432800e-02
4.464728012681007385e-02
3.540510311722755432e-02
-1.738468371331691742e-02
-8.836408145725727081e-03
-1.306885294616222382e-02
-5.502963066101074219e-02
1.786897704005241394e-02
-3.735494241118431091e-02
-4.362698271870613098e-02
-4.847300425171852112e-02
-4.056005179882049561e-02
-1.398169435560703278e-03
3.794576972723007202e-02
7.500855252146720886e-03
1.956036547198891640e-03
-3.070725128054618835e-02
7.271873764693737030e-03
-2.239297702908515930e-02
-1.455727033317089081e-04
1.302742306143045425e-02
3.465407714247703552e-02
4.472203552722930908e-02
-4.044693708419799805e-02
1.336152385920286179e-02
-3.534689778462052345e-03
1.715474203228950500e-02
-2.105569094419479370e-02
1.877745799720287323e-02
2.861443907022476196e-03
2.016982994973659515e-02
1.129921339452266693e-02
-2.088090218603610992e-02
-9.544391185045242310e-03
-9.326664730906486511e-03
2.049044519662857056e-02
-2.241980284452438354e-02
1.242114417254924774e-02
-2.741164714097976685e-02
-1.670823059976100922e-02
-2.867656946182250977e-02
-6.554044783115386963e-03
-2.299433387815952301e-02
3.402617760002613068e-03
1.659571193158626556e-02
-3.346875309944152832e-02
2.775481529533863068e-02
-3.508945927023887634e-02
1.360074430704116821e-02
-2.322618383914232254e-04
1.716044149361550808e-03
4.038755968213081360e-02
-1.139469910413026810e-02
1.375829987227916718e-02
1.501026935875415802e-02
7.564158295281231403e-04
1.651659235358238220e-02
1.732062362134456635e-02
3.927817195653915405e-02
3.480475023388862610e-02
-3.063719533383846283e-02
-3.617905452847480774e-02
-3.104209154844284058e-02
-1.185700017958879471e-02
4.652945324778556824e-02
-2.411776036024093628e-02
5.273230373859405518e-03
-2.682740427553653717e-02
9.596834890544414520e-03
-5.029463395476341248e-02
-2.783134020864963531e-02
-4.784261062741279602e-02
-1.391981355845928192e-02
-2.118655666708946228e-02
-2.690268866717815399e-02
3.901447355747222900e-02
-4.168523475527763367e-02
-4.712603986263275146e-02
3.191418945789337158e-02
2.645107544958591461e-02
-2.454368025064468384e-02
4.311725031584501266e-03
-1.053357962518930435e-02
-2.841502055525779724e-02
-2.792118117213249207e-02
-9.950305335223674774e-03
1.706995256245136261e-02
3.462772071361541748e-02
-1.566190458834171295e-02
-2.696713060140609741e-02
-3.697409480810165405e-02
3.829283639788627625e-03
5.298667401075363159e-02
-1.319837011396884918e-02
-1.087446324527263641e-02
1.681359484791755676e-02
-6.182156503200531006e-04
2.802775008603930473e-03
-7.647417369298636913e-04
1.325225736945867538e-02
-4.313731566071510315e-02
2.116639167070388794e-02
2.971443347632884979e-02
-9.996320120990276337e-03
-1.594165340065956116e-02
7.601696066558361053e-03
-9.608375839889049530e-03
-2.809541474562138319e-04
9.796190075576305389e-03
-2.935280837118625641e-02
1.398802641779184341e-02
-9.770944714546203613e-03
2.144114486873149872e-02
-3.945472836494445801e-02
3.133974969387054443e-02
-3.215939179062843323e-02
3.192955628037452698e-02
-1.991570182144641876e-02
-1.549715176224708557e-03
2.258329838514328003e-02
3.173439204692840576e-02
-3.564368560910224915e-02
2.191749960184097290e-02
3.175462409853935242e-02
8.593767881393432617e-03
-4.449182003736495972e-02
1.564337871968746185e-02
-4.347297176718711853e-02
-1.351340394467115402e-02
7.661486510187387466e-03
2.278562262654304504e-02
-2.615688182413578033e-02
8.789007551968097687e-03
1.209287531673908234e-02
1.885903440415859222e-02
-2.272017486393451691e-02
-3.176971524953842163e-02
-2.213646471500396729e-02
-1.761524192988872528e-02
-2.023182250559329987e-02
2.518390491604804993e-02
2.326547726988792419e-02
-3.555274009704589844e-02
-4.977974668145179749e-02
2.255025878548622131e-02
3.577933087944984436e-02
-4.188331216573715210e-02
3.432840481400489807e-02
2.325615286827087402e-02
-2.597708068788051605e-02
-9.296158328652381897e-03
1.644909940659999847e-02
1.158425956964492798e-02
-1.713596656918525696e-02
5.144974961876869202e-02
9.357312228530645370e-04
2.525679208338260651e-02
-1.900381222367286682e-02
1.321378909051418304e-02
4.181318450719118118e-03
2.016297355294227600e-02
-2.868662215769290924e-02
1.609552465379238129e-02
2.775954082608222961e-02
-3.158546984195709229e-02
4.105624184012413025e-02
4.166212864220142365e-03
2.251950092613697052e-02
-2.966355346143245697e-02
4.712104797363281250e-02
3.821456804871559143e-02
2.108260057866573334e-02
2.257067896425724030e-02
-2.665649913251399994e-02
-4.645898193120956421e-02
-2.593778260052204132e-02
-1.791185885667800903e-02
1.240078452974557877e-02
2.930434606969356537e-02
1.534311304567381740e-04
3.037421964108943939e-03
-6.130919791758060455e-03
1.419017184525728226e-02
2.985830046236515045e-02
-4.074083641171455383e-02
-1.799594424664974213e-02
-5.066495016217231750e-02
4.554105456918478012e-03
-1.954333158209919930e-03
-1.462803594768047333e-02
4.384893551468849182e-02
-4.001472890377044678e-02
-2.507669478654861450e-02
1.312048174440860748e-02
3.748648241162300110e-02
4.395666532218456268e-03
7.772267330437898636e-03
-3.970512002706527710e-02
-1.344596967101097107e-02
1.038352772593498230e-02
-1.273240777663886547e-03
4.335534572601318359e-02
-4.307469353079795837e-02
1.772115379571914673e-02
-4.034118726849555969e-02
-2.224506437778472900e-02
-3.523646295070648193e-02
-2.333549782633781433e-03
2.121214196085929871e-02
-3.691893070936203003e-02
-4.672159254550933838e-02
-4.332870990037918091e-02
1.510199904441833496e-02
3.758634626865386963e-02
-1.868898607790470123e-02
-5.725002288818359375e-02
2.522014081478118896e-02
1.921071554534137249e-03
3.030323423445224762e-02
2.949017472565174103e-02
1.160825416445732117e-02
-2.563868649303913116e-02
-2.859138324856758118e-02
-3.827095031738281250e-02
-5.195030570030212402e-02
-1.815168559551239014e-02
3.187783434987068176e-02
9.699044749140739441e-03
3.635251149535179138e-02
-2.926551923155784607e-02
-2.485243044793605804e-02
3.407756239175796509e-02
5.851302761584520340e-03
3.956402186304330826e-03
-1.959563978016376495e-02
-2.283790148794651031e-02
-3.767144307494163513e-02
-8.783205412328243256e-03
-1.547453086823225021e-02
-2.360302209854125977e-02
-2.981925010681152344e-02
1.326235197484493256e-02
3.718232735991477966e-02
1.225541066378355026e-02
7.885573431849479675e-03
-1.132951769977807999e-02
3.686281666159629822e-02
-2.010008133947849274e-02
-2.919997461140155792e-02
-4.721830785274505615e-02
2.369108144193887711e-03
-3.793689981102943420e-02
-3.026925213634967804e-02
-6.274288054555654526e-03
1.442645490169525146e-02
-3.972970694303512573e-02
-1.120290067046880722e-02
-1.802445971406996250e-03
-4.948593303561210632e-02
-4.934485629200935364e-02
3.341269865632057190e-02
3.217676281929016113e-02
2.083262614905834198e-02
2.819401025772094727e-02
-1.114557217806577682e-02
-7.714992854744195938e-03
-3.144795447587966919e-02
2.652099356055259705e-02
-3.748350590467453003e-02
-3.044324554502964020e-02
-3.259233385324478149e-02
2.162050828337669373e-02
-2.575216442346572876e-02
-2.993213757872581482e-02
8.052802644670009613e-03
-1.801847293972969055e-02
1.128517091274261475e-02
-1.141529530286788940e-03
2.175757661461830139e-02
-2.268759347498416901e-02
-2.959401160478591919e-02
2.391824312508106232e-02
-7.477111648768186569e-03
2.493157610297203064e-02
2.995295077562332153e-02
2.831293269991874695e-02
1.916221529245376587e-02
-2.388824149966239929e-02
-2.197218500077724457e-02
-2.323403209447860718e-02
8.714454248547554016e-03
2.756881155073642731e-02
3.705108165740966797e-02
-5.023941025137901306e-02
1.656238920986652374e-02
4.355274140834808350e-02
1.599527336657047272e-02
4.329759255051612854e-02
-3.325029835104942322e-02
2.102058380842208862e-02
-1.207337249070405960e-02
1.539891771972179413e-02
1.627647317945957184e-02
-3.076699748635292053e-02
1.622585579752922058e-02
3.470851108431816101e-02
-4.609359055757522583e-02
-2.179273217916488647e-02
-1.587050594389438629e-02
-1.104490249417722225e-03
-4.868727549910545349e-02
-3.288965299725532532e-02
2.675231173634529114e-02
-3.013704158365726471e-02
-2.220419421792030334e-02
2.432915382087230682e-02
2.596950717270374298e-02
1.237373892217874527e-02
-1.567105948925018311e-02
-1.528181042522192001e-02
4.420263692736625671e-02
-3.363641723990440369e-02
-2.566457539796829224e-02
-1.777903735637664795e-02
-3.654016181826591492e-02
4.500623047351837158e-02
-3.568891435861587524e-02
4.910883959382772446e-03
-3.545831888914108276e-02
-3.486200468614697456e-03
1.673407666385173798e-02
4.575433582067489624e-02
-3.388177603483200073e-02
9.470087476074695587e-03
-2.672814391553401947e-02
8.436164818704128265e-03
4.055210575461387634e-02
-2.535375952720642090e-02
-2.721210755407810211e-02
8.078810758888721466e-03
-2.761555276811122894e-02
-1.975224353373050690e-02
-1.784141175448894501e-02
4.129350557923316956e-02
1.649313233792781830e-02
3.437197580933570862e-02
-4.312080144882202148e-02
-2.413807064294815063e-02
-1.390945259481668472e-02
-3.895474597811698914e-02
-2.191416732966899872e-02
1.682280749082565308e-02
-1.964483037590980530e-02
-1.297912187874317169e-02
-3.862958773970603943e-02
3.050585649907588959e-02
1.387106999754905701e-02
1.478363852947950363e-02
2.073491550981998444e-02
3.283918276429176331e-02
6.641648942604660988e-04
9.002586826682090759e-03
-1.246996689587831497e-02
-4.675056040287017822e-02
-3.938191570341587067e-03
3.001646511256694794e-02
3.696181252598762512e-02
-4.367188364267349243e-02
1.151823345571756363e-02
3.850847482681274414e-02
3.138772398233413696e-02
3.287937492132186890e-02
-2.555624023079872131e-02
6.144011393189430237e-03
-1.385625638067722321e-02
3.768442943692207336e-02
-6.906319875270128250e-03
-2.978276833891868591e-02
4.146893322467803955e-02
1.623041578568518162e-03
-1.025409903377294540e-02
-1.927271112799644470e-02
-3.048270754516124725e-02
-5.746179260313510895e-03
1.484817359596490860e-02
-3.236069902777671814e-02
-1.614421792328357697e-02
-2.692343108355998993e-02
-2.860297076404094696e-02
-9.042339399456977844e-03
-4.136955831199884415e-03
-2.398905716836452484e-02
2.362430468201637268e-02
1.569288969039916992e-02
1.955950818955898285e-02
1.316704973578453064e-02
-2.463073097169399261e-02
-1.854505576193332672e-02
-2.906296774744987488e-02
6.700701545923948288e-03
-4.086573421955108643e-02
-3.083501383662223816e-02
-3.861041367053985596e-02
-2.563729695975780487e-02
1.933091133832931519e-02
1.737898960709571838e-02
2.384086884558200836e-02
-3.240006417036056519e-02
-1.716117002069950104e-02
-7.709034718573093414e-03
2.424052730202674866e-02
2.797906287014484406e-02
-4.907375946640968323e-02
-3.783003240823745728e-02
-8.708233013749122620e-03
-4.068488627672195435e-02
-2.446297556161880493e-02
-2.752563171088695526e-02
-4.236974194645881653e-02
-3.699346259236335754e-02
-1.838016323745250702e-02
2.421932481229305267e-02
-2.264189161360263824e-02
6.697009783238172531e-03
-1.519564818590879440e-02
-3.849261626601219177e-02
-4.200230166316032410e-02
-3.703922405838966370e-02
4.620160441845655441e-03
2.613652497529983521e-02
1.343788113445043564e-02
2.290587127208709717e-02
-3.597735427320003510e-03
2.376145124435424805e-02
2.248881757259368896e-02
-3.974115103483200073e-02
-3.761742636561393738e-02
1.313617080450057983e-02
-5.019266903400421143e-02
-5.612673982977867126e-02
-2.623409032821655273e-02
-1.397081278264522552e-02
-3.503987193107604980e-02
1.783850975334644318e-02
-1.417928375303745270e-03
3.273647278547286987e-02
3.297981992363929749e-02
1.877535693347454071e-02
1.066142134368419647e-02
2.533424086868762970e-02
-2.689108997583389282e-02
-2.936743386089801788e-02
-3.068409394472837448e-03
-5.608940869569778442e-02
5.105685070157051086e-02
-2.931260503828525543e-02
2.335127815604209900e-02
1.911014132201671600e-02
2.041405625641345978e-02
5.931177642196416855e-03
1.819898933172225952e-02
-2.828413434326648712e-02
6.052601616829633713e-03
-4.453620314598083496e-02
2.361128805205225945e-03
-2.876637130975723267e-02
-2.207799628376960754e-02
4.999035038053989410e-03
-2.149887941777706146e-02
-3.684464842081069946e-02
2.439209073781967163e-02
3.055849485099315643e-02
1.839456334710121155e-02
-6.580706220120191574e-03
3.133491147309541702e-03
-2.778381109237670898e-02
-3.585885465145111084e-02
2.287361025810241699e-02
-4.061173647642135620e-03
3.788598254323005676e-02
-2.592762373387813568e-02
3.073580330237746239e-03
-2.955454960465431213e-02
2.401079796254634857e-02
-2.787470631301403046e-02
-2.775004878640174866e-02
-1.268455944955348969e-02
-1.165657490491867065e-02
4.576411098241806030e-02
3.098313882946968079e-02
3.381052240729331970e-02
-2.276387251913547516e-02
2.971042506396770477e-02
-2.728794701397418976e-02
-1.507399603724479675e-02
-3.046477958559989929e-02
-2.563689462840557098e-02
-1.152422185987234116e-02
2.811676589772105217e-03
6.554688792675733566e-03
2.605574904009699821e-03
-1.881239376962184906e-02
-3.178549930453300476e-02
-3.390858881175518036e-03
-1.567154005169868469e-02
-2.129440940916538239e-02
-4.110211879014968872e-02
1.368771493434906006e-02
4.410097375512123108e-02
-1.324631180614233017e-02
1.031180564314126968e-02
-1.592882093973457813e-03
-1.912396633997559547e-03
2.174702845513820648e-02
7.732994854450225830e-03
-1.257016509771347046e-02
-1.123400032520294189e-02
-2.044156938791275024e-02
4.597868397831916809e-02
-4.539792239665985107e-02
-5.133375152945518494e-02
-2.031702734529972076e-02
4.951535537838935852e-02
4.750579968094825745e-02
-8.409163914620876312e-03
-2.514611929655075073e-02
-2.200329676270484924e-03
2.934887260198593140e-02
-2.018136344850063324e-02
-1.472335029393434525e-02
1.692173443734645844e-02
-4.701701924204826355e-02
-7.518235128372907639e-03
2.830755338072776794e-02
-5.887418054044246674e-03
4.228165000677108765e-02
5.003178864717483521e-02
-8.287548087537288666e-03
-2.612501755356788635e-02
-3.448896110057830811e-02
1.694577746093273163e-03
3.280376642942428589e-02
-1.343817356973886490e-02
1.896099001169204712e-02
-3.421353176236152649e-02
1.228356454521417618e-02
3.459867462515830994e-02
3.363625705242156982e-02
4.089006409049034119e-02
1.433126442134380341e-02
3.208863362669944763e-02
-2.392780221998691559e-02
-1.689130999147891998e-02
-1.177005004137754440e-02
2.662191167473793030e-03
-4.025854542851448059e-02
3.096575103700160980e-02
1.973738893866539001e-02
-2.275920100510120392e-02
-3.311884356662631035e-04
4.703129455447196960e-02
-1.755916886031627655e-02
-1.986845396459102631e-02
1.867614127695560455e-02
3.251961991190910339e-02
7.585928775370121002e-03
-2.874348871409893036e-02
-7.112158462405204773e-03
-4.350723326206207275e-02
2.023315289989113808e-03
-3.777965530753135681e-02
-1.824177615344524384e-02
2.280529029667377472e-02
2.574160695075988770e-02
1.836780691519379616e-03
-1.975844614207744598e-02
-1.480931416153907776e-02
-1.208456791937351227e-02
1.817498169839382172e-02
7.005024701356887817e-03
-2.442193031311035156e-02
1.591409929096698761e-02
2.584711275994777679e-02
-2.660123258829116821e-02
1.710239797830581665e-02
-8.172968402504920959e-03
2.982076257467269897e-04
-3.635678440332412720e-02
4.184035211801528931e-02
-1.895394921302795410e-02
2.190196327865123749e-02
-1.375785376876592636e-02
-1.056210789829492569e-02
1.238670386373996735e-02
-7.369231432676315308e-03
-9.858205914497375488e-03
-1.685458794236183167e-02
-7.206292357295751572e-03
-1.068537961691617966e-02
1.247551571577787399e-02
-4.201041162014007568e-02
-2.657260559499263763e-02
-2.856438979506492615e-02
-1.445345953106880188e-02
3.585724905133247375e-02
8.146285079419612885e-03
2.974499203264713287e-02
1.707981713116168976e-02
-1.084809284657239914e-02
-4.547517374157905579e-02
2.831124700605869293e-02
-1.986905001103878021e-02
-3.242990374565124512e-02
-2.585337497293949127e-02
-3.151245042681694031e-02
2.969302237033843994e-02
2.135946787893772125e-02
-5.624173674732446671e-03
-2.884284220635890961e-02
3.126261383295059204e-02
-4.025340080261230469e-02
2.372846705839037895e-03
3.113993071019649506e-02
-2.729490771889686584e-02
1.688398793339729309e-02
4.741129931062459946e-03
3.286320716142654419e-02
4.641265794634819031e-02
-2.356394426897168159e-03
4.119988065212965012e-03
2.109640091657638550e-02
1.166027784347534180e-02
-8.319444954395294189e-03
-4.353985562920570374e-02
3.970101475715637207e-02
-4.055038094520568848e-02
1.317346002906560898e-02
-1.769798994064331055e-02
2.431188337504863739e-02
-3.329801931977272034e-02
-4.096989706158638000e-02
-4.505155980587005615e-02
3.652730723842978477e-03
-4.345021676272153854e-03
-2.611234225332736969e-02
5.417245440185070038e-03
9.000668302178382874e-03
9.781012311577796936e-03
-1.658337190747261047e-02
-3.058379516005516052e-02
-2.013803645968437195e-02
3.154589235782623291e-02
1.097099855542182922e-02
-1.668515242636203766e-02
-1.043406315147876740e-02
-9.620217606425285339e-03
4.548740386962890625e-02
-1.789789646863937378e-02
-4.436327517032623291e-02
1.180889736860990524e-02
-3.591428697109222412e-02
-1.314549800008535385e-02
-3.393570333719253540e-02
-1.196909416466951370e-02
-2.504067495465278625e-02
2.673880942165851593e-02
-4.116779193282127380e-02
-3.968158736824989319e-02
2.570283412933349609e-02
-2.493465691804885864e-02
2.581858634948730469e-02
-4.002442955970764160e-02
3.700816258788108826e-02
-1.977663859724998474e-02
-1.363188680261373520e-02
-6.150322966277599335e-03
-4.865241050720214844e-02
-4.627892747521400452e-02
-2.792076207697391510e-02
4.635333269834518433e-02
1.324768550693988800e-02
-4.155303910374641418e-02
-1.650945469737052917e-02
-6.458824966102838516e-03
4.289271309971809387e-02
4.173415899276733398e-02
2.851389162242412567e-02
-8.087075315415859222e-03
-2.389616891741752625e-02
2.402587048709392548e-02
2.007990702986717224e-02
3.193866461515426636e-02
-2.434753999114036560e-02
-3.893055021762847900e-02
-2.954456396400928497e-02
-1.626606658101081848e-02
-4.420243948698043823e-02
-1.099504902958869934e-02
4.952928517013788223e-03
-4.171428270637989044e-03
4.713204689323902130e-03
-2.424522303044795990e-02
-1.216510776430368423e-03
2.907237410545349121e-02
2.836338803172111511e-02
1.708166487514972687e-02
-1.479647587984800339e-03
3.086720034480094910e-02
-3.650048375129699707e-02
1.561002433300018311e-02
-2.972715906798839569e-02
4.593193996697664261e-03
3.354214876890182495e-02
-2.559840492904186249e-02
4.601935856044292450e-03
-3.185606747865676880e-02
1.624781079590320587e-02
4.899264127016067505e-02
-1.324590574949979782e-02
-4.823313560336828232e-03
-4.546063486486673355e-03
4.288285970687866211e-02
-1.488420274108648300e-02
-1.167965400964021683e-02
4.012828692793846130e-02
1.773741468787193298e-02
5.341610522009432316e-04
-5.126213654875755310e-03
3.275419352576136589e-03
-4.064493998885154724e-02
-1.110415998846292496e-02
-1.047655567526817322e-02
8.285567164421081543e-03
-3.568120300769805908e-02
2.313526533544063568e-02
-3.883862122893333435e-02
-3.886632388457655907e-03
-4.889570176601409912e-02
-1.097095292061567307e-02
-2.824249304831027985e-02
3.052947483956813812e-02
9.931552223861217499e-03
-4.106090962886810303e-02
2.295128628611564636e-02
2.085963822901248932e-02
-4.599532112479209900e-03
-2.961307764053344727e-02
2.163307555019855499e-02
1.043561473488807678e-02
-3.570667281746864319e-02
-4.414997994899749756e-02
-1.701666601002216339e-02
2.793508954346179962e-02
-3.652650862932205200e-02
2.752726897597312927e-02
3.263697400689125061e-02
-2.403238415718078613e-02
-7.288709748536348343e-03
-3.182298690080642700e-02
-1.930544618517160416e-03
2.057683886960148811e-03
-3.863913938403129578e-02
-2.190370298922061920e-02
2.136249095201492310e-02
2.320180460810661316e-02
6.675936281681060791e-03
-1.100853900425136089e-03
1.797498948872089386e-02
-2.638243511319160461e-02
-4.049967974424362183e-02
1.097974483855068684e-03
1.972758769989013672e-02
-6.186743266880512238e-03
7.340746000409126282e-03
3.166234493255615234e-02
3.436399996280670166e-02
-1.671636849641799927e-02
9.728074073791503906e-03
2.865096786990761757e-03
-1.472898758947849274e-02
1.431838516145944595e-02
2.777464315295219421e-02
-2.861618436872959137e-02
2.033245377242565155e-02
1.637523248791694641e-02
1.758848689496517181e-02
3.313893824815750122e-02
3.602688759565353394e-02
2.645008265972137451e-02
-2.373055741190910339e-02
-1.505678333342075348e-02
-9.522274136543273926e-03
4.347862675786018372e-02
6.741133984178304672e-03
1.171699911355972290e-02
-2.574706636369228363e-02
7.349526858888566494e-04
3.913827612996101379e-02
-2.073973044753074646e-02
1.478664577007293701e-02
2.157853171229362488e-02
-2.719510532915592194e-02
-1.824163831770420074e-02
1.382179558277130127e-02
-6.508821155875921249e-03
-1.275690458714962006e-02
-1.791221089661121368e-02
-2.414456941187381744e-02
-1.981362886726856232e-02
-1.355540659278631210e-02
2.278744429349899292e-02
-2.192120440304279327e-02
3.042892552912235260e-02
-2.708518132567405701e-02
-1.544913277029991150e-02
-2.338538877665996552e-02
-2.823016606271266937e-03
5.028560757637023926e-03
-7.204231806099414825e-03
-2.641399390995502472e-02
-5.043653026223182678e-02
-3.563581034541130066e-02
-2.399311959743499756e-02
2.948041819036006927e-02
-4.205961304251104593e-04
1.659714616835117340e-04
6.026369519531726837e-03
4.365687817335128784e-02
1.927625574171543121e-02
-5.219165905145928264e-05
3.739495575428009033e-02
6.408382905647158623e-04
1.597387157380580902e-02
-1.026977412402629852e-02
6.471832282841205597e-03
3.882682695984840393e-02
3.055551648139953613e-02
-6.528472993522882462e-03
2.309090690687298775e-03
-2.858535572886466980e-02
2.440964616835117340e-02
5.559809971600770950e-03
4.192286171019077301e-03
-1.827977783977985382e-02
-3.056962601840496063e-02
3.210341185331344604e-02
-7.349116494879126549e-04
-2.396439015865325928e-02
-2.080831490457057953e-02
-5.027182772755622864e-02
-1.935077365487813950e-03
4.361686483025550842e-02
-2.279523201286792755e-02
-4.513034597039222717e-02
8.683480322360992432e-03
3.101998008787631989e-03
-2.147528715431690216e-02
-4.498724266886711121e-02
1.354199647903442383e-02
-1.643816381692886353e-02
-3.004412865266203880e-03
-2.973772399127483368e-02
-3.083559311926364899e-02
-3.439511638134717941e-04
5.121485795825719833e-03
4.799748770892620087e-03
3.532369062304496765e-02
2.745850756764411926e-02
-7.506529334932565689e-03
1.300912443548440933e-02
-3.588442876935005188e-02
-3.611952438950538635e-02
2.512586675584316254e-02
-3.645387664437294006e-02
-6.778734736144542694e-03
3.545164316892623901e-02
2.620902610942721367e-03
8.896814659237861633e-03
7.325388491153717041e-03
1.994098536670207977e-02
-3.015761030837893486e-03
-3.117532469332218170e-02
6.785131059587001801e-03
-2.967478334903717041e-02
1.030506473034620285e-02
1.552486605942249298e-02
2.100199460983276367e-02
-1.331792119890451431e-02
5.479274783283472061e-03
-3.205541521310806274e-02
-1.141157094389200211e-02
-3.997067362070083618e-02
-3.010499477386474609e-02
-4.575467202812433243e-03
2.026839181780815125e-02
3.583241254091262817e-02
9.821654297411441803e-03
-3.908028081059455872e-02
1.568614132702350616e-02
-1.107903383672237396e-02
-2.627463825047016144e-02
5.803589010611176491e-04
-5.845999345183372498e-03
1.890473999083042145e-02
-1.340228226035833359e-02
2.217061445116996765e-02
3.519168496131896973e-02
2.003136835992336273e-02
3.166018798947334290e-02
-3.087854757905006409e-02
2.904981002211570740e-02
4.205586388707160950e-03
7.054665591567754745e-03
3.196072950959205627e-02
2.945248968899250031e-03
-3.844588622450828552e-02
-3.131263330578804016e-02
-2.132397890090942383e-02
-4.022942110896110535e-02
1.981218345463275909e-02
1.571913808584213257e-02
3.253834322094917297e-02
-1.816948503255844116e-02
-3.702965006232261658e-02
-2.543057128787040710e-02
-2.212799713015556335e-02
3.800980374217033386e-02
-1.055693253874778748e-02
-5.254727974534034729e-02
1.047468371689319611e-02
-3.908159956336021423e-02
-4.319509025663137436e-03
1.105837989598512650e-02
-2.773158624768257141e-02
2.556209638714790344e-02
1.779635064303874969e-02
1.169429160654544830e-02
-1.177901495248079300e-02
-3.606046363711357117e-02
-2.077427692711353302e-02
1.656213402748107910e-02
-3.231669962406158447e-02
-2.411367185413837433e-02
-2.467185072600841522e-02
1.908108778297901154e-02
2.562979981303215027e-02
3.933375328779220581e-02
-1.821791566908359528e-02
-2.950989082455635071e-02
-1.717782579362392426e-02
7.388961967080831528e-03
1.725056581199169159e-02
-1.124340295791625977e-02
1.451213471591472626e-02
-2.477521821856498718e-02
-2.402208931744098663e-02
2.115063369274139404e-02
-4.324837028980255127e-02
-4.726037383079528809e-02
-5.469946563243865967e-02
4.243943840265274048e-03
6.487928330898284912e-03
-4.883433878421783447e-02
-2.357776463031768799e-02
4.513491690158843994e-02
-4.224175959825515747e-02
-4.149449244141578674e-02
9.328800253570079803e-03
5.597542505711317062e-03
-3.475837036967277527e-02
3.424929082393646240e-02
2.540716342628002167e-02
-4.228642210364341736e-02
-1.083537749946117401e-02
2.556886174716055393e-04
-2.856389991939067841e-02
-1.278863474726676941e-02
-2.800998091697692871e-02
-2.522035501897335052e-02
-1.693199016153812408e-02
-5.059991963207721710e-03
-1.180630922317504883e-02
8.616622537374496460e-03
1.210667751729488373e-02
-7.890316657721996307e-03
3.137290105223655701e-02
-3.294201195240020752e-02
-2.226431109011173248e-02
3.393910080194473267e-02
-4.031004384160041809e-02
-3.618772700428962708e-02
-3.166681900620460510e-02
1.406555902212858200e-02
-1.293690758757293224e-03
-5.011616274714469910e-02
3.081093728542327881e-02
9.424621239304542542e-03
-2.454489655792713165e-02
-4.417587816715240479e-02
-3.456357866525650024e-02
-3.724188730120658875e-02
-7.253583986312150955e-03
1.712811365723609924e-02
-3.669094294309616089e-02
1.553639303892850876e-02
-3.104028292000293732e-02
3.438459336757659912e-02
2.644077688455581665e-02
1.084078103303909302e-02
6.814413703978061676e-03
2.081102691590785980e-02
-2.180512249469757080e-02
2.481556124985218048e-02
-3.370282799005508423e-02
-3.887285664677619934e-02
6.608180236071348190e-03
2.547274902462959290e-02
-3.690789267420768738e-02
-2.686599828302860260e-02
-4.761894419789314270e-02
1.068513840436935425e-02
-3.736723214387893677e-02
2.593678794801235199e-02
-1.133133284747600555e-02
1.551896985620260239e-02
3.602229058742523193e-03
-3.401479125022888184e-02
4.016535356640815735e-02
-9.609277360141277313e-03
-4.225185140967369080e-02
4.521513357758522034e-03
-1.338861882686614990e-02
2.604345045983791351e-02
-8.577492088079452515e-03
-5.268109589815139771e-02
-2.436815761029720306e-02
-3.031603805720806122e-02
-2.052812837064266205e-02
-1.867814175784587860e-02
-1.230589952319860458e-02
-6.201290525496006012e-03
-2.978227473795413971e-02
-1.760652847588062286e-02
2.653755061328411102e-02
1.633110456168651581e-02
4.312027245759963989e-02
2.039371617138385773e-02
-1.869055628776550293e-02
3.005076386034488678e-02
-3.763500601053237915e-02
3.364494442939758301e-02
-1.881326548755168915e-02
-4.217714443802833557e-02
-5.482112057507038116e-03
4.376220749691128731e-04
-3.713897615671157837e-02
-3.978909924626350403e-02
1.435625646263360977e-02
-2.739992178976535797e-02
-3.894976899027824402e-02
-3.243488899897783995e-04
1.561157521791756153e-03
-3.305665403604507446e-02
-1.766096428036689758e-02
-1.996215991675853729e-02
-4.984142724424600601e-03
2.367966249585151672e-02
4.480127617716789246e-02
-1.169786136597394943e-02
1.714639551937580109e-02
-2.319356985390186310e-02
2.971860207617282867e-02
9.240775369107723236e-03
-2.130399830639362335e-02
-1.224047411233186722e-02
-2.149695716798305511e-02
-2.990095177665352821e-03
-2.745599858462810516e-02
-2.672817185521125793e-02
-3.090555965900421143e-02
-1.834571920335292816e-02
-5.739452783018350601e-03
-3.057562187314033508e-02
-7.784862536936998367e-03
6.986459717154502869e-03
-9.496578946709632874e-03
-1.525993831455707550e-02
1.244917605072259903e-02
1.852229796350002289e-02
-1.965862698853015900e-03
1.168490946292877197e-02
-3.891925141215324402e-02
-3.782268380746245384e-03
-1.887893117964267731e-02
1.752936281263828278e-02
-1.382427103817462921e-02
-2.080747071886435151e-04
8.381577208638191223e-03
1.152385026216506958e-02
-1.252980530261993408e-02
1.508930232375860214e-02
-3.551457822322845459e-02
5.416569299995899200e-03
5.724132061004638672e-03
-2.079341560602188110e-02
-3.302330896258354187e-02
2.537089213728904724e-02
3.147662803530693054e-02
-3.437349200248718262e-02
1.790881529450416565e-02
2.127802558243274689e-02
2.585357055068016052e-02
-1.583693176507949829e-02
1.439939625561237335e-02
3.914344310760498047e-02
-4.696989897638559341e-03
-3.698087483644485474e-02
-1.400453737005591393e-03
-3.693882003426551819e-02
5.461854860186576843e-03
1.295588724315166473e-02
1.976680010557174683e-02
-1.454490888863801956e-02
-5.034343525767326355e-02
-4.179226979613304138e-02
1.101707573980093002e-02
-4.767093062400817871e-02
2.497536502778530121e-02
-4.038298036903142929e-03
2.466768026351928711e-02
4.873522371053695679e-02
2.293058438226580620e-03
-5.569629371166229248e-02
-6.264996714890003204e-03
-5.624094232916831970e-02
-1.459271460771560669e-02
2.534208446741104126e-02
-1.402851939201354980e-02
-3.540346398949623108e-02
2.251531556248664856e-02
-4.400350525975227356e-02
2.780833281576633453e-02
3.847274347208440304e-04
1.946913823485374451e-02
4.582060500979423523e-03
-2.857048530131578445e-03
-2.599932439625263214e-02
-2.871914580464363098e-02
5.449064075946807861e-03
-1.774418167769908905e-02
-4.082067310810089111e-02
-1.241135969758033752e-02
-3.528013080358505249e-02
5.266119260340929031e-03
4.497398436069488525e-02
-3.378748428076505661e-03
9.531365707516670227e-03
1.481297984719276428e-02
-2.354235760867595673e-02
-3.727232664823532104e-02
-4.508358240127563477e-02
-3.348824754357337952e-02
3.048907220363616943e-02
2.539981529116630554e-02
-5.511712655425071716e-02
-1.099263504147529602e-02
3.900488466024398804e-02
-5.069692805409431458e-02
-3.733459860086441040e-02
1.048772223293781281e-02
-1.248516142368316650e-02
-3.634377568960189819e-02
-9.193726000376045704e-04
-4.860147368162870407e-03
-2.744070254266262054e-03
-5.084953457117080688e-02
3.671874105930328369e-02
-4.678703472018241882e-02
-4.636199027299880981e-02
3.932115156203508377e-03
3.837986662983894348e-02
-2.509342692792415619e-02
2.432018145918846130e-02
5.197266582399606705e-03
9.803193621337413788e-03
-3.686716407537460327e-02
-4.176096990704536438e-02
-1.330307405441999435e-02
-2.157295821234583855e-03
2.354254573583602905e-02
3.180392459034919739e-02
-1.177925057709217072e-02
5.673161894083023071e-02
2.893346734344959259e-02
4.427245259284973145e-02
-3.202490508556365967e-02
3.232571855187416077e-02
-1.531201414763927460e-02
3.805723506957292557e-03
-2.924196980893611908e-02
-4.158721864223480225e-02
-2.003729715943336487e-02
-1.672005862928926945e-03
-1.732869632542133331e-02
-3.573083132505416870e-02
-4.354993253946304321e-02
2.475030533969402313e-02
2.568640559911727905e-02
3.276265691965818405e-03
-1.903348229825496674e-02
-3.068739362061023712e-02
3.365419805049896240e-02
-3.375083580613136292e-02
-2.268478088080883026e-02
-1.955985324457287788e-03
-8.993282914161682129e-03
-2.420725859701633453e-02
4.339751321822404861e-03
3.571610152721405029e-02
3.412965685129165649e-02
-2.249768748879432678e-02
-2.641582861542701721e-02
-3.747396543622016907e-02
2.047558873891830444e-02
-2.701219171285629272e-02
-6.246194709092378616e-03
-4.342624917626380920e-02
-1.256737858057022095e-02
-4.586065188050270081e-02
1.051306910812854767e-02
-3.371237590909004211e-02
-2.079200744628906250e-02
-1.543790102005004883e-02
-5.167451128363609314e-02
-1.392508577555418015e-02
-9.397494606673717499e-03
-4.476911202073097229e-02
-8.504417724907398224e-03
-1.996418647468090057e-02
8.437211625277996063e-03
-4.379503801465034485e-02
3.695107251405715942e-02
-4.707824066281318665e-02
3.580524027347564697e-02
8.391103707253932953e-03
-3.173931688070297241e-02
2.099804766476154327e-02
-1.487214770168066025e-02
-4.021356627345085144e-02
4.020341858267784119e-02
-1.077453326433897018e-02
1.840331591665744781e-02
-4.177873209118843079e-02
2.548367530107498169e-02
5.766836460679769516e-03
2.693049609661102295e-02
-3.797794505953788757e-02
7.797462865710258484e-03
3.956391476094722748e-03
2.691332437098026276e-02
3.183308243751525879e-02
-4.633849114179611206e-02
1.889367995318025351e-04
-1.249439455568790436e-02
9.475011378526687622e-03
-3.894272819161415100e-02
3.585433121770620346e-03
-2.947667427361011505e-02
-4.293891414999961853e-02
-1.390780135989189148e-02
4.594662750605493784e-04
4.437800869345664978e-02
-8.282068884000182152e-04
-1.762955822050571442e-02
2.659268677234649658e-02
-3.725128248333930969e-02
-1.726733706891536713e-02
2.323192544281482697e-02
2.412441000342369080e-02
-3.226989135146141052e-02
-3.961085528135299683e-02
2.833571843802928925e-02
-1.457254681736230850e-02
-4.882605001330375671e-02
2.345538139343261719e-02
1.261093374341726303e-02
1.873704604804515839e-02
-1.135450322180986404e-02
-2.023799717426300049e-02
3.619128838181495667e-02
-2.617656625807285309e-02
-2.861336804926395416e-02
3.477732837200164795e-02
3.924790397286415100e-02
1.177742425352334976e-02
3.609465807676315308e-02
2.253324538469314575e-02
-2.012701006606221199e-03
2.142385393381118774e-02
2.991548180580139160e-02
-3.184070438146591187e-02
-2.428754232823848724e-02
-1.533380802720785141e-02
2.846153080463409424e-02
3.191877901554107666e-02
-1.103119645267724991e-02
-3.325007855892181396e-02
1.221800968050956726e-02
2.755894139409065247e-02
6.263590883463621140e-03
3.772691264748573303e-02
-2.741378173232078552e-02
7.517606019973754883e-03
2.707844786345958710e-02
3.249861299991607666e-02
-4.890792816877365112e-02
6.957593373954296112e-03
-3.375484794378280640e-02
5.180418374948203564e-04
9.503684937953948975e-03
-3.653721511363983154e-02
-4.447282850742340088e-02
-3.853733092546463013e-02
-2.294431254267692566e-02
-1.246017683297395706e-02
-4.360844939947128296e-02
4.138224944472312927e-02
-3.247953578829765320e-02
-1.073110383003950119e-02
-2.086763456463813782e-02
-1.715418510138988495e-02
-5.772778764367103577e-02
-2.377968514338135719e-03
-3.614194318652153015e-02
1.935315132141113281e-02
-4.536554217338562012e-03
-1.503505464643239975e-02
2.982010692358016968e-02
2.967984601855278015e-02
-2.974405325949192047e-02
1.465370133519172668e-02
1.278460957109928131e-02
1.677918434143066406e-02
-2.138845436275005341e-02
-4.774528089910745621e-03
-5.525812506675720215e-02
-4.628460854291915894e-03
2.110893465578556061e-02
1.280215103179216385e-02
-1.892959326505661011e-02
1.088796742260456085e-02
2.496486715972423553e-02
1.360763981938362122e-02
1.868127100169658661e-02
9.822351858019828796e-04
-4.927924647927284241e-02
-3.095015650615096092e-03
-3.030983731150627136e-02
-4.586681351065635681e-02
1.792367361485958099e-02
1.948601566255092621e-02
2.202385663986206055e-02
-5.603543948382139206e-03
-5.328777059912681580e-02
3.268203884363174438e-02
4.190553445369005203e-03
9.695883840322494507e-03
1.050039939582347870e-02
2.468509599566459656e-02
3.920406475663185120e-02
2.010117471218109131e-02
4.779607430100440979e-02
-2.921026386320590973e-02
3.196039050817489624e-02
-2.860846929252147675e-02
-1.743665337562561035e-02
1.812115125358104706e-02
2.386983856558799744e-02
-3.176190704107284546e-02
-5.144555121660232544e-02
-3.075643070042133331e-02
4.403309896588325500e-03
2.504622749984264374e-02
-3.168655559420585632e-02
5.216369032859802246e-02
3.363316506147384644e-02
9.651805274188518524e-03
1.057153008878231049e-02
1.810113526880741119e-02
-4.151538480073213577e-03
-1.457930449396371841e-02
3.250353410840034485e-02
2.817503921687602997e-02
-1.333675254136323929e-02
-4.082758352160453796e-02
1.347340364009141922e-02
2.741447463631629944e-02
1.871856860816478729e-02
6.148077547550201416e-03
-2.091054804623126984e-02
3.477674722671508789e-02
2.623024955391883850e-02
4.200321808457374573e-02
-2.516931854188442230e-02
-1.142074540257453918e-02
-1.211172156035900116e-02
-3.080553561449050903e-02
-4.654087126255035400e-02
-4.257557541131973267e-02
-4.329542163759469986e-03
1.597389765083789825e-02
-1.761185936629772186e-03
-3.075126931071281433e-02
-2.986164018511772156e-02
1.237051095813512802e-02
-1.653109909966588020e-03
-4.150677099823951721e-02
-1.960617862641811371e-02
1.435298845171928406e-02
-4.165935143828392029e-02
-1.186932716518640518e-02
2.632724680006504059e-02
-1.705385372042655945e-02
7.946459576487541199e-03
-4.393602162599563599e-02
-9.000620804727077484e-03
-1.176984328776597977e-02
-2.789606899023056030e-02
5.657017230987548828e-03
2.324531972408294678e-02
-3.670710697770118713e-02
1.389781665056943893e-02
-8.416620083153247833e-03
6.824536714702844620e-03
1.777182333171367645e-02
-1.697491295635700226e-02
-3.551052883267402649e-02
2.101885527372360229e-02
-1.342480257153511047e-02
1.376876514405012131e-02
-3.945999965071678162e-02
-2.341130748391151428e-02
-4.097475856542587280e-02
-2.554319798946380615e-02
-3.759960085153579712e-02
2.206236310303211212e-02
2.059638500213623047e-02
1.877478882670402527e-02
7.116930559277534485e-03
-2.342126891016960144e-02
-2.185839787125587463e-02
-3.344358876347541809e-02
-7.802939973771572113e-03
-1.415341068059206009e-02
-2.147058956325054169e-02
6.632380187511444092e-03
-2.758457697927951813e-02
-3.267093375325202942e-02
-1.904913038015365601e-02
-1.935030892491340637e-02
1.921455375850200653e-02
2.549837343394756317e-02
-1.840335130691528320e-02
9.509527124464511871e-03
-2.431464940309524536e-02
2.633189223706722260e-02
-2.958050556480884552e-02
-1.887818798422813416e-02
1.035948190838098526e-02
4.685790091753005981e-02
2.591398730874061584e-02
-9.800445288419723511e-03
-5.638852017000317574e-04
1.051682606339454651e-02
-1.117057632654905319e-02
3.726441040635108948e-02
-5.122441053390502930e-02
7.131204009056091309e-03
3.071260638535022736e-02
-2.110823430120944977e-02
-1.187581475824117661e-02
-2.517878636717796326e-02
-6.399109028279781342e-03
8.573033846914768219e-03
1.853746711276471615e-03
-9.070181287825107574e-03
6.217723246663808823e-03
3.310031443834304810e-02
2.118885330855846405e-02
-3.849593922495841980e-02
-1.481299288570880890e-02
1.870237849652767181e-02
-3.834797441959381104e-02
-1.697966828942298889e-02
-3.861387446522712708e-02
-2.660854347050189972e-02
-1.746673136949539185e-02
-3.122881427407264709e-02
-3.978531435132026672e-02
-2.482355944812297821e-02
-1.739486493170261383e-02
4.972126800566911697e-03
-2.628348208963871002e-02
-3.421249799430370331e-03
-1.909542270004749298e-02
-2.906787022948265076e-02
-1.532570365816354752e-02
2.398294955492019653e-02
2.547763474285602570e-02
-2.229396812617778778e-02
-7.376889232546091080e-03
3.176295757293701172e-02
-2.129933051764965057e-02
-1.214526500552892685e-02
1.465212437324225903e-03
3.803560510277748108e-02
3.079924173653125763e-02
2.111662551760673523e-02
3.011941723525524139e-02
2.747384272515773773e-02
2.155360393226146698e-02
-3.088609874248504639e-02
-1.407223474234342575e-02
2.520049363374710083e-02
-2.066339738667011261e-02
1.606642082333564758e-02
-1.647811196744441986e-02
-4.692155122756958008e-02
2.477301470935344696e-02
-6.307144183665513992e-03
2.735264413058757782e-02
1.927980221807956696e-02
3.770679235458374023e-02
-2.658387646079063416e-02
4.002268239855766296e-02
-2.782028540968894958e-02
8.940099738538265228e-03
-2.655562944710254669e-02
-3.595577552914619446e-02
-1.447146665304899216e-02
2.896697819232940674e-02
-4.798278678208589554e-03
-2.982315979897975922e-02
-1.267737988382577896e-02
-4.214221611618995667e-02
-1.515499223023653030e-02
3.418944776058197021e-02
-9.271522052586078644e-03
1.450034324079751968e-02
1.310788746923208237e-02
7.362236268818378448e-03
3.307289257645606995e-02
2.862397581338882446e-02
2.260824851691722870e-02
-4.117716103792190552e-02
-6.506610661745071411e-03
3.415357321500778198e-02
3.589756786823272705e-02
-4.522215947508811951e-02
5.786085035651922226e-03
1.667670533061027527e-02
1.031900476664304733e-02
-2.209675125777721405e-02
-3.197409678250551224e-03
-5.306868348270654678e-03
1.398260798305273056e-02
-2.996549755334854126e-02
3.588480874896049500e-02
1.894192583858966827e-02
-3.076531738042831421e-02
1.545289903879165649e-02
3.325695171952247620e-02
1.761660166084766388e-02
2.057973667979240417e-02
-3.326766937971115112e-02
-3.994710370898246765e-02
-2.020482905209064484e-02
3.351988270878791809e-02
-3.356874734163284302e-02
-4.069699347019195557e-02
-3.584446012973785400e-02
3.267199266701936722e-03
-1.463208347558975220e-02
-2.506231702864170074e-02
3.837920725345611572e-02
1.885171793401241302e-02
2.893829345703125000e-02
-1.386610383633524179e-04
-3.371257334947586060e-02
-2.003646455705165863e-02
-2.861174196004867554e-02
4.009997472167015076e-02
-2.561566606163978577e-02
1.393251679837703705e-02
4.478110931813716888e-03
8.166227489709854126e-03
-2.932031825184822083e-02
-1.811480708420276642e-02
2.535619772970676422e-02
-7.346583530306816101e-03
1.658756844699382782e-02
-2.785556204617023468e-02
4.465446248650550842e-02
-3.320289775729179382e-02
3.606563061475753784e-02
-2.555191889405250549e-02
6.064124871045351028e-03
1.160259475000202656e-03
-2.638422185555100441e-03
-2.314601652324199677e-02
-1.751121692359447479e-02
2.615297399461269379e-02
-3.416468854993581772e-03
-2.930874377489089966e-02
-1.057256571948528290e-02
3.752401471138000488e-02
-2.253501210361719131e-03
3.066770546138286591e-02
3.494344279170036316e-02
3.936162684112787247e-03
1.129388250410556793e-02
-6.154786795377731323e-03
4.203589633107185364e-03
3.544953884556889534e-03
-3.415684401988983154e-02
1.406181603670120239e-02
3.989877179265022278e-02
-5.423232913017272949e-03
1.789123751223087311e-02
-1.879499852657318115e-02
7.958604954183101654e-03
1.360978279262781143e-02
-3.837380930781364441e-02
7.102893199771642685e-03
1.839280873537063599e-02
5.993529222905635834e-03
-2.053544856607913971e-02
2.697839774191379547e-02
1.114717684686183929e-02
1.384967658668756485e-02
1.685123890638351440e-03
-1.518326811492443085e-02
-3.336177021265029907e-02
-3.297913447022438049e-02
-1.363127399235963821e-02
4.429713264107704163e-02
-1.151345763355493546e-02
-1.329599227756261826e-02
-2.319140546023845673e-02
-3.914621472358703613e-02
-5.467412527650594711e-03
-9.120868518948554993e-03
-2.862588874995708466e-02
-1.920238509774208069e-02
2.765325270593166351e-02
1.328319031745195389e-02
2.143786475062370300e-02
-8.191469125449657440e-03
-2.516496554017066956e-02
-3.453238308429718018e-02
-4.551446996629238129e-03
5.022704601287841797e-03
4.177351668477058411e-02
-4.246313869953155518e-02
1.847249083220958710e-02
2.680740132927894592e-02
-4.408323392271995544e-02
-3.852904215455055237e-02
-1.164573058485984802e-02
1.167552638798952103e-02
-3.073098324239253998e-02
-2.530714683234691620e-02
3.493502736091613770e-02
2.020948007702827454e-02
3.884844481945037842e-02
-2.684249915182590485e-02
2.381117641925811768e-02
-3.348556533455848694e-02
3.893722966313362122e-02
-2.753396518528461456e-02
-1.110593881458044052e-02
-4.333784431219100952e-02
-2.750003524124622345e-02
-2.873443625867366791e-02
3.525180742144584656e-02
2.350089699029922485e-02
-1.270688604563474655e-02
-1.981991156935691833e-02
1.835642009973526001e-02
-3.329763188958168030e-03
4.133887123316526413e-03
-3.477966040372848511e-02
1.530817523598670959e-02
1.439327187836170197e-02
-1.895234920084476471e-02
-4.148599132895469666e-02
-4.253509640693664551e-02
1.946431025862693787e-02
-4.249867424368858337e-02
-4.852145910263061523e-03
-1.193914841860532761e-02
-3.301961719989776611e-02
-4.050415009260177612e-02
-2.178701385855674744e-02
2.549603581428527832e-02
3.729103505611419678e-02
1.713250065222382545e-03
-1.940117403864860535e-02
-2.110563218593597412e-02
1.813054643571376801e-02
5.533916410058736801e-03
4.844997543841600418e-03
-2.154761552810668945e-02
3.828838840126991272e-02
-9.171677753329277039e-03
1.131979282945394516e-02
-2.186657488346099854e-02
1.084311772137880325e-02
-2.546240575611591339e-02
-8.800627663731575012e-03
-4.361778963357210159e-03
-2.020609192550182343e-02
2.180212736129760742e-02
7.759039755910634995e-03
2.644574828445911407e-02
-4.132841154932975769e-02
-3.131088614463806152e-02
3.278042003512382507e-02
1.839942112565040588e-02
1.517730299383401871e-02
2.666744962334632874e-02
5.649784579873085022e-03
9.346055798232555389e-03
-4.217455163598060608e-02
-8.346159011125564575e-03
-1.146278344094753265e-02
3.172445669770240784e-02
4.321039840579032898e-02
-3.153616562485694885e-03
2.522180415689945221e-02
-8.284438401460647583e-03
1.982991956174373627e-02
-3.285587579011917114e-02
-2.485445328056812286e-02
-2.708104439079761505e-02
-3.199600614607334137e-03
-2.431832253932952881e-02
-3.899120911955833435e-02
-3.504293784499168396e-02
3.081464208662509918e-03
-4.351596161723136902e-02
3.561827167868614197e-02
-5.890531931072473526e-03
-4.724419489502906799e-02
-3.624728694558143616e-02
-1.120770070701837540e-02
-5.967017728835344315e-03
1.109583303332328796e-02
2.871937863528728485e-02
-4.036094248294830322e-02
-1.248965878039598465e-02
-2.368430420756340027e-02
-3.950748592615127563e-02
2.345092128962278366e-03
2.439763210713863373e-02
-3.951139748096466064e-02
-2.030066028237342834e-02
1.833204366266727448e-02
-3.385716304183006287e-02
-3.794962167739868164e-02
1.965717598795890808e-02
-4.300627112388610840e-02
6.266162265092134476e-03
-3.662354126572608948e-02
3.278156742453575134e-02
1.526066474616527557e-02
9.157781278190668672e-06
1.901917345821857452e-02
1.162406615912914276e-02
3.568285028450191021e-04
-1.619581319391727448e-02
-3.739311592653393745e-03
2.436012029647827148e-02
4.218140244483947754e-02
1.234078966081142426e-02
-4.188844561576843262e-02
-2.623674832284450531e-02
3.578140959143638611e-02
9.958139620721340179e-03
-6.859610788524150848e-03
-2.797139063477516174e-02
8.850825019180774689e-03
-3.999019786715507507e-02
3.052423335611820221e-02
4.236232116818428040e-02
2.231207303702831268e-02
-2.874559164047241211e-02
-1.710921712219715118e-02
-2.916962280869483948e-02
2.486041001975536346e-02
-2.781038731336593628e-02
-2.446553111076354980e-02
-6.162858102470636368e-03
4.133692011237144470e-02
-1.742950081825256348e-02
1.652280613780021667e-02
-2.124513965100049973e-03
-3.919017687439918518e-02
1.676950603723526001e-02
1.675235689617693424e-03
7.035212125629186630e-03
-3.648795560002326965e-02
-3.211515024304389954e-02
-3.938569221645593643e-03
-1.852802373468875885e-02
2.806317247450351715e-02
-3.702275082468986511e-02
3.549277782440185547e-02
3.678971901535987854e-02
-4.142479971051216125e-02
-6.489260122179985046e-03
-2.831640187650918961e-03
4.132732376456260681e-02
-1.224922575056552887e-02
-1.437133736908435822e-02
-3.203231841325759888e-02
-3.683391725644469261e-03
-1.040351018309593201e-02
-3.812817111611366272e-02
