2.507193684577941895e-01
3.441164195537567139e-01
-2.985320091247558594e-01
-4.318633377552032471e-01
2.612944841384887695e-01
-4.853488504886627197e-01
6.206628307700157166e-02
-1.420047581195831299e-01
-1.162488535046577454e-01
-7.808055263012647629e-03
5.979520455002784729e-02
6.329470872879028320e-02
-3.629197776317596436e-01
5.773136019706726074e-01
1.850172877311706543e-01
-4.755159616470336914e-01
-4.522017240524291992e-01
4.156855940818786621e-01
5.559828281402587891e-01
2.732328176498413086e-01
5.049514770507812500e-01
-1.276511698961257935e-01
-1.205061599612236023e-01
-3.522398173809051514e-01
5.266565084457397461e-01
6.288839876651763916e-02
-9.870564192533493042e-02
5.566665530204772949e-01
6.232026591897010803e-02
-3.430432677268981934e-01
-2.701286226511001587e-02
-1.441715955734252930e-01
-1.131566390395164490e-01
-3.122484982013702393e-01
1.530902534723281860e-01
-3.366023004055023193e-01
-2.100160717964172363e-01
5.608991980552673340e-01
-4.157461225986480713e-01
-3.303065001964569092e-01
9.921919554471969604e-02
2.648782432079315186e-01
-5.762794520705938339e-03
-1.104540079832077026e-01
-1.821127980947494507e-01
9.360235929489135742e-02
-3.440872207283973694e-02
-4.839773178100585938e-01
-2.870545983314514160e-01
2.147260755300521851e-01
-3.993399143218994141e-01
1.659675687551498413e-01
1.233776286244392395e-01
2.501980066299438477e-01
-1.232942566275596619e-01
-5.681095719337463379e-01
1.318889558315277100e-01
-3.549857437610626221e-01
-1.037696376442909241e-02
-9.988038986921310425e-02
2.762950360774993896e-01
3.059791624546051025e-01
-5.243309736251831055e-01
4.960089325904846191e-01
