-1.328104990534484386e-03
-5.613689776510000229e-03
-1.447987975552678108e-03
2.760591916739940643e-03
9.920836426317691803e-03
1.757293939590454102e-03
7.643319666385650635e-03
5.522605497390031815e-03
3.256946569308638573e-03
4.276248801033943892e-04
1.160174701362848282e-02
5.840891506522893906e-03
6.641303189098834991e-03
-6.421019788831472397e-03
4.335100762546062469e-03
1.527914684265851974e-02
-2.344591077417135239e-03
7.293871021829545498e-04
-1.229860167950391769e-02
5.978247616440057755e-03
-8.719158358871936798e-03
-4.738437477499246597e-03
3.891031374223530293e-04
2.270542783662676811e-03
-5.834205541759729385e-03
-3.419362474232912064e-03
-1.160972565412521362e-02
2.852999139577150345e-03
6.455215159803628922e-03
-1.243734033778309822e-03
2.745439764112234116e-03
-8.493324741721153259e-03
1.993200974538922310e-03
3.611575113609433174e-03
9.817607700824737549e-03
3.480492625385522842e-03
1.366312731988728046e-03
-7.561238016933202744e-03
2.814351348206400871e-03
8.754311129450798035e-03
-1.227928139269351959e-02
6.118613295257091522e-03
-2.386260079219937325e-03
5.626179743558168411e-03
3.716852515935897827e-03
6.877869367599487305e-03
-7.730157114565372467e-03
-1.047738455235958099e-02
1.169330254197120667e-02
2.040042541921138763e-02
-2.826531184837222099e-03
1.019389089196920395e-02
-2.909603295847773552e-03
-6.722554564476013184e-03
-7.908292114734649658e-03
7.017275318503379822e-03
-5.978561937808990479e-03
1.038367336150258780e-04
-2.556695137172937393e-03
-4.442984238266944885e-03
-7.341712247580289841e-03
-4.189039114862680435e-03
-7.031837012618780136e-03
3.622861579060554504e-03
-6.477757357060909271e-03
-9.521819651126861572e-03
-1.306055672466754913e-02
-1.020484417676925659e-02
-7.417203858494758606e-03
-6.906100548803806305e-03
1.128569128923118114e-03
-4.389093723148107529e-03
-4.887183196842670441e-03
-4.028551047667860985e-04
1.211403869092464447e-02
4.293963778764009476e-03
5.820366786792874336e-04
-6.621000356972217560e-03
4.107353277504444122e-03
-4.786237142980098724e-03
7.158973603509366512e-04
-1.654044166207313538e-02
-1.849320530891418457e-02
1.939670369029045105e-02
3.563078586012125015e-03
5.659589543938636780e-03
-7.074064575135707855e-03
-6.101634819060564041e-03
-6.509044673293828964e-03
-2.369354013353586197e-03
-8.625932037830352783e-03
-2.049168106168508530e-03
7.932378910481929779e-03
1.211716607213020325e-02
-1.399449654854834080e-03
8.472979068756103516e-03
-7.132770842872560024e-04
-3.688690776471048594e-04
7.066982332617044449e-03
2.021802589297294617e-03
1.160775218158960342e-02
-3.976882435381412506e-03
-4.684794694185256958e-04
4.054781515151262283e-03
4.866779781877994537e-03
1.669779885560274124e-03
2.508675679564476013e-03
7.071594707667827606e-03
2.270988747477531433e-02
7.430851925164461136e-03
6.991338450461626053e-04
9.848086163401603699e-03
1.198493316769599915e-02
-2.007714472711086273e-03
-2.673923736438155174e-03
-6.071952171623706818e-03
-5.642800126224756241e-03
-5.927699152380228043e-03
2.217643894255161285e-03
9.984874166548252106e-03
-2.030794741585850716e-03
-6.534529849886894226e-03
1.139480271376669407e-03
-3.915037494152784348e-03
-5.283922655507922173e-04
-2.888652496039867401e-03
1.047719153575599194e-03
1.182933803647756577e-03
1.099543087184429169e-02
2.472350373864173889e-03
-4.004128742963075638e-03
-9.772448800504207611e-03
-1.732639851979911327e-03
1.296480651944875717e-03
-4.626214969903230667e-03
-9.308427688665688038e-04
5.822105798870325089e-03
-4.086997359991073608e-03
8.138528093695640564e-03
9.349600411951541901e-03
2.112558810040354729e-03
6.572625599801540375e-03
-2.945409389212727547e-03
2.093751449137926102e-03
7.493353448808193207e-03
-8.521308191120624542e-03
5.451770848594605923e-04
-1.003096040221862495e-04
7.535582873970270157e-03
7.428286597132682800e-03
7.283476646989583969e-03
2.637575147673487663e-03
3.316827584058046341e-03
3.845415310934185982e-03
2.416866598650813103e-03
-1.445576082915067673e-03
-1.105657685548067093e-02
-9.758590022101998329e-04
-5.794500932097434998e-03
-4.022014793008565903e-03
4.811454098671674728e-03
-1.513217226602137089e-03
-5.484663415700197220e-04
4.034137818962335587e-03
5.356146953999996185e-03
-2.112497575581073761e-03
-1.108826720155775547e-03
9.194648824632167816e-03
1.492570992559194565e-02
3.547309432178735733e-03
-7.014900911599397659e-03
-4.782625008374452591e-03
-4.828506149351596832e-03
1.569563290104269981e-03
4.991009831428527832e-03
-3.728895215317606926e-03
-2.482052193954586983e-03
-3.042982134502381086e-04
-3.530722809955477715e-03
7.496883627027273178e-04
-4.435891285538673401e-03
2.284982474520802498e-03
-3.071748651564121246e-03
-9.010228328406810760e-03
-5.128839984536170959e-03
2.088138717226684093e-04
2.023733453825116158e-03
3.926187753677368164e-03
-3.059805138036608696e-03
7.838923484086990356e-03
-3.597948467358946800e-03
1.175621640868484974e-03
-3.924590069800615311e-03
7.677933899685740471e-04
-1.506384555250406265e-02
7.724735420197248459e-03
-4.882810637354850769e-03
-6.432930007576942444e-03
-5.781126674264669418e-04
-3.215219592675566673e-03
-6.759146228432655334e-03
1.147637236863374710e-02
6.044503301382064819e-03
-1.070504914969205856e-02
-2.123825252056121826e-03
3.160035004839301109e-03
1.924345083534717560e-02
-3.585923463106155396e-03
6.218698807060718536e-03
1.052520796656608582e-02
7.673511281609535217e-03
-7.444393821060657501e-03
-4.801226023118942976e-04
-2.754582383204251528e-04
-7.713798899203538895e-03
-1.120094303041696548e-02
1.888853264972567558e-03
-4.715216346085071564e-03
-2.833750913850963116e-04
-3.917309455573558807e-03
9.842703584581613541e-04
5.296919029206037521e-03
-2.964691724628210068e-03
7.046111277304589748e-04
3.750656731426715851e-03
4.740954376757144928e-03
-6.924444343894720078e-03
4.062360385432839394e-04
1.720912382006645203e-02
-4.056245088577270508e-03
8.572103455662727356e-03
6.418420933187007904e-03
-8.077800273895263672e-03
-1.617478090338408947e-03
-2.732467371970415115e-03
-5.260707344859838486e-03
5.791340954601764679e-03
-5.225847940891981125e-03
5.364195443689823151e-03
-2.221156377345323563e-03
-1.593605498783290386e-03
-6.993554507062071934e-06
4.008013929706066847e-04
-8.328340016305446625e-03
-7.666858844459056854e-03
8.092189207673072815e-03
-1.684334594756364822e-03
1.497649215161800385e-02
-6.725707091391086578e-03
-7.379694376140832901e-03
3.687200136482715607e-03
-2.972858259454369545e-03
-2.383238635957241058e-03
-3.575177863240242004e-03
-3.003290388733148575e-03
-8.430040907114744186e-05
