-4.407934844493865967e-02
1.118619069457054138e-01
2.708262950181961060e-02
-1.379891205579042435e-02
-1.001261621713638306e-01
-6.371659040451049805e-02
9.068598598241806030e-02
-1.017150133848190308e-01
7.826873660087585449e-02
-1.399184949696063995e-02
-8.477409183979034424e-02
-5.874767899513244629e-02
4.093852639198303223e-02
-1.399782020598649979e-02
-9.048537909984588623e-02
-2.182446233928203583e-02
-2.192270383238792419e-02
1.819127239286899567e-02
7.236307114362716675e-02
-5.360581725835800171e-02
7.128418982028961182e-02
-6.637032143771648407e-03
3.453577309846878052e-02
8.965821005403995514e-03
-6.864926964044570923e-02
-2.244206704199314117e-02
4.378297552466392517e-02
1.176921203732490540e-01
3.437802940607070923e-02
6.051114946603775024e-02
9.614236652851104736e-02
-1.140121892094612122e-01
3.737204149365425110e-02
-2.923655137419700623e-02
9.439343214035034180e-02
-8.268538117408752441e-02
1.114557534456253052e-01
7.783777080476284027e-03
-1.216555684804916382e-01
-2.036268264055252075e-02
3.629386425018310547e-02
-1.019031405448913574e-01
1.152720451354980469e-01
-2.527364902198314667e-02
1.203416958451271057e-01
-3.507918491959571838e-02
-3.655872121453285217e-02
3.685392066836357117e-02
-4.568642005324363708e-02
-9.664843231439590454e-02
9.586805105209350586e-02
-1.111192163079977036e-02
1.327381189912557602e-02
-7.414533197879791260e-02
3.272257372736930847e-02
-7.511449605226516724e-02
-1.193919032812118530e-01
7.327337563037872314e-02
6.815788149833679199e-02
-2.668383345007896423e-02
-2.625857293605804443e-02
-1.172592788934707642e-01
1.195521801710128784e-01
-7.441903650760650635e-02
