-5.165449902415275574e-02
-2.144893445074558258e-02
5.458212643861770630e-02
-6.471917033195495605e-02
3.961378335952758789e-02
7.734204828739166260e-02
3.966630995273590088e-02
-8.786866068840026855e-02
-7.684999704360961914e-02
3.661691397428512573e-02
8.552409708499908447e-02
6.016879156231880188e-02
-8.850559592247009277e-02
-3.746926039457321167e-02
1.880690641701221466e-02
-1.535134389996528625e-02
5.815135315060615540e-02
1.348227262496948242e-02
-7.635353505611419678e-02
8.275503665208816528e-02
8.096098154783248901e-02
-2.198348194360733032e-02
3.839134424924850464e-02
-5.698202177882194519e-02
-1.496864110231399536e-02
-2.983835758641362190e-03
-1.951531507074832916e-02
-2.984641306102275848e-02
6.465433537960052490e-02
8.152757585048675537e-02
4.263534769415855408e-02
7.314610481262207031e-02
7.315487414598464966e-02
6.084968522191047668e-02
-5.585941672325134277e-02
3.303226083517074585e-03
6.263382732868194580e-02
3.680868446826934814e-02
6.654998660087585449e-02
9.236372075974941254e-03
-8.807610720396041870e-02
3.584623336791992188e-02
5.010988935828208923e-02
-2.390402555465698242e-02
5.761582404375076294e-02
1.560780801810324192e-03
-1.920022186823189259e-03
5.813835933804512024e-02
-1.332658063620328903e-02
3.454124182462692261e-02
-5.862420424818992615e-02
8.548337221145629883e-02
-3.541064262390136719e-02
6.991003174334764481e-03
-4.377470165491104126e-02
6.566753983497619629e-02
2.969753183424472809e-02
6.779407709836959839e-02
-9.504841640591621399e-03
2.506475150585174561e-02
5.637570098042488098e-02
2.628079615533351898e-02
3.132973611354827881e-02
-4.964469932019710541e-03
5.260683968663215637e-02
2.994733396917581558e-03
4.779004678130149841e-02
-5.518518388271331787e-03
5.254403501749038696e-02
1.190777961164712906e-02
8.452542126178741455e-02
7.530815154314041138e-02
4.812836647033691406e-03
-1.092437468469142914e-02
7.332249078899621964e-03
3.266381844878196716e-02
5.439637973904609680e-02
2.060781978070735931e-02
5.037429556250572205e-02
-1.457574032247066498e-02
-3.025215119123458862e-02
-1.493207458406686783e-02
-2.618857473134994507e-02
-3.307224437594413757e-02
-6.624286621809005737e-02
3.036574274301528931e-02
3.616449981927871704e-02
1.338552124798297882e-02
-4.636671766638755798e-02
6.121813878417015076e-02
-3.679392859339714050e-02
-2.271747961640357971e-02
5.780648440122604370e-02
8.134257793426513672e-02
8.036333322525024414e-02
-7.351472973823547363e-02
-8.739180117845535278e-02
5.753050372004508972e-02
-2.508386410772800446e-02
8.246433734893798828e-02
-2.083267271518707275e-02
5.593995563685894012e-03
7.079907506704330444e-02
-5.575371906161308289e-02
-2.199307642877101898e-02
1.974114216864109039e-02
-2.898472175002098083e-02
-6.531450152397155762e-02
2.358044125139713287e-02
7.833793759346008301e-03
-5.429169535636901855e-02
-4.328687116503715515e-02
-9.865952655673027039e-03
2.051838673651218414e-02
6.683146208524703979e-02
-1.888546161353588104e-02
7.901104539632797241e-02
-7.922927848994731903e-03
-6.471238285303115845e-02
3.312826156616210938e-02
7.959680631756782532e-03
5.833443254232406616e-02
2.173455245792865753e-02
-8.253675699234008789e-02
-5.929809436202049255e-02
6.960409134626388550e-02
4.183853790163993835e-02
-8.623037487268447876e-02
8.032754808664321899e-02
1.936557888984680176e-02
-4.688561707735061646e-02
3.445431590080261230e-02
-8.564255386590957642e-02
-4.104894772171974182e-02
-4.101064056158065796e-02
8.576416224241256714e-02
-4.429055005311965942e-02
-2.807015180587768555e-02
3.276865184307098389e-02
-8.930062502622604370e-02
-6.151065230369567871e-02
5.397788807749748230e-02
4.402285069227218628e-02
-2.207577973604202271e-02
3.129374701529741287e-03
5.330473929643630981e-02
4.668519645929336548e-02
1.554100681096315384e-02
5.312416329979896545e-02
-3.116426430642604828e-02
-9.046667814254760742e-02
2.778877317905426025e-02
3.659895062446594238e-02
-8.171860128641128540e-02
-5.009683594107627869e-02
8.243223279714584351e-02
-2.932883799076080322e-02
7.996855676174163818e-02
-7.046101614832878113e-03
-5.709278956055641174e-02
-3.152663633227348328e-02
3.496147459372878075e-03
8.101798593997955322e-03
1.319316681474447250e-02
-5.494643002748489380e-02
6.578041613101959229e-02
8.315850049257278442e-02
-4.376328736543655396e-02
2.997707575559616089e-02
1.395212765783071518e-02
6.568064540624618530e-02
2.034157514572143555e-02
-6.442286074161529541e-02
-8.382624387741088867e-02
-5.733143165707588196e-02
-8.743268251419067383e-02
-6.522341072559356689e-02
2.721442468464374542e-02
-7.081253081560134888e-02
-4.179722815752029419e-02
-9.550699591636657715e-02
-7.653263956308364868e-02
4.359095916152000427e-02
3.908620402216911316e-02
3.498546034097671509e-02
1.017478946596384048e-02
2.077716961503028870e-02
-8.408544957637786865e-02
-6.525491923093795776e-02
3.648157790303230286e-02
-3.514587506651878357e-02
1.157155609689652920e-03
3.769042342901229858e-02
7.445554248988628387e-03
5.038247630000114441e-02
1.299693901091814041e-02
2.734119445085525513e-02
-6.737142056226730347e-02
-9.112669527530670166e-02
-3.088016819674521685e-04
5.784210562705993652e-02
3.407759219408035278e-02
2.352337911725044250e-02
7.148400694131851196e-02
7.687182724475860596e-02
7.812928408384323120e-02
-4.182330146431922913e-02
5.329028517007827759e-02
-5.304146558046340942e-02
-1.287810155190527439e-03
-1.020327210426330566e-02
-2.516430802643299103e-02
5.984915420413017273e-02
2.589444071054458618e-02
-2.608717232942581177e-02
4.114509001374244690e-02
-4.842658340930938721e-02
1.474792603403329849e-02
-6.156765669584274292e-02
-7.509037852287292480e-02
1.151278242468833923e-02
4.263999871909618378e-03
8.063602447509765625e-02
-5.717553198337554932e-02
5.857509095221757889e-03
1.431827619671821594e-02
1.034972607158124447e-03
5.911229178309440613e-02
4.247547686100006104e-02
-8.299385011196136475e-02
-8.648040890693664551e-02
5.413625761866569519e-02
-1.546829938888549805e-02
7.632063329219818115e-02
7.583774626255035400e-03
5.641574785113334656e-02
-2.168087847530841827e-02
-1.049222052097320557e-02
5.950688198208808899e-02
-7.983004674315452576e-03
-3.991891443729400635e-02
-7.794381678104400635e-02
3.874592483043670654e-02
2.953432127833366394e-02
-2.100815251469612122e-02
8.128568530082702637e-02
-4.752436280250549316e-02
-7.040090113878250122e-02
2.181291766464710236e-02
-4.593194648623466492e-02
3.725388646125793457e-02
-4.705376923084259033e-02
2.460842952132225037e-02
-3.724626963958144188e-03
-5.120896920561790466e-02
1.992421038448810577e-02
7.104761898517608643e-02
-7.964190095663070679e-03
8.689907938241958618e-02
6.604266911745071411e-02
-7.117646932601928711e-02
6.895911693572998047e-02
3.233703970909118652e-02
-5.088073760271072388e-02
-2.587000094354152679e-02
-2.350420132279396057e-02
-8.935201168060302734e-02
3.591340035200119019e-02
6.699850410223007202e-02
3.346918150782585144e-02
-8.035438507795333862e-02
-8.857704699039459229e-02
6.704454123973846436e-02
-7.680328190326690674e-02
-5.656805634498596191e-02
-7.579936832189559937e-02
-6.691122800111770630e-02
-8.207793533802032471e-02
5.213270708918571472e-02
3.091417439281940460e-02
1.656637154519557953e-02
2.151419781148433685e-02
5.770677700638771057e-03
4.530300199985504150e-02
-4.300665482878684998e-02
2.721467055380344391e-02
2.011851407587528229e-02
-7.382827252149581909e-02
-4.756596311926841736e-02
6.498219072818756104e-02
3.917426615953445435e-02
5.583544448018074036e-02
-2.879105042666196823e-03
-7.151710987091064453e-02
6.062793731689453125e-02
4.130201414227485657e-02
-6.232328712940216064e-03
5.037009343504905701e-02
7.179091870784759521e-02
-8.002826012670993805e-03
-7.561655342578887939e-02
6.977704167366027832e-02
-7.894673198461532593e-02
7.311285287141799927e-02
8.221682161092758179e-02
-8.655865676701068878e-04
-5.813100934028625488e-02
3.757152333855628967e-02
-5.733692273497581482e-02
3.108659014105796814e-02
2.536896988749504089e-02
-2.980021946132183075e-02
-3.616849333047866821e-02
-1.516876369714736938e-02
-8.521609753370285034e-02
5.216317251324653625e-02
-6.838408857583999634e-02
-1.979192160069942474e-02
-1.043523754924535751e-02
-6.562166661024093628e-02
-2.710583619773387909e-02
7.028660923242568970e-02
-5.017147585749626160e-02
-3.319615498185157776e-02
-4.633808881044387817e-02
4.855718091130256653e-02
-9.933684021234512329e-02
4.526575654745101929e-02
5.675097927451133728e-02
-8.758167177438735962e-02
3.934150561690330505e-02
-6.100913044065237045e-03
6.377818528562784195e-03
4.516780376434326172e-02
5.191367864608764648e-02
-9.123836457729339600e-02
6.206929683685302734e-02
-4.328857362270355225e-02
-1.574644818902015686e-02
-1.750297658145427704e-02
7.761923223733901978e-02
5.626484006643295288e-02
-6.216794252395629883e-02
-8.522406220436096191e-02
5.454559251666069031e-02
6.044123694300651550e-02
8.479283750057220459e-02
5.638403445482254028e-02
-7.182643562555313110e-02
3.162140771746635437e-02
1.203802041709423065e-02
1.064911670982837677e-02
5.529201775789260864e-02
5.480837449431419373e-02
-1.939803920686244965e-02
4.552043974399566650e-02
1.122249756008386612e-02
-4.117558896541595459e-02
1.169566996395587921e-02
-2.635328285396099091e-02
2.948861010372638702e-02
6.663732230663299561e-02
-4.160430748015642166e-03
-7.578983902931213379e-02
5.528242513537406921e-02
9.029103815555572510e-02
-4.109758511185646057e-02
5.638783425092697144e-02
7.737663388252258301e-02
7.487584650516510010e-02
2.679141052067279816e-02
5.732120946049690247e-02
3.470859304070472717e-02
2.714058384299278259e-02
-3.228916600346565247e-02
-4.078949615359306335e-02
2.902678027749061584e-02
3.742307424545288086e-02
-5.237256735563278198e-02
5.759236589074134827e-02
7.824666053056716919e-02
8.600919693708419800e-02
3.912346810102462769e-02
3.892653807997703552e-02
6.110683456063270569e-02
2.660122886300086975e-02
2.339452505111694336e-02
-4.117465764284133911e-02
6.957322359085083008e-02
-3.632705286145210266e-02
5.721998959779739380e-02
7.220436632633209229e-02
-4.842679202556610107e-02
2.768697589635848999e-02
-1.620816811919212341e-02
3.090454451739788055e-02
-7.800137996673583984e-02
-6.721376627683639526e-02
-2.374777756631374359e-02
-4.598598182201385498e-02
6.182686239480972290e-02
8.912463672459125519e-03
-7.520136982202529907e-02
-4.725474491715431213e-02
6.962705403566360474e-02
-5.811765789985656738e-02
8.256440609693527222e-02
3.829175233840942383e-02
-5.384747684001922607e-02
-2.681791037321090698e-02
-1.290269196033477783e-02
4.088705033063888550e-02
-3.679180145263671875e-02
-2.805667463690042496e-03
-5.155848711729049683e-02
1.932423934340476990e-02
-1.684807054698467255e-02
-5.172870308160781860e-02
-2.641949057579040527e-02
7.546555995941162109e-02
3.932564705610275269e-02
-6.458618491888046265e-02
1.398990489542484283e-02
2.933288924396038055e-02
-8.018150180578231812e-02
-6.644999235868453979e-02
-5.339448526501655579e-02
8.351247757673263550e-03
2.946036681532859802e-02
-3.242952749133110046e-02
1.113276742398738861e-02
-6.157809868454933167e-02
-2.820281684398651123e-02
4.107553884387016296e-02
-2.204341441392898560e-02
-7.801986485719680786e-02
-2.645578607916831970e-02
-6.426332890987396240e-02
-2.923919446766376495e-02
2.508312650024890900e-02
6.902308017015457153e-02
1.797726936638355255e-02
8.622264862060546875e-02
-6.721264123916625977e-02
7.892056601122021675e-04
1.732812263071537018e-02
-8.579720556735992432e-02
1.842071488499641418e-02
8.187890052795410156e-02
5.969199538230895996e-02
-8.841072767972946167e-02
3.698875755071640015e-02
-8.351766318082809448e-02
4.463674500584602356e-02
5.255247652530670166e-02
5.989997088909149170e-02
-1.740388199687004089e-02
8.384513109922409058e-02
-8.050979673862457275e-02
6.668078154325485229e-02
3.690714016556739807e-02
8.323998749256134033e-02
-4.804938286542892456e-02
-5.398958921432495117e-02
8.316803723573684692e-03
-6.660652905702590942e-02
-2.575038187205791473e-02
6.542053818702697754e-02
7.400853931903839111e-02
6.932783871889114380e-02
3.677973151206970215e-02
-5.219184979796409607e-02
-8.436881750822067261e-02
-4.145064577460289001e-02
4.085568711161613464e-02
3.837885707616806030e-02
-9.366184822283685207e-04
4.976757988333702087e-02
-5.445468798279762268e-02
-6.962738186120986938e-02
-2.238920889794826508e-02
5.032408609986305237e-02
-1.163851283490657806e-02
5.124789476394653320e-02
1.369353476911783218e-02
-6.243052706122398376e-02
8.065907657146453857e-02
4.133217036724090576e-02
8.249439299106597900e-02
-6.722962856292724609e-02
-2.270300313830375671e-02
6.616789847612380981e-02
-5.938085913658142090e-02
-6.976898014545440674e-02
-7.414364069700241089e-02
3.882384672760963440e-02
-4.165962710976600647e-02
7.278156280517578125e-02
7.047757506370544434e-02
-7.451329380273818970e-02
-2.114319987595081329e-02
-3.224347159266471863e-02
3.181101754307746887e-02
-1.238894928246736526e-02
-6.124787777662277222e-02
8.880899101495742798e-02
-4.574473574757575989e-02
-1.084501948207616806e-02
-3.630398958921432495e-02
5.455669760704040527e-02
9.774736128747463226e-03
1.531524211168289185e-02
4.274851456284523010e-02
4.152186959981918335e-02
-8.535843342542648315e-02
-1.299329847097396851e-02
-4.725280031561851501e-02
6.921283155679702759e-02
7.764440029859542847e-02
5.221943557262420654e-02
-2.975154295563697815e-02
-8.205355703830718994e-02
-7.618568092584609985e-02
-3.505408391356468201e-02
2.419529017060995102e-03
2.061103470623493195e-02
-3.435037285089492798e-02
1.165975630283355713e-02
-2.914585173130035400e-02
-5.144051834940910339e-02
-8.093970268964767456e-02
-6.426992267370223999e-02
-7.368896901607513428e-02
-3.533798456192016602e-02
4.576266556978225708e-02
7.096701860427856445e-02
-1.552476920187473297e-02
-7.015415281057357788e-02
2.269193157553672791e-02
1.775495521724224091e-02
6.911156326532363892e-02
-7.820685207843780518e-02
-5.774893984198570251e-02
-4.201722797006368637e-03
5.066365748643875122e-02
-2.488300437107682228e-03
-3.227188438177108765e-02
1.512104086577892303e-02
7.687240093946456909e-02
8.835499733686447144e-02
6.252463907003402710e-02
7.695014029741287231e-02
-5.041738227009773254e-02
-2.050928771495819092e-02
2.160073071718215942e-02
5.228898674249649048e-02
5.746246315538883209e-04
6.120551377534866333e-02
-3.678748384118080139e-02
6.521266698837280273e-02
5.461122468113899231e-02
-8.233868330717086792e-02
-2.576143667101860046e-02
3.856541961431503296e-02
-9.985548240365460515e-05
-2.731430903077125549e-02
-3.401729837059974670e-02
-3.061526920646429062e-03
-1.745306700468063354e-02
4.094448313117027283e-02
6.041363626718521118e-02
-4.444299731403589249e-03
4.249665513634681702e-02
-7.721618562936782837e-02
7.133069634437561035e-02
-1.389609649777412415e-02
1.042706207954324782e-04
6.497458368539810181e-02
-9.276451542973518372e-03
-7.535047829151153564e-02
5.561528727412223816e-03
-6.840151548385620117e-02
7.372169755399227142e-03
4.205168411135673523e-02
1.979815540835261345e-03
7.950694859027862549e-02
-2.209421992301940918e-02
1.158872526139020920e-02
2.236455865204334259e-02
-1.923331804573535919e-02
1.099367532879114151e-02
-6.242639943957328796e-02
6.785613298416137695e-02
1.291962061077356339e-02
-5.802318081259727478e-02
4.955467954277992249e-02
3.092241659760475159e-02
4.890772700309753418e-02
8.946973830461502075e-02
-4.476365074515342712e-02
9.106669574975967407e-03
1.726873032748699188e-02
-8.633501827716827393e-02
2.407978987321257591e-03
-4.492700845003128052e-02
-1.655472256243228912e-02
-4.473848268389701843e-02
-3.932324796915054321e-02
5.053576454520225525e-02
-5.033212900161743164e-02
7.360013574361801147e-02
8.348453789949417114e-02
8.142934739589691162e-02
2.801675908267498016e-02
-2.073340490460395813e-02
-6.409811228513717651e-02
6.550723314285278320e-02
-8.221917599439620972e-02
6.157429888844490051e-02
-2.632996439933776855e-02
7.536354660987854004e-02
-5.241060629487037659e-02
-5.998890474438667297e-02
7.255592942237854004e-02
5.540804937481880188e-02
4.542012140154838562e-02
-3.378520905971527100e-02
-7.610435783863067627e-02
3.880283236503601074e-02
-6.383193284273147583e-02
-2.698061615228652954e-02
-2.489450387656688690e-02
2.574884518980979919e-02
-3.804223984479904175e-02
4.662491008639335632e-02
8.068492263555526733e-02
8.209229260683059692e-02
7.473729550838470459e-02
2.507070638239383698e-02
6.741915829479694366e-03
4.766962677240371704e-02
-6.536871194839477539e-02
1.396964187733829021e-03
-7.404962182044982910e-02
-2.859664894640445709e-02
8.531882613897323608e-02
8.600551635026931763e-02
4.997086152434349060e-02
-8.779381215572357178e-02
-2.597145177423954010e-02
-1.900931447744369507e-02
4.469729214906692505e-02
-1.186675112694501877e-02
1.391069218516349792e-02
6.656889617443084717e-02
6.756115704774856567e-02
9.580648504197597504e-03
8.597803860902786255e-02
-1.146054733544588089e-02
5.668078735470771790e-02
-1.989143900573253632e-02
4.675326496362686157e-02
-6.308733951300382614e-03
-6.139755249023437500e-02
-3.047310188412666321e-02
4.663809016346931458e-02
-8.328166604042053223e-02
-7.659699767827987671e-02
2.293257229030132294e-02
2.567110769450664520e-02
1.935482583940029144e-02
-2.787721343338489532e-02
-4.232119396328926086e-02
6.476069334894418716e-03
2.888082154095172882e-02
-5.949298292398452759e-02
-5.526497587561607361e-02
5.573661997914314270e-02
4.176593199372291565e-02
7.335869222879409790e-02
-5.204173922538757324e-02
2.720797434449195862e-02
8.543180674314498901e-02
2.050410769879817963e-02
7.130882889032363892e-02
-4.920135065913200378e-02
7.304104976356029510e-03
-4.598394781351089478e-02
1.377990283071994781e-02
5.231373384594917297e-02
3.748917253687977791e-03
-6.959354877471923828e-02
1.940421946346759796e-02
-2.650900743901729584e-02
-8.102536946535110474e-02
-2.755571156740188599e-02
-8.973366767168045044e-02
5.186134949326515198e-02
9.249455295503139496e-03
-3.817645087838172913e-02
3.775937855243682861e-02
7.613547891378402710e-02
3.806942328810691833e-02
5.448580905795097351e-02
-7.723937183618545532e-02
-5.607778951525688171e-02
-6.409889459609985352e-02
3.904383629560470581e-02
5.545233562588691711e-02
-6.369523704051971436e-02
-6.557252258062362671e-02
7.535366714000701904e-02
6.065009161829948425e-02
7.457382977008819580e-02
6.936170905828475952e-02
-1.411843579262495041e-02
-8.132855594158172607e-02
-4.385779425501823425e-02
1.226914208382368088e-02
-1.195537764579057693e-02
2.699933573603630066e-02
-7.161672413349151611e-02
4.678994417190551758e-02
2.671261318027973175e-02
-2.976922504603862762e-02
8.476735651493072510e-02
3.390800952911376953e-02
-1.751114428043365479e-02
-2.220126427710056305e-02
-4.431544989347457886e-02
-5.439920816570520401e-03
5.367891117930412292e-02
1.482918765395879745e-02
1.725164614617824554e-02
-7.027424126863479614e-02
2.270240336656570435e-03
-6.284326314926147461e-02
2.630511485040187836e-02
4.919082298874855042e-02
5.964994430541992188e-02
1.786881312727928162e-02
-3.184861689805984497e-02
-4.993015900254249573e-02
-3.048993088304996490e-02
3.254669532179832458e-02
8.886973559856414795e-02
-7.805917412042617798e-02
-8.782608062028884888e-02
-7.228092756122350693e-03
4.963572323322296143e-02
4.595200717449188232e-02
7.602982223033905029e-02
2.935077808797359467e-02
-2.156324125826358795e-02
5.382566899061203003e-02
-3.063952364027500153e-02
-8.332898467779159546e-02
6.445905566215515137e-02
1.824897527694702148e-02
8.598331362009048462e-02
6.639446318149566650e-02
-1.547614298760890961e-02
-5.813655629754066467e-02
-2.657750435173511505e-02
-2.631950937211513519e-02
-2.809642255306243896e-02
-6.729375571012496948e-02
-6.949788331985473633e-02
-7.941080257296562195e-03
9.944981895387172699e-03
4.339955002069473267e-02
-6.856109946966171265e-02
1.493933424353599548e-02
6.255774199962615967e-02
-7.328745722770690918e-02
-1.532332599163055420e-02
5.537347868084907532e-02
1.223788410425186157e-02
6.723956018686294556e-02
-5.365947633981704712e-02
6.422687787562608719e-03
-6.060666963458061218e-02
2.458462305366992950e-02
4.123542085289955139e-02
6.516476720571517944e-02
-1.451610494405031204e-02
-8.172570168972015381e-02
8.363801240921020508e-02
4.487317427992820740e-02
-6.546450406312942505e-02
-1.008864119648933411e-02
5.011102766729891300e-04
7.190214097499847412e-02
-4.158774018287658691e-02
-7.792043685913085938e-02
1.120105665177106857e-02
-1.077132485806941986e-02
-5.730494111776351929e-02
-7.732824236154556274e-02
5.524781718850135803e-02
1.213502697646617889e-02
-1.291716005653142929e-02
-5.134465545415878296e-02
4.730879887938499451e-02
-7.573380134999752045e-03
1.345928106456995010e-02
-6.370163708925247192e-02
4.478462412953376770e-02
-3.501633182168006897e-02
-3.898581117391586304e-02
-4.042491316795349121e-02
5.763435363769531250e-02
-4.935821145772933960e-02
2.616137266159057617e-02
-7.625091075897216797e-02
3.407480940222740173e-02
3.492203354835510254e-02
2.167167514562606812e-02
4.464712366461753845e-02
7.258066534996032715e-02
5.995723232626914978e-02
-3.865366801619529724e-02
1.729037240147590637e-02
-2.657789736986160278e-02
5.259257741272449493e-04
8.770947903394699097e-02
-1.454697642475366592e-02
2.065017446875572205e-02
-4.586721211671829224e-02
4.058954492211341858e-02
-7.763574272394180298e-02
-4.791507124900817871e-02
-5.918179079890251160e-02
3.646761551499366760e-02
7.220983970910310745e-03
5.819389130920171738e-03
1.309771277010440826e-02
1.412112452089786530e-02
-7.124889642000198364e-03
-1.227583084255456924e-02
1.953686401247978210e-02
5.939041450619697571e-02
-2.078882977366447449e-02
1.183509640395641327e-02
-5.385201890021562576e-03
8.381016552448272705e-02
-6.786889582872390747e-02
-3.948964178562164307e-03
1.977881789207458496e-02
-2.548759244382381439e-02
-1.607752777636051178e-02
-2.992668189108371735e-02
6.149128824472427368e-02
-5.339182913303375244e-02
-8.345688134431838989e-02
2.946951985359191895e-02
7.475101947784423828e-02
-8.104363083839416504e-02
8.862791955471038818e-02
5.496048927307128906e-02
-4.448803886771202087e-02
5.075617507100105286e-02
5.205889791250228882e-02
5.234687775373458862e-02
-1.154693961143493652e-02
-6.184687837958335876e-02
4.848760366439819336e-02
-2.731279656291007996e-02
2.877064049243927002e-02
6.859946250915527344e-02
-5.148523673415184021e-02
-7.185539603233337402e-02
7.940257340669631958e-02
-4.687851294875144958e-02
-8.232051879167556763e-02
-8.855497092008590698e-02
5.151684209704399109e-02
2.137274295091629028e-02
-3.138677403330802917e-02
1.477800193242728710e-03
3.399271145462989807e-02
2.299618721008300781e-02
-2.252867259085178375e-02
-2.985030785202980042e-02
-2.459551580250263214e-02
2.431819448247551918e-03
-6.805186718702316284e-02
5.965925008058547974e-02
2.265104278922080994e-02
-4.600327461957931519e-02
1.967599056661128998e-02
-2.798634581267833710e-02
1.668001990765333176e-03
4.657464846968650818e-02
1.466325856745243073e-02
-8.625286817550659180e-02
-6.108786910772323608e-02
4.699705541133880615e-02
3.104874305427074432e-02
5.706433951854705811e-02
5.564584396779537201e-03
1.209719013422727585e-02
1.604606659384444356e-04
5.953453481197357178e-02
-3.020701371133327484e-02
-8.140253275632858276e-02
-4.399106279015541077e-02
-3.446269780397415161e-02
-3.223590552806854248e-02
-6.048420071601867676e-02
5.765323340892791748e-02
2.775862254202365875e-02
5.266832560300827026e-02
-6.542558968067169189e-02
5.176987498998641968e-03
3.830443322658538818e-02
-5.046112462878227234e-03
-3.556184237822890282e-03
2.360880374908447266e-03
-8.500529825687408447e-02
-3.755667433142662048e-02
-2.948588691651821136e-02
-2.902096137404441833e-02
-4.539355635643005371e-02
-1.427152566611766815e-02
2.054261602461338043e-02
-1.538184750825166702e-02
-3.522712737321853638e-02
3.122986061498522758e-03
-2.611440420150756836e-02
-4.331153631210327148e-02
8.393990993499755859e-02
1.610580831766128540e-02
-4.241669923067092896e-02
-7.923584431409835815e-02
4.504735395312309265e-02
-6.916116178035736084e-02
1.886568963527679443e-02
-4.176677763462066650e-02
-1.910086348652839661e-02
3.728601709008216858e-02
-4.279711842536926270e-02
-3.835414350032806396e-02
-8.811960369348526001e-02
-1.254018861800432205e-02
-8.514933288097381592e-02
4.290419444441795349e-02
8.754007518291473389e-02
6.619231402873992920e-02
6.395625323057174683e-02
-8.032047748565673828e-02
8.379234373569488525e-02
3.180051222443580627e-03
2.657401748001575470e-02
5.692488700151443481e-02
-1.231643278151750565e-02
4.988333582878112793e-02
1.548516796901822090e-03
-3.254701383411884308e-03
1.547891274094581604e-02
-9.298478811979293823e-02
-1.627648808062076569e-02
3.313395380973815918e-02
4.186727479100227356e-02
2.008673548698425293e-02
7.055246829986572266e-02
7.417681068181991577e-02
3.422672301530838013e-02
1.149590220302343369e-02
6.335183233022689819e-02
-4.588000848889350891e-02
7.168166339397430420e-02
1.967985881492495537e-03
-5.615660920739173889e-02
-2.529631927609443665e-02
-8.746547251939773560e-02
-5.578736215829849243e-02
9.931496344506740570e-03
-5.659824237227439880e-02
7.237239927053451538e-02
9.490336291491985321e-03
2.594664879143238068e-02
-4.002847708761692047e-03
-2.742245793342590332e-02
4.795881733298301697e-02
-8.347464352846145630e-02
3.294329345226287842e-02
-5.589457228779792786e-02
-5.895201489329338074e-02
-2.295362204313278198e-02
4.433301091194152832e-02
2.832720056176185608e-02
-2.093050070106983185e-02
-1.849632896482944489e-02
7.119521498680114746e-02
8.106999844312667847e-02
2.819465473294258118e-02
7.948169857263565063e-02
-1.921024546027183533e-02
-6.084939837455749512e-02
-6.654227524995803833e-02
-8.460026234388351440e-02
3.936892747879028320e-02
4.331043735146522522e-02
8.566738665103912354e-02
-7.069375365972518921e-03
-4.855673387646675110e-02
3.595617040991783142e-02
-3.525254875421524048e-02
4.831726104021072388e-02
-7.360449433326721191e-02
-2.648615464568138123e-02
7.877664268016815186e-02
-2.850253880023956299e-02
5.635653808712959290e-02
-1.254261587746441364e-03
6.965631991624832153e-02
4.537433013319969177e-02
-7.996724545955657959e-02
3.240879392251372337e-03
-1.565629430115222931e-02
-4.919525608420372009e-02
1.824014633893966675e-02
-6.228449568152427673e-02
-2.689283341169357300e-02
4.237159620970487595e-03
5.968569964170455933e-02
-7.791052758693695068e-02
-5.770001560449600220e-03
7.219097018241882324e-02
7.350545376539230347e-02
2.254346944391727448e-02
-6.614770740270614624e-02
3.162397816777229309e-02
2.066413126885890961e-02
-7.199157774448394775e-02
-3.741256892681121826e-02
-4.982272163033485413e-02
-3.279564669355750084e-03
-7.320342957973480225e-02
8.175485581159591675e-02
2.639719843864440918e-02
-1.944099552929401398e-02
-6.716188788414001465e-02
6.772755831480026245e-02
1.725648716092109680e-02
-8.859827369451522827e-02
2.190952748060226440e-02
3.496604412794113159e-02
5.963398888707160950e-02
-3.631724417209625244e-02
-2.481116540729999542e-02
-7.804356515407562256e-02
6.941021233797073364e-02
8.070006966590881348e-02
4.544430598616600037e-02
5.795074321213178337e-05
4.901106655597686768e-02
-9.102904051542282104e-02
-6.787241995334625244e-02
8.327509276568889618e-03
-1.819612341932952404e-03
1.892291940748691559e-02
6.945163756608963013e-02
-2.799900248646736145e-02
-8.361052721738815308e-02
-4.590909462422132492e-03
8.555640280246734619e-02
2.432892099022865295e-03
6.013640388846397400e-02
-7.646264880895614624e-02
-8.485870435833930969e-03
-2.655960433185100555e-02
6.538503337651491165e-03
-6.011847779154777527e-02
5.055193603038787842e-02
3.945182263851165771e-02
-5.880741029977798462e-02
3.214938798919320107e-03
-5.939704924821853638e-02
7.491063326597213745e-03
-8.698135614395141602e-02
8.034306019544601440e-02
7.809502631425857544e-02
-7.366166263818740845e-02
-7.800556719303131104e-02
-6.543182581663131714e-02
-8.175629377365112305e-02
4.673465713858604431e-02
-2.297531813383102417e-03
8.030438423156738281e-02
-9.674035012722015381e-03
8.661914616823196411e-02
1.595330610871315002e-02
-5.827085673809051514e-02
-4.073885083198547363e-02
-6.460952758789062500e-02
3.659553080797195435e-02
5.803381651639938354e-02
-4.285319149494171143e-02
-6.179207190871238708e-02
7.672999054193496704e-03
9.476903825998306274e-03
-1.841890253126621246e-02
-6.392730027437210083e-02
-7.981652021408081055e-02
-4.511513747274875641e-03
6.807696819305419922e-02
8.745896071195602417e-02
3.079549223184585571e-02
8.000591397285461426e-02
-2.584448084235191345e-03
-4.334695637226104736e-02
-1.146013382822275162e-02
6.771905720233917236e-02
2.943232655525207520e-02
-3.286647051572799683e-02
-1.666438765823841095e-02
2.598157525062561035e-02
-2.969390526413917542e-02
5.251418799161911011e-02
4.827026277780532837e-02
4.078198969364166260e-02
-4.039784893393516541e-02
-9.326442523160949349e-06
6.763859093189239502e-02
4.921527579426765442e-02
6.470541656017303467e-02
-3.710050880908966064e-02
4.158315062522888184e-02
-4.304946586489677429e-02
2.598002552986145020e-03
7.994089275598526001e-02
-5.024413764476776123e-02
-1.940927281975746155e-02
7.831849902868270874e-02
5.003328248858451843e-02
4.415671527385711670e-02
7.294089347124099731e-02
1.013136841356754303e-02
-5.581525713205337524e-02
4.785695672035217285e-02
7.052122615277767181e-03
3.206853568553924561e-02
-9.288911521434783936e-02
3.404740616679191589e-02
-2.955601923167705536e-02
-2.333332225680351257e-02
6.541705131530761719e-02
8.182225376367568970e-02
7.012599706649780273e-02
8.504118025302886963e-02
2.018042653799057007e-02
-4.903048649430274963e-02
7.272065430879592896e-02
-1.172686647623777390e-02
-1.801469363272190094e-02
5.094203352928161621e-02
-7.449084520339965820e-02
5.150863155722618103e-02
6.426005065441131592e-02
-1.151745393872261047e-02
1.726974360644817352e-02
1.033296342939138412e-02
-8.385757915675640106e-03
-7.367080450057983398e-02
-8.971791714429855347e-02
-1.108334679156541824e-02
7.630652189254760742e-02
1.660874485969543457e-02
6.613651290535926819e-03
8.344291895627975464e-02
6.052024662494659424e-02
5.300179123878479004e-02
-5.398463085293769836e-02
-3.893410786986351013e-02
6.517240405082702637e-02
-4.715804010629653931e-02
8.709413558244705200e-02
-2.527359873056411743e-02
-3.077252581715583801e-02
8.254346996545791626e-02
1.111627183854579926e-02
1.048462092876434326e-02
1.302806660532951355e-02
-1.467691268771886826e-02
-1.721466146409511566e-02
-6.782490760087966919e-02
1.367343869060277939e-02
-1.169467438012361526e-02
4.748812690377235413e-02
6.442920118570327759e-02
8.835135027766227722e-03
3.367333114147186279e-02
-2.641269005835056305e-02
5.620301142334938049e-02
3.849365562200546265e-02
7.461605966091156006e-02
5.896147806197404861e-03
5.424994230270385742e-02
7.606687396764755249e-02
4.873487353324890137e-02
7.080540060997009277e-02
-7.894381880760192871e-02
-7.834980636835098267e-02
-7.801509462296962738e-03
-1.008368283510208130e-02
-1.342108473181724548e-02
-1.652183756232261658e-02
-2.826000330969691277e-03
4.371794313192367554e-02
-5.562223959714174271e-04
4.099681228399276733e-02
8.336839824914932251e-02
4.646876826882362366e-02
7.577569037675857544e-02
3.033998422324657440e-02
1.722318469546735287e-03
-7.458411902189254761e-02
-3.657166147604584694e-03
5.427218601107597351e-02
8.793458342552185059e-02
-1.742631569504737854e-02
-2.962602302432060242e-02
5.903504416346549988e-02
2.617061696946620941e-02
-3.048621676862239838e-02
6.298609543591737747e-03
-5.255910381674766541e-02
6.478515267372131348e-02
2.428983524441719055e-02
-7.787449751049280167e-03
7.383263111114501953e-02
8.971841633319854736e-02
-5.532452836632728577e-02
-8.094505965709686279e-02
-2.065426902845501900e-03
-2.044565044343471527e-02
-7.943597622215747833e-03
4.297700896859169006e-02
-8.434794843196868896e-02
6.195154041051864624e-02
5.825455114245414734e-02
-5.142667144536972046e-02
-4.821568727493286133e-02
6.619975715875625610e-02
7.836928963661193848e-02
8.063475787639617920e-02
5.686530843377113342e-02
-4.619305022060871124e-03
6.350355595350265503e-02
-7.081931084394454956e-02
-2.324094437062740326e-02
4.550067335367202759e-02
-9.600411169230937958e-03
5.927111580967903137e-02
6.587590277194976807e-02
3.122101351618766785e-02
-7.674045860767364502e-02
6.128845736384391785e-02
-4.794181883335113525e-02
7.133714854717254639e-02
1.653628051280975342e-02
-6.974291801452636719e-02
3.569697216153144836e-02
3.393334522843360901e-02
-5.674707144498825073e-02
-6.474395841360092163e-02
-6.952814292162656784e-03
-3.354886919260025024e-02
1.940006017684936523e-02
-7.519138045608997345e-03
1.880327053368091583e-02
1.411304436624050140e-02
7.694186270236968994e-02
-7.381724193692207336e-03
-4.440787434577941895e-02
-5.153058469295501709e-02
-3.659912943840026855e-02
-7.347050309181213379e-02
4.732133075594902039e-02
-7.721338421106338501e-02
-8.130602538585662842e-02
-1.665165461599826813e-02
-5.025243759155273438e-02
-8.124346286058425903e-02
7.352711260318756104e-02
-6.553380936384201050e-02
6.041250750422477722e-02
9.186073206365108490e-03
-5.444864556193351746e-02
6.898212712258100510e-03
-6.018567457795143127e-02
-1.050399057567119598e-02
8.991426229476928711e-02
2.241037972271442413e-02
3.206763416528701782e-02
5.915845930576324463e-02
-6.125448644161224365e-02
7.072713226079940796e-02
7.422599941492080688e-02
-1.807587966322898865e-02
3.580310195684432983e-02
2.278376556932926178e-02
4.900021851062774658e-02
-4.342726245522499084e-02
8.807464689016342163e-02
5.289372056722640991e-02
8.730530738830566406e-03
7.379255443811416626e-02
-5.061054602265357971e-02
-3.311083465814590454e-02
3.022914752364158630e-02
2.458443678915500641e-02
-6.501030921936035156e-02
-6.335531920194625854e-02
-2.492524916306138039e-03
-6.057129800319671631e-02
4.956149682402610779e-02
-4.188377782702445984e-02
-6.333477795124053955e-02
2.082445472478866577e-02
9.135575965046882629e-03
2.996942587196826935e-02
-3.331214562058448792e-02
1.553026400506496429e-02
1.145318336784839630e-02
3.290849039331078529e-03
-4.004243761301040649e-02
1.329269167035818100e-02
-7.845962047576904297e-02
-4.445090889930725098e-02
7.357820123434066772e-02
8.508384227752685547e-02
-3.132735937833786011e-02
-4.919776320457458496e-02
-9.974515996873378754e-04
-1.855670288205146790e-02
5.429384857416152954e-02
-7.521205395460128784e-02
4.300275817513465881e-02
-1.147513929754495621e-02
5.085026472806930542e-02
-7.561984658241271973e-02
7.810086756944656372e-02
2.779391780495643616e-02
4.982562363147735596e-02
-7.160010188817977905e-02
-3.920475393533706665e-02
-6.096431985497474670e-02
8.407841622829437256e-02
3.149113431572914124e-02
-2.415149472653865814e-02
4.874252155423164368e-02
4.560992866754531860e-02
9.910341352224349976e-03
-8.760049939155578613e-03
5.250160023570060730e-02
-8.108223229646682739e-02
-4.177332296967506409e-02
-3.670964017510414124e-02
-6.999686360359191895e-02
3.376735746860504150e-02
4.875520244240760803e-02
5.206912383437156677e-02
-7.229734212160110474e-02
6.778772920370101929e-02
6.293973419815301895e-03
1.635566912591457367e-02
-7.149191945791244507e-02
-1.578164473176002502e-02
-4.527115449309349060e-02
3.807243704795837402e-02
-4.208151251077651978e-02
2.693308144807815552e-02
-2.534950152039527893e-02
4.579971358180046082e-02
5.208590254187583923e-02
-8.125655353069305420e-02
5.071643367409706116e-02
-9.000658988952636719e-03
8.116712421178817749e-02
-5.042649060487747192e-02
-2.794517204165458679e-02
-4.099327698349952698e-02
-1.373597700148820877e-02
6.353741139173507690e-02
1.250761467963457108e-02
-2.717447932809591293e-03
5.869534239172935486e-02
-4.780790582299232483e-02
-5.624382570385932922e-02
3.048662841320037842e-02
2.687054686248302460e-02
-6.109157577157020569e-02
-5.919836089015007019e-02
-3.126743808388710022e-02
-2.397939376533031464e-02
7.544506806880235672e-03
-7.667776197195053101e-02
3.243249282240867615e-02
1.224734075367450714e-02
3.137242794036865234e-02
1.902819611132144928e-02
-5.877365544438362122e-02
7.382505387067794800e-02
4.232175415381789207e-04
5.385932326316833496e-02
2.527310140430927277e-02
-7.224122434854507446e-02
-1.796201057732105255e-02
-7.349047064781188965e-02
-7.676839828491210938e-02
-5.321709066629409790e-02
4.284225031733512878e-02
7.378239184617996216e-02
2.041711099445819855e-02
3.481686487793922424e-02
9.192518889904022217e-03
-3.479597344994544983e-02
-7.091232389211654663e-02
-7.176411896944046021e-02
5.820814147591590881e-02
7.605145126581192017e-02
3.205754235386848450e-02
-5.747733637690544128e-02
-1.575417816638946533e-02
2.624635584652423859e-02
2.831436321139335632e-02
-4.514159262180328369e-02
2.337714284658432007e-02
7.404518872499465942e-02
2.318046800792217255e-02
7.837752252817153931e-02
6.401987373828887939e-02
6.269357353448867798e-02
2.620427869260311127e-03
-8.687738329172134399e-02
-4.848473146557807922e-02
-6.100798398256301880e-02
-9.595748968422412872e-03
4.349447786808013916e-02
8.505170792341232300e-02
3.300216794013977051e-02
-5.628481507301330566e-02
-8.119794726371765137e-02
8.081530034542083740e-02
-5.923585593700408936e-02
-7.025402039289474487e-02
4.984373808838427067e-04
4.460104182362556458e-02
-1.340596470981836319e-02
-6.280604004859924316e-02
-3.920244798064231873e-02
8.022665977478027344e-02
4.568087682127952576e-02
-6.837745010852813721e-02
5.375815182924270630e-02
-3.988457843661308289e-02
-6.099536642432212830e-02
-4.911807924509048462e-02
4.691328108310699463e-02
4.215231910347938538e-02
8.176912367343902588e-02
2.863863483071327209e-02
-1.944493502378463745e-02
-5.721364170312881470e-02
-3.307101875543594360e-02
6.000297516584396362e-02
-4.381528869271278381e-02
7.520952820777893066e-02
-6.139830127358436584e-02
3.749316558241844177e-02
-6.986175477504730225e-02
8.818553388118743896e-02
-4.145775362849235535e-02
5.784392356872558594e-02
6.336154788732528687e-02
2.649728581309318542e-02
3.353851661086082458e-02
5.019808560609817505e-02
-4.340530186891555786e-02
8.834595978260040283e-02
8.949256688356399536e-02
3.127550473436713219e-03
-2.119385451078414917e-02
6.570151448249816895e-02
-4.081457853317260742e-02
-2.672241069376468658e-02
-4.638364538550376892e-02
7.155398279428482056e-02
-6.762795150279998779e-02
6.114334985613822937e-02
3.915375471115112305e-02
-8.748085796833038330e-02
4.631147161126136780e-02
4.310921207070350647e-02
4.706570133566856384e-02
-7.560079544782638550e-02
-5.729235708713531494e-02
6.332224607467651367e-02
-7.474607974290847778e-02
1.256748847663402557e-02
1.605707593262195587e-02
-8.011306822299957275e-02
-3.950928524136543274e-02
-4.351518303155899048e-02
-3.578423336148262024e-02
4.089601710438728333e-02
-1.965721510350704193e-02
-1.178829930722713470e-03
5.856146290898323059e-02
-8.600483834743499756e-02
-6.490004062652587891e-02
-7.752946019172668457e-02
-1.138418912887573242e-02
-1.662742905318737030e-02
-1.222717296332120895e-02
2.464986033737659454e-02
4.890005290508270264e-02
-4.604142531752586365e-02
2.938405796885490417e-02
1.255120243877172470e-02
-4.657465498894453049e-03
5.607787147164344788e-02
6.504125893115997314e-02
5.535505246371030807e-03
6.810332834720611572e-02
5.136229097843170166e-02
-2.924917265772819519e-02
9.108796948567032814e-04
-2.186615206301212311e-02
-3.287329897284507751e-02
3.507377207279205322e-02
6.194814667105674744e-02
-1.854827441275119781e-02
-2.391759119927883148e-02
2.585838548839092255e-02
-3.061405196785926819e-02
-1.125287637114524841e-02
1.725295931100845337e-02
-4.460516571998596191e-02
-7.004795223474502563e-02
9.405430406332015991e-03
3.482711315155029297e-02
1.143589988350868225e-02
2.648284472525119781e-02
-4.038924351334571838e-02
4.112322349101305008e-03
4.258698225021362305e-02
1.229117531329393387e-02
7.641527801752090454e-02
-5.814062431454658508e-02
-1.881090365350246429e-02
1.510329823940992355e-02
1.879272237420082092e-02
-5.203393101692199707e-02
-9.696456603705883026e-03
-2.651627361774444580e-02
6.491585820913314819e-02
-3.081282600760459900e-02
-5.261854268610477448e-03
1.135512907058000565e-02
-7.781884819269180298e-02
-5.205249041318893433e-02
9.798354469239711761e-03
3.630261868238449097e-02
3.332796320319175720e-02
-1.233673188835382462e-02
4.786984995007514954e-02
5.439318716526031494e-02
6.014058738946914673e-02
3.295193985104560852e-02
3.101305291056632996e-02
-3.386794123798608780e-03
-5.065156519412994385e-02
7.604400813579559326e-02
-3.709697723388671875e-02
4.885355755686759949e-02
-7.025465369224548340e-02
8.142720907926559448e-02
2.273647114634513855e-02
2.350829727947711945e-02
-8.515501022338867188e-02
8.305486291646957397e-03
-5.022886022925376892e-02
-4.852158483117818832e-03
1.229425240308046341e-02
-6.443150341510772705e-02
-5.819461122155189514e-02
4.790652915835380554e-02
-8.205363154411315918e-02
-5.258072912693023682e-02
9.525272995233535767e-03
-8.380699157714843750e-02
-2.741460874676704407e-02
-2.347320877015590668e-02
-5.509611219167709351e-02
-2.561867982149124146e-02
7.385752350091934204e-02
-4.875256121158599854e-02
8.132842183113098145e-02
-4.481726512312889099e-02
-4.738904163241386414e-02
-3.785676509141921997e-02
3.883023560047149658e-02
4.011896252632141113e-02
1.516225095838308334e-02
1.577822305262088776e-02
-7.446949183940887451e-02
4.078429937362670898e-02
1.630057767033576965e-02
-7.637552917003631592e-02
4.639154672622680664e-02
-5.723752826452255249e-02
3.692704066634178162e-02
-3.532325476408004761e-02
6.131125241518020630e-02
-4.769932478666305542e-02
-6.694844365119934082e-02
-2.374439872801303864e-02
4.598240181803703308e-02
5.970326438546180725e-02
-6.526578962802886963e-02
-6.017060577869415283e-02
-1.118592452257871628e-02
8.647557348012924194e-02
-8.491814136505126953e-02
-2.071256935596466064e-02
6.556459516286849976e-02
8.485537767410278320e-02
-5.671464651823043823e-02
-1.911946013569831848e-02
9.520102292299270630e-03
-5.717749148607254028e-02
-5.383057892322540283e-02
3.560120239853858948e-02
-3.347877040505409241e-02
-1.610369607806205750e-02
3.161691129207611084e-03
-2.749954583123326302e-03
-2.262579090893268585e-02
-2.032186370342969894e-03
-6.260354816913604736e-02
1.187410578131675720e-02
5.580129846930503845e-02
6.914256513118743896e-02
5.974034592509269714e-02
5.262607336044311523e-02
-7.706595212221145630e-02
-7.933151721954345703e-02
-5.710780620574951172e-02
-7.770752906799316406e-02
-4.559217020869255066e-02
-5.715189501643180847e-02
-4.904862120747566223e-02
7.195911556482315063e-02
-7.050258666276931763e-02
7.134900242090225220e-02
8.913057297468185425e-02
9.102109819650650024e-02
-1.757708610966801643e-03
-2.878709929063916206e-03
-1.189739163964986801e-02
8.182767778635025024e-02
-3.081799484789371490e-02
-6.447548978030681610e-03
7.191287726163864136e-02
7.911130785942077637e-02
-5.829863622784614563e-02
-8.611845970153808594e-02
-7.847528159618377686e-02
8.087906986474990845e-02
3.270388022065162659e-02
-2.820693654939532280e-03
-4.025894030928611755e-02
-5.088908597826957703e-02
-5.136327818036079407e-02
-8.601307868957519531e-02
-2.412096597254276276e-03
3.961160033941268921e-02
8.572646975517272949e-02
6.971125956624746323e-03
2.370474115014076233e-02
-2.829183451831340790e-02
-3.712482377886772156e-02
8.714778721332550049e-02
-3.540221229195594788e-02
1.326373778283596039e-02
-7.401939481496810913e-02
6.027276441454887390e-02
7.304207980632781982e-02
5.607546865940093994e-02
-3.575100004673004150e-02
3.684202209115028381e-02
1.911105960607528687e-02
4.889257997274398804e-02
-4.540611803531646729e-02
-2.852779068052768707e-02
-7.161050289869308472e-02
-8.138785511255264282e-02
-2.669747360050678253e-02
5.810571461915969849e-02
7.892280817031860352e-02
8.521414548158645630e-02
-2.270179800689220428e-02
-5.326766893267631531e-02
5.032319575548171997e-02
-4.437976330518722534e-02
-3.264383226633071899e-02
-2.791777811944484711e-02
2.930557727813720703e-02
-9.232441894710063934e-03
-1.873752661049365997e-02
1.537534687668085098e-02
-5.749455466866493225e-02
7.859132438898086548e-02
-2.965050376951694489e-02
-6.537450850009918213e-02
4.103261977434158325e-02
-6.875520944595336914e-02
-4.123984253965318203e-04
-1.638550311326980591e-02
-2.563254209235310555e-03
-2.688436070457100868e-04
2.761265449225902557e-02
5.869314819574356079e-02
5.057410523295402527e-02
8.681773208081722260e-03
3.439413756132125854e-02
-4.776751250028610229e-02
-4.069115966558456421e-02
1.138367410749197006e-02
1.579572260379791260e-02
4.864270240068435669e-02
1.403738558292388916e-02
-5.873759277164936066e-03
-3.151235869154334068e-04
1.205332018435001373e-02
-6.872701644897460938e-02
-6.719671189785003662e-02
6.088189408183097839e-02
5.486586689949035645e-02
2.338589914143085480e-02
-4.309058561921119690e-02
-3.883388265967369080e-02
3.137762844562530518e-02
1.915331371128559113e-02
2.323491312563419342e-02
-5.008338391780853271e-02
8.332560211420059204e-02
-7.984755188226699829e-02
2.572457538917660713e-03
1.253691315650939941e-02
-3.032305976375937462e-03
-5.916805565357208252e-02
-1.937393471598625183e-02
-1.891111023724079132e-02
-2.284461818635463715e-02
-1.626857742667198181e-02
7.238194346427917480e-02
-5.707864090800285339e-02
-6.988920737057924271e-03
3.522270545363426208e-02
-4.743633791804313660e-02
1.097765285521745682e-03
-6.077181920409202576e-02
4.284748807549476624e-02
7.180109620094299316e-02
4.874134808778762817e-02
-2.024501003324985504e-02
-8.375156670808792114e-02
-7.126159965991973877e-02
-3.660859912633895874e-02
1.719969138503074646e-02
-2.644739858806133270e-02
-6.832674145698547363e-02
7.297699898481369019e-02
-2.323977276682853699e-02
-6.608445197343826294e-02
7.509163767099380493e-02
-7.942587137222290039e-02
-4.208394512534141541e-02
-4.300743713974952698e-02
-8.486359566450119019e-02
-7.606939412653446198e-03
4.720581695437431335e-02
-3.026176989078521729e-02
1.601032636244781315e-05
-5.617354065179824829e-02
-1.313891541212797165e-02
-1.010069996118545532e-02
-8.139570802450180054e-02
1.299407053738832474e-02
-2.327251061797142029e-02
7.394836097955703735e-02
-7.056604325771331787e-02
7.865928858518600464e-02
-5.991625040769577026e-02
4.726355522871017456e-02
4.084343090653419495e-02
-7.474485784769058228e-02
-1.891786605119705200e-02
3.006516955792903900e-02
4.858501255512237549e-03
2.305646426975727081e-02
-5.108364671468734741e-02
-5.413696914911270142e-02
-3.384431451559066772e-02
-8.659322559833526611e-02
-6.426367163658142090e-02
-2.921609953045845032e-02
3.031866066157817841e-02
-5.103437975049018860e-02
-4.015037789940834045e-02
2.863173186779022217e-02
-7.996338605880737305e-02
8.631040155887603760e-02
3.754643723368644714e-02
9.216384962201118469e-03
7.214562594890594482e-02
-6.096647307276725769e-02
-8.078833669424057007e-02
-7.566227763891220093e-02
4.126498475670814514e-02
7.962841540575027466e-02
7.670234143733978271e-02
-7.103133946657180786e-02
-3.217807784676551819e-02
-5.428277701139450073e-02
3.409898653626441956e-02
1.468174345791339874e-02
-5.100949853658676147e-02
-1.101109944283962250e-02
3.939636796712875366e-02
1.829647645354270935e-02
-1.179527025669813156e-02
-2.450349554419517517e-02
-4.244117066264152527e-02
-5.143043026328086853e-02
-2.419728413224220276e-02
-7.585375010967254639e-02
7.855341583490371704e-02
-3.581875935196876526e-02
-1.201239693909883499e-02
6.224160268902778625e-02
-7.891488820314407349e-02
-2.768321521580219269e-02
1.439607236534357071e-02
-3.535652300342917442e-03
7.470373064279556274e-02
-8.516531437635421753e-02
-7.165782153606414795e-02
-2.389743551611900330e-02
1.871145889163017273e-02
-9.053643047809600830e-02
-5.160272493958473206e-02
-6.968302652239799500e-03
7.772775739431381226e-02
-8.204986900091171265e-02
3.704240918159484863e-02
-8.354222774505615234e-02
-6.053208559751510620e-02
6.731813400983810425e-02
3.649783879518508911e-02
-4.522453621029853821e-02
-4.736808687448501587e-02
6.585461646318435669e-02
4.402971640229225159e-02
6.850647926330566406e-02
-1.794515363872051239e-02
-1.412455458194017410e-02
-7.398966699838638306e-02
1.953757926821708679e-02
6.491342186927795410e-02
4.276114702224731445e-02
1.020410470664501190e-02
8.499152213335037231e-02
7.423884421586990356e-02
-3.354631364345550537e-02
-7.423542439937591553e-02
2.524781227111816406e-02
5.395858362317085266e-02
4.187807813286781311e-02
-4.454525560140609741e-02
5.751179531216621399e-03
-4.445764422416687012e-02
5.061933398246765137e-02
-2.335534198209643364e-03
-2.300573326647281647e-02
3.535741195082664490e-02
-1.606636121869087219e-02
-7.444318383932113647e-02
-4.487261548638343811e-02
-2.726174704730510712e-02
-6.347775459289550781e-02
-1.335669681429862976e-02
2.974242158234119415e-02
-1.281653251498937607e-02
4.840426892042160034e-02
8.446296304464340210e-02
2.414361387491226196e-02
5.284290388226509094e-02
7.017895579338073730e-02
4.313626792281866074e-03
-8.115219324827194214e-02
6.825315952301025391e-02
-7.235752046108245850e-02
-2.390565350651741028e-02
-6.894867867231369019e-02
4.678357020020484924e-02
-6.981557607650756836e-02
3.562176600098609924e-02
-4.215767979621887207e-02
-8.161968737840652466e-02
-1.785482047125697136e-03
7.853776961565017700e-02
-4.127354174852371216e-02
8.601601421833038330e-02
6.456482410430908203e-02
-9.788698516786098480e-04
-6.930283457040786743e-02
-3.176178410649299622e-02
-1.626642048358917236e-02
4.489314183592796326e-02
4.189268127083778381e-02
3.849391592666506767e-03
-7.215434219688177109e-03
8.112854510545730591e-02
7.640169560909271240e-02
-8.898850530385971069e-02
-2.516146562993526459e-02
-2.727041579782962799e-02
6.838006526231765747e-02
-4.884756729006767273e-02
3.267785161733627319e-02
-5.116206035017967224e-02
-7.618934661149978638e-02
7.147946208715438843e-02
3.979801386594772339e-02
5.931815505027770996e-02
3.926206007599830627e-02
3.315362706780433655e-02
7.573682069778442383e-02
2.559191919863224030e-02
6.965336203575134277e-02
-6.748691201210021973e-02
-2.384250797331333160e-02
-4.185713827610015869e-02
6.951814983040094376e-03
4.339126124978065491e-02
3.245773538947105408e-02
5.361373070627450943e-03
2.242281287908554077e-02
-1.419619936496019363e-02
5.177539214491844177e-02
-1.439378410577774048e-02
-5.068410187959671021e-02
-6.209727376699447632e-02
-1.633299328386783600e-02
-4.272482171654701233e-02
-2.106731059029698372e-03
-7.600386440753936768e-02
6.897622346878051758e-02
1.780446060001850128e-02
-5.074187740683555603e-02
-5.984149128198623657e-02
5.886280164122581482e-02
4.422789067029953003e-02
-3.373875468969345093e-02
-4.484803974628448486e-02
-8.325678855180740356e-02
-8.405405282974243164e-02
4.057130962610244751e-02
-3.641454130411148071e-02
-4.560409486293792725e-02
-3.978211432695388794e-02
-3.014034219086170197e-02
7.479043304920196533e-02
-7.555534690618515015e-02
2.589666284620761871e-02
4.959980398416519165e-02
6.154808029532432556e-02
-6.529463082551956177e-02
-2.194064669311046600e-02
7.311989367008209229e-02
5.774541199207305908e-02
1.122034899890422821e-02
-1.813843846321105957e-02
-5.646559968590736389e-02
-7.674343138933181763e-02
-3.455588966608047485e-02
-3.613713383674621582e-02
-3.256358206272125244e-02
-7.157492637634277344e-02
3.900744020938873291e-02
3.423470258712768555e-02
1.424482837319374084e-02
6.788602471351623535e-02
-5.343915522098541260e-02
-3.883288800716400146e-02
5.688800662755966187e-02
3.882969915866851807e-02
3.716659545898437500e-02
-5.031295120716094971e-02
-2.939739450812339783e-02
8.159533143043518066e-02
-3.433613851666450500e-02
-1.174877770245075226e-02
-9.424334391951560974e-03
6.308326125144958496e-02
6.161177530884742737e-02
-7.085166871547698975e-02
5.375745892524719238e-02
7.553357630968093872e-02
-7.341662794351577759e-02
4.770402610301971436e-02
2.698962111026048660e-03
-8.271414786577224731e-02
5.702765658497810364e-03
6.664523482322692871e-02
4.283510893583297729e-02
-3.717592358589172363e-02
7.710147649049758911e-02
-6.669931858777999878e-02
-1.001667929813265800e-03
3.013429231941699982e-02
-8.426520228385925293e-02
-7.374401390552520752e-02
3.371353074908256531e-02
7.715298980474472046e-02
7.619903236627578735e-02
2.438620850443840027e-02
-2.419736608862876892e-02
2.750258520245552063e-02
7.545796781778335571e-02
1.711574569344520569e-02
8.193258941173553467e-02
7.808800041675567627e-02
3.800008445978164673e-02
-2.498061768710613251e-02
-5.730669945478439331e-02
8.388344943523406982e-02
-1.085093524307012558e-02
3.119911625981330872e-02
-3.652076935395598412e-03
2.572814933955669403e-02
6.282628327608108521e-02
-6.287187337875366211e-02
4.347552731633186340e-02
4.004083573818206787e-02
-6.743576377630233765e-02
-5.396004393696784973e-02
5.035296455025672913e-02
7.544568274170160294e-03
-3.285970166325569153e-02
7.171237468719482422e-02
1.054381951689720154e-02
2.222729474306106567e-02
7.507134228944778442e-02
6.200116872787475586e-02
8.825971931219100952e-02
4.819840565323829651e-02
-3.595217131078243256e-03
-8.488415181636810303e-02
4.113230109214782715e-02
6.896194815635681152e-02
-3.776138275861740112e-02
3.667498007416725159e-02
2.117688767611980438e-02
4.920446500182151794e-02
6.197666004300117493e-02
2.471248991787433624e-02
-8.256945013999938965e-02
5.280891805887222290e-02
-5.830072984099388123e-02
3.792690858244895935e-02
7.594214379787445068e-02
-1.783349178731441498e-02
1.716133207082748413e-02
5.732139945030212402e-02
8.559454977512359619e-02
1.313350908458232880e-02
-5.359967797994613647e-02
-4.868758097290992737e-02
-4.155905544757843018e-02
-2.373529132455587387e-03
8.885986171662807465e-03
-5.757168401032686234e-04
5.112648010253906250e-02
-2.722915634512901306e-02
3.268423676490783691e-02
3.842346370220184326e-02
2.781944349408149719e-04
2.322282642126083374e-02
4.182351753115653992e-02
-2.592141740024089813e-02
-4.610824957489967346e-02
2.061784267425537109e-02
3.320941177662461996e-04
-2.319752983748912811e-02
-4.561388492584228516e-02
-6.060981005430221558e-02
6.829930841922760010e-02
-9.216212667524814606e-03
2.659528516232967377e-02
-3.712536022067070007e-02
6.878498941659927368e-02
7.126379013061523438e-02
-7.827857881784439087e-02
4.641970992088317871e-02
2.490288019180297852e-02
-2.170563116669654846e-02
-1.775236241519451141e-02
5.399824678897857666e-02
1.464400347322225571e-02
-6.299924105405807495e-02
2.772855758666992188e-02
-4.972120374441146851e-02
3.644372895359992981e-02
1.533991564065217972e-02
-5.055947601795196533e-02
2.248728647828102112e-02
5.899822339415550232e-02
-4.928839951753616333e-02
7.971649616956710815e-02
-6.077331304550170898e-02
-5.645018815994262695e-02
2.958384342491626740e-02
-5.555561184883117676e-02
-1.989224739372730255e-02
-3.114058636128902435e-02
-1.262912806123495102e-02
-5.288831889629364014e-02
1.518460456281900406e-02
5.658533424139022827e-02
-2.465446013957262039e-03
8.561069145798683167e-03
-3.520362824201583862e-02
-3.994145989418029785e-02
2.640586718916893005e-02
-5.327390879392623901e-02
3.193331882357597351e-02
-8.153387904167175293e-02
6.841114163398742676e-02
-7.573012262582778931e-02
-3.455687314271926880e-02
7.855899631977081299e-02
-4.404918104410171509e-02
-4.262699931859970093e-02
8.229874819517135620e-02
-4.561424627900123596e-02
4.471760243177413940e-02
3.261912241578102112e-02
-1.712384447455406189e-02
-7.958439178764820099e-03
7.780450582504272461e-02
-1.958070695400238037e-02
6.970162689685821533e-02
-3.044792078435420990e-02
-7.830405235290527344e-02
-7.630071789026260376e-02
4.331180453300476074e-02
-8.560726791620254517e-02
4.599004611372947693e-02
-8.673021197319030762e-02
5.491080135107040405e-02
-8.587349951267242432e-02
4.959429427981376648e-02
6.561700999736785889e-02
7.851914316415786743e-02
6.004016101360321045e-02
-7.981227338314056396e-02
5.385205522179603577e-02
7.054612785577774048e-02
-1.550558255985379219e-03
6.743851304054260254e-02
-5.071936920285224915e-02
-6.086270138621330261e-02
2.835219912230968475e-02
7.929616421461105347e-02
-8.559843152761459351e-02
-1.255918201059103012e-02
-6.498461961746215820e-02
4.337880387902259827e-02
-4.453658312559127808e-02
5.446394439786672592e-03
5.860960483551025391e-02
-1.768009923398494720e-02
5.861955508589744568e-02
7.601821422576904297e-02
-2.054795622825622559e-03
1.826935634016990662e-02
-1.823759078979492188e-02
-2.536976337432861328e-02
6.607171148061752319e-02
-5.263232160359621048e-03
9.077910333871841431e-02
5.654202029109001160e-02
-3.268758952617645264e-02
-3.625580668449401855e-02
-7.039442658424377441e-02
8.695609122514724731e-02
-8.437947928905487061e-02
-6.720126420259475708e-02
2.474956773221492767e-02
6.093046627938747406e-03
-4.476759582757949829e-02
-8.098447322845458984e-02
-7.437320053577423096e-02
1.372250379063189030e-03
-2.458884194493293762e-02
5.436081066727638245e-02
-3.587638214230537415e-02
-5.170894414186477661e-02
6.747689843177795410e-02
-5.282777175307273865e-02
6.133672222495079041e-02
-1.547703240066766739e-02
7.140209525823593140e-02
3.603719547390937805e-02
4.057290032505989075e-02
4.689745977520942688e-02
3.152993740513920784e-03
8.751057088375091553e-02
1.859766244888305664e-02
3.778934478759765625e-02
6.859323382377624512e-02
8.221542090177536011e-02
-1.723873615264892578e-02
7.198853790760040283e-02
-5.604644864797592163e-02
5.952322389930486679e-03
1.091324631124734879e-02
-6.782009452581405640e-02
-5.003076046705245972e-02
8.191365003585815430e-02
-2.508931979537010193e-02
-6.955680251121520996e-02
-2.075916714966297150e-02
-4.741588979959487915e-02
-2.457987144589424133e-02
3.050424717366695404e-02
-4.217486083507537842e-02
-6.335982680320739746e-02
-8.444488793611526489e-02
1.864199060946702957e-03
-8.414173871278762817e-02
-7.095453795045614243e-03
3.138124570250511169e-02
-2.273618243634700775e-02
8.195150643587112427e-02
7.785125821828842163e-02
4.538961499929428101e-02
-8.519881218671798706e-02
-3.442105650901794434e-02
-5.930596962571144104e-02
-1.250099041499197483e-03
5.327178910374641418e-02
-1.938216760754585266e-02
-5.929652228951454163e-02
5.245434865355491638e-02
-9.989177808165550232e-03
3.950374200940132141e-02
-7.959575206041336060e-02
-2.380168065428733826e-02
2.918963879346847534e-02
6.604691594839096069e-02
4.722392559051513672e-02
-8.653063327074050903e-02
-3.567930683493614197e-02
9.027004241943359375e-03
2.400748431682586670e-02
-7.073560357093811035e-02
-8.665040135383605957e-02
4.600874334573745728e-02
-1.170623698271811008e-03
-4.145396128296852112e-02
-5.151218269020318985e-03
-3.270152257755398750e-03
-5.949615966528654099e-03
-7.826782763004302979e-02
6.753168255090713501e-02
5.823947861790657043e-02
1.918980479240417480e-02
4.024754464626312256e-02
-6.952185928821563721e-02
4.128626361489295959e-02
4.239975288510322571e-02
3.119069710373878479e-02
-7.290448248386383057e-02
7.882949709892272949e-02
-5.545412190258502960e-03
9.254480898380279541e-02
-1.303816772997379303e-02
6.752281635999679565e-02
2.483154647052288055e-02
-6.480213254690170288e-02
8.589985966682434082e-02
7.036554068326950073e-02
-7.222560048103332520e-02
6.675303727388381958e-02
-2.393107116222381592e-02
4.314357787370681763e-02
-8.041140437126159668e-02
5.610434338450431824e-02
5.082216113805770874e-02
3.248718008399009705e-02
2.349037304520606995e-02
-3.538263589143753052e-02
-2.798693813383579254e-02
6.087300181388854980e-02
-5.310718342661857605e-02
1.467560045421123505e-02
4.727454483509063721e-02
3.415270894765853882e-02
7.477561384439468384e-02
-8.354999870061874390e-02
9.271768853068351746e-03
-2.161370217800140381e-02
-2.554837614297866821e-02
2.569521032273769379e-02
-8.192089200019836426e-02
-4.434737190604209900e-02
-5.494229868054389954e-02
-5.846773833036422729e-02
-2.390122041106224060e-02
-6.303519010543823242e-02
3.048218227922916412e-02
7.960023730993270874e-02
7.680231332778930664e-02
9.668522514402866364e-03
-5.155191570520401001e-02
-4.768356680870056152e-02
2.307187579572200775e-02
4.812205955386161804e-02
2.782329916954040527e-02
-4.293348267674446106e-02
2.395274862647056580e-02
-1.768328435719013214e-02
-3.054043650627136230e-02
8.463771082460880280e-03
-3.157167136669158936e-02
-5.364084616303443909e-02
5.355885997414588928e-02
7.118791341781616211e-02
-4.252908751368522644e-02
9.973771870136260986e-03
2.139878459274768829e-02
5.607125908136367798e-02
3.589340252801775932e-03
3.340171650052070618e-03
-1.838199421763420105e-02
1.520690508186817169e-02
2.704640850424766541e-03
2.547841332852840424e-02
-4.105176776647567749e-02
4.505233466625213623e-02
-6.784394383430480957e-02
6.127462908625602722e-02
-7.741577923297882080e-02
4.505864530801773071e-02
-6.804220378398895264e-02
4.627820849418640137e-02
-5.382302775979042053e-02
-5.810897052288055420e-02
-3.103931248188018799e-02
-2.377251349389553070e-02
4.569317772984504700e-02
-3.752013295888900757e-02
3.665675967931747437e-02
-7.246232591569423676e-03
1.078535709530115128e-02
-7.994829118251800537e-02
6.348806619644165039e-02
4.900230094790458679e-03
-1.982199773192405701e-02
7.267357409000396729e-02
-3.867312893271446228e-02
2.885024435818195343e-02
-6.258732825517654419e-02
-2.686109393835067749e-02
6.663884222507476807e-02
-1.685918867588043213e-02
3.056324459612369537e-02
1.108178310096263885e-02
-2.080089878290891647e-03
-1.201544236391782761e-02
7.180275022983551025e-02
6.772892922163009644e-02
2.566838450729846954e-02
4.402477294206619263e-02
-4.181757196784019470e-02
-6.774043291807174683e-02
-8.161999285221099854e-02
-6.741913501173257828e-03
-6.705290079116821289e-02
-5.370288714766502380e-02
-5.972725525498390198e-02
-5.226863920688629150e-02
6.917193531990051270e-02
-2.719411067664623260e-02
-7.405450195074081421e-02
-7.882370054721832275e-02
-1.205150736495852470e-03
2.978706546127796173e-02
-6.321035325527191162e-02
4.616382345557212830e-02
-2.243259735405445099e-02
-5.476061254739761353e-02
7.776109874248504639e-02
-6.279131770133972168e-02
2.074851188808679581e-03
4.813355579972267151e-02
8.015092462301254272e-02
-8.333250135183334351e-02
8.536174148321151733e-02
5.167413502931594849e-02
4.159574955701828003e-02
-6.878495216369628906e-02
-6.570757925510406494e-02
5.096402019262313843e-02
-3.554834518581628799e-03
-2.718515135347843170e-02
-8.172752708196640015e-02
-5.236299708485603333e-03
2.111629769206047058e-02
-8.659872412681579590e-02
-2.012502215802669525e-02
-6.655276566743850708e-02
-1.451092958450317383e-02
-6.670752167701721191e-02
-4.059594869613647461e-02
7.225549966096878052e-02
-2.129331417381763458e-02
5.935877189040184021e-02
3.317742794752120972e-02
-3.146136924624443054e-02
2.849724143743515015e-02
7.511720806360244751e-02
-6.995006650686264038e-02
-3.902247175574302673e-02
9.042656980454921722e-03
1.341183856129646301e-02
-1.121185347437858582e-02
-2.637903764843940735e-02
-7.660630345344543457e-02
8.643144369125366211e-02
6.832977291196584702e-03
-4.260501638054847717e-02
-8.543700724840164185e-02
-6.597960740327835083e-02
2.850616117939352989e-03
5.284313112497329712e-02
7.953563332557678223e-02
-1.691713556647300720e-02
-7.943687587976455688e-02
8.151569962501525879e-02
2.204712666571140289e-02
5.562028288841247559e-02
-1.205874513834714890e-02
-6.012836098670959473e-02
1.925717294216156006e-02
6.338339298963546753e-02
6.852348148822784424e-02
-4.854115098714828491e-02
-6.745574623346328735e-02
3.892595879733562469e-03
6.742989644408226013e-03
-8.012509346008300781e-02
3.009656071662902832e-02
1.294923853129148483e-02
4.437958821654319763e-02
6.166525557637214661e-02
2.422897145152091980e-02
4.190007597208023071e-02
-2.770181559026241302e-02
1.021899282932281494e-02
-2.542372792959213257e-03
6.786865741014480591e-02
-6.362614035606384277e-02
2.160509303212165833e-02
-2.626119740307331085e-02
-5.825397744774818420e-02
7.857188582420349121e-02
-6.889825314283370972e-02
7.253124564886093140e-02
3.487583994865417480e-02
1.639913581311702728e-02
-5.682962015271186829e-02
-4.606137424707412720e-02
-5.838202778249979019e-03
9.186172857880592346e-03
-6.527567654848098755e-02
-9.805548004806041718e-03
5.373869556933641434e-03
4.551728069782257080e-02
-7.827210426330566406e-02
-6.200087256729602814e-03
-7.635627873241901398e-03
-2.762914821505546570e-02
4.281055182218551636e-02
-6.627031415700912476e-02
-8.871798217296600342e-02
6.955677270889282227e-02
7.832390815019607544e-02
2.320452779531478882e-02
-1.194766256958246231e-02
6.315722316503524780e-02
5.099004507064819336e-02
2.344022318720817566e-02
-6.965365260839462280e-02
-6.540200859308242798e-02
2.765685878694057465e-02
-1.842138171195983887e-02
3.428253531455993652e-02
-6.457198411226272583e-02
-8.437639474868774414e-02
-6.289049237966537476e-02
1.485548354685306549e-02
2.262006700038909912e-02
-7.403875142335891724e-02
3.880125703290104866e-03
8.331065624952316284e-02
6.949663907289505005e-02
-6.178704276680946350e-02
-4.617786779999732971e-02
-8.459217846393585205e-02
-5.941708013415336609e-02
2.352667972445487976e-02
-8.043087273836135864e-02
-7.848351448774337769e-02
7.781847845762968063e-03
4.941217228770256042e-02
3.584618493914604187e-02
-3.637608140707015991e-02
3.065509535372257233e-02
8.599331229925155640e-02
6.363377720117568970e-02
-2.093041315674781799e-02
4.893806949257850647e-02
-2.739262022078037262e-02
-6.212638691067695618e-02
-2.642692066729068756e-02
5.694012716412544250e-02
-8.050297386944293976e-03
3.149664402008056641e-02
3.031833842396736145e-02
4.845041781663894653e-02
-7.905603945255279541e-02
-5.725023150444030762e-02
-7.789114955812692642e-03
3.878147155046463013e-02
-8.844840526580810547e-02
4.065936431288719177e-02
-3.720237314701080322e-02
-4.378512129187583923e-02
-2.820149995386600494e-02
-7.347916066646575928e-02
-6.758012622594833374e-02
-6.030399724841117859e-02
-3.113384172320365906e-02
-3.463293984532356262e-02
2.371557801961898804e-02
5.238261446356773376e-02
7.470320165157318115e-02
3.871299698948860168e-02
-4.771228134632110596e-02
3.537582978606224060e-02
5.974566191434860229e-02
2.743947692215442657e-02
3.110557608306407928e-02
-6.981096416711807251e-02
2.105639874935150146e-02
7.491195201873779297e-02
5.787617340683937073e-02
-8.988194167613983154e-03
6.931819021701812744e-02
-3.072733525186777115e-03
-7.894125883467495441e-04
5.564305931329727173e-02
4.919375851750373840e-02
-7.235431671142578125e-02
-6.542965024709701538e-02
2.304303832352161407e-02
-1.080783084034919739e-02
-3.451057150959968567e-02
4.518176987767219543e-02
-6.909246742725372314e-02
2.395121008157730103e-02
3.327279537916183472e-02
-4.294844344258308411e-03
4.518339410424232483e-02
-6.146068871021270752e-02
8.765118569135665894e-02
1.135658379644155502e-02
1.070321816951036453e-02
7.671212404966354370e-02
6.698039919137954712e-02
-8.246716856956481934e-02
-5.970770493149757385e-02
6.779955327510833740e-02
-4.972762241959571838e-02
7.913164049386978149e-02
3.510370850563049316e-02
-7.067707180976867676e-02
6.259766966104507446e-02
2.683931728824973106e-03
-5.492141097784042358e-02
4.902170598506927490e-02
1.130514778196811676e-02
7.049808651208877563e-02
6.913399696350097656e-02
-8.728277683258056641e-02
6.378329545259475708e-02
-3.636226430535316467e-02
-8.555009216070175171e-02
-4.282240569591522217e-02
-7.924929261207580566e-02
-7.237801700830459595e-02
3.437494859099388123e-02
6.155181303620338440e-02
2.548490278422832489e-02
1.716866716742515564e-02
-6.666019558906555176e-02
1.573175564408302307e-02
9.034044295549392700e-02
-1.660924404859542847e-02
2.084796316921710968e-02
-5.708303302526473999e-02
-6.441751867532730103e-02
-4.344740509986877441e-02
1.210787147283554077e-02
1.147334463894367218e-02
-4.141518846154212952e-02
-4.532921686768531799e-02
-7.179246749728918076e-03
5.095630884170532227e-02
-7.421678304672241211e-02
5.950554460287094116e-02
7.600533217191696167e-02
-8.588957786560058594e-02
-7.284247130155563354e-02
-8.303914219141006470e-03
-5.025709979236125946e-03
6.080793216824531555e-02
2.148606628179550171e-02
-4.812863841652870178e-02
8.178128302097320557e-02
-7.106033619493246078e-03
-4.944970831274986267e-02
-8.012858033180236816e-02
-5.413912236690521240e-02
-7.698123157024383545e-02
3.901650756597518921e-02
8.770764619112014771e-02
1.140419393777847290e-02
5.048255622386932373e-02
5.563793703913688660e-02
-2.132467180490493774e-02
-3.890535235404968262e-02
-2.750832773745059967e-02
-8.357599377632141113e-02
6.930582225322723389e-02
1.833256892859935760e-02
-2.830120734870433807e-02
-9.487786330282688141e-03
6.968014687299728394e-02
-7.545446604490280151e-02
-4.080626182258129120e-03
-7.148138433694839478e-02
-1.098017860203981400e-02
-4.024842381477355957e-02
-8.346632122993469238e-02
7.524196803569793701e-02
-3.600562736392021179e-02
-5.982800200581550598e-02
4.898384213447570801e-02
2.934070304036140442e-02
-3.497863188385963440e-03
3.216578159481287003e-03
2.470294572412967682e-02
-4.105953872203826904e-02
5.304513033479452133e-03
-6.592833250761032104e-02
-5.348220467567443848e-03
-8.143439143896102905e-02
-1.391691341996192932e-02
-3.015439212322235107e-02
-2.054295130074024200e-02
3.859762102365493774e-02
6.793395429849624634e-02
-1.847444474697113037e-02
2.069927193224430084e-02
8.899623155593872070e-02
-7.291723704838659614e-06
-1.589233614504337311e-02
-5.791913717985153198e-02
4.277250915765762329e-02
-6.909961998462677002e-02
-3.999156132340431213e-02
-5.280936136841773987e-02
4.327978938817977905e-02
3.063416481018066406e-02
1.517614629119634628e-02
5.136651918292045593e-03
8.388213068246841431e-02
-2.104469388723373413e-02
4.479730501770973206e-02
5.413122475147247314e-02
-8.555013686418533325e-02
5.486165359616279602e-02
-7.022003829479217529e-02
6.949388235807418823e-02
4.476777091622352600e-02
-2.528742654249072075e-03
-7.517492026090621948e-02
1.825137436389923096e-02
-4.910953808575868607e-03
-4.181731201242655516e-04
-3.751847520470619202e-02
-5.000001192092895508e-02
2.155653014779090881e-02
8.927758038043975830e-02
7.795953005552291870e-02
5.117774941027164459e-03
-1.097161322832107544e-02
-6.223393231630325317e-02
-8.973920717835426331e-03
6.983131915330886841e-02
6.939306110143661499e-02
-4.782312363386154175e-02
2.586137503385543823e-02
-4.255819320678710938e-02
3.409722819924354553e-02
8.723903447389602661e-02
-3.181254863739013672e-02
6.099009513854980469e-02
-1.088774856179952621e-02
3.885704278945922852e-02
4.934706538915634155e-02
1.981335133314132690e-02
-8.011518418788909912e-02
2.229264564812183380e-02
-8.581360429525375366e-02
7.338576018810272217e-02
8.506267517805099487e-02
7.889753580093383789e-02
-5.741615220904350281e-02
-2.179678715765476227e-02
2.184198051691055298e-02
2.286687307059764862e-02
8.403682708740234375e-02
4.597425833344459534e-02
6.269671022891998291e-02
5.249911546707153320e-02
2.240704558789730072e-02
-9.837357327342033386e-03
-1.933800242841243744e-02
7.081691175699234009e-02
-4.002978280186653137e-02
-7.170347124338150024e-02
1.807924546301364899e-02
7.612371444702148438e-02
7.536726072430610657e-03
-6.401132792234420776e-02
1.779948920011520386e-02
-1.665409095585346222e-02
-1.501796022057533264e-02
5.780613981187343597e-03
-3.839471563696861267e-02
9.778228588402271271e-03
-8.605242520570755005e-02
2.161250263452529907e-02
9.878401644527912140e-03
-8.663351647555828094e-03
1.890649273991584778e-02
7.422775961458683014e-03
7.753859460353851318e-02
-3.863998875021934509e-02
5.154818296432495117e-02
1.170790381729602814e-02
6.170266494154930115e-02
5.288605019450187683e-02
5.157195962965488434e-03
2.256307005882263184e-02
2.523144520819187164e-02
2.767000719904899597e-02
-7.771186530590057373e-02
7.865054160356521606e-02
-7.257994264364242554e-02
8.471892029047012329e-02
6.505916267633438110e-02
7.717487215995788574e-02
7.823637127876281738e-02
-8.632292598485946655e-02
3.728000819683074951e-02
5.070446524769067764e-03
-5.734499543905258179e-03
3.236925974488258362e-02
-2.295532822608947754e-02
-4.171620309352874756e-02
2.191961975768208504e-03
6.649163551628589630e-03
1.999158971011638641e-02
8.714752038940787315e-04
3.764921426773071289e-02
-3.963664919137954712e-02
3.780261427164077759e-02
-5.823648348450660706e-02
-8.476239442825317383e-02
5.850709974765777588e-03
-1.136160269379615784e-02
3.229710459709167480e-02
7.199416309595108032e-02
8.265122026205062866e-02
4.455673694610595703e-02
4.069462418556213379e-02
6.380931288003921509e-02
4.160170629620552063e-02
-6.838694959878921509e-02
2.183318138122558594e-03
-2.157762646675109863e-03
2.564951404929161072e-02
1.991259120404720306e-02
-6.822969019412994385e-02
4.738223925232887268e-02
2.004753239452838898e-02
2.130566537380218506e-02
3.124024718999862671e-02
2.774839103221893311e-02
-8.100855350494384766e-02
-5.652251467108726501e-02
7.719621807336807251e-02
-7.664330303668975830e-02
4.926683381199836731e-02
2.074918150901794434e-02
-5.400582775473594666e-02
2.870377525687217712e-02
8.148786425590515137e-02
1.227261149324476719e-03
-3.392473608255386353e-02
4.089238494634628296e-02
7.926388084888458252e-02
-7.745699584484100342e-02
1.737308502197265625e-02
-8.013837784528732300e-02
-4.509953781962394714e-02
8.544039726257324219e-02
7.476113736629486084e-02
-4.491505026817321777e-02
2.654419466853141785e-02
6.558060646057128906e-02
-6.739898771047592163e-02
-7.500279694795608521e-02
7.094146311283111572e-02
3.550764173269271851e-02
7.933305576443672180e-03
7.121100276708602905e-02
-8.478979766368865967e-02
-7.540233433246612549e-02
8.081600815057754517e-02
-8.057552576065063477e-02
3.018497861921787262e-02
3.954412043094635010e-02
-8.432824909687042236e-02
6.357882171869277954e-02
-4.669661074876785278e-02
5.372870713472366333e-02
5.440406501293182373e-02
-6.551426649093627930e-02
-6.065024435520172119e-02
-2.733089774847030640e-02
5.851244553923606873e-02
-6.989040970802307129e-02
-7.241432368755340576e-02
6.845027953386306763e-02
3.145360946655273438e-02
-4.141611605882644653e-02
-8.362421765923500061e-03
-4.026383906602859497e-02
5.762159824371337891e-02
3.647710010409355164e-02
3.844516817480325699e-03
-1.125074736773967743e-02
1.057635527104139328e-02
-8.485513925552368164e-02
-7.154025137424468994e-02
4.469208419322967529e-02
-2.309507690370082855e-02
4.693070368375629187e-04
4.411527697811834514e-06
-8.021544665098190308e-03
-8.079083636403083801e-03
3.150894539430737495e-03
2.793922834098339081e-02
5.553043633699417114e-02
-4.259816184639930725e-02
6.569164991378784180e-02
5.287500843405723572e-02
4.291389510035514832e-02
-5.363152921199798584e-02
2.110945247113704681e-02
-5.483364313840866089e-02
4.606172908097505569e-03
-6.296079605817794800e-02
3.759115561842918396e-02
3.792367130517959595e-02
7.601793110370635986e-02
-8.371601253747940063e-02
-2.517133764922618866e-02
8.511026203632354736e-02
-1.103676483035087585e-02
4.691834002733230591e-02
7.464964687824249268e-02
-4.161570966243743896e-02
-3.787440806627273560e-02
5.239668115973472595e-02
-6.975772976875305176e-02
2.073907060548663139e-03
1.809281297028064728e-02
-2.619315125048160553e-02
-2.485511265695095062e-02
5.674227327108383179e-02
7.974904030561447144e-02
-4.345693066716194153e-02
5.782308056950569153e-02
2.346077188849449158e-02
6.034408137202262878e-02
-4.951804131269454956e-02
-5.581722036004066467e-02
4.094116762280464172e-02
-4.117860924452543259e-03
-7.885090261697769165e-02
1.213167794048786163e-02
2.681228704750537872e-02
-2.987545356154441833e-02
-6.212667375802993774e-02
-1.940736919641494751e-02
6.822137162089347839e-03
-4.120815545320510864e-02
-6.183584034442901611e-02
-2.975804917514324188e-02
-2.014032565057277679e-03
-6.493309140205383301e-02
-6.119563803076744080e-02
-6.579889915883541107e-03
2.767214179039001465e-02
4.148411378264427185e-02
4.492795094847679138e-02
-7.904324680566787720e-02
1.294057350605726242e-02
-5.756755545735359192e-02
-4.014826565980911255e-02
3.547496348619461060e-02
1.440119557082653046e-02
3.256004303693771362e-02
1.198099739849567413e-02
-6.050603464245796204e-03
3.906412795186042786e-02
-2.037078700959682465e-02
-3.656503930687904358e-02
2.711044251918792725e-02
-5.678479000926017761e-02
7.210627198219299316e-02
-2.534846588969230652e-02
5.169117078185081482e-02
-2.936589717864990234e-02
1.117543503642082214e-02
-2.870934642851352692e-02
4.987696558237075806e-02
-7.812383770942687988e-02
5.674959346652030945e-02
5.954172462224960327e-02
5.315042659640312195e-02
-3.500510379672050476e-02
2.881255187094211578e-02
3.050360083580017090e-02
-2.415719209238886833e-03
-6.253164261579513550e-02
-6.333025544881820679e-02
-2.939369715750217438e-02
-3.614806011319160461e-02
-6.969900429248809814e-02
-4.631850123405456543e-02
2.184766344726085663e-03
-1.177284587174654007e-02
-7.328530400991439819e-02
6.306535750627517700e-02
9.773308411240577698e-03
2.319091558456420898e-02
5.620127543807029724e-02
-2.765587344765663147e-02
-4.820579290390014648e-02
4.709539189934730530e-02
7.614164054393768311e-02
-1.474575977772474289e-02
2.025396749377250671e-02
-7.887041568756103516e-02
5.804353952407836914e-02
-5.901680141687393188e-02
8.060730248689651489e-02
7.469770312309265137e-02
6.012834981083869934e-02
7.055123895406723022e-02
-3.264293074607849121e-03
5.073507502675056458e-02
-3.239374374970793724e-03
-5.542799830436706543e-02
4.219352081418037415e-02
-3.961829841136932373e-02
-2.954227291047573090e-02
1.313158217817544937e-02
-7.235022634267807007e-02
3.960543870925903320e-02
-5.585608258843421936e-02
-1.288348156958818436e-02
-8.637195080518722534e-02
4.974117502570152283e-02
4.429260268807411194e-02
-1.630506664514541626e-02
-3.641609568148851395e-03
6.648708879947662354e-02
-4.977437853813171387e-02
-8.625457435846328735e-02
-5.243259482085704803e-03
-3.043741919100284576e-03
-8.672008663415908813e-02
-5.025251209735870361e-02
4.088529385626316071e-03
-8.799171447753906250e-02
4.024647921323776245e-02
5.936640501022338867e-02
1.304422877728939056e-02
6.784319132566452026e-02
6.122168526053428650e-02
-6.017730012536048889e-02
-1.954306289553642273e-02
7.672011852264404297e-02
-5.374832823872566223e-02
8.942913264036178589e-03
5.478580296039581299e-02
6.718846410512924194e-02
4.067422077059745789e-02
6.973787397146224976e-02
-8.349565416574478149e-02
-8.573500812053680420e-02
4.988651722669601440e-02
-4.556423053145408630e-02
5.757946893572807312e-02
3.955482691526412964e-02
-7.577547430992126465e-02
3.398145548999309540e-03
-7.054828107357025146e-02
-6.809690035879611969e-03
2.998524531722068787e-02
-2.845174819231033325e-02
-5.391927063465118408e-02
-5.328110978007316589e-02
4.350354522466659546e-02
6.841279566287994385e-02
-6.880778074264526367e-02
-6.605486571788787842e-02
1.027138624340295792e-02
1.207664422690868378e-02
-1.935868337750434875e-02
-7.435772567987442017e-02
-1.176925562322139740e-02
-7.903997600078582764e-02
4.907240346074104309e-02
-2.123388089239597321e-02
-6.011179834604263306e-02
3.281108336523175240e-03
-3.367004171013832092e-02
-3.298601135611534119e-02
-5.287966877222061157e-02
6.841511279344558716e-02
4.059820994734764099e-02
6.074785441160202026e-02
7.659337669610977173e-02
-7.588210701942443848e-02
-1.639655046164989471e-02
5.701541900634765625e-02
-6.543523818254470825e-02
4.134096670895814896e-04
2.520222961902618408e-02
-5.352872982621192932e-02
-3.860276564955711365e-02
1.393170375376939774e-02
-4.847177118062973022e-02
8.160190284252166748e-02
-2.342240884900093079e-02
5.758235231041908264e-02
-3.108984231948852539e-02
-5.939044058322906494e-02
-2.904586307704448700e-02
6.864915043115615845e-02
-2.337510511279106140e-02
-6.905671954154968262e-02
2.602788060903549194e-02
-1.351494994014501572e-02
5.689648166298866272e-02
-6.123859807848930359e-02
4.908653348684310913e-02
3.857639059424400330e-02
4.677714407444000244e-02
1.877145282924175262e-02
7.517732679843902588e-02
2.936926484107971191e-02
-1.941656507551670074e-02
5.851189419627189636e-02
7.826333865523338318e-03
2.065170556306838989e-02
-3.334833681583404541e-02
2.095472812652587891e-02
1.998900994658470154e-02
-7.914194464683532715e-02
-5.813556537032127380e-02
-8.830398321151733398e-03
7.065880298614501953e-02
-1.755460724234580994e-02
6.336916238069534302e-02
4.014607402496039867e-04
5.203456804156303406e-02
5.451137945055961609e-02
-4.905507713556289673e-02
-2.299094386398792267e-02
-3.744230838492512703e-03
-8.354466408491134644e-02
3.664816543459892273e-02
4.793996736407279968e-02
6.228916719555854797e-02
-3.863073512911796570e-02
-5.724256485700607300e-02
-3.464998304843902588e-02
-7.894663512706756592e-02
-8.899955451488494873e-02
2.468923106789588928e-02
6.667042523622512817e-02
9.885902516543865204e-03
-8.646269142627716064e-02
8.934846520423889160e-02
-6.573834922164678574e-03
-6.378287822008132935e-02
1.423580944538116455e-02
-5.920733883976936340e-02
6.569441407918930054e-02
-7.500080764293670654e-02
-2.768209949135780334e-02
-6.802875548601150513e-02
-1.698989421129226685e-02
3.297412768006324768e-02
2.331784367561340332e-02
-5.160977598279714584e-03
-5.017673224210739136e-02
-8.918134123086929321e-02
3.660583496093750000e-02
5.007729679346084595e-02
3.035078197717666626e-02
1.155221089720726013e-02
-6.582405418157577515e-02
-7.591996341943740845e-02
7.110165804624557495e-02
1.099347695708274841e-02
1.317883096635341644e-02
3.124360926449298859e-02
-7.889596372842788696e-02
-1.804259419441223145e-02
-8.329301327466964722e-02
-2.215882559539750218e-04
5.803800001740455627e-02
5.691241472959518433e-03
3.785878792405128479e-02
-7.569120079278945923e-02
-2.466013887897133827e-03
1.873341575264930725e-02
6.360567361116409302e-02
5.124403536319732666e-02
3.107508458197116852e-02
7.971340417861938477e-02
3.892278671264648438e-02
5.907913669943809509e-02
8.049552887678146362e-02
-1.519990526139736176e-02
2.738855220377445221e-02
-6.330787390470504761e-02
-4.160197824239730835e-02
1.222984120249748230e-02
-7.526721805334091187e-02
-4.823255911469459534e-02
4.076640680432319641e-02
-5.865783616900444031e-02
2.459493465721607208e-02
8.300781995058059692e-02
5.041689798235893250e-02
2.966124191880226135e-02
-7.618565857410430908e-02
-1.163562480360269547e-02
-1.360359787940979004e-02
-5.702989548444747925e-02
1.318501308560371399e-03
-7.893096655607223511e-02
-4.897842183709144592e-02
2.563931792974472046e-02
-8.574781822971999645e-04
-2.290306612849235535e-02
6.554253399372100830e-02
-3.466843068599700928e-02
7.363023608922958374e-02
2.866400592029094696e-02
4.387280344963073730e-02
-7.176990807056427002e-02
2.193884737789630890e-02
-3.473551198840141296e-02
-6.903145462274551392e-02
7.530799508094787598e-02
1.542581449029967189e-04
-7.656902074813842773e-02
-4.399755969643592834e-02
3.907233476638793945e-02
2.077295631170272827e-02
1.046221796423196793e-02
1.947689056396484375e-02
2.862754464149475098e-02
-7.200366258621215820e-02
-8.708646893501281738e-02
2.962203696370124817e-02
1.343424897640943527e-02
-3.085965663194656372e-02
-5.798697844147682190e-02
-1.934595778584480286e-02
3.252586722373962402e-02
6.382312625646591187e-02
4.120836034417152405e-02
-6.391634233295917511e-03
-1.870014518499374390e-02
3.407764434814453125e-02
-2.975721284747123718e-02
7.971947640180587769e-02
1.925802789628505707e-03
5.824051424860954285e-02
6.792536377906799316e-02
-7.465705275535583496e-02
2.002207934856414795e-02
2.940594404935836792e-02
4.641626775264739990e-02
4.201946407556533813e-02
3.803028911352157593e-02
7.671894133090972900e-02
-7.172604091465473175e-03
-7.761954516172409058e-02
-2.325345762073993683e-02
7.379227876663208008e-02
-5.110456794500350952e-02
-1.835290528833866119e-02
2.959242276847362518e-02
-2.152951620519161224e-02
3.393683349713683128e-03
-7.189353555440902710e-02
3.198416158556938171e-02
1.024976372718811035e-03
1.491522882133722305e-02
-6.199306808412075043e-03
-1.563591882586479187e-02
-5.734910815954208374e-02
5.324547365307807922e-02
4.339970275759696960e-02
3.475855663418769836e-02
8.557961881160736084e-02
-9.296042844653129578e-03
-5.807707458734512329e-02
-6.886361539363861084e-02
5.953876674175262451e-02
-7.135742902755737305e-02
3.373091667890548706e-02
-6.413213163614273071e-02
2.149065583944320679e-02
5.106670781970024109e-03
-2.398140914738178253e-02
-8.943461626768112183e-02
3.255883231759071350e-02
-5.991733446717262268e-02
7.326240092515945435e-02
6.191861256957054138e-02
-3.917156904935836792e-02
1.248646876774728298e-03
6.350930035114288330e-02
-5.778383091092109680e-02
-1.666464470326900482e-02
-4.705391824245452881e-02
8.335664123296737671e-02
6.808473169803619385e-02
-7.498725503683090210e-02
4.230312630534172058e-02
-2.410777844488620758e-03
2.906917221844196320e-02
4.268284514546394348e-02
-1.710388460196554661e-03
4.432934895157814026e-02
-6.068945303559303284e-02
-6.828024238348007202e-02
5.473784171044826508e-03
2.757676504552364349e-02
1.012270711362361908e-02
-6.095765903592109680e-02
6.504164636135101318e-02
1.879021897912025452e-02
-5.031279101967811584e-02
2.235220000147819519e-02
6.753397732973098755e-02
2.995850704610347748e-02
-7.252182811498641968e-03
8.273563347756862640e-03
-6.125132739543914795e-02
-1.580002158880233765e-02
-7.522768527269363403e-02
-3.344033285975456238e-02
-6.926430016756057739e-02
-6.319436430931091309e-02
-4.496868327260017395e-02
5.175608769059181213e-02
-3.765813261270523071e-02
-6.542731076478958130e-02
5.326200649142265320e-02
1.105133444070816040e-02
-2.472461201250553131e-02
-6.474399566650390625e-02
-1.428595837205648422e-02
3.740063682198524475e-02
5.484261736273765564e-02
-1.304665952920913696e-02
1.147829275578260422e-02
-4.570942744612693787e-02
7.483460009098052979e-02
7.007791101932525635e-02
-9.193409350700676441e-04
6.397368386387825012e-03
4.567763209342956543e-02
-3.648723289370536804e-02
4.178809933364391327e-03
2.808621712028980255e-02
-6.570865865796804428e-03
1.494911033660173416e-02
2.246747910976409912e-02
-7.105734199285507202e-02
8.495950698852539062e-02
8.400160074234008789e-02
6.751871202141046524e-03
7.166195660829544067e-02
-7.773339003324508667e-02
4.278627410531044006e-02
-8.360596001148223877e-02
-5.775898322463035583e-02
-7.832513749599456787e-02
6.099873781204223633e-02
5.554664507508277893e-02
-3.845086693763732910e-02
-4.157738760113716125e-02
-8.738474547863006592e-02
7.953730225563049316e-02
-1.458104792982339859e-02
4.514730721712112427e-02
-7.528806477785110474e-02
8.620842546224594116e-02
-4.795258864760398865e-03
4.909983649849891663e-02
-6.791716068983078003e-02
7.780808955430984497e-02
1.411111932247877121e-02
5.655347555875778198e-02
4.188191890716552734e-02
4.025145247578620911e-02
-4.799696151167154312e-03
5.770581588149070740e-02
-7.015505689196288586e-04
-4.678560048341751099e-02
8.511974662542343140e-02
5.192142352461814880e-02
-3.524999320507049561e-02
7.169750332832336426e-02
4.319880530238151550e-02
6.535682827234268188e-02
-5.481562763452529907e-02
-6.632346659898757935e-02
6.064290925860404968e-02
-5.181696265935897827e-03
-3.906610235571861267e-02
7.395446300506591797e-02
8.110425621271133423e-02
-6.675799936056137085e-02
-2.486840821802616119e-02
3.575417399406433105e-02
4.428838565945625305e-02
-1.636218093335628510e-02
3.678778558969497681e-02
8.446379005908966064e-02
6.837930530309677124e-02
6.122374534606933594e-02
8.095762878656387329e-02
-1.570215262472629547e-02
1.180969737470149994e-02
-6.403926759958267212e-02
8.338144421577453613e-02
-4.132453724741935730e-02
-8.081135898828506470e-02
-5.146809667348861694e-02
-5.349490791559219360e-02
6.882023811340332031e-02
5.141295865178108215e-02
-2.426510490477085114e-02
-3.072106651961803436e-02
2.809795923531055450e-02
2.693524770438671112e-02
2.418928034603595734e-02
5.039370432496070862e-02
3.482744097709655762e-02
5.415913462638854980e-02
-8.173358440399169922e-02
-2.306455932557582855e-02
-1.841142587363719940e-02
7.590559870004653931e-02
-5.007799342274665833e-02
-8.257123082876205444e-02
-7.806130498647689819e-02
-8.813115954399108887e-02
1.885489374399185181e-02
8.338893204927444458e-02
4.650842025876045227e-02
2.255050837993621826e-02
3.158445283770561218e-02
8.870615065097808838e-02
5.026835575699806213e-02
-6.714613735675811768e-02
3.116364404559135437e-02
2.981648594141006470e-02
2.848609164357185364e-02
5.821343138813972473e-02
2.402208559215068817e-02
1.326403394341468811e-02
-2.728721499443054199e-02
-4.522249847650527954e-02
-3.215660527348518372e-02
-9.900139644742012024e-03
-1.723239012062549591e-02
4.313401877880096436e-02
6.009321659803390503e-02
-7.182842120528221130e-03
-5.916727334260940552e-02
7.663836330175399780e-02
-1.751797832548618317e-02
-2.078464627265930176e-02
6.845153868198394775e-02
2.878671698272228241e-02
4.494871944189071655e-02
-6.376270204782485962e-03
-1.915149576961994171e-02
-1.631837710738182068e-02
-7.812885195016860962e-02
-8.554591983556747437e-02
7.541869580745697021e-02
5.066671594977378845e-02
2.950869686901569366e-02
-5.800622981041669846e-03
2.607897482812404633e-02
2.187395282089710236e-02
5.532843992114067078e-02
-4.492095857858657837e-02
-3.256359696388244629e-02
3.522389382123947144e-02
-4.018897563219070435e-02
5.460220575332641602e-02
-2.777662500739097595e-02
-5.199172720313072205e-02
-4.320274293422698975e-02
-8.197791129350662231e-02
3.432925418019294739e-02
8.326876908540725708e-02
1.934513449668884277e-02
-1.877761259675025940e-02
1.299620885401964188e-02
8.338280767202377319e-02
-5.335648078471422195e-03
8.153819292783737183e-02
-4.574569687247276306e-02
-4.282280802726745605e-02
-3.195206075906753540e-02
-6.395537406206130981e-02
-3.539735078811645508e-02
8.505374938249588013e-02
4.463925585150718689e-02
1.109992247074842453e-02
6.896591186523437500e-02
-4.623605310916900635e-02
-2.832850068807601929e-02
7.474144548177719116e-02
5.222437530755996704e-02
4.272766783833503723e-02
1.443822775036096573e-02
-5.130391940474510193e-02
-6.956493854522705078e-02
5.907553806900978088e-02
-2.524679899215698242e-02
-6.125779822468757629e-02
3.013795940205454826e-03
2.170460484921932220e-02
-2.660579048097133636e-02
-6.879329681396484375e-02
-5.494681745767593384e-02
5.980233103036880493e-02
-7.395917177200317383e-02
5.380616709589958191e-02
4.522275645285844803e-03
1.415662281215190887e-02
3.757732734084129333e-02
-6.792061775922775269e-02
-4.379418119788169861e-02
6.622923165559768677e-02
5.152928084135055542e-02
-2.242167480289936066e-02
-2.642321027815341949e-02
-6.912964582443237305e-02
5.594453960657119751e-02
1.028040237724781036e-02
7.056442648172378540e-02
5.573687702417373657e-02
5.791214108467102051e-02
6.977531313896179199e-02
-8.623449504375457764e-02
-8.290795236825942993e-02
-8.384717628359794617e-03
4.305658861994743347e-02
-8.122549392282962799e-03
1.163949724286794662e-02
6.847703456878662109e-02
7.355926930904388428e-02
6.605801731348037720e-02
-3.461211174726486206e-02
4.742366075515747070e-02
-6.669072061777114868e-02
3.183669969439506531e-02
2.739958465099334717e-02
-2.527115866541862488e-03
2.964001707732677460e-02
8.569905906915664673e-02
-3.794217109680175781e-02
-3.333908692002296448e-02
1.584329176694154739e-03
-7.064114511013031006e-02
-5.683312937617301941e-02
3.709165006875991821e-02
-7.955895364284515381e-02
-4.278174415230751038e-02
-6.411450356245040894e-02
-2.352098934352397919e-03
7.165464013814926147e-02
-3.733773902058601379e-02
9.020319581031799316e-02
5.715177953243255615e-02
-5.106697604060173035e-02
-2.707024477422237396e-02
4.660010337829589844e-03
-4.638348519802093506e-02
2.796981669962406158e-02
5.925933644175529480e-02
8.793796598911285400e-02
4.970698058605194092e-02
-9.169019758701324463e-03
-2.124115591868758202e-03
1.052382960915565491e-02
-2.116382867097854614e-02
-2.738398686051368713e-02
-3.157924115657806396e-02
-2.116074785590171814e-03
-7.497906684875488281e-02
-7.477142661809921265e-02
-3.514027595520019531e-02
-6.576530635356903076e-02
7.251856476068496704e-02
3.813152760267257690e-02
9.678973816335201263e-03
7.310573756694793701e-02
-7.592300325632095337e-02
-2.200717665255069733e-02
6.954087316989898682e-02
8.330662548542022705e-02
6.896818429231643677e-02
-4.219475015997886658e-02
5.202497914433479309e-02
-3.776384145021438599e-02
-8.077856153249740601e-03
-1.680197566747665405e-02
1.025142055004835129e-02
2.122272737324237823e-02
-6.773953884840011597e-02
-4.244302585721015930e-02
5.292897671461105347e-02
3.720548376441001892e-02
-5.867877975106239319e-02
7.530669122934341431e-02
3.407954424619674683e-02
4.265511874109506607e-03
-8.545321226119995117e-02
-6.510261446237564087e-02
9.352597407996654510e-03
5.678369849920272827e-02
3.566499426960945129e-02
7.442867010831832886e-02
-1.711194030940532684e-02
-1.329529914073646069e-03
7.033102959394454956e-02
-8.174533396959304810e-02
-4.076291993260383606e-02
2.622336323838680983e-04
7.333971094340085983e-03
-6.894121319055557251e-02
-6.224564090371131897e-02
-7.999636977910995483e-02
5.298012122511863708e-02
8.432806469500064850e-03
-8.194150775671005249e-02
-6.769702769815921783e-03
8.649153262376785278e-02
-4.867884330451488495e-03
-5.848932266235351562e-02
-1.643538661301136017e-02
8.851335197687149048e-02
8.455333858728408813e-02
3.379423543810844421e-02
1.640325039625167847e-02
-2.225077897310256958e-02
-2.446066215634346008e-02
-6.553681939840316772e-02
-5.472353473305702209e-02
-6.000233348459005356e-03
6.329534202814102173e-02
1.828008517622947693e-02
5.604182928800582886e-02
-4.240425303578376770e-02
-4.645507782697677612e-02
-2.301622927188873291e-02
6.195958703756332397e-03
-6.735824793577194214e-02
-3.188708797097206116e-02
-2.128711901605129242e-02
-2.278269268572330475e-02
-8.373832330107688904e-03
-7.091723382472991943e-02
6.741941720247268677e-02
4.929868504405021667e-02
2.573833242058753967e-02
-8.267624676227569580e-02
-6.052162498235702515e-02
-2.447679452598094940e-02
2.367754280567169189e-02
-4.323107376694679260e-02
7.933227717876434326e-02
-6.090969964861869812e-02
-7.290469110012054443e-02
-6.415886431932449341e-02
-1.370887178927659988e-02
-3.391443565487861633e-02
2.651384845376014709e-02
3.362618014216423035e-02
-5.195322260260581970e-02
1.437737513333559036e-02
5.354111269116401672e-02
8.667016118124593049e-06
2.227906370535492897e-03
2.434711530804634094e-02
7.535578683018684387e-03
3.950700536370277405e-02
-7.082591950893402100e-02
-7.252016663551330566e-02
-6.623095273971557617e-02
-8.250153064727783203e-02
-2.259364537894725800e-02
3.853549435734748840e-02
-3.951936587691307068e-02
-7.214685529470443726e-02
6.160459667444229126e-02
2.517593093216419220e-02
6.281689740717411041e-03
9.651314467191696167e-03
-6.586214900016784668e-02
-8.754745870828628540e-02
6.385167688131332397e-02
5.691030528396368027e-03
-3.422667086124420166e-02
-8.616368472576141357e-02
2.335788495838642120e-02
5.438994243741035461e-02
8.659957349300384521e-02
-7.052107155323028564e-02
5.402773618698120117e-02
7.927667349576950073e-02
2.421202138066291809e-03
-6.183168292045593262e-02
-2.294312790036201477e-02
-6.424215435981750488e-02
-4.034018516540527344e-02
-5.561612173914909363e-02
-3.819070756435394287e-02
1.120994146913290024e-02
2.164883352816104889e-02
-2.975351363420486450e-02
2.300944365561008453e-02
-1.838239841163158417e-02
5.063064862042665482e-03
1.142900553531944752e-03
6.629057973623275757e-02
1.065570046193897724e-03
4.425029736012220383e-03
6.688132137060165405e-02
-1.256980840116739273e-02
-5.338584631681442261e-02
-1.362620946019887924e-02
4.156256467103958130e-02
-7.463182508945465088e-02
-4.899140913039445877e-04
-8.917690813541412354e-02
8.568120002746582031e-02
8.671386539936065674e-02
-5.673142150044441223e-02
1.035301247611641884e-04
7.369747012853622437e-02
-7.512566447257995605e-02
2.963279746472835541e-02
6.967797875404357910e-02
-2.221952378749847412e-02
8.841796964406967163e-02
4.425856098532676697e-02
8.661074936389923096e-02
-4.658341780304908752e-02
7.455506920814514160e-02
-8.112516254186630249e-02
4.427827149629592896e-02
7.706616818904876709e-02
7.728325575590133667e-02
1.221512630581855774e-02
-6.831771880388259888e-02
3.498040512204170227e-02
3.262254223227500916e-02
-4.230060428380966187e-02
1.108540315181016922e-02
2.733269520103931427e-02
8.479467779397964478e-02
5.437756702303886414e-02
-6.641778349876403809e-02
3.383594751358032227e-02
5.751916393637657166e-02
-2.570755593478679657e-02
-4.469951987266540527e-02
-7.823910564184188843e-02
2.398502826690673828e-02
-1.111430022865533829e-02
6.750909239053726196e-02
-8.289057761430740356e-02
-4.549593478441238403e-02
5.534981936216354370e-02
-2.030244097113609314e-02
7.556801289319992065e-02
2.554568648338317871e-02
-4.171715304255485535e-02
7.170516997575759888e-03
-8.140467852354049683e-02
-1.757957041263580322e-02
-6.142967566847801208e-02
8.425144187640398741e-05
2.866809070110321045e-02
-5.963214114308357239e-02
-5.647790618240833282e-03
6.443091481924057007e-02
4.417050257325172424e-02
6.888338178396224976e-02
8.340080827474594116e-02
1.575759984552860260e-02
2.208714187145233154e-02
2.526772022247314453e-02
2.200081571936607361e-02
3.613910079002380371e-02
-2.286448841914534569e-03
-1.819916069507598877e-02
-4.137741867452859879e-03
-6.134958565235137939e-02
-4.732554033398628235e-02
1.231426466256380081e-02
8.295113593339920044e-02
3.430011868476867676e-02
2.037258818745613098e-02
5.851486325263977051e-02
-4.416149575263261795e-03
-3.375743050128221512e-03
8.720844238996505737e-02
-5.307675153017044067e-02
7.985918223857879639e-02
-6.365895271301269531e-02
-1.929494435898959637e-03
-5.543328076601028442e-02
6.110174208879470825e-02
-3.016369976103305817e-02
-6.028782576322555542e-03
1.904851198196411133e-02
-7.171974331140518188e-02
1.622675359249114990e-02
-4.887200519442558289e-02
-1.040037069469690323e-02
-7.208510488271713257e-02
-1.459483336657285690e-02
7.213084399700164795e-02
5.043542757630348206e-02
-5.251845717430114746e-02
-2.656322717666625977e-02
-3.260893747210502625e-02
7.751599699258804321e-02
-3.483887296169996262e-03
-7.342495769262313843e-02
1.377926953136920929e-02
5.151929333806037903e-02
1.157644111663103104e-02
4.604962840676307678e-02
-7.904244959354400635e-02
5.206803232431411743e-02
-6.640397012233734131e-02
-1.414787303656339645e-02
5.313343927264213562e-02
-7.306921482086181641e-02
-3.870437666773796082e-02
3.740749880671501160e-02
-7.932778447866439819e-02
-4.639705270528793335e-02
-2.720375172793865204e-02
6.113848090171813965e-02
-1.518242340534925461e-02
8.120591752231121063e-03
-5.874128639698028564e-02
-1.790465228259563446e-02
7.102888077497482300e-02
-4.625883698463439941e-02
-5.028190091252326965e-02
-8.988673798739910126e-03
5.024417303502559662e-03
7.416741922497749329e-03
-6.165497750043869019e-02
-3.527988865971565247e-02
3.090322576463222504e-02
3.758316487073898315e-02
-1.722473301924765110e-03
2.823592862114310265e-03
2.989677153527736664e-02
7.867544144392013550e-02
-7.386135309934616089e-02
-8.043708652257919312e-02
-4.562075436115264893e-02
2.328904159367084503e-02
7.270248979330062866e-02
-7.866453961469233036e-04
-8.436674624681472778e-02
-5.103261023759841919e-02
-1.174063235521316528e-02
1.454023737460374832e-02
-5.374550819396972656e-02
-5.961033701896667480e-02
6.748016923666000366e-02
-7.965566217899322510e-02
-5.743471160531044006e-02
-5.293273925781250000e-02
6.850399821996688843e-02
3.949366882443428040e-02
-1.904414594173431396e-02
1.263203285634517670e-02
2.320965006947517395e-02
-6.476575974375009537e-03
5.577919632196426392e-02
-4.861539974808692932e-02
2.407445572316646576e-02
-1.779479719698429108e-02
-3.425965458154678345e-02
5.928411334753036499e-02
-4.823558405041694641e-02
-5.231776461005210876e-02
-5.137173086404800415e-02
-8.081842213869094849e-02
-5.241386219859123230e-02
-1.450344547629356384e-02
-2.985797449946403503e-02
7.718162983655929565e-02
-8.397053927183151245e-02
7.601217925548553467e-02
3.358937054872512817e-02
-4.664349928498268127e-02
6.090319529175758362e-02
7.024975121021270752e-02
6.535317003726959229e-02
4.533299244940280914e-03
7.186604291200637817e-02
-1.526503637433052063e-02
6.041850894689559937e-02
-1.839387044310569763e-02
1.748429797589778900e-02
8.962895721197128296e-03
-3.623712062835693359e-02
1.599599048495292664e-02
-6.635098159313201904e-02
4.466629773378372192e-02
1.330379862338304520e-02
-7.806217670440673828e-02
-7.842458784580230713e-02
3.472337126731872559e-02
7.320188730955123901e-02
4.385380074381828308e-02
-7.631118595600128174e-02
-8.691900223493576050e-02
4.307973384857177734e-02
3.694146871566772461e-02
-3.397560911253094673e-03
8.636506646871566772e-02
-3.630967438220977783e-02
-5.274244025349617004e-02
4.073902498930692673e-03
-6.468665599822998047e-02
1.156341284513473511e-02
6.922710686922073364e-02
-8.066042512655258179e-02
5.014213174581527710e-02
