2.530117519199848175e-02
-1.788606867194175720e-02
-1.628422550857067108e-02
1.958260126411914825e-02
-3.030563145875930786e-02
-2.326920256018638611e-02
-7.145014591515064240e-03
9.184548631310462952e-03
-2.044455148279666901e-02
-1.737156510353088379e-02
2.808398380875587463e-02
2.942761965095996857e-02
-3.091600351035594940e-02
2.457544207572937012e-02
8.513358421623706818e-03
2.671215683221817017e-02
-2.063458785414695740e-02
2.053348161280155182e-02
2.106359042227268219e-02
-4.583510570228099823e-03
1.040496211498975754e-02
1.763242855668067932e-02
1.026543043553829193e-02
-1.709110476076602936e-02
2.951899729669094086e-02
-1.262573525309562683e-02
1.489774882793426514e-02
1.107004471123218536e-03
-1.011738553643226624e-02
1.604909263551235199e-02
7.963659241795539856e-03
1.604577153921127319e-02
6.559456232935190201e-03
2.140285819768905640e-02
-9.815652854740619659e-03
-1.713685505092144012e-02
-2.902095019817352295e-02
-1.634756475687026978e-02
1.843682304024696350e-02
2.123475074768066406e-03
-1.718819886445999146e-02
1.229174062609672546e-02
-1.326274871826171875e-02
-2.304298616945743561e-02
-2.736555039882659912e-02
2.487116493284702301e-02
-1.016993634402751923e-02
3.016388230025768280e-02
1.246039662510156631e-02
-3.909002989530563354e-03
-1.470815017819404602e-02
-7.654611952602863312e-03
2.469151467084884644e-02
2.062924765050411224e-02
6.277380976825952530e-03
7.145476061850786209e-03
-2.253268659114837646e-02
-2.738360874354839325e-02
-2.676539868116378784e-02
-2.582977712154388428e-02
-8.448405191302299500e-03
-2.390417503193020821e-03
7.121852133423089981e-03
-1.908588595688343048e-02
1.281085517257452011e-02
2.755065076053142548e-02
2.432655170559883118e-02
-1.694749481976032257e-02
1.874660328030586243e-02
4.499071743339300156e-03
6.246155127882957458e-03
-3.041860461235046387e-02
-1.665588468313217163e-02
4.738486837595701218e-03
1.127485884353518486e-03
2.243727818131446838e-02
2.580379322171211243e-02
2.666840516030788422e-02
-2.938952855765819550e-02
6.656506098806858063e-03
1.398150110617280006e-03
-1.248311251401901245e-02
-2.161895483732223511e-02
1.307200361043214798e-02
-2.162401564419269562e-02
1.490335818380117416e-02
2.452998608350753784e-02
-2.191256918013095856e-02
3.072516247630119324e-02
-2.403229847550392151e-02
1.890151575207710266e-02
8.909605443477630615e-03
2.022439986467361450e-02
1.604423671960830688e-02
2.612915076315402985e-02
-3.068994358181953430e-02
-1.508593838661909103e-02
2.271331660449504852e-02
-1.915298588573932648e-02
-2.386615984141826630e-02
-1.889541558921337128e-02
-5.017142277210950851e-03
-1.044302154332399368e-02
1.684282533824443817e-02
-1.815558783710002899e-02
-7.842866703867912292e-03
1.812551054172217846e-03
1.967819780111312866e-02
3.012338280677795410e-02
5.838630255311727524e-03
-1.152872340753674507e-03
1.907267421483993530e-02
3.563357749953866005e-03
2.914832159876823425e-02
-2.366511151194572449e-02
2.663324354216456413e-03
8.592782542109489441e-03
2.300349995493888855e-02
-3.088772855699062347e-02
-2.302197739481925964e-02
-2.301766537129878998e-02
-6.264624535106122494e-04
8.094029501080513000e-03
-1.839528325945138931e-03
7.139710709452629089e-03
6.865225266665220261e-03
-2.057296410202980042e-02
-1.648773439228534698e-02
3.367651021108031273e-03
2.952822670340538025e-02
-2.865703590214252472e-02
1.657867245376110077e-02
-6.527435500174760818e-03
2.193887159228324890e-02
-2.057433687150478363e-02
2.155275456607341766e-02
2.062622830271720886e-02
-5.523387342691421509e-03
-2.304296568036079407e-02
-2.240545349195599556e-03
3.031699359416961670e-02
-1.983140595257282257e-02
-1.087274216115474701e-02
9.918250143527984619e-03
-9.581952355802059174e-03
-1.325741875916719437e-02
-2.002649474889039993e-03
-2.796198427677154541e-02
-4.852597136050462723e-03
1.690455013886094093e-03
2.393032610416412354e-02
4.987610969692468643e-03
1.388538256287574768e-02
-2.951267920434474945e-02
7.393580861389636993e-03
5.785127636045217514e-03
-1.764795184135437012e-02
-3.073622658848762512e-02
9.280991740524768829e-03
2.166145667433738708e-02
-1.599083282053470612e-02
-4.241010174155235291e-03
2.048635296523571014e-02
-1.386830396950244904e-02
-9.056188166141510010e-03
-1.396319828927516937e-02
2.469483576714992523e-02
4.465385340154170990e-03
-2.688627690076828003e-02
-1.174578070640563965e-02
6.646946538239717484e-03
2.938657440245151520e-02
2.304922230541706085e-02
1.654203236103057861e-02
1.318228058516979218e-02
-2.903857501223683357e-03
1.062899548560380936e-02
-6.611031945794820786e-03
-5.645206198096275330e-03
-5.027348641306161880e-03
-1.878165267407894135e-02
2.054522372782230377e-02
1.058059558272361755e-02
2.212510444223880768e-02
-1.134683564305305481e-02
-2.348753623664379120e-02
-1.086397562175989151e-02
1.755322888493537903e-02
3.711781464517116547e-03
-1.389219239354133606e-02
-6.857390515506267548e-03
-2.341677621006965637e-02
3.053207183256745338e-03
-2.333840914070606232e-02
6.177281960844993591e-03
-3.115273639559745789e-02
-2.978238090872764587e-02
-1.905804127454757690e-02
-1.767635531723499298e-02
9.396639652550220490e-03
6.240735296159982681e-03
-2.939480729401111603e-02
1.101107709109783173e-02
1.697917468845844269e-02
1.733232662081718445e-02
-2.004252746701240540e-02
1.378103438764810562e-02
-1.033102255314588547e-02
-3.070889785885810852e-02
1.947277970612049103e-02
-2.833606302738189697e-02
-1.893535139970481396e-03
2.170574478805065155e-02
1.259828079491853714e-02
1.721381209790706635e-02
-5.376975517719984055e-03
9.142684866674244404e-04
-2.687798440456390381e-02
1.221170648932456970e-02
-2.788801211863756180e-03
2.635258017107844353e-03
1.778497174382209778e-02
1.258022245019674301e-02
1.764148660004138947e-02
2.647499926388263702e-02
3.813418094068765640e-03
2.318703336641192436e-04
-2.297521755099296570e-02
-2.938947640359401703e-03
7.624876219779253006e-03
-2.152748219668865204e-02
-3.061541356146335602e-02
-3.056176006793975830e-02
1.222447492182254791e-02
2.564612217247486115e-02
1.941696368157863617e-02
2.301053330302238464e-02
1.739263348281383514e-02
3.867320716381072998e-03
-6.130109541118144989e-03
1.476036850363016129e-03
-1.080949045717716217e-02
-1.236461382359266281e-02
2.140009030699729919e-02
6.598748150281608105e-04
1.913953945040702820e-02
-2.110926993191242218e-02
-1.993105746805667877e-02
1.718305423855781555e-02
9.697372093796730042e-03
-3.052973933517932892e-02
1.750766858458518982e-02
-2.405583858489990234e-02
-2.348681911826133728e-02
4.173437133431434631e-03
-1.996890082955360413e-02
-9.166691452264785767e-03
2.195923030376434326e-02
-1.525158528238534927e-02
2.028876170516014099e-02
-2.694320492446422577e-02
1.694183796644210815e-02
-2.044303715229034424e-02
1.086982060223817825e-02
4.448904655873775482e-03
5.694720428436994553e-03
2.102922275662422180e-02
-6.384768988937139511e-03
1.119072665460407734e-03
-1.035257335752248764e-02
-1.793582364916801453e-02
-2.421651780605316162e-02
2.650515921413898468e-02
-2.798263216391205788e-03
-1.789651438593864441e-02
1.787927001714706421e-03
-5.630499217659235001e-03
-2.120514027774333954e-02
-1.798278465867042542e-02
1.087308395653963089e-03
-1.595957018435001373e-02
-1.867146231234073639e-02
-1.423003338277339935e-02
-2.690042555332183838e-02
9.996804408729076385e-03
-1.038075983524322510e-02
1.642793975770473480e-02
-2.257108222693204880e-03
-2.887292020022869110e-02
-1.292750122956931591e-03
-2.534678205847740173e-02
2.066973410546779633e-02
-6.119485478848218918e-03
2.484414726495742798e-02
-1.971575804054737091e-02
-3.176842816174030304e-03
8.561052381992340088e-03
4.016297403723001480e-03
1.258658245205879211e-02
-1.351186539977788925e-02
-4.569962620735168457e-03
9.326051920652389526e-03
-1.802161894738674164e-02
-1.929276809096336365e-02
-1.240683626383543015e-02
9.000413119792938232e-03
-4.546462092548608780e-03
-1.534117758274078369e-02
-1.127641834318637848e-02
-1.551979407668113708e-02
-1.093355286866426468e-02
2.446729503571987152e-02
-1.780224405229091644e-02
-2.122137509286403656e-02
-3.538272576406598091e-03
1.653909124433994293e-02
1.764346286654472351e-02
9.152808226644992828e-03
-1.758214458823204041e-02
-9.451218880712985992e-03
6.116137374192476273e-03
-1.892669871449470520e-02
-1.809162460267543793e-02
-6.575694773346185684e-03
-2.156979590654373169e-02
-1.443111803382635117e-02
-9.473939426243305206e-03
4.472285974770784378e-03
-1.072208024561405182e-02
-2.884382940828800201e-02
2.287327684462070465e-02
1.880773529410362244e-02
7.273982744663953781e-03
-1.162972766906023026e-02
3.228489542379975319e-03
6.313506513833999634e-03
1.160794030874967575e-02
2.585771679878234863e-02
2.076621400192379951e-03
8.280714042484760284e-03
1.600642874836921692e-02
1.983157545328140259e-02
-2.060649357736110687e-02
2.901742700487375259e-03
1.170993503183126450e-02
1.539082964882254601e-03
-1.272473135031759739e-03
1.437286287546157837e-02
3.091933391988277435e-02
-9.893723763525485992e-04
2.940263971686363220e-02
-6.395323667675256729e-03
4.365954082459211349e-03
-7.754035294055938721e-03
-1.831647194921970367e-02
1.915264874696731567e-02
-8.807034231722354889e-03
-1.823249273002147675e-02
2.050574496388435364e-02
9.214956313371658325e-03
4.716007038950920105e-03
-2.507454901933670044e-02
-2.544300071895122528e-02
2.625047415494918823e-02
-2.164684422314167023e-02
1.138172205537557602e-02
2.788321487605571747e-02
-1.904817670583724976e-02
2.921271696686744690e-02
2.282690256834030151e-02
1.835054904222488403e-02
2.600822132080793381e-03
-2.712622657418251038e-02
1.359946466982364655e-02
-2.152692340314388275e-02
-2.955747395753860474e-02
3.072902373969554901e-02
-7.541666738688945770e-03
2.076881006360054016e-02
1.711863838136196136e-02
1.273521571420133114e-03
-7.667571771889925003e-03
1.459819264709949493e-02
2.149076946079730988e-02
-1.208628714084625244e-02
3.037914074957370758e-02
2.532844617962837219e-02
-2.290681749582290649e-02
2.098769694566726685e-02
-3.021422307938337326e-03
-2.553521469235420227e-02
-2.023232355713844299e-02
8.384592831134796143e-03
1.005504652857780457e-02
3.019611909985542297e-02
-2.103474549949169159e-02
-1.800285466015338898e-02
-1.460684835910797119e-02
1.053181104362010956e-02
1.491671707481145859e-02
-2.760213683359324932e-04
-1.251195371150970459e-02
1.125530246645212173e-02
-2.132134139537811279e-02
5.971849430352449417e-03
-4.662610124796628952e-03
-2.335994131863117218e-02
-1.951894536614418030e-02
1.601887680590152740e-02
2.061166428029537201e-02
4.581330344080924988e-03
-2.659236826002597809e-02
-5.252359900623559952e-03
-1.287009660154581070e-02
-6.070609670132398605e-03
1.339067518711090088e-02
-1.022570114582777023e-02
2.334305085241794586e-03
-2.072233473882079124e-04
2.549398504197597504e-02
1.525947544723749161e-02
7.688418496400117874e-03
-2.630754001438617706e-02
2.958537265658378601e-02
-1.566767320036888123e-02
-2.329124324023723602e-02
-1.835248433053493500e-02
-3.894228255376219749e-03
-1.814755611121654510e-02
6.758436094969511032e-03
-3.720184089615941048e-03
-1.684887893497943878e-02
6.782236509025096893e-03
-2.163267461583018303e-03
1.185222901403903961e-02
-3.373015439137816429e-03
-1.422737725079059601e-02
1.662836410105228424e-02
2.671641856431961060e-02
-2.810076065361499786e-02
2.678769268095493317e-02
2.847493067383766174e-02
-1.212229020893573761e-02
-1.636054553091526031e-02
-7.475497201085090637e-03
1.554125687107443810e-03
-1.253917999565601349e-02
7.839682511985301971e-03
-2.922842092812061310e-02
-3.390682395547628403e-03
-1.642981544137001038e-02
-2.168709598481655121e-02
-1.655189506709575653e-02
9.516607969999313354e-03
-2.550967596471309662e-02
-1.802111230790615082e-02
-4.589733725879341364e-04
-3.124723210930824280e-02
-1.033928245306015015e-02
-2.763574756681919098e-02
-1.349400496110320091e-03
-1.032398454844951630e-02
2.625411003828048706e-02
-2.909373492002487183e-02
-2.592108212411403656e-02
-9.286955930292606354e-03
-1.696692593395709991e-02
1.372743863612413406e-02
2.609279751777648926e-02
-2.627386339008808136e-02
-1.481236983090639114e-02
-1.582181284902617335e-04
-2.317209914326667786e-02
-2.051998861134052277e-02
2.201423794031143188e-02
5.007203668355941772e-03
-1.462597586214542389e-02
-2.950324118137359619e-02
7.661306764930486679e-03
-4.310212098062038422e-03
1.638199575245380402e-02
1.448413822799921036e-02
-2.076887711882591248e-02
2.422088012099266052e-02
-1.687108073383569717e-03
-2.364106941968202591e-03
7.936282083392143250e-03
-3.069893270730972290e-02
-2.901985868811607361e-02
-1.068133302032947540e-02
-1.177101954817771912e-02
1.294936146587133408e-02
2.592677436769008636e-02
-7.950359955430030823e-03
-2.448292635381221771e-02
-1.362869516015052795e-02
2.192292176187038422e-02
2.943216264247894287e-02
-1.233543548732995987e-02
-2.047602832317352295e-02
-1.786542870104312897e-02
-3.108151443302631378e-02
-2.883730456233024597e-03
1.195253431797027588e-02
2.212714590132236481e-02
2.835460379719734192e-02
1.406827941536903381e-02
2.093230374157428741e-02
1.071942318230867386e-02
-1.169265341013669968e-02
6.513037718832492828e-03
-1.572540774941444397e-02
