1.813611947000026703e-02
-2.177378535270690918e-02
-3.520386293530464172e-02
-7.485893368721008301e-02
3.247747570276260376e-02
9.904894232749938965e-02
-3.715920262038707733e-03
-6.248130928725004196e-03
-1.239005848765373230e-01
-1.234105899930000305e-01
1.185684874653816223e-01
-2.477772161364555359e-02
-6.302818655967712402e-02
-9.700897149741649628e-03
-7.558398693799972534e-02
4.132651165127754211e-02
4.455347731709480286e-02
-5.483268946409225464e-02
9.223601967096328735e-02
6.221775338053703308e-02
5.211068317294120789e-03
1.116972416639328003e-01
1.073642522096633911e-01
2.348981797695159912e-02
1.666411571204662323e-02
8.861055970191955566e-02
5.127801094204187393e-03
4.052076488733291626e-02
-4.946181178092956543e-02
8.680181577801704407e-03
4.890882223844528198e-02
-9.382582455873489380e-02
-3.250555321574211121e-02
-1.165093407034873962e-01
-7.962239533662796021e-02
-1.028240025043487549e-01
-1.098172441124916077e-01
5.411035194993019104e-02
5.681642889976501465e-02
3.502823784947395325e-02
-7.181087136268615723e-02
1.059959530830383301e-01
-5.801796168088912964e-02
3.019354538992047310e-03
-8.519562333822250366e-02
1.214890405535697937e-01
-2.838592417538166046e-02
8.128103613853454590e-02
9.933208674192428589e-02
4.480398446321487427e-02
5.672724917531013489e-02
3.454522928223013878e-03
4.476254433393478394e-02
6.089840829372406006e-02
-4.478231072425842285e-02
-8.102992922067642212e-02
-1.181783601641654968e-01
-2.930065430700778961e-02
-4.825891554355621338e-02
1.052557379007339478e-01
-1.060461327433586121e-01
-1.020973399281501770e-01
-4.695657268166542053e-02
9.127377718687057495e-02
-5.694563686847686768e-02
8.846574276685714722e-02
7.131750136613845825e-02
1.203650142997503281e-02
-2.298334240913391113e-02
-4.724897816777229309e-02
7.547219842672348022e-02
1.450622919946908951e-02
-1.124146729707717896e-01
6.907641142606735229e-02
1.194255724549293518e-01
5.935491248965263367e-02
-1.208633333444595337e-01
-1.084033101797103882e-01
-6.954639405012130737e-02
6.153440475463867188e-02
-8.461987972259521484e-02
9.584607928991317749e-02
3.695921972393989563e-02
-6.140005216002464294e-02
-1.150522902607917786e-01
2.977109700441360474e-02
-6.879250705242156982e-02
-3.790748864412307739e-02
-3.456021193414926529e-03
-4.970533028244972229e-02
7.114093005657196045e-02
-1.064123585820198059e-03
-6.852851063013076782e-02
-3.166939690709114075e-02
1.081491783261299133e-01
-7.581975311040878296e-03
-4.447978362441062927e-02
-8.001103997230529785e-02
3.414921835064888000e-02
-8.326425217092037201e-03
-6.097362935543060303e-02
-5.923476815223693848e-02
-4.915081430226564407e-03
1.228448301553726196e-01
7.326553761959075928e-02
3.727027773857116699e-02
-3.182847984135150909e-03
-2.440074086189270020e-02
9.664644300937652588e-02
-3.628944233059883118e-02
2.261652261950075626e-04
-1.067240461707115173e-01
1.190785132348537445e-02
-1.185169219970703125e-01
3.824475407600402832e-02
9.390166401863098145e-02
1.235368996858596802e-01
-7.067959010601043701e-02
-9.467276185750961304e-02
-9.156624972820281982e-02
9.455022215843200684e-02
-8.395094424486160278e-02
1.659076660871505737e-02
8.163565397262573242e-02
-2.825992554426193237e-02
-7.295203953981399536e-02
4.174474626779556274e-02
-8.842025697231292725e-02
