1.040808347170241177e-04
-3.228589426726102829e-03
-4.919564817100763321e-03
2.753990702331066132e-03
3.986361902207136154e-03
-1.714078825898468494e-03
5.812192830489948392e-05
1.042239251546561718e-03
-1.126502756960690022e-03
7.012854912318289280e-04
1.198251731693744659e-03
-6.302109977696090937e-05
-2.936024684458971024e-03
-3.151458222419023514e-03
1.746109570376574993e-03
-1.051715575158596039e-03
-4.176991060376167297e-03
1.205070293508470058e-03
-2.090118592604994774e-03
-2.449673367664217949e-03
-2.112367423251271248e-03
-2.045303117483854294e-03
-2.077101962640881538e-03
-3.768163733184337616e-04
4.097500641364604235e-05
-1.302609336562454700e-03
-9.797160601010546088e-05
-1.390085672028362751e-03
1.828624866902828217e-03
1.512131653726100922e-03
-1.647802535444498062e-03
-2.810766920447349548e-03
-2.274673897773027420e-03
2.274679951369762421e-03
1.451807562261819839e-03
-3.901134012266993523e-03
-5.306657403707504272e-03
8.528183097951114178e-04
5.076687084510922432e-04
-3.729183226823806763e-03
1.220393925905227661e-03
-1.196380821056663990e-03
1.101838890463113785e-03
-2.775435801595449448e-03
-1.956189982593059540e-03
-2.256568521261215210e-03
1.104384311474859715e-03
-3.141925204545259476e-03
-1.258391654118895531e-03
1.369755773339420557e-04
-4.717398551292717457e-04
-2.950486028566956520e-03
-1.022499403916299343e-03
-1.658959547057747841e-03
2.899319864809513092e-03
-1.872566179372370243e-03
-2.321978332474827766e-03
-1.191394752822816372e-03
1.068577519617974758e-03
-4.360969644039869308e-03
-1.900526694953441620e-03
-5.403487011790275574e-03
3.272367166573530994e-06
9.400308772455900908e-05
-1.719420193694531918e-03
-2.130577573552727699e-03
1.050791819579899311e-03
-9.626635583117604256e-04
-3.187480848282575607e-03
-2.080931095406413078e-03
6.500564632005989552e-04
-2.013166667893528938e-03
-4.208126105368137360e-03
-1.961525995284318924e-03
8.846526616252958775e-04
-1.342874253168702126e-03
-8.401092491112649441e-04
-2.377816475927829742e-03
-8.285262738354504108e-04
-3.024606732651591301e-03
-6.972586270421743393e-04
2.520171692594885826e-04
-1.658935943851247430e-04
-5.060466355644166470e-04
2.629300579428672791e-03
-2.153953537344932556e-03
-6.171864806674420834e-04
-1.776860211975872517e-03
-4.875952377915382385e-03
8.595123654231429100e-04
9.506227215752005577e-04
-3.593019675463438034e-03
-3.587398095987737179e-04
-3.592427354305982590e-03
-1.492810668423771858e-03
6.517964066006243229e-04
1.376097672618925571e-03
-7.269492489285767078e-04
-2.856575651094317436e-03
9.936358546838164330e-04
-3.734522266313433647e-03
2.082943829009309411e-04
-2.776597393676638603e-03
1.148030627518892288e-03
1.388772507198154926e-03
-2.889530500397086143e-03
-2.740182215347886086e-03
-1.794765354134142399e-03
-4.730174783617258072e-03
-1.488698413595557213e-03
-2.857547486200928688e-03
-6.752190529368817806e-05
-3.815176431089639664e-03
-2.109250286594033241e-03
-1.349210040643811226e-03
-2.857799176126718521e-03
-1.646343444008380175e-04
-1.318805385380983353e-03
-9.580811019986867905e-04
-4.099966026842594147e-03
-9.554023272357881069e-04
-1.511616748757660389e-03
-1.878088922239840031e-03
-5.134483799338340759e-04
-2.538250293582677841e-03
4.118282813578844070e-03
-4.052695818245410919e-03
9.557123412378132343e-04
-1.959490124136209488e-03
-1.320241251960396767e-03
-8.390577277168631554e-04
-4.071011207997798920e-04
-3.087577875703573227e-03
-1.194436117657460272e-04
-7.136691710911691189e-04
-1.253736321814358234e-03
-1.185218919999897480e-03
-3.606069833040237427e-03
2.309736591996625066e-04
2.785313699860125780e-04
-9.843143634498119354e-04
-3.947991877794265747e-03
-1.732422853820025921e-03
-1.667878706939518452e-03
-3.823786100838333368e-04
-1.415088307112455368e-03
-2.933578798547387123e-04
-1.697823754511773586e-03
3.281952522229403257e-04
5.137960542924702168e-04
2.135574817657470703e-03
2.579445950686931610e-03
-2.586546586826443672e-03
1.236766576766967773e-03
-7.170466706156730652e-04
2.097818534821271896e-03
-1.809376874007284641e-03
1.563234021887183189e-03
7.253588177263736725e-03
-1.797799021005630493e-03
-6.363624706864356995e-03
-9.598091128282248974e-04
-5.831097951158881187e-04
-3.286582883447408676e-03
-3.465362126007676125e-03
-1.944957999512553215e-03
-1.832332927733659744e-03
1.044848351739346981e-03
-2.631346927955746651e-03
-1.144644687883555889e-03
2.714871079660952091e-04
-1.307345577515661716e-03
1.555263879708945751e-03
-1.667306525632739067e-03
2.798848436214029789e-04
-1.991226337850093842e-03
-5.006600404158234596e-04
2.263555768877267838e-03
-2.724039659369736910e-04
-1.619219430722296238e-03
-1.866386621259152889e-03
-2.482225652784109116e-03
-7.462615030817687511e-04
-4.050478804856538773e-03
5.380736911320127547e-05
-1.088159158825874329e-03
-3.549110377207398415e-03
-2.673870651051402092e-03
7.073711021803319454e-04
-7.502767257392406464e-04
-5.404571420513093472e-04
-2.993563830386847258e-04
-3.596899914555251598e-04
-4.615677054971456528e-03
-3.007635474205017090e-03
5.189740099012851715e-03
-8.262499468401074409e-04
-6.655831821262836456e-04
-1.136104576289653778e-03
-2.421769546344876289e-03
-1.883883262053132057e-03
5.516044911928474903e-04
-2.296905498951673508e-03
3.359963884577155113e-03
7.521633961005136371e-06
2.020636806264519691e-03
7.619685493409633636e-04
-2.369292778894305229e-03
-2.806467935442924500e-03
-2.357007004320621490e-03
4.601756518241018057e-04
-3.055621171370148659e-03
-2.425051061436533928e-03
-1.490421011112630367e-03
-2.343568048672750592e-04
2.027685259236022830e-04
1.293038949370384216e-03
4.697999684140086174e-04
-1.370438374578952789e-03
1.397796906530857086e-03
-1.953695900738239288e-03
3.743447887245565653e-04
1.261943602003157139e-03
1.956590218469500542e-03
-8.169551729224622250e-04
-1.660771900787949562e-03
-2.638672711327672005e-03
-1.431736978702247143e-03
5.950537160970270634e-04
-2.160648349672555923e-03
-1.599097449798136950e-04
-2.070930786430835724e-03
1.976026687771081924e-03
-7.566529675386846066e-04
-2.995656803250312805e-03
-3.924522752640768886e-05
-3.021751763299107552e-03
-6.992368726059794426e-04
2.476015826687216759e-03
1.794187934137880802e-03
-3.649774240329861641e-03
-4.860344342887401581e-03
9.492869139648973942e-04
-3.855797927826642990e-03
1.229442423209547997e-03
-1.301719341427087784e-03
-1.989806303754448891e-03
-1.912781503051519394e-03
3.236648917663842440e-04
1.934538246132433414e-03
-1.948102290043607354e-04
9.192607831209897995e-04
-2.778149442747235298e-03
-8.748984546400606632e-04
-3.522388578858226538e-04
-1.721163978800177574e-03
8.192600216716527939e-04
3.396849788259714842e-04
4.435390292201191187e-04
-9.004008607007563114e-04
-2.539542270824313164e-03
1.541082863695919514e-03
-2.716258401051163673e-03
-1.245962106622755527e-03
8.808782440610229969e-04
-1.904500066302716732e-03
-1.318129943683743477e-03
-2.302716020494699478e-03
5.832758033648133278e-04
-1.128043368225917220e-04
6.456247065216302872e-04
1.548698928672820330e-04
-4.738132247439352795e-06
1.513280323706567287e-03
-1.288382336497306824e-03
-3.675724146887660027e-03
1.913329324452206492e-04
-8.442181278951466084e-04
3.414340317249298096e-03
-3.227071647415868938e-05
1.022138400003314018e-03
-8.788109407760202885e-04
-1.893627340905368328e-03
-1.682050758972764015e-03
1.240371610037982464e-03
2.403568709269165993e-03
-1.994179096072912216e-03
-2.783294534310698509e-03
-1.388108124956488609e-03
-2.039699116721749306e-03
6.317271527223056182e-06
5.969440680928528309e-04
-1.038013142533600330e-04
1.064978423528373241e-03
-2.672108821570873260e-04
-1.375391031615436077e-03
1.125872950069606304e-03
-1.602283329702913761e-03
-3.710998455062508583e-03
-5.544639861909672618e-05
-2.614634810015559196e-03
-1.400626148097217083e-03
-1.902525662444531918e-03
-1.646370626986026764e-03
-4.054185119457542896e-04
-3.915680106729269028e-03
-3.288223815616220236e-04
8.950161281973123550e-04
-2.903952030465006828e-03
-5.860014935024082661e-04
-1.604659482836723328e-03
2.449959865771234035e-04
-2.093879273161292076e-03
2.358210505917668343e-03
3.615724621340632439e-03
2.984840248245745897e-04
-9.530435781925916672e-04
-1.670212252065539360e-03
-2.780074020847678185e-03
6.429441855289041996e-04
-1.855328911915421486e-03
9.487901697866618633e-04
1.395849976688623428e-03
-6.049918010830879211e-04
-1.570454449392855167e-03
2.547847980167716742e-04
-1.815366442315280437e-03
-2.394699913566000760e-05
2.450607425998896360e-04
-2.756477100774645805e-03
1.221023267135024071e-04
-9.789983741939067841e-04
3.528053348418325186e-04
-2.942537423223257065e-03
-1.342016475973650813e-04
-3.681786984088830650e-05
-1.295106951147317886e-03
-2.196216257289052010e-03
-1.584006822668015957e-03
-5.967820834484882653e-05
7.646900485269725323e-04
-1.107240794226527214e-03
-3.564171784091740847e-04
-5.620468291454017162e-04
-7.797179860062897205e-04
5.316917668096721172e-04
-2.717921510338783264e-03
-3.163110464811325073e-03
-7.707502809353172779e-04
1.808143919333815575e-03
5.474157631397247314e-03
1.400512643158435822e-03
1.348849618807435036e-03
1.847889507189393044e-03
1.691279612714424729e-04
-1.028722472256049514e-04
1.046518911607563496e-03
-1.835050061345100403e-03
-6.155072245746850967e-03
2.217171277152374387e-04
-5.101378541439771652e-03
1.321352901868522167e-03
-2.864322857931256294e-03
1.657619839534163475e-03
2.371186157688498497e-03
-5.618641618639230728e-03
-7.799001177772879601e-04
1.540235942229628563e-03
4.287420888431370258e-04
7.632645429112017155e-04
-2.515989821404218674e-03
-4.450852284207940102e-04
2.575554186478257179e-03
2.881778404116630554e-03
1.381891197524964809e-03
-1.469894312322139740e-03
-3.651722799986600876e-03
-2.056589350104331970e-03
1.213730356539599597e-04
-2.059899503365159035e-03
1.003978890366852283e-03
-4.015501326648518443e-05
8.558707195334136486e-04
1.610610052011907101e-03
-2.962383441627025604e-03
-3.470787312835454941e-03
9.676431072875857353e-04
-2.611330710351467133e-03
-2.785848686471581459e-03
-2.011002739891409874e-03
-1.446656300686299801e-03
-7.186019793152809143e-04
-3.103398717939853668e-03
-3.927255515009164810e-03
-1.561231911182403564e-03
1.051231287419795990e-03
3.401014488190412521e-03
-3.292636713013052940e-03
-3.578207688406109810e-03
-2.032682299613952637e-03
3.177903417963534594e-04
-1.331167062744498253e-03
-3.814327355939894915e-04
1.746766734868288040e-03
-3.341028233990073204e-03
7.607589359395205975e-04
1.044906210154294968e-03
-1.184036023914813995e-03
-2.281899331137537956e-03
7.715460960753262043e-04
5.073538050055503845e-04
-2.967058215290307999e-03
1.262077712453901768e-03
5.726966192014515400e-04
-5.166140035726130009e-04
-2.786996308714151382e-03
-4.464309662580490112e-03
-4.171976353973150253e-03
-1.301978714764118195e-03
2.970566740259528160e-03
-5.651654792018234730e-04
1.504203071817755699e-03
-1.714495941996574402e-03
1.916264416649937630e-03
3.806839231401681900e-04
1.191575080156326294e-03
1.979000633582472801e-03
-2.041198778897523880e-03
4.460261552594602108e-04
-5.023145116865634918e-03
3.038187605852726847e-05
1.138998428359627724e-03
-1.280844444409012794e-03
2.139698626706376672e-04
-9.557800512993708253e-05
-3.077045257668942213e-04
6.865715840831398964e-04
-4.311310593038797379e-03
-5.070027429610490799e-03
-8.614730322733521461e-04
1.599612296558916569e-03
-1.624768483452498913e-04
-1.067035482265055180e-03
8.287756354548037052e-04
-5.896025802940130234e-03
-6.668592104688286781e-04
-1.280545257031917572e-03
-2.138287527486681938e-03
-1.074588089977623895e-05
-1.305989455431699753e-03
8.076989324763417244e-04
1.706421608105301857e-03
-2.192354761064052582e-03
-3.543841652572154999e-03
-2.338115125894546509e-03
1.087894081138074398e-03
-4.620832856744527817e-03
-4.010425618616864085e-05
-1.421958557330071926e-03
-2.251929603517055511e-03
4.092498566024005413e-04
-2.096131211146712303e-03
2.502123359590768814e-03
1.471946015954017639e-03
3.851212968584150076e-04
-1.558518619276583195e-03
1.094668754376471043e-03
3.998064436018466949e-03
-7.217273232527077198e-04
-5.768474657088518143e-04
-2.879899926483631134e-03
-1.017046277411282063e-03
-3.761369269341230392e-03
-1.043194788508117199e-03
-2.217206871137022972e-03
-1.932591432705521584e-03
4.716545518022030592e-04
3.710389602929353714e-03
-1.110866200178861618e-03
-9.180669439956545830e-04
1.020728843286633492e-03
-2.065819688141345978e-03
-3.318500239402055740e-03
-6.398956174962222576e-04
-4.505265678744763136e-04
-3.025500802323222160e-03
-6.203189841471612453e-04
-2.258394088130444288e-04
-3.485767869278788567e-03
-1.997302751988172531e-03
-4.497228073887526989e-04
2.733341243583709002e-04
-2.012505894526839256e-03
1.319019822403788567e-03
3.497915575280785561e-03
-2.522521186619997025e-03
-1.672059763222932816e-03
-6.666657864116132259e-04
9.201863431371748447e-04
1.502658706158399582e-03
-9.592534042894840240e-04
-8.731167763471603394e-04
-2.255119848996400833e-03
-1.970561919733881950e-03
2.277559367939829826e-03
1.198684731207322329e-05
-1.551960478536784649e-03
-1.299754367209970951e-03
-2.643018262460827827e-03
-2.927839057520031929e-03
-7.893055590102449059e-05
-1.172006479464471340e-03
