3.623062744736671448e-02
1.297506410628557205e-02
3.483960777521133423e-02
3.283444559201598167e-03
-3.196638077497482300e-02
-3.605923429131507874e-02
-3.589414805173873901e-02
-3.687248751521110535e-02
-8.071527816355228424e-03
-1.035340875387191772e-02
1.277058385312557220e-02
3.871920332312583923e-02
-3.152409940958023071e-02
4.101748578250408173e-03
2.752911113202571869e-02
8.698491379618644714e-03
1.952353492379188538e-02
-3.544051572680473328e-02
3.999585285782814026e-02
3.526539355516433716e-02
3.048281371593475342e-02
6.802259013056755066e-03
-2.186431363224983215e-02
-2.072834596037864685e-02
-3.561699017882347107e-02
2.694441936910152435e-02
-7.003529928624629974e-03
-1.654404960572719574e-02
9.899415075778961182e-03
-7.784583140164613724e-03
-3.808814287185668945e-02
3.831300511956214905e-02
2.637574821710586548e-02
4.144190624356269836e-02
3.061902336776256561e-02
4.507268313318490982e-04
-1.532048359513282776e-02
1.799668557941913605e-02
3.310637176036834717e-02
2.265106327831745148e-02
3.735834360122680664e-02
3.652383014559745789e-02
-3.032370284199714661e-02
7.978588342666625977e-03
3.900812938809394836e-02
-3.634684532880783081e-02
-3.108148276805877686e-02
4.105239361524581909e-02
2.584514580667018890e-02
-3.001962043344974518e-02
1.100710779428482056e-02
3.278395161032676697e-02
3.336612507700920105e-02
-1.929218880832195282e-02
2.926480397582054138e-02
-9.571067988872528076e-03
1.572106778621673584e-02
2.499480731785297394e-02
-2.180208265781402588e-02
-2.172360569238662720e-02
3.410340100526809692e-02
-2.722535841166973114e-02
-3.657853975892066956e-02
3.141785413026809692e-02
1.851422153413295746e-02
1.238361280411481857e-02
-9.853908559307456017e-04
5.609624553471803665e-03
-1.480579841881990433e-02
1.485793106257915497e-02
2.973919361829757690e-02
1.952957175672054291e-02
2.513655461370944977e-02
1.731598190963268280e-02
-5.600768141448497772e-03
2.987724170088768005e-02
-5.296070128679275513e-03
-4.640273284167051315e-03
-2.254736982285976410e-02
6.175412330776453018e-03
-3.353736549615859985e-02
1.105728559195995331e-02
2.521833777427673340e-02
3.294647857546806335e-02
-2.990633249282836914e-02
-3.531830012798309326e-02
-1.048797555267810822e-02
3.461243957281112671e-02
-3.819823637604713440e-02
-9.080470190383493900e-04
-1.023070048540830612e-02
-9.741784073412418365e-03
2.028104290366172791e-02
3.117280080914497375e-02
-2.706487663090229034e-02
-8.708995766937732697e-03
2.014798298478126526e-02
7.324987091124057770e-03
6.673526018857955933e-03
4.122964292764663696e-02
2.037217281758785248e-02
2.000087872147560120e-02
-2.065962180495262146e-02
2.003266848623752594e-02
6.716883741319179535e-03
-3.064694814383983612e-02
3.510270640254020691e-02
5.184131674468517303e-03
2.755266800522804260e-02
-4.187389463186264038e-02
3.589219413697719574e-03
2.866314910352230072e-02
-3.254515677690505981e-02
-1.011496316641569138e-02
-3.936106711626052856e-02
1.320512685924768448e-02
4.017313197255134583e-02
-2.702244184911251068e-02
-1.190597540698945522e-03
1.919077523052692413e-02
-4.186453670263290405e-02
-3.846170380711555481e-02
-8.364505134522914886e-03
4.075377807021141052e-02
-2.855669893324375153e-02
-6.707561668008565903e-03
-3.390414174646139145e-03
-1.319024246186017990e-02
-6.379163824021816254e-03
1.344002038240432739e-02
1.141915842890739441e-02
1.457858830690383911e-02
8.999394485726952553e-04
3.045805357396602631e-02
1.168536487966775894e-02
-1.220644824206829071e-02
2.417423948645591736e-02
-4.156215488910675049e-02
1.031772978603839874e-02
6.084810011088848114e-03
2.296173013746738434e-02
1.467841770499944687e-02
-1.458777394145727158e-02
-4.288239404559135437e-02
2.963070059195160866e-03
3.533609583973884583e-02
3.538464382290840149e-02
-2.078304067254066467e-02
2.102614566683769226e-02
-3.790751099586486816e-02
3.970088809728622437e-02
3.918768838047981262e-02
-2.865939028561115265e-02
2.219022251665592194e-02
7.812789990566670895e-04
-3.684076294302940369e-02
6.320794927887618542e-04
-1.743470318615436554e-03
4.103659465909004211e-02
-3.285537660121917725e-02
-3.877566754817962646e-02
1.995481364428997040e-02
-2.141419239342212677e-02
-2.153441309928894043e-02
-3.315766900777816772e-02
-3.890214860439300537e-02
3.836778923869132996e-03
-7.752995472401380539e-03
2.827609889209270477e-03
3.850065916776657104e-02
3.895030915737152100e-02
-2.673340961337089539e-02
-1.503677014261484146e-02
2.421706169843673706e-02
-4.131403192877769470e-02
1.797445490956306458e-02
3.284427570179104805e-03
3.386916965246200562e-02
4.044374078512191772e-02
1.430876553058624268e-02
8.122020401060581207e-03
-3.720187768340110779e-02
2.803201787173748016e-02
3.766057640314102173e-02
7.184422109276056290e-03
1.057060621678829193e-02
3.245662152767181396e-02
-9.822002612054347992e-03
-1.041024178266525269e-02
3.605717048048973083e-02
-3.953559696674346924e-02
-1.438058633357286453e-02
-6.302065216004848480e-03
-1.259780768305063248e-02
-2.767307870090007782e-02
-2.407833933830261230e-02
2.283573523163795471e-02
2.996958978474140167e-02
9.497379884123802185e-03
-5.544692277908325195e-03
-1.321416627615690231e-02
-3.754547983407974243e-02
4.837548360228538513e-03
-5.199120496399700642e-04
2.002493944019079208e-03
-4.212019965052604675e-02
-2.690288983285427094e-02
2.565197087824344635e-02
-3.087054938077926636e-02
4.088928550481796265e-02
-1.564355939626693726e-02
3.269767388701438904e-02
-3.395251184701919556e-02
-1.784284412860870361e-02
-2.894263481721282005e-03
7.034717593342065811e-03
-1.276662480086088181e-02
1.806697808206081390e-02
-7.727897260338068008e-03
-2.279269881546497345e-02
-1.625696942210197449e-02
-3.216487914323806763e-02
3.425146639347076416e-02
3.063441999256610870e-02
-2.099073119461536407e-02
-5.530921742320060730e-03
-2.387546561658382416e-02
-2.271099388599395752e-02
3.976162150502204895e-02
9.340466000139713287e-03
2.500667050480842590e-02
2.711495384573936462e-02
-1.868204027414321899e-02
-6.037196144461631775e-03
-1.081452122889459133e-03
-3.149883449077606201e-02
-4.506868310272693634e-03
3.431796282529830933e-02
-2.470081113278865814e-02
-4.528197459876537323e-03
1.362171303480863571e-02
-2.331052348017692566e-02
2.222472988069057465e-02
2.991979382932186127e-02
-1.752691157162189484e-02
1.673706807196140289e-02
2.023739740252494812e-02
3.504958376288414001e-02
2.159696631133556366e-02
-2.809609286487102509e-02
1.629629544913768768e-02
4.213628545403480530e-02
4.103286936879158020e-02
-3.298551961779594421e-02
3.129709884524345398e-02
-1.028597634285688400e-02
