-1.033637076616287231e-01
8.320117369294166565e-03
-4.898682236671447754e-02
3.952822834253311157e-02
-4.337524063885211945e-03
1.085781157016754150e-01
-7.755427062511444092e-02
-2.490005223080515862e-03
-1.327375322580337524e-01
3.304041177034378052e-02
-4.769936576485633850e-02
8.933641761541366577e-02
-8.524190634489059448e-02
8.957833796739578247e-02
4.150315374135971069e-02
7.950118184089660645e-02
-6.919887661933898926e-02
7.114996761083602905e-02
3.693835064768791199e-02
-3.650454804301261902e-02
1.031941249966621399e-01
-6.810712069272994995e-02
9.335317462682723999e-02
1.877860724925994873e-02
2.095553092658519745e-03
-2.863646484911441803e-02
1.709827780723571777e-02
2.655335515737533569e-02
1.083748340606689453e-01
-5.020185559988021851e-02
-7.431290298700332642e-02
1.418410055339336395e-02
4.770827013999223709e-03
-1.115916222333908081e-01
-1.064304262399673462e-01
9.808678179979324341e-02
1.700140908360481262e-02
-4.283035546541213989e-02
-2.395774051547050476e-02
3.734954819083213806e-02
-5.025637522339820862e-02
-8.720254898071289062e-02
-3.331713005900382996e-02
-6.911440193653106689e-02
1.245212554931640625e-01
6.466626375913619995e-02
-1.129268929362297058e-01
-1.212209835648536682e-01
-3.211206942796707153e-02
-3.604137524962425232e-02
-6.616298854351043701e-02
6.375917792320251465e-02
3.277479112148284912e-02
7.098410278558731079e-02
4.473023116588592529e-02
1.706985756754875183e-02
-8.715447783470153809e-02
-7.568408548831939697e-02
-5.481580272316932678e-02
-8.321582525968551636e-02
-4.697046801447868347e-02
-3.455169871449470520e-02
1.276277191936969757e-02
9.734037332236766815e-03
-2.862537838518619537e-02
-7.958757132291793823e-02
-6.469456106424331665e-02
2.310894615948200226e-02
1.039075404405593872e-01
-1.070658117532730103e-01
-5.073435604572296143e-03
-1.056999787688255310e-01
6.514669954776763916e-02
-4.558321461081504822e-02
-8.424979448318481445e-02
-2.005419693887233734e-02
5.049995705485343933e-02
-2.911238931119441986e-02
8.730576955713331699e-04
-4.877088591456413269e-03
-2.125141024589538574e-02
1.193224787712097168e-01
-9.285635501146316528e-02
8.771089464426040649e-02
1.190815940499305725e-01
-1.164681613445281982e-01
-5.248214676976203918e-02
1.836282573640346527e-02
-1.005770042538642883e-01
3.119951300323009491e-02
3.898930922150611877e-02
1.056569535285234451e-02
-4.024516791105270386e-03
2.705078385770320892e-02
-7.868206501007080078e-02
1.267306059598922729e-01
1.249919161200523376e-01
-1.091699581593275070e-02
-8.452223241329193115e-02
7.980312407016754150e-02
-1.050006523728370667e-01
-9.672567993402481079e-02
-1.213412731885910034e-01
1.044364944100379944e-01
-1.265833079814910889e-01
3.887131810188293457e-02
4.905087873339653015e-02
-8.246075361967086792e-02
1.028276756405830383e-01
-1.125557944178581238e-01
-9.522413462400436401e-02
1.025702729821205139e-01
-1.097253039479255676e-01
6.785514205694198608e-02
1.065901368856430054e-01
-9.289593994617462158e-02
9.515386074781417847e-02
-1.796756498515605927e-02
9.080464951694011688e-03
7.432197034358978271e-02
-5.919711664319038391e-02
-1.026673316955566406e-01
-9.984947741031646729e-02
-9.255222231149673462e-02
-8.489912375807762146e-03
-5.872824043035507202e-02
-8.189450949430465698e-02
1.065813153982162476e-01
-6.420390680432319641e-03
5.027288198471069336e-02
1.491458993405103683e-02
1.423975825309753418e-02
-5.969878658652305603e-02
-1.928031630814075470e-02
-7.658148556947708130e-02
-8.034286648035049438e-02
-3.558738529682159424e-02
2.572638913989067078e-02
-8.680303394794464111e-02
-2.872872538864612579e-02
-1.124901231378316879e-02
2.997550182044506073e-02
-7.411179691553115845e-02
1.941285468637943268e-02
-9.730540215969085693e-02
-5.212493985891342163e-02
-6.076359748840332031e-02
1.254543066024780273e-01
7.527257502079010010e-02
-5.551386997103691101e-02
-5.391988158226013184e-02
8.012091368436813354e-02
-9.436555206775665283e-02
4.864440113306045532e-02
2.773605473339557648e-02
-1.142459586262702942e-01
-2.302131801843643188e-02
1.068188175559043884e-01
1.665536127984523773e-02
4.686882346868515015e-02
5.619885399937629700e-03
-3.245600601076148450e-05
-4.822473600506782532e-02
-6.726828962564468384e-02
6.386496871709823608e-02
-1.123539060354232788e-01
-9.068305790424346924e-02
-8.357363194227218628e-02
-9.871268272399902344e-02
1.034313142299652100e-01
2.369724959135055542e-02
9.311078488826751709e-02
8.224695920944213867e-02
-7.466600835323333740e-02
5.787270888686180115e-02
-1.094054505228996277e-01
6.484657526016235352e-03
1.658546924591064453e-02
8.916546404361724854e-02
1.360167115926742554e-01
3.205319121479988098e-02
9.281104803085327148e-02
-9.648293256759643555e-02
-5.521834641695022583e-02
3.174205496907234192e-02
-1.766688935458660126e-02
3.383504599332809448e-02
-6.353936344385147095e-02
7.293812930583953857e-03
-2.352897822856903076e-02
-7.520125061273574829e-02
3.271268308162689209e-02
-1.190167814493179321e-01
6.022012792527675629e-03
-1.956795528531074524e-02
4.529411345720291138e-02
4.469180479645729065e-02
-2.603284642100334167e-02
3.493937663733959198e-03
3.724531084299087524e-02
-1.749228127300739288e-02
7.888024300336837769e-02
-9.568522125482559204e-02
4.533210769295692444e-02
1.085874438285827637e-01
9.749503433704376221e-02
-5.116679705679416656e-03
6.246040388941764832e-02
-3.842117637395858765e-02
-4.243656620383262634e-02
5.901318043470382690e-02
2.581311576068401337e-02
1.138038337230682373e-01
-1.182788759469985962e-01
-6.178948283195495605e-02
-2.767659164965152740e-02
-3.172119334340095520e-02
-1.105292066931724548e-01
3.331273421645164490e-02
-6.368597596883773804e-02
-3.070695325732231140e-02
1.170896366238594055e-01
1.891000568866729736e-02
-8.587374538183212280e-02
-4.245607554912567139e-02
-5.197065696120262146e-02
-6.862034648656845093e-02
-1.167797818779945374e-01
5.236910283565521240e-02
1.911968365311622620e-02
-1.054072976112365723e-01
9.312457591295242310e-02
2.332180552184581757e-02
-1.204373687505722046e-01
-6.679153442382812500e-02
-9.248247742652893066e-02
-3.292881185188889503e-03
-6.378869712352752686e-02
2.867298014461994171e-02
-1.257034391164779663e-01
-1.011635437607765198e-01
7.457947731018066406e-02
-4.966236278414726257e-02
1.539734564721584320e-02
2.568781003355979919e-02
-5.943422019481658936e-02
-7.061858475208282471e-02
-4.763570055365562439e-02
1.088339090347290039e-01
-9.144145250320434570e-02
1.280454099178314209e-01
-1.232943013310432434e-01
5.011802166700363159e-02
-1.194146275520324707e-01
-4.415108636021614075e-02
-9.755025804042816162e-02
1.243764236569404602e-01
4.257254675030708313e-02
-8.881512284278869629e-02
1.092870160937309265e-01
4.320044443011283875e-02
-1.208623200654983521e-01
9.964267909526824951e-02
7.010363042354583740e-02
3.561345115303993225e-02
8.343809843063354492e-02
-7.334911823272705078e-02
-9.615344554185867310e-02
3.606176003813743591e-02
5.551478266716003418e-02
8.318322896957397461e-02
-1.241719871759414673e-01
-1.026318445801734924e-01
-8.150578476488590240e-03
-5.727957189083099365e-02
-1.143456771969795227e-01
6.593728065490722656e-02
9.321935474872589111e-02
-4.572802037000656128e-02
-6.786644458770751953e-03
6.272373348474502563e-02
5.144361034035682678e-02
5.934934318065643311e-02
-1.149359270930290222e-01
8.636672981083393097e-03
6.250135600566864014e-03
-1.064621564000844955e-02
-1.610566675662994385e-02
-7.461757212877273560e-02
2.124859765172004700e-02
-8.532796055078506470e-02
2.550465427339076996e-02
6.171655654907226562e-02
-9.882859140634536743e-02
9.599620103836059570e-02
1.130825728178024292e-01
3.178798407316207886e-02
8.231751620769500732e-02
-1.195293366909027100e-01
-4.137740656733512878e-02
7.241676002740859985e-02
-6.089375354349613190e-03
-2.880198135972023010e-02
7.390082627534866333e-02
-8.117944002151489258e-02
3.160871937870979309e-02
1.332036219537258148e-02
-1.575663499534130096e-02
7.397414743900299072e-02
2.961338730528950691e-03
-1.229862868785858154e-01
-1.036702319979667664e-01
-7.666841149330139160e-02
-1.204526796936988831e-01
7.454155385494232178e-02
1.106947362422943115e-01
-7.103633135557174683e-02
7.943952456116676331e-03
1.922724395990371704e-02
-9.114904701709747314e-02
6.618963181972503662e-02
1.084616035223007202e-01
-5.294347926974296570e-02
6.103485822677612305e-02
-1.140197739005088806e-01
1.415382325649261475e-01
-2.369831502437591553e-02
-1.063432171940803528e-01
-1.250428110361099243e-01
-9.305880521424114704e-04
1.004514247179031372e-01
9.463946521282196045e-02
-7.479438185691833496e-02
4.893428087234497070e-02
-9.187503019347786903e-04
1.765300892293453217e-02
1.042050272226333618e-01
-1.680967397987842560e-02
-4.007247835397720337e-02
-6.419464945793151855e-02
-2.285792864859104156e-02
1.105682477355003357e-01
-1.390560343861579895e-02
2.712585963308811188e-02
-2.800807915627956390e-02
9.065094590187072754e-02
-8.193401992321014404e-02
1.234611868858337402e-01
-3.109173662960529327e-02
3.334151208400726318e-02
-1.333851963281631470e-01
1.291657388210296631e-01
5.042384192347526550e-02
1.031941697001457214e-01
1.031778976321220398e-01
7.873447984457015991e-02
-5.040424317121505737e-02
-2.193826623260974884e-02
3.774654120206832886e-02
-9.230218082666397095e-02
-4.140164330601692200e-02
7.102309912443161011e-02
-7.434958964586257935e-02
5.159008875489234924e-02
-2.609701454639434814e-02
-9.505021572113037109e-02
-3.597077354788780212e-02
-1.337434723973274231e-02
-2.511331252753734589e-02
-5.613947287201881409e-02
1.292732357978820801e-01
1.319656223058700562e-01
1.210416033864021301e-01
-2.441992238163948059e-02
-3.962929546833038330e-02
-2.165148034691810608e-02
8.886103332042694092e-02
-4.242026433348655701e-02
-2.743023261427879333e-02
4.802341386675834656e-02
-2.237609960138797760e-02
-1.376444101333618164e-01
-8.189000934362411499e-02
2.796499244868755341e-02
1.280678957700729370e-01
-1.128276363015174866e-01
-8.027364313602447510e-02
1.086556315422058105e-01
-1.173980832099914551e-01
-5.999959260225296021e-02
7.386209815740585327e-02
-8.322243392467498779e-02
7.563573122024536133e-02
3.372924402356147766e-02
6.986904889345169067e-02
-1.139611452817916870e-01
1.141717880964279175e-01
-4.261175543069839478e-02
-3.075569681823253632e-02
5.142677947878837585e-02
-6.435126066207885742e-02
-5.548759549856185913e-02
-1.798260770738124847e-02
-9.779139608144760132e-02
-1.066208854317665100e-01
-1.147358119487762451e-01
9.594369679689407349e-03
-3.858699277043342590e-02
2.628476358950138092e-02
-6.951899826526641846e-02
-2.875328063964843750e-02
-9.167866408824920654e-02
6.182541325688362122e-02
-6.549806892871856689e-02
-6.759985536336898804e-02
-4.881028085947036743e-02
-5.468163266777992249e-02
-1.735319569706916809e-02
-8.103099465370178223e-02
-7.372248917818069458e-02
3.933448716998100281e-02
4.268140718340873718e-02
-1.119273155927658081e-01
-2.485336363315582275e-02
-1.009687781333923340e-01
1.055299490690231323e-02
-8.284784108400344849e-02
-9.825820475816726685e-02
1.072269231081008911e-01
-9.505850076675415039e-02
-3.822971880435943604e-02
2.740331180393695831e-02
-5.746911466121673584e-02
1.034558657556772232e-02
7.107835263013839722e-03
1.264363247901201248e-02
1.319183260202407837e-01
1.861060224473476410e-02
3.736579790711402893e-02
4.700740799307823181e-02
-3.897900134325027466e-02
-1.152423322200775146e-01
-8.600188791751861572e-02
2.322025969624519348e-02
-5.180264636874198914e-02
-1.014070361852645874e-01
1.199758425354957581e-01
8.288313448429107666e-02
1.232260614633560181e-01
9.206410497426986694e-02
-4.194556176662445068e-02
-5.378063768148422241e-02
-1.165635045617818832e-02
-6.731516867876052856e-02
4.946035891771316528e-02
3.514317795634269714e-02
-9.616103768348693848e-02
-6.624399125576019287e-02
-3.496250510215759277e-02
5.538441613316535950e-02
8.370045572519302368e-02
-4.537970945239067078e-02
-3.658951446413993835e-02
-8.587626367807388306e-02
-1.237973943352699280e-01
-9.734173864126205444e-02
1.346612423658370972e-01
-6.582594010978937149e-03
-8.489993214607238770e-02
1.047305390238761902e-02
7.768217474222183228e-02
-3.511117026209831238e-02
-9.160362184047698975e-02
1.111161857843399048e-01
-1.031817272305488586e-01
-3.035581670701503754e-02
-9.006813168525695801e-02
-1.170698646456003189e-02
3.707920759916305542e-02
2.779725939035415649e-03
6.078356411308050156e-03
7.125081121921539307e-02
-1.224042177200317383e-01
-4.945959150791168213e-02
6.742092082276940346e-04
7.742474321275949478e-03
8.868377655744552612e-02
5.990427732467651367e-02
-1.046116128563880920e-01
-1.219917014241218567e-01
-1.472192350775003433e-02
8.235286921262741089e-03
-2.572095394134521484e-02
-1.294549852609634399e-01
-1.077876314520835876e-01
-2.727269008755683899e-02
-1.048479452729225159e-01
5.694497376680374146e-02
-4.488738998770713806e-02
5.855458229780197144e-02
-1.471494603902101517e-02
5.518803372979164124e-02
-1.131825298070907593e-01
-8.672252297401428223e-02
-5.424996465444564819e-02
9.559601545333862305e-02
-5.017580837011337280e-02
1.104392930865287781e-01
5.839499831199645996e-02
-6.560421735048294067e-02
-1.100790947675704956e-01
-3.119299747049808502e-02
-3.222147002816200256e-02
6.477971374988555908e-02
-1.058309227228164673e-01
-1.046342551708221436e-01
2.125290594995021820e-02
-4.881597310304641724e-02
4.843291267752647400e-02
-8.961346000432968140e-03
1.014699116349220276e-01
-1.298115551471710205e-01
-6.209525279700756073e-03
-9.586963802576065063e-02
1.327536106109619141e-01
-7.288939319550991058e-03
5.981515720486640930e-02
-4.360384121537208557e-02
-1.577753457240760326e-03
-2.353390213102102280e-03
6.998020410537719727e-02
-1.070331931114196777e-01
-7.377963513135910034e-02
5.877219513058662415e-02
5.772684887051582336e-02
-9.172122925519943237e-03
-2.842859923839569092e-02
4.765103757381439209e-02
-4.720622673630714417e-02
9.865823388099670410e-02
-7.636798173189163208e-02
-5.810883641242980957e-02
-2.735999785363674164e-02
7.855577021837234497e-02
1.507433969527482986e-02
7.963640987873077393e-02
-1.228892505168914795e-01
5.541835725307464600e-02
-1.116309016942977905e-01
7.635094970464706421e-02
-5.786332488059997559e-02
5.971245095133781433e-02
5.475516244769096375e-02
1.058762744069099426e-01
1.051690503954887390e-01
9.425668418407440186e-02
1.205498874187469482e-01
1.362832821905612946e-02
7.137302309274673462e-02
8.085657656192779541e-02
2.164695039391517639e-02
1.106813624501228333e-01
-7.462238520383834839e-02
9.065841138362884521e-02
6.866377592086791992e-02
-4.161064699292182922e-02
-1.137586906552314758e-01
9.279512614011764526e-02
-2.185282669961452484e-02
-5.033414065837860107e-02
-8.632711321115493774e-02
-1.013348847627639771e-01
-4.727727174758911133e-02
-1.254660636186599731e-01
4.700480401515960693e-02
-3.491403907537460327e-02
-7.074822485446929932e-02
-2.977689960971474648e-03
8.518780581653118134e-03
6.515818089246749878e-02
1.033029891550540924e-02
-1.147234737873077393e-01
4.574143514037132263e-02
1.007402911782264709e-01
-1.630274020135402679e-02
1.183209791779518127e-01
-7.070163637399673462e-02
-1.230692937970161438e-01
8.388493210077285767e-02
8.368243277072906494e-02
1.146861985325813293e-01
1.145983859896659851e-01
4.154416173696517944e-02
-5.813263729214668274e-02
4.352919384837150574e-02
5.157613754272460938e-02
-1.055590584874153137e-01
-1.107585728168487549e-01
3.764827549457550049e-02
1.270337123423814774e-02
1.703564077615737915e-03
1.126997545361518860e-01
-7.200411707162857056e-02
5.868391320109367371e-02
2.251513861119747162e-02
-4.919705912470817566e-02
-4.794495180249214172e-02
4.925522953271865845e-02
-8.010470867156982422e-02
-6.810565292835235596e-02
1.142001375555992126e-01
1.354725956916809082e-01
-7.114767283201217651e-02
2.160204946994781494e-02
3.575981408357620239e-02
-1.262052208185195923e-01
-1.182373389601707458e-01
2.635750733315944672e-02
-8.010504394769668579e-02
-3.901943191885948181e-02
-8.559007942676544189e-02
7.614644244313240051e-03
-1.302306205034255981e-01
1.036590337753295898e-01
-5.178439617156982422e-02
-2.611201070249080658e-02
2.851679176092147827e-02
-8.491340279579162598e-02
1.070522889494895935e-01
-8.109830319881439209e-02
-9.830019623041152954e-02
7.475052773952484131e-02
-3.697929496411234140e-04
3.795916587114334106e-02
9.372690692543983459e-03
-3.784046694636344910e-02
5.744141712784767151e-02
-8.118746429681777954e-02
-1.002696529030799866e-01
-4.676697030663490295e-02
-3.197837993502616882e-02
4.203024879097938538e-02
-3.500198572874069214e-02
1.064927726984024048e-01
5.013941600918769836e-02
9.140767902135848999e-02
-2.001093327999114990e-02
8.252081274986267090e-02
1.180269047617912292e-01
1.518844533711671829e-02
-3.697357326745986938e-02
1.051702350378036499e-01
1.300662457942962646e-01
6.813257187604904175e-02
1.437934115529060364e-03
-7.885989546775817871e-02
-1.445122994482517242e-02
5.400905013084411621e-02
8.359433710575103760e-02
2.480740472674369812e-02
-5.437460169196128845e-02
1.093061044812202454e-01
9.857442229986190796e-02
1.915108598768711090e-02
3.789309039711952209e-02
9.515140205621719360e-02
7.747138291597366333e-02
7.152196019887924194e-02
-8.355213701725006104e-02
-7.098152488470077515e-02
3.643336147069931030e-02
-2.284884639084339142e-02
-8.345410972833633423e-02
1.072937473654747009e-01
-1.145515665411949158e-01
-4.929906129837036133e-02
-1.083655506372451782e-01
-1.006219610571861267e-01
-4.434349387884140015e-02
-5.203965678811073303e-02
-6.105615943670272827e-02
-5.487786233425140381e-02
-2.563173882663249969e-02
-7.827650755643844604e-02
-7.886648178100585938e-02
-7.869498804211616516e-03
2.747748419642448425e-02
9.355232864618301392e-02
9.124054759740829468e-02
1.337244659662246704e-01
-7.638113200664520264e-02
-8.820016682147979736e-02
7.233894616365432739e-02
5.821252614259719849e-02
1.836279779672622681e-02
2.352735213935375214e-02
-5.323110893368721008e-02
-9.382486343383789062e-03
1.011173799633979797e-01
-8.213225752115249634e-02
-2.039835043251514435e-02
1.561393588781356812e-02
-1.027892902493476868e-01
-1.245567053556442261e-01
-1.271890699863433838e-01
4.966307058930397034e-02
-7.201353460550308228e-02
1.121414005756378174e-01
1.176378317177295685e-02
2.808263711631298065e-02
-9.924001246690750122e-02
-1.456755865365266800e-02
-1.138925999402999878e-01
-1.233552321791648865e-01
-1.531895902007818222e-02
-7.092735171318054199e-02
1.087292507290840149e-01
-7.177736610174179077e-02
-5.888148024678230286e-02
3.721154108643531799e-02
-4.290674626827239990e-02
-4.043891653418540955e-02
-3.712233155965805054e-02
8.153703529387712479e-04
1.043282821774482727e-01
-9.660993516445159912e-02
-9.964264184236526489e-02
9.716511517763137817e-02
-7.252953201532363892e-02
-2.092881500720977783e-02
-9.301065653562545776e-02
-4.208676144480705261e-02
-1.233317404985427856e-01
3.713743388652801514e-02
1.962435198947787285e-03
-3.391247242689132690e-02
4.893292859196662903e-02
5.175044387578964233e-02
-1.200697124004364014e-01
-1.248808875679969788e-01
6.129851937294006348e-02
-1.074777394533157349e-01
-1.520559657365083694e-02
2.113370411098003387e-02
9.389278292655944824e-02
1.281215529888868332e-02
7.625284045934677124e-02
1.677544321864843369e-03
-9.296742826700210571e-02
-8.598575741052627563e-02
1.105207502841949463e-01
-2.443743683397769928e-02
-3.385196207091212273e-03
2.007721737027168274e-02
2.375258691608905792e-02
1.080126538872718811e-01
6.084012333303689957e-03
7.394769787788391113e-02
4.060050100088119507e-02
-1.040268167853355408e-01
-4.804636165499687195e-02
-6.959192454814910889e-02
-5.657147243618965149e-02
2.491897344589233398e-02
8.670333772897720337e-02
4.445895552635192871e-02
7.864991202950477600e-03
-1.121246814727783203e-01
5.791913717985153198e-03
-5.097252130508422852e-02
-9.087248891592025757e-02
-3.580408915877342224e-02
-1.001712307333946228e-01
9.662310779094696045e-02
2.413005195558071136e-02
-3.554239496588706970e-02
4.277624562382698059e-02
2.115377970039844513e-02
-6.493183225393295288e-02
4.487232863903045654e-02
-1.105182319879531860e-01
1.166104376316070557e-01
-7.199049741029739380e-02
-4.627548903226852417e-02
-7.566662132740020752e-02
6.862162053585052490e-02
6.729675829410552979e-02
-1.002503111958503723e-01
-4.139749333262443542e-02
5.728631839156150818e-02
-5.370859801769256592e-02
4.575602337718009949e-02
-4.915184155106544495e-02
1.029647961258888245e-01
-4.058513790369033813e-02
1.186593770980834961e-01
-1.137754619121551514e-01
1.900614798069000244e-02
-6.492587924003601074e-02
-1.085194498300552368e-01
-3.255232423543930054e-02
-3.981674835085868835e-02
1.294158771634101868e-02
-5.050858482718467712e-02
4.882979020476341248e-02
6.308218091726303101e-02
1.245642751455307007e-01
-1.120592132210731506e-01
8.044552057981491089e-02
4.985275678336620331e-03
-5.424097180366516113e-02
-6.188783794641494751e-03
-1.224848628044128418e-01
-9.756120294332504272e-02
7.291396707296371460e-02
8.535932004451751709e-02
-1.998912543058395386e-02
1.243178620934486389e-01
-1.171826869249343872e-01
2.342610433697700500e-02
3.472569584846496582e-02
-3.813932836055755615e-02
-3.134885430335998535e-02
2.265620231628417969e-02
-3.981691226363182068e-02
-5.172728374600410461e-02
7.590809464454650879e-02
5.419672653079032898e-02
-3.374537825584411621e-02
-1.218862310051918030e-01
7.131055742502212524e-02
-9.046863764524459839e-02
1.082506626844406128e-01
-6.644460558891296387e-02
-7.323215901851654053e-02
1.165416017174720764e-01
-5.428323522210121155e-02
-4.884496703743934631e-02
2.827997552230954170e-03
-8.744701743125915527e-02
2.686983533203601837e-02
-9.270127117633819580e-02
9.133376926183700562e-02
-6.269210577011108398e-02
-2.346908114850521088e-02
-7.051679305732250214e-03
-4.021961241960525513e-02
9.488196112215518951e-03
-1.190770044922828674e-01
9.460733830928802490e-02
1.073661372065544128e-01
-3.051543794572353363e-02
-9.457253664731979370e-02
-1.060008332133293152e-01
-5.261050537228584290e-02
8.797405660152435303e-02
6.810171902179718018e-02
-7.521077245473861694e-02
-8.629253506660461426e-02
-1.148489937186241150e-01
-1.037740334868431091e-01
-2.169408276677131653e-02
8.355817198753356934e-02
-5.431646853685379028e-02
-1.139252409338951111e-01
8.695745468139648438e-02
1.451960112899541855e-02
7.347597181797027588e-02
-2.649289183318614960e-02
-1.057541444897651672e-01
5.233474820852279663e-02
-9.655818343162536621e-02
-7.827087491750717163e-02
-8.189502358436584473e-02
8.850411325693130493e-02
9.965491294860839844e-02
3.715443238615989685e-02
3.828480094671249390e-02
-7.454148493707180023e-03
-6.400470435619354248e-02
-4.935215413570404053e-02
1.046239063143730164e-01
-5.959575250744819641e-02
-7.798978686332702637e-02
6.364117562770843506e-02
2.366036921739578247e-02
2.109646052122116089e-02
7.671961933374404907e-02
-6.901971250772476196e-02
1.068391129374504089e-01
-3.968151286244392395e-02
5.080029740929603577e-02
3.757986705750226974e-03
8.813429623842239380e-02
-6.235952489078044891e-03
1.604683138430118561e-02
8.030651509761810303e-02
4.078416898846626282e-02
5.273080989718437195e-02
-8.648185431957244873e-02
2.984996326267719269e-02
7.825203239917755127e-02
7.581360638141632080e-02
-2.006561495363712311e-02
8.880134671926498413e-02
4.429460316896438599e-02
8.668182790279388428e-02
5.982334539294242859e-02
5.022087693214416504e-02
1.981983520090579987e-02
1.752225100062787533e-03
9.449899196624755859e-02
1.945688202977180481e-02
-4.909648001194000244e-02
-4.037763923406600952e-02
-5.878054350614547729e-02
-1.230113804340362549e-01
-7.732389122247695923e-02
4.461668431758880615e-03
8.167760819196701050e-02
7.120812684297561646e-02
-1.966485287994146347e-04
-4.912867769598960876e-02
8.401882648468017578e-02
-3.360819444060325623e-02
5.580578744411468506e-02
-1.194296553730964661e-01
2.595840580761432648e-02
-3.245360404253005981e-02
2.144370228052139282e-02
-1.006238907575607300e-01
9.126977622509002686e-02
5.938760191202163696e-02
1.314236521720886230e-01
8.124656975269317627e-03
1.139792278409004211e-01
8.573564141988754272e-02
6.822390109300613403e-02
1.135383024811744690e-01
2.281773835420608521e-02
-6.520611792802810669e-02
1.020775064826011658e-01
-9.672073274850845337e-02
-1.381593048572540283e-01
-7.221058756113052368e-02
1.102384030818939209e-01
-2.270365506410598755e-02
-9.490993618965148926e-02
-6.046747788786888123e-03
9.779414534568786621e-02
-2.526487037539482117e-02
6.579413264989852905e-02
7.164909690618515015e-02
8.225581608712673187e-03
1.228780895471572876e-01
-4.085718467831611633e-02
3.813554346561431885e-02
-1.132105514407157898e-01
-7.804054021835327148e-02
6.553650647401809692e-02
-8.422038704156875610e-02
9.093895554542541504e-02
1.073387190699577332e-01
1.256767846643924713e-02
7.022568583488464355e-02
-1.596906594932079315e-02
-7.609870284795761108e-02
5.729099363088607788e-02
1.487427670508623123e-02
8.793535083532333374e-02
-7.538200169801712036e-02
8.566168695688247681e-02
-1.170855686068534851e-01
-5.311048403382301331e-02
-5.570520088076591492e-02
1.381923351436853409e-02
9.518466889858245850e-02
8.679009974002838135e-02
2.500333078205585480e-02
-1.036757379770278931e-01
-2.338775247335433960e-02
1.644534803926944733e-02
-1.689865998923778534e-02
3.908895701169967651e-02
-1.959906332194805145e-02
-3.244974091649055481e-02
6.204300373792648315e-02
3.112618438899517059e-02
7.102575898170471191e-02
-1.210648715496063232e-01
-1.150890514254570007e-01
-5.302638560533523560e-02
-2.834181673824787140e-02
4.162579774856567383e-02
-2.165606245398521423e-02
-6.016862019896507263e-02
2.059421734884381294e-03
-1.063557937741279602e-01
1.018195524811744690e-01
9.500568360090255737e-02
-3.316185995936393738e-02
-3.081817366182804108e-02
-1.041412129998207092e-01
-1.304756700992584229e-01
1.140771061182022095e-01
1.040808409452438354e-01
6.048256903886795044e-02
-6.639400869607925415e-02
-4.983865097165107727e-02
-9.695051610469818115e-02
1.867184974253177643e-02
5.633242800831794739e-02
4.741834476590156555e-02
-3.213738277554512024e-02
8.596642315387725830e-02
6.411516666412353516e-02
-4.263108596205711365e-02
-1.092320233583450317e-01
-4.096295684576034546e-02
1.126929521560668945e-01
-1.323319412767887115e-02
-1.314803510904312134e-01
-1.156206279993057251e-01
2.360102720558643341e-02
9.198304265737533569e-02
-8.445993810892105103e-02
-7.392163574695587158e-02
-7.668820023536682129e-02
-7.550742477178573608e-02
1.948047080077230930e-03
-7.823237776756286621e-02
2.056138031184673309e-02
5.030382797122001648e-02
-1.347983330488204956e-01
-5.100883916020393372e-02
-6.644552573561668396e-03
1.031354218721389771e-01
1.291206926107406616e-01
8.531339466571807861e-02
2.344368398189544678e-02
-1.043668389320373535e-01
7.615363597869873047e-02
6.989683210849761963e-02
1.184500232338905334e-01
-1.281903237104415894e-01
-4.898759722709655762e-02
7.635973393917083740e-02
-4.691968113183975220e-02
6.037731468677520752e-02
1.969857374206185341e-03
9.419147856533527374e-03
3.095301054418087006e-02
-1.067980602383613586e-01
-6.326744705438613892e-02
-6.757955253124237061e-02
1.462614256888628006e-02
9.958599507808685303e-02
7.601892203092575073e-02
8.939842879772186279e-02
-1.809246651828289032e-02
3.095339611172676086e-02
-3.332213312387466431e-02
1.058846414089202881e-01
1.747164502739906311e-02
1.217241510748863220e-01
-9.576626121997833252e-02
-1.370383799076080322e-01
9.176795929670333862e-02
-1.218688711524009705e-01
9.001442790031433105e-02
1.242566332221031189e-01
-1.285090148448944092e-01
1.254963427782058716e-01
8.165422827005386353e-02
-8.074554055929183960e-02
-8.861405402421951294e-02
-9.018934518098831177e-02
7.076865434646606445e-02
-2.991486899554729462e-02
-1.383572258055210114e-02
5.062113702297210693e-02
8.769474178552627563e-02
-1.158611103892326355e-01
-6.170681491494178772e-02
-7.475715130567550659e-02
-2.698231837712228298e-04
-8.753430843353271484e-02
1.126181110739707947e-01
-4.615501686930656433e-02
1.194046065211296082e-01
-7.434619963169097900e-02
5.163717642426490784e-02
6.662031263113021851e-02
-8.176550269126892090e-02
-4.786585271358489990e-02
-1.219009459018707275e-01
9.058737009763717651e-02
-1.619486138224601746e-02
8.571872115135192871e-02
1.186613291501998901e-01
2.905715256929397583e-02
-1.299481689929962158e-01
-2.062105201184749603e-02
8.522121608257293701e-02
2.750761061906814575e-02
-1.044245436787605286e-02
-6.289888918399810791e-02
-3.542844578623771667e-02
-1.304098367691040039e-01
8.518178015947341919e-02
5.819837003946304321e-02
1.218404062092304230e-02
-9.722114540636539459e-03
1.156663820147514343e-01
-6.101574748754501343e-02
7.645145058631896973e-02
5.228523910045623779e-02
-1.299896687269210815e-01
1.935931853950023651e-02
-1.093835681676864624e-01
-3.900720924139022827e-02
-1.107323244214057922e-01
-2.095156349241733551e-02
-4.337446019053459167e-02
1.214329823851585388e-01
1.137523949146270752e-01
7.371933758258819580e-02
-1.199360415339469910e-01
-1.203430667519569397e-01
7.817009836435317993e-02
9.883881546556949615e-03
-3.301826864480972290e-02
-8.941815048456192017e-02
-7.891504466533660889e-02
7.304160296916961670e-02
2.609970979392528534e-02
-2.357612550258636475e-02
1.123297587037086487e-01
4.158483818173408508e-02
3.929396718740463257e-02
5.944875255227088928e-02
2.732627652585506439e-02
6.754275411367416382e-02
3.539069741964340210e-02
5.602715536952018738e-03
-2.398971095681190491e-02
-1.191221997141838074e-01
-1.134828198701143265e-02
8.844892680644989014e-02
-8.090992271900177002e-02
1.711241528391838074e-02
-1.172286048531532288e-01
6.421993672847747803e-02
5.604105815291404724e-02
9.571792185306549072e-02
-2.676249109208583832e-02
8.523515611886978149e-02
9.013587236404418945e-02
3.821417689323425293e-02
-9.757032245397567749e-02
8.476359769701957703e-03
-7.402358204126358032e-02
-6.163362041115760803e-02
1.102144643664360046e-01
8.977025747299194336e-02
-6.634885910898447037e-03
-8.342872560024261475e-02
5.515782535076141357e-02
-1.232306435704231262e-01
8.338940143585205078e-02
-1.007389351725578308e-01
-9.517006576061248779e-02
9.044598042964935303e-02
-4.436045885086059570e-02
-2.915732562541961670e-03
-6.696673482656478882e-02
-9.760495275259017944e-02
-4.461840912699699402e-02
-1.808431185781955719e-02
1.036096289753913879e-01
3.156011551618576050e-02
4.230430349707603455e-02
5.415494367480278015e-02
2.905739471316337585e-02
1.153729856014251709e-01
-1.049049049615859985e-01
-1.154409945011138916e-01
9.474747627973556519e-02
-1.056913845241069794e-02
1.317999064922332764e-01
1.355675458908081055e-01
-3.554545342922210693e-02
-1.402422133833169937e-02
-1.021379008889198303e-01
8.172766119241714478e-02
9.942109137773513794e-02
4.953977838158607483e-02
3.149344772100448608e-02
-7.778668403625488281e-02
9.655746817588806152e-02
-5.179518461227416992e-02
-5.769231542944908142e-02
-8.908843994140625000e-02
-6.585229421034455299e-04
8.397008478641510010e-02
7.105215638875961304e-02
-9.967961162328720093e-02
8.429373614490032196e-03
5.679655447602272034e-02
2.159547619521617889e-02
3.836051002144813538e-02
-3.398879198357462883e-03
2.863970771431922913e-02
-1.190050914883613586e-01
-5.198450013995170593e-02
-1.151512041687965393e-01
1.209741905331611633e-01
6.300282478332519531e-02
-2.536597289144992828e-02
-1.103508193045854568e-02
-2.367844432592391968e-02
3.561249747872352600e-02
-1.328056901693344116e-01
-5.399784445762634277e-02
-6.284259259700775146e-02
-1.221834309399127960e-02
-7.852630317211151123e-02
5.503217875957489014e-02
-2.652873983606696129e-03
3.327850624918937683e-02
4.606699943542480469e-02
-2.985730022192001343e-02
1.566839218139648438e-02
-8.219958841800689697e-02
6.343814730644226074e-02
-8.294182270765304565e-02
4.307375848293304443e-02
6.107703968882560730e-02
1.676186174154281616e-02
-1.894520781934261322e-02
-1.092814356088638306e-01
4.060959070920944214e-02
-1.980352587997913361e-02
7.236559689044952393e-02
9.043718874454498291e-02
-1.547789201140403748e-02
7.871375232934951782e-02
-8.425232954323291779e-03
-2.686128253117203712e-03
1.315663903951644897e-01
-5.866275355219841003e-02
-6.678198277950286865e-02
-1.683768071234226227e-02
-4.710288718342781067e-02
-1.987404190003871918e-02
-9.604986757040023804e-02
1.056351885199546814e-01
-1.142456009984016418e-01
-2.504171431064605713e-02
1.602177508175373077e-02
-1.273176372051239014e-01
1.058626249432563782e-01
5.925989709794521332e-03
4.427820071578025818e-02
-8.970620483160018921e-02
-5.734997987747192383e-02
1.109350770711898804e-01
-2.575078047811985016e-02
7.361577823758125305e-03
-1.409903913736343384e-02
1.400883942842483521e-01
-7.533524930477142334e-02
1.441585421562194824e-01
1.805656589567661285e-02
-6.022457778453826904e-02
1.136973574757575989e-01
-5.006757751107215881e-02
9.707453101873397827e-02
1.733571058139204979e-03
-1.955180987715721130e-02
4.570667073130607605e-02
-6.135932728648185730e-02
1.117180213332176208e-01
-9.700895100831985474e-02
-3.221923485398292542e-02
-6.047321483492851257e-02
7.143752276897430420e-02
-7.643739134073257446e-02
-6.654198467731475830e-02
-1.148028671741485596e-02
-1.213296800851821899e-01
6.268841773271560669e-02
2.534315176308155060e-02
-1.523398980498313904e-02
-1.241768226027488708e-01
-9.809792786836624146e-02
-7.441481947898864746e-02
-5.065901950001716614e-02
-9.613093733787536621e-02
4.907918721437454224e-02
-9.458079934120178223e-02
2.252550236880779266e-02
8.069720119237899780e-02
9.687631577253341675e-02
-5.113818868994712830e-02
8.581445366144180298e-02
-1.126484759151935577e-02
6.296852137893438339e-03
8.661693334579467773e-02
-7.201477140188217163e-02
1.020995974540710449e-01
-1.901297643780708313e-02
1.360956393182277679e-02
-9.104451537132263184e-02
6.258610635995864868e-02
1.253657191991806030e-01
-1.110080555081367493e-01
-1.847397349774837494e-02
1.292580366134643555e-01
-3.298545628786087036e-02
5.413054674863815308e-02
-1.093247719109058380e-02
-4.325034469366073608e-02
2.707807719707489014e-02
-9.446813911199569702e-02
-5.211568251252174377e-02
-4.741280898451805115e-02
1.089741811156272888e-01
6.026535853743553162e-02
-1.536829490214586258e-02
9.134389460086822510e-02
9.911780245602130890e-03
-1.789540052413940430e-02
-1.142913401126861572e-01
1.051668971776962280e-01
-1.351210009306669235e-02
-7.138532400131225586e-02
1.189457252621650696e-02
9.177447110414505005e-02
-5.024409294128417969e-02
1.008698716759681702e-01
-7.024385035037994385e-02
1.339052021503448486e-01
-1.898616924881935120e-02
7.247868180274963379e-02
-1.136317327618598938e-01
-8.792448788881301880e-02
3.832789510488510132e-02
1.412839442491531372e-02
1.147576048970222473e-01
-2.449946105480194092e-02
2.937732636928558350e-02
-1.569794863462448120e-02
-1.110776886343955994e-01
-6.781346630305051804e-03
1.196399182081222534e-01
1.237647309899330139e-01
-9.945113211870193481e-02
-3.942795842885971069e-02
-2.908479608595371246e-02
-1.398456394672393799e-01
-1.895078085362911224e-02
6.105848774313926697e-02
9.712350368499755859e-02
-1.169393807649612427e-01
-8.314495533704757690e-02
-9.040732681751251221e-02
8.669550716876983643e-02
7.885195314884185791e-03
7.778596482239663601e-04
-8.549738675355911255e-02
1.198237314820289612e-01
6.972711533308029175e-02
1.006167158484458923e-01
-3.854693379253149033e-03
3.520793840289115906e-02
7.276377081871032715e-02
-1.141048520803451538e-01
-5.579097568988800049e-02
-7.496797293424606323e-02
7.790353149175643921e-02
5.087091401219367981e-02
-2.698376774787902832e-02
-1.291059702634811401e-02
-1.124345511198043823e-02
2.213899418711662292e-02
-1.163682062178850174e-02
7.422100007534027100e-02
-3.417254611849784851e-02
-7.888399064540863037e-02
-6.311053782701492310e-02
6.922743469476699829e-02
-3.132500872015953064e-02
1.166973859071731567e-01
-1.220649704337120056e-01
-6.104701664298772812e-03
-1.779387006536126137e-03
5.748475342988967896e-02
-2.974672242999076843e-02
7.848294824361801147e-02
5.055511835962533951e-03
1.569915376603603363e-02
-1.992520317435264587e-02
6.652937084436416626e-02
-8.433157205581665039e-02
-7.024750113487243652e-02
1.348908841609954834e-01
-5.203776061534881592e-02
1.224844455718994141e-01
7.564172893762588501e-02
1.591311953961849213e-02
-8.257836848497390747e-02
2.032980881631374359e-02
3.650075942277908325e-02
-9.695617109537124634e-02
-5.098308622837066650e-02
-2.804729714989662170e-02
-6.491199135780334473e-02
-1.075288653373718262e-01
-5.218226835131645203e-02
-1.108106896281242371e-01
2.428188361227512360e-02
-1.223205998539924622e-01
4.505773261189460754e-02
-6.134246662259101868e-02
8.478929102420806885e-02
-3.854541108012199402e-02
7.788553833961486816e-02
-6.952347606420516968e-02
1.169127225875854492e-01
-1.067306846380233765e-01
5.625661462545394897e-02
-2.570507302880287170e-02
2.338096033781766891e-03
-2.891873009502887726e-02
-9.337279200553894043e-02
1.002828180789947510e-01
8.151197433471679688e-02
-2.076242864131927490e-02
9.316354244947433472e-02
1.884502917528152466e-02
1.222681533545255661e-02
-8.462373912334442139e-02
8.704293519258499146e-02
9.084889292716979980e-02
4.990578070282936096e-02
3.739504516124725342e-02
-1.023196354508399963e-01
5.503687635064125061e-02
-4.982545226812362671e-02
-6.261459738016128540e-02
4.399131983518600464e-02
-2.508559264242649078e-02
-3.170184418559074402e-02
1.270418614149093628e-01
-8.631014823913574219e-02
-4.682044312357902527e-02
-5.126912146806716919e-02
-9.788473695516586304e-02
5.809369310736656189e-02
-6.391928344964981079e-02
1.151921786367893219e-02
-5.491461604833602905e-02
1.053105145692825317e-01
-2.921402640640735626e-02
1.080597415566444397e-01
-5.992482975125312805e-02
-4.051278904080390930e-02
-2.580362837761640549e-03
-1.000188291072845459e-01
4.921841621398925781e-02
-1.162771880626678467e-01
-1.079981848597526550e-01
-7.047222554683685303e-02
-6.292174756526947021e-02
2.511580102145671844e-02
6.348794698715209961e-02
2.882870612666010857e-04
2.054552175104618073e-02
-1.011147871613502502e-01
9.074729867279529572e-03
8.197992295026779175e-02
-1.256618201732635498e-01
-8.940847963094711304e-02
-7.824906706809997559e-02
1.182206422090530396e-01
-5.848809704184532166e-02
1.429035887122154236e-02
-8.105684816837310791e-02
8.875487744808197021e-02
-1.333735734224319458e-01
1.461623758077621460e-01
7.137989997863769531e-02
-7.504524290561676025e-02
-2.170373685657978058e-02
8.107591420412063599e-02
1.032944619655609131e-01
4.622842185199260712e-03
-3.655285760760307312e-02
-9.223949164152145386e-02
1.085650548338890076e-01
1.065565831959247589e-02
-9.813857078552246094e-02
3.838548064231872559e-02
4.120897501707077026e-03
1.052724644541740417e-01
-5.420910567045211792e-02
-1.115818098187446594e-01
-1.363509148359298706e-01
-1.138825267553329468e-01
1.582366973161697388e-02
6.298341602087020874e-02
1.348114013671875000e-01
-5.219641327857971191e-02
8.538091182708740234e-02
8.709758520126342773e-02
-3.622249886393547058e-02
-5.359781533479690552e-02
1.113017499446868896e-01
-6.034814193844795227e-02
-7.596521079540252686e-02
1.321325004100799561e-01
1.198095232248306274e-01
-6.627694517374038696e-02
-1.165202409029006958e-01
2.813436649739742279e-02
1.039894968271255493e-01
1.055445522069931030e-01
-7.491096109151840210e-02
6.474206596612930298e-02
4.062261059880256653e-02
-8.683726936578750610e-02
-4.086265712976455688e-02
-9.844435006380081177e-02
4.714983701705932617e-02
5.857651680707931519e-02
6.051954254508018494e-02
-3.856136230751872063e-03
-2.332865633070468903e-02
9.623381309211254120e-03
-5.567561462521553040e-02
-1.517318375408649445e-02
9.370476752519607544e-02
-1.027451306581497192e-01
-4.870132729411125183e-02
4.482475342229008675e-04
-5.348503962159156799e-02
1.737830787897109985e-02
9.079733490943908691e-02
1.241222545504570007e-01
1.086578294634819031e-01
2.020300924777984619e-02
2.386446297168731689e-02
-5.394512042403221130e-02
-4.586315900087356567e-02
-1.736946217715740204e-02
-7.693124562501907349e-02
1.001278385519981384e-01
4.261992499232292175e-02
-5.705511942505836487e-02
1.050366759300231934e-01
4.723394662141799927e-02
-7.135190069675445557e-02
-6.402384489774703979e-02
-9.321817010641098022e-02
-5.525592714548110962e-02
-6.694956868886947632e-02
6.710729561746120453e-03
8.931220322847366333e-02
1.431417018175125122e-01
1.424252404831349850e-03
-4.331523925065994263e-02
-2.809371799230575562e-03
-8.591660857200622559e-02
7.671609986573457718e-03
1.429494172334671021e-01
-8.436048030853271484e-02
-9.219395369291305542e-02
-9.543149918317794800e-02
-6.948608905076980591e-02
-5.473010987043380737e-02
1.212617307901382446e-01
7.490004412829875946e-03
-6.171649694442749023e-02
6.939750909805297852e-02
7.157453149557113647e-02
-1.204936504364013672e-01
8.913902938365936279e-02
4.345266148447990417e-02
3.328535333275794983e-02
-7.503193616867065430e-02
-6.180897355079650879e-02
2.621206827461719513e-02
-7.636019587516784668e-02
1.879672706127166748e-02
1.388754397630691528e-01
-2.490637451410293579e-02
-1.110570430755615234e-01
-6.518439948558807373e-02
1.170339062809944153e-01
1.414204090833663940e-01
4.653483256697654724e-02
-2.624063752591609955e-02
-1.140786781907081604e-01
3.327841311693191528e-02
6.958314776420593262e-02
-3.632359206676483154e-02
1.155605539679527283e-01
-5.986184999346733093e-02
-8.670046180486679077e-02
-6.218000315129756927e-03
-7.098927348852157593e-02
5.866576731204986572e-02
4.260052368044853210e-02
2.906455099582672119e-02
-7.947431504726409912e-02
-3.748878464102745056e-02
-1.993975229561328888e-02
1.284100711345672607e-01
1.457726359367370605e-01
-1.985832490026950836e-02
1.201883107423782349e-01
-6.276495754718780518e-02
1.674829237163066864e-02
7.319968193769454956e-02
6.344953924417495728e-02
3.010653704404830933e-02
1.148318424820899963e-01
1.107555776834487915e-01
-9.397273510694503784e-02
6.313919275999069214e-02
1.064066439867019653e-01
-2.836600132286548615e-02
6.072724238038063049e-02
4.578632861375808716e-02
1.023771613836288452e-01
-1.089189318008720875e-03
7.508015725761651993e-03
-3.981109708547592163e-02
-1.603858731687068939e-02
5.141887441277503967e-02
-6.345169991254806519e-02
4.509413242340087891e-02
-8.168482035398483276e-02
6.740332394838333130e-02
5.766670778393745422e-02
2.122993394732475281e-02
8.474603295326232910e-02
-4.682267084717750549e-02
6.861443817615509033e-02
2.984732203185558319e-02
-1.238035634160041809e-01
1.439501792192459106e-01
-6.679245829582214355e-02
-1.447756588459014893e-02
-3.163095936179161072e-02
-5.740993074141442776e-04
-5.613853782415390015e-02
-9.912081807851791382e-02
-2.278731204569339752e-02
-9.764665737748146057e-03
-8.284469693899154663e-02
5.742926150560379028e-02
-8.429904282093048096e-02
4.849452525377273560e-02
-5.669343844056129456e-02
9.938684105873107910e-02
6.245350465178489685e-02
-5.949948355555534363e-02
-8.985368907451629639e-02
-2.895503863692283630e-02
2.680673077702522278e-02
-1.301222592592239380e-01
7.922130078077316284e-02
-2.651610970497131348e-02
6.974818557500839233e-02
8.765274286270141602e-02
6.789166480302810669e-02
1.812340877950191498e-02
1.108525842428207397e-01
-8.989421278238296509e-02
2.412005141377449036e-02
-2.341758087277412415e-02
-5.911237373948097229e-02
-3.637718781828880310e-02
-2.157583273947238922e-02
-9.047231823205947876e-02
1.094544604420661926e-01
6.508756428956985474e-02
5.459892377257347107e-02
5.699565634131431580e-02
5.416626483201980591e-02
-1.086786761879920959e-01
-1.127298176288604736e-01
2.859645709395408630e-02
7.177704572677612305e-02
-4.292220994830131531e-02
-8.247061818838119507e-02
-8.332617580890655518e-02
-8.132465183734893799e-02
-3.492764383554458618e-02
8.478722721338272095e-02
1.294394135475158691e-01
-4.186603054404258728e-02
6.018960103392601013e-02
-7.874654233455657959e-02
-2.837045118212699890e-02
9.022798389196395874e-02
3.559147939085960388e-02
-1.381596736609935760e-02
-1.059207767248153687e-01
9.656763821840286255e-02
-5.786621198058128357e-02
9.357251971960067749e-02
8.305753767490386963e-02
1.085244864225387573e-01
-5.811440292745828629e-03
-5.613141879439353943e-02
-1.257031597197055817e-02
-9.805168956518173218e-04
-7.809835951775312424e-03
-9.947901219129562378e-02
3.636917099356651306e-02
-8.600006997585296631e-02
7.365798950195312500e-02
1.193395480513572693e-01
5.758500844240188599e-02
-1.244612559676170349e-01
-2.710773982107639313e-02
-1.087277084589004517e-01
4.280000180006027222e-02
3.084607981145381927e-02
-1.107838377356529236e-01
1.234819665551185608e-01
-5.486772395670413971e-03
-7.562742382287979126e-02
-1.069188788533210754e-01
-8.494687825441360474e-02
-8.970450609922409058e-03
3.603439778089523315e-02
-6.221462413668632507e-02
-6.987496465444564819e-02
-4.344716668128967285e-02
-5.934784933924674988e-02
4.012821987271308899e-02
-3.690318390727043152e-02
-7.501794956624507904e-03
3.230929002165794373e-02
4.823691770434379578e-02
4.254777729511260986e-02
6.802188698202371597e-03
-1.374112814664840698e-01
-4.510465264320373535e-02
-8.342282474040985107e-02
-2.859328873455524445e-02
-5.597641691565513611e-02
1.227062642574310303e-01
-5.238919705152511597e-02
-1.065455451607704163e-01
-5.502310767769813538e-02
7.760755717754364014e-02
-8.166685700416564941e-02
8.498756587505340576e-02
1.188303381204605103e-01
4.765605553984642029e-02
1.044106557965278625e-01
3.904116153717041016e-02
3.031528182327747345e-02
-3.231968148611485958e-04
4.013433679938316345e-02
-2.548869885504245758e-02
7.220879197120666504e-02
5.934840440750122070e-02
-4.700341820716857910e-02
1.069459840655326843e-01
3.133327886462211609e-02
2.032892219722270966e-02
-1.836509630084037781e-02
9.328689426183700562e-02
8.378133177757263184e-02
7.423762232065200806e-02
1.030608266592025757e-01
-3.368134051561355591e-02
-7.578308135271072388e-02
-5.183610320091247559e-02
-1.363162789493799210e-02
-3.974368423223495483e-02
-2.599535696208477020e-02
-1.030810326337814331e-01
-3.780233860015869141e-02
-4.341821372509002686e-02
1.306996196508407593e-01
-9.959150105714797974e-02
-7.768899202346801758e-02
2.452316693961620331e-02
-5.702209193259477615e-03
-1.629440635442733765e-01
-6.535853445529937744e-02
2.716029249131679535e-02
-4.547629505395889282e-03
4.524775967001914978e-02
-3.604090586304664612e-02
3.446632251143455505e-02
4.532945528626441956e-02
-6.705125421285629272e-02
-3.162327781319618225e-02
-7.340677548199892044e-03
1.236610785126686096e-01
1.027408167719841003e-01
8.313337713479995728e-02
-1.340130437165498734e-02
-4.078591987490653992e-02
1.275374833494424820e-02
-4.141118377447128296e-02
6.684538908302783966e-03
1.178175136446952820e-01
1.031698435544967651e-01
-5.099492147564888000e-02
1.092132553458213806e-01
3.235124051570892334e-02
1.578802987933158875e-02
1.172250509262084961e-01
-4.037796333432197571e-02
6.266093999147415161e-02
5.323974043130874634e-02
-1.069853976368904114e-01
-4.184863343834877014e-02
1.126272901892662048e-01
8.630733937025070190e-02
3.967369440943002701e-03
3.461835207417607307e-03
-4.281027615070343018e-02
3.852486377581954002e-03
1.258091330528259277e-01
3.796993196010589600e-02
4.970689490437507629e-02
-1.783989742398262024e-02
-3.503666818141937256e-02
5.457047000527381897e-02
1.089241262525320053e-02
-1.186991110444068909e-01
1.144575476646423340e-01
5.187712609767913818e-02
-4.021494835615158081e-02
-1.115548908710479736e-01
-3.900121152400970459e-02
-9.922896325588226318e-02
2.449454739689826965e-02
-1.237391531467437744e-01
7.011312525719404221e-03
1.084510330110788345e-02
-6.609402596950531006e-02
-7.041659951210021973e-02
1.927869394421577454e-02
-8.829849958419799805e-02
-6.258162111043930054e-02
1.235768496990203857e-01
-9.727795422077178955e-02
-9.626777470111846924e-02
5.698807910084724426e-02
-5.798557028174400330e-02
-7.227518409490585327e-02
-5.967130139470100403e-02
-1.038919687271118164e-01
-5.685168132185935974e-02
4.123372584581375122e-02
5.802318453788757324e-02
-6.829378753900527954e-02
-1.316396594047546387e-01
9.266766905784606934e-02
-8.821629732847213745e-02
4.905390739440917969e-02
-1.092124581336975098e-01
1.296067535877227783e-01
1.208164244890213013e-01
3.713468462228775024e-02
5.905929207801818848e-02
7.664307951927185059e-02
-4.933867231011390686e-02
8.528389781713485718e-02
1.022920086979866028e-01
-7.746547460556030273e-02
-8.780004829168319702e-02
-1.113815829157829285e-01
5.632515624165534973e-02
-1.228758096694946289e-01
2.299496531486511230e-02
1.027615815401077271e-01
7.082752883434295654e-03
4.284091666340827942e-02
4.056913033127784729e-02
6.556498259305953979e-02
-1.123144552111625671e-01
2.208608388900756836e-02
-9.519490599632263184e-02
-6.492529809474945068e-02
-6.936734169721603394e-02
8.130159974098205566e-02
6.317432224750518799e-02
4.977715760469436646e-02
2.004037238657474518e-02
-5.695474147796630859e-02
1.670144870877265930e-02
-9.890767186880111694e-02
-1.249191686511039734e-01
-2.632839046418666840e-02
3.819349780678749084e-02
5.837100371718406677e-02
6.109543144702911377e-02
-3.828275948762893677e-02
3.045346587896347046e-02
-2.279506064951419830e-02
-2.320860698819160461e-02
3.506975620985031128e-02
7.674910128116607666e-02
8.755381405353546143e-02
1.071011871099472046e-01
-6.149851903319358826e-02
-4.301573336124420166e-02
-3.182062506675720215e-02
3.830767795443534851e-02
-9.549545496702194214e-02
9.836830198764801025e-02
6.815911084413528442e-02
7.174464315176010132e-02
-1.045892015099525452e-01
3.054338507354259491e-02
8.251345902681350708e-02
1.072906628251075745e-01
-9.096072614192962646e-02
1.223918050527572632e-01
-3.273108601570129395e-02
8.591318875551223755e-02
-1.039744764566421509e-01
2.325100079178810120e-02
1.605628281831741333e-01
-7.861888967454433441e-03
7.770938426256179810e-02
-1.463847048580646515e-02
-3.916166722774505615e-02
7.157050073146820068e-02
-3.268412873148918152e-02
2.288400381803512573e-02
4.301784932613372803e-02
-5.900062248110771179e-02
-1.666145399212837219e-02
-2.851607277989387512e-03
1.244777888059616089e-01
-1.278623845428228378e-02
1.354274246841669083e-02
7.661988586187362671e-02
-3.123345412313938141e-02
1.081945374608039856e-01
1.665949262678623199e-02
3.273871913552284241e-02
5.435683997347950935e-04
6.435856223106384277e-02
5.317993462085723877e-02
-4.778784886002540588e-02
9.979294985532760620e-02
3.147250413894653320e-02
5.077494308352470398e-02
2.441969141364097595e-02
3.145368024706840515e-02
-9.872504323720932007e-02
6.723440438508987427e-02
8.713106811046600342e-02
-1.790079288184642792e-02
2.428084146231412888e-03
-5.801241844892501831e-02
6.964363902807235718e-02
8.281378448009490967e-02
6.954453140497207642e-02
2.527648396790027618e-02
-8.099978417158126831e-02
-9.664237499237060547e-02
5.718420818448066711e-02
-3.146929666399955750e-02
-6.416305154561996460e-02
-6.765367090702056885e-02
1.604467630386352539e-01
6.160502880811691284e-02
1.093952506780624390e-01
-1.152040883898735046e-01
-3.026222996413707733e-02
-6.496448069810867310e-02
-4.174219816923141479e-02
5.293427780270576477e-02
9.159231930971145630e-02
9.688927233219146729e-02
3.186986967921257019e-02
4.397862032055854797e-02
2.477160841226577759e-02
8.262944221496582031e-02
5.252530053257942200e-02
3.455554321408271790e-02
6.002061441540718079e-02
5.757895763963460922e-03
-7.361354678869247437e-02
-9.453208744525909424e-02
-1.046970933675765991e-01
1.271618753671646118e-01
6.571156531572341919e-02
5.266386643052101135e-02
7.562410086393356323e-02
-8.760283887386322021e-02
-5.482999980449676514e-02
-7.068549096584320068e-02
-1.341671943664550781e-01
9.639243781566619873e-02
5.091676488518714905e-02
-3.267000615596771240e-02
-1.112176626920700073e-01
-1.005057767033576965e-01
-6.468636542558670044e-02
7.457970175892114639e-03
3.877096250653266907e-02
-1.736305654048919678e-02
6.846656650304794312e-02
-9.363191574811935425e-02
-1.332740038633346558e-01
-8.888021856546401978e-02
-1.357242614030838013e-01
-2.796309255063533783e-02
-8.247922360897064209e-02
7.467937469482421875e-02
-1.723654381930828094e-02
-2.001570910215377808e-02
5.045640468597412109e-02
-7.439044117927551270e-02
-6.693575531244277954e-02
-2.254577726125717163e-02
-9.219147264957427979e-03
2.949228975921869278e-03
4.613747447729110718e-02
6.536116451025009155e-02
4.015885666012763977e-02
9.965728223323822021e-02
8.528964221477508545e-02
-4.926493763923645020e-02
-1.961701363325119019e-02
-1.090848743915557861e-01
1.106808558106422424e-01
1.058706119656562805e-01
2.883662655949592590e-02
-1.970528624951839447e-02
-1.906826160848140717e-02
3.989132866263389587e-02
-1.569071225821971893e-02
1.338149653747677803e-03
1.016735509037971497e-01
-1.109911650419235229e-01
-4.725311417132616043e-03
4.625762999057769775e-02
-1.124522984027862549e-01
4.573355242609977722e-02
3.103322722017765045e-02
7.360801845788955688e-02
6.470131129026412964e-02
-1.008445322513580322e-01
-3.194757178425788879e-02
3.893134742975234985e-02
1.180080100893974304e-01
6.952492892742156982e-02
9.585803747177124023e-02
4.321037605404853821e-02
1.418036222457885742e-01
-3.589188307523727417e-02
6.521070748567581177e-02
9.893146902322769165e-02
-2.503068186342716217e-02
-9.509965777397155762e-02
1.300767809152603149e-01
-1.035092622041702271e-01
8.583232015371322632e-02
-8.945786952972412109e-02
2.398679405450820923e-02
1.404255162924528122e-02
5.508121848106384277e-02
6.905069202184677124e-02
-5.892812740057706833e-03
4.206860065460205078e-02
-9.378667920827865601e-02
1.867877878248691559e-02
-6.947603076696395874e-03
-6.280338764190673828e-02
9.774721413850784302e-02
8.012076839804649353e-03
1.291676890105009079e-02
-4.379104822874069214e-02
-1.155847832560539246e-01
-7.389024645090103149e-02
2.216670103371143341e-02
-2.178860455751419067e-02
-1.783910021185874939e-02
-3.469931334257125854e-02
-6.027159467339515686e-02
-3.175524622201919556e-02
-9.062930941581726074e-02
-2.673881314694881439e-02
-1.136279404163360596e-01
2.158370614051818848e-02
-7.157995551824569702e-02
6.931482255458831787e-02
9.915124624967575073e-02
-7.678732275962829590e-02
9.014038741588592529e-02
9.882254898548126221e-02
-1.131678372621536255e-01
7.429832965135574341e-02
6.908239424228668213e-02
-7.801986485719680786e-02
9.578158706426620483e-02
1.359186321496963501e-01
8.501662313938140869e-02
-8.700098842382431030e-02
1.047205477952957153e-01
-1.242534518241882324e-01
-3.180337371304631233e-03
3.927911445498466492e-02
4.390657693147659302e-02
1.176037415862083435e-01
5.530473962426185608e-02
-7.987074553966522217e-02
-9.552176296710968018e-02
-6.724297255277633667e-02
1.100653856992721558e-01
3.697786480188369751e-02
-1.191230677068233490e-02
-4.809983819723129272e-02
1.060028225183486938e-01
-5.590694770216941833e-02
2.928516129031777382e-03
9.676947444677352905e-02
6.082403287291526794e-02
7.648035883903503418e-02
-7.004782557487487793e-02
-9.323255717754364014e-02
-5.110020190477371216e-02
-6.653688102960586548e-02
4.548943787813186646e-02
-1.049549207091331482e-01
4.526964202523231506e-02
-3.573002666234970093e-02
7.062322646379470825e-02
1.119139343500137329e-01
1.326719224452972412e-01
1.016074270009994507e-01
-5.791334062814712524e-02
4.698925092816352844e-02
6.333106663078069687e-03
1.193238496780395508e-01
8.105073124170303345e-02
-9.442453086376190186e-02
-6.319263577461242676e-02
5.270308628678321838e-02
-3.776225820183753967e-02
1.304387766867876053e-02
-4.475660249590873718e-02
-9.817114472389221191e-02
8.500321954488754272e-02
7.976381108164787292e-03
-8.345818519592285156e-02
2.684621140360832214e-02
-6.059717014431953430e-02
5.863623321056365967e-02
1.285798400640487671e-01
-1.163859218358993530e-01
1.006773263216018677e-01
6.523295491933822632e-02
1.423494815826416016e-01
-7.404565066099166870e-02
-2.910458296537399292e-02
-5.714565515518188477e-02
7.994620501995086670e-02
4.929229989647865295e-02
-2.199303545057773590e-02
6.402793526649475098e-02
-7.860118150711059570e-02
-6.478322297334671021e-02
-5.055674910545349121e-02
-9.205526858568191528e-02
6.812305748462677002e-02
-6.911696493625640869e-02
5.058215558528900146e-02
8.795498311519622803e-02
6.651800125837326050e-02
6.952244043350219727e-02
6.827018409967422485e-02
-3.688970953226089478e-02
-4.381597042083740234e-02
9.530285745859146118e-02
6.668950617313385010e-02
4.919227212667465210e-03
2.678634226322174072e-02
9.126557409763336182e-02
3.328229859471321106e-02
-1.139438245445489883e-02
6.919149309396743774e-02
-1.134026981890201569e-02
-1.413935981690883636e-02
1.750303432345390320e-02
-3.164047375321388245e-02
-7.132785022258758545e-02
8.466152101755142212e-02
1.058887094259262085e-01
-5.521000176668167114e-02
-1.712311990559101105e-02
-9.584977477788925171e-02
-9.561521001160144806e-03
4.181253910064697266e-02
-1.521927118301391602e-01
6.526031345129013062e-02
-9.159867465496063232e-02
1.300661414861679077e-01
-1.992424204945564270e-02
5.473467707633972168e-02
-1.034292858093976974e-02
-6.299143284559249878e-02
-1.083583757281303406e-02
4.800156876444816589e-02
-8.893650770187377930e-02
-1.121005415916442871e-02
-1.003015264868736267e-01
-4.863053187727928162e-02
8.100361377000808716e-02
7.539115101099014282e-02
7.594339549541473389e-02
6.606428325176239014e-02
-1.054847911000251770e-01
9.724269062280654907e-02
-7.814358174800872803e-02
-1.239567101001739502e-01
1.156465336680412292e-01
1.315371841192245483e-01
-9.206388145685195923e-02
1.079863458871841431e-01
7.685532420873641968e-02
-1.905008964240550995e-02
9.593909978866577148e-02
-1.739537157118320465e-02
-1.103314943611621857e-02
5.383059382438659668e-02
6.102325767278671265e-02
-6.764104217290878296e-02
3.251295164227485657e-02
-6.522041559219360352e-02
1.133458316326141357e-01
4.285742528736591339e-03
9.896857663989067078e-03
-1.021716445684432983e-01
3.565972298383712769e-02
-1.389672514051198959e-03
1.346369385719299316e-01
-4.823085386306047440e-03
1.090930849313735962e-01
2.309843897819519043e-02
9.619976580142974854e-02
-1.147641912102699280e-01
1.334837824106216431e-02
7.117211818695068359e-02
-4.067758098244667053e-02
-7.964654266834259033e-02
-1.094293072819709778e-01
-8.614220470190048218e-02
-9.487054497003555298e-02
3.821360692381858826e-02
-1.942748576402664185e-02
-7.874577492475509644e-02
6.069811061024665833e-02
6.187651306390762329e-02
1.302655190229415894e-01
-4.029031470417976379e-02
-5.953188240528106689e-02
-1.493614912033081055e-01
1.023334637284278870e-01
-6.571086496114730835e-02
-3.497820347547531128e-02
-7.410877197980880737e-02
4.110834375023841858e-02
-1.430170834064483643e-01
1.003405749797821045e-01
1.504198368638753891e-02
-7.795099914073944092e-02
-4.621105268597602844e-02
1.154538244009017944e-02
-1.155691519379615784e-01
-1.151446178555488586e-01
1.820117793977260590e-02
-1.396835893392562866e-01
3.444876894354820251e-02
-1.089702174067497253e-01
1.268454734236001968e-02
-8.665890991687774658e-02
7.924128323793411255e-02
-8.344705216586589813e-03
1.113946363329887390e-01
1.471482403576374054e-02
6.070551648736000061e-02
-6.772167980670928955e-02
3.257231414318084717e-02
-4.150385782122612000e-02
4.211858659982681274e-02
-4.410618543624877930e-02
-5.023017991334199905e-03
-2.490477636456489563e-02
-1.266376674175262451e-01
4.829422011971473694e-02
-1.144113987684249878e-01
3.085151128470897675e-02
1.072900835424661636e-02
1.132990717887878418e-01
-3.768572583794593811e-02
-1.039158403873443604e-01
-2.169292978942394257e-02
2.460389211773872375e-02
-9.179748594760894775e-02
6.224133074283599854e-02
-3.373049199581146240e-02
1.047452837228775024e-01
-1.220103632658720016e-02
-4.371007531881332397e-02
-6.502909958362579346e-02
1.921511627733707428e-02
9.963811188936233521e-02
5.509444326162338257e-02
3.145821392536163330e-03
-4.661653935909271240e-02
3.802692145109176636e-02
-7.642353326082229614e-02
9.043735451996326447e-03
3.542029112577438354e-02
9.972222149372100830e-02
4.417036846280097961e-02
9.426283091306686401e-02
-3.716712817549705505e-02
3.208713978528976440e-02
4.925261810421943665e-02
6.544821709394454956e-02
-1.391271650791168213e-01
-9.753216803073883057e-02
1.128660365939140320e-01
-4.362580180168151855e-02
-2.452523075044155121e-02
1.207752227783203125e-01
7.774102687835693359e-02
-3.732313960790634155e-02
-8.741372078657150269e-02
1.015330255031585693e-01
2.678306959569454193e-02
4.324146360158920288e-02
-1.348427589982748032e-02
1.003691777586936951e-01
2.467770688235759735e-02
1.300795283168554306e-02
-1.023025587201118469e-01
3.228334011510014534e-03
-7.474659383296966553e-02
2.968284860253334045e-02
-1.054286509752273560e-01
1.027853190898895264e-01
5.514355748891830444e-02
2.961609140038490295e-02
9.938151389360427856e-02
4.327533394098281860e-02
1.034957170486450195e-01
4.440644383430480957e-02
-8.196718990802764893e-02
-2.151282504200935364e-02
4.442882537841796875e-02
5.053134262561798096e-02
4.458254575729370117e-02
-7.933414727449417114e-02
6.660121679306030273e-02
1.317438632249832153e-01
-4.074587300419807434e-02
-6.565237883478403091e-03
7.283587008714675903e-02
-7.206766307353973389e-02
1.260978728532791138e-01
1.264030188322067261e-01
8.855833858251571655e-02
1.133183836936950684e-01
5.476436018943786621e-02
-9.273076802492141724e-02
-1.063611432909965515e-01
-8.998665213584899902e-02
2.639122866094112396e-02
1.069033294916152954e-01
-1.112445592880249023e-01
1.133141741156578064e-01
9.562405198812484741e-02
-9.879572317004203796e-03
7.069156318902969360e-02
2.384415268898010254e-02
6.612802296876907349e-02
3.097884729504585266e-02
5.617953836917877197e-02
6.366316229104995728e-02
7.174737006425857544e-02
9.184703230857849121e-02
-1.008052006363868713e-01
8.721906691789627075e-02
-1.051829680800437927e-01
-2.706858329474925995e-02
-8.931891620159149170e-02
-1.292638927698135376e-01
-1.117049530148506165e-02
-8.114677667617797852e-02
-2.060952782630920410e-02
-4.487982392311096191e-02
6.866218149662017822e-02
-9.599932283163070679e-02
-1.462913304567337036e-02
1.073873266577720642e-01
9.915807284414768219e-03
-4.017444327473640442e-02
-3.306255117058753967e-02
1.075227037072181702e-01
7.347401976585388184e-02
-2.739467658102512360e-02
9.148911386728286743e-02
1.254848688840866089e-01
-5.255889520049095154e-02
-7.851866632699966431e-02
-8.578944206237792969e-02
4.008489102125167847e-02
8.811591565608978271e-02
1.367944329977035522e-01
6.535550951957702637e-02
1.030053347349166870e-01
-2.802514238283038139e-03
-9.500776976346969604e-02
1.349416822195053101e-01
-4.718045890331268311e-02
1.003550514578819275e-01
4.955966025590896606e-02
4.136670380830764771e-03
1.561037730425596237e-02
-4.354953765869140625e-02
1.034456342458724976e-01
-8.743085712194442749e-02
-6.646274775266647339e-02
4.614299535751342773e-02
1.148170307278633118e-01
1.062249913811683655e-01
-1.817315630614757538e-02
3.349502384662628174e-02
-8.099427074193954468e-02
2.983611822128295898e-02
-4.382934421300888062e-02
-5.587156116962432861e-02
-1.089654117822647095e-01
-5.587873980402946472e-02
1.065916940569877625e-01
2.338050678372383118e-02
6.459429115056991577e-02
2.381167374551296234e-02
-4.063612967729568481e-02
-8.945529907941818237e-02
9.692253172397613525e-02
7.235548645257949829e-02
-1.200401633977890015e-01
5.969885736703872681e-02
1.089688390493392944e-01
-8.238144963979721069e-02
1.575071364641189575e-02
-7.120262086391448975e-02
-3.547454252839088440e-02
1.200680509209632874e-01
-1.070688962936401367e-01
7.587894052267074585e-02
-1.920235902070999146e-02
-7.786453934386372566e-04
2.898963168263435364e-02
-5.417036265134811401e-02
1.066733673214912415e-01
-5.706600472331047058e-02
6.501377373933792114e-02
-1.627401798032224178e-03
1.072389706969261169e-01
-9.710678458213806152e-02
9.210410714149475098e-02
-1.254376303404569626e-02
-1.748299598693847656e-02
8.057098090648651123e-02
-9.353317320346832275e-02
-1.106419488787651062e-01
-1.035068836063146591e-02
2.117328532040119171e-02
-1.204746309667825699e-03
-1.069545671343803406e-01
8.105875551700592041e-02
1.018349826335906982e-01
4.208377376198768616e-02
-7.411158084869384766e-02
-9.350720793008804321e-02
-9.171718358993530273e-02
4.926938563585281372e-02
8.572033047676086426e-02
9.833376854658126831e-02
-5.404328554868698120e-02
-1.010013744235038757e-01
-6.601322442293167114e-02
-1.648992416448891163e-03
4.528854414820671082e-02
-1.419690251350402832e-01
2.982146805152297020e-03
-7.740249484777450562e-02
-8.298992365598678589e-02
-1.490722596645355225e-02
5.891852546483278275e-03
-1.047467291355133057e-01
6.070347502827644348e-03
8.047230541706085205e-02
8.250258117914199829e-02
-2.579231373965740204e-02
9.519963711500167847e-02
1.153004541993141174e-01
4.339485988020896912e-02
-4.875378310680389404e-02
-9.660287201404571533e-02
9.751833230257034302e-02
1.080880612134933472e-01
4.366871342062950134e-02
9.318675845861434937e-02
-3.020902909338474274e-02
1.811315491795539856e-02
1.952359266579151154e-02
9.098649024963378906e-02
-4.311123117804527283e-02
3.458789363503456116e-02
-1.931962370872497559e-02
-1.056088358163833618e-01
2.674272283911705017e-03
-1.106544956564903259e-02
-8.826225250959396362e-02
4.882774502038955688e-02
-1.441368311643600464e-01
-7.185720652341842651e-02
-5.498996376991271973e-02
-9.638831019401550293e-02
1.204382181167602539e-01
-8.308827131986618042e-02
-6.589982658624649048e-02
3.935346007347106934e-02
6.895481795072555542e-02
4.702522978186607361e-02
1.877166517078876495e-02
-5.512821674346923828e-02
-1.396032283082604408e-03
2.374099940061569214e-02
-7.363724056631326675e-03
-6.334251165390014648e-02
-3.442883864045143127e-02
-5.894020572304725647e-02
9.287711232900619507e-02
-7.066605240106582642e-02
1.063420996069908142e-01
-1.123969405889511108e-01
-6.475810706615447998e-02
6.500741094350814819e-02
-9.531413763761520386e-02
6.035370379686355591e-02
-1.197258755564689636e-01
-4.993331618607044220e-03
6.760782003402709961e-02
-4.743662849068641663e-02
-7.994739711284637451e-02
2.645196579396724701e-02
-4.605710040777921677e-03
6.386068463325500488e-02
6.568285170942544937e-03
-7.465877383947372437e-02
-9.166188538074493408e-02
5.504745244979858398e-02
5.530494078993797302e-02
5.568919703364372253e-02
-3.415429592132568359e-02
7.306843996047973633e-02
6.387398391962051392e-02
-8.644390851259231567e-02
-2.427451871335506439e-02
-3.955140709877014160e-02
1.739631779491901398e-02
6.660614162683486938e-03
2.784354984760284424e-02
1.110666841268539429e-01
4.830706398934125900e-03
1.228811889886856079e-01
-4.292530566453933716e-02
1.104160994291305542e-01
-5.235413834452629089e-02
7.845170050859451294e-02
-1.039002016186714172e-01
-7.247440516948699951e-02
-1.131499484181404114e-01
3.130094707012176514e-02
4.714567214250564575e-02
-9.611291438341140747e-02
1.279626935720443726e-01
-7.111079990863800049e-02
1.049098074436187744e-01
-5.213965103030204773e-02
9.075030684471130371e-02
2.164198085665702820e-02
-4.024924244731664658e-03
9.321903437376022339e-02
3.956330195069313049e-02
5.047598108649253845e-02
-7.827059179544448853e-02
4.726236313581466675e-02
3.251476585865020752e-02
2.268715947866439819e-02
2.877138368785381317e-02
2.530747465789318085e-02
-7.126359641551971436e-02
1.121786423027515411e-02
6.542116403579711914e-02
-1.204632297158241272e-01
-1.546881999820470810e-02
1.047500874847173691e-02
5.990662053227424622e-02
-5.647040158510208130e-02
1.499275416135787964e-01
-2.029598224908113480e-03
1.270836442708969116e-01
-2.623654715716838837e-02
-6.738849729299545288e-02
1.313201058655977249e-02
1.009472832083702087e-01
2.212338708341121674e-02
-1.112111359834671021e-01
1.033581495285034180e-01
6.181927397847175598e-02
-3.306483477354049683e-02
1.207412406802177429e-01
1.192809268832206726e-01
-7.746422290802001953e-02
1.077607944607734680e-01
-9.769006818532943726e-02
-1.651119068264961243e-02
6.184982880949974060e-02
1.121060773730278015e-01
-4.816019535064697266e-02
1.051715835928916931e-01
-4.523651674389839172e-02
-4.419072717428207397e-02
4.637048766016960144e-02
7.281432300806045532e-02
-1.319245062768459320e-02
2.560383290983736515e-04
6.445515155792236328e-02
-1.887535862624645233e-02
1.305922213941812515e-02
-5.578588694334030151e-02
-3.304990381002426147e-02
2.752467803657054901e-02
-2.210846543312072754e-02
3.017813898622989655e-02
1.273987442255020142e-01
4.983616992831230164e-02
4.775652661919593811e-02
6.904624402523040771e-02
-8.084131032228469849e-02
-9.859115630388259888e-02
4.288179427385330200e-02
1.165108531713485718e-01
1.912806369364261627e-02
1.158430501818656921e-01
2.761558815836906433e-02
8.763429522514343262e-02
-8.465615659952163696e-02
5.799137428402900696e-02
2.049559727311134338e-02
-8.182523399591445923e-02
-4.289532080292701721e-02
2.063171565532684326e-02
5.082150548696517944e-02
1.867772894911468029e-03
5.334747210144996643e-02
-1.082658488303422928e-02
4.653072357177734375e-02
6.154360994696617126e-02
5.143433809280395508e-02
-8.854667842388153076e-02
6.959784030914306641e-02
-5.175641179084777832e-02
-8.308521658182144165e-02
-8.798748254776000977e-02
4.930043965578079224e-02
-1.013225018978118896e-01
-9.966550022363662720e-02
7.514766603708267212e-02
1.745721139013767242e-02
-1.053898483514785767e-01
1.033416390419006348e-01
5.428590252995491028e-02
1.177914068102836609e-02
5.515939369797706604e-02
-1.021296810358762741e-02
9.560608118772506714e-02
-8.161729574203491211e-02
4.889936000108718872e-02
-8.633992820978164673e-02
-1.190273836255073547e-01
-1.099114045500755310e-01
-8.409584872424602509e-03
-3.131692484021186829e-02
-1.156978085637092590e-01
-8.909791707992553711e-02
8.133164793252944946e-02
5.064339190721511841e-02
1.179519742727279663e-01
-6.228284537792205811e-02
-3.195364400744438171e-02
-4.936949163675308228e-02
-1.405434403568506241e-02
1.002642586827278137e-01
5.105390399694442749e-02
-1.095705851912498474e-01
2.608015388250350952e-02
6.650143116712570190e-02
-2.676203101873397827e-02
-1.396591309458017349e-02
-2.385484799742698669e-02
3.476107493042945862e-02
9.935899078845977783e-02
-8.984891325235366821e-02
-1.164048537611961365e-01
-9.959895163774490356e-02
8.202464133501052856e-02
6.585771683603525162e-03
5.841336026787757874e-02
-1.040018126368522644e-01
5.198919028043746948e-02
-2.770302817225456238e-02
9.138119965791702271e-02
-6.042166799306869507e-02
-7.277814298868179321e-02
4.015114158391952515e-02
-3.999776393175125122e-02
9.966477006673812866e-02
1.384453568607568741e-02
3.167719766497612000e-02
-1.148046404123306274e-01
9.290958195924758911e-02
-6.166582554578781128e-02
7.246487587690353394e-02
-8.294913172721862793e-02
-6.404025480151176453e-03
-1.189726963639259338e-01
5.893185362219810486e-02
2.532101050019264221e-02
7.976944558322429657e-03
8.856926113367080688e-02
9.754945337772369385e-02
5.277752131223678589e-02
-5.596901103854179382e-02
1.066497415304183960e-01
-4.472910612821578979e-02
2.917513810098171234e-02
-7.566796988248825073e-02
4.538365826010704041e-02
-7.517288625240325928e-02
6.716113537549972534e-02
-1.103085726499557495e-01
6.892888247966766357e-02
-4.691004287451505661e-03
-2.355601266026496887e-02
-9.739837050437927246e-02
9.062061458826065063e-02
9.842665493488311768e-02
-8.589668571949005127e-02
-9.696234017610549927e-02
-9.568025171756744385e-02
7.325528562068939209e-02
6.871356070041656494e-02
9.607032686471939087e-02
9.662949293851852417e-02
2.861167117953300476e-02
1.162421703338623047e-01
1.247397959232330322e-01
2.919819438830018044e-03
2.566068433225154877e-02
-4.567075893282890320e-02
-4.746478423476219177e-02
1.250726282596588135e-01
-1.028719320893287659e-01
8.104319870471954346e-02
5.405470728874206543e-02
8.316800743341445923e-02
-7.915387302637100220e-02
-9.145972877740859985e-02
-8.658072352409362793e-02
6.849851459264755249e-02
3.024177812039852142e-02
-9.323351085186004639e-03
1.274456083774566650e-01
1.785465702414512634e-02
4.275001958012580872e-02
1.092125400900840759e-01
9.767735004425048828e-02
9.103125333786010742e-02
1.569698937237262726e-02
1.002258360385894775e-01
6.915410980582237244e-03
4.636757075786590576e-02
-1.258469969034194946e-01
-1.008434742689132690e-01
2.527378126978874207e-02
-4.014912620186805725e-02
3.994291275739669800e-02
-1.004136055707931519e-01
1.176428198814392090e-01
3.122832812368869781e-02
1.243286021053791046e-02
-7.218391448259353638e-02
-1.167919114232063293e-01
1.315151005983352661e-01
-8.928299695253372192e-02
9.825823456048965454e-02
-6.524042785167694092e-02
1.160572320222854614e-01
4.621795564889907837e-02
3.586703911423683167e-02
8.250611275434494019e-02
9.601052105426788330e-02
3.779446706175804138e-02
-5.204568430781364441e-02
-8.684139698743820190e-02
4.838025942444801331e-02
-2.362259104847908020e-02
-2.887512929737567902e-02
2.375479973852634430e-02
9.815461933612823486e-02
-1.030109897255897522e-01
3.392930328845977783e-02
2.382829412817955017e-02
3.094111382961273193e-02
-2.945011481642723083e-03
1.052773073315620422e-01
-3.330915048718452454e-02
4.583584144711494446e-02
-1.106456294655799866e-01
2.309925481677055359e-02
3.077761828899383545e-02
8.594994246959686279e-02
9.890667349100112915e-02
-6.876263022422790527e-02
-7.365606259554624557e-03
6.203477829694747925e-02
-4.447090998291969299e-02
7.995372265577316284e-02
9.320406243205070496e-03
-8.627273142337799072e-02
4.058896750211715698e-02
-4.338480532169342041e-02
3.633667156100273132e-02
1.246430277824401855e-01
-8.759394288063049316e-02
-4.867402836680412292e-02
-9.056387096643447876e-02
6.350744049996137619e-03
4.991002753376960754e-02
1.024675741791725159e-01
2.972479723393917084e-02
1.201357543468475342e-01
-1.097684651613235474e-01
-5.578031763434410095e-02
1.018623635172843933e-01
-4.879031702876091003e-02
-1.180283874273300171e-01
-1.171001940965652466e-01
-9.721414744853973389e-02
-1.331253442913293839e-02
6.676291674375534058e-02
9.499828517436981201e-02
1.495393738150596619e-02
-1.261447742581367493e-02
1.016688346862792969e-02
-9.661711007356643677e-02
8.103558211587369442e-04
-1.219739392399787903e-02
1.018955707550048828e-01
-3.066454268991947174e-02
-3.659909218549728394e-02
-7.900091260671615601e-02
-1.200560480356216431e-01
1.227266490459442139e-01
-9.494463354349136353e-02
8.438963443040847778e-02
-1.308107972145080566e-01
5.666631087660789490e-02
4.216305911540985107e-02
1.228727623820304871e-01
-3.612632304430007935e-02
-5.357803404331207275e-02
-9.172953665256500244e-02
-8.846362680196762085e-02
-1.072488501667976379e-01
5.085615813732147217e-02
-7.401594892144203186e-03
-9.066159278154373169e-02
-7.190686464309692383e-02
2.392402291297912598e-02
-8.390440046787261963e-02
-1.038120537996292114e-01
6.019673869013786316e-02
7.029394805431365967e-02
-4.131968016736209393e-04
4.986966401338577271e-02
1.188707649707794189e-01
-5.628431960940361023e-02
1.337946802377700806e-01
4.919682070612907410e-02
-1.065372973680496216e-01
7.451985031366348267e-02
6.722793728113174438e-02
-8.945663459599018097e-03
9.070665389299392700e-02
7.192963361740112305e-02
-6.401640363037586212e-03
-1.251704897731542587e-02
7.694657146930694580e-02
-3.380129113793373108e-02
-3.577399998903274536e-02
2.176726795732975006e-02
-9.940545260906219482e-02
-3.073221258819103241e-02
1.170684322714805603e-01
1.449934905394911766e-03
-1.046325042843818665e-01
3.497909009456634521e-02
-6.192462891340255737e-02
-4.830014333128929138e-02
-8.430650085210800171e-02
1.095654442906379700e-01
-6.315677613019943237e-02
-1.236627157777547836e-02
1.218396984040737152e-02
3.467012569308280945e-02
5.531328916549682617e-02
6.016773730516433716e-02
9.083724021911621094e-02
1.804680679924786091e-03
-4.206378757953643799e-02
7.348131388425827026e-02
1.191099360585212708e-01
-4.040528088808059692e-02
7.504126429557800293e-02
-1.536915637552738190e-02
1.082934364676475525e-01
-1.179311126470565796e-01
-9.156105667352676392e-02
6.463416665792465210e-02
-9.489451535046100616e-03
-2.669181488454341888e-02
-1.173055320978164673e-01
1.253678351640701294e-01
-1.122875064611434937e-01
-4.862176720052957535e-03
-9.501278400421142578e-02
7.295361906290054321e-02
-7.802443206310272217e-02
-8.783634006977081299e-02
7.386537268757820129e-03
-7.987694442272186279e-02
-2.998019196093082428e-02
-5.227528139948844910e-02
8.644613623619079590e-02
4.722462967038154602e-02
8.112100511789321899e-02
6.259682122617959976e-03
-4.651366919279098511e-02
-7.289151847362518311e-02
-4.411694034934043884e-02
7.423775643110275269e-02
8.164133131504058838e-02
-1.260254532098770142e-01
-4.461872950196266174e-02
4.805549234151840210e-02
9.451704472303390503e-02
-1.766920834779739380e-02
2.987274900078773499e-03
-2.740096673369407654e-02
-8.602466550655663013e-05
5.694787204265594482e-02
-4.817684646695852280e-03
3.949728608131408691e-02
1.160408556461334229e-01
-9.295385330915451050e-02
-4.622710496187210083e-02
4.437049105763435364e-02
-1.248185858130455017e-01
-1.109792962670326233e-01
1.013316661119461060e-01
6.293418258428573608e-02
-9.608353674411773682e-02
-7.166015356779098511e-02
2.952872402966022491e-02
1.067034080624580383e-01
-1.868901588022708893e-02
-3.157205134630203247e-02
1.009461954236030579e-01
2.693694829940795898e-02
9.290930628776550293e-02
4.078029096126556396e-02
-1.375632584095001221e-01
-4.552017152309417725e-02
1.313839107751846313e-01
3.163818269968032837e-03
8.921254426240921021e-02
1.216973513364791870e-01
-4.318913817405700684e-02
-5.595839582383632660e-03
5.550257861614227295e-02
7.937394082546234131e-02
-1.479585468769073486e-01
9.594184905290603638e-02
-8.280103653669357300e-02
-9.166415035724639893e-02
-9.828104078769683838e-02
9.039983153343200684e-03
3.209568560123443604e-02
8.252016454935073853e-02
2.020793408155441284e-02
2.477940544486045837e-02
4.138585925102233887e-02
4.214075580239295959e-02
1.060193553566932678e-01
-1.082407683134078979e-02
-7.275343872606754303e-03
-9.183114394545555115e-03
1.313339918851852417e-02
5.143577978014945984e-02
-2.857550745829939842e-03
1.033299043774604797e-01
4.139371588826179504e-02
-7.445894181728363037e-02
2.012710832059383392e-02
2.191106555983424187e-03
-9.182641655206680298e-02
-2.670164965093135834e-02
-7.519515696913003922e-03
9.782832860946655273e-02
1.180669758468866348e-02
-5.532651394605636597e-02
1.199006587266921997e-01
-1.155697107315063477e-01
7.403770834207534790e-02
-9.434851817786693573e-03
3.249580040574073792e-02
1.182570084929466248e-01
1.037785112857818604e-01
9.603221714496612549e-02
7.352933287620544434e-02
-8.227258175611495972e-02
1.353153884410858154e-01
6.354241818189620972e-02
-8.865924179553985596e-02
1.082487255334854126e-01
8.582332730293273926e-02
7.220635563135147095e-02
-2.541918121278285980e-02
-1.923437789082527161e-02
2.931924245785921812e-04
1.456264853477478027e-01
-1.042769402265548706e-01
-1.370671093463897705e-01
-8.010709285736083984e-02
4.654834419488906860e-02
-7.866887748241424561e-02
3.011963889002799988e-02
3.040198795497417450e-02
-6.968838721513748169e-02
-4.628672823309898376e-02
8.547423779964447021e-02
-5.218483880162239075e-02
9.884098172187805176e-02
1.170048043131828308e-01
3.564362972974777222e-02
-1.192941144108772278e-01
-5.951925367116928101e-02
-2.602705545723438263e-02
-8.540421724319458008e-02
-9.987131506204605103e-02
-1.259717345237731934e-01
-6.824630498886108398e-02
9.737502038478851318e-02
-5.471136048436164856e-02
-6.379043310880661011e-02
8.771780878305435181e-02
-1.018105894327163696e-01
5.247577652335166931e-02
-3.846528753638267517e-02
1.479393057525157928e-02
-9.791254252195358276e-02
1.139541715383529663e-01
-1.311894133687019348e-02
6.497141718864440918e-02
-5.626001209020614624e-02
1.075203344225883484e-01
9.160453826189041138e-02
-1.196787208318710327e-01
1.034173443913459778e-01
-1.073504313826560974e-01
8.925187587738037109e-02
9.749466925859451294e-02
7.475990802049636841e-02
6.545709818601608276e-02
-1.010775566101074219e-01
-1.056833844631910324e-02
1.358326524496078491e-02
1.006300076842308044e-01
-3.940931987017393112e-03
-3.958885371685028076e-02
-6.601598113775253296e-02
6.507397443056106567e-02
-4.608002677559852600e-02
9.741387516260147095e-02
-6.834261119365692139e-02
-1.644875481724739075e-02
-6.421465892344713211e-03
1.014869958162307739e-01
-1.305028945207595825e-01
-1.127395778894424438e-01
-1.003673225641250610e-01
-5.676764622330665588e-02
-5.611408874392509460e-02
-1.237033531069755554e-01
4.740064963698387146e-02
-1.048036962747573853e-01
9.888359159231185913e-02
-9.438372403383255005e-02
-1.151501536369323730e-01
-9.834443777799606323e-02
-6.462752819061279297e-02
-6.830636411905288696e-03
8.576918393373489380e-02
6.569420546293258667e-02
-8.937609940767288208e-02
7.852917164564132690e-02
1.288165450096130371e-01
-5.462305620312690735e-02
7.324054837226867676e-02
-1.240377798676490784e-01
-3.652175515890121460e-02
-7.851733267307281494e-02
-1.380965765565633774e-02
-2.868160977959632874e-02
-1.096620187163352966e-01
-1.275495886802673340e-01
8.562604337930679321e-02
-8.321613073348999023e-02
7.240372151136398315e-02
2.893645688891410828e-02
7.087022066116333008e-02
-1.240992769598960876e-01
-4.462216049432754517e-02
1.061567738652229309e-01
6.002172455191612244e-02
-6.587102264165878296e-02
9.648304432630538940e-02
-3.020999766886234283e-02
6.895139068365097046e-02
-7.166638970375061035e-02
-1.564184902235865593e-03
-5.083975195884704590e-02
-7.160790264606475830e-02
7.727442774921655655e-03
-8.186347782611846924e-03
-2.221785299479961395e-02
-4.394839704036712646e-02
-6.714915484189987183e-02
1.427364535629749298e-02
-5.301808938384056091e-02
5.360476300120353699e-02
7.700874656438827515e-02
-8.240529149770736694e-02
-4.681644961237907410e-02
-1.283036321401596069e-01
-3.984338790178298950e-02
7.405591756105422974e-02
1.045574396848678589e-01
-4.523794353008270264e-02
3.303989022970199585e-02
4.137075319886207581e-02
-4.006612300872802734e-02
-6.329869478940963745e-02
-1.409497018903493881e-02
-1.239618733525276184e-01
-2.008403278887271881e-02
-5.011741816997528076e-02
2.072680927813053131e-02
-1.337416470050811768e-01
1.081370785832405090e-01
-3.588443156331777573e-03
-5.594244226813316345e-02
2.663699537515640259e-02
-1.247128322720527649e-01
-1.175140663981437683e-01
-1.973570510745048523e-02
4.108696430921554565e-02
6.572332233190536499e-02
8.505915105342864990e-02
-1.012187674641609192e-01
-1.755630946718156338e-04
1.770521327853202820e-02
-6.865113973617553711e-02
1.692053489387035370e-02
-1.875093951821327209e-02
-4.008449241518974304e-02
9.492380917072296143e-02
-1.406762003898620605e-02
6.529526412487030029e-02
1.047550663352012634e-01
5.068115517497062683e-02
-1.066431403160095215e-01
-3.965784981846809387e-02
1.068681925535202026e-01
-2.052163146436214447e-02
1.192771550267934799e-02
-7.972307503223419189e-02
-3.271298855543136597e-02
-5.655210092663764954e-02
-8.078198134899139404e-02
7.306852936744689941e-02
1.516792643815279007e-02
-8.297992497682571411e-02
-5.165364593267440796e-02
9.780905395746231079e-02
1.701496541500091553e-02
9.829439967870712280e-02
-7.401604950428009033e-02
-1.143640056252479553e-01
-9.699121117591857910e-02
1.082716658711433411e-01
-3.545248508453369141e-02
6.646674871444702148e-02
5.432439595460891724e-02
5.752652511000633240e-02
2.553987503051757812e-02
-8.500735461711883545e-02
-1.013707071542739868e-01
-1.246708780527114868e-01
-1.256861388683319092e-01
-3.268598765134811401e-02
-7.845573872327804565e-02
-7.819421589374542236e-02
-1.095146760344505310e-01
2.615525946021080017e-02
3.413207456469535828e-02
-3.572726249694824219e-02
6.045226473361253738e-03
9.767214208841323853e-02
-1.196609288454055786e-01
1.044329553842544556e-01
2.271576039493083954e-02
-1.091101169586181641e-01
-1.086104959249496460e-01
8.813644200563430786e-02
7.277876883745193481e-02
-3.819009661674499512e-02
-4.049844667315483093e-02
-1.127208769321441650e-01
1.948800496757030487e-02
7.056833058595657349e-02
5.299334414303302765e-03
-2.060431241989135742e-02
-2.231084927916526794e-02
-7.216744124889373779e-02
5.409283563494682312e-03
5.290827248245477676e-03
-7.582577411085367203e-03
-6.474062800407409668e-02
-7.873368263244628906e-02
6.627794355154037476e-02
4.048109054565429688e-02
-1.966396532952785492e-02
7.250967621803283691e-02
-1.441065371036529541e-01
-4.210891574621200562e-02
4.712899401783943176e-02
4.758216813206672668e-02
4.866064339876174927e-02
-7.975993305444717407e-02
5.682503804564476013e-03
3.428293392062187195e-02
-5.058762058615684509e-02
-1.437801960855722427e-02
-3.066348843276500702e-02
-1.116800159215927124e-01
-8.434968441724777222e-02
1.025763303041458130e-01
1.660026051104068756e-02
1.105219200253486633e-01
9.605006128549575806e-02
-8.148086257278919220e-03
-4.497400671243667603e-02
7.032971084117889404e-02
-5.775688588619232178e-02
1.468360074795782566e-03
1.012148410081863403e-01
4.778208211064338684e-02
-1.557929366827011108e-01
-2.244887873530387878e-02
-4.530100151896476746e-02
1.137519106268882751e-01
-8.303651213645935059e-02
5.238288268446922302e-02
6.249888986349105835e-02
-3.482294827699661255e-02
-7.657127827405929565e-02
2.397804893553256989e-02
-7.257390767335891724e-02
1.974157430231571198e-02
-4.245367646217346191e-02
-5.514961481094360352e-02
8.331739157438278198e-02
-1.011162325739860535e-01
5.224735662341117859e-02
5.946023389697074890e-02
-7.627237122505903244e-03
-3.901076689362525940e-02
5.724466964602470398e-02
-6.975828856229782104e-02
-8.266346901655197144e-02
7.343702763319015503e-02
-3.389266133308410645e-02
8.965247124433517456e-02
3.481750190258026123e-02
4.231915250420570374e-02
-6.725065410137176514e-02
7.602564990520477295e-02
1.098010390996932983e-01
-5.560155212879180908e-02
-5.152875930070877075e-02
6.699282675981521606e-02
-1.998462900519371033e-02
9.418518282473087311e-03
-1.284242887049913406e-02
4.340174421668052673e-02
-6.908871978521347046e-02
-1.415606122463941574e-02
2.349507994949817657e-02
1.188229471445083618e-01
-4.354476556181907654e-02
-4.253011196851730347e-02
1.233962252736091614e-01
-3.818600624799728394e-02
-4.470044001936912537e-02
5.223045125603675842e-02
1.151600480079650879e-01
3.498123213648796082e-02
1.184890940785408020e-01
2.030579745769500732e-02
-5.663742870092391968e-02
-1.138975843787193298e-01
-8.863535523414611816e-02
-8.204015344381332397e-02
-6.127778906375169754e-03
-3.793124109506607056e-02
-1.940673775970935822e-02
-1.831074059009552002e-02
8.772010356187820435e-02
2.377519011497497559e-02
-9.607908129692077637e-02
-2.107930369675159454e-02
7.365916669368743896e-02
7.509429007768630981e-02
1.200610697269439697e-01
9.689787030220031738e-02
3.360020369291305542e-02
4.302354156970977783e-02
4.373846575617790222e-03
-1.172193735837936401e-01
-9.220658242702484131e-02
-5.877960938960313797e-03
8.482872694730758667e-02
1.122612580657005310e-01
4.053747653961181641e-02
-7.063820213079452515e-02
-5.322442576289176941e-02
1.159327849745750427e-01
2.255641669034957886e-02
-9.563150256872177124e-02
6.208664551377296448e-02
1.176150664687156677e-01
-2.728284522891044617e-02
-7.574234157800674438e-02
1.024999991059303284e-01
3.098419122397899628e-02
-1.145374625921249390e-01
1.274604052305221558e-01
-5.962244048714637756e-02
-5.841661617159843445e-02
-4.088981077075004578e-02
-5.507404729723930359e-02
-8.587426692247390747e-02
-1.183225587010383606e-01
-5.224764347076416016e-02
-8.822909742593765259e-02
-9.942349791526794434e-02
7.310765981674194336e-02
-2.243875339627265930e-02
1.037992313504219055e-01
-6.920501589775085449e-02
7.677607983350753784e-02
8.177423477172851562e-02
3.235953161492943764e-03
9.675900638103485107e-02
1.162815317511558533e-01
2.386708557605743408e-02
-1.072029396891593933e-01
2.333739772439002991e-02
-6.921835988759994507e-02
-1.014812756329774857e-02
-9.788805246353149414e-02
-8.516319841146469116e-02
-1.986535452306270599e-02
-1.318146102130413055e-02
-3.664007782936096191e-02
-3.790536895394325256e-02
5.878503620624542236e-02
-8.768784999847412109e-02
5.335305631160736084e-02
1.038413047790527344e-01
9.050996601581573486e-02
-3.313833475112915039e-02
-9.767905622720718384e-02
-9.721271693706512451e-02
-2.933725155889987946e-02
7.293498516082763672e-02
1.008049473166465759e-01
6.081111729145050049e-02
7.284610718488693237e-02
3.579268231987953186e-02
-3.089209273457527161e-02
7.681944966316223145e-02
1.167311817407608032e-01
1.744906418025493622e-02
-8.438511192798614502e-02
-9.007275849580764771e-02
6.253258883953094482e-02
-9.745186567306518555e-02
9.781794250011444092e-02
-5.886567384004592896e-02
-4.969724640250205994e-02
-3.315859287977218628e-02
-5.688035860657691956e-02
7.562544941902160645e-02
-4.094866663217544556e-02
1.126783788204193115e-01
5.102951452136039734e-02
-1.091251671314239502e-01
-7.995968312025070190e-02
2.126681059598922729e-02
1.071134880185127258e-01
-8.221773803234100342e-02
1.109654679894447327e-01
-5.340004712343215942e-02
7.991722971200942993e-02
-5.386511608958244324e-02
-1.279456317424774170e-01
-5.498138070106506348e-02
-5.687028542160987854e-02
-1.136175692081451416e-01
-9.561991691589355469e-02
6.449311971664428711e-02
-1.171952337026596069e-01
1.043419912457466125e-01
1.460966467857360840e-01
-1.566115915775299072e-01
-8.010226488113403320e-02
5.292381346225738525e-02
-1.589458063244819641e-02
-2.258829027414321899e-02
-6.208583340048789978e-02
1.143362149596214294e-01
1.032073572278022766e-01
4.958880320191383362e-02
-6.137928739190101624e-02
-3.885916899889707565e-03
-2.021554112434387207e-02
2.774784713983535767e-02
2.437305636703968048e-02
-1.123787462711334229e-02
-1.024355143308639526e-01
-2.833069488406181335e-02
-3.501305123791098595e-03
5.590009968727827072e-03
2.981397556141018867e-03
9.602215141057968140e-02
-3.291149809956550598e-02
-9.046124666929244995e-02
-4.378430545330047607e-02
-1.119334474205970764e-01
9.883026778697967529e-02
1.307725906372070312e-01
8.862523734569549561e-02
1.687599718570709229e-02
-1.414001286029815674e-01
-1.446699723601341248e-02
-9.536236524581909180e-03
9.280630201101303101e-02
-1.260909736156463623e-01
7.861912995576858521e-02
5.474117770791053772e-02
3.591643646359443665e-02
8.686226606369018555e-02
8.964533358812332153e-02
-2.392567321658134460e-02
1.395312398672103882e-01
-6.830883026123046875e-02
-9.864699840545654297e-02
-8.145430684089660645e-02
5.096254870295524597e-02
-4.279799014329910278e-02
1.005157008767127991e-01
-6.919284164905548096e-02
2.588737569749355316e-02
1.063561588525772095e-01
-7.091829180717468262e-02
-1.270165890455245972e-01
3.176113963127136230e-02
-1.166027784347534180e-01
1.172697544097900391e-02
-9.812691062688827515e-02
8.994525671005249023e-02
-2.717244066298007965e-02
1.052996516227722168e-01
-2.339925244450569153e-02
-1.256632804870605469e-01
6.853218376636505127e-02
-4.149938747286796570e-02
-5.494779348373413086e-02
6.343086063861846924e-02
2.687799930572509766e-02
-9.707144647836685181e-02
-9.453584998846054077e-02
-1.058955863118171692e-02
-3.198283724486827850e-03
-7.995239645242691040e-02
-5.298781208693981171e-03
1.137215867638587952e-01
9.991899877786636353e-02
-2.652377076447010040e-02
7.681749016046524048e-02
6.463523209095001221e-02
8.337780088186264038e-02
9.947730600833892822e-02
5.063318461179733276e-02
-9.924111515283584595e-02
1.830265484750270844e-02
-5.210954323410987854e-02
6.855267286300659180e-02
-6.595755368471145630e-02
4.206690564751625061e-02
-2.877062000334262848e-02
4.194130003452301025e-02
-1.062642484903335571e-01
1.003164052963256836e-01
1.678474806249141693e-02
6.300928443670272827e-02
-1.018843278288841248e-01
3.717136755585670471e-02
-8.630772680044174194e-02
1.168307140469551086e-01
1.012181639671325684e-01
4.761116951704025269e-02
7.548473775386810303e-02
-9.703637659549713135e-02
6.881622225046157837e-02
3.849222883582115173e-02
3.861538693308830261e-02
-7.022204250097274780e-02
-8.040153235197067261e-02
1.238952204585075378e-02
-1.494895201176404953e-02
1.291349381208419800e-01
-9.963444620370864868e-02
8.534542471170425415e-02
1.554634049534797668e-02
-1.913728751242160797e-02
-1.701826602220535278e-02
1.126522645354270935e-01
-9.216133505105972290e-02
2.283939905464649200e-02
5.923350900411605835e-02
6.111431494355201721e-02
-9.117589890956878662e-02
-7.459412515163421631e-02
6.933322548866271973e-02
1.027746424078941345e-01
1.228141710162162781e-01
1.261822283267974854e-01
2.865490503609180450e-02
-1.118990927934646606e-01
3.503905236721038818e-02
-3.859094530344009399e-02
1.048565879464149475e-01
7.257707417011260986e-02
6.725548207759857178e-02
8.338735252618789673e-02
9.278109669685363770e-02
7.854885607957839966e-02
1.246583387255668640e-01
2.346194349229335785e-02
7.994209229946136475e-02
4.160007089376449585e-02
-1.844831369817256927e-02
3.013413026928901672e-02
1.560819242149591446e-02
-1.331161111593246460e-01
3.283467888832092285e-02
-1.113792359828948975e-01
1.093286573886871338e-01
-8.848720788955688477e-02
-3.425535187125205994e-02
-3.588172793388366699e-02
-4.911466315388679504e-02
8.433630317449569702e-02
2.140740863978862762e-03
-8.708849549293518066e-02
-8.987927436828613281e-02
-3.634400293231010437e-02
1.050916686654090881e-01
-6.966736912727355957e-02
5.464725941419601440e-02
-2.490035071969032288e-02
6.484177708625793457e-02
-3.696612268686294556e-02
1.147787198424339294e-01
-4.184521734714508057e-03
-3.424370661377906799e-02
4.412072896957397461e-02
-1.325904428958892822e-01
6.192649155855178833e-02
6.672119349241256714e-02
5.092481151223182678e-02
-9.660023450851440430e-02
1.460660845041275024e-01
4.398149624466896057e-02
7.594479620456695557e-02
5.591488257050514221e-02
1.347427368164062500e-01
1.075906008481979370e-01
1.905715838074684143e-02
-1.641943963477388024e-04
3.507081419229507446e-02
-2.315914630889892578e-02
5.403040722012519836e-02
9.312751889228820801e-02
8.449540287256240845e-02
-6.209452822804450989e-02
1.912252418696880341e-02
3.061115369200706482e-02
-6.144011020660400391e-02
-1.274066269397735596e-01
-6.444168090820312500e-02
-8.798173069953918457e-02
-8.017007261514663696e-02
2.388851903378963470e-02
-1.044329181313514709e-01
-1.150832027196884155e-01
-1.223706975579261780e-01
-7.445653527975082397e-02
6.536841392517089844e-02
-1.158040538430213928e-01
5.728579312562942505e-02
-4.144338890910148621e-02
-1.047587245702743530e-01
6.773425638675689697e-02
3.414091095328330994e-02
-1.061125248670578003e-01
-1.784660271368920803e-03
-1.478721108287572861e-02
-1.180381104350090027e-01
-6.579884141683578491e-02
9.443859755992889404e-02
7.645099423825740814e-03
4.254539497196674347e-03
7.372475415468215942e-02
-1.287649273872375488e-01
-5.348024144768714905e-02
3.643085435032844543e-02
8.856513537466526031e-03
3.216024488210678101e-02
9.177542477846145630e-02
-1.463056635111570358e-02
-2.045809105038642883e-02
-6.661115214228630066e-03
2.701040916144847870e-02
-1.352549344301223755e-01
-3.357656300067901611e-02
-1.042840033769607544e-01
-5.461494252085685730e-02
-5.907163023948669434e-02
1.520300097763538361e-02
-3.012522123754024506e-02
6.652495265007019043e-02
5.981481447815895081e-02
-7.046578824520111084e-02
1.353796124458312988e-01
-1.031068712472915649e-01
5.098856613039970398e-02
3.084622696042060852e-02
8.599409461021423340e-02
-4.650861956179141998e-03
3.424075618386268616e-02
5.981720238924026489e-02
-7.055421173572540283e-02
-4.624648392200469971e-02
3.075404651463031769e-02
1.947211287915706635e-02
1.501267999410629272e-01
-1.003119051456451416e-01
-3.364793211221694946e-02
1.116852909326553345e-01
8.453668095171451569e-03
3.021402843296527863e-02
-9.495514631271362305e-02
4.017445445060729980e-02
8.960785344243049622e-03
-7.173465192317962646e-02
-3.702643886208534241e-02
-2.242920361459255219e-02
1.060238500940613449e-04
3.236992284655570984e-02
7.421176135540008545e-02
-1.063223257660865784e-01
1.010693758726119995e-01
-7.582257688045501709e-02
5.174130201339721680e-02
-1.341454833745956421e-01
5.946238711476325989e-02
-2.343085221946239471e-02
3.299937769770622253e-02
2.819584868848323822e-02
4.660377278923988342e-02
-1.335065905004739761e-02
-5.545130372047424316e-02
-2.691938914358615875e-02
8.002167940139770508e-02
7.340176962316036224e-03
8.811747282743453979e-02
2.646001800894737244e-02
-1.032411307096481323e-01
-6.705888360738754272e-02
8.990483731031417847e-02
8.084339089691638947e-03
3.564612567424774170e-02
-1.246312633156776428e-01
-4.284663125872612000e-02
-6.785720586776733398e-02
-4.369024187326431274e-02
1.353587657213211060e-01
6.086856499314308167e-02
-1.086545828729867935e-02
6.763890385627746582e-02
-7.318304479122161865e-02
-2.125399187207221985e-02
3.288512676954269409e-02
-1.238999813795089722e-01
6.762117892503738403e-02
1.553105656057596207e-02
-1.230737864971160889e-01
-7.966458797454833984e-02
2.339656837284564972e-02
-5.054254457354545593e-02
-8.259268105030059814e-02
9.749237447977066040e-02
1.249590236693620682e-02
-5.912873521447181702e-02
8.608996868133544922e-02
-6.224466487765312195e-02
3.241706639528274536e-02
1.003012359142303467e-01
3.642054274678230286e-03
-1.022016163915395737e-02
1.037188991904258728e-01
-6.266986578702926636e-02
1.014674901962280273e-01
-8.635636419057846069e-02
2.296220138669013977e-02
5.720864236354827881e-02
8.092726767063140869e-02
-4.097397625446319580e-02
-3.481626883149147034e-02
-1.219750642776489258e-01
-5.676644295454025269e-02
-2.904472872614860535e-02
3.395055606961250305e-02
5.769713968038558960e-02
-5.720754154026508331e-03
1.286668120883405209e-03
-5.058387294411659241e-02
8.012775331735610962e-02
-7.405047863721847534e-02
-4.423280805349349976e-02
-2.374456636607646942e-02
-8.186856657266616821e-02
-1.161303464323282242e-02
-6.553191691637039185e-02
-4.921761527657508850e-02
1.075425446033477783e-01
4.449820518493652344e-02
1.129394248127937317e-01
-8.509439229965209961e-02
8.632078766822814941e-02
1.198052838444709778e-01
9.519009292125701904e-02
-2.715104818344116211e-02
-4.572216048836708069e-02
3.640329837799072266e-02
9.961529821157455444e-02
-8.736504614353179932e-02
-3.781342133879661560e-02
4.850583150982856750e-02
-1.066924724727869034e-02
-5.041649192571640015e-02
2.691111154854297638e-02
-1.040115654468536377e-01
-4.925654083490371704e-02
1.232355609536170959e-01
-3.512768074870109558e-02
-1.256005372852087021e-02
-1.148038730025291443e-01
1.211820915341377258e-01
-8.568406105041503906e-02
-1.235214769840240479e-01
-3.674973919987678528e-02
4.973104968667030334e-02
-8.024021983146667480e-02
9.762447327375411987e-02
1.122863665223121643e-01
-4.000421613454818726e-02
7.249038666486740112e-02
1.096014156937599182e-01
1.758210174739360809e-02
4.100662469863891602e-02
6.087176129221916199e-02
-5.599047243595123291e-02
-1.265735924243927002e-01
3.085550852119922638e-02
-2.497814781963825226e-02
1.118546053767204285e-01
-1.080619543790817261e-01
1.047310605645179749e-01
-1.347066368907690048e-02
-1.329120248556137085e-01
-7.027893513441085815e-02
-1.304922103881835938e-01
9.764674119651317596e-03
1.505147945135831833e-02
9.510263055562973022e-02
-1.308733671903610229e-01
-1.202102899551391602e-01
-2.856838516891002655e-02
9.206895530223846436e-02
3.777033463120460510e-02
-3.165860101580619812e-02
6.837745010852813721e-02
7.883058488368988037e-02
8.399388939142227173e-02
9.633110463619232178e-02
7.079180330038070679e-02
7.824288308620452881e-02
-1.170895472168922424e-01
3.051579743623733521e-02
-6.244355812668800354e-02
1.098380014300346375e-01
7.406639307737350464e-02
-8.215773105621337891e-02
5.585977435111999512e-02
1.247933357954025269e-01
-6.704234331846237183e-02
1.022374816238880157e-02
-1.374427378177642822e-01
5.722211673855781555e-02
-5.565687641501426697e-02
-9.047623723745346069e-02
-1.554088294506072998e-02
-2.146438322961330414e-02
6.983886659145355225e-02
7.402133196592330933e-02
-1.009137034416198730e-01
-5.977211892604827881e-02
-1.234900578856468201e-01
2.373014949262142181e-02
-8.284730836749076843e-03
8.343270048499107361e-03
5.059863626956939697e-02
-7.707335799932479858e-02
8.476245403289794922e-02
-1.179726645350456238e-01
1.011174917221069336e-01
8.544445037841796875e-02
-6.489593535661697388e-02
-9.233244508504867554e-02
6.128849927335977554e-03
-9.633921086788177490e-02
-7.638611644506454468e-02
-1.073829308152198792e-01
3.802619874477386475e-02
-4.008720070123672485e-02
-8.593494072556495667e-03
9.753160178661346436e-02
5.650210380554199219e-02
-5.659556016325950623e-02
4.200267791748046875e-02
-6.656765192747116089e-02
9.597039967775344849e-02
-1.363758444786071777e-01
6.861779093742370605e-02
-2.475726604461669922e-02
2.282615937292575836e-02
3.950279578566551208e-02
8.171448856592178345e-02
-6.242710351943969727e-02
