-3.386526554822921753e-02
-2.205908857285976410e-02
-8.345616981387138367e-03
-2.983977645635604858e-02
-1.902925595641136169e-02
3.336021676659584045e-02
-5.182175338268280029e-02
3.195178508758544922e-02
4.315509647130966187e-02
4.282958805561065674e-03
4.391447454690933228e-02
4.079871624708175659e-02
-2.773072943091392517e-02
-4.041366279125213623e-03
-1.599614135921001434e-02
3.039016202092170715e-02
3.809800604358315468e-03
-2.193330414593219757e-02
-7.801232486963272095e-02
-1.626634038984775543e-02
-2.693577110767364502e-02
-7.343352586030960083e-02
-2.137991972267627716e-02
-4.223640635609626770e-02
-2.995103038847446442e-02
-9.145587682723999023e-03
3.571833483874797821e-03
1.240350399166345596e-02
-2.033229358494281769e-02
-2.220959588885307312e-02
-2.676398679614067078e-02
-1.397540140897035599e-02
-6.505179218947887421e-03
8.239795453846454620e-03
-5.368683487176895142e-02
2.103105373680591583e-02
-6.241396442055702209e-02
-4.169815406203269958e-02
-7.803874462842941284e-02
9.057252667844295502e-03
1.302852993831038475e-03
2.416906505823135376e-02
-3.087671240791678429e-03
-5.258819437585771084e-04
1.284723170101642609e-02
-8.355995640158653259e-03
-1.888850890100002289e-02
-1.035833731293678284e-02
-4.006372764706611633e-02
-4.267098382115364075e-03
1.288542151451110840e-02
-9.480688720941543579e-03
-1.438603363931179047e-02
3.979280218482017517e-02
5.625650286674499512e-02
1.003683079034090042e-03
4.732615128159523010e-02
1.049538515508174896e-02
3.201623912900686264e-03
-1.827308908104896545e-02
6.940123159438371658e-03
3.171401331201195717e-04
-1.255253329873085022e-02
-5.011444166302680969e-02
1.212497707456350327e-02
5.105799529701471329e-03
-4.666743054986000061e-02
-6.964273285120725632e-03
4.438282549381256104e-02
-3.155492246150970459e-02
6.157736293971538544e-03
-3.161492571234703064e-02
9.699967689812183380e-03
-1.034322660416364670e-02
1.394753344357013702e-02
1.557298749685287476e-02
-4.389135912060737610e-02
1.033112127333879471e-02
-4.143512994050979614e-02
1.309444289654493332e-02
2.312199212610721588e-02
-5.086374934762716293e-03
5.592267960309982300e-03
1.200055051594972610e-02
2.226437442004680634e-02
6.404917687177658081e-03
7.204618887044489384e-04
5.140561982989311218e-02
-3.801921382546424866e-02
4.112308099865913391e-02
-6.735762953758239746e-02
-4.369360953569412231e-02
-1.488986052572727203e-02
2.241184934973716736e-02
7.777300477027893066e-02
-2.026274055242538452e-02
-7.321597076952457428e-03
-3.548485785722732544e-02
-3.273018077015876770e-02
1.560161728411912918e-02
-3.457871964201331139e-03
1.246705558151006699e-02
-5.219485610723495483e-03
-2.097036130726337433e-02
-4.845651984214782715e-02
-5.110317468643188477e-02
6.655588280409574509e-03
-1.987281255424022675e-02
3.903837874531745911e-02
-6.490585207939147949e-02
-3.467546030879020691e-02
-3.182864189147949219e-02
3.087069466710090637e-02
8.236066438257694244e-03
1.565179601311683655e-02
-1.713262870907783508e-03
4.479444120079278946e-03
1.128735579550266266e-02
1.305879000574350357e-02
-1.404030621051788330e-02
-1.811083219945430756e-02
-1.540842093527317047e-02
-2.785858884453773499e-02
-4.403171595185995102e-03
3.448907658457756042e-02
7.314509712159633636e-03
6.112221162766218185e-03
8.054826408624649048e-02
