-1.450818032026290894e-02
1.104894001036882401e-02
-1.682359911501407623e-02
-1.943366602063179016e-02
2.409941516816616058e-02
-6.431970279663801193e-03
1.601817831397056580e-02
-4.000055487267673016e-04
-4.722360055893659592e-03
-1.086527016013860703e-02
-2.257928811013698578e-02
-9.010799840325489640e-05
4.315775353461503983e-03
3.089461475610733032e-03
2.045009657740592957e-02
-1.425756886601448059e-02
-1.187805086374282837e-02
-1.886851340532302856e-02
7.074543740600347519e-03
-1.820402033627033234e-02
-3.092544339597225189e-02
-2.851362153887748718e-02
7.456730119884014130e-03
9.758029133081436157e-03
-2.226210571825504303e-02
-6.752810440957546234e-03
-1.788102276623249054e-02
-1.979102939367294312e-02
1.220313599333167076e-03
-9.444269235245883465e-04
-1.416565477848052979e-02
-1.892757043242454529e-02
-9.222618304193019867e-03
8.386944420635700226e-03
3.393378853797912598e-02
-1.781303994357585907e-02
-2.623844146728515625e-02
1.526590669527649879e-03
2.000806154683232307e-03
1.889066072180867195e-03
2.681748569011688232e-02
-1.731262914836406708e-02
-1.565808616578578949e-02
-3.729844465851783752e-02
-5.265661049634218216e-03
-3.557411255314946175e-03
-4.618536215275526047e-03
-4.863993730396032333e-03
-3.987579140812158585e-03
1.837611780501902103e-03
-1.107646524906158447e-02
-8.893324993550777435e-03
8.649860508739948273e-03
-1.913931034505367279e-02
-3.481224644929170609e-03
5.061856471002101898e-03
-2.062919549643993378e-02
2.867545466870069504e-03
-1.221252419054508209e-02
7.773749530315399170e-03
-6.934669218026101589e-04
-8.619303815066814423e-03
-8.070580661296844482e-04
2.511588390916585922e-03
