5.514856576919555664e-01
5.406404137611389160e-01
-4.286108314990997314e-01
-9.129246324300765991e-02
-3.143314421176910400e-01
8.116546273231506348e-02
3.426370024681091309e-01
1.575932204723358154e-01
2.244041413068771362e-01
3.988452553749084473e-01
-1.270938664674758911e-01
-4.363672435283660889e-01
6.865480542182922363e-02
-5.055680498480796814e-02
-5.641027092933654785e-01
4.618158042430877686e-01
-1.477042585611343384e-01
4.463924765586853027e-01
-5.064939856529235840e-01
-4.442014694213867188e-01
2.109302580356597900e-01
4.141459763050079346e-01
-5.514058470726013184e-01
-2.514877617359161377e-01
-2.962738871574401855e-01
2.462692372500896454e-02
1.806959062814712524e-01
-4.423988461494445801e-01
-1.989502906799316406e-01
4.919972419738769531e-01
-4.191200435161590576e-01
-2.801462411880493164e-01
-2.015419602394104004e-01
-3.598807752132415771e-01
-1.250242739915847778e-01
-7.317034155130386353e-02
1.584045439958572388e-01
5.655217766761779785e-01
2.681275829672813416e-02
1.105480492115020752e-01
4.998994767665863037e-01
-2.682809531688690186e-01
4.071246087551116943e-01
2.713812887668609619e-01
-1.834199428558349609e-01
-1.125606521964073181e-01
-2.834118306636810303e-01
5.373170971870422363e-01
3.949215710163116455e-01
1.871232241392135620e-01
1.040644794702529907e-01
-1.823966354131698608e-01
-4.534208476543426514e-01
4.749169945716857910e-01
5.725852251052856445e-01
-1.029837951064109802e-01
-3.504997491836547852e-01
4.160404205322265625e-02
-1.712114363908767700e-01
-7.252204418182373047e-02
5.607858896255493164e-01
-1.805982440710067749e-01
1.592479646205902100e-01
3.559131175279617310e-02
