7.183725386857986450e-02
1.167626380920410156e-01
3.568455949425697327e-02
1.660896092653274536e-02
2.891255915164947510e-02
7.292564213275909424e-02
-3.908463940024375916e-02
-2.547311969101428986e-02
-5.822692532092332840e-03
5.951366573572158813e-02
7.898801565170288086e-02
-1.245651766657829285e-01
5.511303432285785675e-03
-2.970924787223339081e-02
-7.942322641611099243e-03
7.551384717226028442e-02
-9.873097389936447144e-02
6.925105117261409760e-03
5.857525393366813660e-02
-3.184558078646659851e-02
-1.058155298233032227e-01
-3.211580589413642883e-02
-1.004601866006851196e-01
1.158324033021926880e-01
2.410280052572488785e-03
-5.250837653875350952e-02
3.806741908192634583e-02
-1.120672747492790222e-01
3.044701367616653442e-02
-7.080311328172683716e-02
9.342467039823532104e-02
1.173861473798751831e-01
7.401154190301895142e-02
1.047111824154853821e-01
-4.390740394592285156e-02
-4.845194146037101746e-02
-9.026652574539184570e-02
-6.028102338314056396e-02
4.905189387500286102e-03
8.249948173761367798e-02
-1.982863619923591614e-02
-1.594521664083003998e-02
-9.380421601235866547e-03
9.875984489917755127e-02
9.341327846050262451e-02
5.352836102247238159e-02
1.210476681590080261e-01
-3.041942603886127472e-02
3.212461620569229126e-02
-1.283307075500488281e-01
-6.830476224422454834e-02
-3.988961875438690186e-02
3.506988659501075745e-02
-1.439473219215869904e-02
-1.311099380254745483e-01
7.536380086094141006e-03
-4.920503497123718262e-02
1.108072623610496521e-01
-3.828729270026087761e-03
-3.593585640192031860e-02
1.602071523666381836e-02
-8.127820678055286407e-03
-1.644410379230976105e-02
-2.172343805432319641e-02
-1.320699811913073063e-03
-8.901222050189971924e-02
-2.523667924106121063e-02
-9.343861788511276245e-02
-6.610760837793350220e-02
5.689993128180503845e-02
1.199978515505790710e-01
-8.989813178777694702e-02
1.273097097873687744e-01
5.129009485244750977e-02
8.806631714105606079e-02
5.257557332515716553e-02
9.918517619371414185e-02
1.229607090353965759e-01
-5.953455716371536255e-02
-6.407926976680755615e-02
-7.923639565706253052e-02
6.020934134721755981e-02
1.111160591244697571e-02
-1.911209151148796082e-02
8.250066637992858887e-02
-6.232918798923492432e-02
1.072489172220230103e-01
-7.841384410858154297e-02
1.037544086575508118e-01
-5.423020105808973312e-03
1.317103058099746704e-01
1.114573851227760315e-01
-3.831220045685768127e-02
-4.324175417423248291e-02
8.199780434370040894e-02
-4.375823587179183960e-02
-2.456182800233364105e-02
-1.995020778849720955e-03
-3.166056051850318909e-02
2.702710591256618500e-02
-7.883372157812118530e-02
-2.198239602148532867e-02
-3.760303184390068054e-02
-2.386820130050182343e-02
9.119288623332977295e-02
-5.419117584824562073e-02
-2.966880425810813904e-02
7.046540081501007080e-02
8.279560506343841553e-02
-8.595973998308181763e-02
7.878955453634262085e-02
1.216759234666824341e-01
-8.108927309513092041e-02
5.432629212737083435e-02
-4.544986039400100708e-02
-5.547133460640907288e-02
-5.524030327796936035e-02
1.126682385802268982e-01
2.672870270907878876e-02
5.663835629820823669e-02
-1.821548119187355042e-02
7.202005386352539062e-02
-1.128036305308341980e-01
-9.771246463060379028e-02
-6.726465374231338501e-02
8.047999441623687744e-02
-2.086654677987098694e-02
1.287318170070648193e-01
1.149493269622325897e-03
2.636879868805408478e-02
3.880942706018686295e-03
-1.165425106883049011e-01
9.026882797479629517e-02
-5.198509618639945984e-02
-8.865062892436981201e-02
5.298921093344688416e-02
1.074165627360343933e-01
1.902251504361629486e-02
-1.026461571455001831e-01
4.934382811188697815e-02
2.792173298075795174e-03
-9.211079776287078857e-02
-1.111626699566841125e-01
-3.647410497069358826e-02
-6.479164212942123413e-02
-4.689089581370353699e-02
3.796228766441345215e-02
-7.665785402059555054e-02
-8.359584026038646698e-03
-8.806426078081130981e-02
-1.423457288183271885e-03
1.166171804070472717e-01
-4.052093252539634705e-02
-4.003211855888366699e-02
3.565047681331634521e-02
-9.860491752624511719e-02
4.679802805185317993e-03
8.459345251321792603e-02
-2.330072596669197083e-02
-8.350277692079544067e-02
6.609850376844406128e-02
2.954859659075737000e-02
-7.201427221298217773e-02
-7.763763517141342163e-02
1.004362031817436218e-01
-1.356965303421020508e-01
-1.455705463886260986e-01
2.441867254674434662e-02
-6.986233592033386230e-02
-9.434393048286437988e-02
-8.314144797623157501e-04
-2.576420828700065613e-02
-9.058932960033416748e-02
-2.046949788928031921e-02
-9.464959800243377686e-02
5.928226932883262634e-02
-4.615976661443710327e-02
-4.485777020454406738e-02
9.985306113958358765e-02
-1.052998304367065430e-01
8.685047738254070282e-03
7.313652336597442627e-02
1.037572976201772690e-03
1.050360426306724548e-01
7.605616748332977295e-02
-8.528414368629455566e-02
-6.451991945505142212e-02
6.970955431461334229e-02
9.069913066923618317e-04
6.469975411891937256e-02
8.687499910593032837e-03
8.583063259720802307e-03
-1.004953384399414062e-01
8.613851666450500488e-02
-3.712765639647841454e-03
2.773959375917911530e-02
-9.703404456377029419e-02
1.328649818897247314e-01
-9.849420189857482910e-02
9.739650785923004150e-02
-3.934119269251823425e-02
8.917073160409927368e-02
-3.308774903416633606e-03
1.209423393011093140e-01
-1.000196710228919983e-01
-7.618138194084167480e-02
-4.091216623783111572e-02
1.020568050444126129e-02
9.052979946136474609e-02
-5.116763338446617126e-02
-7.749742269515991211e-02
-4.635699838399887085e-02
-4.293953254818916321e-02
-8.836384117603302002e-02
1.075333654880523682e-01
-1.021426264196634293e-02
4.348624125123023987e-02
1.120016649365425110e-01
2.268698252737522125e-02
9.557294845581054688e-02
3.797120600938796997e-02
-1.675706240348517895e-03
-4.471099749207496643e-02
9.628657251596450806e-02
3.353273123502731323e-02
1.139715686440467834e-01
-2.733222022652626038e-02
1.530477218329906464e-02
-9.336748719215393066e-02
-1.155507713556289673e-01
-3.901242837309837341e-02
8.431332558393478394e-02
2.080997638404369354e-02
4.183873161673545837e-02
6.545109301805496216e-02
-6.430819630622863770e-02
-5.054511129856109619e-02
5.916211009025573730e-02
3.052736073732376099e-02
-1.271062493324279785e-01
9.189517796039581299e-02
5.455711483955383301e-02
-3.723822999745607376e-03
1.107845827937126160e-01
8.079324662685394287e-02
1.102786958217620850e-01
4.164766147732734680e-02
8.280769735574722290e-02
-7.187373936176300049e-02
4.054560791701078415e-03
-6.660254299640655518e-02
6.268288195133209229e-02
9.319220483303070068e-02
1.837116479873657227e-02
7.103977352380752563e-02
5.525816604495048523e-02
2.216946147382259369e-02
6.225629895925521851e-02
1.055428758263587952e-01
-1.354945003986358643e-01
-4.201085865497589111e-02
-1.250035911798477173e-01
-6.158313248306512833e-03
-8.911844342947006226e-02
1.139266192913055420e-01
9.905214607715606689e-02
8.079923689365386963e-02
-8.249234408140182495e-02
1.325400639325380325e-02
-5.262243002653121948e-02
2.287421084474772215e-04
1.955760456621646881e-02
4.748584330081939697e-02
-2.784546278417110443e-02
9.544660896062850952e-02
2.528864145278930664e-02
-8.273173123598098755e-02
-1.121231466531753540e-01
9.454034268856048584e-02
1.740083447657525539e-03
4.788722470402717590e-02
9.304802864789962769e-02
1.107825711369514465e-01
-5.483592301607131958e-02
-3.473366051912307739e-02
5.039767548441886902e-02
-3.814179450273513794e-02
5.478138104081153870e-02
1.071105711162090302e-03
-6.959521770477294922e-02
-7.822301238775253296e-02
-4.622101411223411560e-02
7.601742446422576904e-02
6.978590786457061768e-02
1.496210880577564240e-02
-1.195887178182601929e-01
6.432121247053146362e-02
1.040757223963737488e-01
1.013340726494789124e-01
2.141928300261497498e-02
6.373324990272521973e-02
1.018637195229530334e-01
1.114259734749794006e-01
-2.394093573093414307e-02
-1.225849390029907227e-01
-9.217949956655502319e-02
5.147204175591468811e-02
-6.824452430009841919e-02
6.929374486207962036e-02
-7.857187837362289429e-02
-7.874119281768798828e-02
-1.001841202378273010e-01
7.629483938217163086e-02
1.096165105700492859e-01
-5.462338030338287354e-02
-1.064201891422271729e-01
1.210881322622299194e-01
1.014650911092758179e-01
9.791719168424606323e-02
-8.979295939207077026e-02
8.267375826835632324e-02
-5.127942562103271484e-02
9.197057038545608521e-02
-3.049455117434263229e-03
-1.949442364275455475e-02
-6.428866088390350342e-02
6.676041334867477417e-02
-6.797382235527038574e-02
-3.112778533250093460e-03
9.827485680580139160e-02
3.222770616412162781e-02
1.270125657320022583e-01
5.728205293416976929e-02
3.732525557279586792e-02
-7.512181997299194336e-02
3.177003562450408936e-02
1.235939748585224152e-02
9.066578745841979980e-02
-2.971160784363746643e-02
9.059003740549087524e-02
-1.228140369057655334e-01
4.429193586111068726e-02
-7.512065023183822632e-02
1.143908128142356873e-01
1.352442242205142975e-02
7.257858663797378540e-02
-4.186667874455451965e-02
1.181235015392303467e-01
-2.737077698111534119e-02
9.535279124975204468e-02
-1.020770296454429626e-01
-4.857624415308237076e-03
-2.596415765583515167e-02
-1.033879444003105164e-01
-5.668322741985321045e-02
-1.669055409729480743e-02
-7.973268628120422363e-02
-1.229205206036567688e-01
1.644382998347282410e-02
5.968742072582244873e-02
1.005716845393180847e-01
-8.982035517692565918e-02
9.582947939634323120e-02
4.591187089681625366e-02
8.860770612955093384e-02
-2.832551859319210052e-02
6.684685498476028442e-02
-5.902969837188720703e-02
-9.518243372440338135e-02
6.412722170352935791e-02
-1.082423180341720581e-01
-9.708679467439651489e-02
-2.619947120547294617e-02
9.274592250585556030e-02
8.104905486106872559e-02
-1.960041001439094543e-02
5.452755838632583618e-02
3.647190704941749573e-02
3.879036381840705872e-02
5.373423546552658081e-02
1.274262070655822754e-01
-1.161731332540512085e-01
-3.215456753969192505e-02
2.139185555279254913e-02
1.103887856006622314e-01
-6.546958535909652710e-02
-1.392743885517120361e-01
1.031352356076240540e-01
1.043575257062911987e-01
-1.129429936408996582e-01
1.690812292508780956e-03
-3.682998567819595337e-02
-7.126981019973754883e-02
-6.367155164480209351e-02
4.189241304993629456e-02
-9.872830659151077271e-02
2.568341046571731567e-02
1.180691868066787720e-01
-7.793609797954559326e-02
3.715550526976585388e-02
-3.021944500505924225e-02
4.759008437395095825e-02
-1.785694248974323273e-02
4.306613933295011520e-03
-1.156078279018402100e-01
-4.936359822750091553e-02
7.948131859302520752e-02
-6.221689656376838684e-02
7.784195244312286377e-02
-1.049029827117919922e-02
-2.788396552205085754e-02
-1.019687354564666748e-01
1.166160702705383301e-01
7.271265238523483276e-02
-2.527598477900028229e-02
-1.764811016619205475e-02
4.411704465746879578e-02
-2.306860871613025665e-02
-1.040963158011436462e-01
4.512064158916473389e-02
2.715654671192169189e-02
4.913906380534172058e-02
-2.026057429611682892e-02
-9.377644397318363190e-03
-5.896037071943283081e-02
-1.169857103377580643e-03
1.397842913866043091e-01
4.308722913265228271e-02
8.065501600503921509e-02
6.661812961101531982e-02
-1.010448187589645386e-01
7.391341775655746460e-02
-8.481726399622857571e-04
-5.736323073506355286e-02
-1.142217963933944702e-01
-5.543844029307365417e-02
1.701005548238754272e-02
-1.369284186512231827e-02
9.898219257593154907e-02
-4.136050119996070862e-02
-8.769698441028594971e-02
4.774531349539756775e-02
-6.108221411705017090e-02
-5.939540266990661621e-02
-1.011817976832389832e-01
1.322071999311447144e-01
-1.753232441842556000e-02
5.612622201442718506e-02
8.656507730484008789e-02
-5.465850606560707092e-02
6.736618280410766602e-02
1.154117733240127563e-01
4.838055465370416641e-04
1.849252916872501373e-02
-3.146510943770408630e-02
-1.177892759442329407e-01
-9.623593091964721680e-02
-3.761688247323036194e-02
-8.838236331939697266e-02
-6.586464494466781616e-02
9.475899487733840942e-02
-7.877238839864730835e-02
-1.206101570278406143e-02
-1.242099180817604065e-01
-1.041926518082618713e-01
8.010541647672653198e-02
7.402131706476211548e-02
-3.609309718012809753e-02
-2.043093368411064148e-02
-7.431837171316146851e-02
5.773819983005523682e-02
5.366875603795051575e-02
9.910622239112854004e-02
-5.738820135593414307e-02
1.099821031093597412e-01
-6.593751162290573120e-02
3.958696871995925903e-02
-9.874217957258224487e-02
-5.393261089920997620e-02
-9.630499035120010376e-02
1.257094293832778931e-01
1.631809026002883911e-02
6.912466138601303101e-02
-1.023007929325103760e-01
6.691098958253860474e-02
-4.912739153951406479e-03
-1.138130761682987213e-02
8.168865740299224854e-02
-2.861553104594349861e-03
9.013774991035461426e-02
8.400901407003402710e-02
-9.539552778005599976e-02
9.756396710872650146e-02
1.074682325124740601e-01
-1.621998846530914307e-02
-3.094864450395107269e-02
-3.596343845129013062e-02
1.201924681663513184e-02
1.209708824753761292e-01
3.949444368481636047e-02
-6.936068087816238403e-02
-1.687314733862876892e-02
-4.407488927245140076e-02
-5.814778804779052734e-02
-8.638481795787811279e-02
-9.599468111991882324e-02
6.253584474325180054e-02
-4.196967557072639465e-02
2.159240283071994781e-02
5.790827050805091858e-02
-4.795698449015617371e-02
-6.087508425116539001e-02
-1.139615476131439209e-01
-6.320846825838088989e-02
4.126925766468048096e-02
7.012778520584106445e-02
7.309590280055999756e-02
-3.385126963257789612e-02
-9.716393053531646729e-02
-3.415359184145927429e-02
4.217760264873504639e-02
1.315382868051528931e-02
1.038293614983558655e-01
1.017058268189430237e-02
7.657534629106521606e-02
3.127656131982803345e-02
8.817987889051437378e-02
-9.686843305826187134e-02
-1.086222454905509949e-01
2.650254219770431519e-02
5.057986825704574585e-02
-8.837942965328693390e-03
2.977566793560981750e-02
-3.929460421204566956e-02
-3.651461750268936157e-02
3.934467956423759460e-02
8.227350562810897827e-02
-5.053770169615745544e-02
-4.501949995756149292e-02
-1.099892333149909973e-01
6.993316113948822021e-02
-1.152393147349357605e-01
-6.871103495359420776e-02
-1.086686924099922180e-01
6.839043647050857544e-02
1.055113300681114197e-01
-4.354530572891235352e-02
1.074789613485336304e-01
8.980622887611389160e-02
9.832617640495300293e-02
1.533080823719501495e-02
1.231077164411544800e-01
8.816405385732650757e-02
-9.126593172550201416e-02
-5.298546329140663147e-02
2.668205089867115021e-02
-9.457720816135406494e-02
-4.886551946401596069e-02
8.764269202947616577e-02
9.795899689197540283e-02
-8.030319213867187500e-02
-1.203364804387092590e-01
-9.813435375690460205e-02
9.672928601503372192e-02
6.520978361368179321e-02
5.820430815219879150e-02
-1.948020979762077332e-02
6.863525509834289551e-02
4.611475858837366104e-03
-8.327382802963256836e-02
3.061473183333873749e-02
-1.312240064144134521e-01
1.169468685984611511e-01
-7.320302724838256836e-02
1.077692434191703796e-01
6.505338847637176514e-02
1.013645231723785400e-01
-1.135661751031875610e-01
-8.838884532451629639e-02
2.024309523403644562e-02
9.676913172006607056e-02
4.728098586201667786e-02
1.197189763188362122e-01
2.495956607162952423e-02
1.191770359873771667e-01
-7.181637734174728394e-02
1.004235073924064636e-01
4.068358987569808960e-02
-3.389188647270202637e-02
-1.333780959248542786e-02
5.912908166646957397e-02
3.077274374663829803e-02
5.008897930383682251e-02
-7.597477734088897705e-02
-1.144057884812355042e-01
-2.544778026640415192e-02
7.048171758651733398e-02
8.758039027452468872e-02
-1.194022893905639648e-01
1.163341179490089417e-01
4.665637388825416565e-02
1.905376650393009186e-02
-3.376053646206855774e-02
2.323520369827747345e-02
2.790690027177333832e-02
6.241821870207786560e-02
9.503124654293060303e-02
1.164157614111900330e-01
4.350608959794044495e-02
-8.734933799132704735e-04
1.378199905157089233e-01
-2.898583747446537018e-02
2.206826210021972656e-02
5.846545100212097168e-02
1.240926757454872131e-01
-4.103587567806243896e-02
-5.816286802291870117e-02
2.504013665020465851e-02
4.742640629410743713e-02
1.344910264015197754e-01
-7.883734256029129028e-02
-1.094719991087913513e-01
9.188514947891235352e-02
5.643296986818313599e-02
2.379341982305049896e-02
1.176326349377632141e-02
-1.115934774279594421e-01
-1.057103089988231659e-02
4.178253933787345886e-02
1.916256151162087917e-03
9.184081107378005981e-02
-4.552981629967689514e-02
4.290997236967086792e-02
-1.070938035845756531e-01
1.104268878698348999e-01
-4.918902367353439331e-02
-1.050502900034189224e-02
8.231706917285919189e-02
1.146609894931316376e-02
-8.285072445869445801e-02
8.254432678222656250e-02
9.142044186592102051e-02
-1.020289883017539978e-01
-2.074511535465717316e-02
-6.015509366989135742e-02
-9.641966223716735840e-02
4.714705422520637512e-02
-1.177938431501388550e-01
-1.503160502761602402e-02
1.424566376954317093e-02
-1.096165627241134644e-01
4.970219731330871582e-02
7.728761527687311172e-03
2.429938130080699921e-02
6.086035445332527161e-02
4.944805800914764404e-02
-1.313906162977218628e-01
8.615747094154357910e-02
1.312694549560546875e-01
-7.078775763511657715e-02
9.504689276218414307e-02
-6.770939379930496216e-02
1.102563515305519104e-01
4.614037275314331055e-02
-1.071386709809303284e-01
-2.856543520465493202e-03
-3.663330152630805969e-02
4.245632886886596680e-02
-6.344120949506759644e-02
1.025759950280189514e-01
-1.012649983167648315e-01
7.366885989904403687e-02
4.990641027688980103e-02
-1.189355850219726562e-01
-1.231862306594848633e-01
1.102486401796340942e-01
-1.394284982234239578e-02
-1.027728393673896790e-01
6.306151859462261200e-03
7.589478045701980591e-03
1.266854442656040192e-02
-6.894292682409286499e-02
-6.965178251266479492e-02
-4.810785502195358276e-02
1.918222010135650635e-02
-7.333703339099884033e-02
-1.204212009906768799e-01
-1.950295083224773407e-02
-3.926121816039085388e-02
-6.139370799064636230e-02
-1.073923930525779724e-01
5.883008986711502075e-02
5.399824120104312897e-03
1.135930791497230530e-01
-1.183993145823478699e-01
-8.028701692819595337e-02
-2.610351145267486572e-02
-1.179926544427871704e-01
-3.747908025979995728e-02
-7.801959663629531860e-02
-9.466593712568283081e-02
-5.905582010746002197e-02
-3.449229896068572998e-02
1.173222251236438751e-02
-4.784784466028213501e-02
-1.101776286959648132e-01
-7.243597507476806641e-02
1.237086579203605652e-01
9.873895347118377686e-02
9.127536416053771973e-02
-1.501640304923057556e-02
-8.227137848734855652e-03
-7.157552987337112427e-02
-6.491214036941528320e-02
6.091175228357315063e-02
-2.349595725536346436e-02
4.419530928134918213e-02
-3.637148439884185791e-02
5.641443654894828796e-02
4.875736311078071594e-02
-1.158370301127433777e-01
-1.843083649873733521e-02
-1.945212855935096741e-02
-1.163876056671142578e-01
-5.410771816968917847e-03
3.459469974040985107e-02
1.731980964541435242e-02
-1.238455250859260559e-02
1.199893057346343994e-01
-3.369731828570365906e-02
-2.538503147661685944e-02
-5.646182596683502197e-02
-9.617380052804946899e-02
1.018248423933982849e-01
-3.205677121877670288e-02
3.428615629673004150e-02
-6.368860136717557907e-03
1.203557923436164856e-01
1.024493854492902756e-02
-1.117376610636711121e-02
6.580185145139694214e-02
7.708688825368881226e-02
1.255839169025421143e-01
4.323448240756988525e-02
1.569352578371763229e-03
6.046615540981292725e-03
8.088057488203048706e-02
-5.471844598650932312e-02
-8.841071277856826782e-02
-1.235414519906044006e-01
8.512446284294128418e-02
3.363790363073348999e-02
8.802822232246398926e-02
-9.931480884552001953e-02
1.223457697778940201e-02
-1.302933320403099060e-02
-2.109828591346740723e-02
-1.014168038964271545e-01
-1.316699534654617310e-01
2.696544863283634186e-02
5.454119667410850525e-02
1.031812801957130432e-01
-2.234786376357078552e-02
6.548504531383514404e-02
1.497517712414264679e-02
1.101952940225601196e-01
-1.009491980075836182e-01
8.750737179070711136e-04
-1.061751246452331543e-01
-6.424966454505920410e-02
1.279016882181167603e-01
9.707478433847427368e-02
-1.141107082366943359e-02
-1.243940815329551697e-01
9.720545262098312378e-02
-4.926284402608871460e-02
1.418537460267543793e-02
-7.658868283033370972e-02
3.997004777193069458e-02
1.154342573136091232e-02
-4.326373711228370667e-02
5.712316930294036865e-02
7.288512587547302246e-02
-4.295864328742027283e-02
-8.141566812992095947e-02
4.832024127244949341e-02
8.352919667959213257e-02
-2.679805457592010498e-02
-7.181718200445175171e-02
4.723259434103965759e-02
-2.084239013493061066e-02
-2.490429766476154327e-02
-3.665197640657424927e-02
8.530097454786300659e-02
-3.669149801135063171e-02
-1.691087265498936176e-03
-6.738834828138351440e-02
2.962500974535942078e-02
4.361705854535102844e-02
1.075693871825933456e-02
-7.348860055208206177e-02
-8.529790490865707397e-02
-1.202053874731063843e-01
3.306467458605766296e-02
1.183036640286445618e-01
-6.280826777219772339e-02
4.979175049811601639e-03
-3.096186742186546326e-02
3.485969081521034241e-02
6.440240889787673950e-02
1.042259018868207932e-02
-8.743412047624588013e-02
-5.377903953194618225e-02
-1.825464703142642975e-02
-3.446561843156814575e-02
-8.013206720352172852e-02
-5.302573740482330322e-02
-4.852114245295524597e-02
6.234883144497871399e-02
9.015944600105285645e-02
2.281131781637668610e-02
-1.153784543275833130e-01
-1.008581668138504028e-01
-1.100846379995346069e-01
-5.744725838303565979e-02
9.389168582856655121e-03
5.685191601514816284e-02
-1.814879849553108215e-02
9.465612471103668213e-02
-2.762989699840545654e-02
-7.529125362634658813e-02
-1.693804375827312469e-02
-6.788055598735809326e-02
-7.116282731294631958e-02
-4.115165024995803833e-02
2.813106402754783630e-02
4.141532257199287415e-02
-7.940357178449630737e-02
-3.694181144237518311e-02
3.441582201048731804e-03
1.378996521234512329e-01
-9.044735878705978394e-02
-9.419638663530349731e-02
-4.328769817948341370e-02
5.061753094196319580e-02
5.540768429636955261e-02
1.207058876752853394e-02
3.272213786840438843e-02
1.001384109258651733e-01
1.337516587227582932e-02
3.960804641246795654e-02
1.007674410939216614e-01
-2.515571750700473785e-02
-9.228963404893875122e-02
6.541018933057785034e-02
-1.051332801580429077e-01
-5.592861212790012360e-03
7.405920326709747314e-02
6.054338812828063965e-02
-2.166311815381050110e-02
1.135821714997291565e-01
1.068120673298835754e-01
4.121411219239234924e-02
2.802103944122791290e-02
1.143794730305671692e-01
9.178624302148818970e-02
8.104874938726425171e-02
8.038890082389116287e-04
-7.325369864702224731e-02
9.410068392753601074e-02
4.093659669160842896e-02
1.062057688832283020e-01
4.656858369708061218e-02
9.897709637880325317e-02
-3.134177625179290771e-02
-4.404093325138092041e-02
2.149029448628425598e-02
-9.299491345882415771e-02
-3.219497576355934143e-02
8.563005924224853516e-02
1.126388162374496460e-01
7.499536126852035522e-02
6.281249225139617920e-02
-2.662231773138046265e-02
-7.452929019927978516e-02
-4.087091237306594849e-02
4.026994109153747559e-02
5.992803722620010376e-02
6.331530958414077759e-02
8.501368016004562378e-02
-8.371441066265106201e-02
-3.088455274701118469e-02
1.022968292236328125e-01
-1.117703765630722046e-01
6.237675994634628296e-02
1.079473719000816345e-01
-2.654299372807145119e-03
5.434760823845863342e-02
1.669559441506862640e-02
2.676032856106758118e-02
9.385831654071807861e-04
-8.791434019804000854e-02
-4.417613521218299866e-02
-5.000933632254600525e-02
-1.161750312894582748e-02
-3.024191968142986298e-02
-2.224301919341087341e-02
-9.567682445049285889e-02
8.165606111288070679e-02
-1.050766929984092712e-01
1.157533451914787292e-01
4.597000032663345337e-02
-3.007816895842552185e-02
5.252192541956901550e-02
-3.172123059630393982e-02
1.163828298449516296e-01
1.078210547566413879e-01
-1.141450926661491394e-01
7.310040295124053955e-02
-9.357807040214538574e-02
-4.790216311812400818e-02
-7.669456303119659424e-02
-8.449825644493103027e-02
-3.604669868946075439e-02
6.243641301989555359e-02
-1.251061409711837769e-01
-2.736031636595726013e-02
-8.637101203203201294e-02
-5.474952980875968933e-02
-1.118345409631729126e-01
-8.623030781745910645e-02
-1.340078283101320267e-02
7.832674682140350342e-02
-1.099591404199600220e-01
-9.405728429555892944e-03
-1.056185215711593628e-01
1.197336241602897644e-02
-4.874554276466369629e-02
-7.767934352159500122e-02
1.193497776985168457e-01
1.937065459787845612e-02
9.464106708765029907e-02
-1.152142658829689026e-01
1.202403903007507324e-01
-9.764709323644638062e-02
-8.545327931642532349e-02
4.881154745817184448e-02
-2.440175600349903107e-02
-7.444191724061965942e-02
-2.634893357753753662e-02
3.385894000530242920e-03
-1.891707815229892731e-02
-2.485131844878196716e-03
-7.352216541767120361e-02
-8.995232731103897095e-02
-9.742862731218338013e-02
-4.936140775680541992e-02
-6.956186145544052124e-02
1.539805065840482712e-02
-3.523244336247444153e-02
-8.664521574974060059e-02
-5.131846293807029724e-02
-2.971183508634567261e-02
8.270554989576339722e-02
9.060262888669967651e-02
-8.735106326639652252e-03
7.578994333744049072e-02
-9.931868314743041992e-02
-1.017093732953071594e-01
-9.523714333772659302e-02
1.175005584955215454e-01
8.704469352960586548e-02
1.058576181530952454e-01
7.048516720533370972e-02
7.739811390638351440e-02
-4.733536019921302795e-02
1.325339544564485550e-02
-1.010079160332679749e-01
1.171601638197898865e-01
-1.710725761950016022e-02
-1.249050348997116089e-02
-8.948326110839843750e-02
8.049486577510833740e-02
-4.345056414604187012e-02
1.017053276300430298e-01
-2.319615520536899567e-02
-6.028164550662040710e-02
-1.037561744451522827e-01
1.721317321062088013e-02
-3.150169178843498230e-02
-8.785921335220336914e-02
-4.194393008947372437e-02
-1.312348525971174240e-02
1.049245074391365051e-01
-1.246346160769462585e-01
-8.624282479286193848e-02
-8.590955287218093872e-02
-1.196627914905548096e-01
5.593546107411384583e-02
1.207894906401634216e-01
3.418169543147087097e-02
-5.266420915722846985e-02
1.846911385655403137e-02
-4.604702815413475037e-02
1.449523400515317917e-02
4.021827131509780884e-02
-1.321717053651809692e-01
-1.253491491079330444e-01
9.918788075447082520e-02
5.910209938883781433e-02
4.323635995388031006e-02
-3.150562569499015808e-02
-6.461042165756225586e-02
-7.355660200119018555e-02
-1.211016774177551270e-01
-1.171733904629945755e-02
6.734476191923022270e-04
-7.780893146991729736e-02
5.820940434932708740e-02
-1.073431596159934998e-01
-2.859531529247760773e-02
-1.643770001828670502e-02
1.287363283336162567e-02
-1.615329831838607788e-02
5.768779665231704712e-02
1.414819154888391495e-02
-2.249032445251941681e-02
2.593526244163513184e-02
7.159633934497833252e-02
1.454215589910745621e-02
-5.089075863361358643e-02
-1.233972981572151184e-01
-6.712181121110916138e-02
1.313629448413848877e-01
-9.222517907619476318e-02
7.091551274061203003e-02
9.737522900104522705e-02
5.296359956264495850e-02
5.967748910188674927e-02
-9.340263903141021729e-02
-4.026932641863822937e-02
6.296408176422119141e-02
-7.032620906829833984e-02
-3.842815756797790527e-02
-5.857816711068153381e-02
-9.093156084418296814e-03
6.084640324115753174e-02
-8.782346732914447784e-03
1.000473871827125549e-01
-1.730836182832717896e-02
-1.739781163632869720e-02
9.533533453941345215e-02
1.524888817220926285e-02
-1.082022115588188171e-02
2.225902304053306580e-02
6.206665188074111938e-02
-7.335479557514190674e-02
-4.232060909271240234e-02
-9.322470426559448242e-02
-1.074388623237609863e-01
-7.089484483003616333e-02
-1.296958625316619873e-01
-8.513973653316497803e-02
-2.514219377189874649e-03
-4.588429629802703857e-02
-2.254260145127773285e-02
-1.165320277214050293e-01
-6.610901653766632080e-02
9.299970418214797974e-02
-1.206756755709648132e-02
5.261049792170524597e-02
9.053027629852294922e-02
-1.172009110450744629e-01
1.660802587866783142e-02
1.333026122301816940e-02
1.066425740718841553e-01
-1.079846546053886414e-01
6.344954669475555420e-02
1.395059376955032349e-01
-5.230111256241798401e-02
1.074566841125488281e-01
-8.554516732692718506e-02
1.264479309320449829e-01
4.580236971378326416e-02
6.175099988467991352e-04
8.054811507463455200e-02
-1.245912909507751465e-01
-3.474464640021324158e-02
5.481455475091934204e-03
-2.437726035714149475e-02
9.888217598199844360e-02
6.205205246806144714e-02
-6.421465426683425903e-02
-4.025121778249740601e-02
-4.930295050144195557e-02
-6.194188818335533142e-02
-5.236126109957695007e-02
1.058426965028047562e-02
9.498894214630126953e-02
-1.186501309275627136e-01
-6.617635517613962293e-05
-1.326932758092880249e-01
5.713976547122001648e-02
-1.132321879267692566e-01
5.886732041835784912e-02
-9.869354963302612305e-02
-6.371590774506330490e-03
1.207909267395734787e-02
4.251084290444850922e-03
3.995370492339134216e-02
-9.084634482860565186e-02
4.465384036302566528e-02
-8.422280102968215942e-02
1.465285867452621460e-01
5.131109803915023804e-02
-4.834787920117378235e-02
5.965884029865264893e-02
-1.167419948615133762e-03
1.312917768955230713e-01
-2.901664562523365021e-02
5.928649753332138062e-02
-1.405774429440498352e-02
-4.265683889389038086e-02
2.629475109279155731e-02
8.207741379737854004e-02
2.913863398134708405e-02
-6.260352674871683121e-03
9.280496835708618164e-02
-1.227437257766723633e-01
-3.317645564675331116e-02
5.453434307128190994e-03
1.032862439751625061e-01
2.837762795388698578e-02
7.450880110263824463e-02
-5.743902921676635742e-02
-7.536428421735763550e-02
-6.239060778170824051e-03
-9.353278577327728271e-02
1.117404550313949585e-01
-9.356470406055450439e-02
-7.530052959918975830e-02
-1.226465627551078796e-01
9.862298518419265747e-02
-7.215579599142074585e-02
-5.077690351754426956e-03
-8.001245558261871338e-02
-5.390178784728050232e-02
-7.145147025585174561e-02
9.183537214994430542e-03
-8.888532221317291260e-02
3.748536808416247368e-03
9.056295454502105713e-02
4.775438085198402405e-02
-3.380022011697292328e-03
7.036470196908339858e-05
-1.121543645858764648e-01
-8.287528157234191895e-02
-2.585235983133316040e-02
-8.600308746099472046e-02
-1.651884242892265320e-02
-9.641480445861816406e-02
1.024936959147453308e-01
4.492470528930425644e-03
-7.111290842294692993e-02
-5.442209541797637939e-02
-5.381302163004875183e-02
-7.108843326568603516e-02
8.494448848068714142e-03
1.124244779348373413e-01
6.908788532018661499e-02
3.650117898359894753e-03
-5.601994693279266357e-02
-1.280329674482345581e-01
2.240591123700141907e-02
3.544003516435623169e-02
-1.612789183855056763e-02
2.568272501230239868e-02
1.410720497369766235e-01
-7.970413565635681152e-02
9.690637141466140747e-02
6.394093483686447144e-02
-7.364922016859054565e-02
-1.053710207343101501e-01
2.789395861327648163e-02
2.535573393106460571e-02
-1.420905999839305878e-02
-4.885523021221160889e-02
6.190892774611711502e-03
8.516892790794372559e-02
-3.583412244915962219e-02
-7.007215917110443115e-02
-1.065320521593093872e-01
1.734300330281257629e-02
9.827341139316558838e-02
-2.747954055666923523e-02
-7.409929484128952026e-02
-1.027144789695739746e-01
-3.618745133280754089e-02
-9.196785837411880493e-02
-3.765422385185956955e-03
5.392291024327278137e-02
-1.509140525013208389e-02
-6.897430866956710815e-02
9.249501675367355347e-02
-1.807353273034095764e-02
3.550487011671066284e-02
8.334142714738845825e-02
-2.942573279142379761e-02
-5.261964723467826843e-02
-7.551047950983047485e-02
-5.838283523917198181e-02
2.292407862842082977e-02
-1.664417609572410583e-02
-3.381763771176338196e-02
-6.815574597567319870e-03
1.481478847563266754e-02
-7.126544415950775146e-02
2.293731831014156342e-02
-1.156359389424324036e-01
-1.082825884222984314e-01
5.800176039338111877e-02
1.126003116369247437e-01
6.469944864511489868e-02
-8.245646953582763672e-02
-1.301705371588468552e-02
-3.006812371313571930e-02
2.662276662886142731e-02
-1.015251968055963516e-02
4.585091769695281982e-02
1.050668135285377502e-01
6.826312839984893799e-02
-1.087039485573768616e-01
4.582725465297698975e-02
-1.262695342302322388e-02
-1.392091959714889526e-01
-2.925121039152145386e-02
1.113906800746917725e-01
2.870448864996433258e-02
-9.658997505903244019e-02
1.061837747693061829e-01
7.568112015724182129e-02
5.097759515047073364e-02
-3.937470726668834686e-03
-6.106410548090934753e-02
-1.043181270360946655e-01
4.967212304472923279e-02
1.070955172181129456e-01
5.652238801121711731e-02
-1.139417961239814758e-01
1.084515824913978577e-01
-8.117409795522689819e-02
-5.342235043644905090e-02
-1.150002032518386841e-01
4.872154071927070618e-02
-6.884764879941940308e-02
9.941150248050689697e-02
-9.991002827882766724e-02
7.452396303415298462e-02
5.779001116752624512e-02
7.792197167873382568e-02
6.829003244638442993e-02
-1.059865206480026245e-01
-5.476911365985870361e-02
4.619998112320899963e-02
1.060384139418601990e-01
4.401624202728271484e-02
6.277938187122344971e-02
7.147705554962158203e-02
6.768311560153961182e-02
-1.000069454312324524e-01
-1.526458002626895905e-02
1.137250661849975586e-01
-1.248083487153053284e-01
-5.678075924515724182e-02
9.941510856151580811e-02
-3.251878544688224792e-02
-6.460346048697829247e-04
9.934297949075698853e-02
1.383266001939773560e-01
-1.062393635511398315e-01
8.728728443384170532e-02
-3.981286659836769104e-03
-5.307414382696151733e-02
-3.170172870159149170e-02
4.488309100270271301e-02
4.054231569170951843e-02
-2.062661573290824890e-02
1.114858910441398621e-01
1.719627156853675842e-02
-6.833995878696441650e-02
4.097285494208335876e-02
8.352620154619216919e-02
-9.983748942613601685e-02
-1.310316007584333420e-02
7.109085470438003540e-02
6.286568939685821533e-02
1.085797548294067383e-01
1.365606039762496948e-01
9.458692371845245361e-02
-1.199509948492050171e-01
1.199358999729156494e-01
1.154033988714218140e-01
8.182737231254577637e-02
-5.939435586333274841e-02
-3.702875971794128418e-02
-9.371785074472427368e-02
8.524232357740402222e-02
-7.512123882770538330e-02
-6.636472046375274658e-02
-6.050307303667068481e-02
4.664799571037292480e-02
8.387177437543869019e-02
9.266975335776805878e-03
1.054569333791732788e-02
-7.794162631034851074e-02
1.412686519324779510e-02
1.294803917407989502e-01
1.127034202218055725e-01
2.559416927397251129e-02
-1.700325869023799896e-02
-8.314440399408340454e-02
7.470723241567611694e-02
8.102281391620635986e-02
-6.768793612718582153e-02
6.150362640619277954e-02
1.279615797102451324e-02
-9.573303163051605225e-02
1.083308085799217224e-01
-4.117047041654586792e-02
-1.041610166430473328e-01
-6.288422644138336182e-02
5.610363557934761047e-02
-1.311659812927246094e-03
9.916721284389495850e-02
-8.021971583366394043e-02
-4.082655161619186401e-02
-5.746987834572792053e-02
7.470378279685974121e-02
8.546096831560134888e-02
-9.021203219890594482e-02
1.318746339529752731e-02
4.308779910206794739e-02
1.164028197526931763e-01
-4.791785031557083130e-03
-9.091180562973022461e-02
-4.947866499423980713e-02
6.164879724383354187e-02
-8.502244204282760620e-02
1.033637970685958862e-01
1.034757867455482483e-02
-8.619985729455947876e-02
3.410140797495841980e-02
-1.151191443204879761e-01
7.019186764955520630e-02
1.261331588029861450e-01
-3.726047277450561523e-02
-7.707424461841583252e-02
2.372158132493495941e-02
4.759148135781288147e-02
-6.680730730295181274e-02
-1.027204543352127075e-01
-9.858052432537078857e-02
2.304284833371639252e-02
4.037294909358024597e-02
-8.446532487869262695e-02
-9.762526303529739380e-02
-9.134755283594131470e-02
-6.420037895441055298e-02
-1.142847072333097458e-02
3.199914004653692245e-03
2.321430295705795288e-02
-8.224593102931976318e-02
-1.243507117033004761e-01
4.155468568205833435e-02
6.351102143526077271e-02
6.089524924755096436e-02
-1.293192617595195770e-02
7.616345584392547607e-02
-9.773791581392288208e-02
-6.159485504031181335e-02
-1.040403321385383606e-01
1.185313612222671509e-01
1.119769066572189331e-01
9.027080237865447998e-02
-4.786220565438270569e-02
8.175180107355117798e-02
1.506564673036336899e-02
-1.516817510128021240e-02
8.770287036895751953e-02
2.210696972906589508e-02
-9.126391261816024780e-02
-6.835281103849411011e-02
-7.356664538383483887e-02
-7.705464214086532593e-02
-1.280116848647594452e-03
-6.482274085283279419e-02
2.518085762858390808e-02
2.842670865356922150e-02
-1.031905338168144226e-01
1.952291280031204224e-02
1.018854230642318726e-02
-1.195221841335296631e-01
7.158886641263961792e-02
9.123972803354263306e-02
-4.226661100983619690e-02
4.232312366366386414e-02
-2.888613939285278320e-02
1.419606618583202362e-02
-3.210316225886344910e-02
-4.664583131670951843e-02
2.255023457109928131e-02
-8.444155007600784302e-02
1.237786039710044861e-01
-1.002148240804672241e-01
-7.580254226922988892e-02
-1.090445667505264282e-01
5.794206261634826660e-02
4.767902195453643799e-02
-1.125687360763549805e-01
-9.220221079885959625e-03
-7.931966334581375122e-02
-6.115182861685752869e-02
1.395636051893234253e-01
-9.916839748620986938e-02
7.878991961479187012e-02
9.434895217418670654e-02
-1.103471666574478149e-01
8.973537385463714600e-02
9.963304549455642700e-02
-2.054110728204250336e-02
4.299585521221160889e-02
-1.175214350223541260e-01
-1.786391250789165497e-02
-7.113271858543157578e-03
-1.133265048265457153e-01
-1.015513911843299866e-01
-4.256780818104743958e-02
-2.707887627184391022e-02
5.640217289328575134e-02
-7.025392353534698486e-02
1.177241206169128418e-01
-9.104336053133010864e-02
8.628895878791809082e-02
-5.021977052092552185e-02
-9.960304945707321167e-02
8.185313642024993896e-02
1.990026980638504028e-02
1.953931711614131927e-02
9.015313535928726196e-02
4.133680090308189392e-02
-5.976441781967878342e-03
4.780909046530723572e-02
9.474638104438781738e-02
-1.012705042958259583e-01
1.156295835971832275e-01
-8.704432100057601929e-02
1.537873968482017517e-02
-6.432783603668212891e-02
7.310119271278381348e-02
8.824738115072250366e-02
-2.089472673833370209e-02
2.271649241447448730e-02
-4.717101901769638062e-02
-8.223640918731689453e-02
1.447052322328090668e-02
-5.727959051728248596e-02
-9.392919391393661499e-02
-7.369976490736007690e-02
-7.276486605405807495e-02
-2.127542719244956970e-02
7.119835168123245239e-02
9.704498201608657837e-02
9.712874889373779297e-02
1.060835942625999451e-01
-4.081346094608306885e-02
-7.052530348300933838e-02
1.243074908852577209e-01
-1.406222581863403320e-01
3.509591799229383469e-03
1.107686236500740051e-01
-6.370458751916885376e-02
1.524573750793933868e-02
6.037935987114906311e-02
7.695876527577638626e-03
-3.189932927489280701e-02
-1.141759753227233887e-01
2.023741602897644043e-02
-8.562567085027694702e-02
1.572880521416664124e-02
-7.864179462194442749e-02
-4.688442870974540710e-02
1.160592734813690186e-01
2.978984825313091278e-02
6.300199776887893677e-02
-1.155636608600616455e-01
8.427653461694717407e-02
-3.889643773436546326e-02
-4.395069181919097900e-02
-4.513008985668420792e-03
-7.916973531246185303e-02
-1.614114269614219666e-02
-2.435247227549552917e-02
9.753298759460449219e-02
-1.023095101118087769e-01
-2.256429940462112427e-02
-2.533405320718884468e-03
2.459513954818248749e-02
-3.390346094965934753e-02
9.626093320548534393e-03
-2.356503717601299286e-02
1.069072410464286804e-01
5.839990917593240738e-04
-7.148435339331626892e-03
8.070904016494750977e-02
-1.185301691293716431e-01
-8.036498725414276123e-02
-1.109102517366409302e-01
1.216753721237182617e-01
-7.638209313154220581e-02
8.939688652753829956e-02
1.836289651691913605e-03
6.480266153812408447e-02
6.982991844415664673e-02
-7.323164492845535278e-02
7.458987087011337280e-02
-1.356607079505920410e-01
-5.104110459797084332e-04
-8.901018649339675903e-02
8.329458534717559814e-02
-9.887184947729110718e-02
4.391404986381530762e-02
-5.695594847202301025e-02
-1.108940467238426208e-01
1.579886302351951599e-02
-5.008585005998611450e-02
2.552879415452480316e-02
8.305056020617485046e-03
1.338076293468475342e-01
1.110736355185508728e-01
6.645902991294860840e-03
-3.373255208134651184e-02
-2.939524874091148376e-02
-8.940519392490386963e-02
1.005947217345237732e-01
-1.066042296588420868e-02
9.268910437822341919e-02
-7.400585711002349854e-02
-2.540117874741554260e-02
-3.099776245653629303e-02
1.149590872228145599e-02
-4.420107230544090271e-02
5.467667803168296814e-02
3.031325712800025940e-02
1.008623912930488586e-01
9.604024142026901245e-02
6.178181245923042297e-02
-8.547943085432052612e-02
-1.110725477337837219e-01
1.719480380415916443e-02
9.493198990821838379e-02
8.047457784414291382e-02
8.078008145093917847e-02
1.080576051026582718e-02
1.366031821817159653e-02
4.406521841883659363e-02
1.082328632473945618e-01
-1.145797893404960632e-01
-8.309540897607803345e-02
4.050840437412261963e-02
6.246419996023178101e-02
-9.527004323899745941e-03
9.308431297540664673e-02
-7.580541819334030151e-02
3.724395856261253357e-02
2.015215344727039337e-02
5.040044337511062622e-02
9.485810995101928711e-02
-1.976871863007545471e-02
2.420329675078392029e-02
-6.566297262907028198e-02
-1.117167063057422638e-02
9.177342057228088379e-02
4.959303885698318481e-02
-8.920852094888687134e-02
4.825499653816223145e-02
-1.011036783456802368e-01
2.021914906799793243e-02
-6.768609583377838135e-02
1.100379526615142822e-01
-2.446683123707771301e-02
-8.854160457849502563e-02
1.129970252513885498e-01
-9.933892637491226196e-02
-7.872961461544036865e-02
8.279500156641006470e-02
-1.960169337689876556e-02
-1.398420631885528564e-01
-1.104657631367444992e-02
-8.825446665287017822e-02
5.737484619021415710e-02
2.012370154261589050e-02
1.001664996147155762e-01
-7.812177389860153198e-02
1.560847740620374680e-02
1.247865110635757446e-01
7.713817805051803589e-02
-9.562342427670955658e-03
4.461216181516647339e-02
5.626555904746055603e-02
-2.115335501730442047e-02
9.564787149429321289e-02
-9.648974984884262085e-02
-1.176308840513229370e-01
-6.111715361475944519e-02
1.144388392567634583e-01
-3.165016695857048035e-02
4.983843117952346802e-02
1.093852892518043518e-01
-1.311534643173217773e-01
4.091303795576095581e-02
-1.204821914434432983e-01
-1.123527903109788895e-02
-7.442416995763778687e-02
-4.468050971627235413e-02
9.831021726131439209e-02
2.317689824849367142e-03
1.784962601959705353e-02
7.748057693243026733e-02
1.248899847269058228e-01
-4.323428729549050331e-04
4.825448244810104370e-02
1.056270673871040344e-01
-6.788209825754165649e-02
7.227273285388946533e-02
3.820871561765670776e-02
-5.958615802228450775e-03
-4.392103105783462524e-02
6.184869632124900818e-02
-1.109471842646598816e-01
2.247475058538839221e-04
-1.204295605421066284e-01
2.547543495893478394e-02
7.208475470542907715e-02
1.201497241854667664e-01
-3.176000714302062988e-02
4.512668401002883911e-02
-1.078502833843231201e-01
-4.348830506205558777e-02
-1.225900948047637939e-01
-2.136960811913013458e-02
-4.567089676856994629e-02
-1.259064394980669022e-02
7.965809665620326996e-03
-1.291670799255371094e-01
4.891071841120719910e-02
7.484500110149383545e-02
2.862373925745487213e-02
4.738564044237136841e-02
1.080220192670822144e-01
6.151993758976459503e-03
9.859456866979598999e-02
1.022853702306747437e-01
-1.073884442448616028e-01
-3.430359810590744019e-02
2.943229302763938904e-02
4.859774932265281677e-02
-2.465988509356975555e-02
9.675924479961395264e-02
9.775803424417972565e-03
1.292619407176971436e-01
1.066018478013575077e-03
-8.412168361246585846e-03
5.695254355669021606e-02
-4.779686778783798218e-02
-5.074257031083106995e-02
-3.873836249113082886e-02
1.052315086126327515e-01
5.174523964524269104e-02
-4.168702289462089539e-02
4.693101719021797180e-02
-2.205708995461463928e-02
7.273194193840026855e-02
-4.692702554166316986e-03
-1.078573912382125854e-01
-1.217273250222206116e-02
6.463712453842163086e-02
2.953062951564788818e-02
3.569260239601135254e-02
7.857167720794677734e-02
-4.065713658928871155e-02
2.403692714869976044e-02
7.983607798814773560e-02
-1.100179478526115417e-01
1.198187321424484253e-01
-3.827799856662750244e-02
-8.400783687829971313e-02
-1.288708299398422241e-02
5.349216237664222717e-02
7.444885373115539551e-02
-9.043967723846435547e-02
-1.087936908006668091e-01
-2.741248905658721924e-02
-2.524367347359657288e-02
-5.533913150429725647e-02
4.449348896741867065e-02
-8.505786955356597900e-02
-8.254252374172210693e-02
-1.176333799958229065e-01
2.037596143782138824e-02
-6.469550728797912598e-02
-1.089012995362281799e-01
-9.632632881402969360e-02
3.060446679592132568e-02
6.401057541370391846e-02
6.031015422195196152e-03
-8.561015874147415161e-02
1.935943029820919037e-02
-3.359325602650642395e-02
9.364520758390426636e-02
-5.981848016381263733e-02
4.953404888510704041e-03
-6.264391541481018066e-02
4.170779511332511902e-02
-4.504715651273727417e-02
-6.331516895443201065e-03
-1.390616875141859055e-02
1.295219361782073975e-01
7.868289202451705933e-02
4.544226080179214478e-02
9.183400869369506836e-02
-6.251397728919982910e-02
3.160201758146286011e-02
1.205995902419090271e-01
4.646404087543487549e-02
3.303017839789390564e-02
5.331251770257949829e-02
1.314638555049896240e-01
-4.750637710094451904e-02
-1.123285293579101562e-01
-3.608759492635726929e-02
3.147905459627509117e-03
9.736537933349609375e-02
-3.752586618065834045e-02
-1.145021319389343262e-01
9.492313861846923828e-02
4.646311700344085693e-02
-6.502959132194519043e-02
-8.981642127037048340e-02
8.430440910160541534e-03
-8.574296534061431885e-02
4.305101931095123291e-02
8.254867047071456909e-02
-2.822891995310783386e-02
-8.782198652625083923e-03
-1.366087701171636581e-02
2.684700489044189453e-02
1.096865907311439514e-01
-4.444194957613945007e-02
7.747670263051986694e-02
9.197746217250823975e-02
-8.914127945899963379e-02
1.624031551182270050e-02
7.246581465005874634e-02
-2.146386541426181793e-02
-4.254480078816413879e-02
-1.323743462562561035e-01
-3.324119746685028076e-02
-6.045964360237121582e-02
1.080376654863357544e-01
4.711821675300598145e-02
-2.366976113989949226e-03
1.180394180119037628e-02
-1.164087578654289246e-01
6.590864062309265137e-02
-1.872667297720909119e-02
-4.671490564942359924e-02
-4.263136908411979675e-02
7.862886786460876465e-02
1.333357580006122589e-02
1.032197326421737671e-01
-8.849201351404190063e-02
-1.993210613727569580e-02
1.540666166692972183e-02
-1.626667752861976624e-02
-3.481706976890563965e-02
3.873522393405437469e-03
-1.705693639814853668e-02
8.829507231712341309e-02
-3.571858257055282593e-02
-2.361223474144935608e-02
1.456252578645944595e-02
6.679631769657135010e-02
8.447548747062683105e-02
-8.789888024330139160e-02
1.032193303108215332e-01
1.114174276590347290e-01
4.202961921691894531e-02
2.483522519469261169e-02
1.580305746756494045e-03
-1.812685839831829071e-02
1.418129634112119675e-02
-9.228675067424774170e-02
-8.151268959045410156e-02
-9.280205518007278442e-02
-1.307476498186588287e-02
1.199201196432113647e-01
1.911163702607154846e-02
7.910958677530288696e-02
-8.827990293502807617e-02
-9.653790039010345936e-04
-7.990250736474990845e-02
1.316988915205001831e-01
7.515378296375274658e-02
-4.261544346809387207e-02
1.895590126514434814e-02
8.700694888830184937e-02
1.152934655547142029e-01
1.110255569219589233e-01
4.379450902342796326e-02
1.074476167559623718e-01
9.941862523555755615e-02
4.837889689952135086e-03
-4.179370403289794922e-02
-9.635435789823532104e-02
1.213184371590614319e-01
-3.821183368563652039e-02
-2.541576325893402100e-02
-8.820451050996780396e-02
-8.763653784990310669e-02
-5.310609564185142517e-02
-1.226617321372032166e-01
-1.077367514371871948e-01
-6.473958492279052734e-02
-8.359840139746665955e-03
3.928791731595993042e-02
6.923240423202514648e-02
3.402881324291229248e-02
5.492595583200454712e-02
1.197962649166584015e-02
3.510041162371635437e-02
6.714846193790435791e-02
2.156400866806507111e-02
-6.088969483971595764e-02
9.147986024618148804e-02
1.218114495277404785e-01
-1.271151006221771240e-01
-7.507973164319992065e-02
-5.641015246510505676e-02
-5.839551612734794617e-02
-1.849854737520217896e-02
-3.881372883915901184e-02
-5.370941478759050369e-03
-2.589478157460689545e-02
-1.297265756875276566e-02
1.110859587788581848e-01
-6.422515958547592163e-02
-7.207436114549636841e-02
-5.864825099706649780e-02
3.364034742116928101e-02
-5.562455579638481140e-02
-3.342865966260433197e-03
-1.107158488593995571e-03
-4.123611748218536377e-02
-8.371357619762420654e-02
2.458466216921806335e-02
-1.542284339666366577e-02
2.281411178410053253e-02
7.099308073520660400e-02
3.671491518616676331e-02
-7.256828993558883667e-02
4.994225129485130310e-02
8.805344998836517334e-02
-4.563294723629951477e-02
-1.332493573427200317e-01
-1.195929720997810364e-01
4.578343778848648071e-02
1.989385299384593964e-02
-7.911402732133865356e-02
1.065390631556510925e-01
2.512347511947154999e-02
-4.782574623823165894e-02
1.248211413621902466e-01
-8.045240305364131927e-03
1.210027858614921570e-01
-1.169911003671586514e-03
-5.452818050980567932e-02
-3.864417970180511475e-02
7.660948485136032104e-02
-4.662724211812019348e-02
-5.112332105636596680e-02
6.669698748737573624e-03
-7.225906103849411011e-02
6.449340283870697021e-02
-3.148088231682777405e-02
-1.006185337901115417e-01
3.782678022980690002e-02
-2.696726284921169281e-02
4.226374439895153046e-03
-1.125093996524810791e-01
8.281961828470230103e-02
4.467700421810150146e-02
4.863812401890754700e-02
8.548764139413833618e-02
-1.141345202922821045e-01
6.133757904171943665e-02
1.137686148285865784e-01
-5.821317061781883240e-02
1.653626002371311188e-02
4.778329748660326004e-03
-1.086954101920127869e-01
-8.525729179382324219e-02
9.898567199707031250e-02
9.053403139114379883e-02
4.986505210399627686e-02
-1.266468614339828491e-01
-5.654396116733551025e-02
9.308667480945587158e-02
5.228079482913017273e-02
-7.626108825206756592e-02
-8.667060732841491699e-02
-1.069896370172500610e-01
-4.362273961305618286e-02
3.915946930646896362e-02
-8.125313371419906616e-02
1.042331233620643616e-01
4.822286218404769897e-02
8.228468894958496094e-02
2.807301282882690430e-02
1.358630359172821045e-01
-3.141795471310615540e-02
6.157359480857849121e-02
2.663201466202735901e-02
1.278624385595321655e-01
-6.828650087118148804e-02
4.091145470738410950e-02
-1.268635038286447525e-02
2.607488073408603668e-02
1.046855375170707703e-02
1.706740446388721466e-02
-3.405586257576942444e-02
2.079616673290729523e-02
5.900757387280464172e-02
-5.915664136409759521e-02
-8.670736849308013916e-02
-1.160004138946533203e-01
5.731785669922828674e-02
1.102129220962524414e-01
-3.392319381237030029e-02
-9.427553415298461914e-02
2.262745611369609833e-02
1.246901825070381165e-01
-4.023814201354980469e-02
1.162439212203025818e-01
3.793354332447052002e-02
5.486556142568588257e-02
1.132703647017478943e-01
-1.288621500134468079e-02
8.394199609756469727e-02
-1.078075822442770004e-02
4.214683547616004944e-02
-4.808863624930381775e-02
1.168556660413742065e-01
1.181673184037208557e-01
9.250299632549285889e-02
-6.975347548723220825e-02
3.769315034151077271e-02
-6.351647526025772095e-02
5.578523501753807068e-02
-3.173975646495819092e-02
3.242866694927215576e-02
-2.372778765857219696e-02
7.846554368734359741e-02
4.228257015347480774e-02
-5.259232223033905029e-02
-1.106420978903770447e-01
-4.435489326715469360e-02
7.272736728191375732e-02
-3.994249179959297180e-02
-5.138777941465377808e-02
-6.985751539468765259e-02
7.147084921598434448e-02
-2.942256443202495575e-02
-1.016910821199417114e-01
1.210637837648391724e-01
5.328224226832389832e-02
9.487731754779815674e-02
1.078201550990343094e-02
-1.183136831969022751e-02
7.009199354797601700e-03
7.385452836751937866e-02
9.755096584558486938e-02
6.227442994713783264e-02
-9.294035285711288452e-02
7.200010586529970169e-03
9.681543707847595215e-02
-1.287473887205123901e-01
-1.030789501965045929e-02
4.862914793193340302e-03
-7.105706632137298584e-02
1.086952388286590576e-01
-8.699073642492294312e-02
-3.199184313416481018e-02
-1.823156699538230896e-02
-4.604011029005050659e-02
6.624715030193328857e-02
1.978584192693233490e-02
1.095908358693122864e-01
-9.661874175071716309e-02
-1.016146615147590637e-01
-1.754096150398254395e-02
1.469135750085115433e-02
-8.941171318292617798e-02
1.303923502564430237e-02
-1.104035302996635437e-01
1.075001955032348633e-01
-1.191517803817987442e-02
3.148561716079711914e-02
-2.447325177490711212e-02
-9.065493941307067871e-02
9.525701403617858887e-02
1.218328103423118591e-01
-9.182801097631454468e-02
1.180039159953594208e-02
1.250105500221252441e-01
5.478848144412040710e-02
-1.133079081773757935e-01
1.208149567246437073e-01
-4.479771107435226440e-02
7.896474748849868774e-02
-8.519473671913146973e-02
8.022376149892807007e-02
-9.411422908306121826e-02
3.591020032763481140e-02
1.811341941356658936e-02
-6.485263258218765259e-02
-1.096101403236389160e-01
1.164091452956199646e-01
5.998275801539421082e-02
-5.935828760266304016e-02
5.712105706334114075e-02
5.125995259732007980e-03
6.642415374517440796e-02
-1.271393150091171265e-01
-1.529222913086414337e-02
-5.583578348159790039e-02
2.454820461571216583e-02
-6.052982807159423828e-02
7.423672825098037720e-02
5.404939875006675720e-03
1.398253627121448517e-02
4.019723832607269287e-02
2.946459501981735229e-02
-1.275963708758354187e-02
2.479455620050430298e-02
1.097773760557174683e-02
-1.084402278065681458e-01
1.014429926872253418e-01
9.111662954092025757e-02
-5.640663579106330872e-02
8.390103280544281006e-02
8.904727548360824585e-02
1.109114587306976318e-01
8.498674631118774414e-02
-9.383876621723175049e-02
-1.993318088352680206e-02
-7.042713463306427002e-02
-2.794209495186805725e-02
5.607232078909873962e-02
3.125570714473724365e-02
-7.416738569736480713e-02
2.965627051889896393e-02
-8.070164173841476440e-02
-6.164679676294326782e-02
4.066295921802520752e-02
-8.611799217760562897e-03
4.351106286048889160e-02
-1.039923867210745811e-03
1.188431605696678162e-01
-6.021144241094589233e-02
-9.385821223258972168e-02
-2.061296720057725906e-03
7.148417085409164429e-02
9.810448437929153442e-02
7.011805474758148193e-02
-1.903143338859081268e-02
5.802589282393455505e-02
-4.045619443058967590e-02
-7.718051970005035400e-02
-5.273513123393058777e-02
5.682770535349845886e-02
1.863079518079757690e-02
-4.502362012863159180e-02
9.873244911432266235e-02
1.299817413091659546e-01
1.125822141766548157e-01
1.075228527188301086e-01
1.047642529010772705e-01
8.230106532573699951e-02
2.823998592793941498e-02
9.057597070932388306e-02
-5.272869393229484558e-02
-1.608472131192684174e-02
4.879926517605781555e-02
9.128914028406143188e-02
-7.443237304687500000e-02
1.033509671688079834e-01
7.772681768983602524e-03
7.000295072793960571e-02
-2.850780636072158813e-02
6.036995723843574524e-02
-1.907157339155673981e-02
1.071619316935539246e-01
1.077460125088691711e-01
-4.057640954852104187e-02
-2.108361385762691498e-02
-6.395083619281649590e-04
1.342954784631729126e-01
-1.230733469128608704e-01
-8.837704360485076904e-02
-5.615617707371711731e-02
-7.033793628215789795e-02
3.440169245004653931e-02
4.849030449986457825e-02
4.168567061424255371e-02
7.064158469438552856e-02
-5.128296907059848309e-04
-6.628392636775970459e-02
4.213520139455795288e-02
1.285780966281890869e-01
-1.181887388229370117e-01
5.724970251321792603e-02
-1.610701903700828552e-02
-1.298004537820816040e-01
-1.025439277291297913e-01
6.773802638053894043e-02
-8.228965848684310913e-02
-6.094988435506820679e-03
-2.837947569787502289e-02
-9.476684778928756714e-02
6.910805404186248779e-02
4.102883115410804749e-02
9.061694890260696411e-02
-5.237496271729469299e-02
7.102258503437042236e-02
1.109555512666702271e-01
-9.597701579332351685e-02
-6.966874748468399048e-02
9.026287496089935303e-02
1.100166216492652893e-01
2.735395915806293488e-02
8.888667076826095581e-02
4.378015175461769104e-02
1.996248960494995117e-02
8.717787265777587891e-02
9.450430423021316528e-02
-9.797831624746322632e-02
-5.975081026554107666e-02
-6.456564366817474365e-02
5.088319629430770874e-02
-8.844984695315361023e-03
-9.795765392482280731e-03
-5.038271471858024597e-02
1.102177649736404419e-01
9.636878967285156250e-02
9.685403108596801758e-02
7.795114815235137939e-02
-8.170429617166519165e-02
-1.011401042342185974e-01
3.617395460605621338e-02
-4.340492188930511475e-02
7.302468270063400269e-02
2.125532925128936768e-02
-5.425219610333442688e-02
9.875304251909255981e-02
7.091549783945083618e-02
-2.427114918828010559e-02
-1.153581738471984863e-01
-2.627059444785118103e-02
-2.148337475955486298e-02
-9.197673946619033813e-02
5.272406339645385742e-02
-4.236816987395286560e-02
-7.790873199701309204e-02
-2.679517259821295738e-03
-6.306341290473937988e-02
6.852703541517257690e-02
4.478187859058380127e-02
8.198045194149017334e-02
-3.601406142115592957e-02
1.217130720615386963e-01
-1.074004843831062317e-01
2.188339643180370331e-02
5.348400771617889404e-02
-1.039463132619857788e-01
1.033432260155677795e-01
-1.359952092170715332e-01
1.178373023867607117e-01
1.266195625066757202e-01
9.208632260560989380e-02
4.959740117192268372e-02
-1.189334411174058914e-02
9.679494053125381470e-02
4.666764661669731140e-02
-5.336724221706390381e-02
1.255642175674438477e-01
8.021792024374008179e-02
4.928281530737876892e-02
4.818529635667800903e-02
-4.216754063963890076e-02
2.801312506198883057e-02
-1.602995023131370544e-02
1.611030288040637970e-02
-7.671471685171127319e-02
-1.040038838982582092e-01
-1.111229211091995239e-01
8.177354931831359863e-02
4.148119129240512848e-03
6.423065811395645142e-02
-2.875658683478832245e-02
2.500717341899871826e-02
-9.460683166980743408e-02
4.420310631394386292e-02
-9.420096874237060547e-02
-2.781625464558601379e-02
9.903972595930099487e-02
-4.226155951619148254e-02
-2.805054001510143280e-02
-2.300238423049449921e-02
-6.359712779521942139e-02
-5.051669478416442871e-02
2.292969077825546265e-02
-4.643602669239044189e-02
6.573975831270217896e-02
8.069581538438796997e-02
-9.101592004299163818e-02
3.247908130288124084e-02
3.653947729617357254e-03
3.508254140615463257e-02
2.399082109332084656e-02
2.667931281030178070e-02
4.218658804893493652e-02
2.103200182318687439e-02
1.203534677624702454e-01
7.105182856321334839e-02
1.093773171305656433e-01
-2.862967923283576965e-02
9.277103841304779053e-02
6.387595087289810181e-02
7.952830754220485687e-03
-8.532810956239700317e-02
8.180016279220581055e-02
4.889476578682661057e-03
-7.220565527677536011e-02
7.970508933067321777e-02
4.143276438117027283e-02
8.531806617975234985e-02
-1.171175092458724976e-01
-1.118981018662452698e-01
-2.690851315855979919e-02
9.982085227966308594e-02
-6.760947406291961670e-02
-2.367898821830749512e-02
6.668353825807571411e-02
-3.129878678009845316e-05
9.575278498232364655e-03
-1.041203141212463379e-01
4.964166134595870972e-02
9.092488139867782593e-02
3.827737644314765930e-03
-7.949148863554000854e-02
-8.209072053432464600e-02
-7.664981484413146973e-02
-4.423990100622177124e-02
5.040583387017250061e-02
-2.675529010593891144e-02
-6.241083517670631409e-02
1.212801411747932434e-01
-6.633079797029495239e-02
-4.830647632479667664e-02
6.471053510904312134e-02
-6.988244503736495972e-02
2.103491127490997314e-02
-8.124998770654201508e-03
-2.906842343509197235e-02
-1.071366742253303528e-01
-2.248360775411128998e-03
8.783781901001930237e-03
-3.035299293696880341e-02
-1.908565312623977661e-02
2.561843208968639374e-02
-1.213935762643814087e-01
-2.761347405612468719e-02
1.183839738368988037e-01
-1.360395178198814392e-02
6.123002991080284119e-02
4.971146583557128906e-02
1.422245614230632782e-02
2.005531638860702515e-02
-1.320680379867553711e-01
-8.016390353441238403e-02
-9.294196963310241699e-02
1.305398494005203247e-01
-3.592428565025329590e-02
-2.488289028406143188e-02
-2.794790267944335938e-02
-2.643324807286262512e-02
2.009897306561470032e-02
1.173399761319160461e-01
-4.733809828758239746e-02
-1.008325889706611633e-01
-3.315401449799537659e-02
6.866465508937835693e-02
8.964452892541885376e-02
-2.990071289241313934e-02
-5.530323460698127747e-02
5.442484095692634583e-02
-3.965182229876518250e-02
-6.625885516405105591e-02
-3.869658336043357849e-02
1.164326220750808716e-01
-2.812978252768516541e-02
5.883524194359779358e-02
-9.641014039516448975e-03
-1.492518782615661621e-01
-2.877802588045597076e-02
7.941909879446029663e-02
-7.770098000764846802e-02
7.175803184509277344e-02
-7.007597386837005615e-02
-3.557908907532691956e-02
5.647695437073707581e-02
-7.931531220674514771e-02
8.479908108711242676e-02
-9.745685011148452759e-02
-5.925331264734268188e-03
7.938114553689956665e-02
5.179616063833236694e-02
-2.455843798816204071e-02
4.954507201910018921e-02
4.679960384964942932e-02
6.807132065296173096e-02
-7.490056008100509644e-02
-9.644149988889694214e-02
1.393167395144701004e-02
1.207398474216461182e-01
-1.319682002067565918e-01
-2.785693854093551636e-02
-1.674983836710453033e-02
-8.293969556689262390e-03
-1.332274079322814941e-02
3.211614862084388733e-02
5.082515254616737366e-02
1.537106651812791824e-02
-8.281271904706954956e-03
1.230206266045570374e-01
5.807772278785705566e-02
1.276270151138305664e-01
-5.541251599788665771e-02
1.700894907116889954e-02
8.690465986728668213e-02
9.709481894969940186e-02
-3.776967525482177734e-02
-9.767158888280391693e-03
-8.493567258119583130e-02
1.097704917192459106e-01
-3.968032076954841614e-03
7.363101840019226074e-02
-1.078103259205818176e-01
-6.005443632602691650e-03
8.154746145009994507e-02
3.734030574560165405e-02
2.140050008893013000e-02
-2.406144328415393829e-02
-2.657838165760040283e-02
-9.633986651897430420e-02
7.137151062488555908e-02
9.859576076269149780e-02
-1.374888513237237930e-02
5.223277211189270020e-02
-1.344537585973739624e-01
-1.135293841361999512e-01
-1.581687107682228088e-02
4.749837145209312439e-02
-7.855189591646194458e-02
3.353394940495491028e-02
9.363081306219100952e-02
-7.553312182426452637e-02
-4.703501239418983459e-02
7.974679023027420044e-02
9.027758985757827759e-02
1.002511456608772278e-01
-1.746062072925269604e-03
-2.307184599339962006e-02
-1.216650083661079407e-01
-1.034255549311637878e-01
-1.332127749919891357e-01
-7.866743206977844238e-02
9.017446637153625488e-02
1.045922860503196716e-01
-9.848602861166000366e-02
-3.925167024135589600e-02
1.189964115619659424e-01
-1.445627957582473755e-01
7.562129199504852295e-02
8.823582530021667480e-02
-1.390137523412704468e-01
-4.269693046808242798e-02
3.063684515655040741e-02
9.334578365087509155e-02
-2.572592347860336304e-02
-9.018191695213317871e-02
7.506377995014190674e-02
-4.533153399825096130e-02
-2.423142455518245697e-02
-1.064300015568733215e-01
-1.891475170850753784e-02
1.083663925528526306e-01
5.321001634001731873e-02
-2.121934480965137482e-02
-5.789734050631523132e-02
-9.719121269881725311e-03
-2.336191758513450623e-02
4.048089683055877686e-02
-6.802336871623992920e-02
1.006835624575614929e-01
1.244663521647453308e-01
-3.193570300936698914e-02
-9.013821929693222046e-02
6.722313910722732544e-02
-7.103104889392852783e-02
2.455025538802146912e-02
-6.803601281717419624e-04
9.739338606595993042e-02
-8.864472806453704834e-02
1.470963843166828156e-02
3.335807844996452332e-02
6.930959969758987427e-02
7.161410152912139893e-02
3.072564117610454559e-02
4.789179936051368713e-02
6.505264434963464737e-03
2.934453450143337250e-02
1.254460364580154419e-01
-1.002541035413742065e-01
2.939029969274997711e-02
-5.170708149671554565e-02
4.453474655747413635e-02
2.257476933300495148e-02
-1.115847751498222351e-01
4.887789487838745117e-02
-2.265021763741970062e-02
-9.343994408845901489e-02
2.917386777698993683e-02
1.182697936892509460e-01
4.960193112492561340e-02
-3.740581870079040527e-02
-1.136363223195075989e-01
2.967907674610614777e-02
7.648317515850067139e-02
9.484257549047470093e-02
-5.508198961615562439e-02
2.080170065164566040e-02
3.733958816155791283e-03
1.203817874193191528e-01
9.635335952043533325e-02
-1.048933789134025574e-01
1.134042739868164062e-01
-1.068451255559921265e-01
1.454492937773466110e-02
6.232343241572380066e-02
-9.764483571052551270e-02
-2.056069113314151764e-02
6.941873580217361450e-02
-2.798006869852542877e-03
1.247554048895835876e-01
-3.807038813829421997e-02
-4.376752674579620361e-02
9.938043355941772461e-02
8.018250763416290283e-02
-5.520326271653175354e-02
-6.790894269943237305e-02
1.284263581037521362e-01
-7.766181975603103638e-02
6.997052580118179321e-02
-1.273202151060104370e-01
8.821466565132141113e-02
6.152828782796859741e-02
-7.319560647010803223e-02
-5.754341557621955872e-02
2.442397922277450562e-02
2.919126860797405243e-02
-8.852443099021911621e-02
8.664771914482116699e-02
3.286166489124298096e-02
-1.635742560029029846e-02
1.334836184978485107e-01
-5.073864012956619263e-02
-9.833265841007232666e-02
3.069642931222915649e-02
-6.989866029471158981e-03
1.180729549378156662e-02
1.985846087336540222e-02
-1.311270892620086670e-01
1.037627831101417542e-01
-9.449218958616256714e-02
1.101014465093612671e-01
-9.388827532529830933e-02
-1.118565574288368225e-01
3.043015114963054657e-02
2.049413137137889862e-02
1.160827726125717163e-01
-5.387523025274276733e-02
-1.188851669430732727e-01
2.119425125420093536e-02
5.097893998026847839e-02
-6.116065382957458496e-02
3.640258312225341797e-02
4.164640605449676514e-02
7.638860493898391724e-03
1.034256666898727417e-01
-2.240477129817008972e-02
5.643958970904350281e-02
8.209477365016937256e-02
-4.152397066354751587e-02
-2.222185209393501282e-02
-5.796603113412857056e-02
-5.926112830638885498e-02
-1.015867143869400024e-01
1.250271201133728027e-01
-5.048544332385063171e-02
-1.106339767575263977e-01
-1.110052764415740967e-01
5.707439780235290527e-02
1.228172257542610168e-01
-1.014088913798332214e-01
4.982706531882286072e-02
-1.268407106399536133e-01
4.921561479568481445e-02
1.069777309894561768e-01
-1.066969558596611023e-01
2.371102385222911835e-02
7.215520739555358887e-02
2.553497906774282455e-03
3.405767679214477539e-02
-9.578944742679595947e-02
-3.156428039073944092e-02
-9.434691071510314941e-02
-1.996567845344543457e-02
7.145980745553970337e-02
-3.374456241726875305e-02
-7.576472312211990356e-02
4.918443411588668823e-02
-1.015981361269950867e-01
2.715873997658491135e-03
8.183503895998001099e-02
-5.978515837341547012e-04
4.178852215409278870e-02
6.637535244226455688e-02
9.730852395296096802e-02
-1.105316542088985443e-02
4.606756940484046936e-02
-7.569274306297302246e-02
-8.784216642379760742e-02
-1.195454783737659454e-02
-8.950156718492507935e-02
1.416369676589965820e-01
1.282159537076950073e-01
-1.238925266079604626e-03
-9.800783358514308929e-03
-4.598987475037574768e-02
-1.791427377611398697e-03
2.924999035894870758e-02
5.261175334453582764e-02
7.989864051342010498e-02
1.021041572093963623e-01
1.125462874770164490e-01
-1.123451143503189087e-01
-2.768457122147083282e-02
7.249225396662950516e-03
9.468137472867965698e-02
6.913042813539505005e-02
-4.436296224594116211e-02
-2.415805310010910034e-02
9.267617017030715942e-03
6.251449882984161377e-02
1.283277198672294617e-02
3.822388127446174622e-02
7.163621485233306885e-02
4.515964165329933167e-02
-7.612506859004497528e-03
-4.509444162249565125e-02
-9.422780573368072510e-02
-1.008453965187072754e-01
-6.068813055753707886e-02
8.721972256898880005e-02
-9.545867145061492920e-02
-1.219967752695083618e-01
-5.663725361227989197e-02
5.105170607566833496e-02
5.672710016369819641e-02
-3.944566845893859863e-02
3.678935021162033081e-02
7.436712831258773804e-02
6.077863276004791260e-02
7.580590993165969849e-02
8.045133203268051147e-02
-3.583526983857154846e-02
2.414998598396778107e-02
5.410998314619064331e-02
1.332448124885559082e-01
1.186425089836120605e-01
6.135253701359033585e-03
-3.503219783306121826e-02
7.431852817535400391e-02
1.050580590963363647e-01
-3.011790104210376740e-02
-9.513553977012634277e-02
-1.676054671406745911e-02
1.144648641347885132e-01
-4.018008708953857422e-02
9.115438908338546753e-02
-3.490612655878067017e-02
-4.010877385735511780e-02
-8.555274456739425659e-02
-4.665863886475563049e-02
1.037874892354011536e-01
6.721493322402238846e-03
-2.626054733991622925e-02
3.919590264558792114e-02
6.789004057645797729e-02
8.453642576932907104e-02
7.445265352725982666e-02
9.566687047481536865e-02
6.434597820043563843e-02
-7.843477278947830200e-02
2.009174041450023651e-02
2.560158446431159973e-02
-1.200044974684715271e-01
-1.287708431482315063e-01
-7.108165323734283447e-02
7.263928651809692383e-02
-1.251545995473861694e-01
1.319389194250106812e-01
9.967374801635742188e-02
-8.106733113527297974e-02
8.575293421745300293e-02
-1.328660249710083008e-01
1.799275726079940796e-02
7.596638798713684082e-02
3.771768510341644287e-02
5.686414986848831177e-02
1.223905757069587708e-02
-8.561000227928161621e-02
-7.016917318105697632e-02
-8.158656954765319824e-02
-8.842272311449050903e-02
4.597713425755500793e-02
-5.343670397996902466e-02
1.350544393062591553e-02
-8.117229491472244263e-02
6.347803282551467419e-04
-8.982873708009719849e-02
-2.714554779231548309e-02
2.268665842711925507e-02
1.355360150337219238e-01
-5.717560276389122009e-02
-2.014879509806632996e-02
4.782121255993843079e-02
-6.741684395819902420e-03
-7.959714531898498535e-02
1.024518609046936035e-01
7.899802178144454956e-02
4.556744918227195740e-02
-2.516535669565200806e-02
-2.492571808397769928e-02
1.151520013809204102e-01
-5.743925645947456360e-02
1.282516568899154663e-01
1.011336594820022583e-01
8.754697442054748535e-02
-1.054386869072914124e-01
-4.133521579205989838e-04
1.297906506806612015e-02
-6.031344458460807800e-02
-2.594531513750553131e-02
-1.184312775731086731e-01
-3.197608515620231628e-02
7.377275079488754272e-02
1.291517820209264755e-02
-3.666618838906288147e-02
-7.438900321722030640e-02
9.768024086952209473e-02
3.647192614153027534e-03
6.345157977193593979e-03
9.718902409076690674e-02
-5.389122664928436279e-02
-7.324960082769393921e-02
-5.090413987636566162e-02
3.565875440835952759e-02
3.907804191112518311e-02
-1.098572015762329102e-01
3.513760864734649658e-02
-6.370010226964950562e-02
1.042581535875797272e-02
-6.388820242136716843e-03
-1.019724458456039429e-01
1.305367648601531982e-01
8.954875916242599487e-02
-7.251005619764328003e-02
-6.182368844747543335e-02
-6.667088717222213745e-02
-2.227140776813030243e-02
8.909113705158233643e-02
6.945694237947463989e-02
-3.405840322375297546e-02
-3.403401002287864685e-02
-3.310836106538772583e-02
-1.350914090871810913e-01
-3.317581862211227417e-02
9.678012132644653320e-02
-3.540867473930120468e-04
1.218438670039176941e-01
-1.018256843090057373e-01
-1.250997483730316162e-01
-6.274796277284622192e-02
1.097233146429061890e-01
-4.862975701689720154e-02
8.779033273458480835e-02
-7.876246422529220581e-02
-6.045137532055377960e-03
-5.209212377667427063e-02
-1.645266194827854633e-03
-3.764449432492256165e-02
5.687209963798522949e-02
-5.690057203173637390e-02
-1.464526169002056122e-02
-9.222995489835739136e-03
3.703496232628822327e-02
-5.737738683819770813e-02
1.228919476270675659e-01
1.017819643020629883e-01
9.762624651193618774e-02
-7.047761976718902588e-02
-7.371057290583848953e-03
-5.136445537209510803e-02
-9.233760647475719452e-03
-3.973834589123725891e-02
-3.355860942974686623e-03
-6.918890029191970825e-02
1.314909309148788452e-01
-3.381950035691261292e-02
-5.106150731444358826e-02
1.286772489547729492e-01
1.301334649324417114e-01
5.241206660866737366e-02
9.685153514146804810e-02
9.332549571990966797e-02
1.661594212055206299e-02
7.931900769472122192e-02
-8.458599448204040527e-02
9.805539995431900024e-02
-1.000548303127288818e-01
-9.558514505624771118e-02
1.203837618231773376e-02
-1.022604480385780334e-01
-3.395297005772590637e-02
1.289782971143722534e-01
-7.181394845247268677e-02
5.564877018332481384e-02
5.488486588001251221e-02
8.783062547445297241e-02
-1.241887882351875305e-01
6.727421283721923828e-02
1.121503412723541260e-01
-3.917161375284194946e-03
8.178456127643585205e-02
4.512612894177436829e-02
-1.322360634803771973e-01
6.019379571080207825e-02
1.418334804475307465e-02
6.419415026903152466e-02
8.733539283275604248e-02
8.481154590845108032e-02
-1.210322901606559753e-01
-9.792129695415496826e-02
8.870525285601615906e-03
-1.197415664792060852e-01
-1.127349492162466049e-02
-6.292217224836349487e-02
-1.090375483036041260e-01
-6.129653751850128174e-02
1.568360440433025360e-02
3.375195711851119995e-02
-9.261727333068847656e-02
-6.955649703741073608e-02
-1.410525385290384293e-02
-1.832773722708225250e-02
9.687126427888870239e-02
-5.027071759104728699e-02
-1.258092522621154785e-01
5.621480196714401245e-02
2.415020391345024109e-02
-3.380366414785385132e-02
-6.281547993421554565e-02
-1.097397729754447937e-01
-3.490060567855834961e-02
2.831105329096317291e-02
-3.141271695494651794e-02
-1.196397095918655396e-01
-7.620780169963836670e-02
-8.297042548656463623e-02
-1.045101657509803772e-01
5.806380882859230042e-02
-1.355952862650156021e-02
-1.146165505051612854e-01
-1.277855783700942993e-01
-1.254355460405349731e-01
-9.022682905197143555e-02
1.182801052927970886e-01
6.311970204114913940e-02
4.739942774176597595e-02
1.178141534328460693e-01
6.787497084587812424e-03
8.049450069665908813e-02
8.244017139077186584e-03
-2.097709104418754578e-02
1.067865081131458282e-02
5.229351297020912170e-02
-4.831195250153541565e-02
-1.208795905113220215e-01
-6.033001467585563660e-02
-6.048954650759696960e-02
-5.109640769660472870e-03
-6.975769996643066406e-02
7.153926789760589600e-02
-8.059711754322052002e-02
9.941326454281806946e-03
-9.373579174280166626e-03
-8.743450045585632324e-02
-1.121365651488304138e-01
-1.184347942471504211e-01
1.006787419319152832e-01
-5.509579926729202271e-02
1.349508017301559448e-01
1.189352720975875854e-01
9.025994688272476196e-02
-1.652711629867553711e-02
6.348488479852676392e-02
-2.967491978779435158e-03
-7.059393823146820068e-02
6.470030639320611954e-03
6.980635225772857666e-02
2.463645860552787781e-02
-1.125660315155982971e-01
-6.902866810560226440e-02
8.179093897342681885e-02
-4.335937649011611938e-02
2.564484439790248871e-02
-3.205884620547294617e-02
-1.127331331372261047e-01
-9.579569101333618164e-02
4.216957092285156250e-02
-4.229787737131118774e-02
-6.021949276328086853e-02
-8.422576636075973511e-02
-9.976908564567565918e-03
-1.228714883327484131e-01
1.242481470108032227e-01
7.173833996057510376e-02
-8.181092888116836548e-02
-1.004757732152938843e-01
-1.175810992717742920e-01
-1.052096784114837646e-01
-4.696192219853401184e-02
7.880329340696334839e-02
5.815444514155387878e-02
7.546881679445505142e-03
-5.593636073172092438e-03
1.068229903466999531e-03
6.041594222187995911e-02
-8.044903725385665894e-02
-9.041320532560348511e-02
6.487455219030380249e-02
4.971627146005630493e-02
-9.674673527479171753e-02
4.898470640182495117e-02
-9.494570642709732056e-02
-6.690494716167449951e-02
5.870970711112022400e-02
-3.433747589588165283e-02
8.805625140666961670e-02
7.426803559064865112e-02
-8.590074628591537476e-02
-1.114799529314041138e-01
-5.740735679864883423e-02
2.270657569169998169e-02
9.350562095642089844e-02
-3.739054873585700989e-02
6.162482872605323792e-02
9.262231737375259399e-02
2.743693999946117401e-02
5.028956010937690735e-02
-1.221638247370719910e-01
3.720182180404663086e-02
1.272727549076080322e-01
2.866340242326259613e-02
-5.111989378929138184e-02
-1.096719428896903992e-01
-8.059951663017272949e-02
-1.300155967473983765e-01
-7.195324450731277466e-02
-1.629738323390483856e-02
-6.345052272081375122e-02
-8.584935218095779419e-02
-1.263730227947235107e-01
-1.030820533633232117e-01
6.236198171973228455e-02
-6.783808022737503052e-02
-3.092066757380962372e-02
-1.053320318460464478e-01
1.315183192491531372e-01
-7.220236118882894516e-03
5.916927382349967957e-02
3.807551183854229748e-05
9.339554235339164734e-03
3.980185464024543762e-02
9.176184237003326416e-02
9.125502407550811768e-02
-2.764354646205902100e-02
-7.201171666383743286e-02
1.373952329158782959e-01
7.236162573099136353e-02
-9.744042158126831055e-02
1.693454198539257050e-02
5.845604464411735535e-02
1.542152930051088333e-02
-1.890966319479048252e-03
6.094287335872650146e-02
5.490889772772789001e-02
-1.033920869231224060e-01
-3.269194066524505615e-02
-9.176326915621757507e-03
-4.415754973888397217e-02
-5.730602145195007324e-02
9.874007105827331543e-02
-1.134135499596595764e-01
2.566420286893844604e-02
6.467226147651672363e-02
4.283594340085983276e-02
7.609570026397705078e-02
3.895723959431052208e-03
3.159407153725624084e-02
7.891728729009628296e-02
1.173084694892168045e-02
1.372621357440948486e-01
-9.460313618183135986e-02
4.566886276006698608e-02
8.362369239330291748e-02
-1.084654852747917175e-01
8.358134329319000244e-02
-1.140479817986488342e-01
3.844681754708290100e-02
1.096560955047607422e-01
-1.298423558473587036e-01
9.473240375518798828e-02
-2.733182162046432495e-02
7.111722230911254883e-02
-1.272315829992294312e-01
-2.603769861161708832e-02
4.232470691204071045e-02
-7.946613430976867676e-02
-1.872103661298751831e-02
8.943281322717666626e-02
-1.787354005500674248e-03
-1.246638745069503784e-01
6.458903849124908447e-02
-8.961681276559829712e-02
1.148480549454689026e-01
1.086840480566024780e-01
1.151370927691459656e-01
1.120950877666473389e-01
8.381847292184829712e-02
-1.011066734790802002e-01
-8.746042102575302124e-02
-8.701116591691970825e-02
-7.733834534883499146e-02
8.202679455280303955e-02
7.436678558588027954e-02
6.110752467066049576e-03
-1.052181497216224670e-01
-3.712107241153717041e-02
1.323325466364622116e-02
-4.247126355767250061e-02
1.184557154774665833e-01
5.808314681053161621e-02
1.689648814499378204e-02
1.269772797822952271e-01
1.425143629312515259e-01
-3.221169463358819485e-04
-4.574004188179969788e-02
7.204561680555343628e-02
-6.634756922721862793e-02
-5.608609062619507313e-04
1.106540858745574951e-01
-3.037383407354354858e-02
8.542482554912567139e-02
-9.521558135747909546e-02
-2.617979235947132111e-02
5.023810639977455139e-02
5.580449849367141724e-02
-6.280630081892013550e-02
8.932089805603027344e-02
5.342484265565872192e-02
-2.189629338681697845e-02
1.096195429563522339e-01
-6.791669875383377075e-02
-9.663139283657073975e-02
2.063792571425437927e-02
1.237208396196365356e-01
-7.219780981540679932e-02
-2.264832705259323120e-02
-9.895665943622589111e-02
5.914057418704032898e-02
4.056499153375625610e-02
-1.001648008823394775e-01
1.070547197014093399e-02
-9.571803733706474304e-03
-6.105734407901763916e-02
-1.132856160402297974e-01
-6.619472056627273560e-02
6.289015710353851318e-02
-1.899956911802291870e-02
5.260484293103218079e-03
2.885180152952671051e-02
-4.193925485014915466e-02
-7.517939805984497070e-02
-1.306424662470817566e-02
-4.535168781876564026e-02
1.470620860345661640e-03
4.208151996135711670e-02
-5.073210597038269043e-02
3.080747462809085846e-02
1.570280641317367554e-02
6.061057001352310181e-02
-1.187506392598152161e-01
2.279292978346347809e-02
-1.255276948213577271e-01
6.535223871469497681e-02
-1.060382500290870667e-01
9.495359659194946289e-02
2.774191088974475861e-02
-8.603636175394058228e-02
-1.022533550858497620e-01
6.428968161344528198e-02
-5.848618224263191223e-02
7.541848719120025635e-02
-1.298512704670429230e-02
-4.514230415225028992e-02
-1.020872518420219421e-01
3.060811012983322144e-02
7.279486954212188721e-02
-1.066231504082679749e-01
-1.089958027005195618e-01
1.031875163316726685e-01
-1.079827845096588135e-01
-9.070378541946411133e-02
8.119058609008789062e-02
1.002539619803428650e-01
-9.524638950824737549e-02
-1.583226583898067474e-02
-1.468191016465425491e-02
-2.463702112436294556e-02
-1.185938566923141479e-01
-3.148176940158009529e-03
-6.089159846305847168e-02
7.458613812923431396e-02
1.239230185747146606e-01
1.383684575557708740e-01
-5.267553031444549561e-02
-1.525971014052629471e-02
1.187961325049400330e-01
-7.786919921636581421e-02
-8.118759840726852417e-02
-5.608505383133888245e-02
-6.296893954277038574e-02
1.005877032876014709e-01
-5.811196938157081604e-02
-7.120619714260101318e-02
7.693281024694442749e-02
2.370673604309558868e-02
-4.017550870776176453e-02
1.845329999923706055e-02
-6.493790447711944580e-02
-3.644044697284698486e-02
-2.619996108114719391e-02
-3.074819035828113556e-02
3.688671812415122986e-02
-9.683990478515625000e-02
8.581700176000595093e-02
1.078065708279609680e-01
5.217628553509712219e-02
5.621823295950889587e-02
3.622100874781608582e-02
4.512570425868034363e-02
-9.516199678182601929e-02
-9.217198193073272705e-02
9.811482392251491547e-03
-6.263197213411331177e-02
-6.618058681488037109e-02
6.948085129261016846e-02
-6.753675639629364014e-02
-8.523524552583694458e-02
-1.205170899629592896e-01
-1.271969676017761230e-01
2.846293337643146515e-02
-1.333076208829879761e-01
-6.618531793355941772e-02
1.013909801840782166e-01
8.083621412515640259e-02
1.082148700952529907e-01
1.493427250534296036e-02
1.296319961547851562e-01
-8.103442192077636719e-02
-6.097422167658805847e-02
6.914577633142471313e-02
-7.404876500368118286e-02
1.028507724404335022e-01
-4.832530394196510315e-02
8.458875864744186401e-02
5.252135172486305237e-02
-8.278577029705047607e-02
-1.634115539491176605e-02
6.243145465850830078e-02
-1.250661313533782959e-01
-3.603307902812957764e-02
1.538618188351392746e-02
4.053237382322549820e-03
-1.089955940842628479e-01
-8.167434483766555786e-02
1.344738993793725967e-02
2.817538380622863770e-02
7.712242007255554199e-02
6.931450217962265015e-02
-2.329964190721511841e-02
-1.064626798033714294e-01
-3.940852731466293335e-02
-2.077150903642177582e-02
-2.468161657452583313e-02
-4.618563503026962280e-02
7.649158686399459839e-02
4.996706917881965637e-02
5.656698346138000488e-02
6.123599410057067871e-02
7.347019016742706299e-02
2.174776419997215271e-02
1.345248054713010788e-02
1.650976762175559998e-02
2.757954597473144531e-02
1.002495549619197845e-02
-2.732779644429683685e-02
1.226851642131805420e-01
1.210455521941184998e-01
2.056285925209522247e-02
1.886765100061893463e-02
9.771930426359176636e-02
4.519226029515266418e-02
-8.240897953510284424e-02
-5.317144840955734253e-02
-8.420043438673019409e-02
2.662123367190361023e-02
-1.010297015309333801e-01
-5.873221531510353088e-02
-3.851695731282234192e-02
2.236856520175933838e-02
-3.092815168201923370e-02
9.187760949134826660e-02
-9.596347063779830933e-02
-5.698583275079727173e-02
-1.104247048497200012e-01
3.086309321224689484e-02
5.098768323659896851e-02
-5.484039336442947388e-02
1.252479664981365204e-02
9.259271621704101562e-02
-2.847873792052268982e-02
-1.199727281928062439e-01
-2.116944827139377594e-02
7.445817440748214722e-02
3.940540924668312073e-02
-1.383252143859863281e-01
-8.116459101438522339e-02
9.575480967760086060e-02
-1.202924177050590515e-02
-1.637542620301246643e-03
1.529024634510278702e-02
8.813153207302093506e-02
-8.609385043382644653e-02
1.150969341397285461e-01
1.078851521015167236e-01
1.086400076746940613e-01
-5.824659019708633423e-02
4.112564027309417725e-02
-9.701558202505111694e-02
6.097486242651939392e-02
-4.029000550508499146e-02
-3.761549293994903564e-02
4.644884169101715088e-02
-4.188786819577217102e-02
9.014528989791870117e-02
1.264391541481018066e-01
-2.545658312737941742e-02
-2.173585817217826843e-03
-1.368590146303176880e-01
4.059055075049400330e-02
-9.554979950189590454e-02
-8.751549571752548218e-02
5.595564469695091248e-02
1.196151226758956909e-01
-6.279660761356353760e-02
-8.789010345935821533e-02
-1.236810535192489624e-01
7.625401765108108521e-02
-5.705472081899642944e-02
-2.854049205780029297e-02
6.909926887601613998e-03
9.741823375225067139e-02
-1.193806007504463196e-01
-8.689900487661361694e-02
-4.789159446954727173e-02
5.062521249055862427e-02
1.088839918375015259e-01
-4.769521579146385193e-02
-4.453893005847930908e-02
-9.239502996206283569e-02
4.568737000226974487e-02
1.118477508425712585e-01
1.354272067546844482e-01
-9.246776252985000610e-02
-2.106902934610843658e-02
-6.901483982801437378e-02
-5.713424459099769592e-02
-1.028945520520210266e-01
5.284757167100906372e-02
-1.384781897068023682e-01
8.189154416322708130e-02
1.242459490895271301e-01
2.600950375199317932e-02
8.090887218713760376e-02
-1.045698747038841248e-01
-9.120322018861770630e-02
6.351161003112792969e-02
-1.166786300018429756e-03
7.894567400217056274e-02
1.118507683277130127e-01
-4.982826486229896545e-02
-3.463029116392135620e-02
8.433526009321212769e-02
1.098728030920028687e-01
5.698553845286369324e-02
-3.584965318441390991e-02
4.748925566673278809e-02
-1.040102168917655945e-01
7.832999341189861298e-03
8.813091367483139038e-02
-5.366585403680801392e-02
4.801612719893455505e-02
-9.552988223731517792e-03
-5.445105209946632385e-02
-1.044627428054809570e-01
-9.971707314252853394e-02
5.824795365333557129e-02
-1.616019383072853088e-02
1.069889664649963379e-01
5.665231868624687195e-02
-1.371771395206451416e-01
-2.143451198935508728e-02
-8.390451222658157349e-02
-2.300574071705341339e-02
-6.781172007322311401e-02
-8.604320883750915527e-02
-5.678518489003181458e-02
1.155808642506599426e-01
5.064641311764717102e-02
-3.358550742268562317e-02
7.001404464244842529e-02
1.066642254590988159e-02
-7.588095217943191528e-02
-6.547459401190280914e-03
-8.880932629108428955e-02
-1.166105829179286957e-02
1.135177388787269592e-01
4.320451244711875916e-02
-9.564943611621856689e-03
-1.057089567184448242e-01
2.415632642805576324e-02
-2.136851474642753601e-02
1.207203343510627747e-01
-1.129878405481576920e-02
2.493870817124843597e-02
-1.043359637260437012e-01
-1.280682682991027832e-01
-4.254308715462684631e-02
-1.222563609480857849e-01
1.750201219692826271e-03
-6.249468401074409485e-02
5.052875727415084839e-02
-5.248463526368141174e-02
1.001070216298103333e-01
-3.092549182474613190e-02
-4.767034947872161865e-02
-1.063344255089759827e-01
-1.170930638909339905e-01
1.036261841654777527e-01
-1.866107806563377380e-02
-2.005734480917453766e-02
-5.393604189157485962e-02
2.181565016508102417e-02
-1.200020909309387207e-01
-7.627156376838684082e-02
9.969657659530639648e-02
5.351850762963294983e-02
-1.182912383228540421e-02
-7.153327763080596924e-02
1.006228774785995483e-01
9.514302015304565430e-02
4.843730479478836060e-02
-9.415689855813980103e-02
3.447676822543144226e-02
-9.086055308580398560e-02
5.133305490016937256e-02
-9.806153178215026855e-02
4.146325215697288513e-02
1.045587509870529175e-01
7.899843156337738037e-02
1.265086978673934937e-01
-2.789023891091346741e-02
1.241618320345878601e-01
4.801462218165397644e-02
-4.056652635335922241e-02
5.146970227360725403e-02
3.048717044293880463e-02
2.063530124723911285e-02
-8.700170367956161499e-02
9.692253917455673218e-02
1.563982293009757996e-02
4.101758822798728943e-04
-3.241782262921333313e-02
7.982283085584640503e-02
-9.833003580570220947e-02
4.229740053415298462e-02
-7.839184254407882690e-02
-3.669380769133567810e-02
5.397244170308113098e-02
4.359574243426322937e-02
-1.172444690018892288e-02
-7.769727706909179688e-02
3.874989971518516541e-02
1.236598789691925049e-01
-4.268208518624305725e-03
5.445402488112449646e-02
7.573624700307846069e-02
-6.136347539722919464e-03
8.217719197273254395e-02
-1.788281649351119995e-02
7.581321895122528076e-02
7.617188245058059692e-02
-5.465621873736381531e-02
1.099014058709144592e-01
3.431052900850772858e-03
-8.149202913045883179e-02
7.044041156768798828e-02
5.391754209995269775e-02
1.423647347837686539e-02
8.779322355985641479e-02
-9.449896216392517090e-02
4.893519356846809387e-02
-6.036732345819473267e-02
-9.193327277898788452e-02
4.261976107954978943e-02
4.147686809301376343e-02
-7.550561428070068359e-02
-1.146322265267372131e-01
1.968864537775516510e-02
-8.043955313041806221e-05
1.127684116363525391e-01
7.086100429296493530e-02
1.099334936589002609e-02
1.218268573284149170e-01
3.989133611321449280e-02
-2.420172095298767090e-03
-1.015582866966724396e-02
8.199766278266906738e-02
-6.881589442491531372e-02
2.621177583932876587e-02
-5.731761083006858826e-02
1.258715391159057617e-01
5.572015047073364258e-02
7.382894307374954224e-02
6.480687111616134644e-02
8.705847710371017456e-02
-1.124407798051834106e-01
4.701794683933258057e-02
3.525063022971153259e-02
-1.280137300491333008e-01
4.388587921857833862e-02
7.851433008909225464e-02
-1.778439059853553772e-02
5.185154825448989868e-02
1.063601151108741760e-01
9.645465761423110962e-02
3.751363977789878845e-02
-9.949169307947158813e-02
1.130326464772224426e-01
-7.839293777942657471e-02
3.176140785217285156e-02
-8.781910687685012817e-02
1.211305558681488037e-01
-8.190417289733886719e-02
1.104884743690490723e-01
8.742050826549530029e-02
-7.290758192539215088e-02
4.525590315461158752e-02
1.527719758450984955e-02
2.512798272073268890e-02
-5.824715271592140198e-02
1.034643650054931641e-01
-7.092025130987167358e-02
-3.667248412966728210e-02
-1.016710475087165833e-01
4.357579723000526428e-02
-3.021693229675292969e-02
5.702673643827438354e-02
3.327547386288642883e-02
1.913493312895298004e-02
6.312929838895797729e-02
-1.699667610228061676e-02
1.082314625382423401e-01
-3.607430309057235718e-02
6.691446900367736816e-02
-8.321255445480346680e-02
1.138143986463546753e-01
-1.296679228544235229e-01
-5.614505335688591003e-02
-1.909943530336022377e-03
-9.605270810425281525e-03
-5.306309089064598083e-03
-1.173546686768531799e-01
-1.237121075391769409e-01
3.946573659777641296e-02
8.218624442815780640e-02
4.794439673423767090e-02
8.058963716030120850e-02
-9.625005722045898438e-02
-2.267384156584739685e-02
9.576237946748733521e-02
-3.403134644031524658e-02
-5.687661841511726379e-02
1.906958781182765961e-02
-5.181235074996948242e-02
-1.357441544532775879e-01
-5.871612206101417542e-02
5.300430208444595337e-02
1.723271422088146210e-02
-6.494121998548507690e-02
-8.411990106105804443e-02
7.715269178152084351e-02
-1.775963976979255676e-02
-2.144528552889823914e-02
-5.816420167684555054e-02
1.262103319168090820e-01
9.381046891212463379e-02
5.814331769943237305e-02
3.768190369009971619e-02
1.239739358425140381e-02
-4.656272381544113159e-02
-8.641331456601619720e-03
-1.068033203482627869e-01
-3.823931142687797546e-02
8.857267349958419800e-02
1.211873367428779602e-01
6.229184567928314209e-02
-5.582377314567565918e-02
9.540554136037826538e-02
-9.724796563386917114e-02
-3.271925821900367737e-02
-5.947871133685112000e-02
-6.085476651787757874e-02
-2.716164663434028625e-02
5.272722989320755005e-02
3.686501085758209229e-02
7.849883288145065308e-02
6.253208220005035400e-02
-3.575503826141357422e-02
8.313484489917755127e-02
6.346558779478073120e-02
-3.114743344485759735e-02
4.700163751840591431e-02
-1.625969074666500092e-02
1.109993681311607361e-01
-1.058948636054992676e-01
1.066529098898172379e-02
-6.899498868733644485e-03
-9.069544821977615356e-02
6.344496458768844604e-02
-1.168525740504264832e-01
-6.915444880723953247e-02
-4.197384044528007507e-02
2.963434904813766479e-02
-2.921165712177753448e-02
1.200120747089385986e-01
3.573304275050759315e-03
-5.325842276215553284e-02
4.376871511340141296e-02
-1.201731339097023010e-01
-3.095602244138717651e-02
4.373631998896598816e-02
-3.349449252709746361e-03
9.371856600046157837e-02
-7.924963533878326416e-02
8.741207420825958252e-02
-2.742294967174530029e-02
-7.631395943462848663e-03
-2.159238606691360474e-02
-1.366651244461536407e-02
5.646432284265756607e-03
4.213310405611991882e-02
-8.105998486280441284e-02
-5.718411505222320557e-02
1.764089101925492287e-03
-6.603163480758666992e-02
-3.111565299332141876e-02
3.260378539562225342e-02
9.717640466988086700e-03
1.084299944341182709e-02
1.137488335371017456e-01
-1.242088004946708679e-01
4.741297289729118347e-02
6.837586313486099243e-02
-1.184184774756431580e-01
-3.673530183732509613e-03
-5.170375108718872070e-02
-8.149022236466407776e-03
7.914212346076965332e-02
7.315275259315967560e-03
-8.076238632202148438e-02
1.655974239110946655e-02
6.569560151547193527e-03
-1.111294701695442200e-01
4.969164356589317322e-02
-1.101943105459213257e-01
-1.002667099237442017e-01
2.790897898375988007e-02
3.287665545940399170e-02
-9.171546995639801025e-02
-1.023172289133071899e-01
2.101844735443592072e-02
-1.178717091679573059e-01
-4.160409420728683472e-02
6.485460698604583740e-02
-4.417010024189949036e-02
-6.014382466673851013e-02
1.139675006270408630e-01
-1.567950285971164703e-02
2.539962902665138245e-02
-1.106473580002784729e-01
-5.733139812946319580e-02
-3.279997035861015320e-02
-6.445015966892242432e-02
3.815897554159164429e-02
9.562921524047851562e-02
1.120153516530990601e-01
1.361843645572662354e-01
1.631491445004940033e-02
-6.762669980525970459e-02
1.025759875774383545e-01
1.960231550037860870e-02
6.117873638868331909e-02
-5.036552622914314270e-02
-3.928019106388092041e-02
-7.911308109760284424e-02
-8.759135007858276367e-02
-9.530617296695709229e-02
2.001921087503433228e-02
-2.875120006501674652e-02
-5.738899111747741699e-03
-8.250956237316131592e-02
8.637876808643341064e-02
2.041524648666381836e-02
-9.087024629116058350e-02
1.376649085432291031e-02
8.509545028209686279e-02
1.045579910278320312e-01
-2.579467557370662689e-02
-3.256635740399360657e-02
-4.113435372710227966e-02
-5.669703334569931030e-02
-5.199760943651199341e-02
1.124799717217683792e-02
6.833951175212860107e-02
-1.042139977216720581e-01
8.334371447563171387e-02
1.050615459680557251e-01
-1.321127451956272125e-02
2.830643579363822937e-02
1.026216074824333191e-01
-6.220187991857528687e-02
-9.313684701919555664e-02
-2.287186495959758759e-02
1.173584833741188049e-01
-1.385862380266189575e-02
-1.059899181127548218e-01
-4.147566482424736023e-02
-2.335963584482669830e-02
6.860937923192977905e-02
-1.048646345734596252e-01
-1.578809134662151337e-02
2.228090539574623108e-02
4.114380851387977600e-02
-1.297249644994735718e-01
3.333483263850212097e-02
1.039521396160125732e-02
1.522737275809049606e-02
9.420432895421981812e-02
-4.161062464118003845e-02
4.854072257876396179e-02
7.336222380399703979e-02
6.585954874753952026e-02
-6.368319690227508545e-02
-8.244536817073822021e-02
1.196579821407794952e-02
1.378653496503829956e-01
8.670186996459960938e-02
-4.781860113143920898e-02
6.888764351606369019e-02
2.126852981746196747e-02
-1.067326590418815613e-01
-6.348858028650283813e-02
-4.321807995438575745e-02
-1.086679473519325256e-01
7.426229864358901978e-02
8.566066622734069824e-02
-7.285499479621648788e-03
4.401742480695247650e-03
-8.911556005477905273e-02
2.765263058245182037e-02
6.213979423046112061e-02
3.350443765521049500e-02
1.200507134199142456e-01
6.407745927572250366e-02
1.204894855618476868e-01
4.813661053776741028e-02
1.241068169474601746e-01
2.157074399292469025e-02
2.526566199958324432e-02
-2.195568755269050598e-02
9.528374671936035156e-02
-7.286238670349121094e-02
6.756892800331115723e-02
-8.364234119653701782e-02
-7.927124202251434326e-02
3.108672983944416046e-02
1.027811020612716675e-01
9.614516794681549072e-02
1.100532412528991699e-01
2.547930181026458740e-02
-1.393332518637180328e-02
-3.171928226947784424e-02
2.516676299273967743e-02
-2.447399497032165527e-02
-8.364342898130416870e-02
-1.568511873483657837e-02
-7.516408711671829224e-02
1.185670495033264160e-01
8.904802799224853516e-02
-1.742561906576156616e-02
2.309121191501617432e-02
4.357983171939849854e-02
-1.313305646181106567e-02
8.230481296777725220e-02
5.404962971806526184e-02
4.918703436851501465e-02
-7.901082187891006470e-02
-3.882738947868347168e-02
2.085042744874954224e-02
1.926970900967717171e-03
-1.223147734999656677e-01
-1.262695491313934326e-01
1.301061660051345825e-01
7.908832281827926636e-02
1.027364432811737061e-01
3.384051844477653503e-02
1.021113898605108261e-02
-6.206077057868242264e-03
1.232547014951705933e-01
7.918722182512283325e-02
3.751833364367485046e-02
1.221076995134353638e-01
-1.168706454336643219e-02
1.287978142499923706e-01
3.964346274733543396e-02
1.081297472119331360e-01
2.177444100379943848e-02
3.432672470808029175e-02
-1.183739230036735535e-01
1.234290525317192078e-01
6.450645625591278076e-02
-2.681463211774826050e-02
1.325917690992355347e-01
2.601587772369384766e-02
-1.184184178709983826e-01
-7.543111592531204224e-02
9.796869009733200073e-02
1.857713051140308380e-02
2.096364274621009827e-02
8.354836702346801758e-02
-1.114163994789123535e-01
1.071074008941650391e-01
-9.108948707580566406e-02
3.220744803547859192e-02
1.046562567353248596e-01
-1.802655402570962906e-03
1.167854592204093933e-01
-1.637731119990348816e-02
8.017458021640777588e-02
-3.841219842433929443e-02
-4.957263171672821045e-02
7.140969485044479370e-02
7.404742389917373657e-02
-1.783142983913421631e-02
3.968349099159240723e-02
-6.352210789918899536e-02
6.625901162624359131e-02
5.484590306878089905e-02
4.339821171015501022e-03
-4.296733811497688293e-02
6.853908300399780273e-02
-5.444422364234924316e-02
-9.087624400854110718e-02
8.095820248126983643e-02
1.491783745586872101e-02
4.492719843983650208e-02
-1.145792305469512939e-01
1.033931598067283630e-01
-3.025932796299457550e-02
-6.128160748630762100e-03
4.717069491744041443e-02
-2.243250980973243713e-02
6.468734145164489746e-02
-5.005673691630363464e-02
2.552921883761882782e-02
2.538802102208137512e-02
-1.427290309220552444e-02
-1.248091906309127808e-01
4.877198860049247742e-02
8.205554634332656860e-02
1.167966425418853760e-01
1.140696704387664795e-01
-4.416343942284584045e-02
-1.360731292515993118e-02
-7.794109731912612915e-02
-1.190497074276208878e-02
3.286358714103698730e-02
8.252676576375961304e-02
2.204780466854572296e-02
8.884830772876739502e-02
-9.524595737457275391e-02
-1.416971981525421143e-01
-2.081487700343132019e-02
-3.957666922360658646e-04
-7.445061951875686646e-02
4.802573099732398987e-02
4.740721359848976135e-02
1.171497907489538193e-02
-4.471797123551368713e-02
3.744776919484138489e-02
-1.429871469736099243e-02
-2.402391517534852028e-03
4.914276674389839172e-02
-7.499649375677108765e-02
-6.336328387260437012e-02
1.030896827578544617e-01
1.385361403226852417e-01
8.534924685955047607e-02
1.186389848589897156e-01
1.720290817320346832e-02
2.373267710208892822e-02
3.647042438387870789e-02
5.116723850369453430e-02
9.199614077806472778e-02
2.757752314209938049e-02
5.561728612519800663e-04
-1.826827228069305420e-02
2.525450475513935089e-02
1.294654309749603271e-01
6.083027273416519165e-02
1.068552434444427490e-01
-3.407500684261322021e-03
-2.904590591788291931e-02
-6.574808061122894287e-02
-4.168612882494926453e-02
-1.140773296356201172e-01
-9.958663582801818848e-02
9.244301915168762207e-02
7.223840057849884033e-02
1.183612123131752014e-01
-8.638096600770950317e-02
2.649527788162231445e-02
-7.546479254961013794e-02
-1.029755696654319763e-01
-6.805936992168426514e-02
8.933056145906448364e-02
-2.357538760406896472e-04
-1.235931962728500366e-01
2.726746350526809692e-02
2.350811101496219635e-02
-4.278046544641256332e-03
1.031852513551712036e-01
-1.077730134129524231e-01
7.350321114063262939e-02
8.480583317577838898e-03
-1.457860320806503296e-02
1.126861721277236938e-01
-1.002877354621887207e-01
-8.565531112253665924e-03
3.279333189129829407e-02
-9.173803962767124176e-03
-3.926025703549385071e-02
9.174808114767074585e-02
4.299550503492355347e-02
1.930967345833778381e-02
-1.199024170637130737e-01
5.365209281444549561e-02
1.127729937434196472e-01
-9.927902370691299438e-02
1.043597832322120667e-01
-6.142095103859901428e-02
3.819481469690799713e-03
-6.875091791152954102e-02
6.651173532009124756e-02
-6.135958805680274963e-02
1.242699697613716125e-01
-7.382266223430633545e-02
7.323417067527770996e-02
1.132363453507423401e-01
4.845692589879035950e-02
-6.920014321804046631e-02
3.923837095499038696e-02
2.201437950134277344e-02
-8.122140914201736450e-02
-2.977978810667991638e-02
1.191329210996627808e-01
6.203312426805496216e-02
-4.125428944826126099e-02
-1.223001163452863693e-02
-1.180617958307266235e-01
-3.923369944095611572e-02
-4.534183070063591003e-03
-7.804145663976669312e-02
-3.486293554306030273e-02
-1.196984797716140747e-01
1.237555891275405884e-01
-4.046143591403961182e-02
-8.274301886558532715e-02
6.439390033483505249e-02
2.041094005107879639e-02
-8.174991235136985779e-04
-7.715054601430892944e-02
-1.796233281493186951e-02
-3.324812650680541992e-02
9.344281256198883057e-02
-3.686264902353286743e-02
3.093273378908634186e-02
-1.171741485595703125e-01
-6.407446414232254028e-02
1.013670712709426880e-01
-3.976862505078315735e-02
1.368209123611450195e-01
5.860891565680503845e-02
7.565671205520629883e-02
-9.612983465194702148e-02
-3.647367656230926514e-02
-2.535737818107008934e-03
5.048570781946182251e-02
-1.129116192460060120e-01
-4.633807390928268433e-02
1.275100857019424438e-01
1.098325848579406738e-02
-3.682497888803482056e-02
4.922503605484962463e-02
1.346642374992370605e-01
-9.566753357648849487e-02
1.449002884328365326e-02
-9.751476347446441650e-02
-5.343240126967430115e-02
2.318823523819446564e-02
8.085620589554309845e-03
3.743967041373252869e-02
-6.274116039276123047e-02
-1.484554260969161987e-02
1.908537559211254120e-02
-5.123637244105339050e-02
-1.134790927171707153e-01
7.719651609659194946e-02
1.030460745096206665e-01
7.449006661772727966e-04
-2.770067565143108368e-02
8.929995447397232056e-02
1.021364238113164902e-02
9.298498183488845825e-02
-4.280451685190200806e-02
3.024259395897388458e-02
4.833506792783737183e-02
8.478426188230514526e-02
-3.287617489695549011e-02
4.122282564640045166e-02
3.957322624046355486e-04
9.743516147136688232e-02
2.675745263695716858e-02
9.112148731946945190e-02
-9.705542027950286865e-02
6.754458695650100708e-02
-3.027219884097576141e-02
