5.960037559270858765e-02
7.438120990991592407e-02
-1.602360792458057404e-02
-3.544593602418899536e-02
-3.872772306203842163e-02
-1.348370593041181564e-02
4.240963980555534363e-02
1.951603568159043789e-03
-1.427538506686687469e-02
-6.308099627494812012e-02
4.714104533195495605e-02
-1.548786181956529617e-02
-4.689388442784547806e-03
2.669279836118221283e-02
-7.162377983331680298e-02
8.608756959438323975e-02
9.017753414809703827e-03
4.302909225225448608e-02
4.388593137264251709e-02
4.209827259182929993e-02
-7.978097349405288696e-02
6.303468346595764160e-02
-3.545313701033592224e-02
-5.324086174368858337e-02
-2.491832338273525238e-02
-3.471502661705017090e-02
-6.985450536012649536e-02
2.261717244982719421e-02
5.188871547579765320e-02
5.899458378553390503e-02
5.702320858836174011e-02
8.729887753725051880e-02
-7.437696307897567749e-02
-1.026819646358489990e-02
-7.852569222450256348e-02
7.544080913066864014e-02
8.027809113264083862e-02
2.194567024707794189e-02
8.301590383052825928e-02
-6.383053958415985107e-02
-3.456940129399299622e-02
-8.246009051799774170e-02
-1.224093139171600342e-03
1.712713204324245453e-02
1.807080954313278198e-02
4.599926620721817017e-02
5.647162720561027527e-02
-6.070370227098464966e-02
5.539429932832717896e-02
-4.976673796772956848e-02
6.432942301034927368e-02
4.631138872355222702e-03
-7.090754061937332153e-02
-8.301945775747299194e-02
6.343673914670944214e-02
2.522269636392593384e-02
5.910408869385719299e-02
-1.351308915764093399e-02
4.357443004846572876e-02
-3.078608773648738861e-02
5.600894987583160400e-02
-3.018068149685859680e-02
8.788402378559112549e-02
8.506135642528533936e-02
4.401977732777595520e-02
-7.756602764129638672e-02
-2.211728878319263458e-02
-3.436296805739402771e-02
-5.562514066696166992e-02
1.171581633388996124e-02
-6.803286820650100708e-02
3.982781246304512024e-02
2.833359502255916595e-02
3.907366842031478882e-02
-5.253807082772254944e-02
-4.808994382619857788e-02
8.401233702898025513e-03
-1.699073472991585732e-04
-7.223311066627502441e-02
3.709739074110984802e-02
-5.439163744449615479e-02
-7.485158741474151611e-02
5.235231667757034302e-02
1.817265897989273071e-02
-5.571921356022357941e-03
-2.876946143805980682e-02
6.016957014799118042e-02
5.169625580310821533e-02
-7.140973210334777832e-02
-6.345427036285400391e-02
3.556369245052337646e-02
3.469981253147125244e-02
-2.255470491945743561e-02
-3.765616938471794128e-02
1.339074596762657166e-02
-4.554109647870063782e-03
5.642222240567207336e-02
1.992457918822765350e-02
-1.389939524233341217e-02
-1.471635233610868454e-02
-1.627960242331027985e-02
1.760355569422245026e-02
-8.174580335617065430e-02
4.824563860893249512e-02
7.106265425682067871e-02
7.345744967460632324e-02
8.092843741178512573e-02
4.119231365621089935e-03
-7.765676826238632202e-02
3.879287838935852051e-02
-2.703923359513282776e-02
6.775742024183273315e-02
-6.947004795074462891e-02
-6.988187134265899658e-02
5.668331682682037354e-02
-2.642852440476417542e-02
7.197712361812591553e-02
5.470084026455879211e-02
4.947287589311599731e-02
-1.801052317023277283e-02
-2.019171416759490967e-02
-2.150495350360870361e-02
-8.731247484683990479e-02
-2.115069702267646790e-02
6.080266460776329041e-02
-2.972882427275180817e-02
2.657228149473667145e-02
-3.598351776599884033e-02
-4.883902892470359802e-02
1.900403387844562531e-02
2.058522216975688934e-02
4.374649748206138611e-02
4.752610996365547180e-02
-1.117619685828685760e-02
-4.585659876465797424e-02
3.667888790369033813e-02
6.368958950042724609e-02
8.251962810754776001e-02
5.015791580080986023e-02
-2.134159207344055176e-03
1.407661195844411850e-02
-2.031993865966796875e-02
2.916622534394264221e-02
-7.459072023630142212e-02
-2.194203436374664307e-02
-5.722406879067420959e-02
-4.675249755382537842e-02
4.965014755725860596e-02
-7.111723721027374268e-02
5.135185644030570984e-02
2.914701774716377258e-02
-8.610922843217849731e-02
-5.512612685561180115e-02
-5.251277983188629150e-02
1.576570980250835419e-02
4.343611374497413635e-02
-7.308989763259887695e-02
4.560283198952674866e-02
8.580132573843002319e-02
7.078162580728530884e-02
7.579040527343750000e-02
-5.711739137768745422e-02
-1.105980388820171356e-02
3.471317468211054802e-03
-3.897840622812509537e-03
-6.796503067016601562e-02
8.333248645067214966e-02
-5.665619298815727234e-02
-5.067449063062667847e-02
8.063834160566329956e-03
5.704244226217269897e-02
6.475590169429779053e-02
-4.656435176730155945e-02
-3.269841149449348450e-02
2.546106092631816864e-02
-2.373157814145088196e-02
-1.101534068584442139e-02
2.431252971291542053e-02
-3.650020435452461243e-02
6.495372951030731201e-02
4.479903727769851685e-02
5.321167781949043274e-02
-4.534270986914634705e-02
6.742645800113677979e-02
6.987594068050384521e-02
-8.129489608108997345e-03
-3.314001858234405518e-02
8.264059573411941528e-02
-4.129737243056297302e-02
-4.335602372884750366e-02
2.747623436152935028e-02
6.500759720802307129e-02
4.243260249495506287e-02
-5.162203684449195862e-02
1.260440889745950699e-02
-8.305986225605010986e-02
6.632086355239152908e-03
-3.254318982362747192e-02
-8.383812010288238525e-02
-4.100788012146949768e-02
-4.585450049489736557e-03
-3.466949239373207092e-02
-3.503312543034553528e-02
5.025539919734001160e-02
5.457073822617530823e-02
6.457542628049850464e-02
-3.205859288573265076e-02
3.139457106590270996e-02
6.833879649639129639e-02
1.556801889091730118e-02
3.101152554154396057e-02
7.396376878023147583e-02
-2.482075989246368408e-02
3.824496641755104065e-02
4.208650812506675720e-02
-1.524435542523860931e-02
1.542175933718681335e-02
-5.057212710380554199e-02
-2.061364799737930298e-02
4.306470975279808044e-02
-3.923529386520385742e-02
-7.586905360221862793e-02
7.430478185415267944e-02
-5.245766788721084595e-02
-8.769988268613815308e-02
6.329725682735443115e-02
-5.645216628909111023e-02
2.316054515540599823e-02
-2.764263004064559937e-02
4.814345389604568481e-02
7.564733922481536865e-02
2.000236883759498596e-02
4.320588335394859314e-02
-5.577104911208152771e-02
-8.719602599740028381e-03
-7.441399246454238892e-02
-4.914146289229393005e-02
5.773505195975303650e-02
1.574554666876792908e-02
-3.071213513612747192e-02
-5.102003738284111023e-02
4.357394203543663025e-02
3.739947080612182617e-02
2.175502106547355652e-02
-1.840416342020034790e-02
8.399482816457748413e-02
-7.923248410224914551e-02
4.123203456401824951e-02
6.566736847162246704e-02
-4.424289986491203308e-02
6.349270045757293701e-02
-3.481847047805786133e-02
1.248800288885831833e-02
-3.361919894814491272e-02
-2.392953960224986076e-03
8.350794017314910889e-02
6.748745590448379517e-02
-7.847434282302856445e-02
3.795639052987098694e-02
8.208852261304855347e-02
7.634721696376800537e-02
3.055868670344352722e-02
-1.963230036199092865e-02
8.226108551025390625e-02
6.323812156915664673e-02
-1.976913027465343475e-02
6.436695158481597900e-02
-3.442821558564901352e-03
-5.528393387794494629e-02
6.473194062709808350e-02
-8.417167514562606812e-02
3.558770194649696350e-02
-4.192006587982177734e-02
6.987913697957992554e-02
-3.665709495544433594e-02
-8.055879175662994385e-02
-3.011955134570598602e-02
2.644532360136508942e-02
-5.416835471987724304e-02
-4.983651265501976013e-02
-2.877209894359111786e-02
-3.531279787421226501e-02
-6.610942631959915161e-02
9.696057997643947601e-03
5.297474935650825500e-02
-3.901296481490135193e-02
3.988878056406974792e-02
3.597727417945861816e-02
5.255965143442153931e-02
5.904167890548706055e-02
-6.104510650038719177e-02
5.478396639227867126e-02
-3.439860418438911438e-02
-3.081499133259057999e-03
-3.023359552025794983e-02
-4.496485739946365356e-02
5.290246382355690002e-02
-2.170629799365997314e-02
2.512404881417751312e-02
-7.603714615106582642e-02
-2.954595722258090973e-02
-7.693430781364440918e-02
2.949008718132972717e-02
5.077004432678222656e-02
-7.822129875421524048e-02
-4.489499330520629883e-02
-5.952941626310348511e-02
5.952220782637596130e-02
-7.185820955783128738e-03
-6.817412376403808594e-02
7.966737449169158936e-02
-1.004557241685688496e-03
-1.991719752550125122e-02
-3.667793795466423035e-02
2.570187486708164215e-02
6.064690649509429932e-02
7.811020314693450928e-02
3.427991643548011780e-02
7.975725829601287842e-02
8.650885522365570068e-02
9.028846397995948792e-03
6.634526699781417847e-02
3.915070742368698120e-02
-7.318855822086334229e-02
4.914262518286705017e-02
8.000376820564270020e-02
-1.054294034838676453e-02
-2.849284373223781586e-02
-4.662763327360153198e-02
7.019171863794326782e-02
-5.503777414560317993e-03
-8.286872506141662598e-02
6.394182890653610229e-02
-5.184698104858398438e-02
-7.537305355072021484e-02
-5.192201212048530579e-02
2.921972610056400299e-02
-4.471730440855026245e-02
4.324831813573837280e-02
3.354882076382637024e-02
-5.835176259279251099e-02
2.767643146216869354e-02
3.966955840587615967e-02
-6.990070641040802002e-02
-5.652719736099243164e-02
-7.860717922449111938e-02
-1.591539941728115082e-02
-3.932107612490653992e-02
-6.725597381591796875e-02
5.135221406817436218e-02
5.784334987401962280e-02
-5.295726004987955093e-03
-8.818332850933074951e-02
-5.925873667001724243e-02
-4.828897863626480103e-02
-7.687859237194061279e-02
-4.830504953861236572e-02
-6.518419086933135986e-02
7.077702879905700684e-02
4.611957445740699768e-02
-4.341048002243041992e-02
3.236283734440803528e-02
-4.431499913334846497e-02
-3.198375925421714783e-02
7.239671796560287476e-02
-5.645479634404182434e-02
-2.978341281414031982e-02
-4.002987593412399292e-02
-6.537006795406341553e-02
8.712764829397201538e-02
3.507891669869422913e-02
-5.668488889932632446e-02
-5.351662263274192810e-02
-2.635560929775238037e-02
4.074062034487724304e-02
-2.623048424720764160e-02
3.992565721273422241e-02
-3.796706721186637878e-02
-8.279968798160552979e-02
-2.309026755392551422e-02
-5.772369727492332458e-02
7.558787614107131958e-02
-5.924823135137557983e-02
1.102425530552864075e-02
1.444685552269220352e-02
1.467618066817522049e-02
-8.293680846691131592e-03
7.813537865877151489e-02
-6.872997432947158813e-02
2.397277578711509705e-02
4.797714576125144958e-02
1.673928461968898773e-02
-3.936010226607322693e-02
1.241615973412990570e-02
-5.411087721586227417e-02
-7.338520139455795288e-02
-2.020766586065292358e-02
-4.274533316493034363e-02
1.700677163898944855e-02
-8.492988534271717072e-03
-8.238972164690494537e-03
1.165710762143135071e-02
-6.341869384050369263e-02
-8.591196686029434204e-02
-6.022017449140548706e-03
2.964584715664386749e-02
-6.877485662698745728e-02
5.528168380260467529e-02
3.254069387912750244e-02
3.257822617888450623e-02
-3.285713260993361473e-03
6.445825845003128052e-02
-3.620493039488792419e-02
6.560083478689193726e-02
3.199059888720512390e-02
-2.232371084392070770e-02
-3.988203033804893494e-02
-4.284120351076126099e-02
2.440331317484378815e-02
4.445922747254371643e-02
-2.469238126650452614e-03
1.973338611423969269e-02
3.086999990046024323e-02
-7.090036571025848389e-02
5.299657955765724182e-02
-3.550469875335693359e-02
-5.004470795392990112e-02
5.262667685747146606e-02
-7.052699476480484009e-02
-8.222385495901107788e-02
-5.112125352025032043e-02
5.282656848430633545e-02
-7.011369615793228149e-02
-4.392053931951522827e-02
5.203529819846153259e-02
1.647826097905635834e-02
3.049638820812106133e-03
-1.174194831401109695e-02
-3.476782515645027161e-02
-4.632135108113288879e-02
4.717091564089059830e-03
-7.382248342037200928e-02
1.645179279148578644e-02
-5.532736331224441528e-02
-2.149279415607452393e-02
1.828676275908946991e-02
1.222675852477550507e-02
-3.544487431645393372e-02
-1.788103766739368439e-02
8.532495051622390747e-02
-2.924164012074470520e-02
-3.118448518216609955e-02
-3.485581546556204557e-04
6.439156085252761841e-02
-5.784859508275985718e-02
1.113133504986763000e-02
8.638259768486022949e-02
-5.587990954518318176e-02
4.895012080669403076e-02
8.248091489076614380e-02
7.238599006086587906e-03
3.051489591598510742e-02
-1.948902383446693420e-03
-5.157931521534919739e-02
1.085127331316471100e-02
6.605250388383865356e-02
-2.923226915299892426e-02
8.245716989040374756e-02
-2.229324541985988617e-02
-8.779852837324142456e-02
-5.386491864919662476e-02
-2.515830472111701965e-02
-7.470998913049697876e-02
4.162751138210296631e-02
-4.640831798315048218e-02
5.393151938915252686e-02
-1.547133829444646835e-02
-5.771371349692344666e-02
-5.973414704203605652e-02
6.378119438886642456e-02
-1.004371047019958496e-02
8.254192769527435303e-02
-4.377430304884910583e-02
-3.704563900828361511e-02
-6.631777435541152954e-02
1.903481408953666687e-02
-1.762379426509141922e-03
-5.751940608024597168e-02
9.162687696516513824e-03
7.051061093807220459e-02
5.324557051062583923e-02
-7.246889919042587280e-02
1.058139931410551071e-02
6.045927107334136963e-02
-8.288598060607910156e-02
-3.750480338931083679e-02
3.814141824841499329e-02
-4.807079210877418518e-02
-5.856776144355535507e-03
2.881714515388011932e-02
-4.567683115601539612e-02
2.987693622708320618e-02
1.271672919392585754e-02
-7.075045257806777954e-02
4.133352637290954590e-02
1.396087743341922760e-02
-3.064526244997978210e-02
-2.419921383261680603e-02
3.277103602886199951e-02
8.639931678771972656e-02
-9.246843867003917694e-03
-4.344695713371038437e-03
8.769464492797851562e-02
-5.056288838386535645e-02
-4.422634467482566833e-02
-2.992589958012104034e-03
4.412059113383293152e-02
7.351906597614288330e-02
7.017270475625991821e-02
-1.550694834440946579e-02
2.837993018329143524e-02
-5.509071052074432373e-02
5.290563032031059265e-02
-7.428577542304992676e-02
-3.333250060677528381e-02
6.938511133193969727e-02
-6.236046925187110901e-02
4.211948066949844360e-02
7.879400998353958130e-02
3.318779170513153076e-02
1.688781939446926117e-02
-8.675388991832733154e-03
-3.133897110819816589e-02
-5.630871281027793884e-02
-8.042810112237930298e-02
7.532009482383728027e-02
3.964817896485328674e-02
4.257740080356597900e-02
-8.145667379721999168e-04
1.596220582723617554e-02
6.298772990703582764e-02
6.906010955572128296e-02
-2.717753173783421516e-03
1.505189761519432068e-02
2.744035236537456512e-02
7.511321455240249634e-02
-3.436733735725283623e-03
1.234419830143451691e-02
-4.179035872220993042e-02
-2.741821482777595520e-02
6.817935407161712646e-02
-5.620777979493141174e-02
-7.633674144744873047e-02
-5.545672401785850525e-02
6.581849604845046997e-02
-8.384289592504501343e-02
4.019638523459434509e-02
-8.717065304517745972e-02
-5.910420417785644531e-02
-8.083336055278778076e-03
-2.015043236315250397e-02
-2.285291813313961029e-02
6.434705853462219238e-02
-5.746640264987945557e-02
-7.651017606258392334e-02
5.726192146539688110e-02
-5.900633707642555237e-02
-1.708452589809894562e-02
5.194027349352836609e-02
-5.443224310874938965e-02
6.645045429468154907e-02
1.734336838126182556e-02
8.020740747451782227e-02
-4.352237097918987274e-03
3.746331483125686646e-02
-5.713238939642906189e-02
-1.093722973018884659e-02
7.990651577711105347e-02
7.018036395311355591e-02
4.629556089639663696e-02
-5.991687253117561340e-02
2.557136490941047668e-02
-6.884507089853286743e-02
4.261666908860206604e-02
1.909426227211952209e-02
-7.128245662897825241e-03
5.893439054489135742e-02
-1.525495201349258423e-03
4.033358767628669739e-02
-2.373563311994075775e-02
-2.663647523149847984e-03
4.711639136075973511e-02
-2.000228315591812134e-02
-2.903860248625278473e-02
-5.102702230215072632e-02
-8.156941831111907959e-02
-4.978490248322486877e-02
-3.586332872509956360e-02
1.455911435186862946e-02
2.982430532574653625e-02
-1.414467860013246536e-02
-6.870077550411224365e-02
8.757187984883785248e-03
-3.607087954878807068e-02
-4.961661621928215027e-02
-8.587317541241645813e-03
6.912895943969488144e-03
8.335229009389877319e-02
-3.670935705304145813e-02
4.697189480066299438e-02
-5.285351350903511047e-02
1.775466836988925934e-02
3.430530056357383728e-02
-6.390183418989181519e-02
7.134650833904743195e-03
-8.537029474973678589e-02
-1.665283739566802979e-02
-1.263358909636735916e-02
5.360871553421020508e-02
2.168955979868769646e-03
-6.762104481458663940e-02
4.977366700768470764e-02
4.761030524969100952e-02
3.257638961076736450e-02
8.712895959615707397e-02
5.015717819333076477e-02
-3.025776240974664688e-03
-3.542265668511390686e-02
3.418276458978652954e-02
-4.483206570148468018e-02
-4.946870356798171997e-02
-3.941980376839637756e-02
-5.776787921786308289e-02
-6.441559642553329468e-02
-5.875108018517494202e-02
2.835462428629398346e-02
-4.779067263007164001e-02
-8.714562654495239258e-02
8.508622646331787109e-02
-6.752850115299224854e-02
-2.138947369530797005e-03
5.751277133822441101e-02
4.264106601476669312e-02
-4.355603829026222229e-02
3.034387901425361633e-02
-1.319755800068378448e-02
-7.911325246095657349e-02
3.715267777442932129e-02
8.740945160388946533e-02
-8.207313716411590576e-02
-8.521500229835510254e-02
1.919182948768138885e-02
1.483998727053403854e-02
-5.355614423751831055e-02
-7.561992853879928589e-02
-7.327521592378616333e-02
-1.366334874182939529e-02
8.078304678201675415e-02
-3.056924603879451752e-02
-5.380601808428764343e-02
5.549010261893272400e-02
4.234227910637855530e-02
-1.430008653551340103e-02
7.179544121026992798e-02
2.414789795875549316e-02
8.094535209238529205e-03
1.193047408014535904e-02
-6.454700231552124023e-02
-2.368354052305221558e-02
1.503176894038915634e-02
3.194802626967430115e-02
-5.181971192359924316e-02
2.952579595148563385e-02
6.671299040317535400e-02
-3.170291427522897720e-03
2.538699842989444733e-02
-5.869450420141220093e-02
-4.696965217590332031e-02
1.760321855545043945e-02
5.892181769013404846e-02
1.936260797083377838e-02
-6.569427251815795898e-02
4.890635609626770020e-02
7.991758733987808228e-02
3.707580640912055969e-02
1.414626836776733398e-02
-6.198164820671081543e-02
-9.985444135963916779e-03
4.558824468404054642e-03
-7.770599424839019775e-02
6.736639142036437988e-02
-1.285896915942430496e-02
2.743119001388549805e-02
-4.868947714567184448e-02
1.804781146347522736e-02
-7.895125448703765869e-02
1.607930846512317657e-02
1.307893078774213791e-02
-3.017713502049446106e-02
-2.262661419808864594e-02
-7.139016687870025635e-02
-8.784397691488265991e-02
-4.732954874634742737e-02
6.961213052272796631e-02
-8.336854167282581329e-03
2.697687037289142609e-02
4.602333530783653259e-02
8.456774055957794189e-02
-8.357517421245574951e-02
3.551400825381278992e-02
-3.288558870553970337e-02
-2.099879644811153412e-02
-6.330590229481458664e-03
-5.588784813880920410e-02
-6.123122945427894592e-02
5.623282399028539658e-03
4.983061924576759338e-02
-6.743054836988449097e-02
-2.888718247413635254e-02
-5.746227502822875977e-02
5.803182348608970642e-02
-5.300365388393402100e-02
8.085999637842178345e-02
-3.929720073938369751e-02
3.707262501120567322e-02
1.012240350246429443e-02
-7.632164657115936279e-02
2.555001154541969299e-02
4.006022587418556213e-02
2.088906615972518921e-02
-8.401326090097427368e-02
-8.670486509799957275e-02
-7.119172066450119019e-02
1.687106676399707794e-02
-5.714050307869911194e-02
-2.164215408265590668e-02
-6.495035486295819283e-04
-5.026015918701887131e-03
-8.108843863010406494e-02
6.627595424652099609e-02
-1.067883707582950592e-02
3.282675147056579590e-02
1.267601735889911652e-02
-4.326053336262702942e-02
-6.353561580181121826e-02
8.335440419614315033e-03
7.563649863004684448e-02
-1.927320263348519802e-03
-5.897042341530323029e-03
-3.958145156502723694e-02
-4.632852599024772644e-02
8.564181625843048096e-02
8.027312159538269043e-02
4.017103835940361023e-02
-7.399180531501770020e-02
8.004925400018692017e-02
7.957530766725540161e-02
-5.211874097585678101e-02
-2.868044888600707054e-03
-4.593735933303833008e-02
8.007848262786865234e-02
-3.311721608042716980e-02
4.108127951622009277e-02
1.389237469993531704e-03
2.159279212355613708e-02
5.859997496008872986e-02
8.703831583261489868e-02
-6.143766455352306366e-03
-7.530018687248229980e-02
5.918681994080543518e-02
-7.331921905279159546e-02
6.799736618995666504e-02
1.457335613667964935e-02
1.547229709103703499e-03
5.045147240161895752e-02
-3.272770717740058899e-02
-4.143087938427925110e-02
-7.216549664735794067e-02
4.163202270865440369e-02
8.226590231060981750e-03
6.576729938387870789e-03
-7.621535658836364746e-02
3.692942485213279724e-02
2.618986181914806366e-02
-4.313216730952262878e-02
7.148180902004241943e-02
6.724103586748242378e-04
6.275595724582672119e-02
4.214789345860481262e-02
-2.231694757938385010e-02
5.504986620508134365e-04
-8.068343997001647949e-02
3.066958114504814148e-02
4.576028510928153992e-02
-4.497765563428401947e-03
8.754805475473403931e-02
8.415691554546356201e-02
-1.218471024185419083e-02
3.750881925225257874e-02
8.087827265262603760e-02
3.645104914903640747e-02
8.703784644603729248e-02
-4.390893876552581787e-02
-5.365940276533365250e-03
5.948496237397193909e-02
1.610153727233409882e-02
2.730633597820997238e-03
-7.509168982505798340e-02
4.913971573114395142e-02
3.304941207170486450e-02
-1.962478086352348328e-02
2.320195920765399933e-02
3.466592356562614441e-02
-3.301642835140228271e-02
5.682358890771865845e-02
2.217949740588665009e-02
-1.484903134405612946e-02
-6.616701930761337280e-02
-3.689973428845405579e-02
-8.369084447622299194e-02
-7.803495228290557861e-02
-4.873829334974288940e-02
6.610557436943054199e-02
-6.718876212835311890e-02
5.427905544638633728e-02
9.512429125607013702e-03
-4.497724771499633789e-02
-2.073694020509719849e-02
-5.843124911189079285e-02
6.275721825659275055e-04
1.258355379104614258e-02
-7.684961706399917603e-02
3.116918541491031647e-02
-2.815059758722782135e-02
3.875454887747764587e-02
-7.229761034250259399e-02
-5.471581220626831055e-02
2.806797437369823456e-02
5.918259546160697937e-02
7.204614579677581787e-02
-1.109153032302856445e-02
-3.760401159524917603e-02
-7.097461819648742676e-02
1.962042041122913361e-02
-7.868653535842895508e-02
3.971477225422859192e-02
-5.753118544816970825e-02
2.546022273600101471e-02
8.685500919818878174e-02
4.154204949736595154e-02
-2.845388092100620270e-02
-6.578381638973951340e-03
-2.818762511014938354e-02
-8.133196830749511719e-02
6.429345905780792236e-02
2.558124810457229614e-02
-5.849522352218627930e-02
2.372583374381065369e-02
-8.712873607873916626e-02
-1.453320682048797607e-02
3.993052616715431213e-02
-7.297173142433166504e-02
3.718802705407142639e-02
-4.605435952544212341e-02
-5.547122657299041748e-02
4.254126548767089844e-02
2.510705217719078064e-02
3.877987712621688843e-02
5.111346393823623657e-02
7.582031935453414917e-02
8.546408265829086304e-02
5.712584033608436584e-02
3.152020648121833801e-02
5.127732455730438232e-02
7.829403877258300781e-02
3.075028397142887115e-02
-8.383236825466156006e-02
6.510408595204353333e-03
5.430877953767776489e-02
-4.222056269645690918e-02
1.318552996963262558e-02
3.172773867845535278e-02
3.511023474857211113e-03
-3.985430672764778137e-02
-8.727216720581054688e-02
-8.022682368755340576e-02
-1.277972478419542313e-02
-3.651708364486694336e-02
-5.910024419426918030e-02
-6.794068962335586548e-02
-5.506096780300140381e-02
-8.483231067657470703e-02
-7.205227017402648926e-02
-7.525789737701416016e-02
4.423872381448745728e-02
4.416275024414062500e-02
-5.079428851604461670e-02
8.937594480812549591e-03
6.317576766014099121e-02
-2.235953137278556824e-02
3.711805492639541626e-02
-3.511584922671318054e-02
-1.865574531257152557e-02
2.318645641207695007e-02
4.997825250029563904e-02
-6.469510495662689209e-02
-6.793706864118576050e-02
6.961760669946670532e-02
4.823654890060424805e-03
-7.846473157405853271e-02
-4.778496176004409790e-02
-5.137084051966667175e-03
-6.163027882575988770e-02
-4.113464057445526123e-02
3.472922369837760925e-02
6.704221665859222412e-02
8.338309079408645630e-02
2.911594696342945099e-02
-1.163364760577678680e-02
6.026903167366981506e-02
4.177535325288772583e-02
-1.550017483532428741e-02
-8.240454643964767456e-02
4.199759569019079208e-03
-2.101264335215091705e-02
3.537869546562433243e-03
-4.648066684603691101e-02
-3.228462859988212585e-02
-7.619120925664901733e-02
-3.025162592530250549e-02
5.894657596945762634e-02
-4.314359650015830994e-02
6.822673231363296509e-02
4.790800437331199646e-02
-4.371770843863487244e-02
-2.468643523752689362e-02
2.083197422325611115e-02
-5.077177286148071289e-02
-6.911799311637878418e-02
4.488539323210716248e-02
2.608028426766395569e-02
4.204114526510238647e-02
1.862007752060890198e-02
2.468968927860260010e-02
8.673073351383209229e-02
-2.218329347670078278e-02
7.850103080272674561e-02
-6.609179824590682983e-02
1.957162516191601753e-03
-7.731106877326965332e-02
5.182201042771339417e-02
-5.682502686977386475e-02
7.357086241245269775e-02
5.553663894534111023e-02
-6.634844094514846802e-02
-4.393107444047927856e-02
2.270536683499813080e-02
-2.317267656326293945e-02
1.814841851592063904e-02
-4.806480184197425842e-02
4.090660810470581055e-02
6.561785936355590820e-02
-3.201450407505035400e-02
-1.896438561379909515e-02
-3.981187567114830017e-02
-7.651990652084350586e-02
9.242591448128223419e-03
-1.139246486127376556e-02
-7.164666056632995605e-02
-7.162540405988693237e-02
3.089616261422634125e-02
8.302727341651916504e-02
6.933584809303283691e-02
-2.724427171051502228e-02
3.756371885538101196e-02
1.688655652105808258e-02
7.305701076984405518e-02
6.428463011980056763e-02
4.913726076483726501e-02
4.689918458461761475e-02
-7.758740335702896118e-03
-8.023295551538467407e-02
5.381860211491584778e-02
-1.111289486289024353e-02
5.535792186856269836e-02
-7.962162047624588013e-02
2.880670875310897827e-02
7.533409446477890015e-02
8.474601805210113525e-02
-3.638662397861480713e-02
-6.414458900690078735e-02
-1.426834147423505783e-02
-6.913839280605316162e-02
2.576550282537937164e-02
2.210269682109355927e-02
-8.497852087020874023e-02
1.298087649047374725e-02
5.629067122936248779e-02
-6.741084903478622437e-02
-4.910099878907203674e-02
8.318930864334106445e-02
-3.514438867568969727e-02
-2.639466337859630585e-02
-3.525201976299285889e-02
2.388244960457086563e-03
2.786089479923248291e-02
-7.971674203872680664e-02
5.874422937631607056e-02
-1.480996236205101013e-02
-7.729178667068481445e-02
7.093257457017898560e-02
-8.408384770154953003e-02
6.147038564085960388e-02
-3.919370472431182861e-02
8.198764920234680176e-02
-4.324705898761749268e-02
6.942035257816314697e-02
4.472819715738296509e-02
5.458209663629531860e-02
7.251832634210586548e-02
-5.295860394835472107e-02
-2.000501006841659546e-02
-6.755696982145309448e-02
-6.982252001762390137e-02
