-7.360890507698059082e-02
-8.599488437175750732e-02
3.683430328965187073e-02
-7.222647964954376221e-02
1.818381063640117645e-02
7.977512478828430176e-02
-4.199196118861436844e-03
7.690741121768951416e-02
8.086302876472473145e-02
-8.420246094465255737e-02
9.270847775042057037e-03
-8.392979204654693604e-02
7.480117678642272949e-02
-2.540992386639118195e-02
4.740351438522338867e-02
-1.506495103240013123e-02
4.598940163850784302e-02
-1.211942872032523155e-03
7.291691750288009644e-02
3.631685301661491394e-02
1.278812158852815628e-02
2.358349040150642395e-02
-6.334476917982101440e-02
-4.750556498765945435e-02
5.061825737357139587e-02
-3.712703473865985870e-04
-5.908545106649398804e-02
7.529771327972412109e-02
-2.386138774454593658e-02
8.603505790233612061e-02
4.946437850594520569e-02
2.376083657145500183e-02
-7.225862145423889160e-02
5.491730570793151855e-02
-3.808253258466720581e-02
3.404030576348304749e-02
8.087833225727081299e-02
-6.150376051664352417e-02
-2.815018966794013977e-02
1.466452050954103470e-02
7.818850874900817871e-02
-7.870151102542877197e-02
-5.454754456877708435e-02
2.670903503894805908e-02
-4.268436133861541748e-02
3.863775730133056641e-02
2.764808200299739838e-02
2.807516418397426605e-02
-6.965959072113037109e-02
7.211025804281234741e-02
4.450476542115211487e-02
-3.992243111133575439e-02
6.497696787118911743e-02
1.141798216849565506e-03
8.558458834886550903e-02
1.468296349048614502e-02
5.361381918191909790e-03
-8.429288119077682495e-02
-5.970521271228790283e-02
-3.446612134575843811e-02
-2.398584038019180298e-02
5.338266026228666306e-03
-2.915128320455551147e-02
-8.486499637365341187e-02
-5.357604846358299255e-02
-8.805716037750244141e-02
7.409231364727020264e-02
8.024968206882476807e-03
-7.884357124567031860e-03
-2.521645277738571167e-02
3.458325937390327454e-02
2.168209291994571686e-02
-1.453522033989429474e-02
-4.774807766079902649e-02
1.359980553388595581e-03
5.248579662293195724e-03
-6.114835292100906372e-02
2.242216654121875763e-02
-5.539727210998535156e-02
-1.230369904078543186e-03
-9.300710633397102356e-03
-4.420005157589912415e-02
-3.666181117296218872e-02
3.497511148452758789e-03
6.233847513794898987e-02
-1.309119816869497299e-02
3.973366692662239075e-02
-4.135594144463539124e-02
-8.720090985298156738e-02
2.434980496764183044e-02
1.783981546759605408e-02
3.658837825059890747e-02
-3.679193928837776184e-02
1.889862352982163429e-03
1.989874988794326782e-02
7.591794431209564209e-02
6.218800693750381470e-02
5.119248107075691223e-02
-3.845874220132827759e-02
8.637546747922897339e-02
-3.438355401158332825e-02
-8.308197557926177979e-02
7.396253198385238647e-02
-2.816037647426128387e-02
-5.103800073266029358e-02
7.573124021291732788e-02
-7.940442860126495361e-02
-5.390362069010734558e-02
2.666476182639598846e-02
7.709491997957229614e-02
-3.045349009335041046e-02
-3.165272250771522522e-02
-2.966378582641482353e-03
-1.788969524204730988e-02
1.552672125399112701e-02
-2.089137397706508636e-02
-3.968102857470512390e-02
3.731290623545646667e-02
8.718866109848022461e-02
5.582095310091972351e-02
-3.808539360761642456e-02
-5.149318277835845947e-02
2.519866265356540680e-02
1.146441418677568436e-02
-4.753443226218223572e-02
4.435919970273971558e-02
4.679448436945676804e-03
4.875190556049346924e-02
8.460693806409835815e-02
8.725806325674057007e-02
1.399900112301111221e-02
-1.121206860989332199e-02
-6.951526552438735962e-02
-5.354939401149749756e-02
5.349793657660484314e-02
-8.689332753419876099e-02
1.466898992657661438e-02
6.659332197159528732e-03
2.764146029949188232e-02
8.045849204063415527e-02
-7.815155200660228729e-03
6.382310390472412109e-02
-3.528203815221786499e-02
-3.249155357480049133e-02
-7.808076217770576477e-03
-8.140709996223449707e-02
1.616523042321205139e-02
8.627665042877197266e-02
-2.694786526262760162e-02
2.060987986624240875e-03
-3.178586019203066826e-03
-6.503669917583465576e-02
-4.524359852075576782e-02
5.248953774571418762e-02
6.617756932973861694e-02
-6.236557662487030029e-02
-3.903143340721726418e-03
1.152600999921560287e-02
-7.355767488479614258e-02
-6.891597807407379150e-02
8.066933602094650269e-02
-3.247388079762458801e-02
-8.241952955722808838e-02
4.241480305790901184e-02
6.980924308300018311e-02
-2.646747045218944550e-02
5.772607773542404175e-02
-6.658585369586944580e-02
-8.742678910493850708e-02
5.314425379037857056e-02
-8.436507545411586761e-03
1.436246093362569809e-02
-4.281136393547058105e-02
-2.699876576662063599e-02
4.340536892414093018e-02
5.358465015888214111e-02
6.665918231010437012e-02
6.923942267894744873e-02
-5.048216320574283600e-03
-2.495407313108444214e-02
1.455640979111194611e-02
-1.916364766657352448e-02
-1.535397861152887344e-02
3.334477543830871582e-02
3.250128403306007385e-02
-3.762404434382915497e-03
-3.754414990544319153e-02
-6.980598438531160355e-03
-3.011832572519779205e-02
7.679449766874313354e-02
-6.886369735002517700e-02
8.749347180128097534e-02
-6.072078272700309753e-02
-7.579050213098526001e-02
7.734280824661254883e-02
3.919059783220291138e-02
8.684846758842468262e-02
-7.710065692663192749e-02
-7.258889824151992798e-02
4.333226755261421204e-02
-8.791100233793258667e-03
1.692695356905460358e-02
-3.455917909741401672e-02
-4.080865159630775452e-02
-6.869148463010787964e-02
-3.964286297559738159e-02
-5.959882587194442749e-02
-4.502397403120994568e-02
5.064362660050392151e-02
-7.392632216215133667e-02
6.930470466613769531e-02
-6.881263572722673416e-03
-8.122406899929046631e-02
-3.179822489619255066e-02
-7.905530184507369995e-02
-4.403032734990119934e-02
9.818153921514749527e-04
-2.367000281810760498e-02
5.726255849003791809e-02
-8.039048314094543457e-02
-5.615176260471343994e-02
-3.915692120790481567e-02
-3.137707337737083435e-02
-8.040243387222290039e-02
3.787042200565338135e-02
7.491234689950942993e-02
6.842446327209472656e-02
-6.169620528817176819e-02
-5.694673582911491394e-02
4.146046936511993408e-02
-8.499220758676528931e-02
4.203842021524906158e-03
-4.584898054599761963e-02
4.657438397407531738e-02
1.876943185925483704e-02
-8.196806907653808594e-02
-3.155585378408432007e-02
7.695487141609191895e-02
2.501500397920608521e-02
2.979890257120132446e-02
2.717496454715728760e-02
7.618982344865798950e-02
-9.044438600540161133e-03
-2.686692960560321808e-02
-7.168130576610565186e-02
-8.936650119721889496e-03
-4.490488767623901367e-02
-2.792424336075782776e-02
-2.514920756220817566e-02
8.085084706544876099e-02
8.357691764831542969e-02
-1.288892887532711029e-02
7.317011803388595581e-02
5.837118253111839294e-02
4.074449837207794189e-02
2.582565508782863617e-02
-3.034945763647556305e-02
-3.456098586320877075e-02
-4.301786795258522034e-02
-6.894987076520919800e-02
-4.837344400584697723e-03
8.075771480798721313e-02
8.420539647340774536e-02
-6.725454004481434822e-04
-6.661207228899002075e-02
-2.484397403895854950e-02
6.667838245630264282e-02
-6.983841955661773682e-02
-6.612183642573654652e-04
-4.840929061174392700e-02
-6.665733456611633301e-02
-3.043046034872531891e-02
-3.739333525300025940e-02
-4.364273697137832642e-02
1.668910682201385498e-02
7.978645153343677521e-03
-3.288234397768974304e-02
-6.762880831956863403e-02
-8.833079785108566284e-02
-9.099050424993038177e-03
4.725505039095878601e-02
6.599526852369308472e-02
4.583568871021270752e-02
-5.882275477051734924e-02
4.339184612035751343e-02
4.221834242343902588e-02
6.318443268537521362e-02
5.519764497876167297e-02
-8.457703888416290283e-02
1.051089167594909668e-02
3.521403297781944275e-02
1.628046040423214436e-03
2.160906419157981873e-02
3.075044229626655579e-02
-1.978185772895812988e-02
6.278283149003982544e-02
1.199458353221416473e-02
-5.739090964198112488e-02
1.507586054503917694e-02
6.726198643445968628e-02
-7.392583042383193970e-02
3.342239931225776672e-02
4.497030377388000488e-02
5.448295921087265015e-02
3.660698235034942627e-02
-9.841692633926868439e-03
4.754864051938056946e-02
5.093627795577049255e-02
7.493488956242799759e-03
4.960537701845169067e-02
8.395075798034667969e-02
-4.875477403402328491e-02
1.179840788245201111e-02
-8.499828726053237915e-02
1.359852775931358337e-02
-3.332312405109405518e-02
-6.846509873867034912e-02
-4.626191034913063049e-02
6.055948883295059204e-02
-9.246945381164550781e-03
-2.745550498366355896e-02
5.310555920004844666e-03
4.552308470010757446e-02
-8.814694732427597046e-02
-7.930631935596466064e-02
7.203497737646102905e-02
-7.867627590894699097e-02
3.863425180315971375e-02
-1.446482609026134014e-03
2.273641526699066162e-02
-2.555678365752100945e-03
3.406214714050292969e-02
-7.784846425056457520e-02
4.225923679769039154e-03
-5.962798744440078735e-02
-4.582783579826354980e-02
6.039656326174736023e-02
-8.585909008979797363e-02
-5.015404894948005676e-02
8.246108144521713257e-02
-7.551471143960952759e-02
7.859709113836288452e-02
-5.577943474054336548e-02
-1.441552210599184036e-02
6.293334066867828369e-02
3.268199041485786438e-02
3.156766295433044434e-02
8.512862771749496460e-02
-1.366930082440376282e-02
1.138127595186233521e-02
4.327311366796493530e-02
1.995508745312690735e-02
-3.415544331073760986e-02
4.721840377897024155e-03
-5.116135254502296448e-02
-2.765808440744876862e-02
7.972054928541183472e-02
6.963944435119628906e-02
-8.079366385936737061e-02
-7.327049970626831055e-02
4.202891606837511063e-03
7.084983401000499725e-03
-7.356595993041992188e-02
5.277224630117416382e-02
-7.777716219425201416e-02
-5.554916709661483765e-02
3.199827671051025391e-02
8.170013874769210815e-02
-7.421063631772994995e-02
4.558084998279809952e-03
4.609258100390434265e-02
-8.273437619209289551e-02
-7.589945197105407715e-02
-8.421625941991806030e-02
1.755019091069698334e-02
-2.367909997701644897e-02
-8.383962325751781464e-03
-7.710182573646306992e-03
-1.232126913964748383e-02
7.286316156387329102e-02
-3.604767099022865295e-02
-6.748936325311660767e-02
-5.663822963833808899e-02
-8.248826116323471069e-02
-3.079505637288093567e-02
-6.972084520384669304e-04
7.238556630909442902e-03
-6.828168779611587524e-02
-2.894094400107860565e-02
8.592856116592884064e-03
-6.990741938352584839e-02
-2.718890784308314323e-03
-7.478085160255432129e-02
5.525017157196998596e-02
1.781118661165237427e-02
-1.618666760623455048e-02
6.718813627958297729e-02
-2.464937511831521988e-03
-2.491781488060951233e-02
-8.544436842203140259e-02
-6.794601678848266602e-02
-7.986184209585189819e-02
-8.000836521387100220e-02
8.648114651441574097e-02
7.668272405862808228e-02
-1.271619647741317749e-02
-4.585595428943634033e-02
-1.553392037749290466e-02
6.382119841873645782e-03
8.838421106338500977e-02
-4.746065661311149597e-02
-6.886320561170578003e-02
-4.096719902008771896e-03
-8.279627561569213867e-02
6.255649030208587646e-02
6.048380862921476364e-03
-7.995723932981491089e-02
4.848876222968101501e-02
-1.920128986239433289e-02
-2.640083245933055878e-02
-1.850594021379947662e-02
7.971727102994918823e-02
6.041157990694046021e-02
-4.128757864236831665e-02
-7.444056216627359390e-03
-7.801122218370437622e-02
7.771911472082138062e-02
5.309898406267166138e-03
-5.237578414380550385e-03
8.523779362440109253e-02
-1.146249705925583839e-03
-2.317489869892597198e-02
-7.990834116935729980e-02
3.733765333890914917e-02
8.702530711889266968e-02
7.445276528596878052e-02
5.001557059586048126e-03
7.466480135917663574e-02
1.871761307120323181e-02
-1.293364446610212326e-02
-3.372787684202194214e-02
-7.505536824464797974e-02
2.306693978607654572e-02
6.105224788188934326e-02
-5.083199962973594666e-02
-8.827629685401916504e-02
3.244617721065878868e-03
-7.832954637706279755e-03
6.474141031503677368e-02
-8.569627255201339722e-02
7.764095813035964966e-02
-1.374008506536483765e-02
6.353806704282760620e-02
-2.870885841548442841e-02
-4.908839985728263855e-02
6.060104817152023315e-02
7.681892812252044678e-02
-2.698548138141632080e-02
5.789185687899589539e-02
-8.728043735027313232e-02
-3.376178070902824402e-02
1.229975372552871704e-02
-8.124776184558868408e-02
-1.998032815754413605e-02
4.592774808406829834e-02
-7.868701219558715820e-02
7.871699519455432892e-03
8.029832690954208374e-02
-8.117161691188812256e-02
4.210602119565010071e-02
7.512350380420684814e-02
6.002902612090110779e-02
1.507692877203226089e-02
7.848314940929412842e-02
1.330030057579278946e-02
-1.732174865901470184e-02
-8.604523539543151855e-02
-6.495575606822967529e-02
7.769662886857986450e-02
-8.373852819204330444e-03
4.790165647864341736e-02
-4.178614169359207153e-02
1.800776086747646332e-02
-5.600289627909660339e-02
3.083836846053600311e-02
4.274972155690193176e-02
6.001478806138038635e-02
-1.997360959649085999e-02
-7.173156738281250000e-02
-4.672908037900924683e-02
3.051956929266452789e-02
-2.706729061901569366e-02
5.946361273527145386e-02
-5.162709951400756836e-02
-5.019170790910720825e-02
1.381529215723276138e-02
8.719862997531890869e-02
-6.847678124904632568e-02
-7.896278053522109985e-02
1.830942742526531219e-02
-1.585281081497669220e-02
3.166721761226654053e-02
-7.508499175310134888e-02
-6.456393003463745117e-02
3.115253150463104248e-02
2.893795259296894073e-02
-3.670473396778106689e-02
3.106353804469108582e-02
-7.811392098665237427e-02
-2.721793018281459808e-02
2.657738700509071350e-02
4.895070567727088928e-02
-1.159450691193342209e-02
6.263121217489242554e-02
-5.433854833245277405e-02
-4.441272839903831482e-02
6.629022210836410522e-02
5.756594613194465637e-02
8.568885177373886108e-02
-6.710097938776016235e-02
7.510816305875778198e-02
2.648955443874001503e-03
-6.796571612358093262e-02
7.287745177745819092e-02
-4.130380600690841675e-02
-7.040116190910339355e-02
-5.872905254364013672e-03
-7.080917805433273315e-02
-6.672174483537673950e-02
4.153970628976821899e-02
-6.596633791923522949e-02
4.589332640171051025e-02
9.284642525017261505e-03
-2.112729288637638092e-02
-3.072362020611763000e-02
8.602131158113479614e-02
3.564465045928955078e-02
-2.306942827999591827e-02
2.085076458752155304e-02
-6.265829503536224365e-02
1.857449300587177277e-02
5.787859205156564713e-03
-4.158117622137069702e-02
2.145933359861373901e-02
7.519233226776123047e-02
4.457158222794532776e-02
-1.254735980182886124e-02
-7.727562636137008667e-02
7.876652479171752930e-02
-2.552232239395380020e-03
6.325097754597663879e-03
2.304149419069290161e-02
-5.988241638988256454e-03
2.053050138056278229e-02
-8.589807897806167603e-02
2.641229704022407532e-02
-7.336870580911636353e-02
-6.759705394506454468e-02
5.396890640258789062e-02
-2.708111330866813660e-02
-8.591553568840026855e-02
2.584566362202167511e-02
-5.863847583532333374e-02
1.915697194635868073e-02
8.398157358169555664e-02
8.817932754755020142e-02
-5.141149461269378662e-02
-4.521832615137100220e-02
-9.101998992264270782e-03
-8.785016834735870361e-02
8.052400499582290649e-02
5.050115287303924561e-02
-5.684871226549148560e-02
-2.951909601688385010e-02
-3.959742560982704163e-02
5.251528695225715637e-02
-7.981622219085693359e-02
-3.656455501914024353e-02
3.454280644655227661e-02
-2.543732337653636932e-02
-8.171115070581436157e-02
5.192628130316734314e-02
1.660635322332382202e-02
7.271637767553329468e-02
7.344378530979156494e-02
-3.785874322056770325e-02
-6.770481914281845093e-02
3.551472350955009460e-02
-6.041261553764343262e-02
3.629200905561447144e-02
6.424067169427871704e-02
-8.536761999130249023e-02
-7.149155437946319580e-02
-2.208282798528671265e-02
-2.021016320213675499e-03
-7.072192430496215820e-02
-5.192417651414871216e-02
-1.675760373473167419e-02
-5.568363144993782043e-02
1.535478234291076660e-02
4.840983077883720398e-02
3.112183697521686554e-02
4.761441424489021301e-02
1.332821696996688843e-02
-1.117188483476638794e-02
1.476894039660692215e-02
6.135873496532440186e-02
3.039005398750305176e-02
8.811919391155242920e-02
7.796034961938858032e-02
-2.614306844770908356e-02
-4.695194214582443237e-02
8.112213760614395142e-02
7.266217470169067383e-02
-8.591431379318237305e-02
7.084466516971588135e-02
6.179953366518020630e-02
1.989098079502582550e-02
-4.367446899414062500e-02
-2.787678875029087067e-02
2.667885972186923027e-03
-8.116174489259719849e-03
-6.265150755643844604e-02
-5.764704197645187378e-02
-2.288276702165603638e-02
8.538515865802764893e-02
-2.783854864537715912e-02
-4.488994926214218140e-02
6.256689131259918213e-02
5.965871363878250122e-02
2.940776199102401733e-02
-1.208872906863689423e-02
1.161357481032609940e-02
-2.562204189598560333e-02
-6.924180686473846436e-02
2.508714608848094940e-02
4.913581907749176025e-02
-5.708470195531845093e-02
1.646820455789566040e-02
5.199954286217689514e-02
-8.325700461864471436e-02
8.221802860498428345e-02
5.377981811761856079e-02
8.077516406774520874e-02
4.955933988094329834e-02
3.494997322559356689e-02
-3.969733417034149170e-02
4.837813600897789001e-02
2.890153415501117706e-02
4.872046038508415222e-02
7.273215800523757935e-02
-5.262725055217742920e-02
7.792679965496063232e-02
4.748619347810745239e-02
4.617635160684585571e-02
6.484431214630603790e-03
4.630488902330398560e-02
1.523931231349706650e-02
1.297900453209877014e-02
3.538737818598747253e-02
-4.009792953729629517e-02
8.098492026329040527e-02
-6.735011935234069824e-02
7.275989651679992676e-02
6.698215007781982422e-02
-5.034695193171501160e-02
4.954056814312934875e-02
-4.385779798030853271e-02
8.334289491176605225e-02
-4.872560501098632812e-02
4.592989385128021240e-02
-5.508431792259216309e-02
-6.872163712978363037e-02
8.765606582164764404e-02
-4.155366867780685425e-02
8.506219834089279175e-02
-8.259226568043231964e-03
2.338214032351970673e-02
1.285889092832803726e-02
3.544980287551879883e-02
2.595493383705615997e-02
-2.623834460973739624e-02
-8.345905691385269165e-02
-2.647365443408489227e-03
8.518828079104423523e-03
-7.195783406496047974e-02
-1.163493376225233078e-02
7.352639734745025635e-02
1.044339220970869064e-02
6.698086112737655640e-02
5.218898877501487732e-02
-2.092047221958637238e-02
3.488944610580801964e-03
-1.346559263765811920e-02
-2.900864370167255402e-02
-1.045080740004777908e-02
-8.106723427772521973e-02
6.783376634120941162e-02
3.838000446557998657e-02
-7.940674573183059692e-02
-3.870011121034622192e-02
3.433809429407119751e-02
6.787560414522886276e-03
-6.187395751476287842e-02
8.632585406303405762e-02
-7.047373801469802856e-02
7.693576067686080933e-02
-8.374062180519104004e-02
-7.720752060413360596e-02
2.220106311142444611e-02
-4.474238678812980652e-02
-6.973458081483840942e-02
7.389439642429351807e-02
-1.344593334943056107e-02
1.151415985077619553e-02
3.928102925419807434e-02
1.626007608138024807e-03
-5.790661275386810303e-02
-1.702164672315120697e-02
-2.566332556307315826e-02
2.094409987330436707e-02
-5.525683239102363586e-02
-8.408326655626296997e-02
-4.439966753125190735e-03
-7.915794104337692261e-02
3.015533275902271271e-02
8.058554492890834808e-03
-5.613787472248077393e-02
-1.210421044379472733e-02
5.948056653141975403e-02
-3.072315827012062073e-02
1.548188924789428711e-02
8.041717112064361572e-02
-5.926590785384178162e-02
-1.493531162850558758e-03
2.893625199794769287e-02
7.999850809574127197e-02
7.760403305292129517e-02
-1.702667400240898132e-02
-2.496459893882274628e-02
-4.944341257214546204e-02
-3.140298277139663696e-02
8.008555322885513306e-02
-2.470056153833866119e-02
-7.423235476016998291e-02
-1.903661154210567474e-02
7.009305804967880249e-02
-3.474364802241325378e-02
-2.547591226175427437e-03
-1.057424210011959076e-02
1.586575247347354889e-02
-4.735310003161430359e-02
-4.388940706849098206e-02
-6.176501139998435974e-02
3.974371030926704407e-02
-1.037523150444030762e-02
2.130850218236446381e-02
-1.637117564678192139e-02
4.464397951960563660e-02
-2.531900443136692047e-02
-5.840633437037467957e-02
1.323704514652490616e-02
-8.454412221908569336e-02
3.799248114228248596e-02
-5.203993618488311768e-02
5.608525127172470093e-02
-7.025235146284103394e-02
1.274682208895683289e-02
1.146393115050159395e-04
2.205705270171165466e-02
1.819326542317867279e-02
1.630414836108684540e-02
-4.214472696185112000e-02
-5.516786128282546997e-02
-2.590746246278285980e-02
5.134272947907447815e-02
6.743481755256652832e-02
-6.666751950979232788e-02
1.399059128016233444e-02
-8.003169205039739609e-04
-2.982624433934688568e-02
2.331093512475490570e-02
-5.988821014761924744e-02
-3.792836144566535950e-02
5.266971886157989502e-02
-6.876202672719955444e-02
-8.262736350297927856e-02
-6.761036068201065063e-02
5.192550364881753922e-03
-4.300389066338539124e-02
-4.711628705263137817e-02
6.980035454034805298e-02
1.227738056331872940e-02
-2.614946104586124420e-02
3.231425303965806961e-03
8.121629804372787476e-02
2.022939734160900116e-02
-1.523095462471246719e-02
6.547777354717254639e-02
4.591635614633560181e-02
-4.696546494960784912e-02
8.151966147124767303e-03
4.524035379290580750e-02
-6.341839581727981567e-02
4.435080289840698242e-02
-5.791085213422775269e-02
-4.852528125047683716e-02
6.490600109100341797e-02
-1.083022449165582657e-02
2.910196408629417419e-02
-3.467743098735809326e-02
8.707493543624877930e-02
-1.282842643558979034e-02
8.678947389125823975e-02
-4.305617883801460266e-02
3.222873434424400330e-02
6.987138092517852783e-02
-8.785556256771087646e-02
2.227760292589664459e-02
-7.329979538917541504e-02
-6.933780014514923096e-02
7.398886978626251221e-02
7.672419399023056030e-02
-2.893853187561035156e-02
-3.620678558945655823e-02
1.394465286284685135e-02
-4.290882870554924011e-02
-2.133101783692836761e-02
-8.542925864458084106e-02
-8.615498989820480347e-02
2.437342330813407898e-02
-7.718428969383239746e-02
4.547110572457313538e-02
-6.734513491392135620e-02
3.952015563845634460e-02
5.867443047463893890e-03
6.958213634788990021e-03
5.954302847385406494e-02
-7.621902972459793091e-02
-8.608651161193847656e-02
3.506169840693473816e-02
-6.280475109815597534e-02
-8.458585292100906372e-02
-2.389061450958251953e-02
6.405043601989746094e-02
-2.591919898986816406e-02
-1.849741674959659576e-02
8.212745189666748047e-02
-5.654619075357913971e-03
3.866007924079895020e-02
-3.119412623345851898e-02
-5.053289700299501419e-03
6.113667972385883331e-03
2.896558493375778198e-02
-5.190559476613998413e-02
8.549583144485950470e-03
6.425356119871139526e-02
-3.305169939994812012e-02
-2.401098608970642090e-02
9.215848520398139954e-03
8.045554906129837036e-02
-2.090929634869098663e-02
1.165910810232162476e-02
-3.365588560700416565e-02
3.241340816020965576e-02
4.996434971690177917e-02
-2.952604368329048157e-02
-4.691505804657936096e-02
-8.159755915403366089e-02
4.766632989048957825e-02
1.636324636638164520e-02
3.445071727037429810e-02
7.287325710058212280e-02
-2.102088928222656250e-02
8.348574489355087280e-02
-5.610555410385131836e-03
7.386699318885803223e-02
5.426448211073875427e-02
-3.422591835260391235e-02
-4.242404922842979431e-02
-5.845723301172256470e-02
5.154867097735404968e-02
-7.430780678987503052e-02
-4.532393813133239746e-02
-1.583643816411495209e-02
8.463517576456069946e-02
-8.474709093570709229e-02
2.273411117494106293e-02
3.578830137848854065e-02
-4.085907712578773499e-03
6.844527274370193481e-02
1.479640603065490723e-02
5.983026698231697083e-02
-6.254728883504867554e-03
4.322964698076248169e-02
-3.709691017866134644e-02
-5.215349793434143066e-02
3.528586030006408691e-02
-1.209673471748828888e-03
3.907008096575737000e-03
5.756362527608871460e-02
-8.591864258050918579e-02
5.698604509234428406e-02
-3.143064305186271667e-02
-3.181823715567588806e-02
8.661312609910964966e-02
2.517241984605789185e-02
2.775408141314983368e-02
-6.589397788047790527e-02
-2.770409174263477325e-02
-6.511275470256805420e-02
4.662259295582771301e-02
2.924311161041259766e-02
3.506604954600334167e-02
7.658728212118148804e-02
-6.963212043046951294e-02
-8.438131958246231079e-02
6.906169652938842773e-02
4.221946746110916138e-02
-8.206559717655181885e-02
4.074390453752130270e-04
1.842236146330833435e-02
2.862871252000331879e-02
-8.817952871322631836e-02
8.593129366636276245e-02
-2.310594730079174042e-02
8.085805177688598633e-02
4.386075958609580994e-02
5.290515720844268799e-02
-8.659338206052780151e-02
-3.967090696096420288e-02
-6.338841468095779419e-02
3.710979595780372620e-02
-4.836994409561157227e-02
-2.242851629853248596e-02
-5.807560682296752930e-02
8.524654805660247803e-02
-8.337303251028060913e-02
-7.533140480518341064e-02
6.972314417362213135e-02
-2.191002666950225830e-02
6.752684712409973145e-02
5.919484421610832214e-02
-4.456050228327512741e-03
3.822849318385124207e-02
7.475617527961730957e-02
-5.615741759538650513e-02
-5.903533101081848145e-02
2.198018832132220268e-03
3.932745009660720825e-02
8.400380611419677734e-02
-5.260568112134933472e-02
5.608531646430492401e-03
8.510672301054000854e-02
4.738171026110649109e-02
-2.263089828193187714e-02
-1.092153787612915039e-02
9.923882782459259033e-03
-4.305937141180038452e-02
-3.113221563398838043e-02
3.527846885845065117e-03
-2.538708038628101349e-02
2.172636985778808594e-02
-3.461727499961853027e-02
8.032394945621490479e-02
3.053698688745498657e-02
-8.576378971338272095e-02
8.028197288513183594e-02
-2.066370286047458649e-02
-7.755827158689498901e-02
6.358423829078674316e-02
1.298222690820693970e-03
8.113092929124832153e-02
2.324594557285308838e-02
6.058178097009658813e-02
-1.520786527544260025e-02
1.444255374372005463e-02
1.689943112432956696e-02
4.511223733425140381e-02
2.241319045424461365e-02
-6.957767903804779053e-02
-4.369058832526206970e-02
-1.155346073210239410e-02
1.824837760068476200e-03
-8.270769380033016205e-03
4.446016252040863037e-02
9.414638392627239227e-03
-1.286421250551939011e-02
3.692581504583358765e-02
-6.974142789840698242e-02
5.499012768268585205e-02
-7.947632670402526855e-02
-6.277049332857131958e-02
-8.334834128618240356e-02
-7.762601971626281738e-02
1.320792734622955322e-02
-4.064963385462760925e-02
-2.548071555793285370e-02
4.671097546815872192e-02
3.818435966968536377e-02
1.108864136040210724e-02
-1.775250025093555450e-02
-1.704919617623090744e-03
-4.566140100359916687e-02
-8.380896598100662231e-02
3.826411848422139883e-04
-8.233735710382461548e-02
5.811236426234245300e-02
2.700342237949371338e-02
-3.730345889925956726e-02
4.199450835585594177e-02
7.898025214672088623e-02
-1.508741546422243118e-02
6.328859925270080566e-02
9.452435187995433807e-03
-7.479115575551986694e-02
8.113918453454971313e-02
-3.906024992465972900e-02
-1.373035251162946224e-03
1.013998873531818390e-02
-6.271584331989288330e-02
6.039584055542945862e-02
-4.638990759849548340e-02
-4.896239936351776123e-02
