2.609809935092926025e-01
2.562504708766937256e-01
-1.520287692546844482e-01
-1.292576789855957031e-01
5.853800773620605469e-01
4.547606408596038818e-01
-3.254801034927368164e-01
1.812535375356674194e-01
-5.707065016031265259e-02
1.524761766195297241e-01
1.991877853870391846e-01
5.652574300765991211e-01
-4.465893805027008057e-01
4.123904109001159668e-01
1.429257392883300781e-01
1.941603049635887146e-02
-1.852999180555343628e-01
5.952603742480278015e-02
-2.973412871360778809e-01
5.092233419418334961e-01
4.016322195529937744e-01
3.720297515392303467e-01
2.611224353313446045e-01
-3.246084749698638916e-01
-1.840703934431076050e-01
-5.361597537994384766e-01
-3.638207018375396729e-01
4.560423642396926880e-02
4.004066884517669678e-01
1.787389814853668213e-01
2.989347875118255615e-01
1.217973157763481140e-01
2.751075029373168945e-01
-2.488148361444473267e-01
7.946218550205230713e-02
5.425646305084228516e-01
-3.659302890300750732e-01
-2.254921644926071167e-01
1.523079723119735718e-01
-5.140653252601623535e-01
-4.872643947601318359e-01
-2.661803066730499268e-01
1.354059725999832153e-01
-2.712128162384033203e-01
-3.922977447509765625e-01
4.164098575711250305e-02
-1.405946016311645508e-01
5.813847184181213379e-01
6.187779083847999573e-02
4.889692366123199463e-01
1.749635636806488037e-01
2.670980691909790039e-01
2.356065511703491211e-01
-5.357929468154907227e-01
5.723286867141723633e-01
-3.317398428916931152e-01
-3.376761674880981445e-01
-3.885090947151184082e-01
-2.712901234626770020e-01
5.224711820483207703e-02
4.192333519458770752e-01
3.242687582969665527e-01
-1.494649052619934082e-02
-2.706272006034851074e-01
-3.976472318172454834e-01
1.643152981996536255e-01
-2.221835553646087646e-01
-2.250693291425704956e-01
3.488696217536926270e-01
3.099232316017150879e-01
-5.007219910621643066e-01
-1.658149212598800659e-01
5.284951925277709961e-01
2.915995419025421143e-01
-1.368884444236755371e-01
-7.482778280973434448e-02
4.517249464988708496e-01
-4.990669190883636475e-01
-2.376648038625717163e-01
-4.150385558605194092e-01
3.710466027259826660e-01
-5.157269239425659180e-01
-4.681279361248016357e-01
3.427538275718688965e-01
-2.769378125667572021e-01
1.570408344268798828e-01
4.519593119621276855e-01
-5.071065425872802734e-01
-3.568645119667053223e-01
3.199445009231567383e-01
5.022272467613220215e-01
5.602715611457824707e-01
1.077183187007904053e-01
2.300680577754974365e-01
-2.513357400894165039e-01
1.879630982875823975e-01
-2.310760505497455597e-02
-1.890474557876586914e-01
4.087896049022674561e-01
-5.671642422676086426e-01
3.492555916309356689e-01
-2.940350472927093506e-01
-2.895468771457672119e-01
4.833435118198394775e-01
4.505744874477386475e-01
1.023466885089874268e-01
4.738596379756927490e-01
3.223074972629547119e-02
4.854316413402557373e-01
3.198152780532836914e-01
3.907058537006378174e-01
8.115931996144354343e-04
-1.146079525351524353e-01
4.884464442729949951e-01
-1.700819134712219238e-01
-3.381957113742828369e-01
1.101101562380790710e-01
-4.884108901023864746e-01
-6.544327735900878906e-02
5.171858519315719604e-02
-5.351119041442871094e-01
-4.854862689971923828e-01
4.918628931045532227e-01
8.944703266024589539e-03
-5.257804393768310547e-01
-3.615498542785644531e-01
4.901317954063415527e-01
-5.652169231325387955e-03
4.667688608169555664e-01
4.308436512947082520e-01
-2.714997157454490662e-02
4.444703832268714905e-02
5.061305761337280273e-01
-2.577452063560485840e-01
3.460191488265991211e-01
-2.394630312919616699e-01
4.886224269866943359e-01
1.431540548801422119e-01
-3.255125582218170166e-01
-2.868678271770477295e-01
2.686686515808105469e-01
2.383456081151962280e-01
-1.345069962553679943e-03
-1.656488627195358276e-01
-1.099262088537216187e-01
-8.933933079242706299e-02
1.148920878767967224e-01
-2.455952316522598267e-01
-3.183844685554504395e-01
2.888951301574707031e-01
-9.549830853939056396e-02
3.419273495674133301e-01
-1.285851448774337769e-01
3.017204999923706055e-01
-3.971534073352813721e-01
3.291711211204528809e-01
-1.676561534404754639e-01
9.973150491714477539e-02
-5.378816127777099609e-01
3.314556777477264404e-01
-1.743001192808151245e-01
2.741986215114593506e-01
-5.326136946678161621e-01
4.413833022117614746e-01
-1.315974146127700806e-01
-2.724356651306152344e-01
-1.880717873573303223e-01
-1.789681315422058105e-01
4.441558197140693665e-02
5.240526795387268066e-01
-4.676359593868255615e-01
2.755668163299560547e-01
-2.194871306419372559e-01
5.552535653114318848e-01
-5.313642024993896484e-01
2.910059094429016113e-01
3.515989482402801514e-01
-4.040041267871856689e-01
2.028774023056030273e-01
-2.757730185985565186e-01
-3.863463699817657471e-01
-2.444185167551040649e-01
5.339546203613281250e-01
3.679143190383911133e-01
2.801427617669105530e-02
-2.671487256884574890e-02
-1.907198578119277954e-01
-1.716694533824920654e-01
4.754217714071273804e-02
-1.773393303155899048e-01
1.544699072837829590e-01
-1.122886762022972107e-01
