-5.999404005706310272e-03
4.768150299787521362e-02
1.216214895248413086e-02
-2.478025387972593307e-03
1.792067848145961761e-02
1.091451644897460938e-01
-8.319768309593200684e-02
-1.327501051127910614e-02
-4.568597674369812012e-02
6.220425292849540710e-02
2.540923189371824265e-03
7.142762094736099243e-02
-1.376796886324882507e-02
9.191947430372238159e-02
-7.134667038917541504e-02
6.765317916870117188e-02
-1.334080286324024200e-02
3.730474412441253662e-02
-7.740143686532974243e-02
-3.089456260204315186e-02
2.815173938870429993e-02
-5.092721059918403625e-02
1.644023344852030277e-03
3.223198279738426208e-02
-4.268035665154457092e-02
2.713163755834102631e-02
-2.889666147530078888e-02
1.522302627563476562e-02
1.293484307825565338e-02
-6.192700564861297607e-02
-8.903220295906066895e-04
1.713768951594829559e-02
-3.788774088025093079e-02
-2.642582356929779053e-02
1.183581259101629257e-02
-8.371477574110031128e-02
-3.980328887701034546e-02
-8.966925553977489471e-03
-5.804025381803512573e-02
6.018633954226970673e-03
-2.391056343913078308e-02
1.116520687937736511e-01
-1.703425310552120209e-02
1.045154593884944916e-02
-2.191793359816074371e-02
7.332566380500793457e-02
-1.285673771053552628e-02
3.401717916131019592e-02
4.039024189114570618e-02
-4.900679737329483032e-02
3.018793836236000061e-02
-1.224585156887769699e-02
-1.542133837938308716e-02
4.156609624624252319e-02
2.541735768318176270e-02
9.762364625930786133e-02
2.153378911316394806e-02
-4.312462359666824341e-02
8.183275163173675537e-02
-4.677782580256462097e-02
-3.580052778124809265e-02
2.144698984920978546e-02
-6.363484263420104980e-02
-2.845613658428192139e-02
