1.786241307854652405e-02
-4.138482362031936646e-02
-8.161886781454086304e-02
-1.092524155974388123e-01
4.436038061976432800e-02
1.183552816510200500e-01
-9.937423467636108398e-02
1.163427680730819702e-01
2.998556196689605713e-02
6.833396106958389282e-02
-1.190760210156440735e-01
1.202985718846321106e-01
2.971981652081012726e-02
5.373756214976310730e-02
7.869245111942291260e-02
-1.114985495805740356e-01
1.064647957682609558e-01
1.312016416341066360e-02
2.393016777932643890e-02
-9.666867554187774658e-02
4.751062765717506409e-02
3.257369995117187500e-02
-8.176034688949584961e-02
-6.292130798101425171e-02
-7.448198646306991577e-02
3.243535757064819336e-02
-1.046354547142982483e-01
-4.123180359601974487e-02
-7.720411755144596100e-03
-6.932446360588073730e-02
5.314669758081436157e-02
3.097457438707351685e-02
-1.680346950888633728e-02
-8.846716582775115967e-02
1.753753609955310822e-02
1.130548641085624695e-01
-4.521267488598823547e-03
8.005171269178390503e-02
-4.499028250575065613e-02
-4.018163681030273438e-02
-1.950200088322162628e-02
-9.854085743427276611e-03
8.524843491613864899e-03
-1.014941111207008362e-01
-3.777761384844779968e-02
-7.248764485120773315e-02
3.435172885656356812e-02
7.797747105360031128e-02
2.588875219225883484e-02
-3.675107657909393311e-02
-7.234881073236465454e-02
-9.226594120264053345e-02
-9.904062747955322266e-02
1.213817521929740906e-01
1.231879442930221558e-01
-3.728970512747764587e-02
1.152721419930458069e-01
8.259548991918563843e-02
4.035450052469968796e-03
-1.007965765893459320e-03
-4.434672743082046509e-02
-8.739514276385307312e-03
-1.626797951757907867e-02
-1.099339872598648071e-01
2.067648060619831085e-02
2.944944053888320923e-02
-8.908692002296447754e-02
8.444034308195114136e-02
-8.939937502145767212e-02
7.778680324554443359e-02
-1.239802092313766479e-01
-1.078804139979183674e-03
8.371993899345397949e-02
8.169210702180862427e-02
-9.524912573397159576e-03
-2.601123973727226257e-02
-1.031640022993087769e-01
9.557696431875228882e-02
4.154784139245748520e-03
1.192857511341571808e-02
-3.379572927951812744e-02
-9.843915700912475586e-02
-8.584868628531694412e-04
5.938031896948814392e-02
-1.122578382492065430e-01
2.905890531837940216e-02
4.662229120731353760e-02
8.438386768102645874e-02
-1.152343600988388062e-01
1.137633696198463440e-01
-9.717570245265960693e-02
-1.149216070771217346e-01
1.209787577390670776e-01
-2.814409695565700531e-02
-1.541906222701072693e-02
8.710001409053802490e-02
-4.982298705726861954e-03
1.184136513620615005e-02
4.362075030803680420e-02
-2.491021528840065002e-02
-7.360264658927917480e-02
-7.070953398942947388e-02
-4.348205775022506714e-02
-8.455423265695571899e-02
5.357810482382774353e-02
-5.444782599806785583e-02
1.060544997453689575e-01
6.753113865852355957e-02
-3.916389122605323792e-02
-4.079333040863275528e-03
2.541160769760608673e-02
-8.860321342945098877e-02
1.241645514965057373e-01
-8.124174177646636963e-02
9.551323950290679932e-02
-1.158950477838516235e-01
-6.009215861558914185e-02
-1.130122095346450806e-01
1.615689322352409363e-02
-4.855794832110404968e-02
1.833559758961200714e-02
-1.012126132845878601e-01
-1.220260635018348694e-01
-8.188051730394363403e-02
5.259255319833755493e-02
3.229827433824539185e-02
6.439069658517837524e-02
-5.327790230512619019e-02
