3.167185187339782715e-01
-4.762956798076629639e-01
-3.543169796466827393e-01
-1.743382215499877930e-01
-2.700858749449253082e-02
-3.650820553302764893e-01
-1.610140316188335419e-02
9.350638091564178467e-02
5.525279641151428223e-01
2.737533152103424072e-01
-4.408372640609741211e-01
6.296948790550231934e-01
-4.207101464271545410e-01
-9.532332420349121094e-02
-5.673086047172546387e-01
2.713616564869880676e-02
3.347779810428619385e-01
-2.051350623369216919e-01
4.793022871017456055e-01
-4.290283918380737305e-01
-3.900652527809143066e-01
4.927271604537963867e-01
-4.318671822547912598e-01
5.544657707214355469e-01
3.185410499572753906e-01
-3.231039047241210938e-01
4.583994448184967041e-01
-1.177432574331760406e-02
4.314495027065277100e-01
1.275479048490524292e-01
-7.759957015514373779e-02
-2.773945331573486328e-01
1.901299059391021729e-01
-9.550408460199832916e-03
3.210976123809814453e-01
-1.854431480169296265e-01
-1.899561882019042969e-01
-8.633792400360107422e-02
4.008143842220306396e-01
-3.791561126708984375e-01
-6.582094430923461914e-01
1.047427877783775330e-01
4.138937592506408691e-02
-3.500978350639343262e-01
2.173237316310405731e-02
-1.252743154764175415e-01
2.138608992099761963e-01
-2.395315021276473999e-01
2.926983535289764404e-01
-8.550699055194854736e-02
-5.539073348045349121e-01
-5.009782314300537109e-01
-6.040989160537719727e-01
-3.793500065803527832e-01
-1.194108556956052780e-02
-6.090682744979858398e-01
3.763183057308197021e-01
-4.997791051864624023e-01
9.158749878406524658e-02
-2.713790237903594971e-01
1.239696741104125977e-01
-5.270051956176757812e-01
1.584963500499725342e-01
4.086384475231170654e-01
2.797173559665679932e-01
3.318128287792205811e-01
-2.399565130472183228e-01
4.088416397571563721e-01
-6.164788007736206055e-01
-2.467217296361923218e-02
-3.468846436589956284e-03
-4.495176672935485840e-01
-4.484132230281829834e-01
2.467664480209350586e-01
5.057057142257690430e-01
1.321236342191696167e-01
2.874462679028511047e-02
-5.854940414428710938e-01
-3.410328924655914307e-01
-8.247284591197967529e-02
-5.369060635566711426e-01
-2.007550895214080811e-01
-5.914784669876098633e-01
4.762072265148162842e-01
2.078713774681091309e-01
4.280768632888793945e-01
4.901624023914337158e-01
2.628405392169952393e-01
-2.770189642906188965e-01
-7.523117959499359131e-02
1.078478395938873291e-01
3.668052852153778076e-01
-7.010347247123718262e-01
7.735571265220642090e-02
3.772190511226654053e-01
-3.765790536999702454e-02
1.073218435049057007e-01
-2.421701699495315552e-01
3.796308934688568115e-01
3.661966621875762939e-01
7.623787224292755127e-02
-2.713699340820312500e-01
-1.266393065452575684e-02
-2.111709490418434143e-02
4.222224950790405273e-01
1.682643778622150421e-02
-3.293246328830718994e-01
2.273712456226348877e-01
7.383748143911361694e-02
-4.372721910476684570e-01
3.727874532341957092e-02
1.640787422657012939e-01
5.200294256210327148e-01
-4.215999245643615723e-01
3.472865223884582520e-01
2.435714453458786011e-01
3.067903220653533936e-01
-1.683508604764938354e-01
-4.640999436378479004e-02
-2.880809307098388672e-01
-2.268224954605102539e-01
3.903442919254302979e-01
1.948514282703399658e-01
-2.452250123023986816e-01
2.734971046447753906e-01
-4.217317700386047363e-01
1.068418174982070923e-01
-3.047963380813598633e-01
-1.498880088329315186e-01
3.153051733970642090e-01
-2.520677745342254639e-01
-5.675572752952575684e-01
4.532654285430908203e-01
5.425801873207092285e-01
2.689631581306457520e-01
-8.735822886228561401e-02
1.503618955612182617e-01
4.967166483402252197e-01
-1.947569400072097778e-01
4.268787205219268799e-01
-4.781948328018188477e-01
-1.700755953788757324e-01
3.113707900047302246e-01
-2.162093371152877808e-01
-1.819224953651428223e-01
3.162968754768371582e-01
-4.187088012695312500e-01
2.098451182246208191e-02
-1.308446004986763000e-02
3.422056436538696289e-01
-5.009008944034576416e-02
-1.744807362556457520e-01
5.037726163864135742e-01
2.797109261155128479e-02
2.082690596580505371e-02
-5.178259015083312988e-01
7.145881652832031250e-02
1.261555105447769165e-01
-2.930639386177062988e-01
-2.423150390386581421e-01
-5.417913943529129028e-02
-5.635384321212768555e-01
3.767385184764862061e-01
-2.211134731769561768e-01
-5.890314579010009766e-01
-3.995731845498085022e-02
4.489633440971374512e-01
5.920973047614097595e-02
2.815412282943725586e-01
-2.624534368515014648e-01
-2.292441874742507935e-01
5.266810581088066101e-02
-4.382795095443725586e-01
3.257143124938011169e-02
-5.466609075665473938e-02
5.154616236686706543e-01
6.245782226324081421e-02
-2.514144480228424072e-01
1.613317728042602539e-01
4.194866418838500977e-01
-3.388741314411163330e-01
2.172693163156509399e-01
-3.197792768478393555e-01
-2.381796538829803467e-01
3.864044547080993652e-01
-5.657814145088195801e-01
7.436998933553695679e-02
-3.224028944969177246e-01
-4.371353983879089355e-01
2.023259997367858887e-01
3.277591243386268616e-02
4.450731873512268066e-01
