-5.797994617751101032e-06
5.751148273702710867e-05
6.604198915738379583e-06
-1.851900464089339948e-07
4.397026316382834921e-07
6.313056219369173050e-04
-2.651528347996645607e-07
-1.157153395325849488e-08
3.694733777592773549e-06
3.982471753261052072e-06
-5.534749547564388195e-08
1.842368947109207511e-04
-6.213246706465724856e-06
4.066198755481309490e-07
3.364000917827070225e-07
4.169905514572747052e-05
9.988804958993569016e-05
-4.686071770265698433e-05
-2.644574692567402963e-07
1.336442920774061349e-07
-1.218223104615390184e-07
2.616914280224591494e-04
-3.670147350476327119e-07
-2.624124135763850063e-07
-1.132049328589346260e-05
2.929915012828132603e-07
4.660588165279477835e-04
9.344558549173598294e-08
6.124384412942163181e-07
-1.806439286156091839e-05
1.035484638123307377e-05
-2.374126488575711846e-04
-1.008265044788458908e-07
1.136124847107566893e-04
4.910987172479508445e-07
-6.182160632306477055e-07
2.657200275280047208e-05
1.918584712257143110e-05
5.028206578572280705e-05
5.519822934729745612e-06
-3.375387314008548856e-05
-6.136093020359112415e-07
3.096736909355968237e-04
8.698818021457555005e-08
-2.241099110733557609e-07
-1.643293217057362199e-04
1.069403992914885748e-06
1.700217981124296784e-04
-8.283462193503510207e-06
-8.082930435193702579e-06
2.464041131133853924e-07
-6.583065260201692581e-05
-2.445640348014421761e-07
5.913528002565726638e-05
1.602630800334736705e-04
-1.704059104667976499e-04
-1.963290827688979334e-07
-1.044910504788276739e-06
-7.733679296961781802e-08
-1.793224839730100939e-07
1.311280811933102086e-06
-2.471816515026148409e-06
-6.690680152132699732e-07
-3.574028824004926719e-07
8.029340278881136328e-06
-4.216222805553115904e-05
-1.402296732067043195e-07
4.597136751272046240e-07
5.030773309044889174e-07
-4.708194865088444203e-06
-4.210984479868784547e-05
-4.494712513292142830e-08
-1.535153870690919575e-08
3.531103232035093242e-07
-4.031331286569184158e-07
1.675313541227296810e-07
-7.878531960159307346e-08
-4.757115732445527101e-07
-5.237923232925822958e-07
-2.110309083036554512e-07
-1.126484130509197712e-04
-3.600739728426560760e-05
4.075749018284113845e-07
-1.396695006405934691e-04
9.064663686331186909e-09
1.789146881492342800e-05
1.777606115638263873e-07
-2.812314960465300828e-05
-1.092105139832710847e-05
2.240143203380284831e-06
5.586903739640547428e-07
-5.167765948499436490e-07
-1.387283106168979430e-07
-5.791861781290208455e-07
2.967774719309090870e-07
-4.333109586696082260e-07
-1.545589293527882546e-05
8.780344984415933141e-08
8.152691179930116050e-07
-4.567612847949931165e-07
2.053813841484952718e-05
1.349870473177361418e-07
1.048152989824302495e-04
-1.861549435488996096e-06
-1.137157414632383734e-05
4.008006071671843529e-04
-4.228750185575336218e-07
2.056266112049343064e-06
6.438510808948194608e-07
-3.904623736161738634e-05
2.539863714901002822e-07
3.307477163616567850e-04
4.305724132791510783e-07
-7.384168299040538841e-08
-1.380233334202785045e-05
4.272658770787529647e-05
4.029830506624421105e-06
3.987558159224136034e-07
5.137473522154323291e-07
-3.679920155263971537e-07
-3.857205683743814006e-07
-8.383730892091989517e-05
-2.799444587253674399e-07
-5.511946028491365723e-07
6.842084587788122008e-08
-1.379191161277049105e-07
1.512568815087433904e-05
-2.607567585073411465e-04
-1.791574533172024530e-07
-5.687632551598653663e-07
1.050538344316009898e-06
-7.038305938067423995e-08
5.942979987594299018e-05
-3.237429773434996605e-04
4.462395008886232972e-05
3.362533243489451706e-05
-8.706995686225127429e-06
1.677800173638388515e-05
7.660927622055169195e-06
-1.522417534260966931e-07
-3.267152237640402745e-07
6.378684958008307149e-08
1.952908945668241358e-07
-3.395521019911029725e-08
2.088215751427924260e-07
-8.024513249438314233e-07
-4.216254637867677957e-06
-1.368035924542709836e-07
-4.239805662109574769e-07
6.281301921262638643e-06
2.104554965853822068e-07
4.440859129317686893e-07
1.482624884374672547e-05
-1.499314930697437376e-05
1.387504937611083733e-07
1.788435838534496725e-05
-1.038832760968944058e-05
1.971100391529034823e-05
1.387686978659985471e-07
-2.116171799571020529e-06
-1.296122832172841299e-06
4.241725264364504255e-07
-2.298073923157062382e-05
3.222603197627904592e-07
3.373754609015122696e-08
-2.345817119930870831e-05
-2.480554712747107260e-07
6.629468174423891469e-08
-1.082566001286977553e-07
-1.416710375679031131e-07
-7.954739800197785371e-08
2.241906145172833931e-07
-1.881939510894881096e-06
-1.211478206641913857e-06
2.453910019539762288e-05
-2.219584712292999029e-05
2.054588112514466047e-04
6.450260843848809600e-05
2.268475800519809127e-04
-8.604755663554897183e-08
2.557520701884641312e-07
-1.492600176788982935e-07
4.694185918197035789e-05
3.429069579397037160e-07
3.742659089311928255e-07
4.748353239847347140e-05
-6.589946792701084632e-07
6.437322099372977391e-06
-2.287130307365714543e-08
2.334891462396626594e-07
1.366245669487398118e-06
5.746523311245255172e-05
-6.460049917222931981e-05
-4.676699063566047698e-07
1.574843772687017918e-04
5.013212671656219754e-07
1.619606848635157803e-07
1.671149657340720296e-04
-3.838704724330455065e-04
9.608503859226402710e-08
4.262020229361951351e-04
2.332366193513735197e-07
-2.672764530871063471e-04
2.114664710006763926e-07
1.060911290551302955e-05
2.160267467843368649e-04
2.415826259039022261e-07
1.301877716741728364e-07
-3.270977686042897403e-05
4.325586928644042928e-07
4.583098925650119781e-04
1.229531818580653635e-07
-3.988450316683156416e-06
-1.429300624522511498e-07
1.670654091867618263e-05
-1.187158204629668035e-06
1.109829463530331850e-04
-1.112639935740844521e-07
-2.428794978186488152e-04
5.681383845512755215e-05
-2.105386811308562756e-04
6.729157757945358753e-05
-2.085280175379011780e-05
5.793728519165597390e-07
2.734360714384820312e-05
-1.598089584149420261e-04
-3.690515877678990364e-04
1.415411497873719782e-05
-6.686021265522867907e-07
6.905990090899649658e-08
2.314940138603560627e-05
3.981034808475669706e-07
5.092112769489176571e-05
1.266011054212867748e-06
3.532231858116574585e-05
-7.553163072770985309e-08
6.314843631116673350e-06
-4.413612477947026491e-04
-6.669735739706084132e-05
8.753399924898985773e-06
-1.046727265929803252e-04
1.612002670299261808e-04
-2.140546530426945537e-05
-2.665772740328975488e-07
3.141606794088147581e-05
-8.529167644155677408e-06
-3.621373616624623537e-05
6.619247727712718188e-08
-5.642243294801119191e-08
2.134877803428025800e-07
4.435852929418615531e-07
-8.413018548480977188e-08
1.904130328966857633e-07
8.516345246789569501e-07
1.928718847921118140e-05
-1.600171941618100391e-07
4.155727140187082114e-07
-7.866294140512763988e-07
9.554260316235740902e-08
8.581927346540396684e-08
4.337707650847733021e-07
2.593632473235629732e-07
3.474192169505840866e-07
-1.372740953229367733e-04
-4.156142381361860316e-07
-1.698541325367841637e-07
-3.017228846147190779e-05
2.685583312995731831e-04
-3.733877917966310633e-07
6.382429855875670910e-04
-7.623569399584084749e-05
2.721447708609048277e-05
4.452034772839397192e-06
3.254229668527841568e-04
-3.742682110896566883e-07
5.659143789671361446e-05
-1.138857328442099970e-07
-7.339126568695064634e-06
-4.618547109203063883e-07
4.684447389990964439e-07
6.965319334995001554e-05
-4.123286885260313284e-07
4.277609605196630582e-06
-2.968796252389438450e-05
-3.113614184258040041e-07
-1.203714564326219261e-04
-1.362926695946953259e-07
-6.453553942264989018e-05
-4.493645988645766920e-08
-2.060255184233028558e-07
-5.370341682464641053e-07
4.190822551208839286e-07
5.028687155572697520e-07
-2.244479020419021253e-07
-2.627105459396261722e-05
1.491042166890110821e-05
2.523662487874389626e-07
3.066843703436461510e-07
-1.718368002912029624e-05
-6.538665911648422480e-05
-2.272578785778023303e-05
5.153912934474647045e-05
1.616995577933266759e-04
-7.856757378021939076e-08
-8.136959763760387432e-07
6.078231308492831886e-05
-3.651713953445323568e-08
-4.634835875094722724e-07
1.068703880946486606e-07
-1.321455897596024442e-06
-5.075708031654357910e-06
-3.183129229000769556e-05
8.501528725446405588e-08
-3.112757269718713360e-07
-2.624042099341750145e-05
-4.858502506976947188e-05
-5.588839258052757941e-07
5.987575946164724883e-07
6.236634817469166592e-06
1.799295574755888083e-07
1.794639246099904994e-07
-5.439726464828709140e-07
2.207283955613092985e-07
6.307658395598991774e-07
-1.570747917867265642e-05
2.880576444042048934e-09
4.106207779841497540e-05
-8.933631761465221643e-06
-1.213837458635680377e-04
-1.529770379420369864e-04
-1.229338977282168344e-05
1.072932946044602431e-06
-4.465555830392986536e-04
-7.524096758970699739e-07
-2.569636490079574287e-05
1.284990105432370910e-07
-1.617469820303085726e-07
6.552365761081091478e-08
2.323070657439529896e-04
3.253399336244910955e-05
2.126638243282741314e-08
-6.047131364539382048e-07
6.578740681106864940e-07
-1.084920495486585423e-05
-5.514241934179153759e-07
-1.100759448036114918e-07
3.279434110936563229e-07
-4.527478125737616210e-08
1.688956399448215961e-05
-1.597646187292411923e-04
6.576520263479324058e-06
-1.445668658561771736e-05
3.788403546423069201e-07
-6.304562134573643561e-07
-2.188343023590277880e-05
3.515338562465331051e-07
1.658080291235819459e-04
1.630719270906411111e-05
-1.825541033895206056e-07
5.327816325007006526e-05
1.722146514282485441e-08
2.231071221103775315e-07
2.772416962670831708e-07
-4.948918430613957753e-08
8.354425062861992046e-07
-1.262089597275917185e-07
-8.617209823569282889e-05
6.624520665354793891e-06
4.854925282415933907e-05
-1.197589512003105483e-07
-1.080431175637386332e-07
-4.597629958880133927e-05
-9.077583484895512811e-08
2.732216159984091064e-07
7.127846970433893148e-07
7.482326509489212185e-07
2.934103576990310103e-06
8.152952432283200324e-06
2.007651822566458577e-08
8.809313840174581856e-06
-6.975863442448826390e-08
1.086992185150847945e-07
-1.437833674344801693e-07
5.475831699186528567e-07
1.084370353510166751e-07
1.374593011860270053e-05
2.992550726048648357e-04
9.634550224291160703e-06
3.761110201594419777e-05
-2.525656839225121075e-07
7.095119144651107490e-06
-2.620889426907524467e-05
-2.973240043502300978e-05
-1.621355477254837751e-04
-9.111664257943630219e-05
-3.685260594465944450e-07
1.978916261577978730e-04
1.961803093308844836e-07
5.098824118476841250e-08
-2.663269071945251198e-07
-5.256470467429608107e-05
-6.375288421622826718e-07
-3.530821049935184419e-05
-4.075633478350937366e-05
-5.343014208847307600e-07
7.973112587933428586e-07
1.473026804887922481e-05
-3.268755244789645076e-05
2.274022534720643307e-07
2.107047691879415652e-07
-3.563061545719392598e-05
-1.061692673829384148e-04
2.095405579893849790e-05
-6.134268915047869086e-06
-3.803195340879028663e-07
4.091303935638279654e-07
-6.597988249268382788e-05
1.420412154402583838e-04
-1.788448997785963002e-07
2.956659009214490652e-04
-2.868974434022675268e-06
5.037227879256533924e-07
2.176668349420651793e-04
1.685322992273086129e-08
-9.990318261543507106e-08
1.929661266331095248e-07
-1.628215395612642169e-04
-1.466887908918579342e-07
-1.601861896460832213e-07
-1.066258755599847063e-05
4.220153471123921918e-07
-6.574898634426062927e-07
-2.447925773196857335e-08
7.610372267663478851e-05
8.917069180824910291e-07
-6.638900629241106799e-08
-7.534506585216149688e-05
-8.106283348752185702e-05
-3.710234159370884299e-05
-1.552236881252611056e-07
2.608140192705832305e-08
2.582640092896326678e-07
1.264700273395646946e-07
-5.347295086721715052e-07
4.373399497126229107e-05
-2.912454100112427113e-08
1.202386442855640780e-06
-7.669862611692224164e-07
1.043708743964089081e-05
-2.531231189095706213e-07
4.431286015460500494e-06
9.079411711354623549e-08
6.478188083747227211e-07
8.257458102889358997e-05
-1.876685189472482307e-07
7.200598162171445438e-08
-6.554097581101814285e-06
7.846413063816726208e-05
1.645768497837707400e-04
-3.713623470957827521e-07
-5.126254109200090170e-06
-3.266862449891050346e-06
-1.257793064723955467e-05
3.450137739946512738e-07
8.318419872921367642e-07
-2.466755859131808393e-06
-2.845156927833158989e-07
2.610754163470119238e-04
-4.781218194693792611e-07
3.611260808611405082e-06
5.756923656008439139e-06
3.010454747709445655e-07
3.886671765940263867e-05
9.713809413369745016e-05
-4.576385776999813970e-07
-6.108441448304802179e-05
-9.060472802957519889e-05
6.596035382244735956e-05
4.081618972122669220e-04
4.901768306808662601e-07
1.181644165626494214e-05
4.851000880989886355e-07
3.222846203243534546e-07
-6.345412089103774633e-07
8.867888645625043864e-09
-6.214606401044875383e-05
2.291330019943416119e-05
2.953526916371629341e-07
1.110333687392994761e-05
-6.217587156243098434e-07
6.188431598275201395e-07
-3.586768855257105315e-07
-2.807225682772696018e-04
-4.717022932254621992e-07
2.023314591497182846e-04
-1.044883447320898995e-06
3.912501779268495739e-05
-2.675540599739179015e-06
-2.578335625003091991e-07
1.908073318190872669e-05
-9.683447643737963517e-08
-1.414559119439218193e-05
-4.926707788399653509e-07
6.266788659559097141e-06
-1.599781640493347368e-08
-1.106063365341469762e-07
2.977855331209866563e-07
4.485293538891710341e-05
-3.102801201748661697e-05
-2.391194584561162628e-07
-1.749901059611147502e-07
-3.419311042307526805e-06
4.078703204868361354e-05
-2.935831616923678666e-06
3.578968608053401113e-05
-8.968498150352388620e-05
6.477117153735889588e-07
-4.808162543668004218e-07
2.539135266488301568e-06
-2.578715054823987884e-07
1.758281287038698792e-04
4.309446740080602467e-05
-7.133318717933434527e-07
-5.314307782100513577e-05
-1.082505514204967767e-05
-4.565637823361612391e-07
-3.548874758507736260e-07
1.579938491147458990e-08
8.519719267496839166e-05
-1.054883824735952658e-07
1.783278712537139654e-04
-3.402595757506787777e-05
-7.920013977980033815e-09
-1.336323766736313701e-04
6.799267339374637231e-06
-2.037352714978624135e-05
-2.845635754056274891e-05
-1.305802896922614309e-07
-1.158040049631381407e-06
-5.568583105741709005e-07
9.556925215292721987e-05
2.736628346156066982e-07
4.540862974522497097e-08
3.854109309031628072e-05
-4.740371878142468631e-06
1.468372065573930740e-04
1.225902906298870221e-05
3.241145520860300167e-07
1.781176615622825921e-05
-2.255592553410679102e-04
2.217385173253205721e-07
1.811068806034654699e-08
2.138928749673141283e-07
5.259132080936979037e-07
-1.328298003500094637e-05
-1.071750119763237308e-07
5.837535468344867695e-07
-2.531408654249389656e-06
3.181999272783286870e-05
4.887711111223325133e-05
1.410264758305856958e-07
-5.160492264622007497e-07
-4.867773168371059000e-05
-5.936272282269783318e-05
5.207193112255481537e-07
2.154963993916680920e-07
-1.390032139170216396e-05
-2.024340938078239560e-05
-2.314595946018016548e-07
-1.412156365176997497e-07
6.563697752426378429e-06
-7.415599156956886873e-07
-3.864695318043231964e-04
6.436964294920244356e-09
2.119354292062780587e-07
2.332072108401916921e-05
-1.001598866423591971e-04
2.483507159922737628e-05
-1.873384718464876642e-07
-5.362550723475578707e-07
-1.316204532031406416e-07
-2.153210232336277841e-08
6.567348027601838112e-04
-1.304478355450555682e-04
7.265457952598808333e-06
1.586944051723548910e-07
-6.521046452689915895e-05
-2.029692223004531115e-05
2.341699837415944785e-05
2.998249510710593313e-05
3.810980160778854042e-06
-1.936501939781010151e-05
2.023401890483000898e-07
2.402619793429039419e-05
7.658397294107999187e-07
2.078116381198924500e-07
1.301098200201522559e-05
-7.437008662236621603e-07
-6.513154949061572552e-05
-1.668231902840489056e-06
-4.339945917308796197e-06
2.972035417769802734e-08
-8.597801866017107386e-07
2.223489864263683558e-04
4.902179352939128876e-05
1.404604432764244848e-08
-1.634835462027695030e-05
4.642812712063459912e-07
4.350229687588580418e-07
-1.159865803401771700e-07
-7.643373101018369198e-05
-1.479267695003727567e-07
-2.328074624529108405e-04
2.267888521600980312e-05
1.231385704159038141e-05
-7.015695700829382986e-06
2.964987970699439757e-07
2.014769961533602327e-05
-1.561450403642083984e-06
4.981937308912165463e-05
1.381175661663291976e-05
-2.242555410703062080e-06
-3.140204398732748814e-06
3.154937928684375947e-07
-1.511015668143045332e-08
5.161121589480899274e-05
-9.588449501052309643e-08
-1.166274669230915606e-04
3.108657153916283278e-07
-3.700429806485772133e-05
-6.836184525127464440e-07
-6.313218909781426191e-05
-4.020130575099756243e-07
1.065522383214556612e-06
8.310218646556677413e-08
4.794543997377331834e-07
2.141340758043952519e-07
-1.830438520755706122e-07
-2.908968781412113458e-07
-3.828028241059655556e-07
-3.772716127059538849e-06
1.435317130926705431e-06
1.561617318657226861e-05
-2.328986511201946996e-06
-4.169277758592215832e-07
3.134457529085921124e-06
-3.738107636763743358e-07
-2.395630508544854820e-05
-2.937251508683402790e-07
-1.697047878224111628e-06
1.484231324866414070e-04
5.266650759949698113e-07
8.058535883037620806e-08
-1.615629844309296459e-05
1.051686103892279789e-05
-2.163699974744304200e-08
-8.306066774821374565e-06
1.374362000206019729e-05
-7.009516025391349103e-07
-3.738854275070480071e-06
-1.255110964848427102e-05
3.550895542048237985e-07
3.795169050135882571e-07
-8.327139653374615591e-07
-8.675429086224539788e-08
3.198527451786503661e-07
9.000989109608781291e-08
-1.476554558621501201e-07
1.563209079904481769e-04
1.014720112380018691e-07
4.568215672406950034e-07
3.374343009454605635e-07
1.696775143500417471e-04
1.380779867758974433e-04
-2.791967403936723713e-07
-5.369059294935141224e-07
-4.762589611573275761e-08
-2.797341664972918807e-07
-4.925660164190048818e-07
-7.471114713553106412e-06
-7.310736691579222679e-05
-8.213070401552613475e-08
-5.321184630702191498e-07
5.114283994771540165e-04
-5.027011411584680900e-07
4.175451238097593887e-07
1.895977561616746243e-07
-8.183036470654769801e-08
-1.408528305546496995e-06
5.008504331271979026e-07
-3.668413046398200095e-05
-1.205039079650305212e-04
1.005862031888682395e-06
-2.835572922776918858e-05
4.172933358859154396e-07
1.022379728965461254e-05
2.028207381954416633e-05
-6.501720235974062234e-06
-1.274270289286505431e-07
9.954975212167482823e-06
1.408354535215039505e-07
-4.229629212204599753e-06
8.297387103084474802e-05
5.303729722072603181e-07
9.822048014029860497e-05
8.993428082249010913e-07
-8.004493423641179106e-08
-3.213719537598080933e-05
7.742123852949589491e-05
3.045596130846206506e-08
-2.069857146125286818e-05
5.641216994263231754e-04
6.636434118263423443e-04
7.308221538551151752e-04
-4.350800679731037235e-07
3.043448959942907095e-04
7.455209270119667053e-04
6.244255246201646514e-07
-1.826227418177950312e-07
5.129506462253630161e-04
-2.327316082073593861e-07
1.314669643761590123e-04
-3.165530415571993217e-07
-1.626551977551571326e-07
5.029988187743583694e-06
-4.969813380739651620e-05
-1.901275936688762158e-06
-2.172549648093990982e-05
2.027848131547216326e-05
-3.870313847187389911e-09
3.035862846445525065e-06
-2.355042852286715060e-05
3.375276946826488711e-07
5.539582343772053719e-05
4.094537871424108744e-04
-4.496792769259627676e-07
-2.417476707705645822e-07
-3.674828258226625621e-05
6.567673835888854228e-07
4.901014108327217400e-05
2.461586700519546866e-05
2.029677048653866223e-08
1.520162368251476437e-05
-1.208014418807579204e-05
-8.259575224656146020e-06
2.632641371747013181e-05
-3.707780251716030762e-06
1.204678312660689699e-07
1.240821293322369456e-04
-1.468079863116145134e-04
2.683839738892856985e-05
-6.090165811656333972e-07
-6.933861641300609335e-06
-3.279549491708166897e-05
-1.577913621986226644e-07
-2.123447906399178464e-08
2.396649847469234373e-07
7.217367965495213866e-05
-8.008981239981949329e-05
-1.392048216075636446e-05
-3.781051782425493002e-05
2.046479465889206040e-07
9.273507544094172772e-07
5.669063102686777711e-05
1.105082701542414725e-04
3.585039820563906687e-08
-1.441838248865678906e-04
-4.998969416192267090e-07
-2.976569533075235086e-07
-2.537720700246381966e-09
3.843033937300788239e-06
-3.257475498230633093e-07
1.229086592502426356e-07
-1.217034969158703461e-05
-9.214549208991229534e-05
5.818197834628335841e-08
-2.863579311451758258e-07
4.255088424542918801e-05
-6.288041186053305864e-05
3.381355099918437190e-06
-2.129036680287299532e-08
-1.800476820790208876e-05
-4.620682375389151275e-05
1.698881715128663927e-05
2.626548791795357829e-07
-2.273586869705468416e-05
7.748216012259945273e-05
3.032943425296252826e-07
-1.281434975908268825e-07
3.828631597571074963e-04
-6.258495659494656138e-07
1.591619002283550799e-05
-1.998133520828559995e-04
-1.686859434357756982e-07
-2.950066345874802209e-06
2.973566211039724294e-07
-3.484204000869794982e-07
-6.067926733521744609e-05
-3.088484845648054034e-07
2.010960287179841544e-07
1.098859797821205575e-06
1.122705555189895676e-07
-2.725186050156480633e-07
2.487701749487314373e-06
-7.568777073174715042e-05
-2.689557163648714777e-07
2.319514749160589417e-07
-2.763987936305056792e-07
1.797310460460721515e-07
-1.358930421702098101e-05
-6.097954246797598898e-05
4.254053180829941994e-07
-2.149515694327419624e-07
6.361800615195534192e-07
1.203530075599701377e-07
-3.898253169154486386e-07
-3.190727113633329282e-07
-4.224941392294567777e-07
3.298489730241271900e-07
1.082030867110006511e-04
-3.391968675714451820e-06
9.420824653716408648e-08
-2.348923402450964204e-07
1.903105584233344416e-08
-2.175867308551460155e-08
-4.794730443791195285e-07
4.886089755018474534e-07
-9.564030915498733521e-05
2.151306262021535076e-07
-4.656396049540489912e-05
2.630169149142602691e-08
-2.262679845443926752e-05
1.823573693400248885e-04
5.588414069279679097e-07
4.692390575655736029e-05
-1.426072321919491515e-05
3.117951200692914426e-05
-2.315048623131588101e-04
-1.628082645765971392e-05
-2.313450022484175861e-05
3.497997980161926534e-08
3.525887279920425499e-07
1.381955030410608742e-07
-4.373609385766030755e-08
7.644608501777838683e-08
-1.968077469882700825e-07
7.588365406263619661e-05
2.004100970225408673e-04
-4.568705480778589845e-05
-8.459833043161779642e-05
-4.696168218742968747e-07
-1.089136549126124009e-05
1.401154895575018600e-05
-6.127725526994254324e-08
3.211118018953129649e-05
1.911918370751664042e-04
-1.481997896917164326e-04
2.298902188613283215e-07
-1.404707035135288606e-07
8.704734568709682208e-07
1.299765153817133978e-05
-1.519882152933860198e-05
-2.382038292125798762e-05
-2.263657421508469270e-07
-1.905699917870151694e-07
-5.519100159290246665e-05
1.736453414196148515e-04
3.417545713091385551e-07
8.903913840185850859e-05
3.784918135352199897e-06
-2.619595397845841944e-05
6.229255814105272293e-05
7.126118725864216685e-05
3.078227164223790169e-04
3.307049337308853865e-04
-4.278706100535600854e-08
1.200206097564660013e-04
9.226348574031817407e-09
-2.511400225557736121e-07
2.160361418646061793e-07
6.430164212360978127e-04
-1.702931129443641112e-08
-4.950727452524006367e-04
2.226887119149978389e-07
8.385984529013512656e-08
8.172121823690758902e-08
2.684290484467055649e-05
-3.727310371459680027e-08
-2.102694338645960670e-07
-2.828448486980050802e-06
-8.949660923462943174e-08
5.522720130102243274e-07
2.886710888105881168e-07
-1.313819084316492081e-04
3.470072158506809501e-07
-4.459512012999766739e-07
5.945295242781867273e-07
6.616168093387386762e-07
-2.106010833813343197e-05
-8.380438885069452226e-07
1.776096614776179194e-04
3.168486273352755234e-07
2.545152483435231261e-06
1.404781141900457442e-05
-6.712882623105542734e-06
1.596088623045943677e-05
3.625954434482991928e-07
2.017799829445721116e-07
-1.912758762045996264e-06
-6.090104420763964299e-09
5.445124315883731470e-07
1.202704424940748140e-06
1.666339521761983633e-04
4.048417601154596923e-09
1.538684155093505979e-04
-8.895850442058872432e-06
1.035285749821923673e-04
6.493273758678697050e-07
1.296156697208061814e-04
1.407168310834094882e-04
1.283627000248088734e-07
3.847493701414350653e-07
1.750849776271934388e-07
-3.562046231309068389e-07
-3.328680406866624253e-07
3.274302434874698520e-05
5.359063948162656743e-07
3.454397301538847387e-07
1.536242848487745505e-07
2.499963791535719793e-08
3.532584358367785171e-08
-2.249431418022140861e-05
-3.339200702612288296e-05
1.020207855617627501e-04
-5.204035915085114539e-05
-1.299322320846840739e-07
-5.228129111856105737e-07
-1.151069497495882388e-07
6.864885563118150458e-06
-2.069603651762008667e-04
8.163827442331239581e-05
-2.433110068977839546e-07
6.390907219611108303e-05
-1.203910926506068790e-07
2.453237755162263056e-07
-1.119821831707668025e-06
-2.568088348198216408e-05
2.949316240119514987e-07
-6.218524958967464045e-06
-2.096573880407959223e-04
-1.550122251501306891e-04
3.183050694133271463e-07
6.526258221128955483e-05
-4.248404081863554893e-07
-7.914991897450818215e-07
4.037770559079945087e-04
6.670567245237180032e-07
-1.137453728006221354e-05
-9.353903442388400435e-05
5.911331390962004662e-04
-5.843181938303132483e-08
2.962931175716221333e-04
3.861148798023350537e-05
1.510597940068691969e-07
7.596888281113933772e-06
2.071630120781264850e-07
2.030646584216810879e-08
-8.801804796121359686e-08
-2.425682623652392067e-07
-3.807889186191459885e-07
7.827769650248228572e-07
1.332206807092006784e-07
-8.057833474595099688e-05
-3.382862132639274932e-07
5.060342900264913624e-08
2.597453658381709829e-06
-4.234510413425596198e-07
1.907041732920333743e-04
-1.056234395946376026e-05
-2.053989334172001691e-07
-1.668244476604741067e-05
7.752834790153428912e-05
1.384914685331750661e-05
4.406616426422260702e-05
-3.130767727270722389e-04
-1.354938376607606187e-05
2.020795946009457111e-04
1.934507167788979132e-07
3.134351800326840021e-08
-5.585185647305479506e-08
2.828056312864646316e-05
-6.581077016676317726e-09
2.142773780633433489e-07
1.964316761586815119e-04
3.619851440817001276e-07
8.957107411333709024e-08
-7.277216354850679636e-05
-3.752219345187768340e-05
8.342583512899182097e-09
-2.963898805319331586e-05
4.838956897401658352e-07
-1.455383227266793256e-07
1.314882638325798325e-07
1.843965947045944631e-06
4.345115939941024408e-06
-4.000776607426814735e-05
6.988449854361533653e-07
-2.490447659511119127e-04
-1.167650651723306510e-07
8.984018222690792754e-07
1.781348544227512321e-07
-5.479636911331908777e-06
-6.857786502223461866e-05
-3.501787091408914421e-07
3.659565663838293403e-07
-2.231774851679801941e-04
-1.896770481835119426e-05
5.190262797327704902e-08
-2.231448803513558232e-07
-2.101708741975016892e-05
-2.908889129571434751e-08
-2.263446319261674944e-08
3.471230911600287072e-07
1.276072580367326736e-04
