-7.360920310020446777e-02
-8.599536120891571045e-02
3.683460131287574768e-02
-7.222769409418106079e-02
1.818450167775154114e-02
7.977442443370819092e-02
-4.199251066893339157e-03
7.690794020891189575e-02
8.086296170949935913e-02
-8.420235663652420044e-02
9.269766509532928467e-03
-8.392974734306335449e-02
7.480161637067794800e-02
-2.540966309607028961e-02
4.740292578935623169e-02
-1.506382320076227188e-02
4.598893970251083374e-02
-1.210554968565702438e-03
7.291711866855621338e-02
3.631672635674476624e-02
1.278695929795503616e-02
2.358355373144149780e-02
-6.334453076124191284e-02
-4.750478267669677734e-02
5.061824619770050049e-02
-3.710874880198389292e-04
-5.908582732081413269e-02
7.529755681753158569e-02
-2.386275120079517365e-02
8.603440970182418823e-02
4.946389794349670410e-02
2.376028150320053101e-02
-7.225842028856277466e-02
5.491802096366882324e-02
-3.808164224028587341e-02
3.403974324464797974e-02
8.087777346372604370e-02
-6.150443106889724731e-02
-2.815045975148677826e-02
1.466500479727983475e-02
7.818855345249176025e-02
-7.870042324066162109e-02
-5.454660207033157349e-02
2.670855447649955750e-02
-4.268446564674377441e-02
3.863774240016937256e-02
2.764703333377838135e-02
2.807429991662502289e-02
-6.965877860784530640e-02
7.211057096719741821e-02
4.450497776269912720e-02
-3.992231935262680054e-02
6.497751921415328979e-02
1.140787149779498577e-03
8.558222651481628418e-02
1.468155160546302795e-02
5.360290873795747757e-03
-8.429336547851562500e-02
-5.970486253499984741e-02
-3.446605429053306580e-02
-2.398535050451755524e-02
5.338494200259447098e-03
-2.915107645094394684e-02
-8.486538380384445190e-02
-5.357647314667701721e-02
-8.805550634860992432e-02
7.409133762121200562e-02
8.024854585528373718e-03
-7.885539904236793518e-03
-2.521665766835212708e-02
3.458259627223014832e-02
2.168153785169124603e-02
-1.453505363315343857e-02
-4.774739965796470642e-02
1.360198948532342911e-03
5.247397348284721375e-03
-6.114820018410682678e-02
2.242230065166950226e-02
-5.539810284972190857e-02
-1.230731722898781300e-03
-9.300085715949535370e-03
-4.419970512390136719e-02
-3.666148707270622253e-02
3.497295314446091652e-03
6.233660131692886353e-02
-1.309096161276102066e-02
3.973400592803955078e-02
-4.135582596063613892e-02
-8.720115572214126587e-02
2.434959821403026581e-02
1.783923618495464325e-02
3.658848255872726440e-02
-3.679149970412254333e-02
1.889746286906301975e-03
1.989911496639251709e-02
7.591771334409713745e-02
6.218681484460830688e-02
5.119143053889274597e-02
-3.845844790339469910e-02
8.637607097625732422e-02
-3.438341245055198669e-02
-8.308213949203491211e-02
7.396252453327178955e-02
-2.816020138561725616e-02
-5.103890597820281982e-02
7.573169469833374023e-02
-7.940457761287689209e-02
-5.390343070030212402e-02
2.666405402123928070e-02
7.709492743015289307e-02
-3.045354224741458893e-02
-3.165268525481224060e-02
-2.966621425002813339e-03
-1.789007894694805145e-02
1.552704069763422012e-02
-2.089011296629905701e-02
-3.968052193522453308e-02
3.731203451752662659e-02
8.718885481357574463e-02
5.582058429718017578e-02
-3.808555752038955688e-02
-5.149436742067337036e-02
2.519796788692474365e-02
1.146425306797027588e-02
-4.753363877534866333e-02
4.435943067073822021e-02
4.680729471147060394e-03
4.875145480036735535e-02
8.460740000009536743e-02
8.725687116384506226e-02
1.400057598948478699e-02
-1.121136732399463654e-02
-6.951716542243957520e-02
-5.354928597807884216e-02
5.349758267402648926e-02
-8.689355850219726562e-02
1.466901507228612900e-02
6.659044884145259857e-03
2.764133550226688385e-02
8.045876771211624146e-02
-7.815457880496978760e-03
6.382343918085098267e-02
-3.528157994151115417e-02
-3.249125182628631592e-02
-7.808119524270296097e-03
-8.140668272972106934e-02
1.616504229605197906e-02
8.627510815858840942e-02
-2.694830484688282013e-02
2.061748644337058067e-03
-3.178115468472242355e-03
-6.503754854202270508e-02
-4.524313285946846008e-02
5.249022319912910461e-02
6.617745757102966309e-02
-6.236576288938522339e-02
-3.903025761246681213e-03
1.152600627392530441e-02
-7.355757057666778564e-02
-6.891508400440216064e-02
8.067027479410171509e-02
-3.247362002730369568e-02
-8.242023736238479614e-02
4.241378232836723328e-02
6.980835646390914917e-02
-2.646662481129169464e-02
5.772603303194046021e-02
-6.658590584993362427e-02
-8.742781728506088257e-02
5.314325168728828430e-02
-8.435706607997417450e-03
1.436208188533782959e-02
-4.281174018979072571e-02
-2.700024656951427460e-02
4.340673238039016724e-02
5.358494073152542114e-02
6.666046380996704102e-02
6.923956423997879028e-02
-5.048926919698715210e-03
-2.495358884334564209e-02
1.455628499388694763e-02
-1.916489936411380768e-02
-1.535514276474714279e-02
3.334438428282737732e-02
3.250084072351455688e-02
-3.762643551453948021e-03
-3.754316642880439758e-02
-6.981150712817907333e-03
-3.011856228113174438e-02
7.679428160190582275e-02
-6.886265426874160767e-02
8.749330043792724609e-02
-6.072101369500160217e-02
-7.579172402620315552e-02
7.734290510416030884e-02
3.919055312871932983e-02
8.684749901294708252e-02
-7.710129022598266602e-02
-7.258935272693634033e-02
4.333297163248062134e-02
-8.791167289018630981e-03
1.692749001085758209e-02
-3.455844148993492126e-02
-4.081009328365325928e-02
-6.869021803140640259e-02
-3.964418917894363403e-02
-5.959784984588623047e-02
-4.502363130450248718e-02
5.064363032579421997e-02
-7.392652332782745361e-02
6.930500268936157227e-02
-6.880714558064937592e-03
-8.122460544109344482e-02
-3.179861977696418762e-02
-7.905542850494384766e-02
-4.403019696474075317e-02
9.825394954532384872e-04
-2.367036230862140656e-02
5.726230517029762268e-02
-8.039062470197677612e-02
-5.615095794200897217e-02
-3.915503248572349548e-02
-3.137638419866561890e-02
-8.040275424718856812e-02
3.786960616707801819e-02
7.491253316402435303e-02
6.842438131570816040e-02
-6.169649958610534668e-02
-5.694695934653282166e-02
4.146129637956619263e-02
-8.499275147914886475e-02
4.204874392598867416e-03
-4.584889486432075500e-02
4.657412692904472351e-02
1.876804418861865997e-02
-8.196789771318435669e-02
-3.155583143234252930e-02
7.695531100034713745e-02
2.501466870307922363e-02
2.979838848114013672e-02
2.717498689889907837e-02
7.618976384401321411e-02
-9.043729864060878754e-03
-2.686649933457374573e-02
-7.167997956275939941e-02
-8.935041725635528564e-03
-4.490399360656738281e-02
-2.792435698211193085e-02
-2.514768950641155243e-02
8.084980398416519165e-02
8.357708901166915894e-02
-1.288850605487823486e-02
7.316966354846954346e-02
5.837054923176765442e-02
4.074499383568763733e-02
2.582563646137714386e-02
-3.034980595111846924e-02
-3.456025570631027222e-02
-4.301796853542327881e-02
-6.894994527101516724e-02
-4.836341366171836853e-03
8.075757324695587158e-02
8.420503884553909302e-02
-6.723278202116489410e-04
-6.661156564950942993e-02
-2.484387718141078949e-02
6.667780876159667969e-02
-6.983806937932968140e-02
-6.596597959287464619e-04
-4.840962961316108704e-02
-6.665714085102081299e-02
-3.043169900774955750e-02
-3.739348053932189941e-02
-4.364328831434249878e-02
1.668869517743587494e-02
7.979532703757286072e-03
-3.288252651691436768e-02
-6.762862950563430786e-02
-8.833064138889312744e-02
-9.099404327571392059e-03
4.725509881973266602e-02
6.599555164575576782e-02
4.583634436130523682e-02
-5.882292985916137695e-02
4.339103400707244873e-02
4.221859946846961975e-02
6.318389624357223511e-02
5.519671738147735596e-02
-8.457666635513305664e-02
1.050931960344314575e-02
3.521386161446571350e-02
1.629322418011724949e-03
2.160896360874176025e-02
3.074976429343223572e-02
-1.978234574198722839e-02
6.278322637081146240e-02
1.199340913444757462e-02
-5.739071220159530640e-02
1.507589872926473618e-02
6.726161390542984009e-02
-7.392656058073043823e-02
3.342315927147865295e-02
4.497024044394493103e-02
5.448366329073905945e-02
3.660728037357330322e-02
-9.842328727245330811e-03
4.754714295268058777e-02
5.093624070286750793e-02
7.493421435356140137e-03
4.960455745458602905e-02
8.395057916641235352e-02
-4.875301942229270935e-02
1.179997902363538742e-02
-8.499890565872192383e-02
1.359836850315332413e-02
-3.332348167896270752e-02
-6.846560537815093994e-02
-4.626319557428359985e-02
6.055893748998641968e-02
-9.245375171303749084e-03
-2.745550684630870819e-02
5.310085602104663849e-03
4.552305489778518677e-02
-8.814679086208343506e-02
-7.930560410022735596e-02
7.203498482704162598e-02
-7.867582142353057861e-02
3.863458707928657532e-02
-1.447713235393166542e-03
2.273634448647499084e-02
-2.554936800152063370e-03
3.406221792101860046e-02
-7.784827798604965210e-02
4.226570483297109604e-03
-5.962856858968734741e-02
-4.582758992910385132e-02
6.039521098136901855e-02
-8.585963398218154907e-02
-5.015387758612632751e-02
8.246136456727981567e-02
-7.551308721303939819e-02
7.859685271978378296e-02
-5.577807500958442688e-02
-1.441663317382335663e-02
6.293305754661560059e-02
3.268172219395637512e-02
3.156584873795509338e-02
8.512895554304122925e-02
-1.366938930004835129e-02
1.138162612915039062e-02
4.327178373932838440e-02
1.995510235428810120e-02
-3.415564075112342834e-02
4.722234327346086502e-03
-5.116214603185653687e-02
-2.765821479260921478e-02
7.972131669521331787e-02
6.963878870010375977e-02
-8.079159259796142578e-02
-7.326900213956832886e-02
4.203334450721740723e-03
7.083224132657051086e-03
-7.356557995080947876e-02
5.277297273278236389e-02
-7.777787744998931885e-02
-5.554945021867752075e-02
3.199908882379531860e-02
8.170131593942642212e-02
-7.421050220727920532e-02
4.557644017040729523e-03
4.609259963035583496e-02
-8.273391425609588623e-02
-7.589972764253616333e-02
-8.421558886766433716e-02
1.754951849579811096e-02
-2.368080802261829376e-02
-8.382422849535942078e-03
-7.710845675319433212e-03
-1.232137251645326614e-02
7.286313921213150024e-02
-3.604787215590476990e-02
-6.748876720666885376e-02
-5.663819238543510437e-02
-8.248826116323471069e-02
-3.079464286565780640e-02
-6.966019282117486000e-04
7.237510755658149719e-03
-6.828161329030990601e-02
-2.894092164933681488e-02
8.592668920755386353e-03
-6.990797817707061768e-02
-2.719357842579483986e-03
-7.478079944849014282e-02
5.524969100952148438e-02
1.781141385436058044e-02
-1.618793234229087830e-02
6.718837469816207886e-02
-2.467490499839186668e-03
-2.491745166480541229e-02
-8.544473350048065186e-02
-6.794567406177520752e-02
-7.986225187778472900e-02
-8.000813424587249756e-02
8.648059517145156860e-02
7.668266445398330688e-02
-1.271515991538763046e-02
-4.585575312376022339e-02
-1.553397998213768005e-02
6.382099352777004242e-03
8.838403224945068359e-02
-4.746077209711074829e-02
-6.886476278305053711e-02
-4.096158314496278763e-03
-8.279629796743392944e-02
6.255520880222320557e-02
6.048511713743209839e-03
-7.995543628931045532e-02
4.848778992891311646e-02
-1.920213736593723297e-02
-2.640025690197944641e-02
-1.850656978785991669e-02
7.971704006195068359e-02
6.041098758578300476e-02
-4.128707572817802429e-02
-7.444114424288272858e-03
-7.801097631454467773e-02
7.771883904933929443e-02
5.309839267283678055e-03
-5.238185636699199677e-03
8.523821085691452026e-02
-1.145462971180677414e-03
-2.317548356950283051e-02
-7.990822196006774902e-02
3.733800351619720459e-02
8.702506124973297119e-02
7.445354014635086060e-02
5.000731442123651505e-03
7.466565072536468506e-02
1.871571689844131470e-02
-1.293356250971555710e-02
-3.372727334499359131e-02
-7.505482435226440430e-02
2.306653559207916260e-02
6.105307489633560181e-02
-5.083188414573669434e-02
-8.827560395002365112e-02
3.245237283408641815e-03
-7.832618430256843567e-03
6.473992019891738892e-02
-8.569639176130294800e-02
7.763899117708206177e-02
-1.373955700546503067e-02
6.353954970836639404e-02
-2.870929986238479614e-02
-4.908805713057518005e-02
6.060086190700531006e-02
7.681912928819656372e-02
-2.698510512709617615e-02
5.789250507950782776e-02
-8.728108555078506470e-02
-3.376290574669837952e-02
1.230039354413747787e-02
-8.124696463346481323e-02
-1.998001150786876678e-02
4.592679813504219055e-02
-7.868701219558715820e-02
7.871265523135662079e-03
8.030007779598236084e-02
-8.117160946130752563e-02
4.210437089204788208e-02
7.512363046407699585e-02
6.002911552786827087e-02
1.507564447820186615e-02
7.848355919122695923e-02
1.329961046576499939e-02
-1.732123456895351410e-02
-8.604540675878524780e-02
-6.495513767004013062e-02
7.769662141799926758e-02
-8.374321274459362030e-03
4.790093749761581421e-02
-4.178660735487937927e-02
1.800816133618354797e-02
-5.600313469767570496e-02
3.083861432969570160e-02
4.274979978799819946e-02
6.001582369208335876e-02
-1.997399330139160156e-02
-7.173163443803787231e-02
-4.672657698392868042e-02
3.051946312189102173e-02
-2.706758491694927216e-02
5.946331843733787537e-02
-5.162904784083366394e-02
-5.019168555736541748e-02
1.381585095077753067e-02
8.719915151596069336e-02
-6.847698986530303955e-02
-7.896269857883453369e-02
1.830866001546382904e-02
-1.585393771529197693e-02
3.166752308607101440e-02
-7.508495450019836426e-02
-6.456366926431655884e-02
3.115167468786239624e-02
2.893777750432491302e-02
-3.670495748519897461e-02
3.106380067765712738e-02
-7.811474800109863281e-02
-2.721782773733139038e-02
2.657828852534294128e-02
4.895028844475746155e-02
-1.159488316625356674e-02
6.263114511966705322e-02
-5.433731898665428162e-02
-4.441360756754875183e-02
6.629276275634765625e-02
5.756656080484390259e-02
8.568852394819259644e-02
-6.710149347782135010e-02
7.510786503553390503e-02
2.649609465152025223e-03
-6.796579062938690186e-02
7.287837564945220947e-02
-4.130344092845916748e-02
-7.040139287710189819e-02
-5.871760193258523941e-03
-7.080911844968795776e-02
-6.672176718711853027e-02
4.153977707028388977e-02
-6.596565991640090942e-02
4.589320346713066101e-02
9.283663704991340637e-03
-2.112720720469951630e-02
-3.072537295520305634e-02
8.602128177881240845e-02
3.564439341425895691e-02
-2.306926064193248749e-02
2.085086703300476074e-02
-6.265775859355926514e-02
1.857296936213970184e-02
5.787670612335205078e-03
-4.158178716897964478e-02
2.145852893590927124e-02
7.519292086362838745e-02
4.457325115799903870e-02
-1.254670601338148117e-02
-7.727614790201187134e-02
7.876705378293991089e-02
-2.552363323047757149e-03
6.324802059680223465e-03
2.304139547049999237e-02
-5.988107062876224518e-03
2.052935212850570679e-02
-8.589794486761093140e-02
2.641146071255207062e-02
-7.336874306201934814e-02
-6.759726256132125854e-02
5.396929010748863220e-02
-2.708118036389350891e-02
-8.591544628143310547e-02
2.584544382989406586e-02
-5.863803625106811523e-02
1.915732026100158691e-02
8.398067951202392578e-02
8.817936480045318604e-02
-5.141134932637214661e-02
-4.521925002336502075e-02
-9.102351963520050049e-03
-8.784975111484527588e-02
8.052342385053634644e-02
5.050110444426536560e-02
-5.684873834252357483e-02
-2.951789274811744690e-02
-3.959765657782554626e-02
5.251479521393775940e-02
-7.981615513563156128e-02
-3.656459972262382507e-02
3.454190120100975037e-02
-2.543606050312519073e-02
-8.171141147613525391e-02
5.192688852548599243e-02
1.660745032131671906e-02
7.271528989076614380e-02
7.344388216733932495e-02
-3.785875812172889709e-02
-6.770294904708862305e-02
3.551534190773963928e-02
-6.041259318590164185e-02
3.629102185368537903e-02
6.423999369144439697e-02
-8.536812663078308105e-02
-7.149170339107513428e-02
-2.208235673606395721e-02
-2.022209344431757927e-03
-7.072169333696365356e-02
-5.192516371607780457e-02
-1.675753109157085419e-02
-5.568359419703483582e-02
1.535546220839023590e-02
4.840968921780586243e-02
3.112137690186500549e-02
4.761570692062377930e-02
1.332563348114490509e-02
-1.117200497537851334e-02
1.476944517344236374e-02
6.135950982570648193e-02
3.038891591131687164e-02
8.811896294355392456e-02
7.795506715774536133e-02
-2.614280395209789276e-02
-4.695116356015205383e-02
8.112239092588424683e-02
7.266249507665634155e-02
-8.591417968273162842e-02
7.084424793720245361e-02
6.179802492260932922e-02
1.989010348916053772e-02
-4.367469251155853271e-02
-2.787741646170616150e-02
2.667761873453855515e-03
-8.115614764392375946e-03
-6.265044212341308594e-02
-5.764653161168098450e-02
-2.288276888430118561e-02
8.538499474525451660e-02
-2.783943898975849152e-02
-4.489092156291007996e-02
6.256690621376037598e-02
5.965883657336235046e-02
2.940788492560386658e-02
-1.208774093538522720e-02
1.161328051239252090e-02
-2.562227472662925720e-02
-6.924153119325637817e-02
2.508676610887050629e-02
4.913598299026489258e-02
-5.708369612693786621e-02
1.646748930215835571e-02
5.200007930397987366e-02
-8.325640112161636353e-02
8.221612870693206787e-02
5.377978086471557617e-02
8.077224344015121460e-02
4.955996200442314148e-02
3.494956344366073608e-02
-3.969741985201835632e-02
4.837744310498237610e-02
2.890104986727237701e-02
4.871918633580207825e-02
7.273218035697937012e-02
-5.262591689825057983e-02
7.792761921882629395e-02
4.748713225126266479e-02
4.617609456181526184e-02
6.484065670520067215e-03
4.630472138524055481e-02
1.524014305323362350e-02
1.297914702445268631e-02
3.538672626018524170e-02
-4.009771719574928284e-02
8.098503202199935913e-02
-6.735038757324218750e-02
7.276052981615066528e-02
6.698174029588699341e-02
-5.034590885043144226e-02
4.954100400209426880e-02
-4.385789483785629272e-02
8.334211260080337524e-02
-4.872587323188781738e-02
4.593006893992424011e-02
-5.508470535278320312e-02
-6.872158497571945190e-02
8.765590190887451172e-02
-4.155499488115310669e-02
8.506173640489578247e-02
-8.258934132754802704e-03
2.338161319494247437e-02
1.285923924297094345e-02
3.544952347874641418e-02
2.595465257763862610e-02
-2.623882144689559937e-02
-8.345884829759597778e-02
-2.648131921887397766e-03
8.518164977431297302e-03
-7.195807248353958130e-02
-1.163523364812135696e-02
7.352601736783981323e-02
1.044278405606746674e-02
6.698077172040939331e-02
5.218883976340293884e-02
-2.092083729803562164e-02
3.488727146759629250e-03
-1.346505898982286453e-02
-2.901063859462738037e-02
-1.045184396207332611e-02
-8.106664568185806274e-02
6.783372908830642700e-02
3.838045522570610046e-02
-7.940611988306045532e-02
-3.869980573654174805e-02
3.433749079704284668e-02
6.786826532334089279e-03
-6.187490373849868774e-02
8.632425218820571899e-02
-7.047252357006072998e-02
7.693708688020706177e-02
-8.373957127332687378e-02
-7.720753550529479980e-02
2.220069244503974915e-02
-4.474145174026489258e-02
-6.973513215780258179e-02
7.389450818300247192e-02
-1.344564650207757950e-02
1.151449047029018402e-02
3.928229957818984985e-02
1.626014825887978077e-03
-5.790659412741661072e-02
-1.702157221734523773e-02
-2.566322311758995056e-02
2.094440907239913940e-02
-5.525688827037811279e-02
-8.408243209123611450e-02
-4.439935553818941116e-03
-7.915759831666946411e-02
3.015548735857009888e-02
8.058778941631317139e-03
-5.613784492015838623e-02
-1.210469566285610199e-02
5.948055163025856018e-02
-3.072251938283443451e-02
1.548061426728963852e-02
8.041734248399734497e-02
-5.926631018519401550e-02
-1.493279938586056232e-03
2.893664687871932983e-02
7.999815791845321655e-02
7.760299742221832275e-02
-1.702620461583137512e-02
-2.496396191418170929e-02
-4.944276064634323120e-02
-3.140327334403991699e-02
8.008529245853424072e-02
-2.470140717923641205e-02
-7.423218339681625366e-02
-1.903741806745529175e-02
7.009098678827285767e-02
-3.474329411983489990e-02
-2.547109033912420273e-03
-1.057437155395746231e-02
1.586534827947616577e-02
-4.735202342271804810e-02
-4.389059171080589294e-02
-6.176504492759704590e-02
3.974363580346107483e-02
-1.037466526031494141e-02
2.130803279578685760e-02
-1.637136377394199371e-02
4.464423283934593201e-02
-2.531869336962699890e-02
-5.840688198804855347e-02
1.323677320033311844e-02
-8.454371243715286255e-02
3.799224272370338440e-02
-5.203903466463088989e-02
5.608519911766052246e-02
-7.025346159934997559e-02
1.274738833308219910e-02
1.147496805060654879e-04
2.205613441765308380e-02
1.819332130253314972e-02
1.630359888076782227e-02
-4.214555397629737854e-02
-5.516799539327621460e-02
-2.590686455368995667e-02
5.134332180023193359e-02
6.743415445089340210e-02
-6.666722893714904785e-02
1.398989558219909668e-02
-8.000198286026716232e-04
-2.982612140476703644e-02
2.331214770674705505e-02
-5.988800525665283203e-02
-3.792846202850341797e-02
5.267244577407836914e-02
-6.876175850629806519e-02
-8.262654393911361694e-02
-6.761189550161361694e-02
5.192975979298353195e-03
-4.300530999898910522e-02
-4.711587354540824890e-02
6.980066001415252686e-02
1.227687485516071320e-02
-2.614964358508586884e-02
3.231458598747849464e-03
8.121606707572937012e-02
2.022967487573623657e-02
-1.523113064467906952e-02
6.547777354717254639e-02
4.591653496026992798e-02
-4.696467891335487366e-02
8.152146823704242706e-03
4.524035751819610596e-02
-6.341839581727981567e-02
4.435138776898384094e-02
-5.790961161255836487e-02
-4.852636158466339111e-02
6.490533798933029175e-02
-1.083091460168361664e-02
2.910126931965351105e-02
-3.467788547277450562e-02
8.707479387521743774e-02
-1.282923948019742966e-02
8.678954839706420898e-02
-4.305523261427879333e-02
3.223027661442756653e-02
6.987122446298599243e-02
-8.785545825958251953e-02
2.227753773331642151e-02
-7.329977303743362427e-02
-6.933920830488204956e-02
7.398827373981475830e-02
7.672539353370666504e-02
-2.893825247883796692e-02
-3.620622307062149048e-02
1.394463237375020981e-02
-4.290879145264625549e-02
-2.133046276867389679e-02
-8.542934060096740723e-02
-8.615501224994659424e-02
2.437310852110385895e-02
-7.718420028686523438e-02
4.547092691063880920e-02
-6.734396517276763916e-02
3.952075541019439697e-02
5.868326872587203979e-03
6.958395242691040039e-03
5.954371020197868347e-02
-7.622053474187850952e-02
-8.608639985322952271e-02
3.506065160036087036e-02
-6.280518323183059692e-02
-8.458579331636428833e-02
-2.388996258378028870e-02
6.404843926429748535e-02
-2.591826952993869781e-02
-1.849758997559547424e-02
8.212780207395553589e-02
-5.654524080455303192e-03
3.865896165370941162e-02
-3.119495511054992676e-02
-5.053760949522256851e-03
6.113171111792325974e-03
2.896592766046524048e-02
-5.190651491284370422e-02
8.548662997782230377e-03
6.425348669290542603e-02
-3.305144980549812317e-02
-2.401085011661052704e-02
9.215000085532665253e-03
8.045608550310134888e-02
-2.090857736766338348e-02
1.165939774364233017e-02
-3.365528583526611328e-02
3.241324052214622498e-02
4.996459186077117920e-02
-2.952534891664981842e-02
-4.691601544618606567e-02
-8.159648627042770386e-02
4.766635224223136902e-02
1.636317372322082520e-02
3.445136174559593201e-02
7.287196069955825806e-02
-2.102077007293701172e-02
8.348625153303146362e-02
-5.611125845462083817e-03
7.386679202318191528e-02
5.426491796970367432e-02
-3.422597423195838928e-02
-4.242422804236412048e-02
-5.845812708139419556e-02
5.154919624328613281e-02
-7.430851459503173828e-02
-4.532326757907867432e-02
-1.583706401288509369e-02
8.463613688945770264e-02
-8.474933356046676636e-02
2.273534983396530151e-02
3.578759357333183289e-02
-4.085272550582885742e-03
6.844501942396163940e-02
1.479656528681516647e-02
5.983090028166770935e-02
-6.254506297409534454e-03
4.322889074683189392e-02
-3.709631040692329407e-02
-5.215391889214515686e-02
3.528477996587753296e-02
-1.208895118907094002e-03
3.907040227204561234e-03
5.756334587931632996e-02
-8.592004328966140747e-02
5.698431655764579773e-02
-3.142918273806571960e-02
-3.181848302483558655e-02
8.661456406116485596e-02
2.517268620431423187e-02
2.775466069579124451e-02
-6.589352339506149292e-02
-2.770443633198738098e-02
-6.511275470256805420e-02
4.662182182073593140e-02
2.924259379506111145e-02
3.506630286574363708e-02
7.658787816762924194e-02
-6.963247060775756836e-02
-8.438105136156082153e-02
6.906168907880783081e-02
4.221768304705619812e-02
-8.206721395254135132e-02
4.071060102432966232e-04
1.842349208891391754e-02
2.862867899239063263e-02
-8.817930519580841064e-02
8.593291789293289185e-02
-2.310642972588539124e-02
8.085781335830688477e-02
4.386065155267715454e-02
5.290639027953147888e-02
-8.659341931343078613e-02
-3.967053815722465515e-02
-6.338628381490707397e-02
3.710856661200523376e-02
-4.837014898657798767e-02
-2.242803014814853668e-02
-5.807542800903320312e-02
8.524665236473083496e-02
-8.337364345788955688e-02
-7.533064484596252441e-02
6.972277909517288208e-02
-2.191019803285598755e-02
6.752698868513107300e-02
5.919466912746429443e-02
-4.455452319234609604e-03
3.822812065482139587e-02
7.475580275058746338e-02
-5.615787953138351440e-02
-5.903491377830505371e-02
2.197141759097576141e-03
3.932799771428108215e-02
8.400396257638931274e-02
-5.260663107037544250e-02
5.608736537396907806e-03
8.510618656873703003e-02
4.738066717982292175e-02
-2.263131365180015564e-02
-1.092191785573959351e-02
9.924557060003280640e-03
-4.306036606431007385e-02
-3.113251179456710815e-02
3.526996122673153877e-03
-2.538798749446868896e-02
2.172647416591644287e-02
-3.461765497922897339e-02
8.032357692718505859e-02
3.053788468241691589e-02
-8.576398342847824097e-02
8.028246462345123291e-02
-2.066384442150592804e-02
-7.755745202302932739e-02
6.358383595943450928e-02
1.297053298912942410e-03
8.113380521535873413e-02
2.324569970369338989e-02
6.058365106582641602e-02
-1.520720776170492172e-02
1.444258727133274078e-02
1.690077222883701324e-02
4.511109739542007446e-02
2.241299115121364594e-02
-6.957650184631347656e-02
-4.369090124964714050e-02
-1.155388820916414261e-02
1.825485378503799438e-03
-8.270562626421451569e-03
4.446047917008399963e-02
9.412704035639762878e-03
-1.286636665463447571e-02
3.692520782351493835e-02
-6.974179297685623169e-02
5.498927459120750427e-02
-7.947504520416259766e-02
-6.276998668909072876e-02
-8.334838598966598511e-02
-7.762566208839416504e-02
1.320791430771350861e-02
-4.064825177192687988e-02
-2.548006363213062286e-02
4.671104252338409424e-02
3.818488121032714844e-02
1.108904927968978882e-02
-1.775145716965198517e-02
-1.704724505543708801e-03
-4.566160589456558228e-02
-8.380880951881408691e-02
3.827599284704774618e-04
-8.233807235956192017e-02
5.811200663447380066e-02
2.700251527130603790e-02
-3.730281069874763489e-02
4.199431836605072021e-02
7.898035645484924316e-02
-1.508668530732393265e-02
6.328856945037841797e-02
9.452841244637966156e-03
-7.479082047939300537e-02
8.113879710435867310e-02
-3.906184434890747070e-02
-1.374146668240427971e-03
1.013975217938423157e-02
-6.271468102931976318e-02
6.039785593748092651e-02
-4.638943821191787720e-02
-4.896170645952224731e-02
