2.949001733213663101e-03
6.657806079601868987e-05
1.303298980928957462e-03
2.159486757591366768e-03
4.211092367768287659e-03
3.011320717632770538e-03
4.336415790021419525e-03
-1.020494601107202470e-04
-5.066326353698968887e-03
2.718688454478979111e-03
8.697017910890281200e-04
-1.340203220024704933e-03
1.575083006173372269e-03
5.275478586554527283e-03
-8.092166855931282043e-03
4.392669536173343658e-03
-3.697424894198775291e-03
-2.997769741341471672e-03
1.923232688568532467e-03
1.715271850116550922e-03
1.895536901429295540e-03
-1.483249710872769356e-03
2.245438983663916588e-03
4.093157593160867691e-03
2.208834048360586166e-03
4.654246440622955561e-04
5.304059479385614395e-03
2.016199141507968307e-04
-2.757597714662551880e-03
5.801688414067029953e-03
2.612025244161486626e-03
-4.763819451909512281e-04
-5.193552933633327484e-03
3.048495389521121979e-03
-3.620233852416276932e-03
-1.013577217236161232e-03
4.217986017465591431e-03
9.438915294595062733e-04
4.555820487439632416e-03
3.178689861670136452e-03
1.685977913439273834e-03
-3.221069462597370148e-03
1.671271282248198986e-03
-1.302019460126757622e-03
-2.377198543399572372e-03
-1.571117201820015907e-03
-1.027700491249561310e-04
3.068333957344293594e-03
1.223763450980186462e-03
6.420640274882316589e-03
5.090167280286550522e-03
8.235338144004344940e-03
2.798856934532523155e-03
7.955518085509538651e-04
1.167430076748132706e-03
2.474006498232483864e-03
2.312299096956849098e-03
2.515664789825677872e-03
9.109695442020893097e-03
4.422219470143318176e-03
-3.017258131876587868e-03
1.194387907162308693e-03
-2.468572231009602547e-03
1.388849777868017554e-04
-3.565172199159860611e-03
7.617162074893712997e-03
-1.305673969909548759e-03
4.564508330076932907e-03
-5.397628410719335079e-04
-1.634475658647716045e-03
-1.413033896824344993e-04
-2.113767201080918312e-03
-6.984946085140109062e-04
2.030011033639311790e-03
4.461118020117282867e-03
6.792328204028308392e-04
-4.368436522781848907e-03
2.732491120696067810e-03
-3.726240713149309158e-03
1.625710166990756989e-03
-4.292890429496765137e-03
2.465758472681045532e-03
-3.195665776729583740e-03
-1.364266849122941494e-03
6.708319997414946556e-04
6.274480372667312622e-03
5.316138733178377151e-03
9.769449243322014809e-04
3.421820001676678658e-04
1.625831588171422482e-03
3.416272345930337906e-03
-8.748992695473134518e-04
-9.890611981973052025e-04
9.724111878313124180e-04
3.771245246753096581e-03
5.874731112271547318e-03
-2.199394395574927330e-03
-4.779877606779336929e-03
-3.711319062858819962e-03
-5.559147335588932037e-03
-2.767540980130434036e-03
1.500897458754479885e-03
2.037278143689036369e-03
4.999933298677206039e-03
2.375817624852061272e-03
4.580811131745576859e-03
3.976203035563230515e-03
3.141604829579591751e-03
1.764668500982224941e-03
-3.619512426666915417e-04
5.469371099025011063e-03
8.098210208117961884e-03
2.938217250630259514e-03
-1.006209058687090874e-03
4.429644439369440079e-03
2.002013847231864929e-03
-2.763649914413690567e-03
-3.483541309833526611e-03
3.907364327460527420e-03
2.029865747317671776e-03
2.340618288144469261e-03
-1.308724633418023586e-03
-1.375429099425673485e-03
7.113455794751644135e-04
2.276745624840259552e-03
7.758932188153266907e-04
5.677990615367889404e-03
-1.382227521389722824e-03
