-9.889074414968490601e-02
1.368338707834482193e-02
5.774655565619468689e-02
-6.827060133218765259e-02
-1.664914190769195557e-02
3.967711701989173889e-02
-8.456533402204513550e-02
-8.511359244585037231e-02
-5.760263279080390930e-02
-4.282307997345924377e-02
-9.067834913730621338e-02
-9.050340950489044189e-02
-9.109032899141311646e-02
-7.003008574247360229e-02
6.458094716072082520e-02
1.261617895215749741e-02
5.694683641195297241e-02
8.618047833442687988e-02
-1.630343496799468994e-02
-4.317782353609800339e-03
-1.608888432383537292e-02
5.421680957078933716e-02
-7.422407157719135284e-03
1.100341081619262695e-01
-3.571977466344833374e-02
8.862289786338806152e-02
-9.985418617725372314e-02
7.420893013477325439e-02
-3.609204664826393127e-02
-8.905685693025588989e-02
7.394059747457504272e-02
-7.979921251535415649e-02
3.863031044602394104e-02
-9.801508486270904541e-02
-1.168346032500267029e-01
2.699834853410720825e-02
5.843989551067352295e-03
4.915314912796020508e-02
-4.498579725623130798e-02
3.618623316287994385e-02
5.467232689261436462e-02
-6.633840501308441162e-02
-9.875722974538803101e-02
-9.772893041372299194e-02
-8.205033093690872192e-02
-9.222486615180969238e-02
-7.762528210878372192e-02
4.834473133087158203e-03
-6.468620896339416504e-02
-4.078592732548713684e-02
-7.777636498212814331e-02
1.135724261403083801e-01
-1.159439533948898315e-01
-6.101738661527633667e-02
-1.411234214901924133e-02
-6.889022886753082275e-02
-3.265884146094322205e-02
-1.081316471099853516e-01
1.396228326484560966e-03
5.047827959060668945e-02
5.457967892289161682e-02
5.747394170612096786e-03
9.807913005352020264e-02
1.454122550785541534e-02
1.697556348517537117e-03
2.902163192629814148e-02
5.540870875120162964e-02
-5.874466150999069214e-02
1.268116058781743050e-03
9.606621414422988892e-02
4.847608506679534912e-02
-1.019898578524589539e-01
-1.581086404621601105e-02
4.736496601253747940e-03
4.869540780782699585e-02
-4.079032223671674728e-03
6.385569274425506592e-02
1.121323630213737488e-01
-9.612345695495605469e-02
-2.247757045552134514e-03
-1.080321520566940308e-01
5.881730839610099792e-02
3.079590387642383575e-02
-1.100318692624568939e-02
-7.472310215234756470e-02
1.058728694915771484e-01
1.279862131923437119e-02
1.154451891779899597e-01
-4.164175316691398621e-02
-3.233582526445388794e-02
4.772680811583995819e-03
1.219019591808319092e-01
-5.521512776613235474e-02
-1.059625074267387390e-01
-1.082264631986618042e-01
6.323508173227310181e-02
-2.707248367369174957e-02
-7.884161919355392456e-02
-7.773675024509429932e-02
-9.521993249654769897e-02
1.109176799654960632e-01
7.858116924762725830e-02
9.712190926074981689e-02
3.331749886274337769e-02
1.099228579550981522e-02
9.940775483846664429e-02
2.490769699215888977e-02
1.063420102000236511e-01
-8.105204254388809204e-02
-9.593256562948226929e-02
-1.178055703639984131e-01
-5.337552353739738464e-02
6.573950499296188354e-02
9.847959131002426147e-02
-6.924848258495330811e-02
-1.231576409190893173e-02
-1.176612749695777893e-01
-1.139355078339576721e-01
-1.836287905462086201e-03
-7.397293299436569214e-02
2.192492969334125519e-02
6.231722235679626465e-02
3.243501856923103333e-02
1.178648509085178375e-02
-5.956148743280209601e-05
-3.600828722119331360e-02
-8.324378728866577148e-02
-1.326354872435331345e-02
