5.959947407245635986e-02
7.438236474990844727e-02
-1.602434366941452026e-02
-3.544550761580467224e-02
-3.872765600681304932e-02
-1.348408125340938568e-02
4.241029173135757446e-02
1.949953148141503334e-03
-1.427588611841201782e-02
-6.308059394359588623e-02
4.714148119091987610e-02
-1.548824273049831390e-02
-4.690381698310375214e-03
2.669306471943855286e-02
-7.162371277809143066e-02
8.608764410018920898e-02
9.016691707074642181e-03
4.302771389484405518e-02
4.388565942645072937e-02
4.209908843040466309e-02
-7.978136092424392700e-02
6.303491443395614624e-02
-3.545315936207771301e-02
-5.324140563607215881e-02
-2.491809055209159851e-02
-3.471373766660690308e-02
-6.985430419445037842e-02
2.261645719408988953e-02
5.188798159360885620e-02
5.899454653263092041e-02
5.702289566397666931e-02
8.729866147041320801e-02
-7.437770813703536987e-02
-1.026794221252202988e-02
-7.852418720722198486e-02
7.544149458408355713e-02
8.027833700180053711e-02
2.194429002702236176e-02
8.301620185375213623e-02
-6.383053213357925415e-02
-3.456989303231239319e-02
-8.246010541915893555e-02
-1.223951927386224270e-03
1.712694577872753143e-02
1.807093620300292969e-02
4.599694162607192993e-02
5.647217854857444763e-02
-6.070389971137046814e-02
5.539432540535926819e-02
-4.976600781083106995e-02
6.432947516441345215e-02
4.631352610886096954e-03
-7.090760022401809692e-02
-8.301836252212524414e-02
6.343730539083480835e-02
2.522208541631698608e-02
5.910440161824226379e-02
-1.351355481892824173e-02
4.357406497001647949e-02
-3.078621998429298401e-02
5.600840598344802856e-02
-3.018117882311344147e-02
8.788358420133590698e-02
8.506133407354354858e-02
4.401804134249687195e-02
-7.756529748439788818e-02
-2.211915329098701477e-02
-3.436247259378433228e-02
-5.562471970915794373e-02
1.171664614230394363e-02
-6.803445518016815186e-02
3.982791677117347717e-02
2.833351306617259979e-02
3.907422348856925964e-02
-5.253854393959045410e-02
-4.809065908193588257e-02
8.401248604059219360e-03
-1.705186004983261228e-04
-7.223301380872726440e-02
3.709816932678222656e-02
-5.439158529043197632e-02
-7.485143095254898071e-02
5.235229060053825378e-02
1.817269623279571533e-02
-5.571831949055194855e-03
-2.876963093876838684e-02
6.016916781663894653e-02
5.169699713587760925e-02
-7.140994071960449219e-02
-6.345490366220474243e-02
3.556358441710472107e-02
3.469903022050857544e-02
-2.255421690642833710e-02
-3.765574470162391663e-02
1.338967587798833847e-02
-4.554695449769496918e-03
5.642285197973251343e-02
1.992508582770824432e-02
-1.389969792217016220e-02
-1.471581216901540756e-02
-1.627933979034423828e-02
1.760360039770603180e-02
-8.174641430377960205e-02
4.824625328183174133e-02
7.106395810842514038e-02
7.345634698867797852e-02
8.092783391475677490e-02
4.117763601243495941e-03
-7.765688002109527588e-02
3.879098966717720032e-02
-2.703832834959030151e-02
6.775740534067153931e-02
-6.947068870067596436e-02
-6.988207250833511353e-02
5.668413266539573669e-02
-2.642835304141044617e-02
7.197742909193038940e-02
5.470025911927223206e-02
4.947227612137794495e-02
-1.801162585616111755e-02
-2.019132114946842194e-02
-2.150469459593296051e-02
-8.731283247470855713e-02
-2.115063183009624481e-02
6.080363318324089050e-02
-2.972978912293910980e-02
2.657250873744487762e-02
-3.598259389400482178e-02
-4.883889853954315186e-02
1.900322921574115753e-02
2.058535441756248474e-02
4.374677687883377075e-02
4.752560704946517944e-02
-1.117635052651166916e-02
-4.585589095950126648e-02
3.667842224240303040e-02
6.368827074766159058e-02
8.251833915710449219e-02
5.015815049409866333e-02
-2.134240232408046722e-03
1.407618168741464615e-02
-2.031997963786125183e-02
2.916677296161651611e-02
-7.459110766649246216e-02
-2.194241806864738464e-02
-5.722269043326377869e-02
-4.675251245498657227e-02
4.965053126215934753e-02
-7.111864537000656128e-02
5.135232955217361450e-02
2.914758957922458649e-02
-8.611048758029937744e-02
-5.512701719999313354e-02
-5.251230672001838684e-02
1.576439850032329559e-02
4.343546554446220398e-02
-7.308988273143768311e-02
4.560229182243347168e-02
8.580330759286880493e-02
7.078172266483306885e-02
7.578878104686737061e-02
-5.711736157536506653e-02
-1.105904951691627502e-02
3.471140516921877861e-03
-3.897882997989654541e-03
-6.796413660049438477e-02
8.333244174718856812e-02
-5.665733665227890015e-02
-5.067495629191398621e-02
8.063049055635929108e-03
5.704346299171447754e-02
6.475673615932464600e-02
-4.656542837619781494e-02
-3.269799426198005676e-02
2.546069212257862091e-02
-2.373091690242290497e-02
-1.101513393223285675e-02
2.431184984743595123e-02
-3.649943321943283081e-02
6.495345383882522583e-02
4.480122402310371399e-02
5.321098119020462036e-02
-4.534316807985305786e-02
6.742615252733230591e-02
6.987570226192474365e-02
-8.130772970616817474e-03
-3.313996270298957825e-02
8.264069259166717529e-02
-4.129702597856521606e-02
-4.335598275065422058e-02
2.747695147991180420e-02
6.500806659460067749e-02
4.243210330605506897e-02
-5.162213370203971863e-02
1.260565686970949173e-02
-8.306083828210830688e-02
6.631716154515743256e-03
-3.254328668117523193e-02
-8.383883535861968994e-02
-4.100641980767250061e-02
-4.585810936987400055e-03
-3.466908633708953857e-02
-3.503358736634254456e-02
5.025541782379150391e-02
5.457011237740516663e-02
6.457570195198059082e-02
-3.205873072147369385e-02
3.139619901776313782e-02
6.833792477846145630e-02
1.556647568941116333e-02
3.101071342825889587e-02
7.396490871906280518e-02
-2.482055872678756714e-02
3.824532777070999146e-02
4.208681732416152954e-02
-1.524395495653152466e-02
1.542211044579744339e-02
-5.057131871581077576e-02
-2.061392739415168762e-02
4.306413233280181885e-02
-3.923487663269042969e-02
-7.586909830570220947e-02
7.430516183376312256e-02
-5.245764553546905518e-02
-8.770071715116500854e-02
6.329611688852310181e-02
-5.645203217864036560e-02
2.316349558532238007e-02
-2.764312922954559326e-02
4.814354702830314636e-02
7.564633339643478394e-02
2.000238001346588135e-02
4.320561885833740234e-02
-5.577047914266586304e-02
-8.720081299543380737e-03
-7.441394031047821045e-02
-4.914078861474990845e-02
5.773476138710975647e-02
1.574512757360935211e-02
-3.071215935051441193e-02
-5.102089419960975647e-02
4.357438907027244568e-02
3.740043938159942627e-02
2.175575681030750275e-02
-1.840485073626041412e-02
8.399501442909240723e-02
-7.923199981451034546e-02
4.122989997267723083e-02
6.566715985536575317e-02
-4.424249008297920227e-02
6.349259614944458008e-02
-3.481782227754592896e-02
1.248755585402250290e-02
-3.361911699175834656e-02
-2.393039874732494354e-03
8.350797742605209351e-02
6.748735159635543823e-02
-7.847492396831512451e-02
3.795671463012695312e-02
8.208879828453063965e-02
7.634705305099487305e-02
3.055707551538944244e-02
-1.963196508586406708e-02
8.225806802511215210e-02
6.323836743831634521e-02
-1.976752281188964844e-02
6.436663866043090820e-02
-3.442519111558794975e-03
-5.528351292014122009e-02
6.473195552825927734e-02
-8.417168259620666504e-02
3.558720648288726807e-02
-4.191988334059715271e-02
6.987959891557693481e-02
-3.665718808770179749e-02
-8.055683970451354980e-02
-3.011866845190525055e-02
2.644420973956584930e-02
-5.416946858167648315e-02
-4.983729869127273560e-02
-2.877389639616012573e-02
-3.531164303421974182e-02
-6.611068546772003174e-02
9.695390239357948303e-03
5.297443270683288574e-02
-3.901246190071105957e-02
3.988775983452796936e-02
3.597822785377502441e-02
5.255998298525810242e-02
5.904193222522735596e-02
-6.104615703225135803e-02
5.478388816118240356e-02
-3.439778089523315430e-02
-3.082104958593845367e-03
-3.023416176438331604e-02
-4.496410861611366272e-02
5.290405079722404480e-02
-2.170651033520698547e-02
2.512433566153049469e-02
-7.603751868009567261e-02
-2.954624220728874207e-02
-7.693409919738769531e-02
2.948976680636405945e-02
5.077023431658744812e-02
-7.822071760892868042e-02
-4.489471018314361572e-02
-5.952908843755722046e-02
5.952178686857223511e-02
-7.184073328971862793e-03
-6.817509979009628296e-02
7.966716587543487549e-02
-1.005218480713665485e-03
-1.991684362292289734e-02
-3.667716681957244873e-02
2.570246718823909760e-02
6.064745038747787476e-02
7.811125367879867554e-02
3.428193554282188416e-02
7.975708693265914917e-02
8.650837093591690063e-02
9.028817526996135712e-03
6.634544581174850464e-02
3.915036842226982117e-02
-7.318903505802154541e-02
4.914490506052970886e-02
8.000349998474121094e-02
-1.054325513541698456e-02
-2.849324606359004974e-02
-4.662751406431198120e-02
7.019282132387161255e-02
-5.502946209162473679e-03
-8.286941796541213989e-02
6.394169479608535767e-02
-5.184736847877502441e-02
-7.537315785884857178e-02
-5.192343145608901978e-02
2.921901457011699677e-02
-4.471813887357711792e-02
4.324897378683090210e-02
3.354981914162635803e-02
-5.835239216685295105e-02
2.767579630017280579e-02
3.966898471117019653e-02
-6.990041583776473999e-02
-5.652731657028198242e-02
-7.860719412565231323e-02
-1.591482385993003845e-02
-3.932208567857742310e-02
-6.725642830133438110e-02
5.135130509734153748e-02
5.784334242343902588e-02
-5.295491777360439301e-03
-8.818250149488449097e-02
-5.925908684730529785e-02
-4.829008132219314575e-02
-7.687790691852569580e-02
-4.830403625965118408e-02
-6.518429517745971680e-02
7.077823579311370850e-02
4.611924663186073303e-02
-4.341116175055503845e-02
3.236269950866699219e-02
-4.431585222482681274e-02
-3.198456019163131714e-02
7.239510864019393921e-02
-5.645465478301048279e-02
-2.978306822478771210e-02
-4.003138467669487000e-02
-6.537004560232162476e-02
8.712776750326156616e-02
3.507911786437034607e-02
-5.668563395738601685e-02
-5.351617187261581421e-02
-2.635548636317253113e-02
4.074239730834960938e-02
-2.623102255165576935e-02
3.992626070976257324e-02
-3.796641901135444641e-02
-8.280041068792343140e-02
-2.308998256921768188e-02
-5.772278457880020142e-02
7.558803260326385498e-02
-5.924781039357185364e-02
1.102299988269805908e-02
1.444751303642988205e-02
1.467429380863904953e-02
-8.293733932077884674e-03
7.813565433025360107e-02
-6.873061507940292358e-02
2.397220022976398468e-02
4.797708988189697266e-02
1.673849672079086304e-02
-3.935980796813964844e-02
1.241458114236593246e-02
-5.410956218838691711e-02
-7.338562607765197754e-02
-2.020856551826000214e-02
-4.274505004286766052e-02
1.700613275170326233e-02
-8.492835797369480133e-03
-8.238256908953189850e-03
1.165698934346437454e-02
-6.341860443353652954e-02
-8.591182529926300049e-02
-6.022668909281492233e-03
2.964616566896438599e-02
-6.877527385950088501e-02
5.528034642338752747e-02
3.254152461886405945e-02
3.257810324430465698e-02
-3.285322338342666626e-03
6.445825099945068359e-02
-3.620533645153045654e-02
6.560067087411880493e-02
3.199171647429466248e-02
-2.232351899147033691e-02
-3.988376632332801819e-02
-4.284082725644111633e-02
2.440307103097438812e-02
4.445857182145118713e-02
-2.469676313921809196e-03
1.973330788314342499e-02
3.087033890187740326e-02
-7.089993357658386230e-02
5.299614369869232178e-02
-3.550362586975097656e-02
-5.004332959651947021e-02
5.262771621346473694e-02
-7.052664458751678467e-02
-8.222325891256332397e-02
-5.112093314528465271e-02
5.282703414559364319e-02
-7.011376321315765381e-02
-4.392015188932418823e-02
5.203490704298019409e-02
1.647770963609218597e-02
3.049779916182160378e-03
-1.174238231033086777e-02
-3.476722538471221924e-02
-4.632170498371124268e-02
4.716389812529087067e-03
-7.382231950759887695e-02
1.645171642303466797e-02
-5.532674863934516907e-02
-2.149269916117191315e-02
1.828703284263610840e-02
1.222743093967437744e-02
-3.544408455491065979e-02
-1.788036525249481201e-02
8.532484620809555054e-02
-2.924072183668613434e-02
-3.118399903178215027e-02
-3.478844882920384407e-04
6.439075618982315063e-02
-5.784866213798522949e-02
1.113099697977304459e-02
8.638293296098709106e-02
-5.588071048259735107e-02
4.895092919468879700e-02
8.248063921928405762e-02
7.239527069032192230e-03
3.051578812301158905e-02
-1.949006691575050354e-03
-5.157893523573875427e-02
1.085148006677627563e-02
6.605225056409835815e-02
-2.923270687460899353e-02
8.245679736137390137e-02
-2.229268290102481842e-02
-8.779799938201904297e-02
-5.386503040790557861e-02
-2.515791729092597961e-02
-7.471096515655517578e-02
4.162809252738952637e-02
-4.640834778547286987e-02
5.393165722489356995e-02
-1.547147240489721298e-02
-5.771354213356971741e-02
-5.973393097519874573e-02
6.377963721752166748e-02
-1.004398241639137268e-02
8.254186064004898071e-02
-4.377361759543418884e-02
-3.704561665654182434e-02
-6.631751358509063721e-02
1.903395913541316986e-02
-1.761919818818569183e-03
-5.751992017030715942e-02
9.160880930721759796e-03
7.051022350788116455e-02
5.324664711952209473e-02
-7.246989756822586060e-02
1.058037392795085907e-02
6.045918911695480347e-02
-8.288598805665969849e-02
-3.750578686594963074e-02
3.814138472080230713e-02
-4.806993156671524048e-02
-5.856735166162252426e-03
2.881804667413234711e-02
-4.567659646272659302e-02
2.987577393651008606e-02
1.271724235266447067e-02
-7.075012475252151489e-02
4.133383929729461670e-02
1.396073121577501297e-02
-3.064432181417942047e-02
-2.419894188642501831e-02
3.277004510164260864e-02
8.639961481094360352e-02
-9.247049689292907715e-03
-4.344739019870758057e-03
8.769520372152328491e-02
-5.056333541870117188e-02
-4.422695934772491455e-02
-2.993210917338728905e-03
4.412139579653739929e-02
7.352054864168167114e-02
7.017252594232559204e-02
-1.550656091421842575e-02
2.838022448122501373e-02
-5.509111657738685608e-02
5.290558934211730957e-02
-7.428666949272155762e-02
-3.333251550793647766e-02
6.938515603542327881e-02
-6.236106902360916138e-02
4.211979359388351440e-02
7.879481464624404907e-02
3.318889811635017395e-02
1.688823662698268890e-02
-8.676055818796157837e-03
-3.133849799633026123e-02
-5.630868673324584961e-02
-8.042755722999572754e-02
7.531969249248504639e-02
3.964825347065925598e-02
4.257819056510925293e-02
-8.152611553668975830e-04
1.596237905323505402e-02
6.298648566007614136e-02
6.906003504991531372e-02
-2.718378324061632156e-03
1.505278982222080231e-02
2.744016610085964203e-02
7.511325925588607788e-02
-3.436734201386570930e-03
1.234441343694925308e-02
-4.179147630929946899e-02
-2.742020599544048309e-02
6.817696988582611084e-02
-5.620639026165008545e-02
-7.633693516254425049e-02
-5.545637756586074829e-02
6.581857055425643921e-02
-8.384421467781066895e-02
4.019641876220703125e-02
-8.717064559459686279e-02
-5.910518392920494080e-02
-8.082249201834201813e-03
-2.015052922070026398e-02
-2.285294979810714722e-02
6.434690952301025391e-02
-5.746721476316452026e-02
-7.650949060916900635e-02
5.726288259029388428e-02
-5.900475010275840759e-02
-1.708445139229297638e-02
5.194000899791717529e-02
-5.443143472075462341e-02
6.645146757364273071e-02
1.734444685280323029e-02
8.020761609077453613e-02
-4.353023599833250046e-03
3.746349737048149109e-02
-5.713297426700592041e-02
-1.093685068190097809e-02
7.990621030330657959e-02
7.018104940652847290e-02
4.629573971033096313e-02
-5.991596728563308716e-02
2.557126991450786591e-02
-6.884499639272689819e-02
4.261797666549682617e-02
1.909333840012550354e-02
-7.128458004444837570e-03
5.893564596772193909e-02
-1.526027452200651169e-03
4.033485427498817444e-02
-2.373636700212955475e-02
-2.662178827449679375e-03
4.711621627211570740e-02
-2.000237442553043365e-02
-2.904028072953224182e-02
-5.102716758847236633e-02
-8.156962692737579346e-02
-4.978466778993606567e-02
-3.586360439658164978e-02
1.455988641828298569e-02
2.982424013316631317e-02
-1.414490398019552231e-02
-6.870147585868835449e-02
8.757929317653179169e-03
-3.607146441936492920e-02
-4.961600899696350098e-02
-8.587996475398540497e-03
6.913687568157911301e-03
8.335244655609130859e-02
-3.670999780297279358e-02
4.697156697511672974e-02
-5.285481363534927368e-02
1.775579340755939484e-02
3.430566191673278809e-02
-6.390253454446792603e-02
7.134612649679183960e-03
-8.537116646766662598e-02
-1.665173657238483429e-02
-1.263275090605020523e-02
5.360883846879005432e-02
2.168780658394098282e-03
-6.762194633483886719e-02
4.977387934923171997e-02
4.761021211743354797e-02
3.257650136947631836e-02
8.713010698556900024e-02
5.015711113810539246e-02
-3.024942241609096527e-03
-3.542353585362434387e-02
3.418263047933578491e-02
-4.483168944716453552e-02
-4.946944490075111389e-02
-3.942027315497398376e-02
-5.776974558830261230e-02
-6.441556662321090698e-02
-5.874977633357048035e-02
2.835396118462085724e-02
-4.779038578271865845e-02
-8.714558929204940796e-02
8.508700877428054810e-02
-6.752917915582656860e-02
-2.137557836249470711e-03
5.751344189047813416e-02
4.264218360185623169e-02
-4.355633631348609924e-02
3.034302964806556702e-02
-1.319885533303022385e-02
-7.911370694637298584e-02
3.715258836746215820e-02
8.741176873445510864e-02
-8.207295835018157959e-02
-8.521330356597900391e-02
1.919228956103324890e-02
1.484044361859560013e-02
-5.355544388294219971e-02
-7.561983168125152588e-02
-7.327377796173095703e-02
-1.366308610886335373e-02
8.078586310148239136e-02
-3.056914918124675751e-02
-5.380659177899360657e-02
5.549146234989166260e-02
4.234166815876960754e-02
-1.430042460560798645e-02
7.179422676563262939e-02
2.414739504456520081e-02
8.094423450529575348e-03
1.193036325275897980e-02
-6.454823166131973267e-02
-2.368403412401676178e-02
1.503054518252611160e-02
3.194728493690490723e-02
-5.182086676359176636e-02
2.952621132135391235e-02
6.671296060085296631e-02
-3.170037642121315002e-03
2.538693323731422424e-02
-5.869520083069801331e-02
-4.697018489241600037e-02
1.760379038751125336e-02
5.892163887619972229e-02
1.936279982328414917e-02
-6.569376587867736816e-02
4.890741035342216492e-02
7.991784065961837769e-02
3.707746416330337524e-02
1.414634287357330322e-02
-6.198058649897575378e-02
-9.985127486288547516e-03
4.558626562356948853e-03
-7.770620286464691162e-02
6.736651808023452759e-02
-1.285754051059484482e-02
2.743225730955600739e-02
-4.868971556425094604e-02
1.804762892425060272e-02
-7.895165681838989258e-02
1.608117111027240753e-02
1.308104488998651505e-02
-3.017757274210453033e-02
-2.262623235583305359e-02
-7.138934731483459473e-02
-8.784408867359161377e-02
-4.732923582196235657e-02
6.961216777563095093e-02
-8.336025290191173553e-03
2.697646990418434143e-02
4.602349549531936646e-02
8.456758409738540649e-02
-8.357405662536621094e-02
3.551291301846504211e-02
-3.288602456450462341e-02
-2.099890448153018951e-02
-6.332081742584705353e-03
-5.588710308074951172e-02
-6.123141571879386902e-02
5.623230710625648499e-03
4.983139783143997192e-02
-6.743077933788299561e-02
-2.888723276555538177e-02
-5.746432393789291382e-02
5.803078785538673401e-02
-5.300464853644371033e-02
8.085986226797103882e-02
-3.929786384105682373e-02
3.707207739353179932e-02
1.011952478438615799e-02
-7.632163166999816895e-02
2.555021643638610840e-02
4.005908221006393433e-02
2.088841609656810760e-02
-8.401229232549667358e-02
-8.670419454574584961e-02
-7.119169831275939941e-02
1.687113754451274872e-02
-5.713880807161331177e-02
-2.164245955646038055e-02
-6.501583266071975231e-04
-5.025548394769430161e-03
-8.108820766210556030e-02
6.627618521451950073e-02
-1.067826058715581894e-02
3.282510489225387573e-02
1.267813239246606827e-02
-4.326047375798225403e-02
-6.353466212749481201e-02
8.334931917488574982e-03
7.563604414463043213e-02
-1.926885801367461681e-03
-5.896822083741426468e-03
-3.958271071314811707e-02
-4.632950574159622192e-02
8.564160764217376709e-02
8.027342706918716431e-02
4.017081484198570251e-02
-7.399108260869979858e-02
8.004868775606155396e-02
7.957487553358078003e-02
-5.211880430579185486e-02
-2.868338488042354584e-03
-4.593784734606742859e-02
8.007863909006118774e-02
-3.311782702803611755e-02
4.108215868473052979e-02
1.389473327435553074e-03
2.159327082335948944e-02
5.860096216201782227e-02
8.703877031803131104e-02
-6.142823025584220886e-03
-7.530075311660766602e-02
5.918690189719200134e-02
-7.331962883472442627e-02
6.799779832363128662e-02
1.457180548459291458e-02
1.547697582282125950e-03
5.045235529541969299e-02
-3.272742033004760742e-02
-4.143062233924865723e-02
-7.216566056013107300e-02
4.163148999214172363e-02
8.226124569773674011e-03
6.577274296432733536e-03
-7.621605694293975830e-02
3.692923486232757568e-02
2.618945389986038208e-02
-4.313245415687561035e-02
7.148224860429763794e-02
6.735346396453678608e-04
6.275653839111328125e-02
4.214799776673316956e-02
-2.231661602854728699e-02
5.493518547154963017e-04
-8.068306744098663330e-02
3.066998347640037537e-02
4.575966298580169678e-02
-4.498227965086698532e-03
8.754714578390121460e-02
8.415795117616653442e-02
-1.218510698527097702e-02
3.750827163457870483e-02
8.087851852178573608e-02
3.645087778568267822e-02
8.703854680061340332e-02
-4.390809312462806702e-02
-5.365679506212472916e-03
5.948462337255477905e-02
1.610163412988185883e-02
2.730279695242643356e-03
-7.509136945009231567e-02
4.913945123553276062e-02
3.304955735802650452e-02
-1.962439157068729401e-02
2.320108376443386078e-02
3.466503694653511047e-02
-3.301627561450004578e-02
5.682322010397911072e-02
2.217796444892883301e-02
-1.484710071235895157e-02
-6.616695225238800049e-02
-3.690040856599807739e-02
-8.368968218564987183e-02
-7.803476601839065552e-02
-4.873714968562126160e-02
6.610608845949172974e-02
-6.718800961971282959e-02
5.427983403205871582e-02
9.513874538242816925e-03
-4.497697204351425171e-02
-2.073848992586135864e-02
-5.842975154519081116e-02
6.273940089158713818e-04
1.258237194269895554e-02
-7.684879004955291748e-02
3.116875514388084412e-02
-2.815076708793640137e-02
3.875447437167167664e-02
-7.229860872030258179e-02
-5.471640080213546753e-02
2.806767076253890991e-02
5.918278917670249939e-02
7.204625755548477173e-02
-1.109131798148155212e-02
-3.760373964905738831e-02
-7.097298651933670044e-02
1.962009631097316742e-02
-7.868627458810806274e-02
3.971487656235694885e-02
-5.753153562545776367e-02
2.546085231006145477e-02
8.685540407896041870e-02
4.154161736369132996e-02
-2.845352515578269958e-02
-6.580195389688014984e-03
-2.818779088556766510e-02
-8.133201301097869873e-02
6.429455429315567017e-02
2.558174356818199158e-02
-5.849533155560493469e-02
2.372545748949050903e-02
-8.712760359048843384e-02
-1.453263219445943832e-02
3.993115946650505066e-02
-7.297000288963317871e-02
3.718818351626396179e-02
-4.605337604880332947e-02
-5.547195672988891602e-02
4.254182428121566772e-02
2.510728500783443451e-02
3.878026083111763000e-02
5.111275240778923035e-02
7.582071423530578613e-02
8.546319603919982910e-02
5.712605640292167664e-02
3.152374178171157837e-02
5.127741023898124695e-02
7.829285413026809692e-02
3.075006790459156036e-02
-8.383189141750335693e-02
6.511495448648929596e-03
5.430760234594345093e-02
-4.222070798277854919e-02
1.318604126572608948e-02
3.172778710722923279e-02
3.510819282382726669e-03
-3.985359892249107361e-02
-8.727264404296875000e-02
-8.022714406251907349e-02
-1.277929916977882385e-02
-3.651692345738410950e-02
-5.910062789916992188e-02
-6.794100254774093628e-02
-5.506142973899841309e-02
-8.483272790908813477e-02
-7.205183804035186768e-02
-7.525703310966491699e-02
4.423863440752029419e-02
4.416389390826225281e-02
-5.079418048262596130e-02
8.937377482652664185e-03
6.317617744207382202e-02
-2.235864475369453430e-02
3.711886331439018250e-02
-3.511708229780197144e-02
-1.865609548985958099e-02
2.318543940782546997e-02
4.997814074158668518e-02
-6.469428539276123047e-02
-6.793846189975738525e-02
6.961826980113983154e-02
4.823944997042417526e-03
-7.846475392580032349e-02
-4.778516292572021484e-02
-5.136835854500532150e-03
-6.163061037659645081e-02
-4.113388806581497192e-02
3.472863137722015381e-02
6.704148650169372559e-02
8.338333666324615479e-02
2.911539748311042786e-02
-1.163184642791748047e-02
6.026913598179817200e-02
4.177521914243698120e-02
-1.550022140145301819e-02
-8.240516483783721924e-02
4.198838490992784500e-03
-2.101203240454196930e-02
3.537810873240232468e-03
-4.648006707429885864e-02
-3.228504955768585205e-02
-7.619120925664901733e-02
-3.025189414620399475e-02
5.894684791564941406e-02
-4.314402490854263306e-02
6.822747737169265747e-02
4.790753126144409180e-02
-4.371754825115203857e-02
-2.468522079288959503e-02
2.083247341215610504e-02
-5.077179893851280212e-02
-6.911820173263549805e-02
4.488585144281387329e-02
2.608058229088783264e-02
4.203963652253150940e-02
1.861979626119136810e-02
2.468988858163356781e-02
8.673012256622314453e-02
-2.218355983495712280e-02
7.850147783756256104e-02
-6.609217077493667603e-02
1.957751810550689697e-03
-7.731126993894577026e-02
5.182031169533729553e-02
-5.682481452822685242e-02
7.357119768857955933e-02
5.553631857037544250e-02
-6.634842604398727417e-02
-4.393214359879493713e-02
2.270564809441566467e-02
-2.317370660603046417e-02
1.814846694469451904e-02
-4.806621372699737549e-02
4.090637713670730591e-02
6.561934202909469604e-02
-3.201373666524887085e-02
-1.896413788199424744e-02
-3.981089591979980469e-02
-7.651855051517486572e-02
9.242765605449676514e-03
-1.139229629188776016e-02
-7.164705544710159302e-02
-7.162671536207199097e-02
3.089628554880619049e-02
8.302818983793258667e-02
6.933598220348358154e-02
-2.724494412541389465e-02
3.756431862711906433e-02
1.688500121235847473e-02
7.305493205785751343e-02
6.428485363721847534e-02
4.913682863116264343e-02
4.689821973443031311e-02
-7.759299129247665405e-03
-8.023340255022048950e-02
5.381879583001136780e-02
-1.111202687025070190e-02
5.535944551229476929e-02
-7.962206751108169556e-02
2.880465611815452576e-02
7.533376663923263550e-02
8.474656194448471069e-02
-3.638688847422599792e-02
-6.414347141981124878e-02
-1.426913775503635406e-02
-6.913755834102630615e-02
2.576544322073459625e-02
2.210136130452156067e-02
-8.497906476259231567e-02
1.298160757869482040e-02
5.629112571477890015e-02
-6.741071492433547974e-02
-4.910149052739143372e-02
8.318958431482315063e-02
-3.514515236020088196e-02
-2.639476582407951355e-02
-3.525224700570106506e-02
2.387347631156444550e-03
2.786082401871681213e-02
-7.971683889627456665e-02
5.874486640095710754e-02
-1.481033116579055786e-02
-7.729167491197586060e-02
7.093210518360137939e-02
-8.408366143703460693e-02
6.147078052163124084e-02
-3.919278457760810852e-02
8.198788762092590332e-02
-4.324795305728912354e-02
6.942025572061538696e-02
4.472796618938446045e-02
5.458263307809829712e-02
7.251892238855361938e-02
-5.295994132757186890e-02
-2.000385895371437073e-02
-6.755679100751876831e-02
-6.982220709323883057e-02
