2.201818395406007767e-03
-1.094396598637104034e-02
-5.362781230360269547e-03
7.064126897603273392e-03
3.706264076754450798e-03
6.759376265108585358e-04
8.759858086705207825e-03
6.857798900455236435e-03
5.726301111280918121e-03
-1.075002015568315983e-03
4.380417987704277039e-03
6.159481592476367950e-03
9.995599277317523956e-03
-8.730229921638965607e-03
4.731252789497375488e-03
1.134872715920209885e-02
-5.322674289345741272e-03
-4.796678258571773767e-04
-2.262531779706478119e-02
8.184085600078105927e-03
-1.393543835729360580e-02
-1.060245465487241745e-02
-1.956681255251169205e-03
-6.828537676483392715e-03
-1.736692525446414948e-02
-6.077133584767580032e-03
-1.047933753579854965e-02
6.373958196491003036e-03
1.238367985934019089e-02
-6.387173198163509369e-04
-8.260535541921854019e-04
-1.287104282528162003e-02
1.953494036570191383e-03
3.213474527001380920e-03
1.535948365926742554e-02
1.320370240136981010e-03
-3.788566216826438904e-03
-1.337049249559640884e-02
-1.544838072732090950e-03
1.571132242679595947e-02
-2.254758402705192566e-02
-2.719179727137088776e-03
-5.907712038606405258e-03
4.188134800642728806e-03
1.623906544409692287e-03
6.030372343957424164e-03
-9.053120389580726624e-03
-6.135801784694194794e-03
2.663632156327366829e-03
2.140269428491592407e-02
-9.829471819102764130e-03
1.080585736781358719e-02
-6.411798764020204544e-03
-8.673041127622127533e-03
-7.974406704306602478e-03
7.145510055124759674e-03
-3.399975597858428955e-03
-2.898175269365310669e-03
-9.501070715487003326e-03
2.025105495704337955e-04
-9.973564185202121735e-03
-8.365926332771778107e-03
-1.884962804615497589e-02
-1.587038277648389339e-03
-2.941763261333107948e-03
-7.061009760946035385e-03
-1.744912937283515930e-02
-1.653507538139820099e-02
-1.111928001046180725e-02
-3.140791784971952438e-03
-6.895177997648715973e-03
-7.222529966384172440e-03
-9.986431337893009186e-03
-3.394216764718294144e-03
1.702152006328105927e-02
-4.303493187762796879e-04
4.775096895173192024e-04
-9.967639110982418060e-03
-8.105935994535684586e-04
-7.222061045467853546e-03
1.114631537348031998e-02
-2.626069635152816772e-02
-2.807027474045753479e-02
2.360874414443969727e-02
6.144802086055278778e-03
-2.944514155387878418e-03
-5.320587661117315292e-03
-1.177579071372747421e-02
-1.363841630518436432e-02
1.058984664268791676e-03
-1.140844076871871948e-02
-9.208267554640769958e-03
1.631419756449759007e-03
1.653526164591312408e-02
-9.122918359935283661e-03
2.493313746526837349e-03
3.624106757342815399e-03
-4.533229395747184753e-03
4.692800343036651611e-03
-8.474958129227161407e-03
1.619171537458896637e-02
-1.245878636837005615e-03
-4.265231546014547348e-03
1.026461925357580185e-02
9.188862517476081848e-03
2.449356485158205032e-03
4.650831222534179688e-03
4.001965280622243881e-03
2.052249200642108917e-02
1.422589365392923355e-02
1.982201356440782547e-03
1.532195694744586945e-02
2.023544907569885254e-02
-5.953026935458183289e-03
-5.498515907675027847e-03
-1.495613064616918564e-02
-4.541158676147460938e-03
-6.715295370668172836e-03
3.207499627023935318e-03
9.563126601278781891e-03
-7.508860900998115540e-03
-1.498815882951021194e-02
4.223872907459735870e-03
-3.877470036968588829e-03
1.203727733809500933e-04
-3.265917999669909477e-03
1.226609456352889538e-03
1.805769163183867931e-03
1.553018670529127121e-02
1.221000216901302338e-03
-4.321271087974309921e-03
-1.409511268138885498e-02
-7.291752379387617111e-03
2.834644168615341187e-03
-5.531354807317256927e-03
-6.251077167689800262e-03
3.229937283322215080e-03
-4.367614164948463440e-03
4.894891288131475449e-03
2.028987742960453033e-02
5.149162840098142624e-03
1.063217502087354660e-02
-5.856360308825969696e-03
-7.013604044914245605e-04
6.392861716449260712e-03
-1.652895286679267883e-02
1.612718100659549236e-03
-1.926223048940300941e-04
1.519530266523361206e-02
1.293057855218648911e-02
-3.231996670365333557e-03
3.686004551127552986e-03
1.458645216189324856e-03
-1.158482045866549015e-04
-5.288868676871061325e-03
-5.155351012945175171e-03
-1.678645983338356018e-02
-1.509807334514334798e-04
-7.861129939556121826e-03
-1.142813917249441147e-02
7.253227755427360535e-03
-6.408492568880319595e-03
1.401966874254867435e-04
6.159485317766666412e-03
2.558091655373573303e-03
-3.151449607685208321e-03
-9.798657847568392754e-04
1.119148102588951588e-03
1.022410485893487930e-02
3.463046232354827225e-05
-4.500208422541618347e-03
-3.618878312408924103e-03
-6.418299395591020584e-03
1.787898712791502476e-03
1.716427621431648731e-03
-4.539592191576957703e-03
7.224220316857099533e-04
3.091505263000726700e-03
4.573061130940914154e-03
-5.224105436354875565e-03
-8.265748620033264160e-03
7.781931199133396149e-03
-6.591259967535734177e-03
-1.006618142127990723e-02
-4.986574407666921616e-03
-6.534528918564319611e-03
1.025339355692267418e-03
5.042735487222671509e-03
-7.925353711470961571e-04
5.675483494997024536e-03
-9.059765376150608063e-03
2.868785057216882706e-03
1.669671270065009594e-03
-5.905456840991973877e-03
-2.464158274233341217e-02
1.268895249813795090e-02
-1.511891931295394897e-02
-6.645338144153356552e-03
4.554048646241426468e-03
-4.352318588644266129e-03
-9.602902457118034363e-03
1.280050445348024368e-02
3.658655798062682152e-03
-1.039928849786520004e-02
-3.257159842178225517e-03
5.279418546706438065e-03
1.613114960491657257e-02
-6.739255972206592560e-03
9.943720884621143341e-03
1.637143269181251526e-02
1.155476178973913193e-02
-1.159780845046043396e-02
1.692141988314688206e-03
1.097923959605395794e-03
-8.458099327981472015e-03
-2.200211957097053528e-02
1.389401732012629509e-03
-1.510248985141515732e-02
-5.641684867441654205e-03
-3.903981763869524002e-03
1.073526073014363647e-04
1.532188151031732559e-02
-1.265519019216299057e-02
1.486865244805812836e-02
5.877434741705656052e-03
4.884521476924419403e-03
-8.987035602331161499e-03
-8.033250458538532257e-03
1.520373299717903137e-02
-2.781970892101526260e-03
6.817793473601341248e-03
1.444724854081869125e-02
-1.721955463290214539e-02
-1.329334685578942299e-03
-4.768181126564741135e-03
-7.496388163417577744e-03
1.108041498810052872e-02
-1.407371833920478821e-03
1.241732109338045120e-02
-6.726704537868499756e-03
-1.170855574309825897e-02
-7.944082841277122498e-03
-4.882849752902984619e-03
-1.180093083530664444e-02
-7.837852463126182556e-03
1.307633519172668457e-02
2.152026165276765823e-03
1.337370462715625763e-02
-1.229743473231792450e-02
-5.219920072704553604e-03
8.968635462224483490e-03
-3.497208701446652412e-03
-6.713071372359991074e-03
-6.023122463375329971e-03
-1.719989813864231110e-02
1.121372915804386139e-03
