5.515283346176147461e-01
5.408478379249572754e-01
-4.285952150821685791e-01
-9.128481149673461914e-02
-3.144157528877258301e-01
8.120144158601760864e-02
3.428012430667877197e-01
1.576359868049621582e-01
2.243255674839019775e-01
3.987350761890411377e-01
-1.268512010574340820e-01
-4.364019036293029785e-01
6.853007525205612183e-02
-5.060397833585739136e-02
-5.640904307365417480e-01
4.620003700256347656e-01
-1.476076990365982056e-01
4.463312327861785889e-01
-5.064290165901184082e-01
-4.441873729228973389e-01
2.108177691698074341e-01
4.142794609069824219e-01
-5.514537692070007324e-01
-2.516131103038787842e-01
-2.962670922279357910e-01
2.465164102613925934e-02
1.807202696800231934e-01
-4.421406388282775879e-01
-1.989081501960754395e-01
4.918220043182373047e-01
-4.191385805606842041e-01
-2.801940739154815674e-01
-2.015973478555679321e-01
-3.600981831550598145e-01
-1.250029355287551880e-01
-7.289609313011169434e-02
1.582247167825698853e-01
5.654126405715942383e-01
2.686302177608013153e-02
1.107393130660057068e-01
4.999307990074157715e-01
-2.684249281883239746e-01
4.070615470409393311e-01
2.713911831378936768e-01
-1.833630800247192383e-01
-1.127495542168617249e-01
-2.834030985832214355e-01
5.371001958847045898e-01
3.949792087078094482e-01
1.869710534811019897e-01
1.039210036396980286e-01
-1.823602169752120972e-01
-4.534292519092559814e-01
4.748046100139617920e-01
5.725467801094055176e-01
-1.031875088810920715e-01
-3.504606783390045166e-01
4.174877330660820007e-02
-1.709991544485092163e-01
-7.233323901891708374e-02
5.607577562332153320e-01
-1.805279850959777832e-01
1.592550277709960938e-01
3.563021123409271240e-02
