7.164399562498147134e-08
-6.963148734939750284e-06
-1.730479993966582697e-06
-1.686516952759120613e-05
-4.333774541009915993e-06
3.883929480252845678e-07
-5.013427198719000444e-06
8.719772637277856120e-08
-8.225315468735061586e-06
6.433920589188346639e-06
3.292574888291710522e-07
1.261778379557654262e-05
-2.634290922287618741e-06
3.645608558144886047e-06
-1.419532168256409932e-06
-2.050063585556927137e-06
-1.063002969203807879e-06
9.276393029722385108e-06
-2.858381776604801416e-06
-1.372537440147425514e-06
-2.531178097342490219e-06
-9.600433941159280948e-07
-5.453695848700590432e-06
6.179402021189162042e-07
4.686610736825969070e-06
-1.847296744017512538e-06
5.273229362501297146e-06
3.049813585676020011e-06
8.495402425978682004e-07
4.894200174021534622e-06
-3.293758027211879380e-06
-2.972531547129619867e-06
4.578886091621825472e-06
1.936782155098626390e-06
-3.693250164360506460e-06
-2.473372887834557332e-06
9.392995252710534260e-07
-7.727438173787959386e-07
9.693901574792107567e-07
5.820896603836445138e-06
-2.677300244613434188e-06
4.885108069174748380e-07
2.808772705975570716e-06
9.679373533799662255e-07
-3.463400844339048490e-06
2.237698708995594643e-06
1.529438804936944507e-06
5.867225809197407216e-06
-5.600008080364204943e-06
-5.214441145540149591e-08
-2.330257871108187828e-07
-9.205925266542180907e-07
2.079382511510630138e-06
-8.683096552886127029e-07
-1.469111452934157569e-06
-3.723908321262570098e-06
-3.138060264973319136e-07
-8.001065907592419535e-06
1.180107247478190402e-07
3.980135261372197419e-06
4.583329882734687999e-06
-1.281862523683230393e-06
6.461920065703452565e-07
5.587122018368972931e-07
-1.107599814531567972e-06
-4.951418191012635361e-07
1.896940830192761496e-06
-6.954195214348146692e-06
2.940608510471065529e-06
-3.614249166616900766e-08
1.366069341202091891e-06
8.385408278854811215e-08
3.536652684488217346e-06
-2.817866516124922782e-06
2.006321665248833597e-06
2.671272113730083220e-06
-2.865606120394659229e-06
-7.947234735183883458e-06
1.004733690024295356e-06
8.548859113943763077e-07
4.060304945596726611e-06
8.442728471891314257e-07
4.162863206147449091e-06
4.407330379763152450e-06
-3.497023897125473013e-07
1.178688307845732197e-06
-2.547634267102694139e-06
7.837377893338270951e-07
3.022369355676346458e-06
-5.066981884738197550e-06
-1.457371013202646282e-06
6.006083367537939921e-06
1.074293081160249130e-07
5.618744125968078151e-06
-1.833382725635601673e-06
-3.588604613469215110e-06
-8.933742719818837941e-06
-5.649738795909797773e-06
-3.250873419347044546e-07
-7.592263045808067545e-06
-7.414129186145146377e-07
6.094030595704680309e-07
8.464100574201438576e-06
7.720609573880210519e-05
3.964393727073911577e-06
-2.794782176351873204e-06
-2.388175744272302836e-06
3.216343657186371274e-06
9.915345344779780135e-07
-2.292559202032862231e-06
2.913973503382294439e-06
-9.554545954415516462e-08
6.817455869168043137e-06
6.050325964679359458e-07
3.874271442327881232e-06
-6.686110282316803932e-06
-2.430182064472319325e-07
2.254845894640311599e-04
-2.391982661720248871e-06
-4.372262083052191883e-06
1.812980343629533309e-08
-1.162140321753213357e-07
9.258796467292995658e-07
-7.705257303314283490e-07
-3.700004299389547668e-06
3.340680677865748294e-06
4.135408289585029706e-06
1.862848989730991889e-06
-2.456438096487545408e-06
7.789423079884727485e-07
-1.272792133022448979e-06
-1.143071222031721845e-05
-1.772878817973833065e-06
2.180599040002562106e-06
-2.133341610033312463e-07
-2.257866526633733884e-06
-1.598193762220034841e-06
-1.686431616576555825e-08
-2.217253495473414660e-06
-1.117882888479471148e-07
-5.959224154139519669e-07
-2.046605459327111021e-06
4.625338078767526895e-06
1.891802185127744451e-06
-1.731142560856824275e-06
1.432821591151878238e-06
2.092848717438755557e-06
1.447926570108393207e-05
1.156638404609111603e-06
1.108209630729106721e-06
2.066599563477211632e-06
-1.660258590163721237e-06
-3.289928145022713579e-06
-4.418157914187759161e-06
2.197179355789558031e-06
-4.517143850080174161e-07
7.649668077647220343e-06
-1.709232719804276712e-06
-9.545440207148203626e-07
3.477687755548686255e-07
-6.344156190607463941e-06
3.345136519783409312e-06
4.529111265583196655e-06
1.041027871906408109e-06
-1.708370837150141597e-05
-1.717032660053519066e-06
-1.684489689068868756e-06
1.229165462746095727e-07
-3.532055416144430637e-06
1.336486207037523855e-06
7.405302312690764666e-06
-1.041588802763726562e-06
2.118004431395092979e-06
-2.811015974657493643e-06
-1.560584905746509321e-06
4.381272447062656283e-06
-2.637802026583813131e-06
4.069338501722086221e-06
-1.398226686433190480e-06
-1.342488849331857637e-05
2.573941401351476088e-06
-6.133161605248460546e-06
2.036168098129564896e-06
-1.350290403934195638e-07
1.033715193443640601e-06
5.690413217962486669e-06
-2.029323923125048168e-06
2.456073843859485351e-06
3.244872459617909044e-06
-6.031258976690878626e-07
-1.837427703321736772e-06
-5.495821255863120314e-07
1.057320446307130624e-06
2.081943648590822704e-06
-3.378280780452769250e-06
1.181249217552249320e-06
-4.395588462102750782e-07
2.225570142400101759e-06
-3.666538532343111001e-06
5.050588924859766848e-07
3.644321395768201910e-06
4.133395577810006216e-06
-2.143826350220479071e-06
-2.144197651432477869e-06
-5.028954092267667875e-06
-4.992391950509045273e-06
2.529538505768869072e-06
5.190163847146322951e-06
4.868383257417008281e-06
-4.048550181323662400e-06
-4.569002953758172225e-07
-7.405692940665176138e-06
-9.290823754781740718e-07
-3.928939349862048402e-06
2.359221298320335336e-06
6.348514943965710700e-06
1.835388502513524145e-06
2.220202986791264266e-06
2.508947545720729977e-06
-1.575700252942624502e-06
3.278898930147988722e-06
5.527443136088550091e-06
-7.371725132543360814e-07
-2.115720235451590270e-06
-5.022791356168454513e-07
-1.965207502507837489e-06
-2.271739958814578131e-06
1.363132696496904828e-06
-4.415630030507600168e-07
1.152796329506600159e-07
5.079044512967811897e-06
-3.029041408808552660e-07
2.487761321390280500e-06
-3.154854994136258028e-06
-4.771351996168959886e-06
-1.509584080849890597e-06
-8.739523764234036207e-06
1.930820189954829402e-06
-4.158889169048052281e-06
-1.715516759759339038e-06
-7.021511692073545419e-07
2.671840206858178135e-07
-1.779117519618012011e-05
-2.166339072573464364e-06
1.328863504568289500e-06
-1.971936035261023790e-05
-1.438681101717520505e-05
1.828721110541664530e-06
-2.561234396125655621e-06
1.187757789011811838e-06
1.468162849960208405e-06
2.690493147383676842e-06
3.026751301149488427e-06
3.766751906368881464e-04
5.288922693580389023e-06
2.303402197867399082e-06
-4.151028178966953419e-07
-1.628246195650717709e-07
1.466829644414247014e-06
-8.613187674200162292e-07
3.292073870397871360e-06
-1.929790194310498919e-08
1.196671746583888307e-06
-2.497558625691453926e-06
-2.727425226112245582e-06
-2.846087738817004720e-07
6.832358394603943452e-07
-7.251319857459748164e-06
3.452742589615809266e-07
-3.254267994634574279e-06
5.377472689360729419e-07
-1.883198365248972550e-06
4.661530965677229688e-06
-6.218496309884358197e-06
1.839026282368649845e-07
8.369985152967274189e-06
1.075345835488406010e-06
4.397192697069840506e-06
-1.836716705838625785e-06
7.909214900791994296e-07
-5.939445486546901520e-07
4.927685949951410294e-05
1.731058546283748001e-06
1.527146622493091854e-07
6.614336143684340641e-06
4.901748980046249926e-06
-4.183562396065099165e-06
3.406467658351175487e-05
-9.008857091430400033e-07
9.388498256157618016e-06
-6.928110906301299110e-06
-2.412573167021037079e-06
2.165568730561062694e-06
2.574403424659976736e-06
-2.879527528421021998e-06
-7.341035939134599175e-07
2.014436262243179954e-07
5.374153261072933674e-05
-1.672564053478708956e-06
1.009198058454785496e-06
-2.734995405262452550e-06
-2.715507662287564017e-06
4.078499671322788345e-07
2.719630856518051587e-06
-6.958779295018757693e-07
-6.170032520458335057e-07
-5.498504106071777642e-05
-2.568052877904847264e-06
-1.068798951564531308e-06
-8.845930210554797668e-07
3.776777475650305860e-06
2.176878751924959943e-06
-2.952095201180782169e-06
4.674715910368831828e-06
-7.093759904819307849e-06
6.765205853298539296e-07
1.903908014355693012e-06
-3.108089686065795831e-06
7.993242547854606528e-07
9.943059922079555690e-07
-9.319417699771292973e-07
4.068032808390853461e-07
8.234731581069354434e-07
-1.132220063482236583e-06
1.683282107478589751e-06
-5.330215913090796676e-07
1.787189830793067813e-06
3.470548335826606490e-06
-4.003049525636015460e-06
-1.900674874377727974e-06
2.013367975450819358e-06
-3.713985279318876565e-06
-7.753943691568565555e-07
-1.026342374643718358e-06
-8.908791073736210819e-07
-3.309996145617333241e-06
1.881833895822637714e-06
4.681529389927163720e-06
7.938887733871524688e-07
1.700493271528102923e-06
1.037037620221781253e-07
1.017458907881518826e-05
8.288351978080754634e-07
1.385187715641222894e-06
-7.814099944880581461e-07
5.627685368381207809e-06
-5.874914677406195551e-06
-9.637510629545431584e-07
2.483748403392382897e-06
1.257770804841129575e-06
2.758129994617775083e-06
-6.177053364808671176e-06
-2.277853127452544868e-06
-2.576370832230168162e-07
3.457494130998384207e-06
-4.183870714769000188e-06
3.012411980307660997e-06
9.985066071749315597e-07
-4.253284714650362730e-06
-2.549131295381812379e-06
-8.416898822360963095e-07
2.850739292625803500e-06
3.791788287799136015e-07
-1.422417085450433660e-06
1.918876080253539840e-07
-4.242326383518957300e-07
-2.619985025376081467e-06
-3.012994284290471114e-06
-2.329806875422946177e-06
2.501708706859062659e-07
-1.866202183009590954e-06
1.963289975037696422e-07
-3.530488129399600439e-06
-3.571040451788576320e-06
1.629414668968820479e-06
3.465354666332132183e-06
9.268886174140789080e-07
1.912370862555690110e-06
3.368963461980456486e-06
4.007721372545347549e-07
-7.352803521598616499e-08
-1.425578659564052941e-07
-6.575178304046858102e-06
-2.135980821549310349e-06
-6.217934469532337971e-07
4.311559223424410447e-06
1.231798478329437785e-06
-2.097076276186271571e-06
-8.186854643099650275e-07
1.315925487688218709e-06
2.888141807488864288e-06
1.494394609835580923e-06
5.224284905125387013e-06
-2.048211769078989164e-07
-1.550599449728906620e-06
-1.998789457502425648e-06
4.210656243230914697e-06
1.043961674440652132e-06
-2.639276090121711604e-06
5.321729986462742090e-06
1.105950218516227324e-06
2.183885726481094025e-06
3.105784344370476902e-05
-3.335178462293697521e-07
-5.634766694129211828e-06
-4.403904767968924716e-06
3.000857304868986830e-06
-6.603477231692522764e-07
-2.864756424969527870e-06
-8.902758963813539594e-06
4.331785930844489485e-06
6.257298991840798408e-06
4.544754574453691021e-06
-1.831943308161498862e-07
8.405307880821055733e-07
1.161243289971025661e-06
4.048910966503171949e-07
-1.545204781905340496e-06
5.082247298560105264e-06
-4.002574314654339105e-06
5.581658570008585230e-06
-2.976880296046147123e-06
9.180091069538320880e-07
1.997966592170996591e-07
-2.532184907977352850e-06
-5.968997356831096113e-06
7.479699775103654247e-07
2.242135906271869317e-06
-1.752143020894436631e-06
9.150271580438129604e-06
-1.097411427508632187e-06
3.814826868620002642e-06
7.345148787862854078e-06
-5.171730208530789241e-07
2.734631152634392492e-06
-2.030286168519523926e-06
3.290485892648575827e-07
1.153309858636930585e-05
-3.536128815539996140e-06
6.726804258505580947e-06
-2.414802565908757970e-06
-5.483237259795714635e-07
-2.394968078078818507e-06
-2.966979195662133861e-07
-1.854153310887340922e-06
2.663803570612799376e-06
4.720986453321529552e-06
5.455510745377978310e-06
-1.693591548246331513e-05
2.225507387265679426e-07
3.789436959777958691e-06
-6.057272003090474755e-06
2.275955466757295653e-06
1.752027856127824634e-07
-4.096462362213060260e-06
4.787530997418798506e-06
-1.085847998183453456e-06
-1.618751230125781149e-05
-2.394843932052026503e-06
1.590674401086289436e-06
1.419408590663806535e-06
-1.094247750188515056e-06
-2.170564954440123984e-07
6.346926966216415167e-07
-1.817229644984763581e-06
-5.783484539279015735e-06
-3.333679842398851179e-06
3.168158286825928371e-07
1.202045893933245679e-07
2.227126969955861568e-06
1.704563374005374499e-06
4.866106792178470641e-06
3.826563442999031395e-06
-2.583974492154084146e-06
-3.336777126605738886e-06
-1.807370495043869596e-06
-8.245019671448972076e-07
-5.078283038528752513e-07
2.706785835471237078e-06
4.944685770169598982e-06
2.162785449399962090e-06
9.733074648465844803e-07
-2.808412546073668636e-06
-1.629243797651724890e-06
4.444103183232073206e-07
-1.442311258870176971e-06
1.674238660598348361e-06
2.441771357553079724e-06
-7.400790309475269169e-06
1.268614255423017312e-06
2.712153900574776344e-06
-5.197207428864203393e-06
2.308136345163802616e-06
-6.538602065120358020e-06
2.863180498025030829e-06
1.661370902183989529e-06
-2.440506023049238138e-06
2.423004661977756768e-05
2.821196858349139802e-06
-4.258374701748834923e-06
8.170434853127517272e-07
9.267069458473997656e-07
1.042417466123879422e-06
1.981608875212259591e-06
3.823143288173014298e-06
9.086232353183731902e-07
-2.602871518320171162e-06
-2.610509454825660214e-06
-9.111642430070787668e-05
-3.525162355799693614e-06
-4.129547619413642678e-07
2.176900295580708189e-07
-9.783345831237966195e-07
-4.704731964011443779e-06
-2.465657644279417582e-06
-3.928665591956814751e-06
1.107848675019340590e-06
-4.438652013050159439e-06
3.741491127584595233e-06
2.678178589121671394e-06
4.758013346872758120e-06
2.648692145612585591e-07
3.200386800017440692e-06
2.942578475995105691e-06
-5.417684292297053616e-07
-1.829997245295089670e-06
5.690872058039531112e-06
1.494992858397381497e-07
-9.795841151571949013e-07
-1.851516458373225760e-06
3.115575736956088804e-06
-9.427777513337787241e-06
-8.594434621045365930e-05
2.754181025466095889e-07
6.864308943477226421e-07
-3.564825419744011015e-06
-5.424948085419600829e-06
-8.708312861926970072e-07
1.809571813282673247e-06
-8.346662980329710990e-06
3.543225830071605742e-06
4.999701559427194297e-06
-5.160711680218810216e-06
1.538582068860705476e-06
-6.863208000140730292e-06
-4.499825365655851783e-07
3.339814838909660466e-06
1.175850798063038383e-06
4.718363470601616427e-06
-1.214341750710445922e-06
5.919048817304428667e-06
-5.555222628572664689e-07
-6.516590360661211889e-07
-2.677213615243090317e-07
3.356917886776500382e-06
-2.090245061481255107e-06
3.444740286795422435e-06
3.272790308983530849e-06
8.887694093573372811e-06
3.182036152793443762e-06
4.823208655579946935e-06
7.913452009233878925e-07
-5.397393124439986423e-06
-3.326948899484705180e-06
-7.510561772505752742e-06
3.381163423910038546e-06
-1.127971927417092957e-06
-2.080289959849324077e-06
-2.869621766876662150e-06
7.630628147126117256e-07
2.233676241303328425e-06
2.521951785183773609e-07
4.312566034059273079e-06
6.227257358659699094e-07
-3.463139364612288773e-06
-1.259328996638942044e-06
-8.149581844918429852e-07
-7.217971869977191091e-06
-2.819460178216104396e-06
-2.623214641062077135e-06
-2.337587602596613578e-06
4.797768724529305473e-06
-6.000531357130967081e-06
1.490188878960907459e-06
2.436175236653070897e-06
3.115268555120564997e-05
-4.929427745992143173e-07
2.686632797122001648e-06
2.258021822854061611e-06
-2.227512823083088733e-06
-9.314638873547664843e-07
9.606694220565259457e-05
4.301338049117475748e-05
-2.312566948603489436e-06
2.793504563669557683e-06
-3.505472477627336048e-06
-7.841095793992280960e-06
-3.855637714877957478e-06
9.840957773121772334e-07
4.306563823774922639e-06
-1.994158765228348784e-06
4.854428880207706243e-06
-1.440281835130008403e-06
1.586319740454200655e-06
-1.656809899941436015e-06
-4.721551363218168262e-07
3.872723482345463708e-06
-3.347601023051538505e-07
-9.527937072562053800e-05
-1.568382259620193508e-07
1.815710274968296289e-04
-2.217443352492409758e-06
-4.248352979629999027e-06
-2.209433205280220136e-06
-1.200997644446033519e-06
1.247012960448046215e-06
8.931855255411846883e-09
-6.511465016956208274e-06
-2.874710617106757127e-06
4.184734279988333583e-06
-1.960290774150053039e-06
-1.149609488493297249e-05
-1.105178171201259829e-06
6.754248715878929943e-07
-1.818224859562178608e-06
-1.540211655992607120e-06
-2.337897740289918147e-06
5.885381142434198409e-06
-1.314793394158186857e-06
-2.571180459653987782e-07
-9.199063697451492772e-07
1.964696821232791990e-06
-1.480491505390091334e-06
1.958561824721982703e-06
-2.330097913727513514e-06
-3.830899004242382944e-06
2.167741740777273662e-06
1.038820073517854325e-06
3.061142706428654492e-06
2.277966132169240154e-06
-2.460550458636134863e-04
-4.103478659089887515e-06
-8.055611715462873690e-07
-2.574289055701228790e-06
-2.128278765667346306e-06
7.027311767160426825e-06
1.380701519337890204e-06
1.684429662418551743e-06
-5.924649485677946359e-06
-3.272081357863498852e-06
-8.241851901402696967e-06
2.098911693337868201e-07
4.173506113147595897e-06
-3.851534074783558026e-06
-3.606649841003672918e-07
-5.404369858297286555e-07
4.249175835866481066e-04
1.982017920454381965e-06
-1.933146904775639996e-06
7.436730697918392252e-07
7.320913573494181037e-05
1.465698460378916934e-06
1.234687715623294935e-06
-1.421819746383334859e-07
1.871550523446785519e-07
-1.225825940309732687e-06
-3.028283344974624924e-06
1.014174449665006250e-05
3.364270696692983620e-06
-2.388850134593667462e-06
-4.462031938601285219e-06
5.034985861129825935e-06
-1.280753281207580585e-06
3.846304934995714575e-06
2.445370228087995201e-06
-5.779054959020868409e-07
3.449950327194528654e-06
-4.305751645006239414e-06
-3.617469133132544812e-07
1.905209614960767794e-06
2.201044026151066646e-06
8.483862984576262534e-06
-7.083501714078010991e-06
-2.458205472066765651e-06
8.923450423026224598e-07
5.600529675575671718e-07
1.420175408384238835e-06
-1.609011633263435215e-06
5.678576599166262895e-06
-1.085815483747865073e-06
-3.500208094919798896e-06
2.406771500318427570e-06
-4.351889856479829177e-06
-4.943094040754658636e-07
7.743047717667650431e-06
3.776782250497490168e-06
9.944188832378131337e-07
6.101403187130927108e-07
-4.624623670679284260e-07
1.873893097581458278e-06
4.599278895511815790e-07
-3.583081706892699003e-07
-5.832728220411809161e-06
-9.920586307998746634e-07
6.878658496134448797e-06
2.633028998388908803e-06
-1.724545313663838897e-06
-1.842432538978755474e-06
4.212704425299307331e-06
7.216103199425560888e-07
-1.507547381152107846e-06
1.460718181078846101e-06
3.195331373717635870e-06
-1.235379443187412107e-07
3.862919129460351542e-06
4.463141976884799078e-06
1.395664867231971584e-06
-2.762121539490181021e-06
5.049042101745726541e-06
5.667533855557849165e-07
3.576069047994678840e-06
4.559811259241541848e-06
1.053789901561685838e-06
6.694899184367386624e-06
2.900486322232609382e-07
3.390924121049465612e-06
-3.327785407236660831e-06
-7.397363788186339661e-06
-6.316350663837511092e-06
2.243584276584442705e-06
-4.184330464340746403e-06
-2.864350335585186258e-06
-7.965243753460526932e-07
1.821713112803990953e-06
7.154619083848956507e-07
-1.093913738259288948e-06
-1.832978568927501328e-07
-1.862970975707867183e-06
-2.209606918768258765e-06
1.654625634728290606e-06
6.845050961601373274e-07
5.149922230884840246e-07
4.221802100801141933e-06
7.594194073590188054e-08
-1.704148189674015157e-06
2.219590669483295642e-06
1.460707835576613434e-06
-2.516134145480464213e-06
8.873516890162136406e-07
9.531965474707249086e-07
4.157210696575930342e-06
-3.898882823705207556e-06
-9.545664170218515210e-08
4.727625764644471928e-06
-1.915349230330321006e-06
1.187600332741567399e-06
-4.197509952064137906e-06
1.838791604313882999e-06
-3.067434022341331001e-07
-2.077045564874424599e-06
-1.572370933899946976e-06
-4.569894827000098303e-06
1.077904585145006422e-06
3.687180424094549380e-06
-3.363013092894107103e-06
8.630650881968904287e-06
2.769483899101032875e-06
3.964083106211546692e-08
2.092798013109131716e-06
3.627595560828922316e-06
-4.392456503410357982e-06
-3.774352990149054676e-07
-4.925305802316870540e-06
-1.781796186151041184e-06
-2.143209940186352469e-06
4.485223925598802452e-08
-1.119537046179175377e-06
-3.589274911064421758e-06
-4.626286056463868590e-07
2.434017233099439181e-06
-3.886467311531305313e-06
2.171017285945708863e-06
2.316902651955388137e-07
5.109261564939515665e-07
1.957472477442934178e-06
2.681757905520498753e-06
-7.375534096354385838e-06
-1.614996669729862333e-08
-2.547361873439513147e-06
1.826606307986367028e-06
2.808872068271739408e-06
7.331007054744986817e-06
1.698608684819191694e-06
2.011336846408084966e-06
-4.930481281917309389e-06
1.093867965096251282e-07
3.923240754488688253e-08
2.778542693704366684e-06
1.561197336741315667e-06
1.998346078835311346e-06
-4.040434760099742562e-07
-5.117615728522650898e-06
-4.004968559456756338e-06
2.637875923028332181e-06
-3.134139774374489207e-07
6.187235612742369995e-07
4.738532425108132884e-06
-7.115471589713706635e-07
4.492841526371194050e-06
1.085895178221107926e-06
-1.045050680659187492e-06
1.890392013592645526e-06
-4.985233772458741441e-06
-2.277356770719052292e-06
2.508439592929789796e-06
-3.532937853378825821e-06
-2.836575504261418246e-06
7.262954682119016070e-07
-1.229705503646982834e-06
-1.865248009380593430e-06
-9.661210924605256878e-07
-8.986337434180313721e-07
-2.185120706599263940e-07
1.972264954019919969e-06
-1.949733814399223775e-06
1.633687588764587417e-06
-7.911577995400875807e-06
5.709006245524506085e-07
-3.291728944532223977e-06
3.895682766597019508e-06
-2.577532541181426495e-06
2.726127604546491057e-06
7.898434546405042056e-07
4.969343535776715726e-06
6.804845611441123765e-07
1.371481516798667144e-06
1.039955463966180105e-06
4.217048171994974837e-06
-2.648808276717318222e-06
-5.882889695385529194e-07
-1.806047407626465429e-06
6.886510846015880816e-07
5.629397037409944460e-07
-5.276528099784627557e-06
7.917299740256567020e-07
-4.429608907230431214e-06
3.562799065548460931e-06
4.438119049154920503e-06
-4.697130407294025645e-06
8.670735951454844326e-07
-2.177836222472251393e-06
1.095524112315615639e-06
3.166401074850000441e-05
1.686690438873483799e-06
2.400169023530906998e-06
-1.844052690103126224e-06
5.501874511537607759e-07
4.083525709575042129e-06
-1.432526801181666087e-06
2.978896418426302262e-06
-4.297072791814571247e-06
-1.418799001839943230e-06
2.477355849350715289e-07
-2.085553887809510343e-06
2.920500037362216972e-06
3.492975110930274241e-06
3.715545062732417136e-06
-3.635323764683562331e-06
-2.710361854951770511e-07
-2.925797598436474800e-04
-7.288215329026570544e-07
-6.851424814158235677e-07
-5.489836780725454446e-07
-7.586499464196094777e-07
-8.202691788028459996e-07
3.847876541840378195e-06
3.843047124973963946e-06
7.853734587115468457e-07
-2.764897544693667442e-06
-2.964520263049053028e-06
-1.391770183545304462e-06
-2.770108949334826320e-06
-3.221563702027196996e-06
3.322554221085738391e-06
5.825664629810489714e-06
3.983589976996881887e-06
-1.759608608153939713e-06
1.163856381936057005e-06
-5.175535306989331730e-07
-1.000619477053987794e-06
1.754931304276396986e-06
-5.013484042137861252e-06
2.715040920975297922e-07
-4.222143843435333110e-07
-4.481584880977607099e-08
-4.504141543293371797e-06
9.975367447623284534e-07
-4.078604888491099700e-06
-1.248502144335361663e-06
-1.609837340765807312e-06
6.717655764987284783e-07
1.589564021742262412e-06
-1.920614522532559931e-06
4.555411692308553029e-08
2.519979352655354887e-05
-6.476699354607262649e-07
-7.215768619062146172e-06
3.574347928747556580e-08
4.490381115829222836e-07
-2.523132707210606895e-06
-7.021674264251487330e-07
4.327286205807467923e-06
5.747080649598501623e-06
7.694105079281143844e-06
5.685894393536727875e-06
1.606683667887409683e-06
1.027397161124099512e-06
-3.147549250570591539e-06
2.139052412530872971e-06
2.210562570326146670e-06
-5.380074071581475437e-06
8.539387863493175246e-07
-2.110224883722366940e-08
9.847935871221125126e-07
4.729390184365911409e-06
4.742543751490302384e-05
2.255019808217184618e-06
-1.654113248150679283e-06
3.602421656978549436e-06
-1.256817313333158381e-06
-4.558221007755491883e-06
-6.499570304185908753e-07
-1.742886411193467211e-06
-1.438646819451605552e-07
1.691685611149296165e-06
2.052144282060908154e-06
6.488818144134711474e-06
3.157028686473495327e-06
-3.390386837054393254e-06
-6.551328510795428883e-07
-3.977650209208150045e-08
-9.642374152463162318e-07
9.096531357499770820e-06
-2.774068434518994763e-06
-4.132985395699506626e-06
-5.348650120140518993e-06
5.649243917105195578e-07
-4.410437213664408773e-06
-3.991768608102574944e-06
-1.003785769171372522e-06
3.669672992145933677e-07
-3.060801532228651922e-07
2.218969257228309289e-06
-3.137729436275549233e-06
1.326330220763338730e-05
1.290361751671298407e-06
-2.055497589026344940e-06
-3.508419922582106665e-06
1.508351942902663723e-06
-6.273461394812329672e-08
-1.455423443985637277e-06
-2.864723228412913159e-06
-7.956532499520108104e-07
-4.544062051081709797e-07
-1.138987840931804385e-06
2.071570861517102458e-06
-5.685698738489008974e-07
-3.308724899397930130e-06
-2.814643721649190411e-06
-9.978842854252434336e-07
2.319617578905308619e-06
-5.157080522621981800e-07
-6.171766472107265145e-06
5.949543080419061880e-08
-2.306154556208639406e-06
-3.557223635652917437e-07
1.786308985174400732e-06
-5.911379957979079336e-06
5.528562269319081679e-06
-2.175126383008318953e-06
1.196627863464527763e-07
3.549250550349825062e-06
5.941493782302131876e-06
-6.529254733322886750e-06
-3.357265768499928527e-06
-1.092135107683134265e-06
7.070597263236777508e-08
-4.910256166112958454e-07
-5.016884188080439344e-06
1.273076009056239855e-07
2.832900281646288931e-05
4.071978310093982145e-06
-4.610722044162685052e-06
-5.803309704788262025e-06
9.263451829610858113e-06
-8.507317375006095972e-07
3.011786589013354387e-07
-2.546785935919615440e-06
-2.242134314656141214e-06
-3.912712145393015817e-06
2.413530069134139922e-07
1.347448005617479794e-06
-2.223995579697657377e-06
-6.029893938830355182e-06
7.455548143298074137e-07
-1.822441731746948790e-06
-3.892032509611453861e-06
7.533943971793632954e-06
1.005144099508470390e-06
2.824183320626616478e-05
-2.004139645350733190e-07
-5.205360594118246809e-06
-1.503716021034051664e-06
-3.234643827454419807e-06
-5.752282277171616443e-07
-2.226733386123669334e-06
7.358072707575047389e-06
-1.659098757045285311e-06
1.658132714510429651e-05
-1.038488903759571258e-07
-4.656421594972925959e-07
-2.323501803402905352e-06
6.118513624642218929e-07
1.176118985313223675e-06
