6.525767093989998102e-05
1.024878438329324126e-04
-4.229234036756679416e-06
-4.379802760468010092e-07
2.756513595159049146e-07
6.667586276307702065e-04
-6.549155529000927345e-08
-2.749597172169160331e-07
3.698049795275437646e-06
-1.150856769527308643e-05
-6.084301418241011561e-08
3.152996359858661890e-04
-6.432469490391667932e-06
7.414429887830920052e-07
9.245301839655439835e-07
7.927933620521798730e-05
4.132695175940170884e-05
-4.503603122429922223e-05
-4.525646204456279520e-07
3.892477025146945380e-07
6.291534759839123581e-08
5.652458639815449715e-04
3.572648381577891996e-07
4.069413606089256064e-08
-1.550714659970253706e-05
6.190925887494813651e-07
7.316912524402141571e-04
3.730327478024264565e-07
1.228485416504554451e-06
-1.395569779560901225e-05
1.005432841338915750e-05
-5.083501455374062061e-04
-2.939978571703250054e-07
2.329704511794261634e-05
7.235477141875890084e-07
-2.785118056181090651e-07
2.080682679661549628e-05
2.061328632407821715e-05
-6.907551141921430826e-05
1.768205765984021127e-05
-1.690905919531360269e-04
-8.899273211682157125e-07
4.655302618630230427e-04
5.842722430315916426e-07
3.311481293621909572e-07
-1.235347735928371549e-04
1.295673314416490030e-06
1.470218267058953643e-04
-3.370593049112358131e-06
-8.032489859033375978e-06
-2.756935089109902037e-07
-5.846827207278693095e-06
-1.077902354040816135e-07
9.995872096624225378e-05
1.668205077294260263e-04
-6.987830420257523656e-05
6.586091103599756025e-07
-1.114250835598795675e-06
-4.349652726887143217e-07
-1.656734696098283166e-07
1.201145778395584784e-06
-2.581374019428039901e-06
-9.484761562816856895e-07
-5.117263413012551609e-07
-2.116875839419662952e-05
-4.155384522164240479e-05
-1.039104446931560233e-07
5.406964191934093833e-06
2.777926420094445348e-05
-5.851045443705515936e-06
-4.208429891150444746e-05
3.975804574452013185e-08
-4.069535464168438921e-07
2.518004915685878586e-09
-1.164877517112472560e-06
1.188632836601755116e-07
-7.354258002578717424e-08
-6.842712991783628240e-07
-4.671250621868239250e-07
1.792392367860884406e-07
-1.128221920225769281e-04
-1.232052600244060159e-04
6.840436412858252879e-07
-1.442222855985164642e-04
-7.009943914226823836e-08
1.803872510208748281e-05
2.554220301931309223e-08
-5.307991159497760236e-05
-1.475988574384246022e-05
-3.820436631940538064e-06
1.159305952569411602e-06
1.728248548715782817e-07
2.354909582891195896e-07
-8.029290370359376539e-07
3.963213828228617785e-07
9.537743608234450221e-05
-1.100508416129741818e-05
8.122580652525357436e-07
1.430460514484366286e-07
-4.275555056665325537e-07
2.081967249978333712e-05
2.146914255263254745e-07
3.348400059621781111e-05
-2.087154825858306140e-06
-1.105695082515012473e-05
5.045765428803861141e-04
-1.474634103715288802e-07
-3.497293801046907902e-05
1.091569515665469225e-06
-1.842214805947151035e-05
-2.018534956960138516e-07
8.469839231111109257e-04
1.905258706358381460e-08
-6.185801737501606112e-08
-1.411977882526116446e-05
2.920754195656627417e-05
5.997722382744541392e-06
4.178453991698916070e-07
5.246614023235451896e-07
-3.917872106740105664e-07
-4.073446575603156816e-07
-2.040973777184262872e-04
-2.078617029610541067e-07
-5.709663355446537025e-07
-4.881912119003573025e-08
1.396804805153806228e-08
2.329980452486779541e-05
-2.818655630107969046e-04
-7.530158718793700245e-09
-2.863572490241494961e-07
3.616134790718206204e-06
7.857602781768946443e-07
7.601847755722701550e-05
-3.278158837929368019e-04
4.503192394622601569e-05
1.181592378998175263e-04
-8.679557140567339957e-06
4.184569843346253037e-05
5.266037260298617184e-05
-7.562514525716323988e-08
3.986399121913564159e-08
-5.732210439646223676e-08
2.917510322220095986e-08
-5.331478547532242374e-08
-9.550402779723299318e-08
-8.473584784951526672e-07
5.321871503838337958e-05
4.740953229998012830e-08
-2.739843409926834283e-07
1.302097280131420121e-05
6.663005365226126742e-07
2.008112574003462214e-07
1.323612104897620156e-05
-8.248026279034093022e-05
4.869305030297255144e-07
2.090709676849655807e-05
-1.347988927591359243e-05
1.745216468407306820e-05
-1.307598722632974386e-07
-1.286544261347444262e-06
-1.649222213018219918e-06
2.800650236167712137e-07
-2.383491482760291547e-05
3.508534121010598028e-07
1.735317454176765750e-07
-2.590352960396558046e-05
-2.270695489414720214e-07
1.743708253343356773e-07
-1.371334263922108221e-07
-1.664679558643911150e-07
-1.494057357831479749e-07
2.595937473870435497e-07
-1.436111119801353198e-06
-1.062987053046526853e-06
2.256598963867872953e-05
4.282646841602399945e-05
2.770129067357629538e-04
4.165752034168690443e-05
4.349971131887286901e-04
-7.971170390419501928e-08
-3.034551241398730781e-07
-5.919542900301166810e-07
4.093797178938984871e-05
2.955156332973274402e-07
1.096476722750594490e-07
4.758081195177510381e-05
-8.735961500860867091e-07
6.451750778069254011e-06
-4.033065579278627411e-07
-3.834994117823953275e-07
1.406423848493432160e-06
9.532935655442997813e-05
-2.111514622811228037e-04
-1.263542571905418299e-06
1.352338294964283705e-04
4.731328999696415849e-07
2.165597550174425123e-07
1.648550387471914291e-04
-3.311129985377192497e-04
3.766956808703980641e-07
5.909166648052632809e-04
2.307637032572529279e-07
-2.669982204679399729e-04
2.904542100168328034e-07
1.067004814103711396e-05
2.852909383364021778e-04
4.580536199227935867e-07
1.292335980451753130e-07
-3.836886025965213776e-05
9.450412790101836435e-07
5.268750828690826893e-04
-1.591023703895189101e-07
1.114528495236299932e-04
7.300521787101388327e-08
2.731690474320203066e-04
-1.109612298932916019e-06
1.185908768093213439e-04
-5.535001719181309454e-07
-3.118887252639979124e-04
-9.246959962183609605e-05
-2.323655935470014811e-04
5.608089122688397765e-05
2.372882881900295615e-04
5.349701268642093055e-07
4.786447971127927303e-05
-2.267493691761046648e-04
-4.475641471799463034e-04
1.425257414666702971e-05
-7.167631679294572677e-07
-5.766535764450964052e-07
1.436488037143135443e-05
3.574369316083902959e-07
4.912857184535823762e-05
3.946875222027301788e-05
2.039948412857484072e-05
-1.440806443042674800e-07
6.344224857457447797e-06
-4.344746994320303202e-04
5.178389073989819735e-06
9.119014976022299379e-06
4.574181730276905000e-05
1.444896624889224768e-04
-2.077843964798375964e-05
-2.178395135388200288e-07
4.563789843814447522e-05
-8.121133760141674429e-06
-3.652369559858925641e-05
3.663597851755184820e-07
3.324091721879085526e-07
2.971031598519857653e-08
8.287226478387310635e-07
5.134083949087653309e-07
-1.308451835768664751e-08
1.154158098870539106e-06
1.894105116662103683e-05
-3.765787255360919517e-07
-5.807694378745509312e-07
-1.063513082044664770e-06
-8.926618022542243125e-08
-3.335762244205398019e-07
8.549994277018413413e-07
2.233490903336132760e-07
3.832913080259459093e-07
-1.135444399551488459e-04
-2.406005137345346157e-07
-2.550732176587189315e-07
-2.840478009602520615e-05
3.554712748154997826e-04
-2.254986242178347311e-07
1.087734708562493324e-03
-1.066052645910531282e-04
2.747243161138612777e-05
4.765607627632562071e-06
3.226291446480900049e-04
-2.644104313276329776e-07
1.624042051844298840e-04
1.290053148750303080e-07
-5.405418960435781628e-06
-4.651770950658828951e-07
-9.836238490379400901e-09
6.481507443822920322e-05
-7.642963169018912595e-07
8.950634946813806891e-05
-2.893974124162923545e-05
-5.579433945968048647e-07
-1.151509422925300896e-04
1.941611174061108613e-07
-4.416973388288170099e-05
3.306581675133202225e-07
-2.104233516320164199e-07
-6.109923447183973622e-07
3.218956834416530910e-08
2.996144985445425846e-07
-1.212330857924825978e-07
2.580738218966871500e-04
1.468895425205118954e-05
6.109095807005360257e-07
5.601057182502700016e-07
-1.931883707584347576e-05
-6.492975080618634820e-05
-2.264859722345136106e-05
6.338654930004850030e-05
2.557387633714824915e-04
-6.147935494027478853e-08
-7.090466169756837189e-07
6.099029269535094500e-05
-3.312572403046942782e-07
-8.908982636057771742e-07
-5.448627007353934459e-07
-1.243814722329261713e-06
-3.991989615315105766e-06
-2.800165748340077698e-05
-8.119874905787582975e-08
-3.926263048015243839e-07
-5.992134174448437989e-05
-2.246967414976097643e-05
-6.548521014337893575e-07
5.243056762083142530e-07
1.084294308384414762e-05
3.102036316704470664e-06
-1.386907229061762337e-07
-6.714548703712353017e-07
3.521798248584673274e-07
8.193857183869113214e-07
-2.022749322350136936e-05
-4.538091218364570523e-07
4.138102667639032006e-05
-8.375766810786444694e-06
-1.195110235130414367e-04
3.899422517861239612e-05
-1.344312022411031649e-05
-6.460032636823598295e-06
-5.506621673703193665e-04
-4.645884530418697977e-07
-3.004964855790603906e-05
-1.280408667980736936e-07
2.167020483057058300e-07
1.533389593078027247e-07
2.354163152631372213e-04
6.109267997089773417e-05
-9.628710984088684199e-08
-1.195090135297505185e-06
3.424875956170581048e-07
-1.119207627198193222e-05
-6.533884970849612728e-07
-2.901234950059006223e-07
5.981187314318958670e-07
3.407570829949690960e-07
1.643548785068560392e-05
-1.896416797535493970e-04
6.149463388283038512e-06
1.030430503305979073e-04
7.817021696610026993e-07
-4.803582100976200309e-07
-2.791948281810618937e-05
3.640258512405125657e-07
2.112604124704375863e-04
2.286939889017958194e-05
3.565550059647648595e-07
6.763927376596257091e-05
-2.014726874222105835e-08
2.158690506348648341e-07
5.031877847727628250e-08
-3.622418986992670398e-08
4.923186224914388731e-06
-9.562498348714143503e-08
-1.261440920643508434e-04
7.008282864262582734e-06
4.821155380341224372e-05
1.884287001985285315e-07
-1.713274286885280162e-07
-3.271687455708160996e-05
-1.157472524937475100e-06
3.231341736409376608e-07
5.982952188787749037e-06
1.226491440320387483e-05
-1.179101036541396752e-05
7.742797606624662876e-06
5.053329346083046403e-07
1.823416459956206381e-05
-5.713073392143996898e-07
2.649692554257399024e-08
3.560930679213925032e-07
8.885793931767693721e-07
-2.330277197870600503e-07
1.543620055599603802e-05
5.737286992371082306e-04
9.111804502026643604e-06
-3.707001815200783312e-05
-5.831255975863314234e-07
6.885993570904247463e-06
-8.435318886768072844e-05
-9.295158815803006291e-05
-1.148341034422628582e-04
-3.004787868121638894e-05
-2.772616198853938840e-07
2.099292469210922718e-04
-2.759715584943478461e-07
2.217084649203115987e-08
-8.349679774255491793e-07
1.984800765058025718e-04
-4.417460388594918186e-07
-2.697817399166524410e-05
-4.048680057167075574e-05
-7.726999342594353948e-07
6.829349104009452276e-07
1.140322183346142992e-05
-4.341503517935052514e-05
4.247675065016665030e-07
-3.995663462319498649e-07
-4.849455217481590807e-05
-3.771925112232565880e-04
2.086686799884773791e-05
-5.865456842002458870e-06
-2.118422344210557640e-07
7.777996984259516466e-07
-8.298368629766628146e-05
3.346528683323413134e-04
-6.853265688278042944e-08
6.100228056311607361e-04
9.397102257935330272e-05
7.534850396950787399e-07
2.606271591503173113e-04
-4.303674359107390046e-07
-5.181900633033365011e-07
2.195293404838594142e-07
-1.415184815414249897e-04
-8.521133736394403968e-07
1.811536662899015937e-07
-9.887286978482734412e-06
1.599031946852846886e-07
-3.663853647140058456e-07
1.307377033299417235e-07
7.638062379555776715e-05
1.181096763502864633e-06
-1.411576988630258711e-07
-6.930717790964990854e-05
-5.729459371650591493e-05
-1.743038410495501012e-05
6.787241346728478675e-08
5.942230473010567948e-06
7.389998586404544767e-07
-4.437999834294714674e-08
-4.095772112577833468e-07
6.599583866773173213e-05
7.823835090903230594e-08
1.613871631889196578e-06
-6.112472874519880861e-07
1.038000482367351651e-05
-3.768359988498559687e-07
4.082493887835880741e-06
5.254139523458434269e-07
7.645970754310837947e-07
9.760547254700213671e-05
-1.179512238991264894e-07
9.848782838162151165e-07
-2.254185710626188666e-05
8.296376472571864724e-05
3.757949161808937788e-04
-4.122194070532714250e-07
-4.532625462161377072e-05
-3.589856305552530102e-06
-1.275286012969445437e-05
-3.040020419575739652e-05
5.492454420163994655e-07
3.730300022652954794e-06
-5.020051503379363567e-07
2.596089325379580259e-04
-8.619708182777685579e-07
3.701008836287655868e-06
5.977535238343989477e-06
1.453114322202964104e-07
4.883455039816908538e-05
4.242053255438804626e-04
-3.136840689421660500e-07
2.297616883879527450e-04
-8.876327046891674399e-05
7.151010504458099604e-05
7.253177464008331299e-04
8.741828878555679694e-07
1.254229027836117893e-05
9.646513490224606358e-07
2.495810440450441092e-05
-8.649075766697933432e-07
3.489951438950811280e-07
-2.369325193285476416e-05
2.875967766158282757e-05
4.073972661444713594e-07
1.135855927714146674e-05
-7.716478194197406992e-07
6.406053785212861840e-07
-2.684813793507601076e-08
-4.144995473325252533e-04
-4.167042675362608861e-07
3.984934592153877020e-04
-9.962444664779468440e-07
1.008035542326979339e-04
-2.968596845676074736e-06
-9.678838353011087747e-08
1.908020385599229485e-05
1.671506737466188497e-07
-1.414114922226872295e-05
-7.234272629830229562e-07
6.040103926352458075e-06
-1.300063104281434789e-06
-8.787572447488400940e-09
1.011755799140701129e-07
4.540616646409034729e-05
1.881084899650886655e-04
1.763509658303519245e-07
7.677845559328488889e-08
1.708325580693781376e-04
3.259652658016420901e-05
9.034048707690089941e-05
3.589572588680312037e-05
-1.161036489065736532e-04
5.358015755518863443e-07
-6.627651032431458589e-07
2.520303269193391316e-06
-1.520847519032031414e-07
3.857411502394825220e-04
4.338178405305370688e-05
-1.240690835402347147e-06
-4.522154995356686413e-05
-1.094548770197434351e-05
-1.161101977231737692e-06
-2.407964814210572513e-07
7.911512511782348156e-07
6.358157406793907285e-05
-5.967237370896327775e-08
1.579279778525233269e-04
-7.007615204202011228e-05
1.438144039411781705e-07
-1.146622598753310740e-04
6.596552339033223689e-06
-2.074301482934970409e-05
2.686153857212048024e-05
-3.164299755553656723e-07
-9.479629625275265425e-06
-1.734760068927698740e-08
1.003324141493067145e-04
3.719780465871735942e-07
-2.219860846253141062e-07
4.603482739184983075e-05
-7.636045484105125070e-05
1.473670126870274544e-04
1.244734994543250650e-05
1.021653872612660052e-07
3.470266819931566715e-04
-2.153718523913994431e-04
3.911913495358021464e-07
-2.554161255829967558e-07
5.583491429206333123e-07
4.060627531998761697e-07
-1.300215899391332641e-05
5.079736453694749798e-08
9.718983164930250496e-07
-2.748241740846424364e-06
3.208390626241452992e-05
4.513074964052066207e-05
-5.239366146270185709e-06
-5.564767775467771571e-07
-4.873015495832078159e-05
-6.160639895824715495e-05
4.659760008962621214e-07
8.313920716318534687e-07
-4.716367584478575736e-06
-5.272587713989196345e-06
-8.629456971220861305e-08
-4.963508217770140618e-07
-7.638620900252135471e-07
-5.172049668544786982e-07
-2.342167717870324850e-04
-1.331958742412098218e-06
3.862410551391803892e-07
2.356655750190839171e-05
-1.582617551321163774e-04
2.499318543414119631e-05
-5.266043601181991107e-08
-9.231158060174493585e-07
-1.977494719085370889e-07
-1.030839484883472323e-07
7.837797747924923897e-04
-1.336285058641806245e-04
2.314084849786013365e-05
4.932920774081139825e-07
-6.524196214741095901e-05
-4.793394691660068929e-05
2.610335650388151407e-05
6.377251702360808849e-05
4.161003744229674339e-06
-1.697830884950235486e-05
1.098864856885484187e-07
2.429656342428643256e-05
1.838697158973445767e-07
4.447521462225267896e-07
1.627159576855774503e-06
-9.758074384080828167e-07
-1.336890272796154022e-04
-1.112755739995918702e-06
2.029055758612230420e-05
2.166626273947258596e-07
-1.062811065821733791e-06
2.601683954708278179e-04
6.823822332080453634e-05
-8.696251541095989523e-08
-2.219721864094026387e-05
3.765996723359421594e-07
3.632681853105168557e-07
-3.698541775065677939e-07
-2.714748188736848533e-05
-1.972853453935385915e-07
-2.409575099591165781e-04
1.491357306804275140e-05
2.135083741450216621e-05
-6.970852609811117873e-06
-1.251296168902626960e-07
2.062712519546039402e-05
-1.655176333770214114e-06
3.019774703716393560e-05
1.728847746562678367e-05
-2.083141453113057651e-06
-3.507015208015218377e-06
3.973043760652217316e-07
1.932943405336118303e-06
5.175654951017349958e-05
9.639472864364506677e-08
-2.197431749664247036e-04
6.863829753456229810e-07
2.261588233523070812e-04
-3.775857919663394568e-07
-3.508613372105173767e-05
-1.142104565587942488e-06
8.973385092758690007e-07
-7.234364574060236919e-08
6.943499784028972499e-07
9.380199372799324919e-08
1.288875850491422170e-08
1.265747073375678156e-06
-5.545527983485953882e-07
-5.199619045015424490e-05
-1.123953989008441567e-04
5.619120565825141966e-05
-2.183709739256300963e-06
-6.221708872544695623e-07
2.988859250763198361e-06
-7.737332339274871629e-07
-1.972906648006755859e-05
-1.844775994186420576e-07
-5.811245955555932596e-07
2.527734905015677214e-04
4.403784714668290690e-07
2.844894027020927751e-07
-1.618367787159513682e-05
-3.386180196685018018e-06
5.126918836140248459e-07
-5.210144809097982943e-05
3.875506081385537982e-06
-6.411833055608440191e-07
-5.088746092951623723e-06
-7.288073902600444853e-06
3.660940421923442045e-07
-1.802016100782566355e-07
-1.079692879102367442e-06
-3.545207860611299111e-08
2.444149629354797071e-07
-5.286573241392034106e-07
7.940625579294646741e-08
1.565137790748849511e-04
1.174820738469861681e-07
3.185436980857048184e-07
4.417452146299183369e-07
2.404584956821054220e-04
4.023338260594755411e-04
-4.202279626497329446e-07
-2.332631936496909475e-07
-1.518423147217617952e-07
-1.951466117589006899e-07
-1.055158023177682480e-07
-7.099097274476662278e-06
-3.416300169192254543e-04
1.400591713718313258e-07
-3.579004328457813244e-07
4.899278283119201660e-04
-5.577037427428876981e-07
5.801512656944396440e-07
7.234872327899211086e-07
-4.023201825020805700e-07
-1.532510395918507129e-06
3.652841371604154119e-07
-3.106803706032224000e-05
-2.107433601850061677e-06
8.537363100913353264e-07
-3.062807809328660369e-05
7.689695280532760080e-07
1.018929106066934764e-05
2.131065593857783824e-05
5.465797585202381015e-05
-6.470104949585220311e-07
2.304228655702900141e-05
1.195650725094310474e-07
9.612927897251211107e-06
2.422844991087913513e-04
9.996787184718414210e-07
8.466718281852081418e-05
3.290928134447312914e-07
-2.972786319332954008e-07
-4.411786721902899444e-05
5.902830525883473456e-05
4.773663135893002618e-07
-2.118670818163082004e-05
1.479377504438161850e-03
6.881674635224044323e-04
1.285665202885866165e-03
-9.356447776553977747e-07
3.055196721106767654e-04
8.811408188194036484e-04
4.776121045324543957e-07
-2.953744910882960539e-07
5.903114797547459602e-04
-2.010394979379270808e-07
-3.451266966294497252e-04
-2.037171782376390183e-07
-5.708214985133963637e-07
4.732362867798656225e-06
3.414014645386487246e-05
-2.648931740623083897e-06
-4.289570642868056893e-05
4.417473974172025919e-05
1.860321674485021504e-07
2.765700173767982051e-06
-2.310105082869995385e-05
-2.363168789543124149e-07
2.773455053102225065e-04
3.616994072217494249e-04
-7.857848913772613741e-07
1.881029305650372407e-07
-3.676917185657657683e-05
1.379372520204924513e-06
1.842478741309605539e-05
2.425654747639782727e-05
-1.742535573612258304e-07
2.648372901603579521e-05
-1.233315015269909054e-05
-8.103354957711417228e-06
1.200422484544105828e-04
-2.916959147114539519e-06
-5.381739853760336700e-08
1.402705092914402485e-04
-1.421228516846895218e-04
2.653261435625609010e-05
-5.249069090496050194e-07
1.066438244379241951e-06
-2.025162975769490004e-04
-1.095818902285827789e-07
1.248761236638529226e-07
4.805270918950554915e-07
1.612208579899743199e-04
-8.001340756891295314e-05
1.423361536581069231e-04
5.927528764004819095e-05
3.875625154137196660e-08
1.159936232397740241e-06
2.546719624660909176e-04
9.393590153194963932e-05
6.496850346593419090e-07
-1.540862285764887929e-04
-2.264970078158512479e-07
-6.294042691479262430e-07
5.072733983979560435e-07
3.271429250162327662e-06
-5.690158104698639363e-07
8.752736135875238688e-08
-1.225154846906661987e-05
4.520674337982200086e-05
-1.101068392017623410e-07
-3.795240672843647189e-07
-3.016832670255098492e-05
1.389634562656283379e-04
3.163954033880145289e-06
-6.946210305613931268e-06
-1.774342126736883074e-05
-2.954566298285499215e-05
1.676209103607106954e-05
-3.564870354466620483e-08
-1.584066340001299977e-04
7.779290172038599849e-05
-5.041613803768996149e-06
2.989003462516848231e-07
5.102000432088971138e-04
-1.171963958768174052e-06
1.548958789499010891e-05
-3.859892894979566336e-04
-3.459160211605194490e-07
-3.009507281603873707e-06
2.189825920595467323e-08
-4.879341730656960863e-08
-5.381960727390833199e-05
-6.885331345074519049e-07
-7.065577278808632400e-07
-1.591476603834962589e-07
-1.504503615024077590e-07
-1.322247271673404612e-07
2.086153017444303259e-06
-3.299606305517954752e-06
1.241442220134558738e-07
4.695371274010540219e-07
-2.629023185818368802e-07
2.506107250610511983e-07
-1.384118877467699349e-05
-6.064346962375566363e-05
3.929366698685043957e-07
-6.956984748285321984e-07
1.142412202170817181e-06
2.098257567695327452e-07
-5.408037040410818008e-08
-5.413606913862167858e-07
-6.304812245616631117e-07
4.647271794055995997e-07
3.532734808686655015e-06
-2.813457513184403069e-06
3.032508573141967645e-07
-3.507687722503760597e-07
4.295821725008863723e-07
2.157640182076647761e-07
-3.704033986196009209e-07
5.882075129193253815e-07
-1.214344447362236679e-04
-1.343076547755117645e-07
-4.685672683990560472e-05
7.770921115479723085e-07
-3.600635318434797227e-05
1.631687337066978216e-04
5.214463385527778883e-07
4.656846431316807866e-05
-1.388283180858707055e-05
1.304518955294042826e-04
-1.664779847487807274e-04
-3.195552199031226337e-05
-2.424626472929958254e-05
3.693855887831887230e-07
3.287883316716033733e-07
2.651513000273553189e-07
-6.593915031771757640e-07
2.727029198013042333e-07
-4.561974265016033314e-07
5.734218211728148162e-05
3.095824795309454203e-04
-2.033149939961731434e-04
-8.148472261382266879e-05
-2.804695213853847235e-07
-4.224228177918121219e-06
2.601221422082744539e-05
3.129082131181348814e-07
-5.816810153191909194e-05
3.121098852716386318e-04
-5.083616633783094585e-05
9.296211800347009557e-08
-7.712485228239529533e-08
5.138027745488216169e-07
1.024330504151294008e-05
-1.514784253231482580e-05
2.226329816039651632e-04
-6.976552668902513687e-08
-4.760722163155151065e-07
-6.050056526873959228e-06
3.506150678731501102e-04
5.615456188934331294e-07
1.056101682479493320e-04
8.429897206951864064e-06
-2.634492921060882509e-05
9.373011562274768949e-05
6.965156353544443846e-05
4.009992117062211037e-04
3.710874007083475590e-04
-8.862070188797588344e-09
3.400503774173557758e-04
-1.703119210105796810e-07
-3.911713406523631420e-07
3.749468078240170144e-07
8.376372861675918102e-04
-1.764750265920156380e-07
-6.468978826887905598e-04
5.679740411324019078e-07
-4.055909528233314632e-07
1.111692313315870706e-06
4.231528146192431450e-05
2.267753984597220551e-07
-1.441244563693544478e-07
-2.980464614665834233e-06
2.043367572923671105e-07
4.660420813706878107e-07
1.336166732812671398e-09
4.365200220490805805e-05
-3.976189191234880127e-07
-2.640771867845614906e-07
6.616647851842571981e-07
7.384660989373514894e-07
-2.105769817717373371e-05
-2.410453987522487296e-07
3.142523055430501699e-04
2.430698202715575462e-07
-1.796276592358481139e-05
4.449598782230168581e-05
-2.420742248432361521e-06
4.493744199862703681e-05
-2.973321215904434212e-07
4.634322863239503931e-07
-1.659053054936521221e-06
1.971434357983525842e-07
6.626393087572068907e-07
1.204462023451924324e-06
8.481569238938391209e-05
-3.757509603019570932e-06
1.519230281701311469e-04
-9.071826752915512770e-06
1.076273038052022457e-04
9.381214454151631799e-07
1.522184902569279075e-04
1.328322978224605322e-04
-2.259606901588995242e-07
-3.739513942946359748e-07
-5.570942818167168298e-08
-3.200350988663558383e-07
-3.533781978148908820e-07
4.631661067833192647e-05
-2.861086256800149386e-09
4.695120026099175448e-07
-1.038539210185263073e-07
2.930946152446267661e-07
2.415071378436550731e-07
-1.827959385991562158e-05
-3.121050394838675857e-05
2.250157849630340934e-04
-8.588162017986178398e-05
2.235201236544526182e-06
-3.616328569933102699e-07
3.495115308282947808e-08
7.356707556027686223e-06
-1.029722479870542884e-04
8.191735105356201530e-05
-5.007611889595864341e-07
6.359917460940778255e-05
-3.766194822674151510e-07
-2.623878714302918524e-08
-1.462599129808950238e-06
4.213723059365293011e-06
1.813614147749831318e-07
-5.907374088565120474e-06
5.355592293199151754e-06
-6.023577043379191309e-06
1.574183556840580422e-07
6.793544162064790726e-05
-2.930806886070058681e-07
-8.173335004357795697e-07
6.955216522328555584e-04
8.782283202890539542e-07
-1.096249707188690081e-05
-1.126027200371026993e-04
7.205720175988972187e-04
-3.950083637960233318e-08
3.179041377734392881e-04
3.786782326642423868e-05
-2.889250936277676374e-07
6.241808932827552781e-06
8.204183643556461902e-08
2.448516944753009739e-08
1.066135908445176028e-07
-4.830998818761145230e-07
-2.073444278494207538e-07
9.404132015333743766e-07
-4.699808187069720589e-07
-7.943995296955108643e-05
-3.433130757457547588e-07
-5.344014653019257821e-07
2.259287839478929527e-06
-4.530310491190903122e-07
2.083104482153430581e-04
1.458240058127557859e-05
4.240906150698720012e-07
1.187144607683876529e-05
7.824799104128032923e-05
7.782042666804045439e-05
1.075804466381669044e-04
-3.455732658039778471e-04
-1.303629051108146086e-05
2.193807013100013137e-04
-7.244774735681858147e-08
-4.799090547180639987e-08
2.428573395718558459e-07
2.862822475435677916e-05
3.317655057344381930e-07
3.227445404263562523e-07
1.810324756661430001e-04
-1.725528306906198850e-07
3.131345920337480493e-07
-4.914949022349901497e-05
1.841263474489096552e-05
-1.262325923789830995e-07
-2.372621383983641863e-05
7.673588129364361521e-07
-3.803017136760900030e-07
7.560991122090854333e-08
1.235958961842698045e-06
7.384206583083141595e-06
-4.011003329651430249e-05
7.089008136063057464e-07
-3.674821928143501282e-04
-2.921053408044826938e-07
1.192683953377127182e-06
3.682365843360457802e-07
-6.277776719798566774e-06
-1.216192613355815411e-04
-7.063826501507719513e-08
-4.427090971148572862e-06
-2.399515506112948060e-04
-2.557460175012238324e-05
1.703090646287819254e-07
-1.812027221603784710e-06
-2.513370236556511372e-05
3.972697015797166387e-07
1.100047697377704026e-07
1.642953861846763175e-07
1.499482605140656233e-04
