-4.407701268792152405e-02
1.118662655353546143e-01
2.708335220813751221e-02
-1.380275003612041473e-02
-1.001231297850608826e-01
-6.371042877435684204e-02
9.068798273801803589e-02
-1.017196029424667358e-01
7.826630771160125732e-02
-1.398700848221778870e-02
-8.476426452398300171e-02
-5.874581634998321533e-02
4.093475267291069031e-02
-1.399873383343219757e-02
-9.048472344875335693e-02
-2.182531170547008514e-02
-2.192311175167560577e-02
1.818883791565895081e-02
7.236398011445999146e-02
-5.360686779022216797e-02
7.128806412220001221e-02
-6.639997940510511398e-03
3.454139083623886108e-02
8.961786516010761261e-03
-6.864971667528152466e-02
-2.244577929377555847e-02
4.378586634993553162e-02
1.176954209804534912e-01
3.437562286853790283e-02
6.051288917660713196e-02
9.614410251379013062e-02
-1.140127927064895630e-01
3.737401217222213745e-02
-2.924104779958724976e-02
9.439640492200851440e-02
-8.268318325281143188e-02
1.114565730094909668e-01
7.781850174069404602e-03
-1.216525360941886902e-01
-2.035891823470592499e-02
3.629473596811294556e-02
-1.019026786088943481e-01
1.152686700224876404e-01
-2.527346089482307434e-02
1.203408017754554749e-01
-3.508044034242630005e-02
-3.655828908085823059e-02
3.685458377003669739e-02
-4.568437114357948303e-02
-9.663383662700653076e-02
9.586827456951141357e-02
-1.111573074012994766e-02
1.326942443847656250e-02
-7.413766533136367798e-02
3.272465616464614868e-02
-7.511436194181442261e-02
-1.193925589323043823e-01
7.327443361282348633e-02
6.816307455301284790e-02
-2.668076381087303162e-02
-2.625608257949352264e-02
-1.172563955187797546e-01
1.195514053106307983e-01
-7.442114502191543579e-02
