-1.264219079166650772e-02
-1.915285363793373108e-02
3.229202702641487122e-02
-3.829027339816093445e-02
1.614608243107795715e-02
-3.811797127127647400e-02
4.479654878377914429e-02
-3.972731903195381165e-02
1.371750142425298691e-02
-1.314946450293064117e-03
3.225367749109864235e-03
-1.502673141658306122e-02
-1.596956700086593628e-02
3.938797116279602051e-02
-2.004556916654109955e-02
2.106486819684505463e-02
1.922496035695075989e-02
-7.610890548676252365e-03
3.636012971401214600e-02
2.267520502209663391e-02
-1.224965974688529968e-02
7.385293487459421158e-03
4.499547556042671204e-02
-3.009706363081932068e-02
1.373678725212812424e-02
-3.547833487391471863e-02
-2.163872355595231056e-03
7.910467684268951416e-03
2.074350044131278992e-02
-3.503865003585815430e-02
3.726457431912422180e-02
3.144568949937820435e-02
1.287033781409263611e-02
-3.193043544888496399e-02
2.549602417275309563e-03
3.368797246366739273e-03
1.229672878980636597e-02
3.938471525907516479e-02
8.847610093653202057e-03
-4.378169775009155273e-02
3.128428384661674500e-02
-4.107581451535224915e-02
1.840526820160448551e-03
-3.403175622224807739e-02
-1.005058735609054565e-02
1.792984455823898315e-02
5.105240643024444580e-02
-1.864678412675857544e-02
-1.053419057279825211e-02
1.032078545540571213e-02
1.756341196596622467e-02
4.017197340726852417e-02
2.711515687406063080e-02
-1.332219783216714859e-02
2.580525167286396027e-02
-3.598709031939506531e-02
4.508591815829277039e-02
4.120900854468345642e-02
7.428785320371389389e-03
3.882867097854614258e-02
1.432561501860618591e-02
2.124410681426525116e-02
4.075185954570770264e-02
4.281647037714719772e-03
-3.572621941566467285e-02
-3.055381402373313904e-02
-2.670201659202575684e-02
3.019753284752368927e-02
2.079352363944053650e-02
-1.188174914568662643e-02
-2.776914089918136597e-02
2.131148800253868103e-02
-1.376028172671794891e-02
-1.138025242835283279e-02
1.029851567000150681e-02
9.574409574270248413e-03
8.862065733410418034e-04
-9.158725850284099579e-03
-3.706193296238780022e-03
2.553939074277877808e-02
4.017421603202819824e-02
1.248214952647686005e-02
-1.780788600444793701e-02
4.625446349382400513e-02
-3.521094471216201782e-02
-3.467231290414929390e-03
-3.039424307644367218e-03
-2.232824079692363739e-02
9.141230955719947815e-03
-4.252277687191963196e-02
2.699414454400539398e-02
-1.086367666721343994e-02
-3.240251913666725159e-02
-4.704002290964126587e-03
9.604789316654205322e-03
-1.322248019278049469e-02
4.048877954483032227e-02
9.215599857270717621e-03
-1.151550095528364182e-02
7.786032743752002716e-03
-2.617552876472473145e-02
-2.936703898012638092e-02
-1.951511017978191376e-02
-3.939155489206314087e-02
9.365104138851165771e-03
2.489153854548931122e-02
-3.416550159454345703e-02
-3.442468494176864624e-02
-9.427913464605808258e-03
-2.261358313262462616e-02
-5.636245477944612503e-03
-4.620212689042091370e-02
-7.876301184296607971e-03
-6.634272634983062744e-03
9.043305180966854095e-03
-3.995886817574501038e-02
5.987935699522495270e-03
4.163239896297454834e-02
8.417873643338680267e-03
-4.877543449401855469e-02
1.997716166079044342e-02
-1.805928535759449005e-02
-2.058058418333530426e-02
-3.507884591817855835e-02
-4.622432589530944824e-02
-2.866749279201030731e-02
3.238213807344436646e-02
2.290826477110385895e-02
-3.136981651186943054e-02
-1.752871461212635040e-02
2.352776564657688141e-02
-4.631999414414167404e-03
2.615337446331977844e-02
-3.869615495204925537e-02
1.679546013474464417e-02
-3.258822858333587646e-02
-1.262583769857883453e-02
-3.739013895392417908e-02
-3.741644695401191711e-02
1.275329384952783585e-03
1.496485434472560883e-02
3.703739121556282043e-02
1.103276573121547699e-02
-4.275353997945785522e-02
3.459190716966986656e-03
-4.682622849941253662e-02
-2.599675022065639496e-02
-1.931460388004779816e-02
2.822625637054443359e-02
-7.329164538532495499e-03
2.225373685359954834e-02
1.843698322772979736e-02
-4.300509393215179443e-02
-1.604640297591686249e-02
4.680743440985679626e-03
3.800982609391212463e-02
-2.188863791525363922e-02
-4.052107408642768860e-02
-1.299531757831573486e-02
2.748645097017288208e-02
-3.315900266170501709e-02
-4.158519580960273743e-02
1.576597802340984344e-03
-3.222524002194404602e-02
-4.499742761254310608e-02
-1.392409950494766235e-02
-3.464499861001968384e-02
-2.724586427211761475e-02
-2.933624491561204195e-04
-2.926442958414554596e-02
-2.740757539868354797e-03
2.441097609698772430e-02
1.700372062623500824e-02
-1.121738459914922714e-02
3.622866049408912659e-02
3.482545912265777588e-02
-1.216591056436300278e-02
9.329507127404212952e-03
-1.436806004494428635e-02
2.553708665072917938e-02
-3.348907455801963806e-03
2.998872287571430206e-02
-1.758061535656452179e-02
-2.277811057865619659e-02
2.647533454000949860e-02
2.342779934406280518e-02
4.144892841577529907e-02
4.282118380069732666e-02
4.863249137997627258e-03
-2.222498506307601929e-02
3.245255723595619202e-02
9.848262183368206024e-03
2.075547352433204651e-02
-2.928302995860576630e-02
2.583571895956993103e-02
-5.556800961494445801e-02
-1.856564730405807495e-02
-1.361636538058519363e-02
8.281135931611061096e-03
-4.381800536066293716e-03
-3.254576027393341064e-02
-7.098091300576925278e-03
4.150908067822456360e-02
2.600744133815169334e-03
1.343003287911415100e-02
1.165674906224012375e-02
7.939518429338932037e-03
2.330290153622627258e-03
-1.379548851400613785e-02
3.767337184399366379e-03
-3.835904598236083984e-02
1.361013576388359070e-02
1.617527194321155548e-02
-5.064261704683303833e-02
2.509454637765884399e-02
-2.134517021477222443e-02
-3.165466710925102234e-02
1.639475487172603607e-02
3.856954351067543030e-02
-2.266734838485717773e-03
-3.832592815160751343e-02
-2.627957239747047424e-02
-5.123943835496902466e-02
1.352098118513822556e-02
-4.271508008241653442e-02
2.038830518722534180e-02
2.302454086020588875e-03
3.824516898021101952e-03
3.933764994144439697e-03
-3.473018854856491089e-02
-8.656639605760574341e-03
3.411975875496864319e-02
3.518963232636451721e-02
-4.185484349727630615e-02
-1.951917802216485143e-04
3.462445363402366638e-02
-3.712866082787513733e-02
-1.654839143157005310e-02
5.885528400540351868e-03
-3.383404016494750977e-02
-2.243674173951148987e-02
-6.872233469039201736e-03
1.061938330531120300e-02
1.578181795775890350e-02
-2.229830622673034668e-02
-3.590406849980354309e-02
2.350610215216875076e-03
-2.281999215483665466e-02
-2.370866015553474426e-02
2.615588158369064331e-02
-2.231110353022813797e-03
3.733366727828979492e-02
2.350315824151039124e-02
4.003603477030992508e-03
6.075636018067598343e-03
4.510093480348587036e-02
-1.781003549695014954e-02
3.603236377239227295e-02
3.525341674685478210e-02
-4.462619870901107788e-02
4.536589980125427246e-02
-1.319778338074684143e-02
-1.591969653964042664e-02
-2.712315134704113007e-02
-3.483915328979492188e-02
3.433604538440704346e-02
-2.603278262540698051e-03
6.048427894711494446e-03
-3.552396222949028015e-02
-3.161554038524627686e-02
2.810791134834289551e-02
4.495311528444290161e-02
-4.514400288462638855e-02
2.861764654517173767e-02
3.129759058356285095e-02
4.534334316849708557e-02
-2.531424909830093384e-02
-8.514340966939926147e-03
-2.942350693047046661e-02
2.543957345187664032e-02
-1.340882480144500732e-02
-4.755692183971405029e-02
2.290578931570053101e-02
2.374488540226593614e-04
-3.593811020255088806e-02
2.994818799197673798e-02
-1.347010955214500427e-02
-1.350473519414663315e-02
-6.889685522764921188e-03
5.825548432767391205e-03
-3.314207866787910461e-02
-2.581261470913887024e-02
-1.847973465919494629e-02
-1.847922615706920624e-02
2.049514092504978180e-02
-7.144338451325893402e-04
4.261214751750230789e-03
9.469088166952133179e-03
-2.924226038157939911e-02
-2.816074900329113007e-02
-3.149961307644844055e-02
2.483542263507843018e-02
3.020277246832847595e-02
1.744288764894008636e-02
-3.175609931349754333e-02
-3.438632562756538391e-02
-3.982776030898094177e-02
-4.078054428100585938e-02
-4.007480293512344360e-02
1.378370076417922974e-02
9.770189411938190460e-03
1.933982782065868378e-02
1.680938899517059326e-02
-3.970868512988090515e-02
-4.054015502333641052e-02
-2.106223069131374359e-02
6.768552120774984360e-03
6.713990122079849243e-03
-2.670925110578536987e-03
-2.588718570768833160e-02
2.981097437441349030e-03
-8.301971829496324062e-04
-4.189469292759895325e-02
-2.055064402520656586e-02
-1.120161265134811401e-02
1.600607670843601227e-02
2.885822206735610962e-02
-3.315068315714597702e-03
-2.850697934627532959e-02
4.310891032218933105e-02
3.688469994813203812e-03
3.613888472318649292e-02
-3.362644463777542114e-02
2.068936266005039215e-02
-9.762782603502273560e-03
1.275376789271831512e-02
5.017914809286594391e-04
1.807337161153554916e-03
-3.772576746996492147e-04
3.414490073919296265e-02
-2.332898415625095367e-02
-1.838609576225280762e-02
8.472489193081855774e-03
-2.894243597984313965e-02
-5.184197332710027695e-03
-1.869581639766693115e-02
-2.656984888017177582e-02
-4.363214969635009766e-02
2.576022408902645111e-02
-3.343669325113296509e-02
-1.287505030632019043e-02
-9.764975868165493011e-03
-3.675760328769683838e-02
-2.514278050512075424e-03
2.086664550006389618e-02
-1.388870831578969955e-02
-3.425889089703559875e-02
2.929104119539260864e-02
-2.708850800991058350e-02
3.016480430960655212e-02
-2.635644748806953430e-02
-1.888807862997055054e-02
3.497516736388206482e-02
1.528985449112951756e-03
-2.302688919007778168e-02
-3.595326468348503113e-02
1.070118788629770279e-02
-1.943787746131420135e-02
1.920346915721893311e-02
2.981824800372123718e-02
4.008589684963226318e-02
-2.729705162346363068e-02
8.079010993242263794e-03
1.232188567519187927e-02
-3.874834999442100525e-02
-5.160738714039325714e-03
-1.352262403815984726e-02
2.489140257239341736e-02
2.575715631246566772e-02
-5.644341930747032166e-03
-2.460773475468158722e-02
-3.545275703072547913e-02
-1.208829134702682495e-02
-2.830878831446170807e-02
-1.562321558594703674e-03
-1.059226319193840027e-02
-2.606705948710441589e-02
3.850236162543296814e-02
-3.838470578193664551e-02
-3.480447689071297646e-03
-3.798901662230491638e-02
-7.066224236041307449e-03
2.212933637201786041e-02
3.409413620829582214e-02
3.732632845640182495e-02
-3.812085837125778198e-02
-2.171569503843784332e-03
-9.592553600668907166e-03
-4.814549908041954041e-02
-3.017091192305088043e-02
2.277146279811859131e-02
-4.475495219230651855e-02
-3.985879197716712952e-02
-4.121715575456619263e-02
3.476962074637413025e-02
2.917461097240447998e-02
2.315415814518928528e-02
-6.458953022956848145e-03
-1.009725686162710190e-02
-2.148799365386366844e-03
3.073640633374452591e-03
-1.961877569556236267e-02
1.224374864250421524e-02
-1.630121283233165741e-02
-1.048771012574434280e-02
-1.384999789297580719e-02
-2.493879385292530060e-02
-4.094535112380981445e-02
-1.983216963708400726e-02
-2.406518161296844482e-02
2.495994046330451965e-02
-2.670418657362461090e-02
1.471021678298711777e-02
2.336173318326473236e-02
-4.993417486548423767e-02
-5.950225517153739929e-03
1.303136628121137619e-02
1.094109937548637390e-02
3.020916320383548737e-02
1.786939054727554321e-02
2.294634096324443817e-02
-2.552249468863010406e-02
4.612486343830823898e-03
-2.547179535031318665e-02
2.020408213138580322e-02
-3.745083883404731750e-02
-2.228589169681072235e-02
2.604016847908496857e-02
3.385423496365547180e-02
1.887708343565464020e-02
1.480983383953571320e-02
4.769695922732353210e-02
2.280372008681297302e-02
2.263763546943664551e-02
-1.430254150182008743e-02
-1.081319712102413177e-02
2.827033214271068573e-02
2.984086796641349792e-02
-1.126707624644041061e-02
8.076943457126617432e-03
-3.247113898396492004e-03
-4.785648081451654434e-03
2.059356868267059326e-02
2.180829457938671112e-02
-8.793460205197334290e-03
-3.788962215185165405e-02
1.241056947037577629e-03
3.800097852945327759e-02
3.296345472335815430e-02
-1.166354678571224213e-02
3.423090651631355286e-02
-1.915277726948261261e-02
-1.451485045254230499e-02
1.245447713881731033e-02
-3.980765119194984436e-02
3.492396697402000427e-02
1.322684157639741898e-02
-4.772450774908065796e-02
-1.999257318675518036e-02
2.338166348636150360e-03
2.140463562682271004e-03
3.967450186610221863e-02
-3.376588691025972366e-03
-2.692658640444278717e-02
3.715933859348297119e-02
-1.949211023747920990e-02
-4.473605751991271973e-02
1.474321074783802032e-02
1.809020526707172394e-02
1.308615878224372864e-02
2.741129323840141296e-02
-3.367761522531509399e-02
-1.020573452115058899e-02
1.992653496563434601e-02
-2.269334159791469574e-02
-1.775163807906210423e-03
1.956945098936557770e-02
-8.642607368528842926e-03
2.150070294737815857e-02
1.031473511829972267e-03
1.641811832087114453e-04
1.208901987411081791e-03
1.935860328376293182e-02
-5.135377123951911926e-02
-4.420784860849380493e-02
3.633861243724822998e-02
-3.621248900890350342e-02
-4.370123147964477539e-02
5.198547150939702988e-03
-3.744297102093696594e-02
-2.604071283712983131e-03
1.857369579374790192e-02
-3.426989912986755371e-02
-2.548070438206195831e-02
-3.913626819849014282e-02
3.583321347832679749e-02
-2.919327095150947571e-02
-1.309278141707181931e-02
-4.031388834118843079e-02
-3.302595764398574829e-02
-1.562876813113689423e-02
9.158014319837093353e-03
2.060519531369209290e-02
-2.520114928483963013e-02
-3.269199654459953308e-02
1.136318221688270569e-02
-6.800153758376836777e-03
-1.145903859287500381e-02
-4.921104758977890015e-03
-2.356271073222160339e-02
-4.346551373600959778e-02
2.050251699984073639e-02
-4.302638769149780273e-02
1.971681974828243256e-02
7.145014591515064240e-03
-2.107774093747138977e-02
2.388780936598777771e-02
-6.388689507730305195e-04
-1.001679245382547379e-02
2.640127763152122498e-02
-2.756678126752376556e-02
-2.616071142256259918e-02
-3.994477540254592896e-02
3.871212899684906006e-02
1.949273049831390381e-02
1.969228498637676239e-02
4.651410505175590515e-02
1.914183609187602997e-02
-3.449638187885284424e-02
-1.721395552158355713e-02
-3.062522411346435547e-02
-2.979993075132369995e-02
9.507451206445693970e-03
8.523247204720973969e-03
-1.296586543321609497e-02
7.885685190558433533e-03
-1.408917829394340515e-02
-1.488489937037229538e-02
-4.460320249199867249e-02
2.963640540838241577e-02
-1.149301975965499878e-02
-6.957875099033117294e-03
-3.369540721178054810e-02
-1.463879551738500595e-02
-2.386306039988994598e-02
-1.679656282067298889e-02
3.724963963031768799e-02
-2.829257957637310028e-02
-2.803003229200839996e-02
3.570720925927162170e-02
-6.298481952399015427e-03
2.222889102995395660e-02
1.057908404618501663e-02
3.206589072942733765e-02
2.313923463225364685e-02
3.706171363592147827e-02
1.816363260149955750e-02
3.315438749268651009e-03
1.375058433040976524e-03
2.199309878051280975e-02
1.902870088815689087e-02
1.985441148281097412e-02
7.870364934206008911e-03
-3.117252327501773834e-02
-4.620618745684623718e-02
-4.073126241564750671e-02
-2.720311097800731659e-02
2.674802020192146301e-02
2.808146737515926361e-02
-9.313163347542285919e-03
-2.114849537611007690e-02
-3.780332207679748535e-02
1.361650228500366211e-02
4.057397693395614624e-02
2.992452494800090790e-02
1.514240354299545288e-02
-1.290842145681381226e-02
4.093545302748680115e-02
-3.233605250716209412e-02
9.138697758316993713e-03
-2.440783381462097168e-02
3.979206085205078125e-02
1.322611980140209198e-02
3.692308813333511353e-02
-3.372251987457275391e-02
2.702048234641551971e-02
2.340548299252986908e-02
-3.652714192867279053e-03
-3.802000731229782104e-02
2.247219532728195190e-02
-3.155058249831199646e-02
7.654586806893348694e-03
-1.941063627600669861e-02
7.005551829934120178e-03
1.939865760505199432e-02
-5.048425495624542236e-02
-1.637396775186061859e-02
-3.486451879143714905e-02
-2.438633702695369720e-02
-3.341442719101905823e-02
-1.820896007120609283e-02
8.779190480709075928e-03
4.563085734844207764e-03
8.848437108099460602e-03
2.849348075687885284e-02
-3.974383696913719177e-02
-9.716846048831939697e-03
-2.541789226233959198e-02
-1.938257738947868347e-02
-4.359596967697143555e-02
-2.748120203614234924e-02
-8.935426361858844757e-03
1.378603163175284863e-03
1.969106495380401611e-03
9.730485267937183380e-03
2.417870052158832550e-02
-1.265410054475069046e-02
-2.875252813100814819e-02
1.178095117211341858e-02
-4.101791605353355408e-02
-2.129700593650341034e-02
-5.894612520933151245e-03
2.959164790809154510e-02
-3.673514351248741150e-02
7.444379851222038269e-03
1.257443567737936974e-03
-3.484960272908210754e-02
-1.746122352778911591e-02
-1.166440453380346298e-02
4.340174794197082520e-02
-4.271378740668296814e-02
-4.008363187313079834e-02
2.730530314147472382e-02
-5.087625980377197266e-02
-3.357672598212957382e-03
1.211632043123245239e-02
2.881490858271718025e-03
3.607654199004173279e-02
2.957858331501483917e-02
3.575556352734565735e-02
2.140536904335021973e-02
6.806434597820043564e-03
1.078053493984043598e-03
6.589544937014579773e-03
2.541436813771724701e-02
-2.092359121888875961e-03
-3.655156493186950684e-02
-6.238090805709362030e-03
-3.649407625198364258e-02
-4.346847534179687500e-02
-2.174434438347816467e-02
7.412186358124017715e-03
-7.928355596959590912e-03
-2.252560667693614960e-02
2.832903712987899780e-02
-1.364893745630979538e-02
2.678782306611537933e-02
-2.166728518204763532e-04
-4.994746297597885132e-02
2.407477982342243195e-02
3.390170633792877197e-02
1.043503987602889538e-03
-1.858909497968852520e-03
-6.327930372208356857e-03
-3.660088032484054565e-02
-2.567816711962223053e-02
-2.429469488561153412e-02
1.381561718881130219e-02
6.242375355213880539e-03
2.775347791612148285e-02
5.100425798445940018e-03
-7.107661105692386627e-03
2.902345918118953705e-02
1.941727101802825928e-02
-2.963234670460224152e-02
2.821944281458854675e-02
5.443384405225515366e-03
6.562641356140375137e-03
3.324352949857711792e-02
-6.315368693321943283e-03
4.329015314579010010e-02
1.394367963075637817e-02
-3.823984041810035706e-02
2.350451983511447906e-02
1.608523912727832794e-02
-2.820579707622528076e-02
-3.157525137066841125e-02
9.320016019046306610e-03
-2.550115250051021576e-02
-3.851814940571784973e-02
-3.270393935963511467e-03
-3.199074044823646545e-02
2.334722783416509628e-03
-3.981550410389900208e-02
-2.612405642867088318e-02
-2.391439490020275116e-02
-3.681285306811332703e-02
4.114219546318054199e-02
1.205167081207036972e-02
2.272586338222026825e-02
-4.358375445008277893e-02
8.523366414010524750e-03
2.706899680197238922e-02
-1.854517846368253231e-03
1.764200441539287567e-02
-1.259380206465721130e-02
-2.328712865710258484e-02
-1.867505721747875214e-02
-7.747837342321872711e-03
-4.052682220935821533e-02
-2.367625571787357330e-02
3.393772616982460022e-02
2.887281030416488647e-02
4.130101203918457031e-02
-1.994413323700428009e-02
-3.205527365207672119e-02
-1.806990988552570343e-02
-1.352439261972904205e-02
8.681596256792545319e-03
3.718565776944160461e-02
1.373980101197957993e-02
-4.392957314848899841e-02
-2.986156754195690155e-02
-4.186706244945526123e-02
-1.583514176309108734e-02
1.110552996397018433e-02
-3.164954832755029202e-04
8.392307907342910767e-03
6.247954443097114563e-04
3.926968201994895935e-02
-2.082046493887901306e-02
3.061178699135780334e-02
-5.968911107629537582e-03
1.152409240603446960e-02
6.375398952513933182e-03
9.809910319745540619e-03
3.126312792301177979e-02
3.222127631306648254e-02
-4.028509929776191711e-02
6.807837635278701782e-03
2.653551287949085236e-02
-1.553690526634454727e-02
4.141217470169067383e-02
5.961829796433448792e-03
3.738831356167793274e-02
2.601278200745582581e-02
-1.044109277427196503e-02
-2.144340239465236664e-02
-1.218343339860439301e-02
2.160782180726528168e-02
6.074564880691468716e-04
-3.127807052806019783e-03
1.339248032309114933e-03
-3.804777190089225769e-02
2.476807311177253723e-02
6.285349372774362564e-03
4.028942808508872986e-02
8.296925574541091919e-03
-4.152312129735946655e-02
-1.686103083193302155e-02
-8.398477919399738312e-03
-3.663812298327684402e-03
1.442567910999059677e-02
-7.403824012726545334e-03
-8.254971355199813843e-03
2.579414471983909607e-02
-5.418073851615190506e-03
-3.552096337080001831e-02
-2.444862760603427887e-02
-1.292837504297494888e-02
5.409197416156530380e-03
1.385083538480103016e-03
-3.895376250147819519e-02
-8.563902229070663452e-03
1.788072660565376282e-02
6.820730865001678467e-03
-4.313619062304496765e-02
5.044664721935987473e-03
2.499755658209323883e-02
-5.380933638662099838e-03
-2.052222564816474915e-02
-3.832290321588516235e-02
3.922299668192863464e-02
3.639016672968864441e-02
-4.015554487705230713e-02
-4.554340615868568420e-02
-2.732320502400398254e-02
1.121216174215078354e-02
2.949889563024044037e-02
-2.969012409448623657e-02
-3.985707648098468781e-03
-3.880818188190460205e-02
-2.933346107602119446e-02
3.789510950446128845e-02
-4.981488734483718872e-02
9.075928479433059692e-03
-1.388936489820480347e-02
-3.228014102205634117e-03
3.511007502675056458e-02
1.257380377501249313e-02
-5.621591582894325256e-03
2.474105730652809143e-02
3.427108749747276306e-02
6.325236521661281586e-03
1.306372927501797676e-03
1.512486208230257034e-02
-2.548167482018470764e-02
7.342928554862737656e-03
1.846314966678619385e-02
-3.567161411046981812e-02
-6.137311924248933792e-03
-2.065857127308845520e-02
-1.880123454611748457e-04
-7.187784183770418167e-03
-3.052203170955181122e-02
1.461409498006105423e-02
-4.672949761152267456e-02
-5.883129313588142395e-03
2.203685604035854340e-02
8.521171286702156067e-03
1.012099441140890121e-02
1.106515713036060333e-02
7.524544373154640198e-03
2.016985043883323669e-02
-1.726065389811992645e-02
-3.660478815436363220e-02
-2.336394786834716797e-02
-1.757774129509925842e-02
-2.373300120234489441e-02
3.259985148906707764e-02
-8.873540908098220825e-03
-3.787349164485931396e-02
-3.875409066677093506e-02
-1.865427382290363312e-02
2.015832625329494476e-02
6.137476884759962559e-04
-3.712050989270210266e-02
1.915334910154342651e-02
3.753436356782913208e-02
-2.008704654872417450e-02
3.733607381582260132e-02
2.873441204428672791e-02
1.403219625353813171e-02
-2.698754658922553062e-03
5.649694707244634628e-03
3.920520097017288208e-02
1.946020498871803284e-02
1.112751755863428116e-02
-2.515432424843311310e-02
-1.029843464493751526e-02
-2.718941308557987213e-02
-2.709934860467910767e-02
-4.225264117121696472e-02
4.314370453357696533e-02
1.425160840153694153e-02
1.091258972883224487e-02
-1.591454818844795227e-02
2.771895937621593475e-02
4.874014109373092651e-02
-3.181206062436103821e-02
-1.844623871147632599e-02
-4.708366468548774719e-02
2.746737748384475708e-02
-9.714165702462196350e-03
2.335785329341888428e-02
5.736817605793476105e-03
-2.405703999102115631e-02
5.304950755089521408e-03
-4.463619738817214966e-02
3.653324022889137268e-02
2.853967947885394096e-03
-5.111152771860361099e-03
-3.601894527673721313e-02
3.098198212683200836e-02
3.215571492910385132e-02
1.902887597680091858e-02
5.644022021442651749e-03
-3.388049080967903137e-02
-2.567756734788417816e-02
-3.491899371147155762e-02
-3.694830834865570068e-02
-2.149873785674571991e-02
1.047307811677455902e-02
-1.949356519617140293e-03
8.814004249870777130e-03
4.059304296970367432e-02
-1.492480374872684479e-02
2.619408303871750832e-03
-1.341171376407146454e-02
2.299478463828563690e-02
-1.440947968512773514e-02
-2.707266435027122498e-02
-1.324919052422046661e-02
2.713814750313758850e-02
-1.559302862733602524e-02
8.360185660421848297e-03
-3.397887805476784706e-03
-3.626542910933494568e-02
-4.412640631198883057e-02
1.516536343842744827e-02
-2.456209808588027954e-02
2.689649164676666260e-02
-3.682172670960426331e-02
-2.353759715333580971e-03
-2.188540436327457428e-02
4.413238260895013809e-03
-1.718138530850410461e-02
2.636089175939559937e-02
-3.161073895171284676e-03
-4.067321494221687317e-02
-3.154514357447624207e-02
-2.037915401160717010e-02
-2.202599681913852692e-02
-2.723971568048000336e-02
-2.210678532719612122e-02
2.207974670454859734e-03
-1.662980206310749054e-02
-7.529603317379951477e-03
1.866919733583927155e-02
-1.025470555759966373e-03
3.315537795424461365e-02
1.700786128640174866e-02
3.138968721032142639e-03
-1.647746935486793518e-02
-3.210069239139556885e-02
7.585646584630012512e-03
2.844820544123649597e-02
2.770914696156978607e-02
-1.989609934389591217e-02
-1.030955836176872253e-02
9.123586933128535748e-04
-3.888799622654914856e-02
1.585146412253379822e-02
-3.595228865742683411e-02
-3.877100348472595215e-02
2.194999158382415771e-02
3.426024317741394043e-02
-1.141791231930255890e-02
-3.987437114119529724e-02
-3.809414803981781006e-02
-2.483263798058032990e-02
-4.556000977754592896e-02
9.859227575361728668e-03
1.276168599724769592e-02
7.319069933146238327e-03
-1.102181058377027512e-02
1.806978136301040649e-02
2.220193669199943542e-02
-1.156825758516788483e-02
1.260336139239370823e-03
-4.082622006535530090e-02
-3.241670504212379456e-02
1.066792383790016174e-02
1.300338562577962875e-02
1.993242464959621429e-02
1.119871996343135834e-02
-2.294235117733478546e-02
2.827332355082035065e-02
-5.106128286570310593e-03
-6.201602518558502197e-03
-4.375956580042839050e-02
-4.137323796749114990e-02
4.266852512955665588e-03
2.551418356597423553e-02
-9.180256165564060211e-03
-3.007010370492935181e-02
3.379279514774680138e-03
1.158555597066879272e-02
3.958558291196823120e-02
3.491770103573799133e-02
-4.706563800573348999e-02
9.743929258547723293e-04
4.112504422664642334e-02
-3.065617941319942474e-02
-9.254699572920799255e-03
6.588000804185867310e-03
1.935857720673084259e-02
-3.940324857831001282e-02
2.587571507319808006e-03
-3.969442099332809448e-02
1.466626999899744987e-03
2.048503793776035309e-02
-6.888672942295670509e-04
-2.315319515764713287e-02
7.182204164564609528e-03
-9.933644905686378479e-03
4.444651678204536438e-02
5.961514543741941452e-03
-1.291473954916000366e-02
1.666682213544845581e-02
-3.969898819923400879e-02
4.108447209000587463e-02
-1.608930900692939758e-02
5.228570662438869476e-03
4.058761149644851685e-02
2.662396058440208435e-02
4.182620719075202942e-02
-6.997786462306976318e-03
1.205476094037294388e-02
-2.311770990490913391e-02
3.594233468174934387e-02
2.041867002844810486e-02
3.567092493176460266e-02
-2.915856055915355682e-02
-2.003479190170764923e-02
4.159598145633935928e-03
3.668956458568572998e-02
-5.235649296082556248e-04
-3.261485695838928223e-02
4.792048595845699310e-03
-2.509271539747714996e-02
-2.513725683093070984e-02
-4.597802460193634033e-02
2.203687466681003571e-02
-1.094395853579044342e-02
-1.833698526024818420e-02
4.195053875446319580e-02
-3.924893215298652649e-02
-2.693637460470199585e-02
1.813212037086486816e-02
1.472312142141163349e-03
2.980265393853187561e-02
1.698195561766624451e-02
-1.875206269323825836e-02
-3.906020149588584900e-02
-3.279650211334228516e-02
4.638211429119110107e-02
2.148116193711757660e-02
3.811637312173843384e-02
3.213984018657356501e-04
2.579374052584171295e-02
2.162712253630161285e-02
2.566110715270042419e-02
3.615748509764671326e-02
-2.053289674222469330e-02
1.796440593898296356e-02
3.551584482192993164e-02
-1.454659359296783805e-04
3.254634141921997070e-02
-1.656989939510822296e-02
2.798036672174930573e-02
-2.083911187946796417e-02
-1.034603826701641083e-02
1.351673249155282974e-02
-3.362422063946723938e-02
-4.353757482022047043e-03
-4.201482515782117844e-03
4.584765806794166565e-02
-1.540446933358907700e-02
-1.258288323879241943e-02
-2.850355766713619232e-02
2.201166469603776932e-03
-4.432990774512290955e-02
3.493619710206985474e-02
1.265619322657585144e-02
3.507591411471366882e-02
-2.099132630974054337e-03
-2.375236898660659790e-02
1.234842091798782349e-02
-1.167576480656862259e-02
1.404521707445383072e-02
5.036828573793172836e-03
4.090343788266181946e-02
-2.504307776689529419e-02
-2.884832397103309631e-02
-3.696372732520103455e-02
-1.574306748807430267e-02
-4.437351226806640625e-02
-2.055527642369270325e-02
6.240647286176681519e-03
1.834673434495925903e-02
9.116153232753276825e-03
-3.359697014093399048e-02
3.403392061591148376e-02
-9.789516218006610870e-03
-1.051826402544975281e-02
-1.581046916544437408e-02
-4.435763880610466003e-02
-2.926328405737876892e-02
-2.158238552510738373e-02
2.522750571370124817e-02
-3.452977910637855530e-02
-2.125293016433715820e-02
-5.657898727804422379e-03
1.490029133856296539e-02
-4.311913624405860901e-02
-2.925784699618816376e-02
1.753456704318523407e-02
3.195145353674888611e-02
-4.293036088347434998e-02
-2.856782637536525726e-02
2.353179827332496643e-02
-1.458686869591474533e-02
-8.667341433465480804e-03
2.976688370108604431e-02
1.929377578198909760e-02
3.762077540159225464e-02
-3.635263070464134216e-02
3.900880739092826843e-02
1.425121352076530457e-02
-2.427257783710956573e-02
1.767979003489017487e-02
2.912825532257556915e-02
-2.699257060885429382e-02
3.283490240573883057e-02
-1.966570317745208740e-02
-2.291389368474483490e-02
4.234899207949638367e-02
-9.559421800076961517e-03
2.659360319375991821e-02
4.373868927359580994e-03
2.193195745348930359e-02
-4.326952621340751648e-02
3.628080338239669800e-02
3.248278424143791199e-02
-2.790819853544235229e-02
1.336502173217013478e-04
4.420975223183631897e-03
-2.263248898088932037e-02
2.548681385815143585e-02
1.396317617036402225e-03
-3.983496874570846558e-02
-1.819226704537868500e-02
-1.309741754084825516e-02
7.517382968217134476e-03
1.916254311800003052e-02
1.799741201102733612e-02
1.627587899565696716e-02
-4.397499933838844299e-02
1.392966136336326599e-02
-2.108925953507423401e-03
-1.799720525741577148e-02
3.503949614241719246e-03
-1.543564535677433014e-02
2.273823320865631104e-02
3.323042765259742737e-02
9.443027898669242859e-03
-3.303846344351768494e-02
-2.882966957986354828e-02
2.156645618379116058e-02
3.685839474201202393e-02
-1.139240060001611710e-02
-4.996814578771591187e-02
2.388032339513301849e-02
1.738238334655761719e-02
3.866591304540634155e-02
1.627413206733763218e-03
-1.406089123338460922e-02
1.254301518201828003e-02
3.266699984669685364e-02
5.643702577799558640e-03
3.456991165876388550e-02
2.433717017993330956e-03
-2.355810999870300293e-02
2.217873465269804001e-03
1.821239478886127472e-02
-6.963140796869993210e-03
2.071415539830923080e-03
3.707842528820037842e-02
2.002855390310287476e-02
-1.210468728095293045e-02
3.597205132246017456e-02
1.385742425918579102e-02
-4.173238947987556458e-02
-2.265192009508609772e-02
3.287341212853789330e-03
1.914744079113006592e-02
-3.567691519856452942e-02
-9.485854767262935638e-03
-2.859574928879737854e-02
-4.382262006402015686e-02
4.008933901786804199e-02
-3.095882013440132141e-02
1.499886251986026764e-02
2.752272225916385651e-02
-2.105444297194480896e-02
-1.700888015329837799e-02
-1.289022155106067657e-02
-6.237043999135494232e-03
-1.660851202905178070e-02
-1.536069251596927643e-02
-3.838543221354484558e-02
-2.253799699246883392e-02
-1.078337524086236954e-02
-3.860620036721229553e-02
3.449016064405441284e-02
1.072845142334699631e-02
1.157863717526197433e-02
-3.132129833102226257e-02
-2.836301224306225777e-03
3.154492378234863281e-02
1.863745413720607758e-02
3.819809481501579285e-02
1.935176434926688671e-03
-4.404779523611068726e-03
2.504612691700458527e-02
-3.285244852304458618e-02
2.031215652823448181e-02
2.581631951034069061e-02
-2.425820939242839813e-02
3.043043613433837891e-02
-4.398186504840850830e-02
3.187301754951477051e-02
3.013179078698158264e-02
-3.913275152444839478e-02
-3.120408952236175537e-02
-1.968111284077167511e-02
-6.397091783583164215e-03
2.477985806763172150e-02
3.016981482505798340e-02
3.040974214673042297e-02
9.759117849171161652e-03
1.426988746970891953e-02
-4.808489233255386353e-02
2.008052170276641846e-02
-1.987629383802413940e-02
-1.895442418754100800e-02
8.316195569932460785e-03
-3.461551293730735779e-02
-2.086838521063327789e-02
2.961988374590873718e-02
-1.764755137264728546e-02
-4.731146246194839478e-02
9.952028281986713409e-03
2.647048048675060272e-02
1.269368920475244522e-03
-3.538222983479499817e-02
1.328307855874300003e-02
1.249241735786199570e-02
-4.468034952878952026e-03
-2.096820808947086334e-02
2.085950924083590508e-03
2.237731032073497772e-02
1.374718826264142990e-02
-1.955518871545791626e-02
-4.515270888805389404e-02
2.642346732318401337e-02
3.092609904706478119e-02
-1.536206994205713272e-02
3.499093651771545410e-02
1.305257156491279602e-02
3.355736657977104187e-02
1.468530483543872833e-02
3.109029028564691544e-03
-4.996982589364051819e-02
-4.225133359432220459e-02
-2.440693601965904236e-02
3.480546548962593079e-02
2.035786863416433334e-03
1.390683464705944061e-03
-1.279282383620738983e-02
-1.329568773508071899e-02
-1.211112030432559550e-04
-1.768285781145095825e-02
2.633714303374290466e-02
-9.776762453839182854e-04
2.132035791873931885e-02
6.869602017104625702e-03
-2.152915485203266144e-02
1.577403396368026733e-02
2.504449151456356049e-02
2.240032330155372620e-02
2.312226034700870514e-02
2.432772703468799591e-02
1.937668956816196442e-02
3.919557854533195496e-02
-2.666713111102581024e-02
3.378792107105255127e-02
1.202550996094942093e-02
8.381050080060958862e-03
7.422011811286211014e-03
1.380189321935176849e-02
4.158942401409149170e-02
-2.849149517714977264e-02
-6.465051788836717606e-03
-1.426225411705672741e-03
3.068183548748493195e-02
-7.416854612529277802e-03
-7.905142381787300110e-03
2.426774986088275909e-02
1.411520037800073624e-02
3.437520191073417664e-02
-1.694134436547756195e-03
4.197777807712554932e-02
3.298361226916313171e-02
4.097112920135259628e-03
-1.019204501062631607e-02
-3.114885836839675903e-02
2.941507846117019653e-02
-2.815869450569152832e-02
-2.952047623693943024e-03
3.998816758394241333e-02
2.022552862763404846e-02
-1.635657623410224915e-02
1.581669412553310394e-02
1.537343952804803848e-02
1.321225333958864212e-02
-4.430409148335456848e-02
-1.790869573596864939e-04
4.862911999225616455e-03
1.017632428556680679e-02
-2.633352531120181084e-03
9.075478650629520416e-03
-2.125446498394012451e-02
-4.004048183560371399e-02
-3.260188549757003784e-02
2.072785608470439911e-02
-4.509759321808815002e-02
3.479427471756935120e-02
2.128627896308898926e-02
2.318321727216243744e-02
-1.869815774261951447e-02
2.439931593835353851e-02
8.355695754289627075e-03
-1.241488382220268250e-02
-1.517234835773706436e-03
3.705333545804023743e-02
3.203854709863662720e-02
3.324138745665550232e-02
-2.348096854984760284e-02
4.373360425233840942e-03
-4.782196134328842163e-02
1.248618215322494507e-02
-1.712802052497863770e-02
4.281779378652572632e-02
3.387737274169921875e-02
-3.193727135658264160e-02
-1.781819574534893036e-02
-3.310295939445495605e-02
5.743965506553649902e-03
-4.258687421679496765e-02
-2.557993307709693909e-02
3.349059727042913437e-03
-2.367330528795719147e-02
1.507849059998989105e-02
2.288844250142574310e-02
4.399336129426956177e-02
-1.063714828342199326e-02
-3.257566317915916443e-02
-5.467032268643379211e-02
-3.564864164218306541e-03
2.298845909535884857e-03
2.111055329442024231e-02
2.728713676333427429e-02
9.542962536215782166e-03
-3.499620407819747925e-02
3.788330405950546265e-02
-2.226777002215385437e-02
-4.224307462573051453e-02
2.336598932743072510e-02
1.166115328669548035e-02
-3.506417572498321533e-02
-4.505402967333793640e-02
3.508258983492851257e-02
1.929300138726830482e-03
-1.019773539155721664e-02
3.614945337176322937e-02
1.878444664180278778e-02
3.014462813735008240e-02
-4.232605546712875366e-02
7.050001528114080429e-03
-3.639262542128562927e-02
1.004514005035161972e-02
4.421575739979743958e-02
3.848309814929962158e-02
4.353098571300506592e-02
4.839778412133455276e-03
-3.255724161863327026e-02
1.105711515992879868e-02
1.922493241727352142e-02
-1.318593695759773254e-02
-1.952083036303520203e-02
3.548087179660797119e-02
1.678769476711750031e-02
-3.060834854841232300e-02
-7.911155931651592255e-03
-2.208588412031531334e-03
5.957136861979961395e-03
1.054793037474155426e-02
-3.543528169393539429e-02
-1.970946555957198143e-03
-2.461120858788490295e-02
-3.696356713771820068e-02
-1.696531660854816437e-02
-4.177535884082317352e-03
1.605124329216778278e-03
3.042704192921519279e-03
3.510479256510734558e-02
4.323226585984230042e-02
3.633110970258712769e-02
-7.536162738688290119e-04
1.547845266759395599e-02
2.950844913721084595e-02
-2.529550343751907349e-02
-1.072412542998790741e-02
-9.635930880904197693e-03
-2.131203562021255493e-02
-3.908848389983177185e-02
3.577788546681404114e-02
-9.136498905718326569e-03
2.453618682920932770e-02
-2.895709499716758728e-02
-3.401551395654678345e-02
6.113320123404264450e-03
-3.969212621450424194e-02
2.824980020523071289e-02
-1.316777989268302917e-02
2.249945700168609619e-02
-4.242676496505737305e-02
2.570691145956516266e-02
3.152180463075637817e-02
-2.840879186987876892e-02
-2.282675541937351227e-02
-2.988197468221187592e-02
1.667156815528869629e-02
-6.404851563274860382e-03
4.599836841225624084e-02
3.699879348278045654e-02
-2.918446995317935944e-02
-1.534756273031234741e-02
3.175856918096542358e-02
-4.481849074363708496e-02
-1.363395061343908310e-02
3.759991377592086792e-02
3.663624078035354614e-02
3.598464652895927429e-03
-4.545737057924270630e-03
1.633964851498603821e-02
4.534480161964893341e-03
-1.209492888301610947e-02
-2.674303576350212097e-02
-4.339844360947608948e-02
-3.718971088528633118e-02
-1.290297321975231171e-02
-3.340842202305793762e-02
1.025027316063642502e-02
-3.229847177863121033e-02
1.951529085636138916e-02
-1.457752659916877747e-02
-8.576754480600357056e-03
-3.237000433728098869e-03
9.213625453412532806e-03
8.124631829559803009e-03
1.203021407127380371e-02
2.724142931401729584e-02
2.680248580873012543e-02
-1.837288215756416321e-02
6.607001647353172302e-03
-3.401377797126770020e-02
-3.926790505647659302e-02
3.578059002757072449e-02
-2.057687006890773773e-02
-9.680084884166717529e-03
3.947481513023376465e-02
-2.513192780315876007e-02
-5.250818096101284027e-03
2.678608149290084839e-02
-3.378764539957046509e-02
1.010131277143955231e-02
-2.562525123357772827e-02
-6.751134991645812988e-03
-1.458428148180246353e-02
2.302787499502301216e-03
-1.587826642207801342e-03
-2.262664772570133209e-02
2.818957343697547913e-02
2.066641300916671753e-02
-2.939589507877826691e-02
-2.454428561031818390e-02
-9.969465434551239014e-03
-2.676890231668949127e-02
-9.749871096573770046e-04
2.807028777897357941e-02
-3.260846063494682312e-02
-2.784287370741367340e-02
2.838343195617198944e-02
-4.748108237981796265e-02
-9.566152468323707581e-03
4.961071908473968506e-02
3.942479938268661499e-02
2.206016331911087036e-02
3.797164186835289001e-02
-6.800486007705330849e-04
1.994316698983311653e-03
9.612419642508029938e-03
-3.131072968244552612e-02
5.689223762601613998e-03
-6.863458082079887390e-03
-1.796350255608558655e-02
-2.358339540660381317e-02
-2.007330954074859619e-02
-3.388164937496185303e-02
-4.501198604702949524e-02
-1.556252478621900082e-03
1.298256218433380127e-02
-1.955060288310050964e-02
1.422720775008201599e-02
3.623751923441886902e-02
2.124737948179244995e-02
3.259277343750000000e-02
-2.134516462683677673e-02
-4.951043426990509033e-02
2.010619640350341797e-02
-1.464433968067169189e-03
2.464346028864383698e-02
-2.449095994234085083e-02
-4.236361011862754822e-03
-1.659990474581718445e-02
-3.752907365560531616e-02
-2.342840470373630524e-02
-3.448311239480972290e-02
5.509240552783012390e-03
1.581072248518466949e-02
1.034276356222108006e-04
-1.993725821375846863e-02
-8.149222470819950104e-03
-2.409189008176326752e-02
1.299996394664049149e-02
4.043967928737401962e-03
8.104828186333179474e-03
-2.658425644040107727e-02
3.436014056205749512e-02
6.328105926513671875e-03
-3.756951913237571716e-02
7.375276181846857071e-03
-3.275169804692268372e-02
-5.211847368627786636e-03
-1.296275528147816658e-03
-2.616678923368453979e-02
-2.171876654028892517e-02
-4.300358518958091736e-02
-2.280619554221630096e-02
1.043847110122442245e-02
-1.897224411368370056e-02
1.119783241301774979e-02
-1.130730286240577698e-02
8.216622285544872284e-03
-1.367514673620462418e-02
2.925083972513675690e-02
4.436147958040237427e-02
-4.718215763568878174e-02
3.424920514225959778e-02
1.721490733325481415e-02
3.797586262226104736e-02
-9.981836192309856415e-03
3.782299160957336426e-02
1.788526028394699097e-02
4.278372973203659058e-03
3.331403806805610657e-02
2.066095545887947083e-02
-9.296003729104995728e-03
1.871238648891448975e-02
-3.180101141333580017e-02
-2.891232445836067200e-02
2.594850212335586548e-02
-5.233963951468467712e-02
-7.914311252534389496e-03
-1.921793632209300995e-02
-4.884832352399826050e-02
-4.666250571608543396e-02
-3.135151043534278870e-02
-2.674338594079017639e-02
2.896015532314777374e-02
-3.095734491944313049e-02
-3.633763268589973450e-02
-2.253549406304955482e-03
3.409584984183311462e-02
8.639699779450893402e-03
1.696721836924552917e-02
-1.642983406782150269e-02
-4.523614421486854553e-02
3.686361387372016907e-02
2.592287957668304443e-02
2.444120310246944427e-02
-1.999780070036649704e-03
1.045172102749347687e-02
1.339183561503887177e-02
-4.187497124075889587e-02
-7.013112772256135941e-03
1.038203947246074677e-02
7.987012155354022980e-03
1.804547756910324097e-02
4.858259635511785746e-04
-4.784468188881874084e-02
-1.187118049710988998e-02
-4.378032684326171875e-02
-3.372896835207939148e-02
2.479272522032260895e-02
-2.297760732471942902e-02
-8.266151882708072662e-03
-4.068114794790744781e-03
-4.028360918164253235e-02
-1.161910034716129303e-02
-2.071871422231197357e-02
-8.625539951026439667e-03
-3.604567050933837891e-02
1.764573343098163605e-02
-1.166404690593481064e-02
-2.152250707149505615e-02
-3.153613209724426270e-02
-2.947724610567092896e-02
-2.431756258010864258e-02
2.602261304855346680e-02
-2.290118299424648285e-02
1.591073907911777496e-02
-2.914580702781677246e-02
-2.601470239460468292e-02
4.002822563052177429e-02
3.029334917664527893e-02
-4.205974936485290527e-02
1.394109334796667099e-02
-1.633311808109283447e-02
-1.467571593821048737e-03
-2.003493532538414001e-02
-4.923075437545776367e-02
6.032373756170272827e-03
3.123845346271991730e-02
-4.251566529273986816e-02
-7.870152592658996582e-03
4.367518052458763123e-02
-9.744329378008842468e-03
-4.178719595074653625e-02
-4.432371631264686584e-02
1.677899621427059174e-02
1.119571924209594727e-02
-1.890809461474418640e-02
-1.790451630949974060e-02
-1.154189649969339371e-02
3.427040576934814453e-02
-2.845939807593822479e-02
-4.356371611356735229e-02
1.244090963155031204e-03
1.133609563112258911e-02
2.982799429446458817e-03
-1.738222502171993256e-02
-4.811718314886093140e-02
-5.271565169095993042e-02
-3.770356252789497375e-02
-6.888157804496586323e-04
3.340612631291151047e-03
3.815814107656478882e-02
6.136794574558734894e-03
-2.252828516066074371e-02
7.253814488649368286e-03
-4.249897599220275879e-02
2.190419472754001617e-02
2.930862084031105042e-02
-4.181851446628570557e-02
-2.361870184540748596e-02
-4.507326707243919373e-02
-1.033545704558491707e-04
3.983027487993240356e-02
-1.615824410691857338e-03
2.792057208716869354e-02
-2.205089852213859558e-02
2.347839809954166412e-02
-2.750306017696857452e-02
2.810284309089183807e-02
-1.272122934460639954e-02
-2.539765648543834686e-02
2.015789225697517395e-02
-3.170328214764595032e-02
3.724117204546928406e-02
-1.941785775125026703e-02
-1.769907539710402489e-03
9.740207344293594360e-03
2.147549996152520180e-03
6.030346266925334930e-03
1.250117830932140350e-02
1.139235775917768478e-02
-2.682176046073436737e-02
-1.500295009464025497e-02
1.717342250049114227e-02
1.933170296251773834e-02
1.724566519260406494e-02
-1.926925964653491974e-02
3.564827889204025269e-02
1.669283770024776459e-02
2.390250749886035919e-02
3.522932529449462891e-02
-8.551863953471183777e-03
2.041931636631488800e-02
-1.110902987420558929e-02
-3.917012363672256470e-02
3.948989789932966232e-03
1.800291426479816437e-02
-8.029064163565635681e-03
-7.525840774178504944e-04
-3.887120261788368225e-02
1.591658033430576324e-02
-2.960057230666279793e-03
3.550901263952255249e-02
2.355309203267097473e-02
3.035359457135200500e-02
-5.824610590934753418e-03
-3.328606113791465759e-02
-2.465423755347728729e-02
-9.249525144696235657e-03
5.475394893437623978e-03
-1.878408715128898621e-02
-3.129385784268379211e-02
-4.182348027825355530e-02
1.101005356758832932e-02
4.401877056807279587e-03
-3.903583064675331116e-02
-2.335147745907306671e-02
3.029029816389083862e-02
-4.174730926752090454e-02
-2.437700703740119934e-02
-1.349699310958385468e-02
2.858735807240009308e-02
3.318689763545989990e-02
1.253057736903429031e-02
-2.734884060919284821e-02
1.968943327665328979e-02
-2.778745628893375397e-02
-2.226491272449493408e-02
8.424492552876472473e-03
-2.089483849704265594e-02
1.413303986191749573e-02
2.804074436426162720e-02
-2.429044246673583984e-02
-9.644920937716960907e-03
-1.553050335496664047e-02
2.858649939298629761e-02
1.442451123148202896e-02
3.509696573019027710e-02
-4.081409797072410583e-02
-1.174471061676740646e-02
-3.978805989027023315e-02
3.986339643597602844e-02
-1.589291542768478394e-02
-5.207616090774536133e-02
3.255549073219299316e-02
1.312966179102659225e-02
3.233223780989646912e-02
-1.425414904952049255e-02
3.073765151202678680e-02
-2.277164161205291748e-02
-3.656387794762849808e-03
-3.957132250070571899e-02
2.467842213809490204e-02
-1.950597018003463745e-02
-3.902399539947509766e-02
-2.637991867959499359e-02
3.585646674036979675e-02
-3.779288753867149353e-02
3.636958077549934387e-02
6.262222770601511002e-03
-3.708231449127197266e-02
-1.886532641947269440e-02
-3.809710219502449036e-02
2.119603194296360016e-02
3.841951256617903709e-03
-4.109795764088630676e-02
-1.824954338371753693e-02
8.144340477883815765e-03
2.286098711192607880e-02
-2.306223101913928986e-02
1.578994095325469971e-02
5.458418745547533035e-03
1.645494438707828522e-02
-3.715447336435317993e-02
-3.813068196177482605e-02
1.692231744527816772e-02
3.180393576622009277e-02
1.964314281940460205e-02
4.863168112933635712e-03
1.290773507207632065e-02
-5.036654323339462280e-02
1.780711673200130463e-02
-5.634417757391929626e-03
1.448707282543182373e-02
6.286054383963346481e-03
2.511542476713657379e-02
1.640062965452671051e-02
-3.677018359303474426e-02
-1.754202507436275482e-02
1.116106938570737839e-02
-4.205998405814170837e-02
3.962295874953269958e-02
-3.613730147480964661e-02
-9.742760099470615387e-03
-4.391278699040412903e-02
2.061783894896507263e-02
2.279997430741786957e-02
2.268097922205924988e-02
-2.850893326103687286e-02
1.907008327543735504e-02
3.038180246949195862e-02
-2.159079723060131073e-02
1.279280520975589752e-02
-3.347105532884597778e-02
-2.370865643024444580e-02
-4.956021904945373535e-02
3.466503694653511047e-02
-2.140913903713226318e-02
3.725113719701766968e-02
9.849875234067440033e-03
-2.930440194904804230e-02
-2.445786260068416595e-02
6.960527971386909485e-04
-3.091201651841402054e-03
2.909627184271812439e-02
-2.093383297324180603e-02
-3.304915735498070717e-03
-2.708097361028194427e-02
-2.297194860875606537e-02
2.410135976970195770e-02
-1.278574485331773758e-02
1.116172969341278076e-02
1.584374532103538513e-02
-2.531822305172681808e-03
7.138787186704576015e-04
7.599421776831150055e-03
5.543190636672079563e-04
2.128853835165500641e-02
3.726374125108122826e-03
-2.172722248360514641e-03
2.793682180345058441e-02
-3.498587757349014282e-02
2.454958297312259674e-02
2.119847573339939117e-02
-5.023273639380931854e-03
2.750383689999580383e-02
2.368161082267761230e-02
3.123217029497027397e-03
3.220714256167411804e-02
1.832226477563381195e-02
9.433103725314140320e-03
2.534627681598067284e-03
-1.647372543811798096e-02
-2.341496990993618965e-03
-1.870892755687236786e-02
-1.223346684128046036e-02
-3.048624470829963684e-02
1.808287575840950012e-02
1.511322986334562302e-02
-2.287630178034305573e-02
4.038725048303604126e-02
-2.928332984447479248e-02
-3.895625472068786621e-02
1.559805963188409805e-02
2.800093777477741241e-02
-1.479210425168275833e-02
5.410446785390377045e-03
1.037390902638435364e-02
5.929409060627222061e-03
-5.167024955153465271e-02
3.823996335268020630e-02
3.531033545732498169e-02
2.262646891176700592e-02
2.998658642172813416e-02
-4.302199557423591614e-02
-6.071972195059061050e-03
2.647160552442073822e-03
1.634473912417888641e-02
8.270473219454288483e-03
8.258691057562828064e-03
-1.616004854440689087e-02
-2.301068790256977081e-02
-1.454058755189180374e-02
-1.220246031880378723e-02
-2.929192036390304565e-02
2.025482431054115295e-02
-8.468261919915676117e-03
-2.391948178410530090e-02
-1.261075958609580994e-02
3.016852773725986481e-02
-4.556157067418098450e-02
1.251199562102556229e-02
2.792964130640029907e-02
2.064776420593261719e-02
-3.964775428175926208e-02
2.717293566092848778e-03
1.851425692439079285e-02
2.505474165081977844e-02
-2.569445595145225525e-02
6.733226124197244644e-03
-2.811057493090629578e-04
-1.860799454152584076e-02
-2.076331339776515961e-02
2.255969494581222534e-02
-2.342914417386054993e-02
-2.287142723798751831e-02
9.562817402184009552e-03
3.578497841954231262e-02
9.818300604820251465e-04
-6.282025948166847229e-03
2.324857003986835480e-02
-1.701644621789455414e-02
2.529624849557876587e-02
-8.446529507637023926e-03
-1.519581023603677750e-02
2.498632296919822693e-02
-2.667581103742122650e-02
3.076557070016860962e-02
-4.491262137889862061e-02
-2.662582509219646454e-02
-5.945007782429456711e-03
8.103457279503345490e-03
-2.790202014148235321e-02
2.623988501727581024e-02
-1.905831880867481232e-02
-5.169253796339035034e-02
-4.276722297072410583e-02
-9.547072462737560272e-03
-1.361385220661759377e-03
2.824861370027065277e-02
2.021038904786109924e-02
-7.512595970183610916e-03
1.837810315191745758e-02
1.249385438859462738e-02
3.548824042081832886e-02
1.285975892096757889e-02
4.179915785789489746e-02
3.408606722950935364e-02
6.040313746780157089e-03
-1.990288868546485901e-02
2.614789083600044250e-02
-1.903793215751647949e-02
1.761392503976821899e-02
1.653439365327358246e-02
-2.205395326018333435e-02
3.795451298356056213e-02
-2.210406120866537094e-03
7.847819477319717407e-03
3.482800349593162537e-02
-1.565582118928432465e-02
5.792420706711709499e-04
-2.120067551732063293e-02
-2.131553739309310913e-02
-4.722955450415611267e-02
2.811009436845779419e-02
1.417177612893283367e-03
-4.761527292430400848e-03
-1.807696372270584106e-02
-3.889339417219161987e-02
-3.314366564154624939e-02
1.108917593955993652e-02
2.864073775708675385e-02
2.132117561995983124e-02
-3.725254535675048828e-02
3.770361468195915222e-02
-8.092784322798252106e-03
-2.136940322816371918e-02
1.694243401288986206e-03
-4.855735972523689270e-02
-4.915032535791397095e-02
7.083139847964048386e-03
-3.606186434626579285e-02
3.357124701142311096e-02
-4.512635618448257446e-02
1.585585996508598328e-02
1.405576709657907486e-02
-2.470199763774871826e-02
-3.323103301227092743e-03
-3.269843384623527527e-02
5.843685939908027649e-04
7.458236534148454666e-03
-1.042456366121768951e-02
-7.354123052209615707e-03
2.705634385347366333e-02
-3.452280163764953613e-02
-2.427237853407859802e-02
2.381217107176780701e-02
2.525801211595535278e-02
-3.493921086192131042e-02
-4.324743896722793579e-02
-4.971179738640785217e-02
2.982420101761817932e-02
2.005504071712493896e-02
1.088588405400514603e-02
2.114981785416603088e-02
-1.996732316911220551e-02
2.339707128703594208e-02
4.959948826581239700e-03
-4.317418485879898071e-02
7.189913187175989151e-03
4.296666011214256287e-02
-5.279734730720520020e-03
-2.889673225581645966e-02
2.522925287485122681e-02
2.925414592027664185e-02
-2.537148538976907730e-04
1.382002234458923340e-02
-8.235240355134010315e-03
1.051917951554059982e-02
-1.542195118963718414e-02
3.750962764024734497e-02
-1.682046614587306976e-02
-4.608411341905593872e-02
3.176073357462882996e-02
-3.180315019562840462e-03
6.112266331911087036e-03
9.970847517251968384e-03
-4.233539849519729614e-02
-3.612001659348607063e-03
-4.381233826279640198e-02
-3.011910803616046906e-02
-3.371350467205047607e-02
3.934932406991720200e-03
3.685907460749149323e-03
-4.692600294947624207e-02
-9.942444739863276482e-04
3.472540900111198425e-02
-4.233246203511953354e-03
2.485307492315769196e-02
-1.570776477456092834e-02
-7.149981800466775894e-03
1.898034103214740753e-02
1.018443703651428223e-02
2.369952946901321411e-02
-2.283405326306819916e-02
1.472295168787240982e-02
4.029892385005950928e-02
3.858778998255729675e-02
-2.854386530816555023e-02
2.490366995334625244e-02
-4.036287218332290649e-02
1.830841228365898132e-02
-1.786036998964846134e-03
-1.132195256650447845e-02
-4.047509655356407166e-02
3.592181578278541565e-02
-2.362817153334617615e-02
-3.124932013452053070e-02
6.498471484519541264e-04
-3.090833872556686401e-02
-1.835933327674865723e-02
2.530170977115631104e-02
-2.343592420220375061e-02
-2.558777341619133949e-03
-4.683279246091842651e-02
-2.294504456222057343e-02
6.203674711287021637e-03
-5.710661876946687698e-03
1.536256447434425354e-02
-9.514391422271728516e-03
2.521479688584804535e-02
6.537916604429483414e-03
-8.455649949610233307e-03
-2.686852775514125824e-02
-4.008590430021286011e-02
2.682676538825035095e-02
1.632313989102840424e-02
-8.313700556755065918e-03
3.022238798439502716e-02
-2.414725907146930695e-02
-4.409374669194221497e-02
1.507878862321376801e-02
-1.880655996501445770e-02
-3.821583464741706848e-02
-1.479221158660948277e-03
-3.311443328857421875e-02
-3.158817812800407410e-02
2.117239497601985931e-02
2.208091877400875092e-02
1.138483826071023941e-02
-2.723447978496551514e-02
-2.807289361953735352e-02
-4.136462137103080750e-02
-2.514518611133098602e-02
-4.800699651241302490e-03
-1.967975683510303497e-02
2.819548919796943665e-02
4.150248691439628601e-02
-7.735771941952407360e-04
-4.350138828158378601e-03
1.343339215964078903e-02
-3.651447221636772156e-02
2.512257546186447144e-02
-2.463892288506031036e-02
-2.922341227531433105e-02
-2.599821612238883972e-02
-2.884682454168796539e-02
1.433068700134754181e-02
1.686832122504711151e-02
4.362893477082252502e-02
3.536368533968925476e-02
-2.290807478129863739e-02
-9.079884737730026245e-03
-1.067405287176370621e-02
-5.394710972905158997e-02
2.036687731742858887e-02
-3.858754411339759827e-02
-4.218710213899612427e-02
-4.442074894905090332e-02
-3.781365975737571716e-02
2.178297843784093857e-03
3.903471305966377258e-02
7.706249132752418518e-03
5.818920210003852844e-03
-2.896994538605213165e-02
6.666002329438924789e-03
-2.170418389141559601e-02
-2.250984776765108109e-03
1.658473536372184753e-02
3.545238450169563293e-02
4.219694808125495911e-02
-3.863998129963874817e-02
1.520653627812862396e-02
-4.038183949887752533e-03
1.385310757905244827e-02
-1.797054894268512726e-02
1.916132308542728424e-02
4.455044865608215332e-03
2.272681705653667450e-02
9.845006279647350311e-03
-1.895396783947944641e-02
-8.267233148217201233e-03
-4.777591209858655930e-03
2.307362854480743408e-02
-2.359981462359428406e-02
1.115881279110908508e-02
-2.456939220428466797e-02
-1.489918678998947144e-02
-2.630780823528766632e-02
-3.099567722529172897e-03
-2.319438755512237549e-02
6.439692806452512741e-04
1.944288983941078186e-02
-3.527419269084930420e-02
2.633870579302310944e-02
-3.485753014683723450e-02
1.620098203420639038e-02
2.817077795043587685e-03
2.414992079138755798e-03
3.872956708073616028e-02
-1.221792399883270264e-02
1.366986799985170364e-02
1.454814057797193527e-02
2.201540861278772354e-03
1.414407417178153992e-02
1.470734365284442902e-02
3.930867463350296021e-02
3.141013905405998230e-02
-2.981742657721042633e-02
-3.704954311251640320e-02
-2.879456803202629089e-02
-9.235035628080368042e-03
4.472825303673744202e-02
-2.547346055507659912e-02
9.424702264368534088e-03
-2.910963632166385651e-02
1.189654320478439331e-02
-4.811676219105720520e-02
-2.472472935914993286e-02
-4.546207562088966370e-02
-1.117254421114921570e-02
-1.621362380683422089e-02
-2.529920265078544617e-02
3.846369311213493347e-02
-3.905713558197021484e-02
-4.365138709545135498e-02
3.485006093978881836e-02
2.698597125709056854e-02
-2.419074065983295441e-02
4.091776907444000244e-03
-7.585506886243820190e-03
-2.891087904572486877e-02
-2.388899400830268860e-02
-1.465560123324394226e-02
1.347589679062366486e-02
3.590659424662590027e-02
-1.814709231257438660e-02
-2.901381626725196838e-02
-3.714708611369132996e-02
4.636746831238269806e-03
4.852343723177909851e-02
-9.954069741070270538e-03
-7.919223979115486145e-03
2.026367373764514923e-02
5.064687575213611126e-04
5.285399965941905975e-03
-2.433166373521089554e-03
1.528844609856605530e-02
-3.890603408217430115e-02
2.193895913660526276e-02
3.029675036668777466e-02
-9.218829683959484100e-03
-1.255323179066181183e-02
1.221413537859916687e-02
-5.159018095582723618e-03
-2.415926661342382431e-03
1.086862850934267044e-02
-2.607014030218124390e-02
1.051558740437030792e-02
-1.115564070641994476e-02
2.426552586257457733e-02
-4.036482796072959900e-02
2.506516687572002411e-02
-3.233026340603828430e-02
3.313574194908142090e-02
-2.122440375387668610e-02
5.578665877692401409e-04
1.792553253471851349e-02
3.132892400026321411e-02
-3.754388540983200073e-02
2.440215460956096649e-02
3.307633474469184875e-02
7.185699418187141418e-03
-4.422427341341972351e-02
1.904270425438880920e-02
-4.184591397643089294e-02
-1.473313849419355392e-02
8.046335540711879730e-03
2.546148747205734253e-02
-2.364832721650600433e-02
1.184187736362218857e-02
8.422136306762695312e-03
1.493607275187969208e-02
-2.398156188428401947e-02
-3.036658465862274170e-02
-1.984003372490406036e-02
-1.382979005575180054e-02
-1.740565150976181030e-02
2.852527983486652374e-02
2.106446214020252228e-02
-3.734903037548065186e-02
-4.815101251006126404e-02
2.300520054996013641e-02
3.295080363750457764e-02
-4.288037121295928955e-02
3.368432447314262390e-02
1.999348402023315430e-02
-2.373186871409416199e-02
-7.496401667594909668e-03
1.973767764866352081e-02
1.297505944967269897e-02
-1.451143249869346619e-02
4.932905361056327820e-02
1.842816593125462532e-03
2.272575907409191132e-02
-1.772004552185535431e-02
1.090714242309331894e-02
1.612283056601881981e-03
1.880869828164577484e-02
-2.812808565795421600e-02
1.852280460298061371e-02
2.906013652682304382e-02
-3.215813636779785156e-02
3.803165256977081299e-02
4.083759151399135590e-03
2.468428015708923340e-02
-3.093255497515201569e-02
4.459831491112709045e-02
3.947481885552406311e-02
2.227804623544216156e-02
2.069588005542755127e-02
-2.517095766961574554e-02
-4.770613834261894226e-02
-2.428502403199672699e-02
-1.876677200198173523e-02
1.101809367537498474e-02
3.046968206763267517e-02
-2.498441841453313828e-03
-2.045840257778763771e-03
-4.540784284472465515e-03
1.162144076079130173e-02
3.000029362738132477e-02
-4.472904279828071594e-02
-1.823038607835769653e-02
-4.929731413722038269e-02
4.637402016669511795e-03
-6.052724202163517475e-04
-1.535936724394559860e-02
4.529168829321861267e-02
-3.930959478020668030e-02
-2.644249051809310913e-02
1.651434227824211121e-02
3.470028191804885864e-02
5.837226752191781998e-03
1.081504300236701965e-02
-4.087668657302856445e-02
-9.014489129185676575e-03
1.229468360543251038e-02
-2.492550294846296310e-03
4.044071584939956665e-02
-4.138222709298133850e-02
2.000926993787288666e-02
-3.768297284841537476e-02
-2.316833101212978363e-02
-3.235920891165733337e-02
-2.816300373524427414e-03
2.132462151348590851e-02
-3.439461439847946167e-02
-4.290749132633209229e-02
-4.135160148143768311e-02
1.675383374094963074e-02
3.648074343800544739e-02
-1.772608421742916107e-02
-5.575048178434371948e-02
2.783754654228687286e-02
7.126544369384646416e-04
2.931999415159225464e-02
2.913608588278293610e-02
1.099633798003196716e-02
-2.414371073246002197e-02
-2.856144495308399200e-02
-3.719946742057800293e-02
-4.900591075420379639e-02
-1.922845281660556793e-02
3.257919102907180786e-02
8.535526692867279053e-03
3.783487528562545776e-02
-2.612331695854663849e-02
-1.945351436734199524e-02
3.192125633358955383e-02
9.804846718907356262e-03
6.944509688764810562e-03
-1.980147697031497955e-02
-2.300294488668441772e-02
-3.392795473337173462e-02
-2.842754125595092773e-03
-1.670609414577484131e-02
-1.989807002246379852e-02
-2.751135453581809998e-02
1.410557609051465988e-02
3.350558504462242126e-02
1.314129866659641266e-02
9.793736040592193604e-03
-1.352544873952865601e-02
3.626006096601486206e-02
-1.795365661382675171e-02
-2.967252954840660095e-02
-4.616217687726020813e-02
2.849743235856294632e-03
-3.748662397265434265e-02
-2.855272777378559113e-02
-5.943583790212869644e-03
1.567068323493003845e-02
-4.089727252721786499e-02
-1.014993060380220413e-02
-2.273640828207135201e-03
-4.963250458240509033e-02
-4.705746099352836609e-02
3.542120754718780518e-02
3.402856737375259399e-02
2.347193285822868347e-02
2.956661581993103027e-02
-8.026105351746082306e-03
-2.978169824928045273e-03
-2.771110087633132935e-02
3.099064901471138000e-02
-3.630784898996353149e-02
-3.494785353541374207e-02
-3.513001650571823120e-02
2.039039507508277893e-02
-2.460845373570919037e-02
-3.158780187368392944e-02
9.010996669530868530e-03
-1.614842750132083893e-02
1.393917854875326157e-02
-4.841817077249288559e-03
2.280858345329761505e-02
-2.295732498168945312e-02
-2.800495922565460205e-02
2.171359397470951080e-02
-5.526960361748933792e-03
2.555946633219718933e-02
3.260281309485435486e-02
3.050396963953971863e-02
1.749502681195735931e-02
-2.413027361035346985e-02
-2.108297683298587799e-02
-2.101628668606281281e-02
1.450495235621929169e-02
2.847116440534591675e-02
3.764413669705390930e-02
-4.733192548155784607e-02
1.530682574957609177e-02
4.105517640709877014e-02
1.128743868321180344e-02
4.440211877226829529e-02
-3.372441977262496948e-02
1.909948885440826416e-02
-1.073331851512193680e-02
1.968325302004814148e-02
1.676298305392265320e-02
-2.984517626464366913e-02
1.719627901911735535e-02
3.605317696928977966e-02
-4.418573155999183655e-02
-1.978563517332077026e-02
-1.632971689105033875e-02
-1.385790877975523472e-03
-4.749367386102676392e-02
-4.129338264465332031e-02
2.271852456033229828e-02
-3.299674391746520996e-02
-1.925925724208354950e-02
2.712864615023136139e-02
2.549955807626247406e-02
7.480026222765445709e-03
-1.605793833732604980e-02
-1.213768869638442993e-02
4.288983717560768127e-02
-3.051054291427135468e-02
-2.438641898334026337e-02
-1.413783337920904160e-02
-3.602852299809455872e-02
4.027130082249641418e-02
-3.282652050256729126e-02
5.137310363352298737e-03
-3.409296646714210510e-02
7.992307073436677456e-04
1.766200177371501923e-02
4.144316911697387695e-02
-3.096355125308036804e-02
1.461739744991064072e-02
-2.449622564017772675e-02
6.626754533499479294e-03
4.125701636075973511e-02
-2.264078706502914429e-02
-2.658997476100921631e-02
9.930806234478950500e-03
-2.569499798119068146e-02
-2.735551074147224426e-02
-1.599912904202938080e-02
3.820712119340896606e-02
1.336107775568962097e-02
3.058881685137748718e-02
-4.064443707466125488e-02
-2.390461787581443787e-02
-1.375510450452566147e-02
-3.717375174164772034e-02
-2.203212119638919830e-02
1.747252978384494781e-02
-2.144901081919670105e-02
-1.179503183811903000e-02
-3.680116310715675354e-02
3.090755082666873932e-02
1.537668984383344650e-02
1.595430821180343628e-02
2.108838222920894623e-02
3.297526016831398010e-02
-3.637069603428244591e-03
1.300628576427698135e-02
-1.554162520915269852e-02
-4.788647592067718506e-02
-7.689928170293569565e-03
2.712598815560340881e-02
3.755455464124679565e-02
-4.294358566403388977e-02
1.297132577747106552e-02
3.941571339964866638e-02
3.302719816565513611e-02
3.392563760280609131e-02
-2.076749503612518311e-02
3.938251640647649765e-03
-1.051245443522930145e-02
3.752769902348518372e-02
-8.549438789486885071e-03
-2.840757742524147034e-02
4.099306091666221619e-02
1.036846777424216270e-03
-8.717816323041915894e-03
-1.890148967504501343e-02
-2.738456055521965027e-02
-5.826860666275024414e-03
1.672821491956710815e-02
-3.184681758284568787e-02
-1.704684644937515259e-02
-2.509969286620616913e-02
-3.099049068987369537e-02
-5.269044544547796249e-03
-2.066646004095673561e-03
-2.504289150238037109e-02
2.611761726438999176e-02
1.645268313586711884e-02
2.125152200460433960e-02
1.007525343447923660e-02
-2.773635834455490112e-02
-2.053948678076267242e-02
-2.864219993352890015e-02
8.691041730344295502e-03
-3.890541940927505493e-02
-3.022105619311332703e-02
-3.528984636068344116e-02
-3.067166730761528015e-02
2.228607609868049622e-02
2.051545865833759308e-02
2.755424566566944122e-02
-3.357223048806190491e-02
-2.114290557801723480e-02
-1.994759310036897659e-03
2.550991810858249664e-02
3.019814006984233856e-02
-4.557322338223457336e-02
-3.550729155540466309e-02
-1.361749507486820221e-02
-3.949923813343048096e-02
-2.294856496155261993e-02
-2.358779497444629669e-02
-3.968929126858711243e-02
-3.757005929946899414e-02
-1.751461811363697052e-02
2.686391025781631470e-02
-2.325804531574249268e-02
3.266842570155858994e-03
-1.463552843779325485e-02
-3.789386898279190063e-02
-3.775423765182495117e-02
-3.870968520641326904e-02
5.229047033935785294e-03
2.748157083988189697e-02
1.321178581565618515e-02
1.949187554419040680e-02
-3.035744302906095982e-04
1.916284114122390747e-02
2.328930422663688660e-02
-4.081313312053680420e-02
-3.846576809883117676e-02
1.407808437943458557e-02
-4.806901887059211731e-02
-5.005941912531852722e-02
-2.788334526121616364e-02
-1.461743935942649841e-02
-3.030564822256565094e-02
1.676106825470924377e-02
4.779783776029944420e-04
3.051167540252208710e-02
3.304195031523704529e-02
1.863647252321243286e-02
8.910901844501495361e-03
2.628310211002826691e-02
-2.808263525366783142e-02
-3.189279511570930481e-02
-1.402370282448828220e-03
-5.092434957623481750e-02
4.901560768485069275e-02
-2.890900336205959320e-02
2.180160582065582275e-02
1.918270811438560486e-02
2.092485688626766205e-02
7.581730838865041733e-03
1.753336936235427856e-02
-3.298855200409889221e-02
6.911796517670154572e-03
-4.315103217959403992e-02
1.176309073343873024e-03
-2.885968424379825592e-02
-2.207191661000251770e-02
4.287123214453458786e-03
-1.987944357097148895e-02
-3.571220487356185913e-02
2.691615186631679535e-02
3.005912341177463531e-02
1.645299792289733887e-02
-9.858993813395500183e-03
4.761393181979656219e-03
-2.433500438928604126e-02
-3.338081017136573792e-02
2.252222970128059387e-02
-3.013269975781440735e-03
3.507390990853309631e-02
-2.422334067523479462e-02
3.454123390838503838e-03
-2.504996210336685181e-02
2.402471192181110382e-02
-2.492468990385532379e-02
-2.603593841195106506e-02
-1.325906068086624146e-02
-1.277743745595216751e-02
4.542747884988784790e-02
3.066281601786613464e-02
3.525301441550254822e-02
-2.112254500389099121e-02
3.259757161140441895e-02
-2.815206721425056458e-02
-1.531596388667821884e-02
-3.248907998204231262e-02
-2.423184551298618317e-02
-1.328911352902650833e-02
1.748295617289841175e-04
9.108502417802810669e-03
1.552726898808032274e-04
-2.133814617991447449e-02
-3.171443939208984375e-02
-4.105781204998493195e-03
-1.521284598857164383e-02
-1.712812110781669617e-02
-4.275388270616531372e-02
1.507362257689237595e-02
4.324648901820182800e-02
-1.004142314195632935e-02
6.623757537454366684e-03
-4.771289415657520294e-03
-1.035966561175882816e-04
2.065334282815456390e-02
9.629909880459308624e-03
-1.808857731521129608e-02
-1.035600621253252029e-02
-1.932146400213241577e-02
4.710100218653678894e-02
-4.747613519430160522e-02
-4.792883619666099548e-02
-1.938117295503616333e-02
4.589716345071792603e-02
4.236439615488052368e-02
-1.003300491720438004e-02
-2.349281311035156250e-02
-2.341579413041472435e-03
2.738806046545505524e-02
-1.558954361826181412e-02
-1.599352993071079254e-02
1.432392187416553497e-02
-4.698790609836578369e-02
-1.366366911679506302e-02
2.992607280611991882e-02
-6.880312226712703705e-03
3.982464969158172607e-02
4.967573285102844238e-02
-6.430274341255426407e-03
-2.805238775908946991e-02
-3.342322632670402527e-02
3.234463278204202652e-03
3.293840214610099792e-02
-1.231991779059171677e-02
1.914932951331138611e-02
-3.376251086592674255e-02
9.831061586737632751e-03
3.343913704156875610e-02
3.298312798142433167e-02
3.926611319184303284e-02
1.592889986932277679e-02
3.433131054043769836e-02
-2.283663488924503326e-02
-1.761718839406967163e-02
-1.521507184952497482e-02
5.650334525853395462e-03
-3.821178898215293884e-02
3.023921325802803040e-02
1.716281287372112274e-02
-2.235984615981578827e-02
-1.200895872898399830e-03
4.636762291193008423e-02
-1.996049657464027405e-02
-1.780281960964202881e-02
2.113294787704944611e-02
3.331321850419044495e-02
9.376417845487594604e-03
-2.827573195099830627e-02
-6.347102113068103790e-03
-4.411495476961135864e-02
1.656018721405416727e-04
-3.665765002369880676e-02
-2.124934084713459015e-02
2.103447169065475464e-02
2.702046185731887817e-02
1.784784602932631969e-03
-1.915472373366355896e-02
-1.321094669401645660e-02
-1.353158522397279739e-02
1.921662501990795135e-02
7.135368883609771729e-03
-2.647453919053077698e-02
1.386799477040767670e-02
2.650217153131961823e-02
-2.908653020858764648e-02
1.686553470790386200e-02
-5.474533885717391968e-03
4.094169416930526495e-04
-3.865760564804077148e-02
3.964399546384811401e-02
-2.076402865350246429e-02
1.784886047244071960e-02
-1.444707717746496201e-02
-7.840225473046302795e-03
1.101144682615995407e-02
-8.696189150214195251e-03
-8.797952905297279358e-03
-1.431505940854549408e-02
-8.221703581511974335e-03
-1.061785779893398285e-02
1.291280519217252731e-02
-3.873720020055770874e-02
-2.747121825814247131e-02
-2.570356056094169617e-02
-1.171534974128007889e-02
3.439831733703613281e-02
7.871576584875583649e-03
3.176150470972061157e-02
1.758890599012374878e-02
-1.169510278850793839e-02
-4.084913432598114014e-02
2.960375323891639709e-02
-2.153566852211952209e-02
-3.025587275624275208e-02
-2.595555782318115234e-02
-3.310046717524528503e-02
2.922199293971061707e-02
1.999932155013084412e-02
-6.524402182549238205e-03
-2.646416425704956055e-02
3.267214819788932800e-02
-4.001476615667343140e-02
2.824521507136523724e-04
3.012323752045631409e-02
-2.573203109204769135e-02
1.506020035594701767e-02
5.841817241162061691e-03
3.021813742816448212e-02
4.617875441908836365e-02
-2.818570705130696297e-03
3.054639324545860291e-03
2.252283506095409393e-02
1.488497667014598846e-02
-1.298659387975931168e-02
-4.311342909932136536e-02
3.840668871998786926e-02
-3.922585025429725647e-02
1.242312788963317871e-02
-1.590722240507602692e-02
2.781256660819053650e-02
-3.208054602146148682e-02
-3.976970538496971130e-02
-4.507915675640106201e-02
6.400602404028177261e-03
-4.714780487120151520e-03
-2.700721472501754761e-02
2.226613927632570267e-03
9.782003238797187805e-03
9.578407742083072662e-03
-1.945655979216098785e-02
-2.770588733255863190e-02
-2.023317106068134308e-02
2.991416864097118378e-02
1.066780090332031250e-02
-1.990254968404769897e-02
-8.404665626585483551e-03
-8.082129061222076416e-03
4.644954577088356018e-02
-1.747716404497623444e-02
-4.044025763869285583e-02
1.134156435728073120e-02
-3.789087384939193726e-02
-1.424163859337568283e-02
-3.623611107468605042e-02
-1.317840907722711563e-02
-2.406455576419830322e-02
2.546231634914875031e-02
-3.913944959640502930e-02
-3.877286240458488464e-02
2.578790672123432159e-02
-2.441408671438694000e-02
2.454309351742267609e-02
-3.997252508997917175e-02
3.607961535453796387e-02
-2.017674781382083893e-02
-1.681225001811981201e-02
-6.942938547581434250e-03
-5.078771337866783142e-02
-4.660988226532936096e-02
-2.697407081723213196e-02
4.409771040081977844e-02
1.121815107762813568e-02
-4.044288396835327148e-02
-1.632595993578433990e-02
-5.080240778625011444e-03
4.207316786050796509e-02
3.889829292893409729e-02
3.028394654393196106e-02
-1.043249294161796570e-02
-2.637563832104206085e-02
2.083468623459339142e-02
2.393498457968235016e-02
2.984306588768959045e-02
-2.350951917469501495e-02
-4.001614823937416077e-02
-3.296821191906929016e-02
-1.385017763823270798e-02
-3.909029811620712280e-02
-1.118767540901899338e-02
6.046480033546686172e-03
-2.732800552621483803e-03
3.360330592840909958e-03
-2.705578878521919250e-02
-1.183568747364915907e-04
3.258809819817543030e-02
2.518354356288909912e-02
1.446631457656621933e-02
7.056859903968870640e-04
2.849386259913444519e-02
-3.828646242618560791e-02
1.681701466441154480e-02
-3.371974080801010132e-02
7.382654584944248199e-03
3.361137956380844116e-02
-2.696830965578556061e-02
7.640923373401165009e-03
-3.441487252712249756e-02
1.592551171779632568e-02
4.713970050215721130e-02
-1.241391897201538086e-02
-5.342736374586820602e-03
-4.480510950088500977e-03
4.360726475715637207e-02
-1.565370708703994751e-02
-1.221760176122188568e-02
4.189110547304153442e-02
2.064377442002296448e-02
2.291975310072302818e-03
-7.507070433348417282e-03
2.521799178794026375e-03
-3.996289148926734924e-02
-1.044084783643484116e-02
-8.168394677340984344e-03
1.068911887705326080e-02
-3.425452858209609985e-02
2.619579993188381195e-02
-3.760733082890510559e-02
-4.866915754973888397e-03
-4.725520312786102295e-02
-1.345999073237180710e-02
-2.761343121528625488e-02
3.172144293785095215e-02
9.128373116254806519e-03
-3.980962559580802917e-02
2.513945102691650391e-02
2.080908231437206268e-02
-3.415113082155585289e-03
-3.100929036736488342e-02
2.229187451303005219e-02
8.397689089179039001e-03
-3.681146353483200073e-02
-4.534023627638816833e-02
-1.613539829850196838e-02
2.458441816270351410e-02
-3.785770758986473083e-02
2.456432580947875977e-02
3.346120193600654602e-02
-2.386894822120666504e-02
-5.779491737484931946e-03
-3.129894658923149109e-02
1.486269291490316391e-03
4.510107915848493576e-03
-3.678729757666587830e-02
-2.005224116146564484e-02
2.350101061165332794e-02
2.338497340679168701e-02
7.575992029160261154e-03
-3.094602609053254128e-03
1.528228726238012314e-02
-2.525237202644348145e-02
-3.960544243454933167e-02
-1.750770607031881809e-03
2.017577737569808960e-02
-9.636078961193561554e-03
1.113801263272762299e-02
3.099848888814449310e-02
3.337305411696434021e-02
-1.693979464471340179e-02
1.451324578374624252e-02
3.051269566640257835e-03
-1.476276014000177383e-02
1.516750268638134003e-02
2.338567562401294708e-02
-3.073522448539733887e-02
1.889613643288612366e-02
1.278498582541942596e-02
1.790916919708251953e-02
3.318512812256813049e-02
3.824884071946144104e-02
2.816447615623474121e-02
-2.215210162103176117e-02
-1.320165395736694336e-02
-8.703338913619518280e-03
3.649637475609779358e-02
7.442141883075237274e-03
1.243438757956027985e-02
-2.388616837561130524e-02
-4.632164200302213430e-04
3.998247906565666199e-02
-2.579420804977416992e-02
1.656318828463554382e-02
2.351264469325542450e-02
-2.622994594275951385e-02
-1.814216747879981995e-02
1.281074061989784241e-02
-6.958323530852794647e-03
-1.585336960852146149e-02
-1.569192670285701752e-02
-2.537199296057224274e-02
-1.635255664587020874e-02
-1.219430007040500641e-02
2.343037910759449005e-02
-2.206443622708320618e-02
3.137580305337905884e-02
-2.879218012094497681e-02
-1.483201887458562851e-02
-1.953434944152832031e-02
-1.995324855670332909e-03
4.734016489237546921e-03
-4.323719535022974014e-03
-2.510036155581474304e-02
-4.993603378534317017e-02
-3.408378362655639648e-02
-2.322741597890853882e-02
2.729929424822330475e-02
1.811299123801290989e-03
1.117885462008416653e-03
7.143567781895399094e-03
4.269791021943092346e-02
1.838862523436546326e-02
5.422762478701770306e-04
3.925661370158195496e-02
4.368092922959476709e-04
1.648999378085136414e-02
-1.149497274309396744e-02
6.765798199921846390e-03
3.892570361495018005e-02
3.159740939736366272e-02
-7.045042701065540314e-03
2.449572086334228516e-03
-2.676904574036598206e-02
2.563216164708137512e-02
5.951846018433570862e-03
6.134841591119766235e-03
-1.800520718097686768e-02
-3.159310296177864075e-02
3.144251927733421326e-02
-3.466190537437796593e-03
-2.833127416670322418e-02
-1.980712264776229858e-02
-4.805090278387069702e-02
-3.553068032488226891e-03
4.270932078361511230e-02
-2.111811749637126923e-02
-4.634184017777442932e-02
1.035027392208576202e-02
4.738014657050371170e-03
-2.071670629084110260e-02
-4.360740631818771362e-02
1.479137223213911057e-02
-1.329516712576150894e-02
9.921322343870997429e-04
-2.956517599523067474e-02
-2.814611606299877167e-02
-2.696565352380275726e-03
7.224811706691980362e-03
8.554090745747089386e-03
3.514839336276054382e-02
2.436754107475280762e-02
-9.427301585674285889e-03
1.390586979687213898e-02
-4.147729277610778809e-02
-3.351721540093421936e-02
2.212596684694290161e-02
-3.229719400405883789e-02
-8.506311103701591492e-03
2.864566259086132050e-02
-7.681948773097246885e-05
8.197072893381118774e-03
5.752485245466232300e-03
1.974427513778209686e-02
-1.625407370738685131e-03
-3.291337564587593079e-02
3.971397411078214645e-03
-3.296016901731491089e-02
9.786428883671760559e-03
1.028222963213920593e-02
1.920493878424167633e-02
-1.277701277285814285e-02
8.324195630848407745e-03
-3.274554386734962463e-02
-1.266793906688690186e-02
-3.904175758361816406e-02
-2.880729176104068756e-02
-1.159191946499049664e-03
1.915101706981658936e-02
3.401268273591995239e-02
1.027487963438034058e-02
-4.151801764965057373e-02
1.672072522342205048e-02
-1.196167990565299988e-02
-2.188433893024921417e-02
5.395741754909977317e-05
-8.792939595878124237e-03
2.129449136555194855e-02
-1.119538396596908569e-02
2.427552454173564911e-02
3.377289697527885437e-02
2.122529782354831696e-02
3.100423701107501984e-02
-2.910625562071800232e-02
3.182936832308769226e-02
5.690291058272123337e-03
2.776794834062457085e-03
3.443373739719390869e-02
-5.002863472327589989e-04
-3.719222173094749451e-02
-3.337252885103225708e-02
-2.024518325924873352e-02
-4.324050992727279663e-02
2.229721657931804657e-02
1.714992336928844452e-02
3.116608224809169769e-02
-1.689931377768516541e-02
-4.358915239572525024e-02
-2.668659016489982605e-02
-1.870758831501007080e-02
3.630191087722778320e-02
-7.467617746442556381e-03
-5.267195031046867371e-02
9.244939312338829041e-03
-4.033364355564117432e-02
-5.452250596135854721e-03
1.280651707202196121e-02
-2.835293859243392944e-02
2.570609375834465027e-02
1.348049752414226532e-02
1.397452689707279205e-02
-9.500138461589813232e-03
-3.556703031063079834e-02
-2.618428692221641541e-02
1.433638669550418854e-02
-3.128004446625709534e-02
-2.536608465015888214e-02
-2.112426236271858215e-02
1.987969875335693359e-02
2.640547417104244232e-02
3.929239884018898010e-02
-1.805302686989307404e-02
-2.766292355954647064e-02
-1.388909853994846344e-02
3.283482743427157402e-03
2.105366624891757965e-02
-1.048410777002573013e-02
1.468695979565382004e-02
-2.654417604207992554e-02
-2.278368175029754639e-02
2.364794164896011353e-02
-4.207593202590942383e-02
-4.493051394820213318e-02
-5.106225982308387756e-02
4.234837368130683899e-03
6.372869014739990234e-03
-4.796197637915611267e-02
-2.479254081845283508e-02
4.468451067805290222e-02
-3.672404214739799500e-02
-4.154131188988685608e-02
7.955485954880714417e-03
8.791837841272354126e-03
-3.443739563226699829e-02
3.607919439673423767e-02
2.754838392138481140e-02
-4.134469106793403625e-02
-8.246743120253086090e-03
-8.278776658698916435e-04
-2.951760962605476379e-02
-1.063810382038354874e-02
-2.655501663684844971e-02
-2.722377330064773560e-02
-1.747522875666618347e-02
-4.463778808712959290e-03
-1.017742231488227844e-02
1.295658666640520096e-02
1.326195802539587021e-02
-1.008547376841306686e-02
3.572721034288406372e-02
-3.403858467936515808e-02
-2.162523567676544189e-02
3.526593372225761414e-02
-3.973628580570220947e-02
-3.594129905104637146e-02
-2.936736494302749634e-02
1.244095899164676666e-02
7.737075793556869030e-04
-4.703689366579055786e-02
3.268058970570564270e-02
1.178109832108020782e-02
-2.461881004273891449e-02
-4.310777783393859863e-02
-3.136223927140235901e-02
-3.402730450034141541e-02
-2.993019530549645424e-03
1.834133826196193695e-02
-3.398893028497695923e-02
1.171966642141342163e-02
-2.855507656931877136e-02
3.571570664644241333e-02
2.828895859420299530e-02
1.083912234753370285e-02
5.731824319809675217e-03
2.564929611980915070e-02
-2.377063594758510590e-02
2.365784347057342529e-02
-3.022972494363784790e-02
-3.579825535416603088e-02
1.084089092910289764e-02
2.676182985305786133e-02
-3.148779273033142090e-02
-2.132250927388668060e-02
-4.504422843456268311e-02
1.272941939532756805e-02
-3.857874497771263123e-02
2.741827256977558136e-02
-7.418673951178789139e-03
1.389834284782409668e-02
4.729945212602615356e-03
-3.361789882183074951e-02
4.211751371622085571e-02
-1.093797478824853897e-02
-4.028054699301719666e-02
6.215045694261789322e-03
-1.170105580240488052e-02
2.118096686899662018e-02
-6.485797464847564697e-03
-5.226003378629684448e-02
-2.280749194324016571e-02
-2.745171450078487396e-02
-2.091536112129688263e-02
-1.251881849020719528e-02
-1.126969419419765472e-02
-1.334049738943576813e-02
-2.568500675261020660e-02
-1.336858887225389481e-02
2.800351008772850037e-02
1.894377917051315308e-02
4.254619404673576355e-02
2.129190601408481598e-02
-1.526160351932048798e-02
3.249922767281532288e-02
-3.921769186854362488e-02
3.151166439056396484e-02
-1.378252357244491577e-02
-4.419576004147529602e-02
-1.815472845919430256e-03
-2.261446061311289668e-04
-3.581814095377922058e-02
-3.479881584644317627e-02
1.746586710214614868e-02
-2.429675310850143433e-02
-3.712275996804237366e-02
-2.370557747781276703e-03
1.927917939610779285e-03
-3.212737664580345154e-02
-1.759629882872104645e-02
-1.682837307453155518e-02
-1.913793617859482765e-03
2.625327743589878082e-02
4.402227699756622314e-02
-1.469630934298038483e-02
1.944396272301673889e-02
-2.830252423882484436e-02
3.391404077410697937e-02
1.234727632254362106e-02
-1.750451698899269104e-02
-1.263880915939807892e-02
-2.152774296700954437e-02
-5.207530222833156586e-03
-2.875632978975772858e-02
-2.967424690723419189e-02
-3.141753748059272766e-02
-1.857582479715347290e-02
-3.566663712263107300e-03
-2.920699864625930786e-02
-7.352100685238838196e-03
1.128009893000125885e-02
-9.495231322944164276e-03
-1.150334998965263367e-02
1.666610129177570343e-02
1.827613450586795807e-02
-4.624874331057071686e-03
1.707337237894535065e-02
-3.955439850687980652e-02
-7.065956015139818192e-04
-1.474086847156286240e-02
2.014513872563838959e-02
-1.141120400279760361e-02
3.685057396069169044e-03
9.623807854950428009e-03
1.384284254163503647e-02
-8.642349392175674438e-03
2.004538848996162415e-02
-3.160360455513000488e-02
8.895965293049812317e-03
8.149569854140281677e-03
-2.158868126571178436e-02
-3.078870102763175964e-02
2.858577109873294830e-02
3.322575241327285767e-02
-3.205063939094543457e-02
1.991996727883815765e-02
2.055813930928707123e-02
2.664122357964515686e-02
-1.166350580751895905e-02
1.584673859179019928e-02
4.096601530909538269e-02
-3.113126382231712341e-03
-3.419557958841323853e-02
-1.631759187148418278e-05
-3.390717506408691406e-02
5.713926162570714951e-03
1.595499366521835327e-02
1.211107894778251648e-02
-1.599645614624023438e-02
-4.722194001078605652e-02
-4.102026671171188354e-02
1.235640887171030045e-02
-4.411778971552848816e-02
2.785478159785270691e-02
-2.977589843794703484e-03
2.831100299954414368e-02
4.887676239013671875e-02
3.831134177744388580e-03
-5.167942121624946594e-02
-5.571297835558652878e-03
-5.261225253343582153e-02
-1.485583651810884476e-02
2.882893942296504974e-02
-1.377257239073514938e-02
-3.462858498096466064e-02
2.380377240478992462e-02
-4.107183590531349182e-02
2.915984019637107849e-02
3.771348856389522552e-03
2.276324480772018433e-02
4.102495498955249786e-03
-3.640815848484635353e-03
-2.456799335777759552e-02
-3.050662204623222351e-02
4.027458373457193375e-03
-1.929005607962608337e-02
-4.036157578229904175e-02
-7.907232269644737244e-03
-3.924490511417388916e-02
5.530729889869689941e-03
4.444861039519309998e-02
7.146448479034006596e-04
1.014083437621593475e-02
1.536103524267673492e-02
-2.425011619925498962e-02
-3.943159803748130798e-02
-4.062297567725181580e-02
-2.990198507905006409e-02
3.197411075234413147e-02
2.957148849964141846e-02
-5.152477324008941650e-02
-9.959511458873748779e-03
3.770525380969047546e-02
-4.866044595837593079e-02
-3.464721888303756714e-02
1.089579518884420395e-02
-1.062875706702470779e-02
-3.438541665673255920e-02
9.319571545347571373e-04
-2.099060919135808945e-03
-4.847267700824886560e-04
-4.812979698181152344e-02
3.678572922945022583e-02
-4.480479657649993896e-02
-4.611156508326530457e-02
3.368046367540955544e-03
4.068805649876594543e-02
-2.359325438737869263e-02
2.259450592100620270e-02
8.284403942525386810e-03
9.801080450415611267e-03
-3.376876562833786011e-02
-3.944709524512290955e-02
-1.050859130918979645e-02
-2.027465263381600380e-03
2.650079689919948578e-02
2.846904471516609192e-02
-9.783879853785037994e-03
5.508209764957427979e-02
2.890446223318576813e-02
4.350142553448677063e-02
-3.022693097591400146e-02
3.070492483675479889e-02
-1.438985113054513931e-02
6.656095385551452637e-03
-2.674386836588382721e-02
-3.728937357664108276e-02
-1.947253011167049408e-02
-1.288235653191804886e-03
-1.619826257228851318e-02
-3.135602921247482300e-02
-4.014857485890388489e-02
2.499587833881378174e-02
2.620038017630577087e-02
-1.531601650640368462e-03
-1.934809610247612000e-02
-2.778047509491443634e-02
3.159816563129425049e-02
-3.238261118531227112e-02
-1.798003353178501129e-02
-4.209981299936771393e-03
-6.483119912445545197e-03
-2.460714802145957947e-02
8.013499900698661804e-03
3.195133060216903687e-02
3.580427542328834534e-02
-2.111907303333282471e-02
-2.557032927870750427e-02
-3.493295237421989441e-02
2.032985538244247437e-02
-2.690798602998256683e-02
-2.758867805823683739e-03
-3.909681364893913269e-02
-8.433076553046703339e-03
-4.338030144572257996e-02
1.368564274162054062e-02
-3.133607655763626099e-02
-2.105324901640415192e-02
-1.182959787547588348e-02
-4.990987107157707214e-02
-1.243423949927091599e-02
-7.228283211588859558e-03
-4.666946083307266235e-02
-9.309895336627960205e-03
-2.121218480169773102e-02
7.877605035901069641e-03
-4.005537554621696472e-02
3.988661617040634155e-02
-4.489861056208610535e-02
3.571874275803565979e-02
6.514178123325109482e-03
-3.397786617279052734e-02
2.130463905632495880e-02
-1.142476219683885574e-02
-3.736635670065879822e-02
3.921689465641975403e-02
-8.727364242076873779e-03
1.820983551442623138e-02
-3.976511210203170776e-02
2.786280587315559387e-02
4.093699622899293900e-03
2.779089473187923431e-02
-3.640699014067649841e-02
7.227790541946887970e-03
6.946844514459371567e-03
2.670939266681671143e-02
3.505944833159446716e-02
-4.711401090025901794e-02
3.630065359175205231e-03
-9.506943635642528534e-03
1.140835508704185486e-02
-3.679224103689193726e-02
4.711704328656196594e-03
-3.202622756361961365e-02
-4.535606130957603455e-02
-1.280228979885578156e-02
3.254707204177975655e-03
4.353678598999977112e-02
-2.321017207577824593e-03
-1.599806360900402069e-02
2.793173305690288544e-02
-3.823564201593399048e-02
-1.483863964676856995e-02
2.254544757306575775e-02
2.569563873112201691e-02
-3.173488378524780273e-02
-3.871083632111549377e-02
3.005989082157611847e-02
-1.288738660514354706e-02
-4.552219063043594360e-02
2.752845734357833862e-02
1.177600771188735962e-02
1.760623045265674591e-02
-6.210095249116420746e-03
-1.826489344239234924e-02
3.437325358390808105e-02
-2.505844458937644958e-02
-2.734449133276939392e-02
3.810425475239753723e-02
3.625151142477989197e-02
1.184869650751352310e-02
3.577937185764312744e-02
2.469145692884922028e-02
1.176153891719877720e-03
2.176545560359954834e-02
2.904694899916648865e-02
-2.918778173625469208e-02
-2.553464658558368683e-02
-1.569309644401073456e-02
2.892649732530117035e-02
2.935341931879520416e-02
-1.043463964015245438e-02
-2.876860462129116058e-02
1.532027684152126312e-02
3.026371635496616364e-02
8.833521045744419098e-03
3.807752951979637146e-02
-2.890596725046634674e-02
8.186655119061470032e-03
2.915859781205654144e-02
3.408636525273323059e-02
-4.626503586769104004e-02
9.957057423889636993e-03
-3.140014782547950745e-02
1.182527164928615093e-03
1.336316671222448349e-02
-3.433869406580924988e-02
-4.309382662177085876e-02
-3.927157819271087646e-02
-2.381636761128902435e-02
-1.427147909998893738e-02
-4.268361255526542664e-02
3.996246308088302612e-02
-3.182068839669227600e-02
-7.855558767914772034e-03
-1.901628263294696808e-02
-1.428490690886974335e-02
-5.442734435200691223e-02
1.451739575713872910e-03
-3.406911715865135193e-02
2.021419256925582886e-02
-2.930932445451617241e-03
-1.458263956010341644e-02
2.567864209413528442e-02
3.147101774811744690e-02
-2.735028602182865143e-02
1.703897677361965179e-02
1.307608280330896378e-02
1.401667948812246323e-02
-2.167018875479698181e-02
-4.256633110344409943e-03
-5.122731998562812805e-02
-1.915663480758666992e-03
2.432844042778015137e-02
1.229584682732820511e-02
-1.698552630841732025e-02
1.248971652239561081e-02
2.424200065433979034e-02
1.741579174995422363e-02
1.742332056164741516e-02
-1.381104229949414730e-03
-4.502851143479347229e-02
-1.286101061850786209e-03
-3.100907243788242340e-02
-4.282549396157264709e-02
2.022538334131240845e-02
1.931685768067836761e-02
2.303076907992362976e-02
-1.697328640148043633e-03
-4.770698770880699158e-02
3.527334704995155334e-02
4.223964642733335495e-03
9.416071698069572449e-03
1.251203566789627075e-02
2.455850504338741302e-02
3.715487197041511536e-02
2.416485920548439026e-02
4.641002044081687927e-02
-2.408101595938205719e-02
3.371943905949592590e-02
-3.081957250833511353e-02
-1.621351391077041626e-02
1.731860637664794922e-02
2.488223835825920105e-02
-3.502941504120826721e-02
-4.861802980303764343e-02
-3.025487437844276428e-02
6.954958662390708923e-03
2.764786966145038605e-02
-3.225836157798767090e-02
4.791032150387763977e-02
3.015092574059963226e-02
9.574878029525279999e-03
1.031292881816625595e-02
1.856046169996261597e-02
-5.649563856422901154e-03
-1.069420203566551208e-02
3.523129597306251526e-02
2.850683964788913727e-02
-1.257971953600645065e-02
-3.734586015343666077e-02
1.508026570081710815e-02
2.996550127863883972e-02
1.521294843405485153e-02
8.929378353059291840e-03
-1.667987741529941559e-02
3.507638350129127502e-02
2.711290307343006134e-02
4.018487036228179932e-02
-2.691842056810855865e-02
-1.092673279345035553e-02
-9.226995520293712616e-03
-2.848904579877853394e-02
-4.471734538674354553e-02
-3.973226994276046753e-02
-9.385992889292538166e-04
1.932881958782672882e-02
7.932445732876658440e-04
-2.573688142001628876e-02
-2.817326411604881287e-02
1.198802888393402100e-02
1.187433255836367607e-03
-4.379392415285110474e-02
-2.074315398931503296e-02
1.649109274148941040e-02
-4.069747403264045715e-02
-1.406767964363098145e-02
2.697236090898513794e-02
-1.951413601636886597e-02
8.581043221056461334e-03
-4.152405261993408203e-02
-8.219316601753234863e-03
-6.042927037924528122e-03
-2.907621115446090698e-02
8.470269851386547089e-03
2.431468851864337921e-02
-3.397743403911590576e-02
1.622060872614383698e-02
-4.584162030369043350e-03
7.824865169823169708e-03
1.665977388620376587e-02
-1.450771931558847427e-02
-3.273319080471992493e-02
1.966350711882114410e-02
-1.177056226879358292e-02
1.828696019947528839e-02
-4.042934998869895935e-02
-2.011431194841861725e-02
-4.039350897073745728e-02
-2.353499270975589752e-02
-3.687836229801177979e-02
2.526013180613517761e-02
1.930815167725086212e-02
2.145345695316791534e-02
8.324081078171730042e-03
-2.434126660227775574e-02
-2.241595089435577393e-02
-3.233014047145843506e-02
-6.094051524996757507e-03
-1.612776331603527069e-02
-1.902080513536930084e-02
1.009048707783222198e-02
-2.496568299829959869e-02
-3.242527320981025696e-02
-1.284260861575603485e-02
-1.729326322674751282e-02
2.003620751202106476e-02
2.669586054980754852e-02
-1.489638630300760269e-02
6.629739422351121902e-03
-2.483086101710796356e-02
2.697291411459445953e-02
-2.809876948595046997e-02
-2.204491384327411652e-02
1.044476777315139771e-02
4.634870588779449463e-02
2.616896852850914001e-02
-7.960348390042781830e-03
-1.076721120625734329e-03
1.141582056879997253e-02
-1.097992062568664551e-02
3.963068127632141113e-02
-4.606413841247558594e-02
5.246699322015047073e-03
2.935544960200786591e-02
-2.000988274812698364e-02
-1.006173249334096909e-02
-2.686492167413234711e-02
-4.563324619084596634e-03
1.032866444438695908e-02
-1.964773749932646751e-03
-5.722172092646360397e-03
9.505906142294406891e-03
3.448822349309921265e-02
2.092335186898708344e-02
-4.126038402318954468e-02
-1.509686000645160675e-02
2.109171263873577118e-02
-3.426679596304893494e-02
-1.721964217722415924e-02
-3.823342174291610718e-02
-2.642334625124931335e-02
-1.630102656781673431e-02
-2.695523388683795929e-02
-3.851585090160369873e-02
-2.419320866465568542e-02
-1.585275679826736450e-02
5.261224228888750076e-03
-2.750988490879535675e-02
-1.532158697955310345e-03
-1.697298884391784668e-02
-2.929368615150451660e-02
-1.356276962906122208e-02
2.231512032449245453e-02
2.668108232319355011e-02
-2.008139342069625854e-02
-7.736922707408666611e-03
3.212627768516540527e-02
-2.109053172171115875e-02
-1.164476107805967331e-02
-8.204587502405047417e-04
3.911148011684417725e-02
3.056814894080162048e-02
2.315287850797176361e-02
2.972670085728168488e-02
2.706216834485530853e-02
2.431188710033893585e-02
-3.204623982310295105e-02
-1.193490717560052872e-02
2.657923102378845215e-02
-2.066777460277080536e-02
1.580879092216491699e-02
-1.442214008420705795e-02
-4.621949419379234314e-02
2.427946589887142181e-02
-5.621142219752073288e-03
2.809772640466690063e-02
2.094362489879131317e-02
3.757654130458831787e-02
-2.587589807808399200e-02
4.132951423525810242e-02
-2.772195823490619659e-02
9.788081049919128418e-03
-2.574347145855426788e-02
-3.348964825272560120e-02
-1.404869463294744492e-02
3.092301823198795319e-02
-3.958453424274921417e-03
-3.038979880511760712e-02
-1.417131535708904266e-02
-4.449972882866859436e-02
-1.646277867257595062e-02
3.341218456625938416e-02
-9.630236774682998657e-03
1.387032773345708847e-02
1.527402270585298538e-02
9.544483385980129242e-03
3.183373808860778809e-02
2.441549859941005707e-02
2.435467205941677094e-02
-4.065801203250885010e-02
-6.526019889861345291e-03
3.340822458267211914e-02
3.754160925745964050e-02
-4.203736037015914917e-02
7.176258601248264313e-03
1.692140847444534302e-02
1.140593551099300385e-02
-2.299600094556808472e-02
-3.319381503388285637e-03
-5.200497340410947800e-03
1.555738691240549088e-02
-2.848051488399505615e-02
3.687532991170883179e-02
2.180865593254566193e-02
-3.134234622120857239e-02
1.588883996009826660e-02
3.457068279385566711e-02
1.577912457287311554e-02
2.218325622379779816e-02
-3.219280391931533813e-02
-3.792965784668922424e-02
-1.913362741470336914e-02
3.284654021263122559e-02
-3.080607764422893524e-02
-3.862125426530838013e-02
-3.779396042227745056e-02
4.145516548305749893e-03
-1.410765014588832855e-02
-2.588072232902050018e-02
3.863609209656715393e-02
2.147675305604934692e-02
3.055747039616107941e-02
3.591352142393589020e-04
-3.311226516962051392e-02
-2.008213661611080170e-02
-2.693342044949531555e-02
4.020148888230323792e-02
-2.458391338586807251e-02
1.277575269341468811e-02
6.338318809866905212e-03
7.838436402380466461e-03
-2.835515141487121582e-02
-1.655388064682483673e-02
2.764208056032657623e-02
-5.674471147358417511e-03
1.844618842005729675e-02
-2.939902059733867645e-02
4.413634538650512695e-02
-3.400640189647674561e-02
3.725596889853477478e-02
-2.343849465250968933e-02
6.566296797245740891e-03
3.175853751599788666e-03
-1.774952514097094536e-03
-2.070753648877143860e-02
-1.688524149358272552e-02
2.481629326939582825e-02
-2.585666952654719353e-03
-2.904474362730979919e-02
-9.662808850407600403e-03
3.848793730139732361e-02
-8.062644046731293201e-04
3.206313773989677429e-02
3.652568534016609192e-02
6.640289444476366043e-03
1.111579500138759613e-02
-6.581834051758050919e-03
6.616277154535055161e-03
1.636230736039578915e-03
-3.270217403769493103e-02
1.391608361154794693e-02
4.159758985042572021e-02
-2.393145579844713211e-03
1.736266352236270905e-02
-1.910812407732009888e-02
1.030991412699222565e-02
1.167607121169567108e-02
-3.723689168691635132e-02
7.411404512822628021e-03
2.012640610337257385e-02
6.617923732846975327e-03
-2.073682285845279694e-02
2.536921203136444092e-02
1.288187131285667419e-02
1.561440434306859970e-02
2.220783149823546410e-03
-1.416386291384696960e-02
-3.288022056221961975e-02
-3.117404878139495850e-02
-1.606357470154762268e-02
4.450691491365432739e-02
-9.549845010042190552e-03
-1.218275632709264755e-02
-2.100982144474983215e-02
-3.785473108291625977e-02
-6.960221566259860992e-03
-6.146255414932966232e-03
-2.697729133069515228e-02
-1.926191709935665131e-02
2.761239744722843170e-02
1.538616232573986053e-02
1.989581994712352753e-02
-7.483251392841339111e-03
-2.462360076606273651e-02
-3.343511372804641724e-02
-2.311625983566045761e-03
5.979945883154869080e-03
4.118809849023818970e-02
-4.192707315087318420e-02
1.822567544877529144e-02
2.690044231712818146e-02
-4.281454905867576599e-02
-4.108191654086112976e-02
-1.072651427239179611e-02
1.174239814281463623e-02
-3.067680262029170990e-02
-2.433851547539234161e-02
3.702747076749801636e-02
2.045400068163871765e-02
3.824004158377647400e-02
-2.452729083597660065e-02
2.583462186157703400e-02
-3.296998888254165649e-02
4.065410792827606201e-02
-2.735519595444202423e-02
-8.935427293181419373e-03
-4.142690077424049377e-02
-2.744647674262523651e-02
-2.819219045341014862e-02
3.445708006620407104e-02
2.535604685544967651e-02
-1.175540685653686523e-02
-1.892121694982051849e-02
1.544401794672012329e-02
-1.956674270331859589e-03
4.635157529264688492e-03
-3.318175300955772400e-02
1.827804371714591980e-02
1.505114324390888214e-02
-1.778341084718704224e-02
-4.037156701087951660e-02
-4.186761751770973206e-02
2.060168050229549408e-02
-4.183104261755943298e-02
-2.822835696861147881e-03
-1.412956044077873230e-02
-3.102185390889644623e-02
-3.736633807420730591e-02
-2.087656036019325256e-02
2.589129842817783356e-02
3.739888221025466919e-02
4.020566586405038834e-03
-1.950629241764545441e-02
-2.073315158486366272e-02
1.893575862050056458e-02
6.786531303077936172e-03
5.739627406001091003e-03
-2.232296951115131378e-02
3.901698812842369080e-02
-8.159835822880268097e-03
1.174245122820138931e-02
-2.012483589351177216e-02
1.278033945709466934e-02
-2.499819360673427582e-02
-6.068242248147726059e-03
-4.246803466230630875e-03
-1.797960698604583740e-02
2.016599290072917938e-02
1.128959935158491135e-02
2.864651754498481750e-02
-4.142826795578002930e-02
-2.964485436677932739e-02
3.564034402370452881e-02
1.809620484709739685e-02
1.459423266351222992e-02
2.594686299562454224e-02
6.391875445842742920e-03
8.080137893557548523e-03
-4.087022319436073303e-02
-8.330723270773887634e-03
-7.189244497567415237e-03
3.192264586687088013e-02
4.284103587269783020e-02
-1.398703199811279774e-03
2.688037045300006866e-02
-7.770019583404064178e-03
2.074462920427322388e-02
-3.402618691325187683e-02
-2.496710792183876038e-02
-2.586144953966140747e-02
-4.264918621629476547e-03
-2.492737770080566406e-02
-3.759435191750526428e-02
-3.678144142031669617e-02
4.839702975004911423e-03
-3.978659212589263916e-02
3.408502787351608276e-02
-4.693652037531137466e-03
-4.650519788265228271e-02
-3.654691576957702637e-02
-9.489485993981361389e-03
-6.671217735856771469e-03
1.183153502643108368e-02
2.987029217183589935e-02
-3.927745297551155090e-02
-1.356111466884613037e-02
-2.203153260052204132e-02
-3.847435116767883301e-02
3.892923705279827118e-03
2.760917320847511292e-02
-3.742801770567893982e-02
-2.044793032109737396e-02
1.941964402794837952e-02
-3.438219428062438965e-02
-3.642930090427398682e-02
2.085586078464984894e-02
-4.203892871737480164e-02
8.201910182833671570e-03
-3.963904827833175659e-02
3.207271546125411987e-02
1.349647901952266693e-02
-4.494348540902137756e-04
1.952924020588397980e-02
1.371461711823940277e-02
1.402802765369415283e-03
-2.018362283706665039e-02
-2.163134282454848289e-03
2.685631811618804932e-02
4.223182797431945801e-02
1.300497911870479584e-02
-4.251247644424438477e-02
-2.455521188676357269e-02
3.627787157893180847e-02
9.575475938618183136e-03
-5.307214800268411636e-03
-2.499737590551376343e-02
1.003126427531242371e-02
-3.847146034240722656e-02
3.267719224095344543e-02
4.384032636880874634e-02
2.218342572450637817e-02
-2.748663723468780518e-02
-1.634394936263561249e-02
-2.685256674885749817e-02
2.706275135278701782e-02
-2.765526436269283295e-02
-2.200028486549854279e-02
-7.836717180907726288e-03
4.210456088185310364e-02
-1.675889827311038971e-02
1.757630892097949982e-02
-1.301337382756173611e-03
-4.121896624565124512e-02
1.682968623936176300e-02
1.311785657890141010e-03
8.534169755876064301e-03
-3.636820986866950989e-02
-3.278871253132820129e-02
-3.918424248695373535e-03
-1.710301265120506287e-02
2.961166761815547943e-02
-3.878045827150344849e-02
3.647688776254653931e-02
3.898290172219276428e-02
-3.920218721032142639e-02
-7.454501464962959290e-03
-2.761677606031298637e-03
4.214270040392875671e-02
-9.638208895921707153e-03
-1.218306086957454681e-02
-3.261750563979148865e-02
-4.311954136937856674e-03
-8.776148781180381775e-03
-3.630376979708671570e-02
-2.626760862767696381e-02
