1.677726118032296654e-06
-3.662792096292832866e-06
-1.898981849990377668e-06
2.415723372450884199e-07
-1.091782223738846369e-06
4.137637915846426040e-06
-2.277320163557305932e-06
3.076169150517671369e-07
-4.558251930575352162e-06
1.103934323509747628e-06
7.048005272736190818e-07
1.144616362580563873e-05
-1.901140535665035713e-06
-2.356801587666268460e-06
1.635144371903152205e-06
-1.381527340527100023e-06
-1.165163780569855589e-06
7.611986347910715267e-06
-7.302766334760235623e-06
-8.122937060761614703e-07
-3.364812982908915728e-06
-8.840925147524103522e-07
-2.092397608066676185e-06
2.295475667324353708e-07
-2.411436298643820919e-06
3.308508311761215737e-08
2.254143737445701845e-06
-2.831431402228190564e-06
1.445387624698923901e-06
1.395167714690614957e-06
-2.791187853290466592e-06
-1.695246169219899457e-06
1.322400294156977907e-06
9.544850172460428439e-07
-9.557242037772084586e-07
-2.894285444199340418e-06
-2.459921461195335723e-06
-1.305493015024694614e-06
1.857153165474301204e-06
5.358925591281149536e-06
-1.756663664309598971e-06
1.624220658413833007e-06
2.925328999481280334e-06
-6.051324703548743855e-07
-3.393988436073414050e-06
1.934756483024102636e-06
4.566604161482246127e-07
2.593698354758089408e-06
1.333049226559523959e-06
-1.759397491696290672e-06
1.033267722050368320e-06
-2.402334530415828340e-06
-2.423161618025915232e-07
-9.546530463921953924e-07
1.314844411126614432e-07
1.448339901344297687e-07
-6.866540616101701744e-07
-2.398355491095571779e-06
1.816780752506019780e-07
-1.088660042114497628e-06
-9.501563908997923136e-07
-3.046619440283393487e-06
-2.239562718386878259e-06
-2.119324335581040941e-06
3.932938739126257133e-07
-7.555577212770003825e-07
9.700709142634877935e-07
-3.837241820292547345e-06
6.143297923699719831e-07
4.868733185503515415e-07
-2.584561343610403128e-06
-1.671893301136151422e-06
1.723760988170397468e-06
2.102650569213437848e-07
-2.315782012374256738e-06
1.625173240427102428e-08
-3.961229708693281282e-07
2.646757195634563686e-07
5.924362085352186114e-07
-7.467764930879638996e-07
3.375253982085268945e-06
1.554532559566723648e-06
2.480572447893791832e-06
4.493475444178329781e-06
-1.591700197423051577e-06
-2.075919951494142879e-07
-3.065793634959845804e-06
-2.552788203047384741e-07
2.352105354930245085e-07
-2.718198857110110112e-06
1.151601281890179962e-06
2.028501285167294554e-06
2.982021442221594043e-06
4.079443442606134340e-06
-1.928943675011396408e-06
-2.054952830121692386e-07
-2.063026386167621240e-06
-1.438295385014498606e-06
1.017007207337883301e-06
-2.119190639859880321e-06
-1.351644527858297806e-06
-1.022709284370648675e-06
2.582136630735476501e-06
-1.367379263683687896e-05
1.827458504521928262e-06
-6.056283723410160746e-07
1.100639224205224309e-06
3.143544518025009893e-06
5.004274044040357694e-07
-2.240339881609543227e-06
3.298791000361234182e-07
-2.625353545226971619e-06
3.546872903825715184e-06
-1.222599195216389489e-07
8.112429554785194341e-07
-3.471214540695655160e-06
5.893063530493236613e-07
1.724890025798231363e-04
2.455324761285737623e-07
-3.439087322476552799e-06
8.442892749371821992e-07
1.610559024811664131e-06
2.655482830959954299e-06
2.268875647359891445e-07
-2.094593583024106920e-06
2.103264478137134574e-06
1.693176500339177437e-06
1.422679702045570593e-06
8.584826218793750741e-07
1.815288186435282114e-07
-7.582727334920491558e-07
6.495727120636729524e-07
-2.051461024166201241e-06
-1.678517946857027709e-07
-2.010044909184216522e-06
-3.824513441941235214e-06
-1.149918603005062323e-06
-1.509887738393445034e-06
-1.035335913002199959e-06
1.105235696741146967e-06
-2.194620037698769011e-06
-2.526969637983711436e-07
-1.603757368684455287e-06
1.068007918547664303e-06
-1.808820115911657922e-06
1.267832544726843480e-06
-4.722735411633038893e-07
2.007974580919835716e-05
1.673749068231700221e-07
-8.769868031777150463e-07
2.323828169892294682e-07
7.746609185232955497e-07
-3.047025757041410543e-06
-2.257020014440058731e-06
2.015245854636305012e-06
4.426851205607817974e-07
3.162774873999296688e-06
-9.505747016191889998e-07
-1.019352566800080240e-06
-5.115213070894242264e-07
-1.194144942928687669e-06
1.306325657424167730e-06
2.652352122822776437e-06
9.384526151734462474e-07
-3.896395355695858598e-05
1.046573174789955374e-06
1.402079647050413769e-06
-2.825564934028079733e-06
-1.210001641993585508e-06
1.139372045599884586e-07
2.826662466759444214e-06
-9.314775297752930783e-07
1.420460336021278636e-07
1.215246243191359099e-06
-2.956955086119705811e-06
2.546997166064102203e-06
-8.848215315993002150e-07
9.892891057461383753e-07
-2.322421778444550000e-06
-6.720357760059414431e-06
3.496789076962159015e-06
-6.294051672739442438e-06
1.670240976636705454e-06
-6.271430379456433002e-07
2.996046760017634369e-06
1.412227447872282937e-06
3.953382929466897622e-06
-2.811555646076158155e-07
-1.038586447066336405e-06
1.838863113334809896e-06
-5.955252504463715013e-07
-1.150425646301300731e-06
2.270061031595105305e-06
-1.779927856659924146e-06
-2.676140638868673705e-06
-2.290549190320234629e-07
-1.329144424744299613e-06
1.459813120163744316e-06
-1.752467710502969567e-06
4.460180775822664145e-07
-1.467449095571282669e-07
2.145678536180639639e-06
-1.654897459957282990e-06
-2.172453150706132874e-06
-2.061367695205262862e-06
-1.262748924091283698e-06
2.625581601023441181e-06
3.661332357296487316e-06
1.517315467935986817e-06
-1.080441165868251119e-06
-6.691792009405617137e-07
-1.604361614226945676e-06
1.246944179911224637e-06
-2.126643721567234024e-06
2.512535729692899622e-06
-3.643876311798521783e-07
-7.827213721611769870e-07
-9.687954616310889833e-07
5.866835977030859794e-07
6.845019697720999829e-07
-1.358664803774445318e-06
2.080980266327969730e-06
5.586512656918785069e-07
9.359571890854567755e-07
9.143676606981898658e-07
9.139261791801800427e-09
-1.357476094199228100e-06
-5.957126063549367245e-07
-5.409488039731513709e-07
8.446576202914002351e-07
7.648108066860004328e-07
-1.861008172454603482e-06
1.586262897035339847e-06
-1.524198637525842059e-06
-2.033736336670699529e-06
-7.527297611886751838e-07
-1.473407337471144274e-06
1.440229539184656460e-06
-4.899800842395052314e-06
-4.600716181357711321e-07
-1.917314193633501418e-06
3.334052053105551749e-06
3.658340119727654383e-06
6.088039867790939752e-07
8.812609166852780618e-07
-2.601545020297635347e-06
-4.058115905536396895e-07
-1.095911443371733185e-06
-1.246892452400061302e-06
8.965850497588689905e-07
1.479741968068992719e-06
-1.486448809373541735e-06
3.393700581000302918e-06
2.127585903508588672e-04
3.301397271116002230e-07
-6.687363338642171584e-07
6.577707267751975451e-07
8.369887609660509042e-07
-1.430261249879549723e-06
-2.011821152336779051e-06
1.281064072600202053e-07
-9.583995961293112487e-07
-1.184123789244040381e-06
-1.258400288861594163e-06
-1.725629999782540835e-06
-1.118468503591429908e-06
2.782543560897465795e-06
-1.641800508878077380e-06
-1.510832021267560776e-06
-8.706642233846650925e-07
-9.290846492149285041e-07
-2.909908516812720336e-06
-1.113560301746474579e-06
-9.938181833035741874e-09
-2.554239983965089777e-07
1.662058821239043027e-06
2.667377657417091541e-06
1.959902874659746885e-06
-2.618033249746076763e-06
-2.048166379609028809e-06
-7.212146897472848650e-07
2.792163513731793500e-06
-8.977476113614102360e-07
-9.621276149118784815e-07
2.999845719386939891e-06
4.187829745205817744e-06
-1.769574737409129739e-06
5.779210823675384745e-06
1.729740574774041306e-06
5.524841071746777743e-06
-6.826684057159582153e-06
-1.616071585885947570e-06
-8.341350508089817595e-07
-2.106665078827063553e-06
-6.114980806160019711e-07
-6.715134048818072188e-08
-2.019508201556163840e-06
5.336984759196639061e-05
-4.488648812639439711e-07
1.510185931863361475e-08
1.261787360817834269e-06
-2.612661546663730405e-06
6.329405550786759704e-07
1.432859221495164093e-06
8.671520390635123476e-07
1.479286197536566760e-06
-2.190343593611032702e-06
-2.317518465133616701e-06
5.599453629656636622e-07
-3.254934654250973836e-06
2.836303110598237254e-06
1.461432020732900128e-06
-2.476942427165340632e-06
-2.199224354626494460e-06
-3.062785935981082730e-06
2.753305352598545142e-06
1.837031732065952383e-06
2.016041094066167716e-07
-6.166678758745547384e-07
-3.036651605725637637e-06
8.766652968006383162e-07
4.810542122868355364e-06
5.377869456424377859e-07
8.003016205293533858e-07
1.867802097876847256e-06
1.244465579475217965e-06
1.917482137514525675e-07
7.890332653914811090e-07
-1.916457819106653915e-07
-1.461201435404291260e-07
6.269549430726328865e-07
-2.746662858044146560e-06
2.021948603214696050e-06
2.145738733361213235e-07
-1.287960003537591547e-06
-4.903468493466789369e-07
4.043765784444985911e-06
1.139838673225312959e-06
5.853354423379641958e-07
7.582130479022453073e-07
-5.300133238961279858e-07
6.527555797219974920e-06
-4.509464872626267606e-07
-4.778359539159282576e-07
7.279704163920541760e-07
3.642685669547063299e-06
-1.167246523436915595e-06
-8.419380037594237365e-08
-3.272254161856835708e-06
9.931867452905862592e-07
3.431112190810381435e-06
-3.836203632090473548e-06
-1.826627567425020970e-06
-1.160005695055588149e-06
9.817073305384838022e-07
-2.755592049652477726e-06
-1.445053840143373236e-06
-3.652503664852702059e-06
6.842027033826525440e-08
-1.519593752163928002e-06
4.080119424543227069e-07
1.302431655858526938e-06
5.956782160865259357e-07
-5.640683298224757891e-08
1.018331772684177849e-06
7.105967370080179535e-07
2.051618594123283401e-06
-2.970649859435070539e-07
1.788649683476251084e-06
5.314178679327596910e-07
1.651081049658387201e-07
1.297771177632967010e-06
-1.084711129806237295e-06
1.182252731268818025e-06
1.168838480225531384e-06
1.022058768285205588e-06
-2.695668854357791133e-06
6.889529799991578329e-07
5.252184678283811081e-07
9.706564014777541161e-07
-2.039439550571842119e-06
-1.174362793676664296e-07
-5.622906428470741957e-06
-2.814343815771280788e-06
1.588650093253818341e-06
2.505075144654256292e-06
-2.142602824051209609e-07
-1.458306883250770625e-06
-2.511976390451309271e-06
-9.709145842862199061e-07
-4.945711111759010237e-07
-6.167903734421997797e-07
1.535292994958581403e-06
3.204145286872517318e-06
8.084544447228836361e-07
-1.527694735159457196e-06
1.617136604181723669e-06
1.410388449585298076e-06
-1.317237433795526158e-06
1.511219920757866930e-06
2.316729705853504129e-06
1.458475253457436338e-06
1.410962886438937858e-05
-1.670480628490622621e-06
-6.955741355341160670e-06
-4.493665528571000323e-06
2.062208750430727378e-06
-4.265773441147757694e-07
-4.207858182780910283e-06
-5.698063432646449655e-06
2.960670144602772780e-07
4.134772098041139543e-06
1.961009047590778209e-06
-3.264268855218688259e-07
1.876754481600073632e-06
8.493666427966672927e-07
1.462846057620481588e-06
2.251500973216025159e-06
2.662632823557942174e-06
-2.997828232764732093e-06
2.853807473002234474e-06
-2.553259719206835143e-06
6.047037572898261715e-07
-9.484861038799863309e-07
-8.063449286055401899e-07
-3.391013478903914802e-06
1.215562065226549748e-06
1.392694798596494365e-06
-4.155685019213706255e-06
1.615582164049556013e-06
-9.861151966106262989e-07
-1.194287392536352854e-06
3.519409801810979843e-06
-8.811152838461566716e-07
1.137666458816966042e-06
-1.962132500921143219e-08
-1.871331733127590269e-06
5.325694473867770284e-06
-3.246239657528349198e-06
3.346645371493650600e-06
-2.787802770853886614e-07
-2.293673333042534068e-06
1.801834400794177782e-06
1.782261733751511201e-06
9.364315900484143640e-08
1.689987811914761551e-06
8.535347433280549012e-07
4.167189899817458354e-07
1.343123585684224963e-06
9.710031463328050449e-07
1.176180717266106512e-06
-2.658431412783102132e-06
1.407438958267448470e-06
-1.345347300230059773e-07
-2.933251607828424312e-06
2.205875517802269314e-07
1.593232809682376683e-06
2.476431291142944247e-06
-8.972268119578075130e-07
-7.499600656046823133e-07
9.806974787807121174e-08
-4.926685505779460073e-06
4.985598707207827829e-07
3.376061670223862166e-07
-1.187312818728969432e-06
-4.010629254480591044e-06
6.744970164618280251e-07
-6.199059953360119835e-06
1.102077149539582024e-07
1.752591515469248407e-06
1.117594592869863845e-06
4.970502800460963044e-07
-4.971518592356005684e-07
-3.461367157342465362e-07
-9.196713790515786968e-07
9.415178396920964587e-07
1.977180090761976317e-06
4.348792401742684888e-07
2.269351170980371535e-06
6.273083954511093907e-07
2.351768898734007962e-06
4.740877272979560075e-07
-4.174125933786854148e-06
-5.447371265177025634e-08
1.113531425289693289e-06
-2.168842911487445235e-06
4.434062702785013244e-06
1.187104999189614318e-06
-1.387169959343736991e-06
-1.901476821331016254e-06
7.048612360449624248e-07
-4.661616912926547229e-06
4.432185107816621894e-08
-4.160965090704848990e-06
2.871669721571379341e-06
3.594216877900180407e-06
-1.879753455114041572e-07
2.547391659390996210e-06
1.009197603707434610e-06
-1.286071324102522340e-06
1.124753794101707172e-06
2.552853004544886062e-07
2.221246653277830774e-08
6.583064191545417998e-07
1.192738636746071279e-06
-8.535801043763058260e-07
-2.860964059436810203e-06
-4.462238393898587674e-06
-8.773198715061880648e-06
-1.269519088964443654e-06
-1.346532485513307620e-06
2.403015741947456263e-07
1.718164412523037754e-06
-3.660203901745262556e-06
-1.186848862744227517e-06
-2.460246150803868659e-06
2.948914925582357682e-06
-2.659679921634960920e-06
9.115624948208278511e-07
-1.401318058924516663e-06
1.856192056948202662e-06
-2.314701760042225942e-06
2.650822807481745258e-06
3.483487944322405383e-06
9.132865557148761582e-07
5.553580990635964554e-07
-2.802190124384651426e-07
-2.657385266502387822e-06
7.980954705999465659e-07
5.615397640212904662e-07
5.523184540834336076e-07
-3.440197360760066658e-06
-8.346932736458256841e-05
5.821622721668973099e-07
1.269601170861278661e-06
-4.492790850463279639e-08
-4.588190222420962527e-06
6.444523705795290880e-07
-1.116798671318974812e-06
2.133649257274328193e-09
-1.017206272990733851e-06
1.239715174961020239e-06
-1.077107299352064729e-06
1.221735601575346664e-06
-6.127081633167108521e-07
-1.348310618709547271e-08
-2.746494658367737429e-07
1.126568804465932772e-06
3.138654165013576858e-06
2.948116843981551938e-06
-1.323824449173116591e-06
-1.272460281143139582e-06
7.229630796246055979e-07
8.610508643869252410e-07
-8.131428330671042204e-07
-2.953030389107880183e-06
1.881227490230230615e-06
-1.971986421267502010e-06
6.615051916014635935e-06
9.525911082164384425e-07
2.985751507367240265e-06
1.465991545046563260e-06
-2.243150220238021575e-06
-1.922901446960167959e-06
-8.491454650538798887e-07
1.240597157448064536e-06
-4.228682882967405021e-06
-8.290782602671242785e-07
-8.442694365839997772e-07
-2.461684516674722545e-06
-1.858019231804064475e-06
-3.718375012340402463e-07
6.555438289979065303e-07
4.014540024854795774e-07
-2.694438592243386665e-07
1.456113864151120652e-06
-3.510224132696748711e-06
-6.872152425785316154e-06
-3.111690816126611026e-08
-6.635866043325222563e-07
-6.434364649976487271e-07
1.525724087514390703e-06
-5.083524229121394455e-06
-9.306099855166394264e-07
-3.721780785781447776e-07
-2.706068016777862795e-06
4.182039674560655840e-07
1.700304665064322762e-06
2.048718215519329533e-06
-4.422435040396521799e-07
-1.004019850370241329e-06
-5.442332621896639466e-06
4.383976192912086844e-05
-5.152256790097453631e-07
4.000808530690846965e-06
1.112041104534000624e-06
-4.560056822811020538e-06
-2.905462451963103376e-06
6.342536380543606356e-07
-1.207899686050950550e-06
7.891588893471634947e-07
4.754572273668600246e-07
-2.993573843923513778e-06
-8.932422588259214535e-07
1.350201614513935056e-06
-1.872915049716539215e-06
-1.986175902857212350e-06
-8.417783874392625876e-07
-3.355690523676457815e-06
5.913565814807952847e-07
-1.049996935762465000e-04
1.239883658854523674e-06
2.182076786994002759e-05
-1.285645794268930331e-06
2.005384232006690581e-07
-1.502228542449302040e-06
-2.435827582303318195e-06
-6.056653205632755999e-07
7.449697250194731168e-07
2.595847490738378838e-06
3.775134871375485091e-08
-1.054568542713241186e-06
-2.579847432571114041e-06
-6.174749955789593514e-07
1.901663608805392869e-06
1.099784640246070921e-06
-6.825918603681202512e-07
2.457377377140801400e-06
2.686807647478417493e-06
1.661913870520947967e-06
-4.768376129504758865e-07
-8.995262760436162353e-06
5.712449180350631650e-09
-1.688064457994187251e-06
-1.168906351267651189e-06
-1.020909508042677771e-06
1.974847236851928756e-06
6.119478825894475449e-07
-7.702282687205297407e-07
6.974878488108515739e-07
-2.782551382551901042e-05
-1.515107669547433034e-06
-2.166466401831712574e-06
-2.985612582051544450e-06
-1.487240552933144500e-07
3.102108166785910726e-06
-1.321290170608335757e-07
1.768778815858240705e-06
1.223567778652068228e-06
-3.351698069309350103e-06
-6.779076556995278224e-06
-2.750530029516085051e-06
2.267423724333639257e-06
-2.035136731137754396e-06
-1.972074556988445693e-07
2.419126587938080775e-07
2.371312584728002548e-04
1.779296553650056012e-06
-3.057201865885872394e-06
1.192971126329211984e-07
2.587526796560268849e-05
3.239154466427862644e-06
2.614126970001962036e-06
4.275679259535536403e-07
2.074451117550779600e-07
-1.036467097037530039e-06
-1.674126792750030290e-06
5.021212245992501266e-07
1.256364271284837741e-06
-2.161644260922912508e-06
-1.311198730036267079e-06
2.638170599311706610e-06
-1.732384930619446095e-06
1.772263885868596844e-06
3.670577939374197740e-07
-1.013446990327793173e-06
2.564397846072097309e-06
-3.214213393221143633e-06
-3.684927776248514419e-07
6.041641995579993818e-07
8.160178026628273074e-07
2.257349507317485404e-07
-3.731449623955995776e-06
-2.149609827029053122e-06
-1.125806306845333893e-06
3.654969304989208467e-06
1.597456730451085605e-06
5.394118716139928438e-07
1.691876946097181644e-06
-1.346454723716306034e-06
-2.618602650272805477e-07
4.100237731563538546e-07
-3.964459665439790115e-06
-5.058607825958461035e-07
-1.130595933318545576e-06
1.079472895071376115e-06
1.389331600876175798e-06
7.321526709347381257e-07
-1.461859824303246569e-06
1.450203228614554973e-07
-3.261083350025728578e-07
5.966152230030274950e-07
-3.269265334893134423e-06
-1.356941311314585619e-06
7.448356882377993315e-07
9.523766948404954746e-07
-4.865007213084027171e-06
-2.945361757156206295e-06
8.131299864544416778e-07
9.804236924537690356e-07
-6.423996978810464498e-07
1.087525333787198178e-06
1.654683046581340022e-06
8.689771107128763106e-07
2.861568873413489200e-06
3.870098225888796151e-06
-5.392500952439149842e-07
-3.576902258828340564e-07
4.691683841429039603e-07
3.404584560939838411e-07
1.308746732320287265e-06
1.025806682264374103e-06
2.706249688344541937e-06
2.827217031153850257e-06
3.369386149643105455e-06
-6.220874979590007570e-07
-1.250447439815616235e-06
-2.113626806021784432e-06
-8.911606528272386640e-07
1.103810177482955623e-06
-2.575247208369546570e-06
-1.181011157314060256e-06
-1.249550450665992685e-06
1.341589040748658590e-06
1.443544874746294226e-06
-1.753741116772289388e-06
-5.911622835697016853e-08
-1.317826558988599572e-07
-8.513773650520306546e-07
-9.742821021063718945e-07
-4.462077640710049309e-07
-5.276651791064068675e-07
2.932399411292863078e-06
-2.578071871539577842e-07
-2.807132304383230803e-08
8.636747566015401389e-07
-8.294431381727918051e-07
-1.323231344940722920e-06
5.782393373010563664e-07
3.115921387575326662e-08
1.143529857472458389e-06
-3.860056494886521250e-06
-1.696233994152862579e-06
2.180081082769902423e-06
-5.276712045088061132e-07
-4.131726427658577450e-07
-2.137609271812834777e-06
3.139568605092790676e-07
-6.934847647244168911e-07
-8.897718544176314026e-07
-2.187795871577691287e-06
2.342486823181388900e-06
1.655595042393542826e-06
1.121809646065230481e-06
-3.695758096000645310e-06
1.162404169008368626e-05
-4.282826182588905795e-08
-5.772289455308055039e-07
-1.170005248241068330e-06
2.319549821550026536e-06
-1.072050054062856361e-06
-1.686037535364448559e-06
-5.184337169339414686e-06
-1.357713699690066278e-06
-2.759715869160572765e-07
-2.946871120457217330e-07
1.442572965970612131e-06
-9.725928293846664019e-07
-1.017160911942482926e-06
-5.405132696978398599e-07
-7.788916036588489078e-07
7.598569027322810143e-07
7.129279993023374118e-07
4.679133098761667497e-07
-1.449328408398287138e-07
-7.530520917953253957e-08
-2.382925003985292278e-06
-2.544203653087606654e-06
-2.215749873357708566e-06
1.669957100602914579e-06
3.230660695408005267e-06
7.719076506873534527e-07
-8.586608259975037072e-07
1.692348405413213186e-06
-2.548379143263446167e-06
-3.300777052572811954e-06
-1.247222826350480318e-06
1.292787032980413642e-06
-1.007469677460903767e-06
2.480096100043738261e-06
9.566134622218669392e-07
-5.038808012614026666e-06
-1.831125359785801265e-06
1.245187490894750226e-06
1.563885348332405556e-06
9.686995099400519393e-07
2.769421826087636873e-06
-1.278167246709926985e-06
9.478242759541899431e-07
1.904483610815077554e-06
-3.734231484031624859e-07
2.608879412946407683e-06
1.539214508738950826e-06
-2.388302164035849273e-06
2.416950792394345626e-06
4.536722428838402266e-07
9.461968488722050097e-07
-1.916577275551389903e-06
-1.431418013453367166e-06
-3.013842160726198927e-06
5.807374492405870114e-08
1.004430032480740920e-06
-9.328890087090258021e-07
-9.098673103835608345e-08
-1.334366061200853437e-06
-1.537305593046767171e-06
-1.736088415782433003e-05
-3.738567556865746155e-06
-9.586136684447410516e-07
1.022291939989372622e-06
2.224173840659204870e-06
1.739396452649089042e-06
-2.044128905254183337e-06
3.823855422524502501e-06
-5.726593599320040084e-07
1.354628238914301619e-06
-1.332827309852291364e-06
3.139121645290288143e-06
-1.423987185944497469e-07
2.083110302919521928e-06
-2.267209083584020846e-06
5.438830612547462806e-07
9.559847740092664026e-07
-1.057736426446354017e-06
-1.320370301982620731e-06
-4.633840944734402001e-06
5.609932145489437971e-07
8.636223469693504740e-07
-2.531857035137363710e-06
5.337980155672994442e-07
-2.438164301565848291e-06
2.408886984994751401e-06
-6.244617452466627583e-06
-1.769303594301163685e-06
-3.445500169618753716e-07
-9.150819550995947793e-07
-9.504017270955955610e-07
-8.883235409484768752e-07
-2.276509576404350810e-07
3.382799150131177157e-06
1.885512119770282879e-06
3.540113766575814225e-07
1.701216774563363288e-06
-6.016562565491767600e-06
1.186613303616468329e-06
6.519272233163064811e-09
2.228235871370998211e-06
-5.482403366841026582e-07
-1.668396180320996791e-06
-5.491148112923838198e-05
1.593396746102371253e-06
-1.100058355518740427e-07
-2.233570512544247322e-06
2.591572410892695189e-06
-1.923995569086400792e-06
4.373546005354000954e-07
2.806828661050531082e-06
-1.764295021189354884e-08
-4.678251116274623200e-06
-1.245476255462563131e-06
-4.391499714984092861e-06
-8.851207894622348249e-06
-1.205510216095717624e-06
2.004115231102332473e-06
-3.178743327225674875e-06
3.377596385689685121e-06
-1.237478045368334278e-06
-6.230094982129230630e-07
-9.335333857052319217e-07
-2.711689830903196707e-06
1.646095256546686869e-06
-2.606717316666617990e-06
2.175268036808120087e-07
-9.892817161016864702e-07
-8.835712037580378819e-07
-5.195810445002280176e-06
1.135432739829411730e-06
6.679071589132945519e-07
1.112854761231574230e-06
1.016627777516987408e-07
2.639789954628213309e-06
2.664941803232068196e-06
-9.795107871468644589e-07
2.347660256418748759e-06
2.327012589375954121e-05
1.750658952914818656e-06
2.246944632133818232e-06
6.184550898069574032e-07
-6.959586471566581167e-07
7.260753136506536976e-07
-8.165785629898891784e-07
-2.311971485369213042e-07
3.590742153392056935e-06
-1.432169369763869327e-07
-8.919645324567682110e-07
2.689154598556342535e-06
-4.384263547763112001e-07
-3.023553972525405698e-06
2.323057742614764720e-06
2.342261495869024657e-06
-1.350735828964388929e-06
-1.216537611981038935e-06
1.923687250382499769e-06
-1.083968641069077421e-06
2.812352249748073518e-06
3.013282594110933132e-06
3.022338148639391875e-07
-1.491397142672212794e-06
-1.044129021465778351e-06
1.698816163298033644e-07
-4.384420662972843274e-06
-8.099136152850405779e-07
-6.385646855733284610e-08
7.489650499792332994e-08
-1.661468786551267840e-06
2.197595222241943702e-06
6.035222668288042769e-06
1.446933197257749271e-06
-8.954534109761880245e-07
-5.157801297173136845e-07
-6.322436547634424642e-07
-5.084743861516471952e-07
8.388192895836255047e-07
-1.460569592381943949e-06
1.038432174027548172e-06
-1.823046659410465509e-06
-1.158790269073506352e-06
-2.138220906999777071e-06
-2.290469183208188042e-06
-1.646612531658320222e-06
-1.117021042773558293e-06
4.440407508354837773e-07
-1.306853732785384636e-06
-1.964193643289036117e-06
-1.118723389481601771e-06
-4.818060119760048110e-07
-5.799550422125321347e-07
-3.257103571741026826e-06
2.074797521345317364e-06
2.621637122501851991e-06
-1.183017843686684500e-06
-1.498291567259002477e-06
-7.462510893674334511e-07
-2.183882997996988706e-06
4.780358722200617194e-07
-1.160355736828933004e-06
-8.981796781881712377e-07
-1.056959490597364493e-06
-2.228290213679429144e-06
1.232200702361296862e-06
-7.531579058195347898e-07
-3.002365929205552675e-07
-5.495682216860586777e-06
1.406777840884387842e-07
-5.700932888430543244e-06
1.294698449783027172e-06
1.501906922385387588e-06
-2.472283767929184251e-06
2.795190312099293806e-06
3.596036776798428036e-06
6.627127504543750547e-07
-1.260816247850016225e-06
-1.423938726929918630e-07
-1.586367943673394620e-06
-6.064851731935050339e-07
-1.591606519468768965e-06
1.090404794013011269e-06
6.282846243266249076e-07
-1.428125870006624609e-06
8.883498026079905685e-07
3.129857577732764184e-05
-7.726765716142836027e-07
-3.541859086908516474e-06
-1.982987356541343615e-07
-5.695953291251498740e-07
1.323242713624495082e-06
2.527874357838300057e-06
-3.091154496814851882e-07
-1.617712314327945933e-06
-1.901245809676765930e-06
1.653242179600056261e-06
1.435120566384284757e-06
-2.824213254370988579e-07
-1.349271542494534515e-06
-4.034488370052713435e-07
1.498992929782616557e-07
-3.098842171311844140e-06
-3.593746669139363803e-06
-2.349899205000838265e-06
9.894194590742699802e-06
3.015995275745808613e-07
-2.608181148389121518e-06
-8.127058208629023284e-07
-3.601364824135089293e-07
-6.406327770491770934e-07
-1.595667299625347368e-06
3.659974026959389448e-06
-1.424499942004331388e-06
-7.740441105852369219e-06
3.540376098953856854e-07
-1.784343226063356269e-06
9.812130201680702157e-07
1.877893680557463085e-07
-3.106552412646124139e-06
