-1.837839605286717415e-03
-1.081919530406594276e-03
-9.413262829184532166e-03
1.025388701236806810e-04
-3.613831242546439171e-03
-2.739908173680305481e-03
5.106909666210412979e-03
2.530624158680438995e-03
-2.372715825913473964e-04
-3.808497451245784760e-03
-3.391453064978122711e-03
-7.493101060390472412e-03
5.664938595145940781e-03
-3.321208292618393898e-03
-3.163275774568319321e-03
-3.845333587378263474e-03
-6.574646569788455963e-03
-1.723638735711574554e-03
3.847008047159761190e-04
1.340713002718985081e-03
7.864279323257505894e-04
-4.658583085983991623e-03
-2.650537062436342239e-03
2.113247290253639221e-03
6.498200236819684505e-04
-3.996000625193119049e-03
-4.387235268950462341e-03
1.494458119850605726e-04
-9.731292375363409519e-04
-5.165311042219400406e-03
-8.924222202040255070e-04
5.655952263623476028e-03
-6.283301860094070435e-03
1.671629492193460464e-03
-6.397691089659929276e-03
-2.058011479675769806e-03
2.229633042588829994e-03
1.563254045322537422e-03
-1.603432465344667435e-03
-1.811517402529716492e-03
-1.388054341077804565e-03
-3.847443964332342148e-03
-6.389074027538299561e-03
-3.501460887491703033e-03
-1.451035350328311324e-04
-9.114230633713304996e-04
-3.816667944192886353e-03
4.398563876748085022e-03
-7.843131199479103088e-03
6.602814886718988419e-03
-2.185630146414041519e-03
-1.779309357516467571e-03
3.871108870953321457e-03
3.576607210561633110e-03
-3.276391362305730581e-04
6.513525731861591339e-04
6.145427003502845764e-03
3.785715671256184578e-04
9.574583731591701508e-03
3.472591284662485123e-03
-7.551977178081870079e-04
-3.249657806009054184e-03
-1.401986228302121162e-04
-1.777732744812965393e-03
-7.457365281879901886e-03
2.875243779271841049e-03
6.065071094781160355e-03
-1.484051579609513283e-03
4.202007781714200974e-03
-5.987949203699827194e-03
2.687448170036077499e-03
3.974553663283586502e-03
-4.134088288992643356e-03
-1.146720838733017445e-03
6.925690919160842896e-03
-7.517197635024785995e-03
8.495244546793401241e-04
-1.370851532556116581e-03
-2.950051799416542053e-03
-3.677693195641040802e-03
-4.326937720179557800e-03
1.917259651236236095e-03
1.798489945940673351e-03
2.296177670359611511e-03
3.417436499148607254e-03
9.417792782187461853e-03
-5.503431893885135651e-03
1.958868233487010002e-03
2.243591472506523132e-03
-1.696835039183497429e-03
7.598543073982000351e-03
-5.582423415035009384e-03
4.217510111629962921e-03
-4.731388296931982040e-03
-5.628386279568076134e-04
3.372065475559793413e-05
1.132548641180619597e-04
3.821954305749386549e-05
2.676488133147358894e-03
-3.010734450072050095e-03
-4.181182477623224258e-03
-3.914871718734502792e-03
-1.842714031226933002e-03
2.801757073029875755e-03
-5.637469235807657242e-03
1.751939067617058754e-03
3.504661610350012779e-03
-8.962978608906269073e-03
-6.348398514091968536e-03
-1.444203546270728111e-03
-2.302285050973296165e-03
-2.433355984976515174e-04
-9.591679088771343231e-03
4.271985962986946106e-03
-6.381703540682792664e-03
-2.775063505396246910e-03
5.397349596023559570e-03
1.652866718359291553e-03
-5.470287520438432693e-03
-4.586990689858794212e-04
-6.050263997167348862e-03
-2.814708743244409561e-03
-1.515671960078179836e-03
-2.870817668735980988e-03
-5.602605640888214111e-03
-4.054511431604623795e-03
2.958387602120637894e-03
-1.598581671714782715e-03
-5.371382459998130798e-03
2.867578295990824699e-03
-6.031584925949573517e-04
-1.625660108402371407e-03
-2.679115394130349159e-03
-7.970568840391933918e-04
-9.406998869962990284e-04
-4.484337754547595978e-03
3.080896101891994476e-03
-4.779957234859466553e-03
6.013792939484119415e-03
-3.205656539648771286e-03
-2.708874875679612160e-03
4.186856560409069061e-03
-2.775118919089436531e-03
1.118596410378813744e-03
-4.244126379489898682e-03
1.951030339114367962e-03
9.311718749813735485e-04
-2.323205582797527313e-03
-4.021799541078507900e-04
3.177727339789271355e-03
-2.611326752230525017e-03
-1.019346877001225948e-03
-6.537779117934405804e-04
-3.013163805007934570e-03
2.266761148348450661e-03
-1.397227519191801548e-03
-2.487804275006055832e-03
5.423485999926924706e-04
-7.875102572143077850e-03
-6.586272735148668289e-03
-3.914520202670246363e-04
-4.176240880042314529e-03
-4.496508743613958359e-03
-4.019746556878089905e-03
-3.403857117518782616e-03
5.595563445240259171e-03
-4.686373285949230194e-03
-4.305671434849500656e-03
2.696817973628640175e-03
9.295107447542250156e-04
3.833760041743516922e-03
-4.533282481133937836e-03
-1.916011329740285873e-03
-4.119025543332099915e-03
-1.961248926818370819e-03
-3.045198973268270493e-03
-8.997540571726858616e-04
1.441988570149987936e-04
-1.727270428091287613e-03
1.665408839471638203e-03
-3.476031357422471046e-03
6.109889945946633816e-04
-1.088463817723095417e-03
1.243118778802454472e-03
-3.191825468093156815e-03
-7.576945936307311058e-04
-4.112616647034883499e-03
-3.217274555936455727e-03
4.088770947419106960e-04
-5.497052916325628757e-04
-1.690304488874971867e-03
-2.511054044589400291e-03
6.186882965266704559e-03
-3.878486342728137970e-03
-2.289551310241222382e-03
1.800057478249073029e-03
-6.123924395069479942e-04
-5.149558186531066895e-03
5.235983990132808685e-03
7.521286024712026119e-04
-2.879860112443566322e-03
2.218482084572315216e-03
-2.861577784642577171e-03
2.242262475192546844e-03
-5.729113705456256866e-03
-1.851112698204815388e-03
-4.237109329551458359e-03
-2.812657272443175316e-03
2.305549336597323418e-03
-4.226695746183395386e-03
-6.155156996101140976e-03
-2.664559753611683846e-03
4.733230918645858765e-03
-3.520637517794966698e-03
-1.119252061471343040e-03
8.103270083665847778e-03
2.575746737420558929e-03
3.801500657573342323e-03
-4.163372796028852463e-04
9.452230297029018402e-03
-2.708129584789276123e-03
4.173189401626586914e-03
-8.536759763956069946e-03
3.488614223897457123e-03
-1.437517465092241764e-03
3.649884834885597229e-03
-6.255322135984897614e-03
7.585345883853733540e-04
-1.300854783039540052e-04
-1.148510840721428394e-03
-9.263018146157264709e-03
5.653728730976581573e-03
-2.197815229010302573e-05
-1.488239271566271782e-03
-4.946548491716384888e-03
-7.255055941641330719e-03
-1.334807253442704678e-03
-7.055945694446563721e-03
1.151500153355300426e-03
-6.017535342834889889e-04
-5.122494418174028397e-03
1.491561124566942453e-04
-1.904882810777053237e-04
4.073776304721832275e-03
4.773810505867004395e-03
7.463973481208086014e-03
-2.969987923279404640e-03
4.388105298858135939e-04
-9.876968106254935265e-04
-2.940724836662411690e-03
-2.435368718579411507e-03
-7.839871570467948914e-03
2.303394256159663200e-03
-4.465441685169935226e-03
-4.254452418535947800e-03
3.481986350379884243e-04
-5.941984243690967560e-03
-5.879343021661043167e-03
-7.466714363545179367e-03
-1.761948340572416782e-03
-6.027899216860532761e-03
-4.574749618768692017e-03
4.167132719885557890e-04
3.280662233009934425e-03
-9.542388841509819031e-03
1.106806594179943204e-04
-2.195244887843728065e-03
-3.818491532001644373e-04
-1.941285678185522556e-03
2.538807166274636984e-04
2.737076429184526205e-04
-6.420047022402286530e-03
2.486915327608585358e-03
-1.268702209927141666e-03
-3.981932241003960371e-05
-2.864627400413155556e-03
-8.692877367138862610e-03
3.089361125603318214e-03
8.377413614653050900e-04
-2.591723343357443810e-03
-3.272639121860265732e-03
7.381366100162267685e-03
-5.974985542707145214e-04
-5.646492354571819305e-03
-6.584333255887031555e-03
4.412880662130191922e-05
-5.948245525360107422e-03
-4.042956046760082245e-03
-2.820684108883142471e-03
1.340697519481182098e-03
-8.915183716453611851e-04
-6.925965659320354462e-03
1.910521532408893108e-03
-6.301581743173301220e-04
3.664633492007851601e-03
9.543385356664657593e-03
-1.806449843570590019e-03
-1.660642796196043491e-03
-1.630853977985680103e-03
3.819507837761193514e-04
-9.915350237861275673e-04
-4.918870050460100174e-03
-8.619307540357112885e-03
3.941471222788095474e-03
-1.874847919680178165e-03
-1.245769439265131950e-03
2.456734655424952507e-03
-1.727293827570974827e-03
-4.124116385355591774e-04
-4.359853337518870831e-04
-6.028352770954370499e-03
3.954618237912654877e-03
-4.022600129246711731e-03
-2.689575776457786560e-03
-8.546583121642470360e-04
1.019355608150362968e-03
-3.950216807425022125e-03
4.407368134707212448e-03
-9.606014005839824677e-03
-2.503532450646162033e-03
-2.818173728883266449e-03
4.317048005759716034e-04
3.850610693916678429e-03
-3.593856701627373695e-03
-6.022132001817226410e-03
1.082022572518326342e-04
-2.131724497303366661e-03
1.440241932868957520e-03
1.745417015627026558e-03
1.384980423608794808e-04
8.027626201510429382e-03
-4.185484722256660461e-04
-4.627150483429431915e-03
-8.184500620700418949e-04
-5.839835852384567261e-03
2.827044809237122536e-03
2.825773844961076975e-04
1.781375030986964703e-03
-1.594445318914949894e-03
4.152106121182441711e-03
4.208638274576514959e-04
-7.402710616588592529e-03
6.138547323644161224e-04
-7.344789803028106689e-03
-8.701459155417978764e-04
4.276079125702381134e-03
-6.616181228309869766e-03
4.134903196245431900e-03
4.697359108831733465e-04
6.316226790659129620e-04
2.391021000221371651e-03
-2.840564819052815437e-03
-4.151144064962863922e-03
-5.971675273030996323e-03
-4.010226111859083176e-04
7.079869101289659739e-05
-2.001802669838070869e-03
7.180819753557443619e-03
-2.470789477229118347e-03
-5.000730510801076889e-03
-1.481996267102658749e-03
-7.168654818087816238e-03
-1.280055032111704350e-03
6.358404643833637238e-03
2.427496714517474174e-03
-2.593376906588673592e-03
-3.239502897486090660e-03
-5.255384370684623718e-03
-3.109812503680586815e-03
5.145308678038418293e-04
9.747879812493920326e-05
-1.497337711043655872e-03
4.077723249793052673e-03
-5.457170191220939159e-04
8.915301295928657055e-04
-9.138484019786119461e-04
-3.316773334518074989e-03
3.063013078644871712e-03
-2.897307276725769043e-03
-5.594843532890081406e-03
-3.529090434312820435e-03
-3.081640694290399551e-03
-2.638222940731793642e-04
3.814610652625560760e-03
-7.311130873858928680e-03
8.942615240812301636e-03
2.225381787866353989e-03
-2.610694617033004761e-03
-7.875880226492881775e-03
2.462661126628518105e-03
-3.568746848031878471e-03
-1.069760415703058243e-03
4.687686916440725327e-03
1.883319579064846039e-03
9.032913949340581894e-04
2.892288379371166229e-03
-1.233969815075397491e-03
-4.727711435407400131e-03
3.644171636551618576e-03
1.855754409916698933e-03
-8.396224118769168854e-03
1.500149490311741829e-03
-2.279511652886867523e-03
-4.151179455220699310e-03
3.922173928003758192e-04
-7.701920811086893082e-03
-5.573128815740346909e-03
3.044231561943888664e-03
-6.907767150551080704e-03
-5.384986754506826401e-03
-8.461338467895984650e-03
-3.060841234400868416e-03
-3.260158468037843704e-03
6.439180113375186920e-03
1.453368109650909901e-03
-3.055831257370300591e-05
-2.946481108665466309e-04
-4.570055287331342697e-03
-2.869693096727132797e-03
-1.615114044398069382e-03
-4.687497857958078384e-03
-9.088891558349132538e-03
-2.036700723692774773e-03
-4.400511737912893295e-03
-4.009015392512083054e-03
1.572598703205585480e-03
-5.246192216873168945e-03
2.110916376113891602e-02
-4.705096129328012466e-03
4.079772159457206726e-03
3.268920350819826126e-03
1.372939441353082657e-03
-1.279042684473097324e-03
-3.590875770896673203e-03
6.791910622268915176e-03
-3.427470102906227112e-03
3.843674494419246912e-04
-1.552457339130342007e-03
4.687997978180646896e-03
-7.401717011816799641e-04
1.685922616161406040e-03
-9.591018897481262684e-04
-3.647614270448684692e-03
-1.091545098461210728e-03
-3.242701932322233915e-04
4.138770047575235367e-03
-6.533419713377952576e-03
-7.455369923263788223e-03
-4.548848606646060944e-03
-1.990754855796694756e-03
4.960195627063512802e-03
-1.277006580494344234e-03
5.575845483690500259e-03
1.259391428902745247e-03
-3.536606673151254654e-03
5.243091378360986710e-03
-7.688980083912611008e-03
-8.588410913944244385e-03
2.673551905900239944e-03
-3.476180369034409523e-03
-5.300182849168777466e-03
-5.492022726684808731e-03
1.547120860777795315e-03
-2.689969958737492561e-03
1.520110177807509899e-03
-3.930970095098018646e-03
-4.727402701973915100e-03
1.297552138566970825e-03
-2.808840654324740171e-04
-3.650985658168792725e-03
-7.713448256254196167e-03
-4.813504870980978012e-03
-1.065193908289074898e-03
-1.970404700841754675e-04
7.247038185596466064e-03
-3.022450022399425507e-03
-2.044059569016098976e-03
9.317688643932342529e-03
-1.579396543093025684e-03
1.494008116424083710e-03
-3.474471159279346466e-03
-4.352534655481576920e-03
7.372733089141547680e-04
1.684786402620375156e-04
-2.959675854071974754e-03
-4.394097253680229187e-03
-3.242263337597250938e-03
-7.155366707593202591e-03
-1.664731767959892750e-03
-7.329636719077825546e-03
4.937458783388137817e-03
1.309884013608098030e-03
-1.844600657932460308e-03
8.847846649587154388e-03
-4.681067075580358505e-03
-1.209016772918403149e-03
-5.461493507027626038e-03
-5.428561940789222717e-03
8.737538009881973267e-03
-5.517842248082160950e-03
-3.630080260336399078e-03
-6.249970174394547939e-04
-4.620818886905908585e-03
-6.760370917618274689e-03
-1.043207827024161816e-03
6.229386664927005768e-03
1.683356123976409435e-03
6.311856210231781006e-03
2.360209822654724121e-03
-3.096032654866576195e-03
-3.059837734326720238e-03
-7.488482631742954254e-03
